<?xml version="1.0"?>
<opencv_storage>
<shapeML type_id="opencv-ml-ann-mlp">
  <layer_sizes type_id="opencv-matrix">
    <rows>1</rows>
    <cols>3</cols>
    <dt>i</dt>
    <data>
      1600 40 1</data></layer_sizes>
  <activation_function>SIGMOID_SYM</activation_function>
  <f_param1>5.9999999999999998e-01</f_param1>
  <f_param2>1.</f_param2>
  <min_val>-9.4999999999999996e-01</min_val>
  <max_val>9.4999999999999996e-01</max_val>
  <min_val1>-9.7999999999999998e-01</min_val1>
  <max_val1>9.7999999999999998e-01</max_val1>
  <training_params>
    <train_method>BACKPROP</train_method>
    <dw_scale>1.0000000000000001e-01</dw_scale>
    <moment_scale>1.0000000000000001e-01</moment_scale>
    <term_criteria><epsilon>9.9999999747524271e-07</epsilon>
      <iterations>4000</iterations></term_criteria></training_params>
  <input_scale>
    5.9989017365324228e-02 -6.5653216429861272e-02
    3.0190339981575672e-02 -1.3216372009101796e-01
    4.2510357063302688e-02 -9.3048421039847076e-02
    5.9989017365324228e-02 -6.5653216429861272e-02
    3.4784934924914371e-02 -1.1420804814403215e-01
    3.4784934924914371e-02 -1.1420804814403215e-01
    3.0190339981575672e-02 -1.3216372009101796e-01
    2.7062213434876178e-02 -1.4808721943977307e-01
    2.2972724323714645e-02 -1.7599275930399416e-01
    2.0350284106403556e-02 -2.0044593143431830e-01
    1.9349213161532753e-02 -2.1176177494381340e-01
    1.7743078775459203e-02 -2.3302069121418523e-01
    1.7743078775459203e-02 -2.3302069121418523e-01
    1.7085697935056512e-02 -2.4308621740219885e-01
    1.5978715501015869e-02 -2.6231153129350088e-01
    1.5506931996019262e-02 -2.7153769332085226e-01
    1.4329533543954776e-02 -2.9796819751270764e-01
    1.7085697935056512e-02 -2.4308621740219885e-01
    1.7743078775459203e-02 -2.3302069121418523e-01
    1.2901404046166949e-02 -3.3886949683494305e-01
    1.1879595629972166e-02 -3.7703695143194921e-01
    1.3147469597555521e-02 -3.3094381626464864e-01
    1.5506931996019262e-02 -2.7153769332085226e-01
    1.5978715501015869e-02 -2.6231153129350088e-01
    2.4758662902469281e-02 -1.6257834438102145e-01
    2.4758662902469281e-02 -1.6257834438102145e-01
    2.7062213434876178e-02 -1.4808721943977307e-01
    1.6501737158095036e-02 -2.5283777534076940e-01
    1.7085697935056512e-02 -2.4308621740219885e-01
    2.1536716342021645e-02 -1.8856180831641267e-01
    2.0350284106403556e-02 -2.0044593143431830e-01
    2.1536716342021645e-02 -1.8856180831641267e-01
    2.2972724323714645e-02 -1.7599275930399416e-01
    2.7062213434876178e-02 -1.4808721943977307e-01
    3.0190339981575672e-02 -1.3216372009101796e-01
    2.7062213434876178e-02 -1.4808721943977307e-01
    3.4784934924914371e-02 -1.1420804814403215e-01
    4.2510357063302688e-02 -9.3048421039847076e-02
    5.9989017365324228e-02 -6.5653216429861272e-02
    3.4784934924914371e-02 -1.1420804814403215e-01
    3.4784934924914371e-02 -1.1420804814403215e-01
    2.7062213434876178e-02 -1.4808721943977307e-01
    4.2510357063302688e-02 -9.3048421039847076e-02
    4.2510357063302688e-02 -9.3048421039847076e-02
    2.7062213434876178e-02 -1.4808721943977307e-01
    2.7062213434876178e-02 -1.4808721943977307e-01
    2.4758662902469281e-02 -1.6257834438102145e-01
    2.2972724323714645e-02 -1.7599275930399416e-01
    1.8490255434736296e-02 -2.2259728109199706e-01
    1.7743078775459203e-02 -2.3302069121418523e-01
    1.4687918636040003e-02 -2.8934569330224730e-01
    1.3147469597555521e-02 -3.3094381626464864e-01
    1.2901404046166949e-02 -3.3886949683494305e-01
    1.2060346747273522e-02 -3.6957457414391820e-01
    1.1108354831560707e-02 -4.1334522055635764e-01
    1.0399371440215157e-02 -4.5525145360598546e-01
    1.0614673414265113e-02 -4.4144285572630448e-01
    1.0108918898754652e-02 -4.7572659109375431e-01
    9.8518098627596064e-03 -4.9597308879901369e-01
    1.0729681804523319e-02 -4.3448303787844422e-01
    1.0019787250040928e-02 -4.8249790963716399e-01
    1.0850040945871208e-02 -4.2748229992745790e-01
    1.0504673830023799e-02 -4.4836472635015745e-01
    1.0976126996500142e-02 -4.2043748259126085e-01
    1.2060346747273522e-02 -3.6957457414391820e-01
    1.2671092717693960e-02 -3.4668762264076824e-01
    1.4687918636040003e-02 -2.8934569330224730e-01
    1.2901404046166949e-02 -3.3886949683494305e-01
    1.2901404046166949e-02 -3.3886949683494305e-01
    1.4687918636040003e-02 -2.8934569330224730e-01
    1.7085697935056512e-02 -2.4308621740219885e-01
    1.8490255434736296e-02 -2.2259728109199706e-01
    1.7743078775459203e-02 -2.3302069121418523e-01
    1.8490255434736296e-02 -2.2259728109199706e-01
    1.9349213161532753e-02 -2.1176177494381340e-01
    1.9349213161532753e-02 -2.1176177494381340e-01
    2.4758662902469281e-02 -1.6257834438102145e-01
    3.4784934924914371e-02 -1.1420804814403215e-01
    3.0190339981575672e-02 -1.3216372009101796e-01
    2.7062213434876178e-02 -1.4808721943977307e-01
    5.9989017365324228e-02 -6.5653216429861272e-02
    2.7062213434876178e-02 -1.4808721943977307e-01
    2.7062213434876178e-02 -1.4808721943977307e-01
    3.0190339981575672e-02 -1.3216372009101796e-01
    2.4758662902469281e-02 -1.6257834438102145e-01
    2.1536716342021645e-02 -1.8856180831641267e-01
    2.0350284106403556e-02 -2.0044593143431830e-01
    2.0350284106403556e-02 -2.0044593143431830e-01
    1.4329533543954776e-02 -2.9796819751270764e-01
    1.3147469597555521e-02 -3.3094381626464864e-01
    1.1879595629972166e-02 -3.7703695143194921e-01
    1.1393121338876397e-02 -3.9900373444305315e-01
    1.0729681804523319e-02 -4.3448303787844422e-01
    9.8518098627596064e-03 -4.9597308879901369e-01
    9.9341464719903301e-03 -4.8924605479008171e-01
    9.2937790891165582e-03 -5.4925037792761811e-01
    9.1226702878722116e-03 -5.6909018297949610e-01
    8.9684432387452696e-03 -5.8891494228670660e-01
    8.9204466382942372e-03 -5.9552595475822689e-01
    9.1777261303843984e-03 -5.6248038258321542e-01
    9.0181013252877348e-03 -5.8230615639036043e-01
    9.1777261303843984e-03 -5.6248038258321542e-01
    9.3549517792359885e-03 -5.4262735320332356e-01
    9.5522392959224156e-03 -5.2270837348931676e-01
    9.3549517792359885e-03 -5.4262735320332356e-01
    9.4183490436170175e-03 -5.3599703140927746e-01
    1.0614673414265113e-02 -4.4144285572630448e-01
    1.0976126996500142e-02 -4.2043748259126085e-01
    1.1108354831560707e-02 -4.1334522055635764e-01
    1.2251809862956027e-02 -3.6203309401910833e-01
    1.4329533543954776e-02 -2.9796819751270764e-01
    1.4687918636040003e-02 -2.8934569330224730e-01
    1.5078717484546738e-02 -2.8054180384339100e-01
    1.4687918636040003e-02 -2.8934569330224730e-01
    1.5506931996019262e-02 -2.7153769332085226e-01
    1.5506931996019262e-02 -2.7153769332085226e-01
    2.0350284106403556e-02 -2.0044593143431830e-01
    2.1536716342021645e-02 -1.8856180831641267e-01
    2.1536716342021645e-02 -1.8856180831641267e-01
    3.0190339981575672e-02 -1.3216372009101796e-01 1. 0.
    4.2510357063302688e-02 -9.3048421039847076e-02
    2.1536716342021645e-02 -1.8856180831641267e-01
    2.0350284106403556e-02 -2.0044593143431830e-01
    1.9349213161532753e-02 -2.1176177494381340e-01
    1.9349213161532753e-02 -2.1176177494381340e-01
    1.6501737158095036e-02 -2.5283777534076940e-01
    1.2455004646112461e-02 -3.5440635538079662e-01
    1.2671092717693960e-02 -3.4668762264076824e-01
    1.1247183293405696e-02 -4.0620192023179796e-01
    1.1546735270468020e-02 -3.9174653353240219e-01
    9.9341464719903301e-03 -4.8924605479008171e-01
    9.5522392959224156e-03 -5.2270837348931676e-01
    9.1226702878722116e-03 -5.6909018297949610e-01
    9.1226702878722116e-03 -5.6909018297949610e-01
    8.6641167379366557e-03 -6.3530658569805909e-01
    8.4546244105902953e-03 -6.7546280430531469e-01
    8.3369669305991250e-03 -7.0255942352924383e-01
    8.4866551326834780e-03 -6.6873385509042349e-01
    8.6641167379366557e-03 -6.3530658569805909e-01
    8.3937603479755062e-03 -6.8897281826193801e-01
    8.3369669305991250e-03 -7.0255942352924383e-01
    8.3648685043486437e-03 -6.9575601551191724e-01
    8.2840332720548766e-03 -7.1623111701950859e-01
    8.5197933108117022e-03 -6.6202084932294369e-01
    8.9204466382942372e-03 -5.9552595475822689e-01
    9.0694869339304623e-03 -5.7569833370313961e-01
    8.9204466382942372e-03 -5.9552595475822689e-01
    1.0399371440215157e-02 -4.5525145360598546e-01
    1.0504673830023799e-02 -4.4836472635015745e-01
    1.0850040945871208e-02 -4.2748229992745790e-01
    1.1708657284586149e-02 -3.8442587221924479e-01
    1.5506931996019262e-02 -2.7153769332085226e-01
    1.5078717484546738e-02 -2.8054180384339100e-01
    1.5078717484546738e-02 -2.8054180384339100e-01
    1.5078717484546738e-02 -2.8054180384339100e-01
    1.7743078775459203e-02 -2.3302069121418523e-01
    1.9349213161532753e-02 -2.1176177494381340e-01
    2.4758662902469281e-02 -1.6257834438102145e-01
    2.7062213434876178e-02 -1.4808721943977307e-01
    5.9989017365324228e-02 -6.5653216429861272e-02
    2.4758662902469281e-02 -1.6257834438102145e-01
    2.4758662902469281e-02 -1.6257834438102145e-01
    1.6501737158095036e-02 -2.5283777534076940e-01
    1.5078717484546738e-02 -2.8054180384339100e-01
    1.5078717484546738e-02 -2.8054180384339100e-01
    1.2455004646112461e-02 -3.5440635538079662e-01
    1.1247183293405696e-02 -4.0620192023179796e-01
    1.0850040945871208e-02 -4.2748229992745790e-01
    1.0201743777168525e-02 -4.6892993928529997e-01
    9.4840745377584076e-03 -5.2935789426415492e-01
    9.2347340910160277e-03 -5.5586757779613649e-01
    8.8740493720456965e-03 -6.0214043163966724e-01
    8.5895274357169725e-03 -6.4863834863279024e-01
    8.5540723342696825e-03 -6.5532270887001642e-01
    8.3937603479755062e-03 -6.8897281826193801e-01
    8.0077452495138039e-03 -8.1503724717690917e-01
    8.1073642654410864e-03 -7.7193938295626829e-01
    8.3100299718776010e-03 -7.0938410360792048e-01
    8.4236694895426564e-03 -6.8220876938914121e-01
    8.2589537045338057e-03 -7.2310152606218736e-01
    8.4546244105902953e-03 -6.7546280430531469e-01
    8.3369669305991250e-03 -7.0255942352924383e-01
    8.3100299718776010e-03 -7.0938410360792048e-01
    8.5197933108117022e-03 -6.6202084932294369e-01
    8.3369669305991250e-03 -7.0255942352924383e-01
    8.3648685043486437e-03 -6.9575601551191724e-01
    8.6261958091912311e-03 -6.4196667524195683e-01
    9.2347340910160277e-03 -5.5586757779613649e-01
    9.6229624045072928e-03 -5.1604684654214006e-01
    1.0298481611642731e-02 -4.6210568776705907e-01
    1.0850040945871208e-02 -4.2748229992745790e-01
    1.2455004646112461e-02 -3.5440635538079662e-01
    1.4687918636040003e-02 -2.8934569330224730e-01
    1.4687918636040003e-02 -2.8934569330224730e-01
    1.3694247185679617e-02 -3.1473259089834482e-01
    1.5978715501015869e-02 -2.6231153129350088e-01
    1.8490255434736296e-02 -2.2259728109199706e-01
    2.2972724323714645e-02 -1.7599275930399416e-01
    2.1536716342021645e-02 -1.8856180831641267e-01
    5.9989017365324228e-02 -6.5653216429861272e-02
    2.1536716342021645e-02 -1.8856180831641267e-01
    1.8490255434736296e-02 -2.2259728109199706e-01
    1.5506931996019262e-02 -2.7153769332085226e-01
    1.3411062069516103e-02 -3.2290153738191130e-01
    1.2060346747273522e-02 -3.6957457414391820e-01
    1.0976126996500142e-02 -4.2043748259126085e-01
    1.0298481611642731e-02 -4.6210568776705907e-01
    9.6963717524388305e-03 -5.0937163197361068e-01
    9.3549517792359885e-03 -5.4262735320332356e-01
    9.2937790891165582e-03 -5.4925037792761811e-01
    8.9204466382942372e-03 -5.9552595475822689e-01
    8.5540723342696825e-03 -6.5532270887001642e-01
    8.6641167379366557e-03 -6.3530658569805909e-01
    8.2840332720548766e-03 -7.1623111701950859e-01
    8.1073642654410864e-03 -7.7193938295626829e-01
    7.8751883123415259e-03 -9.1358944241455553e-01
    7.9439374975850425e-03 -8.5201286723025837e-01
    7.9134905503718076e-03 -8.7472939538551897e-01
    8.0889174514013271e-03 -7.7903565497616212e-01
    8.0225470093718519e-03 -8.0776374609383550e-01
    8.0889174514013271e-03 -7.7903565497616212e-01
    8.2347693079450265e-03 -7.2999639508843150e-01
    8.1890036535635646e-03 -7.4386378681404652e-01
    8.0380531257558622e-03 -8.0052799477753134e-01
    8.0712256876301278e-03 -7.8616509433805049e-01
    8.0225470093718519e-03 -8.0776374609383550e-01
    8.3100299718776010e-03 -7.0938410360792048e-01
    8.7858220211161388e-03 -6.1538461538461531e-01
    9.0694869339304623e-03 -5.7569833370313961e-01
    9.6963717524388305e-03 -5.0937163197361068e-01
    9.6229624045072928e-03 -5.1604684654214006e-01
    1.0614673414265113e-02 -4.4144285572630448e-01
    1.1247183293405696e-02 -4.0620192023179796e-01
    1.2671092717693960e-02 -3.4668762264076824e-01
    1.2251809862956027e-02 -3.6203309401910833e-01
    1.5078717484546738e-02 -2.8054180384339100e-01
    1.7085697935056512e-02 -2.4308621740219885e-01
    2.0350284106403556e-02 -2.0044593143431830e-01
    1.9349213161532753e-02 -2.1176177494381340e-01
    5.9989017365324228e-02 -6.5653216429861272e-02
    1.7743078775459203e-02 -2.3302069121418523e-01
    1.5978715501015869e-02 -2.6231153129350088e-01
    1.2671092717693960e-02 -3.4668762264076824e-01
    1.1708657284586149e-02 -3.8442587221924479e-01
    1.1247183293405696e-02 -4.0620192023179796e-01
    1.0298481611642731e-02 -4.6210568776705907e-01
    1.0108918898754652e-02 -4.7572659109375431e-01
    9.1226702878722116e-03 -5.6909018297949610e-01
    9.0181013252877348e-03 -5.8230615639036043e-01
    9.0181013252877348e-03 -5.8230615639036043e-01
    8.5895274357169725e-03 -6.4863834863279024e-01
    8.2347693079450265e-03 -7.2999639508843150e-01
    8.2347693079450265e-03 -7.2999639508843150e-01
    7.9674590585652599e-03 -8.3709612769818698e-01
    7.8816311434690457e-03 -9.0571104663683988e-01
    7.8693448832425367e-03 -9.2152392763636315e-01
    7.8751883123415259e-03 -9.1358944241455553e-01
    7.8518923337404217e-03 -9.5385327256018304e-01
    7.8449437550928824e-03 -9.7876615862897032e-01
    7.8594408361558031e-03 -9.3756720189249165e-01
    7.9674590585652599e-03 -8.3709612769818698e-01
    8.0077452495138039e-03 -8.1503724717690917e-01
    7.9553706597680508e-03 -8.4453258913889584e-01
    8.0542752474556337e-03 -7.9332882802191762e-01
    7.9134905503718076e-03 -8.7472939538551897e-01
    7.9674590585652599e-03 -8.3709612769818698e-01
    8.0225470093718519e-03 -8.0776374609383550e-01
    8.2589537045338057e-03 -7.2310152606218736e-01
    8.3369669305991250e-03 -7.0255942352924383e-01
    8.8740493720456965e-03 -6.0214043163966724e-01
    9.0181013252877348e-03 -5.8230615639036043e-01
    9.1226702878722116e-03 -5.6909018297949610e-01
    9.8518098627596064e-03 -4.9597308879901369e-01
    1.0614673414265113e-02 -4.4144285572630448e-01
    1.2060346747273522e-02 -3.6957457414391820e-01
    1.3147469597555521e-02 -3.3094381626464864e-01
    1.4329533543954776e-02 -2.9796819751270764e-01
    1.7085697935056512e-02 -2.4308621740219885e-01
    2.1536716342021645e-02 -1.8856180831641267e-01
    2.4758662902469281e-02 -1.6257834438102145e-01
    1.5978715501015869e-02 -2.6231153129350088e-01
    1.4329533543954776e-02 -2.9796819751270764e-01
    1.1708657284586149e-02 -3.8442587221924479e-01
    1.0729681804523319e-02 -4.3448303787844422e-01
    1.1546735270468020e-02 -3.9174653353240219e-01
    9.4840745377584076e-03 -5.2935789426415492e-01
    8.7438846837143130e-03 -6.2201668941014909e-01
    8.6261958091912311e-03 -6.4196667524195683e-01
    8.7033317330071341e-03 -6.2865696595068699e-01
    8.4236694895426564e-03 -6.8220876938914121e-01
    7.9936368360324968e-03 -8.2234967793862201e-01
    7.9134905503718076e-03 -8.7472939538551897e-01
    7.8816311434690457e-03 -9.0571104663683988e-01
    7.8963329490892523e-03 -8.9011667342415968e-01
    7.8886777529619187e-03 -8.9788727042296168e-01
    7.8518923337404217e-03 -9.5385327256018304e-01
    7.8693448832425367e-03 -9.2152392763636315e-01
    7.8466791701688812e-03 -9.7039510853397559e-01
    7.8449437550928841e-03 -1.0216944989197150e+00
    7.8432094909498627e-03 -9.9571732507423583e-01
    7.8518923337404217e-03 -9.5385327256018304e-01
    7.8437874511946282e-03 -1.0129595038903279e+00
    7.8466791701688830e-03 -1.0305080798590893e+00
    7.8432094909498627e-03 -1.0043010951179792e+00
    7.9134905503718076e-03 -8.7472939538551897e-01
    7.9134905503718076e-03 -8.7472939538551897e-01
    7.9439374975850425e-03 -8.5201286723025837e-01
    8.1673837814014369e-03 -7.5083845750050970e-01
    8.1265806096903551e-03 -7.6487516210519091e-01
    8.1465817513631193e-03 -7.5784188609783520e-01
    8.3369669305991250e-03 -7.0255942352924383e-01
    8.7033317330071341e-03 -6.2865696595068699e-01
    8.7858220211161388e-03 -6.1538461538461531e-01
    1.0298481611642731e-02 -4.6210568776705907e-01
    1.0729681804523319e-02 -4.3448303787844422e-01
    1.2671092717693960e-02 -3.4668762264076824e-01
    1.3694247185679617e-02 -3.1473259089834482e-01
    1.6501737158095036e-02 -2.5283777534076940e-01
    1.9349213161532753e-02 -2.1176177494381340e-01
    1.8490255434736296e-02 -2.2259728109199706e-01
    1.5078717484546738e-02 -2.8054180384339100e-01
    1.3999448944839576e-02 -3.0642570651794782e-01
    1.2455004646112461e-02 -3.5440635538079662e-01
    1.1247183293405696e-02 -4.0620192023179796e-01
    1.0108918898754652e-02 -4.7572659109375431e-01
    9.0181013252877348e-03 -5.8230615639036043e-01
    8.4546244105902953e-03 -6.7546280430531469e-01
    8.2114592263442272e-03 -7.3691679151441114e-01
    8.2347693079450265e-03 -7.2999639508843150e-01
    8.0380531257558622e-03 -8.0052799477753134e-01
    7.8751883123415259e-03 -9.1358944241455553e-01
    7.8751883123415259e-03 -9.1358944241455553e-01
    7.8816311434690457e-03 -9.0571104663683988e-01
    7.9134905503718076e-03 -8.7472939538551897e-01
    7.8886777529619187e-03 -8.9788727042296168e-01
    7.8432094909498627e-03 -1.0043010951179792e+00
    7.8466791701688830e-03 -1.0305080798590893e+00
    7.8437874511946282e-03 -9.8720629616430244e-01
    7.8432094909498627e-03 -1.0043010951179792e+00
    7.8594408361558031e-03 -9.3756720189249165e-01
    7.8594408361558048e-03 -1.0665902113272385e+00
    7.8594408361558048e-03 -1.0665902113272385e+00
    7.8449437550928841e-03 -1.0216944989197150e+00
    7.8553735541879999e-03 -9.4567909096555114e-01
    7.8437874511946282e-03 -1.0129595038903279e+00
    7.8594408361558031e-03 -9.3756720189249165e-01
    7.9134905503718076e-03 -8.7472939538551897e-01
    7.9046019812965256e-03 -8.8239784349151340e-01
    7.9331514267617781e-03 -8.5953823076652824e-01
    7.9674590585652599e-03 -8.3709612769818698e-01
    7.9674590585652599e-03 -8.3709612769818698e-01
    8.1073642654410864e-03 -7.7193938295626829e-01
    8.4866551326834780e-03 -6.6873385509042349e-01
    8.8740493720456965e-03 -6.0214043163966724e-01
    1.0108918898754652e-02 -4.7572659109375431e-01
    1.0850040945871208e-02 -4.2748229992745790e-01
    1.2455004646112461e-02 -3.5440635538079662e-01
    1.4687918636040003e-02 -2.8934569330224730e-01
    1.7743078775459203e-02 -2.3302069121418523e-01
    1.9349213161532753e-02 -2.1176177494381340e-01
    1.4687918636040003e-02 -2.8934569330224730e-01
    1.3999448944839576e-02 -3.0642570651794782e-01
    1.1546735270468020e-02 -3.9174653353240219e-01
    9.6963717524388305e-03 -5.0937163197361068e-01
    8.8740493720456965e-03 -6.0214043163966724e-01
    8.7033317330071341e-03 -6.2865696595068699e-01
    8.2589537045338057e-03 -7.2310152606218736e-01
    7.9936368360324968e-03 -8.2234967793862201e-01
    7.9331514267617781e-03 -8.5953823076652824e-01
    7.8816311434690457e-03 -9.0571104663683988e-01
    7.8640969034102660e-03 -9.2951600308978000e-01
    7.8640969034102660e-03 -9.2951600308978000e-01
    7.8518923337404217e-03 -9.5385327256018304e-01
    7.8518923337404217e-03 -9.5385327256018304e-01
    7.8594408361558048e-03 -1.0665902113272385e+00
    7.8751883123415242e-03 -1.0945835772325332e+00
    7.8553735541879999e-03 -1.0574411653523890e+00
    7.8553735541879999e-03 -9.4567909096555114e-01
    7.8437874511946282e-03 -1.0129595038903279e+00
    7.8553735541879999e-03 -1.0574411653523890e+00
    7.8751883123415242e-03 -1.0945835772325332e+00
    7.9553706597680490e-03 -1.1840869291019569e+00
    7.8553735541879999e-03 -1.0574411653523890e+00
    7.9134905503718041e-03 -1.1432106949592915e+00
    7.8816311434690457e-03 -1.1041048949477668e+00
    7.8437874511946282e-03 -9.8720629616430244e-01
    7.8553735541879999e-03 -1.0574411653523890e+00
    7.8432094909498627e-03 -9.9571732507423583e-01
    7.8518923337404217e-03 -9.5385327256018304e-01
    7.8751883123415259e-03 -9.1358944241455553e-01
    7.9331514267617781e-03 -8.5953823076652824e-01
    8.0225470093718519e-03 -8.0776374609383550e-01
    8.1265806096903551e-03 -7.6487516210519091e-01
    8.3648685043486437e-03 -6.9575601551191724e-01
    9.2937790891165582e-03 -5.4925037792761811e-01
    1.0108918898754652e-02 -4.7572659109375431e-01
    1.1546735270468020e-02 -3.9174653353240219e-01
    1.3694247185679617e-02 -3.1473259089834482e-01
    1.5978715501015869e-02 -2.6231153129350088e-01
    1.7085697935056512e-02 -2.4308621740219885e-01
    1.3411062069516103e-02 -3.2290153738191130e-01
    1.2060346747273522e-02 -3.6957457414391820e-01
    1.0019787250040928e-02 -4.8249790963716399e-01
    8.7858220211161388e-03 -6.1538461538461531e-01
    8.6641167379366557e-03 -6.3530658569805909e-01
    8.5895274357169725e-03 -6.4863834863279024e-01
    8.2114592263442272e-03 -7.3691679151441114e-01
    8.0542752474556337e-03 -7.9332882802191762e-01
    7.8594408361558031e-03 -9.3756720189249165e-01
    7.8518923337404217e-03 -1.0483792725436245e+00
    7.8449437550928824e-03 -9.7876615862897032e-01
    7.8489948494786035e-03 -9.6209138584166909e-01
    7.8437874511946282e-03 -1.0129595038903279e+00
    7.8640969034102677e-03 -1.0758287072798383e+00
    7.9331514267617781e-03 -1.1634153830577252e+00
    7.9936368360324968e-03 -1.2160277152496646e+00
    7.8751883123415242e-03 -1.0945835772325332e+00
    7.8489948494786053e-03 -1.0394023007753750e+00
    7.9439374975850408e-03 -1.1736911946539272e+00
    7.8751883123415242e-03 -1.0945835772325332e+00
    7.8886777529619187e-03 -1.1137255565823274e+00
    8.0712256876301278e-03 -1.2719974560076321e+00
    7.9802113734389647e-03 -1.2052516662288291e+00
    7.9439374975850408e-03 -1.1736911946539272e+00
    7.9802113734389647e-03 -1.2052516662288291e+00
    7.9331514267617781e-03 -1.1634153830577252e+00
    8.0225470093718519e-03 -1.2379857412959869e+00
    7.8816311434690457e-03 -1.1041048949477668e+00
    7.9331514267617781e-03 -1.1634153830577252e+00
    7.8489948494786053e-03 -1.0394023007753750e+00
    7.8693448832425367e-03 -9.2152392763636315e-01
    7.8963329490892523e-03 -8.9011667342415968e-01
    7.9802113734389630e-03 -8.2970223399810672e-01
    8.0712256876301278e-03 -7.8616509433805049e-01
    8.5895274357169725e-03 -6.4863834863279024e-01
    9.4840745377584076e-03 -5.2935789426415492e-01
    1.1108354831560707e-02 -4.1334522055635764e-01
    1.2455004646112461e-02 -3.5440635538079662e-01
    1.5078717484546738e-02 -2.8054180384339100e-01
    1.9349213161532753e-02 -2.1176177494381340e-01
    1.3147469597555521e-02 -3.3094381626464864e-01
    1.0976126996500142e-02 -4.2043748259126085e-01
    8.9684432387452696e-03 -5.8891494228670660e-01
    8.4546244105902953e-03 -6.7546280430531469e-01
    8.5197933108117022e-03 -6.6202084932294369e-01
    8.3648685043486437e-03 -6.9575601551191724e-01
    7.9936368360324968e-03 -8.2234967793862201e-01
    7.9046019812965256e-03 -8.8239784349151340e-01
    7.8489948494786035e-03 -9.6209138584166909e-01
    7.8489948494786053e-03 -1.0394023007753750e+00
    7.8518923337404217e-03 -1.0483792725436245e+00
    7.8518923337404217e-03 -9.5385327256018304e-01
    7.8466791701688812e-03 -9.7039510853397559e-01
    7.8751883123415242e-03 -1.0945835772325332e+00
    8.0380531257558639e-03 -1.2491755522902139e+00
    8.0077452495138039e-03 -1.2269377914491109e+00
    7.8963329490892523e-03 -1.1234482285935996e+00
    7.9230048195733319e-03 -1.1532562594670797e+00
    8.0380531257558639e-03 -1.2491755522902139e+00
    7.9439374975850408e-03 -1.1736911946539272e+00
    7.9439374975850408e-03 -1.1736911946539272e+00
    7.9230048195733319e-03 -1.1532562594670797e+00
    7.9553706597680490e-03 -1.1840869291019569e+00
    7.9553706597680490e-03 -1.1840869291019569e+00
    7.9802113734389647e-03 -1.2052516662288291e+00
    8.1073642654410846e-03 -1.2954385047312085e+00
    8.2114592263442272e-03 -1.3570053112033666e+00
    8.1073642654410846e-03 -1.2954385047312085e+00
    8.0077452495138039e-03 -1.2269377914491109e+00
    7.9674590585652599e-03 -1.1946059322359543e+00
    7.8449437550928841e-03 -1.0216944989197150e+00
    7.8466791701688830e-03 -1.0305080798590893e+00
    7.8518923337404217e-03 -9.5385327256018304e-01
    7.9230048195733319e-03 -8.6710996952412001e-01
    8.1465817513631193e-03 -7.5784188609783520e-01
    8.9204466382942372e-03 -5.9552595475822689e-01
    1.0201743777168525e-02 -4.6892993928529997e-01
    1.3147469597555521e-02 -3.3094381626464864e-01
    1.5078717484546738e-02 -2.8054180384339100e-01
    1.8490255434736296e-02 -2.2259728109199706e-01
    1.2901404046166949e-02 -3.3886949683494305e-01
    1.0298481611642731e-02 -4.6210568776705907e-01
    8.9684432387452696e-03 -5.8891494228670660e-01
    8.2840332720548766e-03 -7.1623111701950859e-01
    8.0712256876301278e-03 -7.8616509433805049e-01
    7.9331514267617781e-03 -8.5953823076652824e-01
    7.9046019812965256e-03 -8.8239784349151340e-01
    7.8518923337404217e-03 -9.5385327256018304e-01
    7.8553735541879999e-03 -1.0574411653523890e+00
    7.8466791701688812e-03 -9.7039510853397559e-01
    7.8518923337404217e-03 -1.0483792725436245e+00
    7.8553735541879999e-03 -1.0574411653523890e+00
    7.8640969034102677e-03 -1.0758287072798383e+00
    8.0542752474556355e-03 -1.2605113600792694e+00
    8.1073642654410846e-03 -1.2954385047312085e+00
    8.0542752474556355e-03 -1.2605113600792694e+00
    7.9936368360324968e-03 -1.2160277152496646e+00
    8.0225470093718519e-03 -1.2379857412959869e+00
    8.0380531257558639e-03 -1.2491755522902139e+00
    8.0380531257558639e-03 -1.2491755522902139e+00
    7.9936368360324968e-03 -1.2160277152496646e+00
    7.9331514267617781e-03 -1.1634153830577252e+00
    8.0380531257558639e-03 -1.2491755522902139e+00
    8.0225470093718519e-03 -1.2379857412959869e+00
    8.1265806096903551e-03 -1.3074028933658495e+00
    8.7033317330071341e-03 -1.5906926259661320e+00
    8.5540723342696825e-03 -1.5259657363687527e+00
    8.2840332720548766e-03 -1.3961973673544850e+00
    7.9331514267617781e-03 -1.1634153830577252e+00
    7.9331514267617781e-03 -1.1634153830577252e+00
    7.8751883123415242e-03 -1.0945835772325332e+00
    7.8594408361558048e-03 -1.0665902113272385e+00
    7.8594408361558048e-03 -1.0665902113272385e+00
    7.8553735541879999e-03 -9.4567909096555114e-01
    8.0380531257558622e-03 -8.0052799477753134e-01
    8.4236694895426564e-03 -6.8220876938914121e-01
    9.6963717524388305e-03 -5.0937163197361068e-01
    1.2671092717693960e-02 -3.4668762264076824e-01
    1.5078717484546738e-02 -2.8054180384339100e-01
    1.5978715501015869e-02 -2.6231153129350088e-01
    1.1393121338876397e-02 -3.9900373444305315e-01
    9.2347340910160277e-03 -5.5586757779613649e-01
    8.7438846837143130e-03 -6.2201668941014909e-01
    8.1265806096903551e-03 -7.6487516210519091e-01
    7.9230048195733319e-03 -8.6710996952412001e-01
    7.8751883123415259e-03 -9.1358944241455553e-01
    7.8437874511946282e-03 -9.8720629616430244e-01
    7.8553735541879999e-03 -1.0574411653523890e+00
    7.8693448832425385e-03 -1.0851590175904842e+00
    7.8553735541879999e-03 -1.0574411653523890e+00
    7.8553735541879999e-03 -1.0574411653523890e+00
    7.9331514267617781e-03 -1.1634153830577252e+00
    7.9674590585652599e-03 -1.1946059322359543e+00
    7.9439374975850408e-03 -1.1736911946539272e+00
    8.0542752474556355e-03 -1.2605113600792694e+00
    7.9936368360324968e-03 -1.2160277152496646e+00
    7.9802113734389647e-03 -1.2052516662288291e+00
    8.0380531257558639e-03 -1.2491755522902139e+00
    8.1265806096903551e-03 -1.3074028933658495e+00
    8.1073642654410846e-03 -1.2954385047312085e+00
    8.0380531257558639e-03 -1.2491755522902139e+00
    7.9936368360324968e-03 -1.2160277152496646e+00
    8.2589537045338040e-03 -1.3829316685939328e+00
    8.2840332720548766e-03 -1.3961973673544850e+00
    8.4236694895426564e-03 -1.4658269504442361e+00
    8.8291928958836897e-03 -1.6426846010152700e+00
    8.4866551326834780e-03 -1.4953632037438636e+00
    8.3100299718776010e-03 -1.4096735392208677e+00
    8.1265806096903551e-03 -1.3074028933658495e+00
    7.9674590585652599e-03 -1.1946059322359543e+00
    7.9230048195733319e-03 -1.1532562594670797e+00
    7.8489948494786053e-03 -1.0394023007753750e+00
    7.8553735541879999e-03 -9.4567909096555114e-01
    7.8449437550928824e-03 -9.7876615862897032e-01
    7.9439374975850425e-03 -8.5201286723025837e-01
    8.6261958091912311e-03 -6.4196667524195683e-01
    9.3549517792359885e-03 -5.4262735320332356e-01
    9.9341464719903301e-03 -4.8924605479008171e-01
    1.3694247185679617e-02 -3.1473259089834482e-01
    1.2671092717693960e-02 -3.4668762264076824e-01
    1.0298481611642731e-02 -4.6210568776705907e-01
    9.2937790891165582e-03 -5.4925037792761811e-01
    8.4546244105902953e-03 -6.7546280430531469e-01
    7.9802113734389630e-03 -8.2970223399810672e-01
    7.9046019812965256e-03 -8.8239784349151340e-01
    7.8437874511946282e-03 -9.8720629616430244e-01
    7.8518923337404217e-03 -1.0483792725436245e+00
    7.8751883123415242e-03 -1.0945835772325332e+00
    7.9046019812965239e-03 -1.1332756617391002e+00
    7.9134905503718041e-03 -1.1432106949592915e+00
    7.8886777529619187e-03 -1.1137255565823274e+00
    8.0889174514013271e-03 -1.2836382951311764e+00
    8.1890036535635629e-03 -1.3443321448446621e+00
    8.1265806096903551e-03 -1.3074028933658495e+00
    7.9674590585652599e-03 -1.1946059322359543e+00
    8.0077452495138039e-03 -1.2269377914491109e+00
    7.9802113734389647e-03 -1.2052516662288291e+00
    8.0542752474556355e-03 -1.2605113600792694e+00
    8.0542752474556355e-03 -1.2605113600792694e+00
    7.9674590585652599e-03 -1.1946059322359543e+00
    7.9134905503718041e-03 -1.1432106949592915e+00
    8.0542752474556355e-03 -1.2605113600792694e+00
    8.2589537045338040e-03 -1.3829316685939328e+00
    8.1673837814014369e-03 -1.3318444067568564e+00
    8.4866551326834780e-03 -1.4953632037438636e+00
    8.5197933108117022e-03 -1.5105264449340405e+00
    8.3100299718776010e-03 -1.4096735392208677e+00
    8.3648685043486437e-03 -1.4372854530969870e+00
    8.1890036535635629e-03 -1.3443321448446621e+00
    8.1890036535635629e-03 -1.3443321448446621e+00
    8.1673837814014369e-03 -1.3318444067568564e+00
    7.9331514267617781e-03 -1.1634153830577252e+00
    7.8466791701688830e-03 -1.0305080798590893e+00
    7.8518923337404217e-03 -9.5385327256018304e-01
    7.8693448832425367e-03 -9.2152392763636315e-01
    8.1890036535635646e-03 -7.4386378681404652e-01
    8.8740493720456965e-03 -6.0214043163966724e-01
    9.5522392959224156e-03 -5.2270837348931676e-01
    1.2060346747273522e-02 -3.6957457414391820e-01
    1.3147469597555521e-02 -3.3094381626464864e-01
    1.0108918898754652e-02 -4.7572659109375431e-01
    8.5540723342696825e-03 -6.5532270887001642e-01
    8.2347693079450265e-03 -7.2999639508843150e-01
    7.8640969034102660e-03 -9.2951600308978000e-01
    7.8489948494786035e-03 -9.6209138584166909e-01
    7.8489948494786053e-03 -1.0394023007753750e+00
    7.9439374975850408e-03 -1.1736911946539272e+00
    7.9936368360324968e-03 -1.2160277152496646e+00
    7.9046019812965239e-03 -1.1332756617391002e+00
    7.9439374975850408e-03 -1.1736911946539272e+00
    7.9230048195733319e-03 -1.1532562594670797e+00
    8.0712256876301278e-03 -1.2719974560076321e+00
    8.0225470093718519e-03 -1.2379857412959869e+00
    8.1265806096903551e-03 -1.3074028933658495e+00
    8.0225470093718519e-03 -1.2379857412959869e+00
    8.0380531257558639e-03 -1.2491755522902139e+00
    7.9802113734389647e-03 -1.2052516662288291e+00
    8.0889174514013271e-03 -1.2836382951311764e+00
    8.0712256876301278e-03 -1.2719974560076321e+00
    7.9674590585652599e-03 -1.1946059322359543e+00
    7.9553706597680490e-03 -1.1840869291019569e+00
    8.0889174514013271e-03 -1.2836382951311764e+00
    8.2347693079450248e-03 -1.3698697784375500e+00
    8.3369669305991267e-03 -1.4233671437735333e+00
    8.3648685043486437e-03 -1.4372854530969870e+00
    8.4866551326834780e-03 -1.4953632037438636e+00
    8.5197933108117022e-03 -1.5105264449340405e+00
    8.1465817513631193e-03 -1.3195364604997601e+00
    8.2589537045338040e-03 -1.3829316685939328e+00
    8.2347693079450248e-03 -1.3698697784375500e+00
    8.2347693079450248e-03 -1.3698697784375500e+00
    8.0712256876301278e-03 -1.2719974560076321e+00
    7.9331514267617781e-03 -1.1634153830577252e+00
    7.8466791701688830e-03 -1.0305080798590893e+00
    7.8640969034102660e-03 -9.2951600308978000e-01
    8.0225470093718519e-03 -8.0776374609383550e-01
    8.3369669305991250e-03 -7.0255942352924383e-01
    9.2937790891165582e-03 -5.4925037792761811e-01
    1.1108354831560707e-02 -4.1334522055635764e-01
    1.3999448944839576e-02 -3.0642570651794782e-01
    9.6229624045072928e-03 -5.1604684654214006e-01
    8.6261958091912311e-03 -6.4196667524195683e-01
    8.1073642654410864e-03 -7.7193938295626829e-01
    7.8963329490892523e-03 -8.9011667342415968e-01
    7.8437874511946282e-03 -9.8720629616430244e-01
    7.8751883123415242e-03 -1.0945835772325332e+00
    8.0225470093718519e-03 -1.2379857412959869e+00
    8.1073642654410846e-03 -1.2954385047312085e+00
    8.0380531257558639e-03 -1.2491755522902139e+00
    8.1673837814014369e-03 -1.3318444067568564e+00
    8.0712256876301278e-03 -1.2719974560076321e+00
    8.0542752474556355e-03 -1.2605113600792694e+00
    8.1265806096903551e-03 -1.3074028933658495e+00
    8.0380531257558639e-03 -1.2491755522902139e+00
    7.9553706597680490e-03 -1.1840869291019569e+00
    8.0077452495138039e-03 -1.2269377914491109e+00
    7.9553706597680490e-03 -1.1840869291019569e+00
    7.9674590585652599e-03 -1.1946059322359543e+00
    7.9674590585652599e-03 -1.1946059322359543e+00
    7.9802113734389647e-03 -1.2052516662288291e+00
    8.1073642654410846e-03 -1.2954385047312085e+00
    8.0712256876301278e-03 -1.2719974560076321e+00
    8.2347693079450248e-03 -1.3698697784375500e+00
    8.2589537045338040e-03 -1.3829316685939328e+00
    8.2114592263442272e-03 -1.3570053112033666e+00
    8.1673837814014369e-03 -1.3318444067568564e+00
    8.3648685043486437e-03 -1.4372854530969870e+00
    8.4546244105902970e-03 -1.4804664203952109e+00
    8.4866551326834780e-03 -1.4953632037438636e+00
    8.1890036535635629e-03 -1.3443321448446621e+00
    8.1673837814014369e-03 -1.3318444067568564e+00
    8.0380531257558639e-03 -1.2491755522902139e+00
    7.9802113734389647e-03 -1.2052516662288291e+00
    7.8640969034102677e-03 -1.0758287072798383e+00
    7.8432094909498627e-03 -9.9571732507423583e-01
    7.8693448832425367e-03 -9.2152392763636315e-01
    8.2589537045338057e-03 -7.2310152606218736e-01
    9.0694869339304623e-03 -5.7569833370313961e-01
    1.0298481611642731e-02 -4.6210568776705907e-01
    1.2901404046166949e-02 -3.3886949683494305e-01
    9.4840745377584076e-03 -5.2935789426415492e-01
    8.4546244105902953e-03 -6.7546280430531469e-01
    7.9936368360324968e-03 -8.2234967793862201e-01
    7.8518923337404217e-03 -9.5385327256018304e-01
    7.8437874511946282e-03 -1.0129595038903279e+00
    7.8693448832425385e-03 -1.0851590175904842e+00
    7.9674590585652599e-03 -1.1946059322359543e+00
    8.0712256876301278e-03 -1.2719974560076321e+00
    8.1265806096903551e-03 -1.3074028933658495e+00
    8.4236694895426564e-03 -1.4658269504442361e+00
    8.3937603479755062e-03 -1.4514360704718161e+00
    8.2114592263442272e-03 -1.3570053112033666e+00
    8.2114592263442272e-03 -1.3570053112033666e+00
    8.2347693079450248e-03 -1.3698697784375500e+00
    8.0712256876301278e-03 -1.2719974560076321e+00
    8.0542752474556355e-03 -1.2605113600792694e+00
    8.0225470093718519e-03 -1.2379857412959869e+00
    7.9802113734389647e-03 -1.2052516662288291e+00
    8.0712256876301278e-03 -1.2719974560076321e+00
    7.9802113734389647e-03 -1.2052516662288291e+00
    8.0077452495138039e-03 -1.2269377914491109e+00
    8.1465817513631193e-03 -1.3195364604997601e+00
    8.1890036535635629e-03 -1.3443321448446621e+00
    8.3100299718776010e-03 -1.4096735392208677e+00
    8.1265806096903551e-03 -1.3074028933658495e+00
    8.1265806096903551e-03 -1.3074028933658495e+00
    8.2589537045338040e-03 -1.3829316685939328e+00
    8.4236694895426564e-03 -1.4658269504442361e+00
    8.3648685043486437e-03 -1.4372854530969870e+00
    8.4546244105902970e-03 -1.4804664203952109e+00
    8.4236694895426564e-03 -1.4658269504442361e+00
    8.2114592263442272e-03 -1.3570053112033666e+00
    8.2114592263442272e-03 -1.3570053112033666e+00
    8.0542752474556355e-03 -1.2605113600792694e+00
    7.8489948494786053e-03 -1.0394023007753750e+00
    7.8432094909498627e-03 -9.9571732507423583e-01
    8.1073642654410864e-03 -7.7193938295626829e-01
    9.0694869339304623e-03 -5.7569833370313961e-01
    1.0019787250040928e-02 -4.8249790963716399e-01
    1.3411062069516103e-02 -3.2290153738191130e-01
    1.0019787250040928e-02 -4.8249790963716399e-01
    8.4546244105902953e-03 -6.7546280430531469e-01
    8.0889174514013271e-03 -7.7903565497616212e-01
    7.8886777529619187e-03 -8.9788727042296168e-01
    7.8466791701688830e-03 -1.0305080798590893e+00
    7.9134905503718041e-03 -1.1432106949592915e+00
    7.8886777529619187e-03 -1.1137255565823274e+00
    8.0542752474556355e-03 -1.2605113600792694e+00
    8.0712256876301278e-03 -1.2719974560076321e+00
    8.1673837814014369e-03 -1.3318444067568564e+00
    8.3648685043486437e-03 -1.4372854530969870e+00
    8.2589537045338040e-03 -1.3829316685939328e+00
    8.1890036535635629e-03 -1.3443321448446621e+00
    8.1890036535635629e-03 -1.3443321448446621e+00
    8.1265806096903551e-03 -1.3074028933658495e+00
    8.1465817513631193e-03 -1.3195364604997601e+00
    8.1465817513631193e-03 -1.3195364604997601e+00
    7.9802113734389647e-03 -1.2052516662288291e+00
    8.0889174514013271e-03 -1.2836382951311764e+00
    8.2589537045338040e-03 -1.3829316685939328e+00
    8.1465817513631193e-03 -1.3195364604997601e+00
    8.1265806096903551e-03 -1.3074028933658495e+00
    8.1073642654410846e-03 -1.2954385047312085e+00
    8.1465817513631193e-03 -1.3195364604997601e+00
    8.0077452495138039e-03 -1.2269377914491109e+00
    8.0712256876301278e-03 -1.2719974560076321e+00
    8.1465817513631193e-03 -1.3195364604997601e+00
    8.1890036535635629e-03 -1.3443321448446621e+00
    8.2347693079450248e-03 -1.3698697784375500e+00
    8.2840332720548766e-03 -1.3961973673544850e+00
    8.2589537045338040e-03 -1.3829316685939328e+00
    8.4236694895426564e-03 -1.4658269504442361e+00
    8.1673837814014369e-03 -1.3318444067568564e+00
    7.9936368360324968e-03 -1.2160277152496646e+00
    7.8963329490892523e-03 -1.1234482285935996e+00
    7.8449437550928824e-03 -9.7876615862897032e-01
    8.0380531257558622e-03 -8.0052799477753134e-01
    8.8740493720456965e-03 -6.0214043163966724e-01
    9.6229624045072928e-03 -5.1604684654214006e-01
    1.3411062069516103e-02 -3.2290153738191130e-01
    9.7726048691898978e-03 -5.0268098436584085e-01
    8.4866551326834780e-03 -6.6873385509042349e-01
    7.9936368360324968e-03 -8.2234967793862201e-01
    7.8594408361558031e-03 -9.3756720189249165e-01
    7.8466791701688830e-03 -1.0305080798590893e+00
    7.9230048195733319e-03 -1.1532562594670797e+00
    8.0380531257558639e-03 -1.2491755522902139e+00
    8.0380531257558639e-03 -1.2491755522902139e+00
    8.1073642654410846e-03 -1.2954385047312085e+00
    8.3369669305991267e-03 -1.4233671437735333e+00
    8.3937603479755062e-03 -1.4514360704718161e+00
    8.5197933108117022e-03 -1.5105264449340405e+00
    8.2347693079450248e-03 -1.3698697784375500e+00
    8.2589537045338040e-03 -1.3829316685939328e+00
    8.2589537045338040e-03 -1.3829316685939328e+00
    8.1465817513631193e-03 -1.3195364604997601e+00
    8.1073642654410846e-03 -1.2954385047312085e+00
    8.3369669305991267e-03 -1.4233671437735333e+00
    8.2589537045338040e-03 -1.3829316685939328e+00
    8.2589537045338040e-03 -1.3829316685939328e+00
    8.1073642654410846e-03 -1.2954385047312085e+00
    8.0225470093718519e-03 -1.2379857412959869e+00
    8.0225470093718519e-03 -1.2379857412959869e+00
    8.1265806096903551e-03 -1.3074028933658495e+00
    8.1073642654410846e-03 -1.2954385047312085e+00
    8.1673837814014369e-03 -1.3318444067568564e+00
    8.1265806096903551e-03 -1.3074028933658495e+00
    8.1465817513631193e-03 -1.3195364604997601e+00
    8.5197933108117022e-03 -1.5105264449340405e+00
    8.2840332720548766e-03 -1.3961973673544850e+00
    8.2114592263442272e-03 -1.3570053112033666e+00
    8.1890036535635629e-03 -1.3443321448446621e+00
    8.0380531257558639e-03 -1.2491755522902139e+00
    7.8886777529619187e-03 -1.1137255565823274e+00
    7.9331514267617781e-03 -1.1634153830577252e+00
    7.8466791701688830e-03 -1.0305080798590893e+00
    8.0077452495138039e-03 -8.1503724717690917e-01
    8.9684432387452696e-03 -5.8891494228670660e-01
    9.8518098627596064e-03 -4.9597308879901369e-01
    1.3411062069516103e-02 -3.2290153738191130e-01
    9.5522392959224156e-03 -5.2270837348931676e-01
    8.3369669305991250e-03 -7.0255942352924383e-01
    7.8751883123415259e-03 -9.1358944241455553e-01
    7.8886777529619187e-03 -8.9788727042296168e-01
    7.8449437550928824e-03 -9.7876615862897032e-01
    7.8886777529619187e-03 -1.1137255565823274e+00
    7.9936368360324968e-03 -1.2160277152496646e+00
    8.2347693079450248e-03 -1.3698697784375500e+00
    8.0542752474556355e-03 -1.2605113600792694e+00
    8.3937603479755062e-03 -1.4514360704718161e+00
    8.5197933108117022e-03 -1.5105264449340405e+00
    8.2347693079450248e-03 -1.3698697784375500e+00
    8.2347693079450248e-03 -1.3698697784375500e+00
    8.3100299718776010e-03 -1.4096735392208677e+00
    8.2347693079450248e-03 -1.3698697784375500e+00
    8.2589537045338040e-03 -1.3829316685939328e+00
    8.0889174514013271e-03 -1.2836382951311764e+00
    8.1265806096903551e-03 -1.3074028933658495e+00
    8.4236694895426564e-03 -1.4658269504442361e+00
    8.4236694895426564e-03 -1.4658269504442361e+00
    8.0542752474556355e-03 -1.2605113600792694e+00
    7.9331514267617781e-03 -1.1634153830577252e+00
    8.1073642654410846e-03 -1.2954385047312085e+00
    8.2347693079450248e-03 -1.3698697784375500e+00
    8.2347693079450248e-03 -1.3698697784375500e+00
    8.2840332720548766e-03 -1.3961973673544850e+00
    8.2347693079450248e-03 -1.3698697784375500e+00
    8.1890036535635629e-03 -1.3443321448446621e+00
    8.2589537045338040e-03 -1.3829316685939328e+00
    8.3100299718776010e-03 -1.4096735392208677e+00
    8.1890036535635629e-03 -1.3443321448446621e+00
    8.0889174514013271e-03 -1.2836382951311764e+00
    8.1265806096903551e-03 -1.3074028933658495e+00
    7.9674590585652599e-03 -1.1946059322359543e+00
    7.8693448832425385e-03 -1.0851590175904842e+00
    7.8466791701688830e-03 -1.0305080798590893e+00
    7.9439374975850425e-03 -8.5201286723025837e-01
    9.0181013252877348e-03 -5.8230615639036043e-01
    1.0019787250040928e-02 -4.8249790963716399e-01
    1.2901404046166949e-02 -3.3886949683494305e-01
    9.6963717524388305e-03 -5.0937163197361068e-01
    8.2840332720548766e-03 -7.1623111701950859e-01
    7.9674590585652599e-03 -8.3709612769818698e-01
    7.8489948494786035e-03 -9.6209138584166909e-01
    7.8518923337404217e-03 -1.0483792725436245e+00
    7.8640969034102677e-03 -1.0758287072798383e+00
    7.9230048195733319e-03 -1.1532562594670797e+00
    7.9553706597680490e-03 -1.1840869291019569e+00
    8.0077452495138039e-03 -1.2269377914491109e+00
    8.0542752474556355e-03 -1.2605113600792694e+00
    8.0542752474556355e-03 -1.2605113600792694e+00
    8.1073642654410846e-03 -1.2954385047312085e+00
    8.1890036535635629e-03 -1.3443321448446621e+00
    8.1465817513631193e-03 -1.3195364604997601e+00
    8.1265806096903551e-03 -1.3074028933658495e+00
    8.0712256876301278e-03 -1.2719974560076321e+00
    8.0380531257558639e-03 -1.2491755522902139e+00
    8.0542752474556355e-03 -1.2605113600792694e+00
    8.1265806096903551e-03 -1.3074028933658495e+00
    8.2840332720548766e-03 -1.3961973673544850e+00
    8.1265806096903551e-03 -1.3074028933658495e+00
    7.9134905503718041e-03 -1.1432106949592915e+00
    8.0225470093718519e-03 -1.2379857412959869e+00
    8.0380531257558639e-03 -1.2491755522902139e+00
    8.1465817513631193e-03 -1.3195364604997601e+00
    8.1265806096903551e-03 -1.3074028933658495e+00
    8.0380531257558639e-03 -1.2491755522902139e+00
    8.0542752474556355e-03 -1.2605113600792694e+00
    8.0225470093718519e-03 -1.2379857412959869e+00
    8.0889174514013271e-03 -1.2836382951311764e+00
    7.9936368360324968e-03 -1.2160277152496646e+00
    7.9046019812965239e-03 -1.1332756617391002e+00
    7.9046019812965239e-03 -1.1332756617391002e+00
    7.8518923337404217e-03 -9.5385327256018304e-01
    7.8553735541879999e-03 -9.4567909096555114e-01
    7.8693448832425367e-03 -9.2152392763636315e-01
    8.0380531257558622e-03 -8.0052799477753134e-01
    8.5540723342696825e-03 -6.5532270887001642e-01
    9.8518098627596064e-03 -4.9597308879901369e-01
    1.2455004646112461e-02 -3.5440635538079662e-01
    9.6229624045072928e-03 -5.1604684654214006e-01
    8.4236694895426564e-03 -6.8220876938914121e-01
    7.9553706597680508e-03 -8.4453258913889584e-01
    7.8816311434690457e-03 -9.0571104663683988e-01
    7.8432094909498627e-03 -1.0043010951179792e+00
    7.8751883123415242e-03 -1.0945835772325332e+00
    7.8886777529619187e-03 -1.1137255565823274e+00
    7.9802113734389647e-03 -1.2052516662288291e+00
    7.9553706597680490e-03 -1.1840869291019569e+00
    8.0542752474556355e-03 -1.2605113600792694e+00
    8.0380531257558639e-03 -1.2491755522902139e+00
    8.2114592263442272e-03 -1.3570053112033666e+00
    8.0077452495138039e-03 -1.2269377914491109e+00
    8.3100299718776010e-03 -1.4096735392208677e+00
    8.2347693079450248e-03 -1.3698697784375500e+00
    8.2114592263442272e-03 -1.3570053112033666e+00
    8.0542752474556355e-03 -1.2605113600792694e+00
    7.9936368360324968e-03 -1.2160277152496646e+00
    8.0712256876301278e-03 -1.2719974560076321e+00
    8.0712256876301278e-03 -1.2719974560076321e+00
    7.9674590585652599e-03 -1.1946059322359543e+00
    8.0712256876301278e-03 -1.2719974560076321e+00
    8.0225470093718519e-03 -1.2379857412959869e+00
    8.0077452495138039e-03 -1.2269377914491109e+00
    8.0542752474556355e-03 -1.2605113600792694e+00
    8.1673837814014369e-03 -1.3318444067568564e+00
    7.9674590585652599e-03 -1.1946059322359543e+00
    8.0712256876301278e-03 -1.2719974560076321e+00
    8.0077452495138039e-03 -1.2269377914491109e+00
    7.8693448832425385e-03 -1.0851590175904842e+00
    7.9134905503718041e-03 -1.1432106949592915e+00
    7.8816311434690457e-03 -1.1041048949477668e+00
    7.9046019812965239e-03 -1.1332756617391002e+00
    7.8466791701688812e-03 -9.7039510853397559e-01
    7.8594408361558031e-03 -9.3756720189249165e-01
    7.8816311434690457e-03 -9.0571104663683988e-01
    8.1465817513631193e-03 -7.5784188609783520e-01
    8.5895274357169725e-03 -6.4863834863279024e-01
    9.6963717524388305e-03 -5.0937163197361068e-01
    1.5078717484546738e-02 -2.8054180384339100e-01
    1.0399371440215157e-02 -4.5525145360598546e-01
    8.8291928958836915e-03 -6.0875958743507086e-01
    8.0380531257558622e-03 -8.0052799477753134e-01
    7.9553706597680508e-03 -8.4453258913889584e-01
    7.8449437550928824e-03 -9.7876615862897032e-01
    7.8449437550928841e-03 -1.0216944989197150e+00
    7.9331514267617781e-03 -1.1634153830577252e+00
    8.0077452495138039e-03 -1.2269377914491109e+00
    7.9802113734389647e-03 -1.2052516662288291e+00
    7.9439374975850408e-03 -1.1736911946539272e+00
    8.0542752474556355e-03 -1.2605113600792694e+00
    8.1673837814014369e-03 -1.3318444067568564e+00
    8.2347693079450248e-03 -1.3698697784375500e+00
    8.0712256876301278e-03 -1.2719974560076321e+00
    8.2347693079450248e-03 -1.3698697784375500e+00
    8.1673837814014369e-03 -1.3318444067568564e+00
    8.0712256876301278e-03 -1.2719974560076321e+00
    8.0889174514013271e-03 -1.2836382951311764e+00
    8.0542752474556355e-03 -1.2605113600792694e+00
    8.1265806096903551e-03 -1.3074028933658495e+00
    8.0077452495138039e-03 -1.2269377914491109e+00
    8.0077452495138039e-03 -1.2269377914491109e+00
    8.0380531257558639e-03 -1.2491755522902139e+00
    8.1073642654410846e-03 -1.2954385047312085e+00
    7.9936368360324968e-03 -1.2160277152496646e+00
    8.0712256876301278e-03 -1.2719974560076321e+00
    8.0712256876301278e-03 -1.2719974560076321e+00
    8.0380531257558639e-03 -1.2491755522902139e+00
    8.0225470093718519e-03 -1.2379857412959869e+00
    8.0225470093718519e-03 -1.2379857412959869e+00
    7.8816311434690457e-03 -1.1041048949477668e+00
    7.8816311434690457e-03 -1.1041048949477668e+00
    7.8594408361558048e-03 -1.0665902113272385e+00
    7.8466791701688812e-03 -9.7039510853397559e-01
    7.8816311434690457e-03 -9.0571104663683988e-01
    7.9134905503718076e-03 -8.7472939538551897e-01
    8.2840332720548766e-03 -7.1623111701950859e-01
    8.9204466382942372e-03 -5.9552595475822689e-01
    1.0504673830023799e-02 -4.4836472635015745e-01
    1.7085697935056512e-02 -2.4308621740219885e-01
    1.0108918898754652e-02 -4.7572659109375431e-01
    8.7033317330071341e-03 -6.2865696595068699e-01
    8.3648685043486437e-03 -6.9575601551191724e-01
    7.9802113734389630e-03 -8.2970223399810672e-01
    7.8466791701688812e-03 -9.7039510853397559e-01
    7.8594408361558048e-03 -1.0665902113272385e+00
    7.9331514267617781e-03 -1.1634153830577252e+00
    7.9230048195733319e-03 -1.1532562594670797e+00
    7.9936368360324968e-03 -1.2160277152496646e+00
    7.9134905503718041e-03 -1.1432106949592915e+00
    8.0077452495138039e-03 -1.2269377914491109e+00
    8.1465817513631193e-03 -1.3195364604997601e+00
    8.0889174514013271e-03 -1.2836382951311764e+00
    8.2589537045338040e-03 -1.3829316685939328e+00
    8.4866551326834780e-03 -1.4953632037438636e+00
    8.1073642654410846e-03 -1.2954385047312085e+00
    8.1890036535635629e-03 -1.3443321448446621e+00
    8.0889174514013271e-03 -1.2836382951311764e+00
    8.0380531257558639e-03 -1.2491755522902139e+00
    8.1073642654410846e-03 -1.2954385047312085e+00
    8.0712256876301278e-03 -1.2719974560076321e+00
    8.1673837814014369e-03 -1.3318444067568564e+00
    8.0542752474556355e-03 -1.2605113600792694e+00
    8.1465817513631193e-03 -1.3195364604997601e+00
    8.0077452495138039e-03 -1.2269377914491109e+00
    8.2840332720548766e-03 -1.3961973673544850e+00
    8.2589537045338040e-03 -1.3829316685939328e+00
    7.9331514267617781e-03 -1.1634153830577252e+00
    7.9230048195733319e-03 -1.1532562594670797e+00
    7.8751883123415242e-03 -1.0945835772325332e+00
    7.8693448832425385e-03 -1.0851590175904842e+00
    7.8963329490892523e-03 -1.1234482285935996e+00
    7.8518923337404217e-03 -1.0483792725436245e+00
    7.8553735541879999e-03 -9.4567909096555114e-01
    7.8489948494786035e-03 -9.6209138584166909e-01
    7.9331514267617781e-03 -8.5953823076652824e-01
    8.1673837814014369e-03 -7.5083845750050970e-01
    8.8291928958836915e-03 -6.0875958743507086e-01
    1.0614673414265113e-02 -4.4144285572630448e-01
    1.7743078775459203e-02 -2.3302069121418523e-01
    1.1879595629972166e-02 -3.7703695143194921e-01
    9.2347340910160277e-03 -5.5586757779613649e-01
    8.6641167379366557e-03 -6.3530658569805909e-01
    8.1073642654410864e-03 -7.7193938295626829e-01
    7.9439374975850425e-03 -8.5201286723025837e-01
    7.8693448832425385e-03 -1.0851590175904842e+00
    7.9331514267617781e-03 -1.1634153830577252e+00
    7.9936368360324968e-03 -1.2160277152496646e+00
    7.9331514267617781e-03 -1.1634153830577252e+00
    8.0889174514013271e-03 -1.2836382951311764e+00
    8.2347693079450248e-03 -1.3698697784375500e+00
    8.4866551326834780e-03 -1.4953632037438636e+00
    8.2347693079450248e-03 -1.3698697784375500e+00
    8.2347693079450248e-03 -1.3698697784375500e+00
    8.2114592263442272e-03 -1.3570053112033666e+00
    8.2114592263442272e-03 -1.3570053112033666e+00
    8.1465817513631193e-03 -1.3195364604997601e+00
    8.1673837814014369e-03 -1.3318444067568564e+00
    8.0712256876301278e-03 -1.2719974560076321e+00
    8.0077452495138039e-03 -1.2269377914491109e+00
    8.0077452495138039e-03 -1.2269377914491109e+00
    8.1673837814014369e-03 -1.3318444067568564e+00
    7.9936368360324968e-03 -1.2160277152496646e+00
    8.0889174514013271e-03 -1.2836382951311764e+00
    8.0225470093718519e-03 -1.2379857412959869e+00
    7.9331514267617781e-03 -1.1634153830577252e+00
    7.9674590585652599e-03 -1.1946059322359543e+00
    7.9802113734389647e-03 -1.2052516662288291e+00
    7.9936368360324968e-03 -1.2160277152496646e+00
    7.9134905503718041e-03 -1.1432106949592915e+00
    7.9134905503718041e-03 -1.1432106949592915e+00
    7.9046019812965239e-03 -1.1332756617391002e+00
    7.8640969034102677e-03 -1.0758287072798383e+00
    7.8437874511946282e-03 -1.0129595038903279e+00
    7.8751883123415259e-03 -9.1358944241455553e-01
    7.9802113734389630e-03 -8.2970223399810672e-01
    8.2589537045338057e-03 -7.2310152606218736e-01
    9.1777261303843984e-03 -5.6248038258321542e-01
    1.0614673414265113e-02 -4.4144285572630448e-01
    1.9349213161532753e-02 -2.1176177494381340e-01
    1.2671092717693960e-02 -3.4668762264076824e-01
    9.6229624045072928e-03 -5.1604684654214006e-01
    8.5895274357169725e-03 -6.4863834863279024e-01
    8.0225470093718519e-03 -8.0776374609383550e-01
    7.9439374975850425e-03 -8.5201286723025837e-01
    7.8594408361558031e-03 -9.3756720189249165e-01
    7.8693448832425385e-03 -1.0851590175904842e+00
    7.8816311434690457e-03 -1.1041048949477668e+00
    7.9802113734389647e-03 -1.2052516662288291e+00
    7.9134905503718041e-03 -1.1432106949592915e+00
    8.1073642654410846e-03 -1.2954385047312085e+00
    8.1890036535635629e-03 -1.3443321448446621e+00
    8.1265806096903551e-03 -1.3074028933658495e+00
    8.2589537045338040e-03 -1.3829316685939328e+00
    8.2589537045338040e-03 -1.3829316685939328e+00
    8.0889174514013271e-03 -1.2836382951311764e+00
    8.1073642654410846e-03 -1.2954385047312085e+00
    8.0889174514013271e-03 -1.2836382951311764e+00
    8.2347693079450248e-03 -1.3698697784375500e+00
    8.1265806096903551e-03 -1.3074028933658495e+00
    8.0712256876301278e-03 -1.2719974560076321e+00
    8.1073642654410846e-03 -1.2954385047312085e+00
    8.0889174514013271e-03 -1.2836382951311764e+00
    8.0225470093718519e-03 -1.2379857412959869e+00
    8.0225470093718519e-03 -1.2379857412959869e+00
    7.9439374975850408e-03 -1.1736911946539272e+00
    8.1265806096903551e-03 -1.3074028933658495e+00
    8.1073642654410846e-03 -1.2954385047312085e+00
    7.9674590585652599e-03 -1.1946059322359543e+00
    7.9134905503718041e-03 -1.1432106949592915e+00
    7.9439374975850408e-03 -1.1736911946539272e+00
    7.8751883123415242e-03 -1.0945835772325332e+00
    7.8489948494786035e-03 -9.6209138584166909e-01
    7.8518923337404217e-03 -9.5385327256018304e-01
    7.9553706597680508e-03 -8.4453258913889584e-01
    7.9936368360324968e-03 -8.2234967793862201e-01
    8.5540723342696825e-03 -6.5532270887001642e-01
    9.4183490436170175e-03 -5.3599703140927746e-01
    1.1108354831560707e-02 -4.1334522055635764e-01
    1.5506931996019262e-02 -2.7153769332085226e-01
    1.2251809862956027e-02 -3.6203309401910833e-01
    9.7726048691898978e-03 -5.0268098436584085e-01
    9.2347340910160277e-03 -5.5586757779613649e-01
    8.2114592263442272e-03 -7.3691679151441114e-01
    8.0889174514013271e-03 -7.7903565497616212e-01
    7.8816311434690457e-03 -9.0571104663683988e-01
    7.8437874511946282e-03 -9.8720629616430244e-01
    7.8816311434690457e-03 -1.1041048949477668e+00
    7.8963329490892523e-03 -1.1234482285935996e+00
    7.9230048195733319e-03 -1.1532562594670797e+00
    7.9553706597680490e-03 -1.1840869291019569e+00
    7.9802113734389647e-03 -1.2052516662288291e+00
    8.0077452495138039e-03 -1.2269377914491109e+00
    8.1465817513631193e-03 -1.3195364604997601e+00
    8.0380531257558639e-03 -1.2491755522902139e+00
    8.0225470093718519e-03 -1.2379857412959869e+00
    8.0380531257558639e-03 -1.2491755522902139e+00
    8.1265806096903551e-03 -1.3074028933658495e+00
    7.9936368360324968e-03 -1.2160277152496646e+00
    8.0380531257558639e-03 -1.2491755522902139e+00
    8.0542752474556355e-03 -1.2605113600792694e+00
    7.9802113734389647e-03 -1.2052516662288291e+00
    8.0542752474556355e-03 -1.2605113600792694e+00
    8.1265806096903551e-03 -1.3074028933658495e+00
    8.0889174514013271e-03 -1.2836382951311764e+00
    8.0712256876301278e-03 -1.2719974560076321e+00
    7.9936368360324968e-03 -1.2160277152496646e+00
    7.9134905503718041e-03 -1.1432106949592915e+00
    7.9553706597680490e-03 -1.1840869291019569e+00
    7.9553706597680490e-03 -1.1840869291019569e+00
    7.9230048195733319e-03 -1.1532562594670797e+00
    7.8751883123415242e-03 -1.0945835772325332e+00
    7.8449437550928824e-03 -9.7876615862897032e-01
    7.8816311434690457e-03 -9.0571104663683988e-01
    8.0077452495138039e-03 -8.1503724717690917e-01
    8.2589537045338057e-03 -7.2310152606218736e-01
    9.0694869339304623e-03 -5.7569833370313961e-01
    9.7726048691898978e-03 -5.0268098436584085e-01
    1.3147469597555521e-02 -3.3094381626464864e-01
    1.4329533543954776e-02 -2.9796819751270764e-01
    1.2251809862956027e-02 -3.6203309401910833e-01
    1.0019787250040928e-02 -4.8249790963716399e-01
    9.4183490436170175e-03 -5.3599703140927746e-01
    8.6261958091912311e-03 -6.4196667524195683e-01
    8.1465817513631193e-03 -7.5784188609783520e-01
    7.8963329490892523e-03 -8.9011667342415968e-01
    7.8594408361558031e-03 -9.3756720189249165e-01
    7.8640969034102677e-03 -1.0758287072798383e+00
    7.8553735541879999e-03 -1.0574411653523890e+00
    7.8553735541879999e-03 -1.0574411653523890e+00
    7.9674590585652599e-03 -1.1946059322359543e+00
    8.1265806096903551e-03 -1.3074028933658495e+00
    8.1890036535635629e-03 -1.3443321448446621e+00
    8.1265806096903551e-03 -1.3074028933658495e+00
    8.1890036535635629e-03 -1.3443321448446621e+00
    8.0712256876301278e-03 -1.2719974560076321e+00
    7.9674590585652599e-03 -1.1946059322359543e+00
    8.1465817513631193e-03 -1.3195364604997601e+00
    8.0380531257558639e-03 -1.2491755522902139e+00
    8.0077452495138039e-03 -1.2269377914491109e+00
    7.9802113734389647e-03 -1.2052516662288291e+00
    8.1073642654410846e-03 -1.2954385047312085e+00
    8.0225470093718519e-03 -1.2379857412959869e+00
    8.2589537045338040e-03 -1.3829316685939328e+00
    8.1465817513631193e-03 -1.3195364604997601e+00
    8.0225470093718519e-03 -1.2379857412959869e+00
    8.0077452495138039e-03 -1.2269377914491109e+00
    8.0542752474556355e-03 -1.2605113600792694e+00
    7.9230048195733319e-03 -1.1532562594670797e+00
    7.9936368360324968e-03 -1.2160277152496646e+00
    7.9134905503718041e-03 -1.1432106949592915e+00
    7.8432094909498627e-03 -9.9571732507423583e-01
    7.8640969034102660e-03 -9.2951600308978000e-01
    7.9802113734389630e-03 -8.2970223399810672e-01
    8.1890036535635646e-03 -7.4386378681404652e-01
    8.4546244105902953e-03 -6.7546280430531469e-01
    8.8291928958836915e-03 -6.0875958743507086e-01
    9.8518098627596064e-03 -4.9597308879901369e-01
    1.3411062069516103e-02 -3.2290153738191130e-01
    1.9349213161532753e-02 -2.1176177494381340e-01
    1.3411062069516103e-02 -3.2290153738191130e-01
    1.0298481611642731e-02 -4.6210568776705907e-01
    9.5522392959224156e-03 -5.2270837348931676e-01
    8.9684432387452696e-03 -5.8891494228670660e-01
    8.3648685043486437e-03 -6.9575601551191724e-01
    7.9674590585652599e-03 -8.3709612769818698e-01
    7.8751883123415259e-03 -9.1358944241455553e-01
    7.8449437550928824e-03 -9.7876615862897032e-01
    7.8437874511946282e-03 -1.0129595038903279e+00
    7.8963329490892523e-03 -1.1234482285935996e+00
    7.9046019812965239e-03 -1.1332756617391002e+00
    7.9674590585652599e-03 -1.1946059322359543e+00
    8.1265806096903551e-03 -1.3074028933658495e+00
    7.9331514267617781e-03 -1.1634153830577252e+00
    8.0712256876301278e-03 -1.2719974560076321e+00
    8.0380531257558639e-03 -1.2491755522902139e+00
    7.9802113734389647e-03 -1.2052516662288291e+00
    7.9936368360324968e-03 -1.2160277152496646e+00
    8.0225470093718519e-03 -1.2379857412959869e+00
    7.9331514267617781e-03 -1.1634153830577252e+00
    8.0542752474556355e-03 -1.2605113600792694e+00
    8.0225470093718519e-03 -1.2379857412959869e+00
    8.1465817513631193e-03 -1.3195364604997601e+00
    8.0225470093718519e-03 -1.2379857412959869e+00
    8.0225470093718519e-03 -1.2379857412959869e+00
    7.9230048195733319e-03 -1.1532562594670797e+00
    8.0225470093718519e-03 -1.2379857412959869e+00
    7.8886777529619187e-03 -1.1137255565823274e+00
    7.8594408361558048e-03 -1.0665902113272385e+00
    7.8553735541879999e-03 -1.0574411653523890e+00
    7.8449437550928824e-03 -9.7876615862897032e-01
    7.8594408361558031e-03 -9.3756720189249165e-01
    7.9553706597680508e-03 -8.4453258913889584e-01
    8.2114592263442272e-03 -7.3691679151441114e-01
    8.3648685043486437e-03 -6.9575601551191724e-01
    8.5895274357169725e-03 -6.4863834863279024e-01
    8.8291928958836915e-03 -6.0875958743507086e-01
    1.0504673830023799e-02 -4.4836472635015745e-01
    1.3411062069516103e-02 -3.2290153738191130e-01
    1.6501737158095036e-02 -2.5283777534076940e-01
    1.3147469597555521e-02 -3.3094381626464864e-01
    1.1708657284586149e-02 -3.8442587221924479e-01
    9.9341464719903301e-03 -4.8924605479008171e-01
    9.1226702878722116e-03 -5.6909018297949610e-01
    8.6641167379366557e-03 -6.3530658569805909e-01
    8.4236694895426564e-03 -6.8220876938914121e-01
    8.0380531257558622e-03 -8.0052799477753134e-01
    8.0225470093718519e-03 -8.0776374609383550e-01
    7.8432094909498627e-03 -9.9571732507423583e-01
    7.8432094909498627e-03 -1.0043010951179792e+00
    7.8518923337404217e-03 -9.5385327256018304e-01
    7.8489948494786053e-03 -1.0394023007753750e+00
    7.8963329490892523e-03 -1.1234482285935996e+00
    8.0889174514013271e-03 -1.2836382951311764e+00
    8.0712256876301278e-03 -1.2719974560076321e+00
    8.0889174514013271e-03 -1.2836382951311764e+00
    8.1073642654410846e-03 -1.2954385047312085e+00
    8.0077452495138039e-03 -1.2269377914491109e+00
    7.9134905503718041e-03 -1.1432106949592915e+00
    7.9439374975850408e-03 -1.1736911946539272e+00
    8.0380531257558639e-03 -1.2491755522902139e+00
    7.9674590585652599e-03 -1.1946059322359543e+00
    7.9230048195733319e-03 -1.1532562594670797e+00
    7.9046019812965239e-03 -1.1332756617391002e+00
    7.9331514267617781e-03 -1.1634153830577252e+00
    7.9230048195733319e-03 -1.1532562594670797e+00
    7.8518923337404217e-03 -1.0483792725436245e+00
    7.8640969034102677e-03 -1.0758287072798383e+00
    7.8432094909498627e-03 -9.9571732507423583e-01
    7.8886777529619187e-03 -1.1137255565823274e+00
    7.8437874511946282e-03 -9.8720629616430244e-01
    7.8816311434690457e-03 -9.0571104663683988e-01
    7.9802113734389630e-03 -8.2970223399810672e-01
    8.2589537045338057e-03 -7.2310152606218736e-01
    8.6261958091912311e-03 -6.4196667524195683e-01
    8.8740493720456965e-03 -6.0214043163966724e-01
    9.7726048691898978e-03 -5.0268098436584085e-01
    1.1708657284586149e-02 -3.8442587221924479e-01
    1.5506931996019262e-02 -2.7153769332085226e-01
    1.9349213161532753e-02 -2.1176177494381340e-01
    1.3999448944839576e-02 -3.0642570651794782e-01
    1.2251809862956027e-02 -3.6203309401910833e-01
    1.0504673830023799e-02 -4.4836472635015745e-01
    9.4183490436170175e-03 -5.3599703140927746e-01
    9.0694869339304623e-03 -5.7569833370313961e-01
    8.7438846837143130e-03 -6.2201668941014909e-01
    8.5540723342696825e-03 -6.5532270887001642e-01
    8.1265806096903551e-03 -7.6487516210519091e-01
    7.9936368360324968e-03 -8.2234967793862201e-01
    7.9230048195733319e-03 -8.6710996952412001e-01
    7.9802113734389630e-03 -8.2970223399810672e-01
    7.8553735541879999e-03 -9.4567909096555114e-01
    7.8518923337404217e-03 -9.5385327256018304e-01
    7.8640969034102677e-03 -1.0758287072798383e+00
    8.0380531257558639e-03 -1.2491755522902139e+00
    8.0712256876301278e-03 -1.2719974560076321e+00
    8.0077452495138039e-03 -1.2269377914491109e+00
    7.9134905503718041e-03 -1.1432106949592915e+00
    7.9553706597680490e-03 -1.1840869291019569e+00
    7.9439374975850408e-03 -1.1736911946539272e+00
    7.8963329490892523e-03 -1.1234482285935996e+00
    7.9331514267617781e-03 -1.1634153830577252e+00
    7.8816311434690457e-03 -1.1041048949477668e+00
    7.8489948494786053e-03 -1.0394023007753750e+00
    7.8886777529619187e-03 -1.1137255565823274e+00
    7.8553735541879999e-03 -1.0574411653523890e+00
    7.8594408361558048e-03 -1.0665902113272385e+00
    7.8489948494786053e-03 -1.0394023007753750e+00
    7.8437874511946282e-03 -1.0129595038903279e+00
    7.8437874511946282e-03 -9.8720629616430244e-01
    7.8640969034102660e-03 -9.2951600308978000e-01
    7.9553706597680508e-03 -8.4453258913889584e-01
    8.1465817513631193e-03 -7.5784188609783520e-01
    8.3648685043486437e-03 -6.9575601551191724e-01
    8.9684432387452696e-03 -5.8891494228670660e-01
    9.9341464719903301e-03 -4.8924605479008171e-01
    1.0614673414265113e-02 -4.4144285572630448e-01
    1.3694247185679617e-02 -3.1473259089834482e-01
    1.5978715501015869e-02 -2.6231153129350088e-01
    1.9349213161532753e-02 -2.1176177494381340e-01
    1.5078717484546738e-02 -2.8054180384339100e-01
    1.2671092717693960e-02 -3.4668762264076824e-01
    1.0108918898754652e-02 -4.7572659109375431e-01
    9.6963717524388305e-03 -5.0937163197361068e-01
    9.4183490436170175e-03 -5.3599703140927746e-01
    8.9684432387452696e-03 -5.8891494228670660e-01
    8.9684432387452696e-03 -5.8891494228670660e-01
    8.3100299718776010e-03 -7.0938410360792048e-01
    8.1073642654410864e-03 -7.7193938295626829e-01
    8.1073642654410864e-03 -7.7193938295626829e-01
    7.9802113734389630e-03 -8.2970223399810672e-01
    7.9802113734389630e-03 -8.2970223399810672e-01
    7.8886777529619187e-03 -8.9788727042296168e-01
    7.8437874511946282e-03 -9.8720629616430244e-01
    7.8437874511946282e-03 -1.0129595038903279e+00
    7.8437874511946282e-03 -1.0129595038903279e+00
    7.8449437550928824e-03 -9.7876615862897032e-01
    7.8437874511946282e-03 -1.0129595038903279e+00
    7.8640969034102677e-03 -1.0758287072798383e+00
    7.9046019812965239e-03 -1.1332756617391002e+00
    7.8963329490892523e-03 -1.1234482285935996e+00
    7.9046019812965239e-03 -1.1332756617391002e+00
    7.8886777529619187e-03 -1.1137255565823274e+00
    7.8466791701688830e-03 -1.0305080798590893e+00
    7.8640969034102660e-03 -9.2951600308978000e-01
    7.8594408361558031e-03 -9.3756720189249165e-01
    7.8449437550928841e-03 -1.0216944989197150e+00
    7.8693448832425367e-03 -9.2152392763636315e-01
    7.8594408361558031e-03 -9.3756720189249165e-01
    7.9134905503718076e-03 -8.7472939538551897e-01
    8.0380531257558622e-03 -8.0052799477753134e-01
    8.3369669305991250e-03 -7.0255942352924383e-01
    8.3937603479755062e-03 -6.8897281826193801e-01
    8.7438846837143130e-03 -6.2201668941014909e-01
    9.5522392959224156e-03 -5.2270837348931676e-01
    9.9341464719903301e-03 -4.8924605479008171e-01
    1.1708657284586149e-02 -3.8442587221924479e-01
    1.4329533543954776e-02 -2.9796819751270764e-01
    1.7743078775459203e-02 -2.3302069121418523e-01
    2.0350284106403556e-02 -2.0044593143431830e-01
    1.7085697935056512e-02 -2.4308621740219885e-01
    1.2251809862956027e-02 -3.6203309401910833e-01
    1.0504673830023799e-02 -4.4836472635015745e-01
    1.0019787250040928e-02 -4.8249790963716399e-01
    9.7726048691898978e-03 -5.0268098436584085e-01
    9.4183490436170175e-03 -5.3599703140927746e-01
    9.0694869339304623e-03 -5.7569833370313961e-01
    8.6641167379366557e-03 -6.3530658569805909e-01
    8.6261958091912311e-03 -6.4196667524195683e-01
    8.2589537045338057e-03 -7.2310152606218736e-01
    8.1265806096903551e-03 -7.6487516210519091e-01
    8.0225470093718519e-03 -8.0776374609383550e-01
    7.9331514267617781e-03 -8.5953823076652824e-01
    7.9802113734389630e-03 -8.2970223399810672e-01
    7.9936368360324968e-03 -8.2234967793862201e-01
    7.8594408361558031e-03 -9.3756720189249165e-01
    7.8751883123415259e-03 -9.1358944241455553e-01
    7.8489948494786035e-03 -9.6209138584166909e-01
    7.8489948494786035e-03 -9.6209138584166909e-01
    7.8432094909498627e-03 -1.0043010951179792e+00
    7.8518923337404217e-03 -1.0483792725436245e+00
    7.8816311434690457e-03 -1.1041048949477668e+00
    7.8432094909498627e-03 -1.0043010951179792e+00
    7.8466791701688812e-03 -9.7039510853397559e-01
    7.8449437550928824e-03 -9.7876615862897032e-01
    7.8489948494786035e-03 -9.6209138584166909e-01
    7.8553735541879999e-03 -9.4567909096555114e-01
    7.9439374975850425e-03 -8.5201286723025837e-01
    8.1073642654410864e-03 -7.7193938295626829e-01
    8.3937603479755062e-03 -6.8897281826193801e-01
    8.3648685043486437e-03 -6.9575601551191724e-01
    8.5895274357169725e-03 -6.4863834863279024e-01
    8.7438846837143130e-03 -6.2201668941014909e-01
    9.2937790891165582e-03 -5.4925037792761811e-01
    9.6963717524388305e-03 -5.0937163197361068e-01
    1.0201743777168525e-02 -4.6892993928529997e-01
    1.2251809862956027e-02 -3.6203309401910833e-01
    1.5078717484546738e-02 -2.8054180384339100e-01
    1.7085697935056512e-02 -2.4308621740219885e-01
    2.4758662902469281e-02 -1.6257834438102145e-01
    1.8490255434736296e-02 -2.2259728109199706e-01
    1.3411062069516103e-02 -3.2290153738191130e-01
    1.2060346747273522e-02 -3.6957457414391820e-01
    1.1108354831560707e-02 -4.1334522055635764e-01
    1.0201743777168525e-02 -4.6892993928529997e-01
    9.9341464719903301e-03 -4.8924605479008171e-01
    9.4183490436170175e-03 -5.3599703140927746e-01
    9.2347340910160277e-03 -5.5586757779613649e-01
    9.4183490436170175e-03 -5.3599703140927746e-01
    9.0181013252877348e-03 -5.8230615639036043e-01
    8.3937603479755062e-03 -6.8897281826193801e-01
    8.4236694895426564e-03 -6.8220876938914121e-01
    8.3100299718776010e-03 -7.0938410360792048e-01
    8.2840332720548766e-03 -7.1623111701950859e-01
    8.0225470093718519e-03 -8.0776374609383550e-01
    7.9553706597680508e-03 -8.4453258913889584e-01
    7.8553735541879999e-03 -9.4567909096555114e-01
    7.8816311434690457e-03 -9.0571104663683988e-01
    7.8553735541879999e-03 -9.4567909096555114e-01
    7.8466791701688812e-03 -9.7039510853397559e-01
    7.8594408361558031e-03 -9.3756720189249165e-01
    7.8449437550928824e-03 -9.7876615862897032e-01
    7.8594408361558031e-03 -9.3756720189249165e-01
    7.9802113734389630e-03 -8.2970223399810672e-01
    7.9553706597680508e-03 -8.4453258913889584e-01
    7.9936368360324968e-03 -8.2234967793862201e-01
    8.0380531257558622e-03 -8.0052799477753134e-01
    8.1265806096903551e-03 -7.6487516210519091e-01
    8.2840332720548766e-03 -7.1623111701950859e-01
    8.6641167379366557e-03 -6.3530658569805909e-01
    8.5895274357169725e-03 -6.4863834863279024e-01
    8.8740493720456965e-03 -6.0214043163966724e-01
    9.1777261303843984e-03 -5.6248038258321542e-01
    9.7726048691898978e-03 -5.0268098436584085e-01
    1.0108918898754652e-02 -4.7572659109375431e-01
    1.1247183293405696e-02 -4.0620192023179796e-01
    1.4687918636040003e-02 -2.8934569330224730e-01
    1.5978715501015869e-02 -2.6231153129350088e-01
    1.9349213161532753e-02 -2.1176177494381340e-01
    2.7062213434876178e-02 -1.4808721943977307e-01
    1.7085697935056512e-02 -2.4308621740219885e-01
    1.5978715501015869e-02 -2.6231153129350088e-01
    1.3999448944839576e-02 -3.0642570651794782e-01
    1.2060346747273522e-02 -3.6957457414391820e-01
    1.0729681804523319e-02 -4.3448303787844422e-01
    1.0614673414265113e-02 -4.4144285572630448e-01
    1.0729681804523319e-02 -4.3448303787844422e-01
    1.0108918898754652e-02 -4.7572659109375431e-01
    9.9341464719903301e-03 -4.8924605479008171e-01
    1.0399371440215157e-02 -4.5525145360598546e-01
    9.3549517792359885e-03 -5.4262735320332356e-01
    8.6641167379366557e-03 -6.3530658569805909e-01
    8.5197933108117022e-03 -6.6202084932294369e-01
    8.3937603479755062e-03 -6.8897281826193801e-01
    8.1265806096903551e-03 -7.6487516210519091e-01
    8.0889174514013271e-03 -7.7903565497616212e-01
    8.1073642654410864e-03 -7.7193938295626829e-01
    7.9046019812965256e-03 -8.8239784349151340e-01
    7.8886777529619187e-03 -8.9788727042296168e-01
    7.8640969034102660e-03 -9.2951600308978000e-01
    7.9134905503718076e-03 -8.7472939538551897e-01
    7.9802113734389630e-03 -8.2970223399810672e-01
    8.0225470093718519e-03 -8.0776374609383550e-01
    7.9674590585652599e-03 -8.3709612769818698e-01
    8.1073642654410864e-03 -7.7193938295626829e-01
    8.1265806096903551e-03 -7.6487516210519091e-01
    8.5540723342696825e-03 -6.5532270887001642e-01
    8.9684432387452696e-03 -5.8891494228670660e-01
    8.8740493720456965e-03 -6.0214043163966724e-01
    8.7438846837143130e-03 -6.2201668941014909e-01
    8.9684432387452696e-03 -5.8891494228670660e-01
    9.5522392959224156e-03 -5.2270837348931676e-01
    9.8518098627596064e-03 -4.9597308879901369e-01
    1.0201743777168525e-02 -4.6892993928529997e-01
    1.0614673414265113e-02 -4.4144285572630448e-01
    1.2060346747273522e-02 -3.6957457414391820e-01
    1.3999448944839576e-02 -3.0642570651794782e-01
    1.7085697935056512e-02 -2.4308621740219885e-01
    1.9349213161532753e-02 -2.1176177494381340e-01
    2.7062213434876178e-02 -1.4808721943977307e-01
    2.2972724323714645e-02 -1.7599275930399416e-01
    2.0350284106403556e-02 -2.0044593143431830e-01
    1.5506931996019262e-02 -2.7153769332085226e-01
    1.4329533543954776e-02 -2.9796819751270764e-01
    1.2671092717693960e-02 -3.4668762264076824e-01
    1.1546735270468020e-02 -3.9174653353240219e-01
    1.1879595629972166e-02 -3.7703695143194921e-01
    1.1546735270468020e-02 -3.9174653353240219e-01
    1.0614673414265113e-02 -4.4144285572630448e-01
    1.0729681804523319e-02 -4.3448303787844422e-01
    1.1247183293405696e-02 -4.0620192023179796e-01
    1.1247183293405696e-02 -4.0620192023179796e-01
    9.6963717524388305e-03 -5.0937163197361068e-01
    9.1226702878722116e-03 -5.6909018297949610e-01
    8.4866551326834780e-03 -6.6873385509042349e-01
    8.3648685043486437e-03 -6.9575601551191724e-01
    8.3648685043486437e-03 -6.9575601551191724e-01
    8.1890036535635646e-03 -7.4386378681404652e-01
    7.9936368360324968e-03 -8.2234967793862201e-01
    8.0225470093718519e-03 -8.0776374609383550e-01
    8.0889174514013271e-03 -7.7903565497616212e-01
    8.2589537045338057e-03 -7.2310152606218736e-01
    8.0889174514013271e-03 -7.7903565497616212e-01
    8.2347693079450265e-03 -7.2999639508843150e-01
    8.2347693079450265e-03 -7.2999639508843150e-01
    8.7033317330071341e-03 -6.2865696595068699e-01
    9.0181013252877348e-03 -5.8230615639036043e-01
    8.9684432387452696e-03 -5.8891494228670660e-01
    8.8740493720456965e-03 -6.0214043163966724e-01
    9.2347340910160277e-03 -5.5586757779613649e-01
    9.3549517792359885e-03 -5.4262735320332356e-01
    1.0399371440215157e-02 -4.5525145360598546e-01
    1.0976126996500142e-02 -4.2043748259126085e-01
    1.0976126996500142e-02 -4.2043748259126085e-01
    1.1879595629972166e-02 -3.7703695143194921e-01
    1.3411062069516103e-02 -3.2290153738191130e-01
    1.4687918636040003e-02 -2.8934569330224730e-01
    1.8490255434736296e-02 -2.2259728109199706e-01
    2.7062213434876178e-02 -1.4808721943977307e-01
    3.0190339981575672e-02 -1.3216372009101796e-01
    2.4758662902469281e-02 -1.6257834438102145e-01
    2.2972724323714645e-02 -1.7599275930399416e-01
    1.7743078775459203e-02 -2.3302069121418523e-01
    1.5506931996019262e-02 -2.7153769332085226e-01
    1.5506931996019262e-02 -2.7153769332085226e-01
    1.3411062069516103e-02 -3.2290153738191130e-01
    1.2901404046166949e-02 -3.3886949683494305e-01
    1.2455004646112461e-02 -3.5440635538079662e-01
    1.2455004646112461e-02 -3.5440635538079662e-01
    1.1879595629972166e-02 -3.7703695143194921e-01
    1.2455004646112461e-02 -3.5440635538079662e-01
    1.2671092717693960e-02 -3.4668762264076824e-01
    1.2060346747273522e-02 -3.6957457414391820e-01
    1.1108354831560707e-02 -4.1334522055635764e-01
    9.5522392959224156e-03 -5.2270837348931676e-01
    9.1777261303843984e-03 -5.6248038258321542e-01
    8.6641167379366557e-03 -6.3530658569805909e-01
    8.6261958091912311e-03 -6.4196667524195683e-01
    8.3369669305991250e-03 -7.0255942352924383e-01
    8.1890036535635646e-03 -7.4386378681404652e-01
    8.2347693079450265e-03 -7.2999639508843150e-01
    8.4866551326834780e-03 -6.6873385509042349e-01
    8.5895274357169725e-03 -6.4863834863279024e-01
    8.5540723342696825e-03 -6.5532270887001642e-01
    8.7858220211161388e-03 -6.1538461538461531e-01
    9.0694869339304623e-03 -5.7569833370313961e-01
    9.4840745377584076e-03 -5.2935789426415492e-01
    9.8518098627596064e-03 -4.9597308879901369e-01
    1.0201743777168525e-02 -4.6892993928529997e-01
    1.0201743777168525e-02 -4.6892993928529997e-01
    9.8518098627596064e-03 -4.9597308879901369e-01
    1.1108354831560707e-02 -4.1334522055635764e-01
    1.1708657284586149e-02 -3.8442587221924479e-01
    1.2901404046166949e-02 -3.3886949683494305e-01
    1.5506931996019262e-02 -2.7153769332085226e-01
    1.5506931996019262e-02 -2.7153769332085226e-01
    1.6501737158095036e-02 -2.5283777534076940e-01
    2.2972724323714645e-02 -1.7599275930399416e-01
    3.4784934924914371e-02 -1.1420804814403215e-01
    4.2510357063302688e-02 -9.3048421039847076e-02
    3.0190339981575672e-02 -1.3216372009101796e-01
    2.2972724323714645e-02 -1.7599275930399416e-01
    2.1536716342021645e-02 -1.8856180831641267e-01
    1.8490255434736296e-02 -2.2259728109199706e-01
    1.9349213161532753e-02 -2.1176177494381340e-01
    1.8490255434736296e-02 -2.2259728109199706e-01
    1.6501737158095036e-02 -2.5283777534076940e-01
    1.4687918636040003e-02 -2.8934569330224730e-01
    1.3999448944839576e-02 -3.0642570651794782e-01
    1.3411062069516103e-02 -3.2290153738191130e-01
    1.2901404046166949e-02 -3.3886949683494305e-01
    1.3999448944839576e-02 -3.0642570651794782e-01
    1.3999448944839576e-02 -3.0642570651794782e-01
    1.2901404046166949e-02 -3.3886949683494305e-01
    1.1247183293405696e-02 -4.0620192023179796e-01
    1.0298481611642731e-02 -4.6210568776705907e-01
    9.4183490436170175e-03 -5.3599703140927746e-01
    9.0694869339304623e-03 -5.7569833370313961e-01
    9.2937790891165582e-03 -5.4925037792761811e-01
    9.2347340910160277e-03 -5.5586757779613649e-01
    8.7858220211161388e-03 -6.1538461538461531e-01
    9.4840745377584076e-03 -5.2935789426415492e-01
    8.9684432387452696e-03 -5.8891494228670660e-01
    9.8518098627596064e-03 -4.9597308879901369e-01
    9.5522392959224156e-03 -5.2270837348931676e-01
    1.0298481611642731e-02 -4.6210568776705907e-01
    1.0504673830023799e-02 -4.4836472635015745e-01
    1.0729681804523319e-02 -4.3448303787844422e-01
    1.1546735270468020e-02 -3.9174653353240219e-01
    1.1247183293405696e-02 -4.0620192023179796e-01
    1.1546735270468020e-02 -3.9174653353240219e-01
    1.3694247185679617e-02 -3.1473259089834482e-01
    1.6501737158095036e-02 -2.5283777534076940e-01
    1.7743078775459203e-02 -2.3302069121418523e-01
    1.8490255434736296e-02 -2.2259728109199706e-01
    2.1536716342021645e-02 -1.8856180831641267e-01
    2.0350284106403556e-02 -2.0044593143431830e-01
    2.2972724323714645e-02 -1.7599275930399416e-01
    3.0190339981575672e-02 -1.3216372009101796e-01
    3.4784934924914371e-02 -1.1420804814403215e-01
    2.4758662902469281e-02 -1.6257834438102145e-01
    2.4758662902469281e-02 -1.6257834438102145e-01
    2.4758662902469281e-02 -1.6257834438102145e-01
    3.0190339981575672e-02 -1.3216372009101796e-01
    3.0190339981575672e-02 -1.3216372009101796e-01
    2.4758662902469281e-02 -1.6257834438102145e-01
    2.1536716342021645e-02 -1.8856180831641267e-01
    1.9349213161532753e-02 -2.1176177494381340e-01
    1.5506931996019262e-02 -2.7153769332085226e-01
    1.5078717484546738e-02 -2.8054180384339100e-01
    1.5078717484546738e-02 -2.8054180384339100e-01
    1.6501737158095036e-02 -2.5283777534076940e-01
    1.7743078775459203e-02 -2.3302069121418523e-01
    1.7085697935056512e-02 -2.4308621740219885e-01
    1.4329533543954776e-02 -2.9796819751270764e-01
    1.2455004646112461e-02 -3.5440635538079662e-01
    1.1546735270468020e-02 -3.9174653353240219e-01
    1.1708657284586149e-02 -3.8442587221924479e-01
    1.1247183293405696e-02 -4.0620192023179796e-01
    9.7726048691898978e-03 -5.0268098436584085e-01
    1.0108918898754652e-02 -4.7572659109375431e-01
    1.2455004646112461e-02 -3.5440635538079662e-01
    1.1708657284586149e-02 -3.8442587221924479e-01
    1.0850040945871208e-02 -4.2748229992745790e-01
    1.1546735270468020e-02 -3.9174653353240219e-01
    1.1108354831560707e-02 -4.1334522055635764e-01
    1.1108354831560707e-02 -4.1334522055635764e-01
    1.1393121338876397e-02 -3.9900373444305315e-01
    1.2455004646112461e-02 -3.5440635538079662e-01
    1.3147469597555521e-02 -3.3094381626464864e-01
    1.4329533543954776e-02 -2.9796819751270764e-01
    1.5978715501015869e-02 -2.6231153129350088e-01
    1.8490255434736296e-02 -2.2259728109199706e-01
    1.9349213161532753e-02 -2.1176177494381340e-01
    2.1536716342021645e-02 -1.8856180831641267e-01
    2.7062213434876178e-02 -1.4808721943977307e-01
    3.0190339981575672e-02 -1.3216372009101796e-01
    2.7062213434876178e-02 -1.4808721943977307e-01
    2.4758662902469281e-02 -1.6257834438102145e-01</input_scale>
  <output_scale>
    1.0526315789473684e+00 0.</output_scale>
  <inv_output_scale>
    9.4999999999999996e-01 0.</inv_output_scale>
  <weights>
    <_>
      -2.8587631576255568e-01 -1.0967703777438001e-01
      -8.8126526759977994e-02 -3.7448351917093177e-02
      8.0337202479331335e-02 -2.1027667381676406e-02
      3.5280941928678061e-02 7.0327307404189618e-02
      6.0683811761825211e-03 -1.3452926183703384e-01
      -3.3377569251344913e-02 -6.8680584400314978e-02
      -3.3321377743794921e-02 4.5915264025936556e-02
      6.6341301770568278e-03 -3.4120555959069751e-02
      8.5287919317938148e-03 -5.7294864529969888e-02
      1.2950004707043394e-01 -1.3320570179511462e-01
      6.5123632642560575e-02 -1.7159200211916418e-02
      -8.2154100160739003e-03 -8.8967346859070415e-02
      -3.4435083593026765e-02 1.2311910318115992e-02
      -1.1556814049714130e-01 1.1908482565219546e-01
      -3.4783681942215164e-02 -3.3389610949607663e-02
      9.8461316058965395e-02 1.1249843726143115e-01
      -1.3955529293586971e-01 -3.7166298845680810e-02
      -4.9732916884774742e-02 -1.4038885165333220e-02
      -8.5505038905081224e-02 -4.2202656203059782e-02
      1.0410795402868338e-01 8.1970649948706523e-02
      -3.0277569693844275e-01 -5.2453788311220627e-02
      -4.4689247183602607e-02 -2.5652396676831286e-02
      4.0755369983602532e-02 1.0078326619398557e-02
      1.9519802406186827e-02 5.1019514687130299e-02
      -1.3942109306011462e-02 -7.1514899842902699e-02
      -1.7519542958868865e-02 -4.8925665949839832e-02
      -1.7724911173455603e-02 3.4866944105893569e-02
      -1.1962246720660839e-02 -1.0323614451939073e-02
      -1.6582898060075627e-02 -4.3230294188169184e-02
      6.4741471750528370e-02 -7.2402037720227783e-02
      4.7759822885094332e-02 1.6568987310438096e-02
      1.3204432626594705e-02 -4.4620679331923270e-02
      -1.0987983289955608e-02 -1.5973360349191452e-02
      -6.0624193235756040e-02 5.7709348421138056e-02
      -2.2497280912425317e-02 -1.0697112560442930e-02
      5.1442788423050195e-02 5.8598164984299178e-02
      -6.8299151587136578e-02 -2.5672260393899828e-02
      -3.8002098551175048e-02 1.6177017023927185e-02
      -4.3330293786787218e-02 -3.1606438857643596e-02
      5.1465037607142071e-02 4.2513342794400485e-02
      1.4609683940271945e-01 6.0949862941160450e-03
      2.2172451779357859e-02 9.4116025029664756e-03
      -2.4390294395889665e-02 -7.9921233787026789e-03
      -1.3362492904395590e-02 -7.0682418140370950e-03
      2.0097323844515548e-02 -5.1604048076995283e-03
      1.5097232978106020e-02 6.3049069329239151e-03
      1.5636466618362838e-02 -8.1570936299181444e-03
      2.7300745696530130e-02 -1.8009614611212865e-02
      2.2940968559690841e-02 6.2247863831580326e-03
      2.0010366938127749e-03 -7.0216451972854917e-03
      -5.0825822172784344e-03 -7.3357600325469662e-03
      -2.3335965316020793e-02 3.0026290626864082e-02
      -2.2016106285955427e-02 2.1059645040522643e-02
      1.0868801430234576e-03 -2.2759770677586626e-03
      1.2686513250178395e-02 -1.8925448999147009e-02
      -2.8498408838653958e-02 -4.9136354784627030e-03
      3.4076924537777077e-04 8.9901729990861084e-03
      7.1023035626369612e-03 -1.0100500974358245e-02
      2.3269070837694816e-02 7.6821020589392915e-03
      -2.9961807825321377e-02 -2.9516445902844260e-02
      1.0919322593386616e-01 2.2408946061953181e-02
      3.7372358551405645e-02 6.4341367653774004e-03
      -1.6884157243388351e-02 -9.3005644259432541e-04
      -6.8762915322772809e-03 -4.5272892508879073e-04
      -9.5809864418545682e-03 5.1118067237955214e-02
      8.7379368305790447e-03 -8.8195526554022462e-05
      8.6634432145742124e-03 -4.7795497368540536e-03
      -9.1063858098255641e-03 5.7850363464322773e-03
      -8.0770813678827918e-03 6.1894066325634222e-04
      -4.2165844056803528e-02 5.5848616576758117e-02
      1.8666988841268442e-03 -4.4945160035636438e-03
      1.1566412547511199e-02 4.6005839413049088e-02
      6.0967221506732523e-03 2.2754990096001998e-03
      5.1761004206815030e-02 -2.8839192687197261e-02
      8.5912223877066159e-03 5.4696355853715599e-03
      -4.6998891041661543e-02 -4.9051932931968772e-02
      3.5496590884543357e-02 6.0931583699486772e-03
      3.6619418579173697e-03 -8.3213903050192344e-04
      4.3128014155722316e-02 5.8738427011459640e-03
      -5.0715854114147162e-02 -4.4828057229121823e-02
      6.2850539052574941e-02 1.2678033824634487e-02
      -2.5987197603986520e-04 1.9747659371809477e-04
      -2.5057289203148123e-02 -2.5898326828888634e-02
      -2.3880365109351445e-03 -1.3587399410533384e-03
      -6.7796771258633983e-03 6.8012937098260118e-02
      3.9771957783249759e-03 -3.3036081727242568e-05
      4.2220166576735513e-03 -2.8922482972257172e-04
      -1.2529189445693867e-02 -1.8620095055065723e-02
      -1.1860576904213255e-03 -2.0704746237832122e-03
      -5.0075895815546632e-02 7.3400535072792886e-02
      6.4926633763734269e-04 -2.6630138444562163e-02
      6.6988368164137991e-03 3.6580051237497066e-02
      -2.0801451148168466e-02 2.4633553831544523e-02
      6.2072661277577081e-02 -3.9373117881796295e-02
      1.1271337560645725e-03 -1.7898813295966699e-02
      -3.3256581368996264e-02 -6.0335449281744453e-02
      4.3522520859429432e-02 9.1956790231329877e-04
      -1.5677188920035466e-03 -2.0062139307731618e-02
      3.4062567763368059e-03 1.1852189971039927e-03
      -3.4856436316917150e-02 -3.2307325808635518e-02
      6.3276303218541510e-02 1.1307041172181429e-02
      5.9089509411440911e-04 8.2740524752824207e-04
      -2.3913202984398130e-02 -2.7247727851681235e-02
      -2.8988645745003103e-03 -1.8162505191796341e-03
      -6.6268119755412041e-03 6.8227111350251668e-02
      2.7365714476361054e-03 -4.4131506557571327e-04
      4.4158916685355515e-03 -6.9542222862371296e-04
      -1.0929612174131919e-02 -1.8161796834632937e-02
      -1.8858011775601063e-03 -3.4680685061235813e-03
      -5.1999513330493123e-02 7.3248740984446975e-02
      6.5885061612524121e-04 -2.5239553957414063e-02
      8.1264079779763670e-03 3.6692895463574224e-02
      -2.2791850762002675e-02 2.3938239395642887e-02
      6.3674233806807118e-02 -4.0129507006102925e-02
      1.6210704539295006e-03 -1.7623978381935957e-02
      -3.3903565016010266e-02 -6.0434116300359851e-02
      4.4999558232108668e-02 1.8185886623554902e-03
      -3.5797735605211937e-04 -2.0155965576665505e-02
      4.1851497095145469e-03 1.1720122690944425e-03
      -3.3800785760729160e-02 -3.3732978363619326e-02
      -9.9232946768048877e-02 -2.8065855548519973e-02
      -3.0091897119854792e-02 -1.1255940917334178e-02
      1.3466312366862019e-02 -1.8099373432763813e-02
      9.7365268037177422e-03 2.1628672487087164e-02
      -9.3118419313588004e-03 2.6808943085406354e-02
      -8.9067713949527068e-03 -2.2971557510064858e-02
      -9.9514345843966408e-03 1.5317033593655697e-02
      -9.8017342967164460e-03 -1.4681999823523461e-02
      -9.7566155268110164e-03 -2.2022978383379625e-02
      -1.8664117849154640e-02 3.0802900876282992e-02
      2.3428706007978861e-02 -1.4206379278804551e-02
      1.1970335545198460e-02 -1.2025499251143565e-02
      -1.7882841189583287e-02 1.1040123457477196e-02
      1.7147706323767151e-02 -1.7280436889114696e-03
      -1.1988895164131033e-02 -1.4513775168320708e-02
      1.5563683470074623e-02 -1.4407179027899784e-02
      1.3090410643270432e-02 -1.2563426607855770e-02
      -1.6200108837116090e-02 -9.0490066297202725e-03
      -2.9052601984675304e-02 -1.3126877646187200e-02
      1.3794017959154664e-02 8.8541864091379076e-03
      -1.4188034927680462e-01 -6.9471993848605043e-02
      -6.2367974141545976e-02 -3.4449397183470308e-02
      4.4579750973133957e-02 -5.7783229694945239e-02
      2.7126451093578752e-02 6.2862082615218112e-02
      3.1912101946073128e-02 -3.9008696842596897e-02
      -1.9667176295678011e-02 -6.1790953819442336e-02
      -2.4286845352537001e-02 4.6199413918162409e-02
      2.5196610819327003e-02 -4.7517674258892237e-02
      3.3128432057857059e-02 -5.7869166938767598e-02
      4.5635134301710518e-02 -3.6574986629669411e-02
      6.2496358916712069e-02 -5.7502986897858696e-02
      -2.9156617419791541e-02 -4.5625168185897930e-02
      -4.9539805318640731e-02 5.1568828748309190e-02
      -3.6167809002699121e-02 4.9852652098388232e-02
      -2.9421640667839991e-02 -4.6140684016686570e-02
      5.3081098803164986e-02 3.4167813926185876e-02
      -5.4934210353006004e-02 -3.4884159627753084e-02
      -4.9959782510176860e-02 -5.1979823105783647e-02
      -5.7526301600457033e-02 -4.1675860958321438e-02
      5.6664015979559695e-02 3.8788600605687069e-02
      -1.5019833884283387e-01 -5.5347179415274471e-02
      -6.6804589668153780e-02 -2.7973702276254071e-02
      3.7834856885673666e-02 -2.4845075432276379e-02
      2.2032998997765493e-02 5.2399835167318283e-02
      1.1122823852974043e-02 -2.9689565699078272e-02
      -1.9978730871273203e-02 -5.3072971210001887e-02
      -2.1237826865789438e-02 3.6904747086182445e-02
      9.4182867529506564e-03 -3.4909372150158678e-02
      1.8400478954308536e-02 -4.9652581195923369e-02
      3.4174573421966482e-02 -2.7882342200916836e-02
      5.2870358284842135e-02 -2.6727616068360299e-02
      -7.2741651665261401e-03 -4.0567729285341379e-02
      -3.6472059898384687e-02 3.3374682877921655e-02
      -2.6579237935450792e-02 3.9433268901472043e-02
      -2.7155637569827806e-02 -3.1957919699411981e-02
      4.4366670827751184e-02 2.7012159766420994e-02
      -4.2889099480654835e-02 -2.9270247388429524e-02
      -4.2856233428343382e-02 -2.4769429201985584e-02
      -6.4591190526165021e-02 -3.5416481287062720e-02
      4.5228972718619732e-02 3.9875495731830787e-02
      -7.6097430731342758e-02 -6.6852347916232138e-02
      -4.7677121274526869e-02 -4.4132876620938122e-02
      4.0024688418663176e-02 -5.6721562200759149e-02
      3.2073554285653498e-02 7.9413866437848951e-02
      2.9178203354070419e-02 -3.9333077670490761e-02
      -2.4752824934780843e-02 -7.9001991824895756e-02
      -2.8652148802213458e-02 5.9627125214073394e-02
      2.8692720552416315e-02 -4.9947609943029610e-02
      3.3814701731905976e-02 -7.2922312741834194e-02
      4.6662998751807780e-02 -3.7979560819112933e-02
      7.8693804785018043e-02 -5.1933068765080186e-02
      -3.1246038884972311e-02 -4.0566827859516888e-02
      -5.1789815251507457e-02 4.8282242486723165e-02
      -3.3888567850604165e-02 5.0304733225293712e-02
      -3.8146026666098495e-02 -4.8639348358472757e-02
      4.4981733384289957e-02 3.0005125400042545e-02
      -5.3736073194530935e-02 -4.4227368204571238e-02
      -6.4602241038928448e-02 -5.0282185160739172e-02
      -4.5001726131862943e-02 -5.2563113941014539e-02
      4.6365579164093979e-02 3.0426905302975229e-02
      -6.3302487505786473e-02 -3.3721802636165768e-02
      -3.6427021558865604e-02 -3.2193045292215262e-02
      2.0338406326979551e-02 -2.8879810585742734e-02
      2.2955408426604273e-02 6.0723212305687675e-02
      1.1520955877069607e-02 -1.0095218822252551e-03
      -1.7720456066995939e-02 -6.1528336995151367e-02
      -2.0336938807288148e-02 4.5040681573760878e-02
      1.2447714746348922e-02 -3.2623260115025608e-02
      1.5799264188462642e-02 -5.7344814943750891e-02
      7.9125224536921116e-03 -8.7633264962890607e-04
      5.9071426858770169e-02 -2.4351137947618680e-02
      -7.6386787684866947e-03 -1.6323655555467775e-02
      -3.5787594428269273e-02 2.8936935286126588e-02
      -1.2777336985161868e-03 1.4463405223974444e-02
      -2.8218769517727713e-02 -3.1345114817083429e-02
      1.7329571333953530e-02 -6.4475020810378077e-04
      -1.3211306365430988e-02 -3.3186636376254179e-02
      -4.9400372564576085e-02 -2.3901103486450304e-02
      -3.4603666783190892e-02 -3.8785147593273818e-02
      1.7628124153869891e-02 1.3543246572653893e-02
      -1.4199528162649205e-01 -6.1782900930088591e-02
      -5.9740149776771646e-02 -4.0961093550275315e-02
      4.0265990656042042e-02 -3.0769482478621161e-02
      3.2281734772126709e-02 7.7977855771033985e-02
      1.2151961578498193e-02 -4.0351160988526300e-02
      -2.7375191668983074e-02 -7.6946921095024212e-02
      -2.9181414778785969e-02 5.3169828446007941e-02
      1.3105608438130295e-02 -3.5196491773831558e-02
      1.6883293132868106e-02 -6.8002481448298333e-02
      4.5097609735739709e-02 -3.6534651023363750e-02
      7.4552722261013726e-02 -2.5951581105712593e-02
      -1.1349280692208176e-02 -4.1494314554201446e-02
      -3.8859282584213756e-02 3.1496786097762887e-02
      -3.3986184299875655e-02 4.6775542928626485e-02
      -3.6085534548554690e-02 -3.6644628408346785e-02
      4.4796390546083351e-02 3.2412476768079949e-02
      -5.0721882261140168e-02 -4.2164846100138258e-02
      -5.8239083635566694e-02 -2.4998786857565868e-02
      -5.8533197947894383e-02 -5.0117845563406337e-02
      4.7598726157416102e-02 3.9685275696581090e-02
      -2.4680710986195545e-01 -3.1322568171114791e-02
      -6.7330996530016063e-02 -2.0281607018482407e-02
      1.5107307512861842e-02 2.4157361922342451e-02
      1.2592295990948551e-02 5.4660546671872964e-02
      -4.0737831209002956e-02 -4.4787682288655855e-03
      -1.0081377608216613e-02 -5.2854591072394576e-02
      -1.0585339401241931e-02 3.5276138014147855e-02
      -4.0811079938629591e-02 1.5246601279490086e-02
      -3.8001198342858311e-02 -4.8580761907783786e-02
      6.9644625959419202e-03 -2.7851135854041107e-03
      5.3390100640226722e-02 2.6478994686614233e-02
      4.6855744798039244e-02 -1.2044880370132289e-02
      1.6587556277494597e-02 -2.1124558841083284e-02
      1.5964187255619548e-03 1.0705884523554204e-02
      -1.7020686657173253e-02 1.5845191357790927e-02
      1.2092955912493717e-02 -4.1691367988611885e-03
      -5.2495787186499021e-03 -2.2815454602406984e-02
      -3.9763828166561793e-02 2.6998741558799680e-02
      -6.7748472994861170e-02 -3.0077105054398146e-02
      1.4225951283437923e-02 3.7101821043532233e-02
      1.9230940228974664e-02 -2.9866086397157546e-02
      -2.5929679947302681e-02 -1.9330587995674237e-02
      8.4801097808466352e-03 -2.5109151037538992e-02
      1.3143294495786995e-02 4.2400529910348740e-02
      8.4407435274685503e-03 -2.1678526844149952e-03
      -8.8062234135969451e-03 -4.1678719930211411e-02
      -9.5556822488379305e-03 2.6701132081036406e-02
      1.1295439524690670e-02 -3.8613969311460446e-02
      1.0648452612210035e-02 -3.8805824311122207e-02
      4.6433113446674246e-03 4.2792892093319396e-04
      3.9235442870449569e-02 -1.8177826565295058e-02
      -6.8004820141672603e-03 -1.0291066351908663e-02
      -4.3167080705235845e-02 2.5724146044955525e-02
      4.1629176444863743e-03 8.4419268252783185e-03
      -1.6380038251615089e-02 -3.7850733917312876e-02
      1.0931479590777263e-02 -5.6570446573035683e-03
      -4.0091176580809391e-03 -1.8841772749535086e-02
      -3.0864858018217579e-02 -1.5374401822244851e-02
      -2.3992317535925973e-02 -2.4649556336242221e-02
      1.1522624491405096e-02 4.6796559013647385e-03
      -1.6509416325676096e-01 -8.0047929826360206e-02
      -5.4385252353809893e-02 -4.3869628396575835e-02
      5.0834954903352478e-02 -3.5405053926979416e-02
      3.6606575825874420e-02 8.4283071533172049e-02
      3.6909339811116569e-02 -7.1885707581062164e-02
      -2.9748447691974902e-02 -8.2102683452495231e-02
      -3.1742364159020223e-02 6.0174283263193545e-02
      3.5683984324166071e-02 -4.0482659441949079e-02
      3.5935119386851677e-02 -7.5000012040994324e-02
      7.4073060295188009e-02 -7.2574415597861458e-02
      8.0855471604501891e-02 -3.3905665633464269e-02
      -3.8147902074618240e-02 -6.0100266436502361e-02
      -3.6789939061833130e-02 4.3777578570780129e-02
      -6.2512892187883543e-02 7.0249068494046121e-02
      -4.1319881163513289e-02 -3.5991223885990770e-02
      6.6741204345548547e-02 5.7215523456459839e-02
      -6.8256913408430916e-02 -4.5175996218185299e-02
      -6.4091985574711380e-02 -3.4952351190763772e-02
      -5.1288171771988758e-02 -5.2206149296387595e-02
      6.9414753503743779e-02 4.1441346863704757e-02
      8.2973574869397021e-02 -1.1147951665429503e-02
      1.3154422705455963e-02 -1.7181377807458376e-02
      4.8297323645323858e-03 -2.8126265472095253e-02
      1.5848588943754374e-02 2.5808248925652703e-02
      4.0771914426999782e-02 -3.9350107671605496e-02
      -1.1930234564524463e-02 -2.6913283935480439e-02
      -1.3389351947426787e-02 1.7529127941759818e-02
      4.4946296709539708e-02 -1.5002609649424315e-02
      4.1981093436668150e-02 -2.3104216240240696e-02
      4.2327186139476045e-02 -4.0017546529536596e-02
      2.5097372762029824e-02 -2.9971677366698219e-02
      -4.3893519376189453e-02 -8.0627429029358228e-03
      -6.6003914506851495e-03 3.9270704874874406e-02
      -3.6545081834923519e-02 4.3451333406915801e-02
      -1.5866833797286119e-02 -1.1692108647162056e-02
      2.6600861086160696e-03 3.3499080715716507e-02
      -4.2816196568367187e-02 -1.5412964879607730e-02
      -2.0310795355777178e-02 -3.3427081208425233e-02
      1.4819787370330359e-02 -1.6744143476702666e-02
      5.5495939817103825e-03 -1.4740524582875674e-02
      1.0863905058589254e-01 -1.3714998843108261e-02
      1.6222255234594536e-02 -1.6921988850601321e-02
      6.4898517927312631e-03 -4.0359894125385903e-02
      1.6886411346491149e-02 2.5186549242383387e-02
      5.6134346983417932e-02 -3.3921408405217665e-02
      -1.4369108653533660e-02 -2.5302834408925133e-02
      -1.4846985081306750e-02 2.0194408268818763e-02
