<?xml version="1.0"?>
<opencv_storage>
<shapeML type_id="opencv-ml-ann-mlp">
  <layer_sizes type_id="opencv-matrix">
    <rows>1</rows>
    <cols>3</cols>
    <dt>i</dt>
    <data>
      1600 40 1</data></layer_sizes>
  <activation_function>SIGMOID_SYM</activation_function>
  <f_param1>5.9999999999999998e-01</f_param1>
  <f_param2>1.</f_param2>
  <min_val>-9.4999999999999996e-01</min_val>
  <max_val>9.4999999999999996e-01</max_val>
  <min_val1>-9.7999999999999998e-01</min_val1>
  <max_val1>9.7999999999999998e-01</max_val1>
  <training_params>
    <train_method>BACKPROP</train_method>
    <dw_scale>1.0000000000000001e-01</dw_scale>
    <moment_scale>1.0000000000000001e-01</moment_scale>
    <term_criteria><epsilon>9.9999999747524271e-07</epsilon>
      <iterations>4000</iterations></term_criteria></training_params>
  <input_scale>
    5.8562102065561318e-02 -6.7267279399631244e-02
    2.9481837734950663e-02 -1.3545709229571926e-01
    4.1503665649514014e-02 -9.5346258924559224e-02
    5.8562102065561318e-02 -6.7267279399631244e-02
    3.3964881931426119e-02 -1.1704114719613055e-01
    3.3964881931426119e-02 -1.1704114719613055e-01
    2.9481837734950663e-02 -1.3545709229571926e-01
    2.6430046360705770e-02 -1.5179418517972906e-01
    2.2441120826328567e-02 -1.8043874177926347e-01
    2.1040735349817381e-02 -1.9334729780913271e-01
    1.9883907657740132e-02 -2.0555661294825950e-01
    1.8070710308700548e-02 -2.2832586673831098e-01
    1.9883907657740132e-02 -2.0555661294825950e-01
    1.7342532762891202e-02 -2.3904572186687875e-01
    1.6133073362623967e-02 -2.5943726083138541e-01
    1.5623631667570295e-02 -2.6919095102908280e-01
    1.4366846702014489e-02 -2.9704426289300229e-01
    1.7342532762891202e-02 -2.3904572186687875e-01
    1.8070710308700548e-02 -2.2832586673831098e-01
    1.2629163275217292e-02 -3.4815531191139565e-01
    1.1636842076791883e-02 -3.8763264485529725e-01
    1.2868334392094803e-02 -3.3996748292628837e-01
    1.5164189134582267e-02 -2.7869320571664707e-01
    1.6133073362623967e-02 -2.5943726083138541e-01
    2.6430046360705770e-02 -1.5179418517972906e-01
    2.6430046360705770e-02 -1.5179418517972906e-01
    2.6430046360705770e-02 -1.5179418517972906e-01
    1.8070710308700548e-02 -2.2832586673831098e-01
    1.8907968214392432e-02 -2.1718612138153467e-01
    2.1040735349817381e-02 -1.9334729780913271e-01
    1.9883907657740132e-02 -2.0555661294825950e-01
    2.6430046360705770e-02 -1.5179418517972906e-01
    2.2441120826328567e-02 -1.8043874177926347e-01
    2.6430046360705770e-02 -1.5179418517972906e-01
    2.6430046360705770e-02 -1.5179418517972906e-01
    2.6430046360705770e-02 -1.5179418517972906e-01
    3.3964881931426119e-02 -1.1704114719613055e-01
    4.1503665649514014e-02 -9.5346258924559224e-02
    5.8562102065561318e-02 -6.7267279399631244e-02
    3.3964881931426119e-02 -1.1704114719613055e-01
    3.3964881931426119e-02 -1.1704114719613055e-01
    2.6430046360705770e-02 -1.5179418517972906e-01
    4.1503665649514014e-02 -9.5346258924559224e-02
    4.1503665649514014e-02 -9.5346258924559224e-02
    2.6430046360705770e-02 -1.5179418517972906e-01
    2.6430046360705770e-02 -1.5179418517972906e-01
    2.4183006535947710e-02 -1.6666666666666666e-01
    2.2441120826328567e-02 -1.8043874177926347e-01
    1.8907968214392432e-02 -2.1718612138153467e-01
    1.8070710308700548e-02 -2.2832586673831098e-01
    1.4747262230976624e-02 -2.8797018815893544e-01
    1.3124611469855593e-02 -3.3166247903553997e-01
    1.3400009860365157e-02 -3.2322996757772710e-01
    1.1998131189021471e-02 -3.7210420376762532e-01
    1.1023637461455174e-02 -4.1785544701867244e-01
    1.0305164900569451e-02 -4.6164353574848283e-01
    1.0522672835293128e-02 -4.4721359549995793e-01
    1.0203451496896665e-02 -4.6880723093849541e-01
    9.9232069959064827e-03 -4.9012596716267831e-01
    1.0639104423117787e-02 -4.3994134506405991e-01
    9.8373122024153180e-03 -4.9718307617612550e-01
    1.0639104423117787e-02 -4.3994134506405991e-01
    1.0305164900569451e-02 -4.6164353574848283e-01
    1.1023637461455174e-02 -4.1785544701867244e-01
    1.2195457143046737e-02 -3.6421567954234174e-01
    1.2629163275217292e-02 -3.4815531191139565e-01
    1.4366846702014489e-02 -2.9704426289300229e-01
    1.3400009860365157e-02 -3.2322996757772710e-01
    1.3400009860365157e-02 -3.2322996757772710e-01
    1.4366846702014489e-02 -2.9704426289300229e-01
    1.6701980596492482e-02 -2.4940119674492151e-01
    1.8907968214392432e-02 -2.1718612138153467e-01
    1.7342532762891202e-02 -2.3904572186687875e-01
    1.8070710308700548e-02 -2.2832586673831098e-01
    1.8907968214392432e-02 -2.1718612138153467e-01
    1.8907968214392432e-02 -2.1718612138153467e-01
    2.6430046360705770e-02 -1.5179418517972906e-01
    3.3964881931426119e-02 -1.1704114719613055e-01
    2.9481837734950663e-02 -1.3545709229571926e-01
    2.6430046360705770e-02 -1.5179418517972906e-01
    5.8562102065561318e-02 -6.7267279399631244e-02
    2.6430046360705770e-02 -1.5179418517972906e-01
    2.6430046360705770e-02 -1.5179418517972906e-01
    2.9481837734950663e-02 -1.3545709229571926e-01
    2.4183006535947710e-02 -1.6666666666666666e-01
    2.1040735349817381e-02 -1.9334729780913271e-01
    1.9883907657740132e-02 -2.0555661294825950e-01
    1.9883907657740132e-02 -2.0555661294825950e-01
    1.4366846702014489e-02 -2.9704426289300229e-01
    1.3124611469855593e-02 -3.3166247903553997e-01
    1.1812257707519126e-02 -3.7990774789047999e-01
    1.1313976269013279e-02 -4.0286929011959444e-01
    1.0889160794792718e-02 -4.2526587428312101e-01
    9.7548344634329921e-03 -5.0421948408961070e-01
    9.8373122024153180e-03 -4.9718307617612550e-01
    9.2594813547212523e-03 -5.5306631875497203e-01
    9.1988069974687676e-03 -5.6000845302157831e-01
    8.9770448317335692e-03 -5.8775381364525869e-01
    8.8303854586889528e-03 -6.0858061945018460e-01
    9.0839181774018483e-03 -5.7388266863991411e-01
    8.9264108759462626e-03 -5.9469196781641998e-01
    9.1403173211381753e-03 -5.6694670951384085e-01
    9.3224411566743982e-03 -5.4611868127275021e-01
    9.5261529721759504e-03 -5.2522573143889029e-01
    9.3224411566743982e-03 -5.4611868127275021e-01
    9.3224411566743982e-03 -5.4611868127275021e-01
    1.0522672835293128e-02 -4.4721359549995793e-01
    1.1023637461455174e-02 -4.1785544701867244e-01
    1.1165058537397264e-02 -4.1039134083406159e-01
    1.2629163275217292e-02 -3.4815531191139565e-01
    1.4366846702014489e-02 -2.9704426289300229e-01
    1.5623631667570295e-02 -2.6919095102908280e-01
    1.6133073362623967e-02 -2.5943726083138541e-01
    1.5164189134582267e-02 -2.7869320571664707e-01
    1.5623631667570295e-02 -2.6919095102908280e-01
    1.5623631667570295e-02 -2.6919095102908280e-01
    1.9883907657740132e-02 -2.0555661294825950e-01
    2.2441120826328567e-02 -1.8043874177926347e-01
    2.2441120826328567e-02 -1.8043874177926347e-01
    2.9481837734950663e-02 -1.3545709229571926e-01 1. 0.
    4.1503665649514014e-02 -9.5346258924559224e-02
    2.1040735349817381e-02 -1.9334729780913271e-01
    1.9883907657740132e-02 -2.0555661294825950e-01
    1.8907968214392432e-02 -2.1718612138153467e-01
    1.8907968214392432e-02 -2.1718612138153467e-01
    1.6133073362623967e-02 -2.5943726083138541e-01
    1.2405368703777210e-02 -3.5623524993954830e-01
    1.2629163275217292e-02 -3.4815531191139565e-01
    1.1023637461455174e-02 -4.1785544701867244e-01
    1.1471007198650005e-02 -3.9528470752104744e-01
    9.7548344634329921e-03 -5.0421948408961070e-01
    9.5261529721759504e-03 -5.2522573143889029e-01
    8.9770448317335692e-03 -5.8775381364525869e-01
    8.9770448317335692e-03 -5.8775381364525869e-01
    8.5429830282487476e-03 -6.5746335602535966e-01
    8.4080472967576238e-03 -6.8571034372881423e-01
    8.3189033080770299e-03 -7.0710678118654757e-01
    8.4080472967576238e-03 -6.8571034372881423e-01
    8.5798269221945313e-03 -6.5044363558799079e-01
    8.3189033080770299e-03 -7.0710678118654757e-01
    8.2647471231817576e-03 -7.2149008669938042e-01
    8.3189033080770299e-03 -7.0710678118654757e-01
    8.2391693644818798e-03 -7.2872112825045821e-01
    8.4731039260901950e-03 -6.7155073684485123e-01
    8.8775471174975112e-03 -6.0163376748986519e-01
    9.0839181774018483e-03 -5.7388266863991411e-01
    8.8775471174975112e-03 -6.0163376748986519e-01
    1.0305164900569451e-02 -4.6164353574848283e-01
    1.0639104423117787e-02 -4.3994134506405991e-01
    1.1023637461455174e-02 -4.1785544701867244e-01
    1.1998131189021471e-02 -3.7210420376762532e-01
    1.5623631667570295e-02 -2.6919095102908280e-01
    1.5623631667570295e-02 -2.6919095102908280e-01
    1.5623631667570295e-02 -2.6919095102908280e-01
    1.5164189134582267e-02 -2.7869320571664707e-01
    1.6701980596492482e-02 -2.4940119674492151e-01
    1.9883907657740132e-02 -2.0555661294825950e-01
    2.6430046360705770e-02 -1.5179418517972906e-01
    2.6430046360705770e-02 -1.5179418517972906e-01
    5.8562102065561318e-02 -6.7267279399631244e-02
    2.4183006535947710e-02 -1.6666666666666666e-01
    2.4183006535947710e-02 -1.6666666666666666e-01
    1.6133073362623967e-02 -2.5943726083138541e-01
    1.4747262230976624e-02 -2.8797018815893544e-01
    1.4747262230976624e-02 -2.8797018815893544e-01
    1.2195457143046737e-02 -3.6421567954234174e-01
    1.1165058537397264e-02 -4.1039134083406159e-01
    1.0761132246031617e-02 -4.3262660043167644e-01
    1.0012715959085140e-02 -4.8304589153964794e-01
    9.3224411566743982e-03 -5.4611868127275021e-01
    9.0839181774018483e-03 -5.7388266863991411e-01
    8.8303854586889528e-03 -6.0858061945018460e-01
    8.5429830282487476e-03 -6.5746335602535966e-01
    8.4399909324090593e-03 -6.7862089253829594e-01
    8.3772392000063343e-03 -6.9282032302755092e-01
    7.9873841783677131e-03 -8.2572282384477025e-01
    8.0859975942306102e-03 -7.8018949760549394e-01
    8.2391693644818798e-03 -7.2872112825045821e-01
    8.3189033080770299e-03 -7.0710678118654757e-01
    8.1681485666204867e-03 -7.5058662504080143e-01
    8.3772392000063343e-03 -6.9282032302755092e-01
    8.2647471231817576e-03 -7.2149008669938042e-01
    8.2647471231817576e-03 -7.2149008669938042e-01
    8.4731039260901950e-03 -6.7155073684485123e-01
    8.2913165266106439e-03 -7.1428571428571419e-01
    8.3772392000063343e-03 -6.9282032302755092e-01
    8.5798269221945313e-03 -6.5044363558799079e-01
    9.1403173211381753e-03 -5.6694670951384085e-01
    9.4556568359593623e-03 -5.3220014488879386e-01
    1.0203451496896665e-02 -4.6880723093849541e-01
    1.1023637461455174e-02 -4.1785544701867244e-01
    1.2405368703777210e-02 -3.5623524993954830e-01
    1.4747262230976624e-02 -2.8797018815893544e-01
    1.5164189134582267e-02 -2.7869320571664707e-01
    1.3696894526187910e-02 -3.1465838776377630e-01
    1.5623631667570295e-02 -2.6919095102908280e-01
    1.8907968214392432e-02 -2.1718612138153467e-01
    2.4183006535947710e-02 -1.6666666666666666e-01
    2.1040735349817381e-02 -1.9334729780913271e-01
    5.8562102065561318e-02 -6.7267279399631244e-02
    2.1040735349817381e-02 -1.9334729780913271e-01
    1.8070710308700548e-02 -2.2832586673831098e-01
    1.5164189134582267e-02 -2.7869320571664707e-01
    1.3124611469855593e-02 -3.3166247903553997e-01
    1.1812257707519126e-02 -3.7990774789047999e-01
    1.0761132246031617e-02 -4.3262660043167644e-01
    1.0203451496896665e-02 -4.6880723093849541e-01
    9.5994166200183226e-03 -5.1823877563477294e-01
    9.1988069974687676e-03 -5.6000845302157831e-01
    9.1403173211381753e-03 -5.6694670951384085e-01
    8.7848618963001380e-03 -6.1553390449075962e-01
    8.4399909324090593e-03 -6.7862089253829594e-01
    8.6179960260719581e-03 -6.4343821681145363e-01
    8.2647471231817576e-03 -7.2149008669938042e-01
    8.1052487466293458e-03 -7.7273689064148698e-01
    7.8635870893483985e-03 -9.3034736442223276e-01
    7.9259098969371340e-03 -8.6488814078064002e-01
    7.8893757527844551e-03 -8.9714995891461058e-01
    8.0499672628960121e-03 -7.9520622556445741e-01
    7.9873841783677131e-03 -8.2572282384477025e-01
    8.0171324533232415e-03 -8.1038041555213303e-01
    8.1463061645650221e-03 -7.5793672895986730e-01
    8.1052487466293458e-03 -7.7273689064148698e-01
    7.9873841783677131e-03 -8.2572282384477025e-01
    8.0171324533232415e-03 -8.1038041555213303e-01
    8.0171324533232415e-03 -8.1038041555213303e-01
    8.2913165266106439e-03 -7.1428571428571419e-01
    8.7409162262918998e-03 -6.2249497989943658e-01
    8.9770448317335692e-03 -5.8775381364525869e-01
    9.7548344634329921e-03 -5.0421948408961070e-01
    9.6755919444425423e-03 -5.1123735814554516e-01
    1.0761132246031617e-02 -4.3262660043167644e-01
    1.1165058537397264e-02 -4.1039134083406159e-01
    1.2868334392094803e-02 -3.3996748292628837e-01
    1.2195457143046737e-02 -3.6421567954234174e-01
    1.5164189134582267e-02 -2.7869320571664707e-01
    1.7342532762891202e-02 -2.3904572186687875e-01
    2.1040735349817381e-02 -1.9334729780913271e-01
    1.8907968214392432e-02 -2.1718612138153467e-01
    5.8562102065561318e-02 -6.7267279399631244e-02
    1.7342532762891202e-02 -2.3904572186687875e-01
    1.5623631667570295e-02 -2.6919095102908280e-01
    1.2405368703777210e-02 -3.5623524993954830e-01
    1.1471007198650005e-02 -3.9528470752104744e-01
    1.1023637461455174e-02 -4.1785544701867244e-01
    1.0106053156095031e-02 -4.7594047633771874e-01
    1.0106053156095031e-02 -4.7594047633771874e-01
    9.0295215014311245e-03 -5.8081786955151560e-01
    8.8775471174975112e-03 -6.0163376748986519e-01
    8.9264108759462626e-03 -5.9469196781641998e-01
    8.5429830282487476e-03 -6.5746335602535966e-01
    8.1908925659026736e-03 -7.4326815648697908e-01
    8.1908925659026736e-03 -7.4326815648697908e-01
    7.9367715962089681e-03 -8.5695682505013049e-01
    7.8690460189120379e-03 -9.2195444572928875e-01
    7.8587798096889389e-03 -9.3880558807635428e-01
    7.8690460189120379e-03 -9.2195444572928875e-01
    7.8482347530466588e-03 -9.6459047403999132e-01
    7.8434555575848663e-03 -9.9103120896511487e-01
    7.8546206245287738e-03 -9.4733093343134200e-01
    7.9483405174889162e-03 -8.4907610528040378e-01
    7.9736368075452157e-03 -8.3346055008597630e-01
    7.9062750776002326e-03 -8.8090862182180973e-01
    8.0018788209021228e-03 -8.1802990919087237e-01
    7.8974868890874777e-03 -8.8900088900133356e-01
    7.9367715962089681e-03 -8.5695682505013049e-01
    8.0171324533232415e-03 -8.1038041555213303e-01
    8.2391693644818798e-03 -7.2872112825045821e-01
    8.2913165266106439e-03 -7.1428571428571419e-01
    8.7848618963001380e-03 -6.1553390449075962e-01
    9.0295215014311245e-03 -5.8081786955151560e-01
    9.1403173211381753e-03 -5.6694670951384085e-01
    9.7548344634329921e-03 -5.0421948408961070e-01
    1.0639104423117787e-02 -4.3994134506405991e-01
    1.2195457143046737e-02 -3.6421567954234174e-01
    1.3124611469855593e-02 -3.3166247903553997e-01
    1.4747262230976624e-02 -2.8797018815893544e-01
    1.6701980596492482e-02 -2.4940119674492151e-01
    2.1040735349817381e-02 -1.9334729780913271e-01
    2.4183006535947710e-02 -1.6666666666666666e-01
    1.5623631667570295e-02 -2.6919095102908280e-01
    1.4018061938862493e-02 -3.0593473015220168e-01
    1.1471007198650005e-02 -3.9528470752104744e-01
    1.0522672835293128e-02 -4.4721359549995793e-01
    1.1313976269013279e-02 -4.0286929011959444e-01
    9.3224411566743982e-03 -5.4611868127275021e-01
    8.6984917745947781e-03 -6.2946518179668975e-01
    8.5429830282487476e-03 -6.5746335602535966e-01
    8.5798269221945313e-03 -6.5044363558799079e-01
    8.3475346364654049e-03 -6.9995205971983565e-01
    7.9606256972058337e-03 -8.4124449935337320e-01
    7.8974868890874777e-03 -8.8900088900133356e-01
    7.8635870893483985e-03 -9.3034736442223276e-01
    7.8690460189120379e-03 -9.2195444572928875e-01
    7.8635870893483985e-03 -9.3034736442223276e-01
    7.8444106982055156e-03 -9.8214142052532571e-01
    7.8546206245287738e-03 -9.4733093343134200e-01
    7.8431372549019607e-03 -1. 7.8511064671174125e-03
    -1.0461068887267255e+00 7.8444106982055138e-03
    -1.0181833075170805e+00 7.8482347530466588e-03
    -9.6459047403999132e-01 7.8460033749519140e-03
    -1.0274023338281628e+00 7.8546206245287738e-03
    -1.0555973258234954e+00 7.8444106982055138e-03
    -1.0181833075170805e+00 7.8974868890874777e-03
    -8.8900088900133356e-01 7.9062750776002326e-03
    -8.8090862182180973e-01 7.9367715962089681e-03
    -8.5695682505013049e-01 8.1681485666204867e-03
    -7.5058662504080143e-01 8.1253457467713609e-03
    -7.6531972777022150e-01 8.1253457467713609e-03
    -7.6531972777022150e-01 8.3189033080770299e-03
    -7.0710678118654757e-01 8.7409162262918998e-03
    -6.2249497989943658e-01 8.8303854586889528e-03
    -6.0858061945018460e-01 1.0305164900569451e-02
    -4.6164353574848283e-01 1.0761132246031617e-02
    -4.3262660043167644e-01 1.2629163275217292e-02
    -3.4815531191139565e-01 1.4018061938862493e-02
    -3.0593473015220168e-01 1.6133073362623967e-02
    -2.5943726083138541e-01 1.8907968214392432e-02
    -2.1718612138153467e-01 1.8070710308700548e-02
    -2.2832586673831098e-01 1.4747262230976624e-02
    -2.8797018815893544e-01 1.3696894526187910e-02
    -3.1465838776377630e-01 1.2195457143046737e-02
    -3.6421567954234174e-01 1.1023637461455174e-02
    -4.1785544701867244e-01 1.0012715959085140e-02
    -4.8304589153964794e-01 8.9770448317335692e-03
    -5.8775381364525869e-01 8.4080472967576238e-03
    -6.8571034372881423e-01 8.1681485666204867e-03
    -7.5058662504080143e-01 8.1908925659026736e-03
    -7.4326815648697908e-01 8.0018788209021228e-03
    -8.1802990919087237e-01 7.8587798096889389e-03
    -9.3880558807635428e-01 7.8587798096889389e-03
    -9.3880558807635428e-01 7.8635870893483985e-03
    -9.3034736442223276e-01 7.8893757527844551e-03
    -8.9714995891461058e-01 7.8690460189120379e-03
    -9.2195444572928875e-01 7.8482347530466588e-03
    -1.0367093879869065e+00 7.8587798096889407e-03
    -1.0651832633943255e+00 7.8444106982055138e-03
    -1.0181833075170805e+00 7.8482347530466588e-03
    -1.0367093879869065e+00 7.8460033749519122e-03
    -9.7332852678457504e-01 7.8819355378192610e-03
    -1.1045361017187261e+00 7.8819355378192610e-03
    -1.1045361017187261e+00 7.8482347530466588e-03
    -1.0367093879869065e+00 7.8511064671174108e-03
    -9.5592526038821446e-01 7.8511064671174125e-03
    -1.0461068887267255e+00 7.8546206245287738e-03
    -9.4733093343134200e-01 7.9157469987565857e-03
    -8.7287156094396945e-01 7.9062750776002326e-03
    -8.8090862182180973e-01 7.9157469987565857e-03
    -8.7287156094396945e-01 7.9873841783677131e-03
    -8.2572282384477025e-01 7.9736368075452157e-03
    -8.3346055008597630e-01 8.0675756702197083e-03
    -7.8767884077482964e-01 8.5429830282487476e-03
    -6.5746335602535966e-01 8.9770448317335692e-03
    -5.8775381364525869e-01 1.0203451496896665e-02
    -4.6880723093849541e-01 1.0761132246031617e-02
    -4.3262660043167644e-01 1.2629163275217292e-02
    -3.4815531191139565e-01 1.4366846702014489e-02
    -2.9704426289300229e-01 1.7342532762891202e-02
    -2.3904572186687875e-01 1.8907968214392432e-02
    -2.1718612138153467e-01 1.4366846702014489e-02
    -2.9704426289300229e-01 1.3696894526187910e-02
    -3.1465838776377630e-01 1.1313976269013279e-02
    -4.0286929011959444e-01 9.5994166200183226e-03
    -5.1823877563477294e-01 8.7848618963001380e-03
    -6.1553390449075962e-01 8.6179960260719581e-03
    -6.4343821681145363e-01 8.2145588751666755e-03
    -7.3598007219398731e-01 7.9606256972058337e-03
    -8.4124449935337320e-01 7.9157469987565857e-03
    -8.7287156094396945e-01 7.8635870893483985e-03
    -9.3034736442223276e-01 7.8511064671174108e-03
    -9.5592526038821446e-01 7.8546206245287738e-03
    -9.4733093343134200e-01 7.8444106982055156e-03
    -9.8214142052532571e-01 7.8431372549019607e-03 -1.
    7.8893757527844551e-03 -1.1146408580454252e+00
    7.8974868890874742e-03 -1.1248582677159726e+00
    7.8690460189120379e-03 -1.0846522890932808e+00
    7.8460033749519122e-03 -9.7332852678457504e-01
    7.8511064671174125e-03 -1.0461068887267255e+00
    7.8751606497902884e-03 -1.0945409092309881e+00
    7.9062750776002343e-03 -1.1351915229662499e+00
    8.0171324533232398e-03 -1.2339883600452932e+00
    7.8751606497902884e-03 -1.0945409092309881e+00
    7.9259098969371340e-03 -1.1562188829383293e+00
    7.9157469987565874e-03 -1.1456439237389602e+00
    7.8434555575848646e-03 -1.0090499582190258e+00
    7.8587798096889407e-03 -1.0651832633943255e+00
    7.8431372549019607e-03 -1. 7.8482347530466588e-03
    -9.6459047403999132e-01 7.8690460189120379e-03
    -9.2195444572928875e-01 7.9062750776002326e-03
    -8.8090862182180973e-01 8.0018788209021228e-03
    -8.1802990919087237e-01 8.1253457467713609e-03
    -7.6531972777022150e-01 8.4080472967576238e-03
    -6.8571034372881423e-01 9.1988069974687676e-03
    -5.6000845302157831e-01 1.0106053156095031e-02
    -4.7594047633771874e-01 1.1636842076791883e-02
    -3.8763264485529725e-01 1.3400009860365157e-02
    -3.2322996757772710e-01 1.5623631667570295e-02
    -2.6919095102908280e-01 1.6701980596492482e-02
    -2.4940119674492151e-01 1.3124611469855593e-02
    -3.3166247903553997e-01 1.1998131189021471e-02
    -3.7210420376762532e-01 9.9232069959064827e-03
    -4.9012596716267831e-01 8.6575351513241208e-03
    -6.3644582734058408e-01 8.5429830282487476e-03
    -6.5746335602535966e-01 8.5074220249358404e-03
    -6.6449863924498864e-01 8.1908925659026736e-03
    -7.4326815648697908e-01 8.0331575283356313e-03
    -8.0277297191948638e-01 7.8511064671174108e-03
    -9.5592526038821446e-01 7.8690460189120379e-03
    -1.0846522890932808e+00 7.8444106982055138e-03
    -1.0181833075170805e+00 7.8431372549019607e-03 -1.
    7.8546206245287738e-03 -1.0555973258234954e+00
    7.8974868890874742e-03 -1.1248582677159726e+00
    8.0018788209021228e-03 -1.2224491901391688e+00
    8.0675756702197100e-03 -1.2695529551311964e+00
    7.8974868890874742e-03 -1.1248582677159726e+00
    7.8635870893484002e-03 -1.0748673433616092e+00
    7.9736368075452157e-03 -1.1998168358380537e+00
    7.9062750776002343e-03 -1.1351915229662499e+00
    7.9259098969371340e-03 -1.1562188829383293e+00
    8.1681485666204867e-03 -1.3322912594474225e+00
    8.0499672628960121e-03 -1.2575354264740257e+00
    7.9736368075452157e-03 -1.1998168358380537e+00
    7.9873841783677131e-03 -1.2110601416389963e+00
    7.9606256972058337e-03 -1.1887150534341144e+00
    8.0675756702197100e-03 -1.2695529551311964e+00
    7.9062750776002343e-03 -1.1351915229662499e+00
    7.9736368075452157e-03 -1.1998168358380537e+00
    7.8511064671174125e-03 -1.0461068887267255e+00
    7.8587798096889389e-03 -9.3880558807635428e-01
    7.8893757527844551e-03 -8.9714995891461058e-01
    7.9873841783677131e-03 -8.2572282384477025e-01
    8.0675756702197083e-03 -7.8767884077482964e-01
    8.5429830282487476e-03 -6.5746335602535966e-01
    9.5261529721759504e-03 -5.2522573143889029e-01
    1.1023637461455174e-02 -4.1785544701867244e-01
    1.2195457143046737e-02 -3.6421567954234174e-01
    1.4747262230976624e-02 -2.8797018815893544e-01
    1.8907968214392432e-02 -2.1718612138153467e-01
    1.2868334392094803e-02 -3.3996748292628837e-01
    1.0889160794792718e-02 -4.2526587428312101e-01
    8.8775471174975112e-03 -6.0163376748986519e-01
    8.3475346364654049e-03 -6.9995205971983565e-01
    8.4080472967576238e-03 -6.8571034372881423e-01
    8.2647471231817576e-03 -7.2149008669938042e-01
    7.9736368075452157e-03 -8.3346055008597630e-01
    7.8893757527844551e-03 -8.9714995891461058e-01
    7.8444106982055156e-03 -9.8214142052532571e-01
    7.8635870893484002e-03 -1.0748673433616092e+00
    7.8751606497902884e-03 -1.0945409092309881e+00
    7.8434555575848663e-03 -9.9103120896511487e-01
    7.8431372549019607e-03 -1. 7.9062750776002343e-03
    -1.1351915229662499e+00 8.1253457467713574e-03
    -1.3066434376564751e+00 8.1052487466293458e-03
    -1.2941015397489961e+00 7.9483405174889162e-03
    -1.1777507266792697e+00 7.9736368075452157e-03
    -1.1998168358380537e+00 8.0499672628960121e-03
    -1.2575354264740257e+00 7.9483405174889162e-03
    -1.1777507266792697e+00 7.9483405174889162e-03
    -1.1777507266792697e+00 7.9736368075452157e-03
    -1.1998168358380537e+00 8.0171324533232398e-03
    -1.2339883600452932e+00 7.9873841783677131e-03
    -1.2110601416389963e+00 8.0018788209021228e-03
    -1.2224491901391688e+00 8.1253457467713574e-03
    -1.3066434376564751e+00 8.2647471231817576e-03
    -1.3860204297119678e+00 8.2391693644818798e-03
    -1.3722670596924214e+00 8.1052487466293458e-03
    -1.2941015397489961e+00 7.9873841783677131e-03
    -1.2110601416389963e+00 7.8482347530466588e-03
    -1.0367093879869065e+00 7.8482347530466588e-03
    -1.0367093879869065e+00 7.8511064671174108e-03
    -9.5592526038821446e-01 7.9157469987565857e-03
    -8.7287156094396945e-01 8.1052487466293458e-03
    -7.7273689064148698e-01 8.9770448317335692e-03
    -5.8775381364525869e-01 1.0203451496896665e-02
    -4.6880723093849541e-01 1.2868334392094803e-02
    -3.3996748292628837e-01 1.4747262230976624e-02
    -2.8797018815893544e-01 1.8070710308700548e-02
    -2.2832586673831098e-01 1.2629163275217292e-02
    -3.4815531191139565e-01 1.0203451496896665e-02
    -4.6880723093849541e-01 8.8775471174975112e-03
    -6.0163376748986519e-01 8.1908925659026736e-03
    -7.4326815648697908e-01 8.0018788209021228e-03
    -8.1802990919087237e-01 7.8893757527844551e-03
    -8.9714995891461058e-01 7.8819355378192610e-03
    -9.0535746042518539e-01 7.8460033749519122e-03
    -9.7332852678457504e-01 7.8635870893484002e-03
    -1.0748673433616092e+00 7.8431372549019607e-03 -1.
    7.8690460189120379e-03 -1.0846522890932808e+00
    7.8751606497902884e-03 -1.0945409092309881e+00
    7.8974868890874742e-03 -1.1248582677159726e+00
    8.1253457467713574e-03 -1.3066434376564751e+00
    8.1908925659026736e-03 -1.3454094478182026e+00
    8.1253457467713574e-03 -1.3066434376564751e+00
    8.0499672628960121e-03 -1.2575354264740257e+00
    8.0859975942306084e-03 -1.2817398889233114e+00
    8.0331575283356313e-03 -1.2456821978060997e+00
    8.0331575283356313e-03 -1.2456821978060997e+00
    8.0171324533232398e-03 -1.2339883600452932e+00
    8.0018788209021228e-03 -1.2224491901391688e+00
    8.1052487466293458e-03 -1.2941015397489961e+00
    8.0675756702197100e-03 -1.2695529551311964e+00
    8.1681485666204867e-03 -1.3322912594474225e+00
    8.7409162262918980e-03 -1.6064386578049974e+00
    8.6984917745947781e-03 -1.5886502207249786e+00
    8.4399909324090593e-03 -1.4735767952260141e+00
    8.0018788209021228e-03 -1.2224491901391688e+00
    7.9606256972058337e-03 -1.1887150534341144e+00
    7.8893757527844551e-03 -1.1146408580454252e+00
    7.8635870893484002e-03 -1.0748673433616092e+00
    7.8635870893484002e-03 -1.0748673433616092e+00
    7.8482347530466588e-03 -9.6459047403999132e-01
    8.0171324533232415e-03 -8.1038041555213303e-01
    8.3772392000063343e-03 -6.9282032302755092e-01
    9.5994166200183226e-03 -5.1823877563477294e-01
    1.2405368703777210e-02 -3.5623524993954830e-01
    1.4747262230976624e-02 -2.8797018815893544e-01
    1.5623631667570295e-02 -2.6919095102908280e-01
    1.1165058537397264e-02 -4.1039134083406159e-01
    9.1403173211381753e-03 -5.6694670951384085e-01
    8.6575351513241208e-03 -6.3644582734058408e-01
    8.0675756702197083e-03 -7.8767884077482964e-01
    7.8893757527844551e-03 -8.9714995891461058e-01
    7.8546206245287738e-03 -9.4733093343134200e-01
    7.8444106982055138e-03 -1.0181833075170805e+00
    7.8690460189120379e-03 -1.0846522890932808e+00
    7.8751606497902884e-03 -1.0945409092309881e+00
    7.8751606497902884e-03 -1.0945409092309881e+00
    7.8751606497902884e-03 -1.0945409092309881e+00
    7.9873841783677131e-03 -1.2110601416389963e+00
    8.0331575283356313e-03 -1.2456821978060997e+00
    8.0018788209021228e-03 -1.2224491901391688e+00
    8.0859975942306084e-03 -1.2817398889233114e+00
    8.0171324533232398e-03 -1.2339883600452932e+00
    8.0171324533232398e-03 -1.2339883600452932e+00
    8.0675756702197100e-03 -1.2695529551311964e+00
    8.1253457467713574e-03 -1.3066434376564751e+00
    8.1463061645650203e-03 -1.3193713430042131e+00
    8.0499672628960121e-03 -1.2575354264740257e+00
    8.0499672628960121e-03 -1.2575354264740257e+00
    8.3475346364654032e-03 -1.4286692725788424e+00
    8.3475346364654032e-03 -1.4286692725788424e+00
    8.5074220249358422e-03 -1.5048939771136511e+00
    8.8303854586889562e-03 -1.6431676725154991e+00
    8.6179960260719581e-03 -1.5541507698368957e+00
    8.4080472967576255e-03 -1.4583417169443800e+00
    8.1908925659026736e-03 -1.3454094478182026e+00
    8.0171324533232398e-03 -1.2339883600452932e+00
    7.9606256972058337e-03 -1.1887150534341144e+00
    7.8546206245287738e-03 -1.0555973258234954e+00
    7.8511064671174108e-03 -9.5592526038821446e-01
    7.8434555575848663e-03 -9.9103120896511487e-01
    7.9367715962089681e-03 -8.5695682505013049e-01
    8.5798269221945313e-03 -6.5044363558799079e-01
    9.2594813547212523e-03 -5.5306631875497203e-01
    9.8373122024153180e-03 -4.9718307617612550e-01
    1.3400009860365157e-02 -3.2322996757772710e-01
    1.2405368703777210e-02 -3.5623524993954830e-01
    1.0012715959085140e-02 -4.8304589153964794e-01
    9.1988069974687676e-03 -5.6000845302157831e-01
    8.3772392000063343e-03 -6.9282032302755092e-01
    7.9259098969371340e-03 -8.6488814078064002e-01
    7.8690460189120379e-03 -9.2195444572928875e-01
    7.8460033749519140e-03 -1.0274023338281628e+00
    7.8690460189120379e-03 -1.0846522890932808e+00
    7.8819355378192610e-03 -1.1045361017187261e+00
    7.9157469987565874e-03 -1.1456439237389602e+00
    7.9483405174889162e-03 -1.1777507266792697e+00
    7.9259098969371340e-03 -1.1562188829383293e+00
    8.1908925659026736e-03 -1.3454094478182026e+00
    8.3189033080770299e-03 -1.4142135623730951e+00
    8.1908925659026736e-03 -1.3454094478182026e+00
    8.0018788209021228e-03 -1.2224491901391688e+00
    8.0499672628960121e-03 -1.2575354264740257e+00
    8.0171324533232398e-03 -1.2339883600452932e+00
    8.0675756702197100e-03 -1.2695529551311964e+00
    8.0675756702197100e-03 -1.2695529551311964e+00
    7.9736368075452157e-03 -1.1998168358380537e+00
    7.9367715962089681e-03 -1.1669199319831565e+00
    8.0859975942306084e-03 -1.2817398889233114e+00
    8.2913165266106457e-03 -1.4000000000000004e+00
    8.2145588751666755e-03 -1.3587324409735151e+00
    8.6575351513241208e-03 -1.5712256362470667e+00
    8.5798269221945330e-03 -1.5374122295716151e+00
    8.4080472967576255e-03 -1.4583417169443800e+00
    8.4731039260901968e-03 -1.4890907643081488e+00
    8.3189033080770299e-03 -1.4142135623730951e+00
    8.3189033080770299e-03 -1.4142135623730951e+00
    8.1681485666204867e-03 -1.3322912594474225e+00
    7.9606256972058337e-03 -1.1887150534341144e+00
    7.8460033749519140e-03 -1.0274023338281628e+00
    7.8546206245287738e-03 -9.4733093343134200e-01
    7.8635870893483985e-03 -9.3034736442223276e-01
    8.1463061645650221e-03 -7.5793672895986730e-01
    8.7848618963001380e-03 -6.1553390449075962e-01
    9.3877943730052288e-03 -5.3916386601719224e-01
    1.1812257707519126e-02 -3.7990774789047999e-01
    1.2868334392094803e-02 -3.3996748292628837e-01
    9.9232069959064827e-03 -4.9012596716267831e-01
    8.4731039260901950e-03 -6.7155073684485123e-01
    8.1681485666204867e-03 -7.5058662504080143e-01
    7.8460033749519122e-03 -9.7332852678457504e-01
    7.8431372549019607e-03 -1. 7.8690460189120379e-03
    -1.0846522890932808e+00 7.9736368075452157e-03
    -1.1998168358380537e+00 8.0171324533232398e-03
    -1.2339883600452932e+00 7.9367715962089681e-03
    -1.1669199319831565e+00 7.9736368075452157e-03
    -1.1998168358380537e+00 7.9873841783677131e-03
    -1.2110601416389963e+00 8.1681485666204867e-03
    -1.3322912594474225e+00 8.1052487466293458e-03
    -1.2941015397489961e+00 8.1908925659026736e-03
    -1.3454094478182026e+00 8.0859975942306084e-03
    -1.2817398889233114e+00 8.0859975942306084e-03
    -1.2817398889233114e+00 8.0018788209021228e-03
    -1.2224491901391688e+00 8.1253457467713574e-03
    -1.3066434376564751e+00 8.1463061645650203e-03
    -1.3193713430042131e+00 8.0499672628960121e-03
    -1.2575354264740257e+00 8.0331575283356313e-03
    -1.2456821978060997e+00 8.1253457467713574e-03
    -1.3066434376564751e+00 8.2913165266106457e-03
    -1.4000000000000004e+00 8.3772392000063325e-03
    -1.4433756729740641e+00 8.3475346364654032e-03
    -1.4286692725788424e+00 8.5798269221945330e-03
    -1.5374122295716151e+00 8.6179960260719581e-03
    -1.5541507698368957e+00 8.2391693644818798e-03
    -1.3722670596924214e+00 8.3772392000063325e-03
    -1.4433756729740641e+00 8.3189033080770299e-03
    -1.4142135623730951e+00 8.2391693644818798e-03
    -1.3722670596924214e+00 8.0675756702197100e-03
    -1.2695529551311964e+00 7.9157469987565874e-03
    -1.1456439237389602e+00 7.8460033749519140e-03
    -1.0274023338281628e+00 7.8587798096889389e-03
    -9.3880558807635428e-01 7.9736368075452157e-03
    -8.3346055008597630e-01 8.2647471231817576e-03
    -7.2149008669938042e-01 9.1988069974687676e-03
    -5.6000845302157831e-01 1.1023637461455174e-02
    -4.1785544701867244e-01 1.3696894526187910e-02
    -3.1465838776377630e-01 9.4556568359593623e-03
    -5.3220014488879386e-01 8.5798269221945313e-03
    -6.5044363558799079e-01 8.0675756702197083e-03
    -7.8767884077482964e-01 7.8690460189120379e-03
    -9.2195444572928875e-01 7.8444106982055138e-03
    -1.0181833075170805e+00 7.8819355378192610e-03
    -1.1045361017187261e+00 8.0675756702197100e-03
    -1.2695529551311964e+00 8.1463061645650203e-03
    -1.3193713430042131e+00 8.0859975942306084e-03
    -1.2817398889233114e+00 8.2391693644818798e-03
    -1.3722670596924214e+00 8.1463061645650203e-03
    -1.3193713430042131e+00 8.1681485666204867e-03
    -1.3322912594474225e+00 8.2391693644818798e-03
    -1.3722670596924214e+00 8.1253457467713574e-03
    -1.3066434376564751e+00 8.0331575283356313e-03
    -1.2456821978060997e+00 8.0859975942306084e-03
    -1.2817398889233114e+00 7.9736368075452157e-03
    -1.1998168358380537e+00 8.0171324533232398e-03
    -1.2339883600452932e+00 8.0171324533232398e-03
    -1.2339883600452932e+00 8.0331575283356313e-03
    -1.2456821978060997e+00 8.1463061645650203e-03
    -1.3193713430042131e+00 8.1052487466293458e-03
    -1.2941015397489961e+00 8.2913165266106457e-03
    -1.4000000000000004e+00 8.2145588751666755e-03
    -1.3587324409735151e+00 8.1908925659026736e-03
    -1.3454094478182026e+00 8.2145588751666755e-03
    -1.3587324409735151e+00 8.5074220249358422e-03
    -1.5048939771136511e+00 8.6179960260719581e-03
    -1.5541507698368957e+00 8.6179960260719581e-03
    -1.5541507698368957e+00 8.2391693644818798e-03
    -1.3722670596924214e+00 8.1681485666204867e-03
    -1.3322912594474225e+00 8.0675756702197100e-03
    -1.2695529551311964e+00 7.9736368075452157e-03
    -1.1998168358380537e+00 7.8751606497902884e-03
    -1.0945409092309881e+00 7.8434555575848646e-03
    -1.0090499582190258e+00 7.8635870893483985e-03
    -9.3034736442223276e-01 8.2391693644818798e-03
    -7.2872112825045821e-01 9.0839181774018483e-03
    -5.7388266863991411e-01 1.0203451496896665e-02
    -4.6880723093849541e-01 1.2629163275217292e-02
    -3.4815531191139565e-01 9.3224411566743982e-03
    -5.4611868127275021e-01 8.4080472967576238e-03
    -6.8571034372881423e-01 7.9736368075452157e-03
    -8.3346055008597630e-01 7.8444106982055156e-03
    -9.8214142052532571e-01 7.8546206245287738e-03
    -1.0555973258234954e+00 7.8819355378192610e-03
    -1.1045361017187261e+00 8.0018788209021228e-03
    -1.2224491901391688e+00 8.1253457467713574e-03
    -1.3066434376564751e+00 8.1908925659026736e-03
    -1.3454094478182026e+00 8.5429830282487493e-03
    -1.5209973161780712e+00 8.5429830282487493e-03
    -1.5209973161780712e+00 8.3772392000063325e-03
    -1.4433756729740641e+00 8.3475346364654032e-03
    -1.4286692725788424e+00 8.4080472967576255e-03
    -1.4583417169443800e+00 8.1908925659026736e-03
    -1.3454094478182026e+00 8.1463061645650203e-03
    -1.3193713430042131e+00 8.0499672628960121e-03
    -1.2575354264740257e+00 8.0018788209021228e-03
    -1.2224491901391688e+00 8.1052487466293458e-03
    -1.2941015397489961e+00 8.0331575283356313e-03
    -1.2456821978060997e+00 8.0331575283356313e-03
    -1.2456821978060997e+00 8.1908925659026736e-03
    -1.3454094478182026e+00 8.2145588751666755e-03
    -1.3587324409735151e+00 8.2647471231817576e-03
    -1.3860204297119678e+00 8.1681485666204867e-03
    -1.3322912594474225e+00 8.1908925659026736e-03
    -1.3454094478182026e+00 8.3189033080770299e-03
    -1.4142135623730951e+00 8.5798269221945330e-03
    -1.5374122295716151e+00 8.4731039260901968e-03
    -1.4890907643081488e+00 8.5798269221945330e-03
    -1.5374122295716151e+00 8.5798269221945330e-03
    -1.5374122295716151e+00 8.3772392000063325e-03
    -1.4433756729740641e+00 8.2391693644818798e-03
    -1.3722670596924214e+00 8.0675756702197100e-03
    -1.2695529551311964e+00 7.8635870893484002e-03
    -1.0748673433616092e+00 7.8444106982055138e-03
    -1.0181833075170805e+00 8.0499672628960121e-03
    -7.9520622556445741e-01 9.0839181774018483e-03
    -5.7388266863991411e-01 9.9232069959064827e-03
    -4.9012596716267831e-01 1.3124611469855593e-02
    -3.3166247903553997e-01 9.8373122024153180e-03
    -4.9718307617612550e-01 8.3772392000063343e-03
    -6.9282032302755092e-01 8.0675756702197083e-03
    -7.8767884077482964e-01 7.8751606497902884e-03
    -9.1362505646553549e-01 7.8482347530466588e-03
    -1.0367093879869065e+00 7.9367715962089681e-03
    -1.1669199319831565e+00 7.9157469987565874e-03
    -1.1456439237389602e+00 8.1052487466293458e-03
    -1.2941015397489961e+00 8.1052487466293458e-03
    -1.2941015397489961e+00 8.2391693644818798e-03
    -1.3722670596924214e+00 8.5429830282487493e-03
    -1.5209973161780712e+00 8.4080472967576255e-03
    -1.4583417169443800e+00 8.3475346364654032e-03
    -1.4286692725788424e+00 8.3189033080770299e-03
    -1.4142135623730951e+00 8.1908925659026736e-03
    -1.3454094478182026e+00 8.2391693644818798e-03
    -1.3722670596924214e+00 8.1908925659026736e-03
    -1.3454094478182026e+00 8.0499672628960121e-03
    -1.2575354264740257e+00 8.1463061645650203e-03
    -1.3193713430042131e+00 8.2913165266106457e-03
    -1.4000000000000004e+00 8.2145588751666755e-03
    -1.3587324409735151e+00 8.2145588751666755e-03
    -1.3587324409735151e+00 8.2145588751666755e-03
    -1.3587324409735151e+00 8.1908925659026736e-03
    -1.3454094478182026e+00 8.0499672628960121e-03
    -1.2575354264740257e+00 8.1253457467713574e-03
    -1.3066434376564751e+00 8.1908925659026736e-03
    -1.3454094478182026e+00 8.2647471231817576e-03
    -1.3860204297119678e+00 8.3189033080770299e-03
    -1.4142135623730951e+00 8.4080472967576255e-03
    -1.4583417169443800e+00 8.3772392000063325e-03
    -1.4433756729740641e+00 8.5798269221945330e-03
    -1.5374122295716151e+00 8.2391693644818798e-03
    -1.3722670596924214e+00 8.0331575283356313e-03
    -1.2456821978060997e+00 7.9259098969371340e-03
    -1.1562188829383293e+00 7.8434555575848663e-03
    -9.9103120896511487e-01 7.9873841783677131e-03
    -8.2572282384477025e-01 8.8775471174975112e-03
    -6.0163376748986519e-01 9.5261529721759504e-03
    -5.2522573143889029e-01 1.3124611469855593e-02
    -3.3166247903553997e-01 9.6755919444425423e-03
    -5.1123735814554516e-01 8.4399909324090593e-03
    -6.7862089253829594e-01 7.9736368075452157e-03
    -8.3346055008597630e-01 7.8546206245287738e-03
    -9.4733093343134200e-01 7.8482347530466588e-03
    -1.0367093879869065e+00 7.9367715962089681e-03
    -1.1669199319831565e+00 8.1052487466293458e-03
    -1.2941015397489961e+00 8.0675756702197100e-03
    -1.2695529551311964e+00 8.1253457467713574e-03
    -1.3066434376564751e+00 8.4399909324090593e-03
    -1.4735767952260141e+00 8.5798269221945330e-03
    -1.5374122295716151e+00 8.6984917745947781e-03
    -1.5886502207249786e+00 8.3772392000063325e-03
    -1.4433756729740641e+00 8.4080472967576255e-03
    -1.4583417169443800e+00 8.3772392000063325e-03
    -1.4433756729740641e+00 8.2391693644818798e-03
    -1.3722670596924214e+00 8.1463061645650203e-03
    -1.3193713430042131e+00 8.4080472967576255e-03
    -1.4583417169443800e+00 8.3772392000063325e-03
    -1.4433756729740641e+00 8.3475346364654032e-03
    -1.4286692725788424e+00 8.1908925659026736e-03
    -1.3454094478182026e+00 8.1052487466293458e-03
    -1.2941015397489961e+00 8.1253457467713574e-03
    -1.3066434376564751e+00 8.1681485666204867e-03
    -1.3322912594474225e+00 8.1253457467713574e-03
    -1.3066434376564751e+00 8.1908925659026736e-03
    -1.3454094478182026e+00 8.2145588751666755e-03
    -1.3587324409735151e+00 8.2391693644818798e-03
    -1.3722670596924214e+00 8.6984917745947781e-03
    -1.5886502207249786e+00 8.4399909324090593e-03
    -1.4735767952260141e+00 8.2913165266106457e-03
    -1.4000000000000004e+00 8.2913165266106457e-03
    -1.4000000000000004e+00 8.0859975942306084e-03
    -1.2817398889233114e+00 7.9157469987565874e-03
    -1.1456439237389602e+00 7.9736368075452157e-03
    -1.1998168358380537e+00 7.8511064671174125e-03
    -1.0461068887267255e+00 7.9873841783677131e-03
    -8.2572282384477025e-01 8.9770448317335692e-03
    -5.8775381364525869e-01 9.9232069959064827e-03
    -4.9012596716267831e-01 1.3124611469855593e-02
    -3.3166247903553997e-01 9.4556568359593623e-03
    -5.3220014488879386e-01 8.2913165266106439e-03
    -7.1428571428571419e-01 7.8751606497902884e-03
    -9.1362505646553549e-01 7.8635870893483985e-03
    -9.3034736442223276e-01 7.8434555575848646e-03
    -1.0090499582190258e+00 7.9259098969371340e-03
    -1.1562188829383293e+00 8.0331575283356313e-03
    -1.2456821978060997e+00 8.2647471231817576e-03
    -1.3860204297119678e+00 8.1253457467713574e-03
    -1.3066434376564751e+00 8.5429830282487493e-03
    -1.5209973161780712e+00 8.6575351513241208e-03
    -1.5712256362470667e+00 8.3475346364654032e-03
    -1.4286692725788424e+00 8.3772392000063325e-03
    -1.4433756729740641e+00 8.4731039260901968e-03
    -1.4890907643081488e+00 8.3189033080770299e-03
    -1.4142135623730951e+00 8.3189033080770299e-03
    -1.4142135623730951e+00 8.1681485666204867e-03
    -1.3322912594474225e+00 8.2145588751666755e-03
    -1.3587324409735151e+00 8.5798269221945330e-03
    -1.5374122295716151e+00 8.6575351513241208e-03
    -1.5712256362470667e+00 8.1681485666204867e-03
    -1.3322912594474225e+00 8.0018788209021228e-03
    -1.2224491901391688e+00 8.2145588751666755e-03
    -1.3587324409735151e+00 8.2647471231817576e-03
    -1.3860204297119678e+00 8.3189033080770299e-03
    -1.4142135623730951e+00 8.2913165266106457e-03
    -1.4000000000000004e+00 8.3772392000063325e-03
    -1.4433756729740641e+00 8.3772392000063325e-03
    -1.4433756729740641e+00 8.4080472967576255e-03
    -1.4583417169443800e+00 8.4731039260901968e-03
    -1.4890907643081488e+00 8.2647471231817576e-03
    -1.3860204297119678e+00 8.1681485666204867e-03
    -1.3322912594474225e+00 8.1681485666204867e-03
    -1.3322912594474225e+00 8.0018788209021228e-03
    -1.2224491901391688e+00 7.8819355378192610e-03
    -1.1045361017187261e+00 7.8546206245287738e-03
    -1.0555973258234954e+00 7.9367715962089681e-03
    -8.5695682505013049e-01 9.0295215014311245e-03
    -5.8081786955151560e-01 1.0012715959085140e-02
    -4.8304589153964794e-01 1.2629163275217292e-02
    -3.4815531191139565e-01 9.5994166200183226e-03
    -5.1823877563477294e-01 8.2647471231817576e-03
    -7.2149008669938042e-01 7.9736368075452157e-03
    -8.3346055008597630e-01 7.8444106982055156e-03
    -9.8214142052532571e-01 7.8690460189120379e-03
    -1.0846522890932808e+00 7.8893757527844551e-03
    -1.1146408580454252e+00 7.9483405174889162e-03
    -1.1777507266792697e+00 8.0018788209021228e-03
    -1.2224491901391688e+00 8.1052487466293458e-03
    -1.2941015397489961e+00 8.0859975942306084e-03
    -1.2817398889233114e+00 8.1253457467713574e-03
    -1.3066434376564751e+00 8.2391693644818798e-03
    -1.3722670596924214e+00 8.3475346364654032e-03
    -1.4286692725788424e+00 8.2913165266106457e-03
    -1.4000000000000004e+00 8.1681485666204867e-03
    -1.3322912594474225e+00 8.1052487466293458e-03
    -1.2941015397489961e+00 8.1052487466293458e-03
    -1.2941015397489961e+00 8.1253457467713574e-03
    -1.3066434376564751e+00 8.2647471231817576e-03
    -1.3860204297119678e+00 8.4731039260901968e-03
    -1.4890907643081488e+00 8.2647471231817576e-03
    -1.3860204297119678e+00 7.9736368075452157e-03
    -1.1998168358380537e+00 8.1052487466293458e-03
    -1.2941015397489961e+00 8.0499672628960121e-03
    -1.2575354264740257e+00 8.2145588751666755e-03
    -1.3587324409735151e+00 8.1463061645650203e-03
    -1.3193713430042131e+00 8.1463061645650203e-03
    -1.3193713430042131e+00 8.1908925659026736e-03
    -1.3454094478182026e+00 8.1253457467713574e-03
    -1.3066434376564751e+00 8.1463061645650203e-03
    -1.3193713430042131e+00 8.0018788209021228e-03
    -1.2224491901391688e+00 7.9157469987565874e-03
    -1.1456439237389602e+00 7.8974868890874742e-03
    -1.1248582677159726e+00 7.8482347530466588e-03
    -9.6459047403999132e-01 7.8511064671174108e-03
    -9.5592526038821446e-01 7.8635870893483985e-03
    -9.3034736442223276e-01 8.0331575283356313e-03
    -8.0277297191948638e-01 8.5429830282487476e-03
    -6.5746335602535966e-01 9.9232069959064827e-03
    -4.9012596716267831e-01 1.2405368703777210e-02
    -3.5623524993954830e-01 9.5261529721759504e-03
    -5.2522573143889029e-01 8.4080472967576238e-03
    -6.8571034372881423e-01 7.9736368075452157e-03
    -8.3346055008597630e-01 7.8819355378192610e-03
    -9.0535746042518539e-01 7.8434555575848646e-03
    -1.0090499582190258e+00 7.8893757527844551e-03
    -1.1146408580454252e+00 7.8974868890874742e-03
    -1.1248582677159726e+00 8.0018788209021228e-03
    -1.2224491901391688e+00 8.0171324533232398e-03
    -1.2339883600452932e+00 8.0675756702197100e-03
    -1.2695529551311964e+00 8.1052487466293458e-03
    -1.2941015397489961e+00 8.3189033080770299e-03
    -1.4142135623730951e+00 8.0675756702197100e-03
    -1.2695529551311964e+00 8.3772392000063325e-03
    -1.4433756729740641e+00 8.2647471231817576e-03
    -1.3860204297119678e+00 8.2391693644818798e-03
    -1.3722670596924214e+00 8.1253457467713574e-03
    -1.3066434376564751e+00 8.0859975942306084e-03
    -1.2817398889233114e+00 8.1681485666204867e-03
    -1.3322912594474225e+00 8.1463061645650203e-03
    -1.3193713430042131e+00 8.0331575283356313e-03
    -1.2456821978060997e+00 8.1908925659026736e-03
    -1.3454094478182026e+00 8.1052487466293458e-03
    -1.2941015397489961e+00 8.0499672628960121e-03
    -1.2575354264740257e+00 8.1681485666204867e-03
    -1.3322912594474225e+00 8.1908925659026736e-03
    -1.3454094478182026e+00 8.0675756702197100e-03
    -1.2695529551311964e+00 8.1681485666204867e-03
    -1.3322912594474225e+00 8.0171324533232398e-03
    -1.2339883600452932e+00 7.8819355378192610e-03
    -1.1045361017187261e+00 7.9062750776002343e-03
    -1.1351915229662499e+00 7.8893757527844551e-03
    -1.1146408580454252e+00 7.8893757527844551e-03
    -1.1146408580454252e+00 7.8431372549019607e-03 -1.
    7.8482347530466588e-03 -9.6459047403999132e-01
    7.8751606497902884e-03 -9.1362505646553549e-01
    8.1253457467713609e-03 -7.6531972777022150e-01
    8.5798269221945313e-03 -6.5044363558799079e-01
    9.5994166200183226e-03 -5.1823877563477294e-01
    1.5623631667570295e-02 -2.6919095102908280e-01
    1.0305164900569451e-02 -4.6164353574848283e-01
    8.8303854586889528e-03 -6.0858061945018460e-01
    8.0499672628960121e-03 -7.9520622556445741e-01
    7.9483405174889162e-03 -8.4907610528040378e-01
    7.8434555575848663e-03 -9.9103120896511487e-01
    7.8482347530466588e-03 -1.0367093879869065e+00
    7.9483405174889162e-03 -1.1777507266792697e+00
    8.0018788209021228e-03 -1.2224491901391688e+00
    8.0675756702197100e-03 -1.2695529551311964e+00
    7.9873841783677131e-03 -1.2110601416389963e+00
    8.1052487466293458e-03 -1.2941015397489961e+00
    8.2145588751666755e-03 -1.3587324409735151e+00
    8.2647471231817576e-03 -1.3860204297119678e+00
    8.1463061645650203e-03 -1.3193713430042131e+00
    8.2647471231817576e-03 -1.3860204297119678e+00
    8.1908925659026736e-03 -1.3454094478182026e+00
    8.1681485666204867e-03 -1.3322912594474225e+00
    8.1908925659026736e-03 -1.3454094478182026e+00
    8.1253457467713574e-03 -1.3066434376564751e+00
    8.2145588751666755e-03 -1.3587324409735151e+00
    8.0859975942306084e-03 -1.2817398889233114e+00
    8.0859975942306084e-03 -1.2817398889233114e+00
    8.1463061645650203e-03 -1.3193713430042131e+00
    8.1908925659026736e-03 -1.3454094478182026e+00
    8.1052487466293458e-03 -1.2941015397489961e+00
    8.1681485666204867e-03 -1.3322912594474225e+00
    8.1908925659026736e-03 -1.3454094478182026e+00
    8.0499672628960121e-03 -1.2575354264740257e+00
    8.0331575283356313e-03 -1.2456821978060997e+00
    8.0331575283356313e-03 -1.2456821978060997e+00
    7.8819355378192610e-03 -1.1045361017187261e+00
    7.8819355378192610e-03 -1.1045361017187261e+00
    7.8690460189120379e-03 -1.0846522890932808e+00
    7.8434555575848663e-03 -9.9103120896511487e-01
    7.8690460189120379e-03 -9.2195444572928875e-01
    7.8974868890874777e-03 -8.8900088900133356e-01
    8.2647471231817576e-03 -7.2149008669938042e-01
    8.8303854586889528e-03 -6.0858061945018460e-01
    1.0411470770407516e-02 -4.5444662957319293e-01
    1.8907968214392432e-02 -2.1718612138153467e-01
    1.0203451496896665e-02 -4.6880723093849541e-01
    8.7848618963001380e-03 -6.1553390449075962e-01
    8.4080472967576238e-03 -6.8571034372881423e-01
    7.9873841783677131e-03 -8.2572282384477025e-01
    7.8444106982055156e-03 -9.8214142052532571e-01
    7.8635870893484002e-03 -1.0748673433616092e+00
    7.9367715962089681e-03 -1.1669199319831565e+00
    7.9157469987565874e-03 -1.1456439237389602e+00
    8.0331575283356313e-03 -1.2456821978060997e+00
    7.9736368075452157e-03 -1.1998168358380537e+00
    8.0499672628960121e-03 -1.2575354264740257e+00
    8.1463061645650203e-03 -1.3193713430042131e+00
    8.1681485666204867e-03 -1.3322912594474225e+00
    8.3189033080770299e-03 -1.4142135623730951e+00
    8.6179960260719581e-03 -1.5541507698368957e+00
    8.2391693644818798e-03 -1.3722670596924214e+00
    8.3189033080770299e-03 -1.4142135623730951e+00
    8.1908925659026736e-03 -1.3454094478182026e+00
    8.1253457467713574e-03 -1.3066434376564751e+00
    8.2391693644818798e-03 -1.3722670596924214e+00
    8.1681485666204867e-03 -1.3322912594474225e+00
    8.2391693644818798e-03 -1.3722670596924214e+00
    8.1253457467713574e-03 -1.3066434376564751e+00
    8.1681485666204867e-03 -1.3322912594474225e+00
    8.0331575283356313e-03 -1.2456821978060997e+00
    8.3475346364654032e-03 -1.4286692725788424e+00
    8.2913165266106457e-03 -1.4000000000000004e+00
    7.9483405174889162e-03 -1.1777507266792697e+00
    7.9483405174889162e-03 -1.1777507266792697e+00
    7.8893757527844551e-03 -1.1146408580454252e+00
    7.8819355378192610e-03 -1.1045361017187261e+00
    7.9062750776002343e-03 -1.1351915229662499e+00
    7.8635870893484002e-03 -1.0748673433616092e+00
    7.8482347530466588e-03 -9.6459047403999132e-01
    7.8444106982055156e-03 -9.8214142052532571e-01
    7.9157469987565857e-03 -8.7287156094396945e-01
    8.1463061645650221e-03 -7.5793672895986730e-01
    8.7409162262918998e-03 -6.2249497989943658e-01
    1.0411470770407516e-02 -4.5444662957319293e-01
    1.8070710308700548e-02 -2.2832586673831098e-01
    1.1812257707519126e-02 -3.7990774789047999e-01
    9.3224411566743982e-03 -5.4611868127275021e-01
    8.7409162262918998e-03 -6.2249497989943658e-01
    8.1463061645650221e-03 -7.5793672895986730e-01
    7.9606256972058337e-03 -8.4124449935337320e-01
    7.8635870893484002e-03 -1.0748673433616092e+00
    7.9259098969371340e-03 -1.1562188829383293e+00
    8.0171324533232398e-03 -1.2339883600452932e+00
    7.9367715962089681e-03 -1.1669199319831565e+00
    8.1463061645650203e-03 -1.3193713430042131e+00
    8.2647471231817576e-03 -1.3860204297119678e+00
    8.5429830282487493e-03 -1.5209973161780712e+00
    8.2913165266106457e-03 -1.4000000000000004e+00
    8.2913165266106457e-03 -1.4000000000000004e+00
    8.2913165266106457e-03 -1.4000000000000004e+00
    8.3475346364654032e-03 -1.4286692725788424e+00
    8.2647471231817576e-03 -1.3860204297119678e+00
    8.3189033080770299e-03 -1.4142135623730951e+00
    8.1908925659026736e-03 -1.3454094478182026e+00
    8.0675756702197100e-03 -1.2695529551311964e+00
    8.0675756702197100e-03 -1.2695529551311964e+00
    8.2391693644818798e-03 -1.3722670596924214e+00
    8.0331575283356313e-03 -1.2456821978060997e+00
    8.0859975942306084e-03 -1.2817398889233114e+00
    8.0859975942306084e-03 -1.2817398889233114e+00
    8.0018788209021228e-03 -1.2224491901391688e+00
    8.0018788209021228e-03 -1.2224491901391688e+00
    8.0171324533232398e-03 -1.2339883600452932e+00
    8.0331575283356313e-03 -1.2456821978060997e+00
    7.9367715962089681e-03 -1.1669199319831565e+00
    7.9157469987565874e-03 -1.1456439237389602e+00
    7.9157469987565874e-03 -1.1456439237389602e+00
    7.8819355378192610e-03 -1.1045361017187261e+00
    7.8482347530466588e-03 -1.0367093879869065e+00
    7.8635870893483985e-03 -9.3034736442223276e-01
    7.9606256972058337e-03 -8.4124449935337320e-01
    8.2391693644818798e-03 -7.2872112825045821e-01
    9.0839181774018483e-03 -5.7388266863991411e-01
    1.0305164900569451e-02 -4.6164353574848283e-01
    1.8907968214392432e-02 -2.1718612138153467e-01
    1.2629163275217292e-02 -3.4815531191139565e-01
    9.7548344634329921e-03 -5.0421948408961070e-01
    8.6179960260719581e-03 -6.4343821681145363e-01
    8.0499672628960121e-03 -7.9520622556445741e-01
    7.9367715962089681e-03 -8.5695682505013049e-01
    7.8690460189120379e-03 -9.2195444572928875e-01
    7.8587798096889407e-03 -1.0651832633943255e+00
    7.8819355378192610e-03 -1.1045361017187261e+00
    8.0018788209021228e-03 -1.2224491901391688e+00
    7.9483405174889162e-03 -1.1777507266792697e+00
    8.1253457467713574e-03 -1.3066434376564751e+00
    8.2913165266106457e-03 -1.4000000000000004e+00
    8.2145588751666755e-03 -1.3587324409735151e+00
    8.4399909324090593e-03 -1.4735767952260141e+00
    8.4080472967576255e-03 -1.4583417169443800e+00
    8.1253457467713574e-03 -1.3066434376564751e+00
    8.2145588751666755e-03 -1.3587324409735151e+00
    8.2145588751666755e-03 -1.3587324409735151e+00
    8.3189033080770299e-03 -1.4142135623730951e+00
    8.2145588751666755e-03 -1.3587324409735151e+00
    8.1463061645650203e-03 -1.3193713430042131e+00
    8.1681485666204867e-03 -1.3322912594474225e+00
    8.1463061645650203e-03 -1.3193713430042131e+00
    8.0499672628960121e-03 -1.2575354264740257e+00
    8.0859975942306084e-03 -1.2817398889233114e+00
    8.0171324533232398e-03 -1.2339883600452932e+00
    8.1908925659026736e-03 -1.3454094478182026e+00
    8.1681485666204867e-03 -1.3322912594474225e+00
    8.0018788209021228e-03 -1.2224491901391688e+00
    7.9367715962089681e-03 -1.1669199319831565e+00
    7.9483405174889162e-03 -1.1777507266792697e+00
    7.8751606497902884e-03 -1.0945409092309881e+00
    7.8444106982055156e-03 -9.8214142052532571e-01
    7.8444106982055156e-03 -9.8214142052532571e-01
    7.9157469987565857e-03 -8.7287156094396945e-01
    7.9873841783677131e-03 -8.2572282384477025e-01
    8.5429830282487476e-03 -6.5746335602535966e-01
    9.2594813547212523e-03 -5.5306631875497203e-01
    1.0889160794792718e-02 -4.2526587428312101e-01
    1.5164189134582267e-02 -2.7869320571664707e-01
    1.2405368703777210e-02 -3.5623524993954830e-01
    9.9232069959064827e-03 -4.9012596716267831e-01
    9.2594813547212523e-03 -5.5306631875497203e-01
    8.1908925659026736e-03 -7.4326815648697908e-01
    8.0675756702197083e-03 -7.8767884077482964e-01
    7.8893757527844551e-03 -8.9714995891461058e-01
    7.8444106982055156e-03 -9.8214142052532571e-01
    7.8819355378192610e-03 -1.1045361017187261e+00
    7.9062750776002343e-03 -1.1351915229662499e+00
    7.9736368075452157e-03 -1.1998168358380537e+00
    7.9736368075452157e-03 -1.1998168358380537e+00
    7.9736368075452157e-03 -1.1998168358380537e+00
    8.0331575283356313e-03 -1.2456821978060997e+00
    8.2391693644818798e-03 -1.3722670596924214e+00
    8.1052487466293458e-03 -1.2941015397489961e+00
    8.0675756702197100e-03 -1.2695529551311964e+00
    8.0675756702197100e-03 -1.2695529551311964e+00
    8.1681485666204867e-03 -1.3322912594474225e+00
    8.0331575283356313e-03 -1.2456821978060997e+00
    8.1052487466293458e-03 -1.2941015397489961e+00
    8.1463061645650203e-03 -1.3193713430042131e+00
    8.0675756702197100e-03 -1.2695529551311964e+00
    8.1253457467713574e-03 -1.3066434376564751e+00
    8.1463061645650203e-03 -1.3193713430042131e+00
    8.1463061645650203e-03 -1.3193713430042131e+00
    8.1463061645650203e-03 -1.3193713430042131e+00
    8.0331575283356313e-03 -1.2456821978060997e+00
    7.9483405174889162e-03 -1.1777507266792697e+00
    7.9873841783677131e-03 -1.2110601416389963e+00
    7.9873841783677131e-03 -1.2110601416389963e+00
    7.9483405174889162e-03 -1.1777507266792697e+00
    7.8893757527844551e-03 -1.1146408580454252e+00
    7.8434555575848663e-03 -9.9103120896511487e-01
    7.8690460189120379e-03 -9.2195444572928875e-01
    7.9736368075452157e-03 -8.3346055008597630e-01
    8.1908925659026736e-03 -7.4326815648697908e-01
    9.0839181774018483e-03 -5.7388266863991411e-01
    9.6755919444425423e-03 -5.1123735814554516e-01
    1.2868334392094803e-02 -3.3996748292628837e-01
    1.4018061938862493e-02 -3.0593473015220168e-01
    1.2405368703777210e-02 -3.5623524993954830e-01
    1.0203451496896665e-02 -4.6880723093849541e-01
    9.4556568359593623e-03 -5.3220014488879386e-01
    8.6179960260719581e-03 -6.4343821681145363e-01
    8.1463061645650221e-03 -7.5793672895986730e-01
    7.8893757527844551e-03 -8.9714995891461058e-01
    7.8546206245287738e-03 -9.4733093343134200e-01
    7.8546206245287738e-03 -1.0555973258234954e+00
    7.8751606497902884e-03 -1.0945409092309881e+00
    7.8635870893484002e-03 -1.0748673433616092e+00
    7.9873841783677131e-03 -1.2110601416389963e+00
    8.1908925659026736e-03 -1.3454094478182026e+00
    8.1908925659026736e-03 -1.3454094478182026e+00
    8.2145588751666755e-03 -1.3587324409735151e+00
    8.2647471231817576e-03 -1.3860204297119678e+00
    8.0675756702197100e-03 -1.2695529551311964e+00
    8.0171324533232398e-03 -1.2339883600452932e+00
    8.1908925659026736e-03 -1.3454094478182026e+00
    8.1052487466293458e-03 -1.2941015397489961e+00
    8.1253457467713574e-03 -1.3066434376564751e+00
    8.0675756702197100e-03 -1.2695529551311964e+00
    8.1681485666204867e-03 -1.3322912594474225e+00
    8.0859975942306084e-03 -1.2817398889233114e+00
    8.2913165266106457e-03 -1.4000000000000004e+00
    8.2391693644818798e-03 -1.3722670596924214e+00
    8.0499672628960121e-03 -1.2575354264740257e+00
    8.0499672628960121e-03 -1.2575354264740257e+00
    8.1052487466293458e-03 -1.2941015397489961e+00
    7.9483405174889162e-03 -1.1777507266792697e+00
    7.9873841783677131e-03 -1.2110601416389963e+00
    7.9259098969371340e-03 -1.1562188829383293e+00
    7.8460033749519140e-03 -1.0274023338281628e+00
    7.8511064671174108e-03 -9.5592526038821446e-01
    7.9483405174889162e-03 -8.4907610528040378e-01
    8.1681485666204867e-03 -7.5058662504080143e-01
    8.4080472967576238e-03 -6.8571034372881423e-01
    8.8303854586889528e-03 -6.0858061945018460e-01
    9.6755919444425423e-03 -5.1123735814554516e-01
    1.3124611469855593e-02 -3.3166247903553997e-01
    1.8907968214392432e-02 -2.1718612138153467e-01
    1.3400009860365157e-02 -3.2322996757772710e-01
    1.0305164900569451e-02 -4.6164353574848283e-01
    9.4556568359593623e-03 -5.3220014488879386e-01
    8.9770448317335692e-03 -5.8775381364525869e-01
    8.3475346364654049e-03 -6.9995205971983565e-01
    7.9483405174889162e-03 -8.4907610528040378e-01
    7.8635870893483985e-03 -9.3034736442223276e-01
    7.8444106982055156e-03 -9.8214142052532571e-01
    7.8444106982055138e-03 -1.0181833075170805e+00
    7.9157469987565874e-03 -1.1456439237389602e+00
    7.9483405174889162e-03 -1.1777507266792697e+00
    8.0499672628960121e-03 -1.2575354264740257e+00
    8.2145588751666755e-03 -1.3587324409735151e+00
    7.9736368075452157e-03 -1.1998168358380537e+00
    8.1463061645650203e-03 -1.3193713430042131e+00
    8.1052487466293458e-03 -1.2941015397489961e+00
    8.0018788209021228e-03 -1.2224491901391688e+00
    8.0171324533232398e-03 -1.2339883600452932e+00
    8.0499672628960121e-03 -1.2575354264740257e+00
    7.9367715962089681e-03 -1.1669199319831565e+00
    8.0675756702197100e-03 -1.2695529551311964e+00
    8.0675756702197100e-03 -1.2695529551311964e+00
    8.1463061645650203e-03 -1.3193713430042131e+00
    8.0499672628960121e-03 -1.2575354264740257e+00
    8.0331575283356313e-03 -1.2456821978060997e+00
    7.9259098969371340e-03 -1.1562188829383293e+00
    8.0018788209021228e-03 -1.2224491901391688e+00
    7.9062750776002343e-03 -1.1351915229662499e+00
    7.8690460189120379e-03 -1.0846522890932808e+00
    7.8635870893484002e-03 -1.0748673433616092e+00
    7.8444106982055156e-03 -9.8214142052532571e-01
    7.8511064671174108e-03 -9.5592526038821446e-01
    7.9367715962089681e-03 -8.5695682505013049e-01
    8.1681485666204867e-03 -7.5058662504080143e-01
    8.2913165266106439e-03 -7.1428571428571419e-01
    8.5429830282487476e-03 -6.5746335602535966e-01
    8.8303854586889528e-03 -6.0858061945018460e-01
    1.0411470770407516e-02 -4.5444662957319293e-01
    1.3124611469855593e-02 -3.3166247903553997e-01
    1.6133073362623967e-02 -2.5943726083138541e-01
    1.3124611469855593e-02 -3.3166247903553997e-01
    1.1636842076791883e-02 -3.8763264485529725e-01
    9.7548344634329921e-03 -5.0421948408961070e-01
    8.9770448317335692e-03 -5.8775381364525869e-01
    8.6179960260719581e-03 -6.4343821681145363e-01
    8.4080472967576238e-03 -6.8571034372881423e-01
    8.0171324533232415e-03 -8.1038041555213303e-01
    7.9873841783677131e-03 -8.2572282384477025e-01
    7.8434555575848646e-03 -1.0090499582190258e+00
    7.8482347530466588e-03 -1.0367093879869065e+00
    7.8444106982055156e-03 -9.8214142052532571e-01
    7.8635870893484002e-03 -1.0748673433616092e+00
    7.9367715962089681e-03 -1.1669199319831565e+00
    8.1681485666204867e-03 -1.3322912594474225e+00
    8.1253457467713574e-03 -1.3066434376564751e+00
    8.1463061645650203e-03 -1.3193713430042131e+00
    8.1052487466293458e-03 -1.2941015397489961e+00
    7.9873841783677131e-03 -1.2110601416389963e+00
    7.9062750776002343e-03 -1.1351915229662499e+00
    7.9367715962089681e-03 -1.1669199319831565e+00
    8.0331575283356313e-03 -1.2456821978060997e+00
    7.9606256972058337e-03 -1.1887150534341144e+00
    7.9259098969371340e-03 -1.1562188829383293e+00
    7.8974868890874742e-03 -1.1248582677159726e+00
    7.9483405174889162e-03 -1.1777507266792697e+00
    7.9367715962089681e-03 -1.1669199319831565e+00
    7.8511064671174125e-03 -1.0461068887267255e+00
    7.8690460189120379e-03 -1.0846522890932808e+00
    7.8444106982055138e-03 -1.0181833075170805e+00
    7.9367715962089681e-03 -1.1669199319831565e+00
    7.8434555575848663e-03 -9.9103120896511487e-01
    7.8635870893483985e-03 -9.3034736442223276e-01
    7.9483405174889162e-03 -8.4907610528040378e-01
    8.1681485666204867e-03 -7.5058662504080143e-01
    8.5074220249358404e-03 -6.6449863924498864e-01
    8.7409162262918998e-03 -6.2249497989943658e-01
    9.5994166200183226e-03 -5.1823877563477294e-01
    1.1471007198650005e-02 -3.9528470752104744e-01
    1.5164189134582267e-02 -2.7869320571664707e-01
    1.8907968214392432e-02 -2.1718612138153467e-01
    1.3696894526187910e-02 -3.1465838776377630e-01
    1.2195457143046737e-02 -3.6421567954234174e-01
    1.0411470770407516e-02 -4.5444662957319293e-01
    9.3224411566743982e-03 -5.4611868127275021e-01
    9.0839181774018483e-03 -5.7388266863991411e-01
    8.7409162262918998e-03 -6.2249497989943658e-01
    8.5429830282487476e-03 -6.5746335602535966e-01
    8.1052487466293458e-03 -7.7273689064148698e-01
    7.9483405174889162e-03 -8.4907610528040378e-01
    7.9062750776002326e-03 -8.8090862182180973e-01
    7.9483405174889162e-03 -8.4907610528040378e-01
    7.8460033749519122e-03 -9.7332852678457504e-01
    7.8444106982055156e-03 -9.8214142052532571e-01
    7.8819355378192610e-03 -1.1045361017187261e+00
    8.1052487466293458e-03 -1.2941015397489961e+00
    8.1253457467713574e-03 -1.3066434376564751e+00
    8.0331575283356313e-03 -1.2456821978060997e+00
    7.9367715962089681e-03 -1.1669199319831565e+00
    7.9873841783677131e-03 -1.2110601416389963e+00
    7.9483405174889162e-03 -1.1777507266792697e+00
    7.9259098969371340e-03 -1.1562188829383293e+00
    7.9736368075452157e-03 -1.1998168358380537e+00
    7.8893757527844551e-03 -1.1146408580454252e+00
    7.8482347530466588e-03 -1.0367093879869065e+00
    7.8893757527844551e-03 -1.1146408580454252e+00
    7.8635870893484002e-03 -1.0748673433616092e+00
    7.8635870893484002e-03 -1.0748673433616092e+00
    7.8511064671174125e-03 -1.0461068887267255e+00
    7.8511064671174125e-03 -1.0461068887267255e+00
    7.8444106982055138e-03 -1.0181833075170805e+00
    7.8587798096889389e-03 -9.3880558807635428e-01
    7.9062750776002326e-03 -8.8090862182180973e-01
    8.0859975942306102e-03 -7.8018949760549394e-01
    8.2647471231817576e-03 -7.2149008669938042e-01
    8.8303854586889528e-03 -6.0858061945018460e-01
    9.7548344634329921e-03 -5.0421948408961070e-01
    1.0411470770407516e-02 -4.5444662957319293e-01
    1.3400009860365157e-02 -3.2322996757772710e-01
    1.5623631667570295e-02 -2.6919095102908280e-01
    1.8907968214392432e-02 -2.1718612138153467e-01
    1.4747262230976624e-02 -2.8797018815893544e-01
    1.2405368703777210e-02 -3.5623524993954830e-01
    9.9232069959064827e-03 -4.9012596716267831e-01
    9.5261529721759504e-03 -5.2522573143889029e-01
    9.3877943730052288e-03 -5.3916386601719224e-01
    8.9264108759462626e-03 -5.9469196781641998e-01
    8.9770448317335692e-03 -5.8775381364525869e-01
    8.2647471231817576e-03 -7.2149008669938042e-01
    8.0675756702197083e-03 -7.8767884077482964e-01
    8.0859975942306102e-03 -7.8018949760549394e-01
    7.9736368075452157e-03 -8.3346055008597630e-01
    7.9736368075452157e-03 -8.3346055008597630e-01
    7.8751606497902884e-03 -9.1362505646553549e-01
    7.8431372549019607e-03 -1. 7.8460033749519140e-03
    -1.0274023338281628e+00 7.8460033749519140e-03
    -1.0274023338281628e+00 7.8444106982055156e-03
    -9.8214142052532571e-01 7.8444106982055138e-03
    -1.0181833075170805e+00 7.8819355378192610e-03
    -1.1045361017187261e+00 7.9062750776002343e-03
    -1.1351915229662499e+00 7.9062750776002343e-03
    -1.1351915229662499e+00 7.9157469987565874e-03
    -1.1456439237389602e+00 7.8974868890874742e-03
    -1.1248582677159726e+00 7.8460033749519140e-03
    -1.0274023338281628e+00 7.8546206245287738e-03
    -9.4733093343134200e-01 7.8546206245287738e-03
    -9.4733093343134200e-01 7.8460033749519140e-03
    -1.0274023338281628e+00 7.8587798096889389e-03
    -9.3880558807635428e-01 7.8546206245287738e-03
    -9.4733093343134200e-01 7.9062750776002326e-03
    -8.8090862182180973e-01 8.0018788209021228e-03
    -8.1802990919087237e-01 8.2391693644818798e-03
    -7.2872112825045821e-01 8.2913165266106439e-03
    -7.1428571428571419e-01 8.6179960260719581e-03
    -6.4343821681145363e-01 9.3877943730052288e-03
    -5.3916386601719224e-01 9.7548344634329921e-03
    -5.0421948408961070e-01 1.1471007198650005e-02
    -3.9528470752104744e-01 1.4018061938862493e-02
    -3.0593473015220168e-01 1.7342532762891202e-02
    -2.3904572186687875e-01 1.9883907657740132e-02
    -2.0555661294825950e-01 1.6701980596492482e-02
    -2.4940119674492151e-01 1.2195457143046737e-02
    -3.6421567954234174e-01 1.0411470770407516e-02
    -4.5444662957319293e-01 9.8373122024153180e-03
    -4.9718307617612550e-01 9.6755919444425423e-03
    -5.1123735814554516e-01 9.3877943730052288e-03
    -5.3916386601719224e-01 9.0295215014311245e-03
    -5.8081786955151560e-01 8.6575351513241208e-03
    -6.3644582734058408e-01 8.6179960260719581e-03
    -6.4343821681145363e-01 8.2647471231817576e-03
    -7.2149008669938042e-01 8.1253457467713609e-03
    -7.6531972777022150e-01 8.0018788209021228e-03
    -8.1802990919087237e-01 7.9259098969371340e-03
    -8.6488814078064002e-01 7.9736368075452157e-03
    -8.3346055008597630e-01 7.9873841783677131e-03
    -8.2572282384477025e-01 7.8511064671174108e-03
    -9.5592526038821446e-01 7.8690460189120379e-03
    -9.2195444572928875e-01 7.8460033749519122e-03
    -9.7332852678457504e-01 7.8434555575848663e-03
    -9.9103120896511487e-01 7.8434555575848646e-03
    -1.0090499582190258e+00 7.8587798096889407e-03
    -1.0651832633943255e+00 7.8893757527844551e-03
    -1.1146408580454252e+00 7.8444106982055138e-03
    -1.0181833075170805e+00 7.8434555575848646e-03
    -1.0090499582190258e+00 7.8444106982055138e-03
    -1.0181833075170805e+00 7.8460033749519122e-03
    -9.7332852678457504e-01 7.8460033749519122e-03
    -9.7332852678457504e-01 7.9157469987565857e-03
    -8.7287156094396945e-01 8.0331575283356313e-03
    -8.0277297191948638e-01 8.2913165266106439e-03
    -7.1428571428571419e-01 8.3189033080770299e-03
    -7.0710678118654757e-01 8.4731039260901950e-03
    -6.7155073684485123e-01 8.6179960260719581e-03
    -6.4343821681145363e-01 9.1403173211381753e-03
    -5.6694670951384085e-01 9.5994166200183226e-03
    -5.1823877563477294e-01 1.0012715959085140e-02
    -4.8304589153964794e-01 1.1998131189021471e-02
    -3.7210420376762532e-01 1.4747262230976624e-02
    -2.8797018815893544e-01 1.6701980596492482e-02
    -2.4940119674492151e-01 2.4183006535947710e-02
    -1.6666666666666666e-01 1.8907968214392432e-02
    -2.1718612138153467e-01 1.3400009860365157e-02
    -3.2322996757772710e-01 1.1998131189021471e-02
    -3.7210420376762532e-01 1.1023637461455174e-02
    -4.1785544701867244e-01 1.0106053156095031e-02
    -4.7594047633771874e-01 9.8373122024153180e-03
    -4.9718307617612550e-01 9.4556568359593623e-03
    -5.3220014488879386e-01 9.3224411566743982e-03
    -5.4611868127275021e-01 9.3224411566743982e-03
    -5.4611868127275021e-01 9.0295215014311245e-03
    -5.8081786955151560e-01 8.3772392000063343e-03
    -6.9282032302755092e-01 8.4080472967576238e-03
    -6.8571034372881423e-01 8.3189033080770299e-03
    -7.0710678118654757e-01 8.3189033080770299e-03
    -7.0710678118654757e-01 8.0331575283356313e-03
    -8.0277297191948638e-01 7.9483405174889162e-03
    -8.4907610528040378e-01 7.8511064671174108e-03
    -9.5592526038821446e-01 7.8751606497902884e-03
    -9.1362505646553549e-01 7.8444106982055156e-03
    -9.8214142052532571e-01 7.8444106982055156e-03
    -9.8214142052532571e-01 7.8511064671174108e-03
    -9.5592526038821446e-01 7.8434555575848663e-03
    -9.9103120896511487e-01 7.8511064671174108e-03
    -9.5592526038821446e-01 7.9259098969371340e-03
    -8.6488814078064002e-01 7.9157469987565857e-03
    -8.7287156094396945e-01 7.9873841783677131e-03
    -8.2572282384477025e-01 8.0171324533232415e-03
    -8.1038041555213303e-01 8.0859975942306102e-03
    -7.8018949760549394e-01 8.1681485666204867e-03
    -7.5058662504080143e-01 8.5429830282487476e-03
    -6.5746335602535966e-01 8.5429830282487476e-03
    -6.5746335602535966e-01 8.7409162262918998e-03
    -6.2249497989943658e-01 9.0295215014311245e-03
    -5.8081786955151560e-01 9.6755919444425423e-03
    -5.1123735814554516e-01 9.9232069959064827e-03
    -4.9012596716267831e-01 1.1023637461455174e-02
    -4.1785544701867244e-01 1.4366846702014489e-02
    -2.9704426289300229e-01 1.5623631667570295e-02
    -2.6919095102908280e-01 1.8907968214392432e-02
    -2.1718612138153467e-01 2.6430046360705770e-02
    -1.5179418517972906e-01 1.7342532762891202e-02
    -2.3904572186687875e-01 1.6133073362623967e-02
    -2.5943726083138541e-01 1.4018061938862493e-02
    -3.0593473015220168e-01 1.1998131189021471e-02
    -3.7210420376762532e-01 1.0761132246031617e-02
    -4.3262660043167644e-01 1.0522672835293128e-02
    -4.4721359549995793e-01 1.0761132246031617e-02
    -4.3262660043167644e-01 1.0106053156095031e-02
    -4.7594047633771874e-01 9.8373122024153180e-03
    -4.9718307617612550e-01 1.0411470770407516e-02
    -4.5444662957319293e-01 9.3224411566743982e-03
    -5.4611868127275021e-01 8.6575351513241208e-03
    -6.3644582734058408e-01 8.5429830282487476e-03
    -6.5746335602535966e-01 8.3772392000063343e-03
    -6.9282032302755092e-01 8.1463061645650221e-03
    -7.5793672895986730e-01 8.0859975942306102e-03
    -7.8018949760549394e-01 8.0859975942306102e-03
    -7.8018949760549394e-01 7.8893757527844551e-03
    -8.9714995891461058e-01 7.8819355378192610e-03
    -9.0535746042518539e-01 7.8587798096889389e-03
    -9.3880558807635428e-01 7.8819355378192610e-03
    -9.0535746042518539e-01 7.9483405174889162e-03
    -8.4907610528040378e-01 7.9736368075452157e-03
    -8.3346055008597630e-01 7.9483405174889162e-03
    -8.4907610528040378e-01 8.0859975942306102e-03
    -7.8018949760549394e-01 8.1052487466293458e-03
    -7.7273689064148698e-01 8.4731039260901950e-03
    -6.7155073684485123e-01 8.8303854586889528e-03
    -6.0858061945018460e-01 8.7409162262918998e-03
    -6.2249497989943658e-01 8.6179960260719581e-03
    -6.4343821681145363e-01 8.9264108759462626e-03
    -5.9469196781641998e-01 9.3877943730052288e-03
    -5.3916386601719224e-01 9.7548344634329921e-03
    -5.0421948408961070e-01 1.0012715959085140e-02
    -4.8304589153964794e-01 1.0411470770407516e-02
    -4.5444662957319293e-01 1.1812257707519126e-02
    -3.7990774789047999e-01 1.3696894526187910e-02
    -3.1465838776377630e-01 1.6701980596492482e-02
    -2.4940119674492151e-01 1.8907968214392432e-02
    -2.1718612138153467e-01 2.6430046360705770e-02
    -1.5179418517972906e-01 2.2441120826328567e-02
    -1.8043874177926347e-01 2.1040735349817381e-02
    -1.9334729780913271e-01 1.5623631667570295e-02
    -2.6919095102908280e-01 1.4366846702014489e-02
    -2.9704426289300229e-01 1.2629163275217292e-02
    -3.4815531191139565e-01 1.1636842076791883e-02
    -3.8763264485529725e-01 1.1998131189021471e-02
    -3.7210420376762532e-01 1.1636842076791883e-02
    -3.8763264485529725e-01 1.0639104423117787e-02
    -4.3994134506405991e-01 1.0761132246031617e-02
    -4.3262660043167644e-01 1.1313976269013279e-02
    -4.0286929011959444e-01 1.1313976269013279e-02
    -4.0286929011959444e-01 9.6755919444425423e-03
    -5.1123735814554516e-01 9.0839181774018483e-03
    -5.7388266863991411e-01 8.4731039260901950e-03
    -6.7155073684485123e-01 8.3189033080770299e-03
    -7.0710678118654757e-01 8.3189033080770299e-03
    -7.0710678118654757e-01 8.1463061645650221e-03
    -7.5793672895986730e-01 7.9606256972058337e-03
    -8.4124449935337320e-01 8.0018788209021228e-03
    -8.1802990919087237e-01 8.0171324533232415e-03
    -8.1038041555213303e-01 8.1908925659026736e-03
    -7.4326815648697908e-01 8.0499672628960121e-03
    -7.9520622556445741e-01 8.1681485666204867e-03
    -7.5058662504080143e-01 8.1908925659026736e-03
    -7.4326815648697908e-01 8.6575351513241208e-03
    -6.3644582734058408e-01 8.8775471174975112e-03
    -6.0163376748986519e-01 8.9770448317335692e-03
    -5.8775381364525869e-01 8.8775471174975112e-03
    -6.0163376748986519e-01 9.2594813547212523e-03
    -5.5306631875497203e-01 9.3877943730052288e-03
    -5.3916386601719224e-01 1.0639104423117787e-02
    -4.3994134506405991e-01 1.0761132246031617e-02
    -4.3262660043167644e-01 1.0761132246031617e-02
    -4.3262660043167644e-01 1.1636842076791883e-02
    -3.8763264485529725e-01 1.3124611469855593e-02
    -3.3166247903553997e-01 1.4366846702014489e-02
    -2.9704426289300229e-01 1.8070710308700548e-02
    -2.2832586673831098e-01 2.6430046360705770e-02
    -1.5179418517972906e-01 2.9481837734950663e-02
    -1.3545709229571926e-01 2.4183006535947710e-02
    -1.6666666666666666e-01 2.2441120826328567e-02
    -1.8043874177926347e-01 1.8070710308700548e-02
    -2.2832586673831098e-01 1.5623631667570295e-02
    -2.6919095102908280e-01 1.5623631667570295e-02
    -2.6919095102908280e-01 1.3400009860365157e-02
    -3.2322996757772710e-01 1.2868334392094803e-02
    -3.3996748292628837e-01 1.2629163275217292e-02
    -3.4815531191139565e-01 1.2629163275217292e-02
    -3.4815531191139565e-01 1.1998131189021471e-02
    -3.7210420376762532e-01 1.2405368703777210e-02
    -3.5623524993954830e-01 1.2629163275217292e-02
    -3.4815531191139565e-01 1.1998131189021471e-02
    -3.7210420376762532e-01 1.1313976269013279e-02
    -4.0286929011959444e-01 9.5261529721759504e-03
    -5.2522573143889029e-01 9.1403173211381753e-03
    -5.6694670951384085e-01 8.5798269221945313e-03
    -6.5044363558799079e-01 8.5429830282487476e-03
    -6.5746335602535966e-01 8.2913165266106439e-03
    -7.1428571428571419e-01 8.1681485666204867e-03
    -7.5058662504080143e-01 8.2145588751666755e-03
    -7.3598007219398731e-01 8.4080472967576238e-03
    -6.8571034372881423e-01 8.5074220249358404e-03
    -6.6449863924498864e-01 8.4731039260901950e-03
    -6.7155073684485123e-01 8.6984917745947781e-03
    -6.2946518179668975e-01 9.0839181774018483e-03
    -5.7388266863991411e-01 9.5261529721759504e-03
    -5.2522573143889029e-01 9.9232069959064827e-03
    -4.9012596716267831e-01 1.0106053156095031e-02
    -4.7594047633771874e-01 1.0012715959085140e-02
    -4.8304589153964794e-01 1.0106053156095031e-02
    -4.7594047633771874e-01 1.1165058537397264e-02
    -4.1039134083406159e-01 1.1636842076791883e-02
    -3.8763264485529725e-01 1.2629163275217292e-02
    -3.4815531191139565e-01 1.5164189134582267e-02
    -2.7869320571664707e-01 1.5164189134582267e-02
    -2.7869320571664707e-01 1.6133073362623967e-02
    -2.5943726083138541e-01 2.2441120826328567e-02
    -1.8043874177926347e-01 3.3964881931426119e-02
    -1.1704114719613055e-01 4.1503665649514014e-02
    -9.5346258924559224e-02 2.9481837734950663e-02
    -1.3545709229571926e-01 2.2441120826328567e-02
    -1.8043874177926347e-01 2.1040735349817381e-02
    -1.9334729780913271e-01 1.8907968214392432e-02
    -2.1718612138153467e-01 1.9883907657740132e-02
    -2.0555661294825950e-01 1.8070710308700548e-02
    -2.2832586673831098e-01 1.6133073362623967e-02
    -2.5943726083138541e-01 1.5164189134582267e-02
    -2.7869320571664707e-01 1.4366846702014489e-02
    -2.9704426289300229e-01 1.3696894526187910e-02
    -3.1465838776377630e-01 1.3124611469855593e-02
    -3.3166247903553997e-01 1.3696894526187910e-02
    -3.1465838776377630e-01 1.3696894526187910e-02
    -3.1465838776377630e-01 1.3124611469855593e-02
    -3.3166247903553997e-01 1.1313976269013279e-02
    -4.0286929011959444e-01 1.0305164900569451e-02
    -4.6164353574848283e-01 9.3877943730052288e-03
    -5.3916386601719224e-01 8.9264108759462626e-03
    -5.9469196781641998e-01 9.1988069974687676e-03
    -5.6000845302157831e-01 9.3224411566743982e-03
    -5.4611868127275021e-01 8.7848618963001380e-03
    -6.1553390449075962e-01 9.3877943730052288e-03
    -5.3916386601719224e-01 8.8775471174975112e-03
    -6.0163376748986519e-01 9.7548344634329921e-03
    -5.0421948408961070e-01 9.4556568359593623e-03
    -5.3220014488879386e-01 1.0411470770407516e-02
    -4.5444662957319293e-01 1.0411470770407516e-02
    -4.5444662957319293e-01 1.0639104423117787e-02
    -4.3994134506405991e-01 1.1313976269013279e-02
    -4.0286929011959444e-01 1.1023637461455174e-02
    -4.1785544701867244e-01 1.1812257707519126e-02
    -3.7990774789047999e-01 1.3696894526187910e-02
    -3.1465838776377630e-01 1.6701980596492482e-02
    -2.4940119674492151e-01 1.7342532762891202e-02
    -2.3904572186687875e-01 1.8907968214392432e-02
    -2.1718612138153467e-01 2.2441120826328567e-02
    -1.8043874177926347e-01 2.1040735349817381e-02
    -1.9334729780913271e-01 2.4183006535947710e-02
    -1.6666666666666666e-01 2.9481837734950663e-02
    -1.3545709229571926e-01 3.3964881931426119e-02
    -1.1704114719613055e-01 2.4183006535947710e-02
    -1.6666666666666666e-01 2.4183006535947710e-02
    -1.6666666666666666e-01 2.4183006535947710e-02
    -1.6666666666666666e-01 2.9481837734950663e-02
    -1.3545709229571926e-01 2.9481837734950663e-02
    -1.3545709229571926e-01 2.4183006535947710e-02
    -1.6666666666666666e-01 2.1040735349817381e-02
    -1.9334729780913271e-01 1.8907968214392432e-02
    -2.1718612138153467e-01 1.6133073362623967e-02
    -2.5943726083138541e-01 1.5623631667570295e-02
    -2.6919095102908280e-01 1.4747262230976624e-02
    -2.8797018815893544e-01 1.6133073362623967e-02
    -2.5943726083138541e-01 1.7342532762891202e-02
    -2.3904572186687875e-01 1.7342532762891202e-02
    -2.3904572186687875e-01 1.5164189134582267e-02
    -2.7869320571664707e-01 1.2405368703777210e-02
    -3.5623524993954830e-01 1.1313976269013279e-02
    -4.0286929011959444e-01 1.1471007198650005e-02
    -3.9528470752104744e-01 1.1165058537397264e-02
    -4.1039134083406159e-01 9.7548344634329921e-03
    -5.0421948408961070e-01 1.0106053156095031e-02
    -4.7594047633771874e-01 1.2195457143046737e-02
    -3.6421567954234174e-01 1.1471007198650005e-02
    -3.9528470752104744e-01 1.0639104423117787e-02
    -4.3994134506405991e-01 1.1636842076791883e-02
    -3.8763264485529725e-01 1.1165058537397264e-02
    -4.1039134083406159e-01 1.1023637461455174e-02
    -4.1785544701867244e-01 1.1313976269013279e-02
    -4.0286929011959444e-01 1.2405368703777210e-02
    -3.5623524993954830e-01 1.3124611469855593e-02
    -3.3166247903553997e-01 1.5164189134582267e-02
    -2.7869320571664707e-01 1.8070710308700548e-02
    -2.2832586673831098e-01 1.8907968214392432e-02
    -2.1718612138153467e-01 1.9883907657740132e-02
    -2.0555661294825950e-01 2.2441120826328567e-02
    -1.8043874177926347e-01 2.9481837734950663e-02
    -1.3545709229571926e-01 3.3964881931426119e-02
    -1.1704114719613055e-01 2.9481837734950663e-02
    -1.3545709229571926e-01 2.6430046360705770e-02
    -1.5179418517972906e-01</input_scale>
  <output_scale>
    1.0526315789473684e+00 0.</output_scale>
  <inv_output_scale>
    9.4999999999999996e-01 0.</inv_output_scale>
  <weights>
    <_>
      -1.4243047622371999e-01 -5.5405702247847875e-02
      -4.4820311014896835e-02 -2.3603551008429095e-02
      4.1733582570374884e-02 -1.7459790932078993e-02
      2.3137697920946877e-02 3.7326104517052414e-02
      1.0995733094691599e-02 -2.5531523204981189e-02
      -2.2554311058547910e-02 -3.6629858726912774e-02
      -2.0631665648685703e-02 2.3746783950831369e-02
      9.4971453344632178e-03 -2.1885269438949327e-02
      1.4099350256059271e-02 -2.9200520764237996e-02
      2.2683510563138935e-02 -1.9586506072880292e-02
      3.4240454233903851e-02 -1.8721427424147272e-02
      -1.1193037322689685e-02 -4.2654893256085361e-02
      -2.2130678351527551e-02 1.6896856907564366e-02
      -5.8898819207459992e-02 6.1409233367106658e-02
      -2.1429453867868757e-02 -2.0353756428172571e-02
      4.6120878990536601e-02 5.4562541594943059e-02
      -1.7894315365216303e-02 -2.2338937562596525e-02
      -2.5065325064051885e-02 -1.7191818606627100e-02
      -4.3405002523506819e-02 -2.4724342073675194e-02
      4.9914354145755332e-02 4.2701880770105984e-02
      -1.6894456885367770e-01 -4.1063627463016353e-02
      -5.6313948463116992e-02 1.1464404221093777e-03
      5.0553630947476134e-02 -3.7755500315778357e-03
      9.4070562531903843e-05 3.3588590459335953e-02
      -7.9231562903482808e-03 -2.3793590532146889e-02
      -1.6146024218727342e-03 -2.2693873202348825e-02
      2.7356489475211226e-03 1.8513991307984232e-02
      -1.4740928578204438e-02 -7.4561933834216450e-04
      -1.4099755207743080e-02 -1.8865093527905500e-02
      2.0391177492115480e-02 -1.9423201355492210e-02
      2.2124128809213720e-02 1.4525812646552919e-03
      1.2045367855537356e-02 -6.2451539379859658e-02
      -3.5018850698824719e-03 -4.0679113696571560e-03
      -5.7237982932742314e-02 5.1711281873572261e-02
      -1.4821105927583626e-03 6.2994086662067209e-04
      5.7412147275986834e-02 6.3457084562022814e-02
      -2.0838961637028794e-02 7.6427674731511224e-03
      -1.8111494156942659e-02 5.8664386765943635e-04
      -3.4163249391547787e-02 -4.4802223992536630e-03
      7.1384560387739673e-02 5.3058618664271764e-02
      -3.9688052549231086e-02 -1.5700086349735368e-02
      -3.5907302761224058e-02 -1.3267574327529825e-02
      3.0987075464972272e-02 -3.2223563119499525e-02
      6.7474946847373152e-03 1.6204776712562735e-02
      7.2977187058715408e-03 -1.3292394388693514e-02
      -4.9581211524595157e-03 -7.0778942270176429e-03
      -9.2243080477723040e-03 -9.1457129871058896e-05
      1.0838293889510054e-03 -1.1356032676253035e-02
      3.6831077797506813e-03 -2.4511231939841963e-03
      1.1041531123771963e-02 -1.2268069977980162e-02
      6.0146995637321982e-03 -2.0700845411650813e-02
      -6.4783249945366212e-03 -3.3113221919325288e-02
      -1.6314287576237641e-02 1.7685480108059974e-02
      -3.4526936871174037e-02 2.6188295536134075e-02
      -1.2081381754973253e-02 -5.8418725126849888e-03
      8.1031236912124582e-04 4.5495331489629018e-02
      -1.4175554122455313e-02 -8.3379096841149324e-03
      -4.3341381364576587e-05 -1.9944335196492694e-02
      -1.6274792357128760e-02 -6.3582095570212348e-03
      4.8247270730716475e-02 3.8028292264656295e-02
      5.6226987827265387e-03 3.3645134012262115e-02
      4.4463828108687514e-02 2.1236805205797567e-02
      -4.9443060872352500e-02 3.0386859051257327e-02
      -2.3476890028090343e-02 -3.6295537953867869e-02
      -1.9516644638848071e-02 3.2196533908883081e-04
      2.7591705781982639e-02 1.9623034053797943e-02
      1.5793537028308643e-02 -9.1096792784821842e-03
      -1.8370354508333700e-02 2.8746435152250834e-02
      -2.5316209379908021e-02 1.5850482776521482e-02
      2.7706467757282309e-04 -2.2911886061024464e-03
      -1.7913098997415115e-02 2.7855585407353702e-02
      1.9756770138175780e-02 3.2695859150329541e-02
      3.1924484612875094e-02 -2.5482921253725421e-02
      5.1293700176572581e-02 -3.6728794516953364e-02
      2.5441120458507341e-02 2.4524502337804531e-02
      -4.2751721023895746e-02 -3.3191650695290745e-02
      -4.7661363234872847e-04 1.3280418699533338e-02
      1.1584860661296503e-02 2.7059132805841546e-02
      2.7799492209285535e-02 1.3022573807794036e-02
      -3.0217918687463763e-02 -5.3511440540012951e-02
      -4.9233617507916494e-02 2.5666585616720998e-03
      2.4558561194709711e-03 -1.2530397851886234e-02
      -3.1646490283043787e-03 1.1008913731681761e-02
      1.0896101653927090e-02 -5.1938115008096711e-03
      -1.7114886195144622e-02 -9.7224525691966580e-03
      -8.6159360454947497e-03 6.2391270967668251e-03
      -9.1070337092181933e-03 -5.3707963169297417e-03
      -2.0136708056616829e-02 -9.8886360468462709e-03
      -2.0919416420173382e-02 1.8438890634307731e-02
      1.1045356304404140e-02 -1.0904357667078897e-02
      -1.0653619044203890e-02 1.0821621396493303e-02
      1.9981568841043507e-02 2.9199994317294152e-03
      -8.2129317008904114e-03 -1.2105734383428064e-02
      -1.1535481378762950e-02 7.2263379489475492e-03
      -1.3230696287191583e-02 -7.7981522529552028e-03
      -1.8861352934236345e-03 -8.1017712943648196e-05
      -1.1592437560641608e-02 -1.1142404579566062e-02
      6.9859293587572159e-03 1.2650235306288617e-02
      2.5647592887455099e-04 -2.0468763008195260e-03
      -3.1577783521769963e-03 -7.0788130892028816e-04
      -4.8807853341949869e-02 1.1956659092190220e-03
      3.3066231896252546e-03 -1.1900469198076091e-02
      -2.0205628095543563e-03 9.6595127088891525e-03
      1.0385273590361883e-02 -5.6513220789359189e-03
      -1.6962021044822428e-02 -9.5082783172051009e-03
      -9.8565603761835794e-03 5.8308481129183245e-03
      -8.9131586983561915e-03 -5.7769937158308905e-03
      -1.8537130785054905e-02 -9.4303378264134780e-03
      -2.1619159907312207e-02 1.7041296751967437e-02
      9.1217387894576493e-03 -1.1056151755424815e-02
      -1.0644034765715992e-02 1.2212205883641431e-02
      2.1409140002606072e-02 3.0328436578065661e-03
      -1.0203331314724527e-02 -1.2801048819329697e-02
      -9.9339088495325276e-03 6.4699488246409169e-03
      -1.2736759589326668e-02 -7.5233173389244682e-03
      -2.5331189404376158e-03 -1.7968473155904104e-04
      -1.0115400187962384e-02 -1.0243383819523886e-02
      8.1956708947086773e-03 1.2556409037354726e-02
      1.0353688620523278e-03 -2.0600830288290753e-03
      -2.1021277959890386e-03 -2.1335338639040476e-03
      -2.5088428923246670e-01 -7.0264220836999985e-02
      -4.2460837689768938e-02 -2.0295517545836941e-02
      3.7748064717027470e-02 -3.9555340644924671e-03
      1.7903010708557373e-02 3.6318694582488348e-02
      -7.8444537672029101e-03 -7.4227494699949534e-02
      -2.2652927597745495e-02 -4.6776200664261379e-02
      -2.0079282715992821e-02 3.8920731376200682e-02
      -7.0762781536809066e-03 -2.2681428599409675e-02
      -1.1386612427885225e-02 -4.1954168426922435e-02
      7.3305322486881735e-02 -7.1017850967891663e-02
      4.5305238059834836e-02 5.0436763708902460e-03
      1.0843844939406218e-02 -4.4602676087570056e-02
      -2.4306961537489520e-02 -2.8589091294215756e-03
      -6.6266075345557646e-02 8.0145701859040921e-02
      -1.9518086159175184e-02 -2.1244898843729047e-02
      4.4554954918899055e-02 6.3209168472893720e-02
      -7.3558348480012095e-02 -2.5679765602248820e-02
      -3.8523489626004985e-02 4.5782773034161919e-03
      -5.6889621183833762e-02 -2.8472457929752493e-02
      5.0187290655115645e-02 4.0797897664524276e-02
      -3.7306592530746296e-01 -1.1819135661321642e-01
      -8.6455299165852803e-02 -4.8414805050458955e-02
      8.3332496788559085e-02 -2.9518797056939008e-02
      4.7171469780604325e-02 7.3438474775879309e-02
      1.4236136008907075e-02 -1.3096190207338806e-01
      -4.9316677051345674e-02 -7.4321010766937798e-02
      -4.4044225293096172e-02 4.8579618259463386e-02
      1.3445822057750668e-02 -5.2537127607135324e-02
      1.2809378621749752e-02 -5.7160918620176332e-02
      1.2914226571366477e-01 -1.2816397867375631e-01
      7.0884372919751942e-02 -2.2078776264546664e-02
      -1.1636020892166827e-02 -8.5351111906146249e-02
      -5.2556809934442776e-02 1.9091936466553650e-02
      -1.2257005353870302e-01 1.3107684983929416e-01
      -4.5988105111241698e-02 -4.7860005026058999e-02
      8.7125850661666671e-02 1.1195089858369843e-01
      -1.3226746484997609e-01 -4.8997144207469791e-02
      -5.0675832098854290e-02 -2.0383094918626457e-02
      -9.5792116274023703e-02 -5.0605993404901260e-02
      9.8163154678805972e-02 8.9165898188738268e-02
      -3.2365514921963912e-01 -1.0098509657966576e-01
      -7.2268814202840009e-02 -4.1637677752699546e-02
      7.2150166624748421e-02 -2.4848280423184311e-02
      4.0734602797288043e-02 6.2404375076454070e-02
      1.1333013181350700e-02 -1.1326497014818855e-01
      -4.5560966760518587e-02 -6.4386436671729760e-02
      -3.8336108647755635e-02 3.9931719056795274e-02
      1.1249904071462709e-02 -4.5763415415296778e-02
      1.0391213390568647e-02 -4.9747814210028038e-02
      1.1086563092822088e-01 -1.1082232114501397e-01
      6.0827618687951300e-02 -1.8305799094005107e-02
      -1.0013564917932778e-02 -7.1688493648585247e-02
      -4.6096834166001147e-02 1.6696564346129705e-02
      -1.0476757922250869e-01 1.1412286074464940e-01
      -4.3074732485590614e-02 -4.0819951748923104e-02
      7.0918974183801567e-02 9.5896408348921394e-02
      -1.1477214263628195e-01 -4.2658290987950473e-02
      -4.4014041662409777e-02 -1.8008536627227231e-02
      -8.2388125130479134e-02 -4.4609007148907157e-02
      8.0185820980041136e-02 7.7795792197912370e-02
      -2.2252149239082547e-01 -6.7052775526714237e-02
      -2.6446747731119342e-02 -2.8335591783622324e-02
      3.6249362055818447e-02 -1.8347239875075791e-02
      2.8631144780336310e-02 2.7652793089408989e-02
      7.0591064536988353e-03 -6.1660450280107033e-02
      -3.2172820590483826e-02 -3.8741295303387727e-02
      -2.6408518937104965e-02 2.0543801958015421e-02
      1.0536476676354000e-02 -3.5266693724059689e-02
      9.2641330877851445e-03 -2.5076249286823074e-02
      6.1024425974121964e-02 -6.1058419955260533e-02
      3.4826689509844744e-02 -1.2399855338870844e-02
      -8.6204008139100698e-03 -2.5228040781125064e-02
      -3.4323315755331998e-02 1.2515838463629803e-02
      -7.1067523224616416e-02 6.8400772506902227e-02
      -2.8230560700978128e-02 -3.0611736976685979e-02
      2.4194580651158613e-02 3.6468021788958617e-02
      -6.2591800259580263e-02 -2.6658498796734448e-02
      -2.1750129858089374e-02 -1.3747789860251122e-02
      -5.4556730322949838e-02 -2.3471346583840935e-02
      2.7189767782437514e-02 4.3379909134721673e-02
      -9.0955540515152616e-02 -3.6007506408029334e-02
      1.6007714066426578e-04 -2.6114645387567269e-02
      1.4921917902578168e-02 -2.4460688408587988e-02
      2.8574630270993003e-02 8.3975999163345954e-03
      1.5266634983880275e-02 -1.5255085093461136e-02
      -3.3319359307432427e-02 -1.9067866525178941e-02
      -2.2793697399331618e-02 1.0142204937772748e-02
      1.5443274736671933e-02 -4.0651471534120263e-02
      1.7407304389431433e-02 -1.2504224550942489e-02
      1.3329530273213373e-02 -1.7745998621973985e-02
      1.5570239925343982e-02 -1.9148999437385218e-02
      -1.2999433034632262e-02 2.5896477980124778e-03
      -4.2794609966814195e-02 1.9338989494295612e-02
      -3.8186398116304046e-02 1.3451151315021399e-02
      -2.8659639269588071e-02 -3.3058780842515005e-02
      -6.6561374170534919e-03 5.7530699274903540e-03
      -1.6794292050704061e-02 -2.2180206724336977e-02
      -1.0930017366533125e-02 -2.0281318130228744e-02
      -3.0593408358985816e-02 -1.4304407806920126e-02
      -5.2825246676535776e-03 2.1282816129069383e-02
      -1.3109456711530740e-01 -4.9584881488753320e-02
      -1.2137664825170424e-02 -3.1983380230699854e-02
      2.5247992512846033e-02 -2.7634980861696700e-02
      3.3284308383037295e-02 2.1411067462174690e-02
      1.6372916959174096e-02 -2.3710194538175338e-02
      -3.6971697589652214e-02 -2.9586942522168848e-02
      -2.7512429556951636e-02 1.6882704407341020e-02
      1.5724258478700216e-02 -4.0396033859257302e-02
      1.7880723500805940e-02 -2.0054144983334528e-02
      2.1103817580590448e-02 -2.0785389261995000e-02
      2.6815596581246021e-02 -2.2060613329111547e-02
      -1.6591491771058897e-02 -8.5890649998925407e-03
      -4.3198542714072169e-02 2.2270964629529957e-02
      -5.3587817580975548e-02 3.1992150431685205e-02
      -3.3303520100954206e-02 -3.6515131224023500e-02
      5.5710713768073392e-03 2.2895742672477744e-02
      -2.0813312632914485e-02 -2.8145487408415007e-02
      -1.7552167610631761e-02 -2.2398372062140876e-02
      -4.2237934905671709e-02 -2.3152343300099153e-02
      1.0374365032982885e-02 3.3907398412673914e-02
      -1.7367503228043382e-01 -5.9428153971146293e-02
      -1.1571048552555776e-02 1.5195963964101257e-02
      3.2342699482602426e-02 5.0193010305085009e-02
      -1.9660757118443964e-02 2.0364851735007523e-02
      -5.3516388898235900e-02 -3.1644351093316286e-02
      2.0184032632393850e-02 -3.6386521243350844e-02
      1.0100963552752022e-02 6.6985824290945073e-02
      -5.1062786375202708e-02 2.9077781093290820e-02
      -6.7038789162828863e-02 -6.8372279750488277e-02
      3.0049184388010703e-02 -2.9882143509347737e-02
      4.4007087095844263e-02 5.6914941101346012e-02
      5.6628086628208597e-02 1.2547885675225226e-02
      3.2357621612753469e-02 -5.6121950967621688e-02
      -6.1920601992946696e-02 4.7804252792449382e-02
      1.7591606788048560e-02 2.2795410053202458e-02
      -2.1688040259356181e-02 3.0308643022716956e-02
      -3.0523667615444561e-02 6.7798796219602428e-03
      -6.7976642708693066e-02 5.4945903995319616e-02
      -4.8767387771817501e-02 -8.2944963098060889e-03
      -1.0770402265854663e-02 3.8702869601689824e-02
      -1.3442557509166175e-01 -4.4121412440032037e-02
      -4.2162170637489588e-03 -3.0217773580298070e-02
      5.9547028516775749e-03 4.9120663309752443e-03
      7.1695423040699429e-03 1.5040842900880381e-02
      -3.2557781314142809e-03 -2.0542830067794098e-02
      -8.0369602555881280e-03 -2.8804032890563318e-02
      -1.8774900463638108e-02 2.2433584768468549e-02
      -1.4174767563162253e-03 -8.7652944784340596e-03
      -6.5023195325869410e-03 -2.7739038387431102e-02
      1.8934707306059544e-02 -1.6651897877471043e-02
      2.8677659846114454e-02 6.2666756394000973e-03
      3.7230297193455008e-03 1.5405841697571063e-02
      -5.1651829450450725e-03 -3.3601246322776165e-03
      -4.6076806661484504e-02 3.5698079742881188e-02
      -2.8098488522075627e-02 -1.0305451652032354e-02
      -2.3400987436302572e-02 1.8551475596627787e-02
      -1.9302779693023932e-02 -2.5885698104160471e-02
      -2.4602154094158533e-02 3.2364810095902976e-03
      -3.5118026308517424e-02 -1.8482285994157879e-02
      -1.7005053680085314e-02 1.3155429830231463e-02
      -2.2791482667346191e-01 -1.0427253233785730e-01
      -6.1722047954471580e-02 -4.3812414023391595e-02
      7.9051321822845591e-02 -2.3820300023299820e-02
      4.2282789653616301e-02 6.3122020796137129e-02
      1.5789131287818239e-02 -8.8867146749583584e-02
      -4.3077605349214634e-02 -6.5985001264022389e-02
      -3.6519298116953924e-02 4.2634906508001551e-02
      1.7573683363791698e-02 -4.2586066014597967e-02
      2.0784991246303661e-02 -5.6382092285266333e-02
      8.7344454216655681e-02 -8.7745359053613053e-02
      6.5599360162881981e-02 -2.0171291287466083e-02
      -1.5243354559382005e-02 -3.8020226106770638e-02
      -4.2157322901086446e-02 2.1013577835009969e-02
      -1.1683348093819952e-01 1.0367540093901086e-01
      -4.6342879216294500e-02 -4.0285247845915723e-02
      3.6670992196329667e-02 8.0895009044455402e-02
      -9.0844784163021011e-02 -3.8808652695587934e-02
      -4.5674174287955518e-02 -2.1881292191286133e-02
      -8.6875066260964542e-02 -3.7329917384314931e-02
      4.1498747143516389e-02 8.7852206225272414e-02
      5.5952554081266578e-02 -5.9149716303352629e-03
      -5.2926476332056313e-03 -3.6722741065987143e-02
      7.1944345780117760e-03 -3.2109044804248525e-02
      3.8852930349466477e-02 6.6069348445847859e-03
      3.8888633850059397e-02 -8.4735689800098191e-04
      -3.7144004426075634e-02 2.5648800513874315e-03
      -3.0677183244816681e-02 -3.0701776502951791e-02
      4.0637667294222787e-02 -3.7707289333633702e-02
      3.9506864528274038e-02 2.8951922604046134e-02
      -1.8618342108219577e-03 -3.2689033453474196e-03
      -1.2846301070920264e-02 -3.3139154291541829e-02
      -4.0160683717541223e-02 -9.8828928256751505e-03
      -3.8413934898852309e-02 3.9703494566481382e-02
      -1.9871239610463895e-03 1.1724423533726087e-04
      -3.6537389098869423e-02 -4.1045951975215114e-02
      1.1098778600776594e-02 1.6731139192680791e-02
      -2.1424533776330710e-03 -2.7737102552950005e-02
      3.0159661510970982e-02 -3.8223589564683143e-02
      -5.0550271086705423e-03 -9.5726328761008457e-03
      1.0834497179518236e-02 9.3870976219049794e-03
      1.2285101203501086e-01 2.0535432583576832e-02
      1.5714354073196955e-02 -3.3225033331548554e-02
      -1.0735684919676490e-02 -3.9664451764877956e-02
      3.9516790240231407e-02 -1.0024186072839489e-02
      4.6590811270556032e-02 2.3668570038868381e-02
      -3.9852348680087628e-02 2.0805801789263605e-02
      -2.9222739722846686e-02 -4.4152195184112134e-02
      4.6542825318503685e-02 -3.9400989968654355e-02
      4.8699720686231879e-02 4.7107766592270658e-02
      -2.6087644761805549e-02 2.4669868689574645e-02
      -2.7917276494034863e-02 -4.1506143408376744e-02
