<?xml version="1.0"?>
<opencv_storage>
<shapeML type_id="opencv-ml-ann-mlp">
  <layer_sizes type_id="opencv-matrix">
    <rows>1</rows>
    <cols>3</cols>
    <dt>i</dt>
    <data>
      1600 40 1</data></layer_sizes>
  <activation_function>SIGMOID_SYM</activation_function>
  <f_param1>5.9999999999999998e-01</f_param1>
  <f_param2>1.</f_param2>
  <min_val>-9.4999999999999996e-01</min_val>
  <max_val>9.4999999999999996e-01</max_val>
  <min_val1>-9.7999999999999998e-01</min_val1>
  <max_val1>9.7999999999999998e-01</max_val1>
  <training_params>
    <train_method>BACKPROP</train_method>
    <dw_scale>1.0000000000000001e-01</dw_scale>
    <moment_scale>1.0000000000000001e-01</moment_scale>
    <term_criteria><epsilon>9.9999999747524271e-07</epsilon>
      <iterations>4000</iterations></term_criteria></training_params>
  <input_scale>
    1. 0. 3.9119540257937714e-02 -1.0127393670836667e-01
    3.9119540257937714e-02 -1.0127393670836667e-01
    5.5182072829131651e-02 -7.1428571428571425e-02
    3.2023187145307185e-02 -1.2435400084345176e-01
    3.2023187145307185e-02 -1.2435400084345176e-01
    3.2023187145307185e-02 -1.2435400084345176e-01
    2.7804647626959379e-02 -1.4396315014973890e-01
    2.2820950917583540e-02 -1.7723885738021736e-01
    2.4933912392250363e-02 -1.6137430609197570e-01
    2.4933912392250363e-02 -1.6137430609197570e-01
    2.2820950917583540e-02 -1.7723885738021736e-01
    2.2820950917583540e-02 -1.7723885738021736e-01
    1.7865091400468120e-02 -2.3124864503144013e-01
    1.7865091400468120e-02 -2.3124864503144013e-01
    1.5795939368782114e-02 -2.6580476653559748e-01
    1.4355779099087428e-02 -2.9731765849886654e-01
    1.8781309362800803e-02 -2.1879748724684184e-01
    1.9867816955903339e-02 -2.0573779994945590e-01
    1.2984475603353375e-02 -3.3614632272640715e-01
    1.1586207885120520e-02 -3.8993176791040124e-01
    1.2984475603353375e-02 -3.3614632272640715e-01
    1.4785796417954676e-02 -2.8708462588160727e-01
    1.5795939368782114e-02 -2.6580476653559748e-01
    2.4933912392250363e-02 -1.6137430609197570e-01
    2.7804647626959379e-02 -1.4396315014973890e-01
    2.4933912392250363e-02 -1.6137430609197570e-01
    1.7865091400468120e-02 -2.3124864503144013e-01
    1.8781309362800803e-02 -2.1879748724684184e-01
    2.1183622339234334e-02 -1.9194297398747862e-01
    1.9867816955903339e-02 -2.0573779994945590e-01
    2.7804647626959379e-02 -1.4396315014973890e-01
    2.2820950917583540e-02 -1.7723885738021736e-01
    2.4933912392250363e-02 -1.6137430609197570e-01
    2.4933912392250363e-02 -1.6137430609197570e-01
    2.7804647626959379e-02 -1.4396315014973890e-01
    3.9119540257937714e-02 -1.0127393670836667e-01
    5.5182072829131651e-02 -7.1428571428571425e-02
    5.5182072829131651e-02 -7.1428571428571425e-02
    3.9119540257937714e-02 -1.0127393670836667e-01
    5.5182072829131651e-02 -7.1428571428571425e-02
    3.2023187145307185e-02 -1.2435400084345176e-01
    3.9119540257937714e-02 -1.0127393670836667e-01
    3.9119540257937714e-02 -1.0127393670836667e-01
    2.7804647626959379e-02 -1.4396315014973890e-01
    2.7804647626959379e-02 -1.4396315014973890e-01
    2.2820950917583540e-02 -1.7723885738021736e-01
    2.1183622339234334e-02 -1.9194297398747862e-01
    1.8781309362800803e-02 -2.1879748724684184e-01
    1.9867816955903339e-02 -2.0573779994945590e-01
    1.5795939368782114e-02 -2.6580476653559748e-01
    1.3284317415911672e-02 -3.2671328873143174e-01
    1.3610161470404303e-02 -3.1710985354901400e-01
    1.1989397890500741e-02 -3.7246251314652051e-01
    1.0914583879236722e-02 -4.2384043998051230e-01
    1.0147565361379269e-02 -4.7286624374346037e-01
    1.0377501026388564e-02 -4.5671540050146625e-01
    1.0040727769340898e-02 -4.8088460154178359e-01
    9.8415884214768622e-03 -4.9682536472887001e-01
    1.0631855967151620e-02 -4.4038550605054427e-01
    9.7486891793763276e-03 -5.0475446512506872e-01
    1.0501398806071201e-02 -4.4857497945730540e-01
    1.0147565361379269e-02 -4.7286624374346037e-01
    1.0769391242659618e-02 -4.3214232372195066e-01
    1.1781262100205145e-02 -3.8124642583151164e-01
    1.1989397890500741e-02 -3.7246251314652051e-01
    1.3610161470404303e-02 -3.1710985354901400e-01
    1.3284317415911672e-02 -3.2671328873143174e-01
    1.3284317415911672e-02 -3.2671328873143174e-01
    1.3965784375906950e-02 -3.0731814857642958e-01
    1.6396439787385832e-02 -2.5468581598680534e-01
    1.7865091400468120e-02 -2.3124864503144013e-01
    1.7079424429847105e-02 -2.4318672855696005e-01
    1.7865091400468120e-02 -2.3124864503144013e-01
    1.8781309362800803e-02 -2.1879748724684184e-01
    1.8781309362800803e-02 -2.1879748724684184e-01
    2.7804647626959379e-02 -1.4396315014973890e-01
    3.2023187145307185e-02 -1.2435400084345176e-01
    3.2023187145307185e-02 -1.2435400084345176e-01
    3.2023187145307185e-02 -1.2435400084345176e-01 1. 0.
    3.2023187145307185e-02 -1.2435400084345176e-01
    3.2023187145307185e-02 -1.2435400084345176e-01
    3.2023187145307185e-02 -1.2435400084345176e-01
    2.4933912392250363e-02 -1.6137430609197570e-01
    2.1183622339234334e-02 -1.9194297398747862e-01
    1.9867816955903339e-02 -2.0573779994945590e-01
    1.9867816955903339e-02 -2.0573779994945590e-01
    1.3610161470404303e-02 -3.1710985354901400e-01
    1.2984475603353375e-02 -3.3614632272640715e-01
    1.1586207885120520e-02 -3.8993176791040124e-01
    1.1403015192901881e-02 -3.9852669849304290e-01
    1.0631855967151620e-02 -4.4038550605054427e-01
    9.5749287612470202e-03 -5.2054561945662736e-01
    9.6598819300225489e-03 -5.1266023136236427e-01
    8.9529164124367566e-03 -5.9102882204944174e-01
    8.9529164124367566e-03 -5.9102882204944174e-01
    8.8431474176116787e-03 -6.0667582410670984e-01
    8.7417932078457140e-03 -6.2235355197987885e-01
    9.0111947586981513e-03 -5.8321184351980415e-01
    8.8969340805746186e-03 -5.9884947161634228e-01
    8.9529164124367566e-03 -5.9102882204944174e-01
    9.1350786920156093e-03 -5.6758052380848256e-01
    9.3410994295210666e-03 -5.4410718758250887e-01
    9.0111947586981513e-03 -5.8321184351980415e-01
    9.0718768905197165e-03 -5.7539645556875063e-01
    1.0147565361379269e-02 -4.7286624374346037e-01
    1.0914583879236722e-02 -4.2384043998051230e-01
    1.0914583879236722e-02 -4.2384043998051230e-01
    1.2450754816705876e-02 -3.5456210417116735e-01
    1.4355779099087428e-02 -2.9731765849886654e-01
    1.5795939368782114e-02 -2.6580476653559748e-01
    1.5795939368782114e-02 -2.6580476653559748e-01
    1.5262879764670502e-02 -2.7659127289275987e-01
    1.5795939368782114e-02 -2.6580476653559748e-01
    1.5795939368782114e-02 -2.6580476653559748e-01
    2.1183622339234334e-02 -1.9194297398747862e-01
    2.2820950917583540e-02 -1.7723885738021736e-01
    2.4933912392250363e-02 -1.6137430609197570e-01
    3.2023187145307185e-02 -1.2435400084345176e-01 1. 0.
    3.9119540257937714e-02 -1.0127393670836667e-01
    2.7804647626959379e-02 -1.4396315014973890e-01
    2.4933912392250363e-02 -1.6137430609197570e-01
    1.8781309362800803e-02 -2.1879748724684184e-01
    1.8781309362800803e-02 -2.1879748724684184e-01
    1.7079424429847105e-02 -2.4318672855696005e-01
    1.2450754816705876e-02 -3.5456210417116735e-01
    1.2707498422262204e-02 -3.4542463985387872e-01
    1.1068082965398707e-02 -4.1547448491940830e-01
    1.1403015192901881e-02 -3.9852669849304290e-01
    9.7486891793763276e-03 -5.0475446512506872e-01
    9.5749287612470202e-03 -5.2054561945662736e-01
    8.8969340805746186e-03 -5.9884947161634228e-01
    8.7914628871756210e-03 -6.1450986779902694e-01
    8.4442934411397864e-03 -6.7768669697675143e-01
    8.2778388646020905e-03 -7.1790292894277519e-01
    8.1936076739783908e-03 -7.4241572071327044e-01
    8.2778388646020905e-03 -7.1790292894277519e-01
    8.4442934411397864e-03 -6.7768669697675143e-01
    8.2485333418156337e-03 -7.2603841699026950e-01
    8.1433816869695523e-03 -7.5894663844041110e-01
    8.1936076739783908e-03 -7.4241572071327044e-01
    8.1433816869695523e-03 -7.5894663844041110e-01
    8.3403140064944609e-03 -7.0172946526723701e-01
    8.6940568540636969e-03 -6.3020879124888118e-01
    8.9529164124367566e-03 -5.9102882204944174e-01
    8.6940568540636969e-03 -6.3020879124888118e-01
    1.0147565361379269e-02 -4.7286624374346037e-01
    1.0501398806071201e-02 -4.4857497945730540e-01
    1.0769391242659618e-02 -4.3214232372195066e-01
    1.1781262100205145e-02 -3.8124642583151164e-01
    1.4785796417954676e-02 -2.8708462588160727e-01
    1.5795939368782114e-02 -2.6580476653559748e-01
    1.5795939368782114e-02 -2.6580476653559748e-01
    1.5262879764670502e-02 -2.7659127289275987e-01
    1.7079424429847105e-02 -2.4318672855696005e-01
    2.1183622339234334e-02 -1.9194297398747862e-01
    2.7804647626959379e-02 -1.4396315014973890e-01
    2.7804647626959379e-02 -1.4396315014973890e-01
    5.5182072829131651e-02 -7.1428571428571425e-02
    2.7804647626959379e-02 -1.4396315014973890e-01
    2.7804647626959379e-02 -1.4396315014973890e-01
    1.7865091400468120e-02 -2.3124864503144013e-01
    1.5262879764670502e-02 -2.7659127289275987e-01
    1.3965784375906950e-02 -3.0731814857642958e-01
    1.2212019907007822e-02 -3.6357104951574054e-01
    1.1068082965398707e-02 -4.1547448491940830e-01
    1.0631855967151620e-02 -4.4038550605054427e-01
    9.9388396812724739e-03 -4.8886983000776790e-01
    9.2009249280436464e-03 -5.5976185412488888e-01
    8.9529164124367566e-03 -5.9102882204944174e-01
    8.7914628871756210e-03 -6.1450986779902694e-01
    8.4818712149939794e-03 -6.6972338451386471e-01
    8.3084197634480071e-03 -7.0980053106005059e-01
    8.3403140064944609e-03 -7.0172946526723701e-01
    7.9295251510448899e-03 -8.6218491743848502e-01
    8.0015016002317335e-03 -8.1822461795263079e-01
    8.1199578168021300e-03 -7.6727418659782565e-01
    8.1936076739783908e-03 -7.4241572071327044e-01
    8.0763568295996388e-03 -7.8406256023397514e-01
    8.2485333418156337e-03 -7.2603841699026950e-01
    8.1433816869695523e-03 -7.5894663844041110e-01
    8.1433816869695523e-03 -7.5894663844041110e-01
    8.2778388646020905e-03 -7.1790292894277519e-01
    8.1199578168021300e-03 -7.6727418659782565e-01
    8.2204674784055638e-03 -7.3420875777942085e-01
    8.4082065519165243e-03 -6.8567430587075617e-01
    8.8969340805746186e-03 -5.9884947161634228e-01
    9.2009249280436464e-03 -5.5976185412488888e-01
    9.9388396812724739e-03 -4.8886983000776790e-01
    1.1068082965398707e-02 -4.1547448491940830e-01
    1.1989397890500741e-02 -3.7246251314652051e-01
    1.4355779099087428e-02 -2.9731765849886654e-01
    1.4785796417954676e-02 -2.8708462588160727e-01
    1.3610161470404303e-02 -3.1710985354901400e-01
    1.5795939368782114e-02 -2.6580476653559748e-01
    1.8781309362800803e-02 -2.1879748724684184e-01
    2.4933912392250363e-02 -1.6137430609197570e-01
    2.1183622339234334e-02 -1.9194297398747862e-01
    5.5182072829131651e-02 -7.1428571428571425e-02
    2.4933912392250363e-02 -1.6137430609197570e-01
    1.9867816955903339e-02 -2.0573779994945590e-01
    1.5795939368782114e-02 -2.6580476653559748e-01
    1.3610161470404303e-02 -3.1710985354901400e-01
    1.1586207885120520e-02 -3.8993176791040124e-01
    1.0769391242659618e-02 -4.3214232372195066e-01
    9.9388396812724739e-03 -4.8886983000776790e-01
    9.4157299054277617e-03 -5.3626644435989590e-01
    9.0718768905197165e-03 -5.7539645556875063e-01
    9.0718768905197165e-03 -5.7539645556875063e-01
    8.6940568540636969e-03 -6.3020879124888118e-01
    8.4082065519165243e-03 -6.8567430587075617e-01
    8.6481776058245172e-03 -6.3807746954649414e-01
    8.2204674784055638e-03 -7.3420875777942085e-01
    8.0369276754689405e-03 -8.0104098937986112e-01
    7.8440468443656056e-03 -9.8488578017961048e-01
    7.8659723765256463e-03 -9.2654765988465804e-01
    7.8513349708125516e-03 -9.5531217893592324e-01
    7.9699306363571285e-03 -8.3562902179673348e-01
    7.9178554977002540e-03 -8.7116506554646200e-01
    7.9178554977002540e-03 -8.7116506554646200e-01
    8.0187239654008861e-03 -8.0960619122753108e-01
    7.9852427170176692e-03 -8.2689823059472312e-01
    7.8971443570797079e-03 -8.8933069828331635e-01
    7.9070653966161752e-03 -8.8021291445580063e-01
    7.9295251510448899e-03 -8.6218491743848502e-01
    8.1433816869695523e-03 -7.5894663844041110e-01
    8.5209915956631754e-03 -6.6178259600835831e-01
    8.6940568540636969e-03 -6.3020879124888118e-01
    9.5749287612470202e-03 -5.2054561945662736e-01
    9.5749287612470202e-03 -5.2054561945662736e-01
    1.0631855967151620e-02 -4.4038550605054427e-01
    1.1068082965398707e-02 -4.1547448491940830e-01
    1.2984475603353375e-02 -3.3614632272640715e-01
    1.2450754816705876e-02 -3.5456210417116735e-01
    1.4785796417954676e-02 -2.8708462588160727e-01
    1.6396439787385832e-02 -2.5468581598680534e-01
    1.9867816955903339e-02 -2.0573779994945590e-01
    1.9867816955903339e-02 -2.0573779994945590e-01
    5.5182072829131651e-02 -7.1428571428571425e-02
    1.8781309362800803e-02 -2.1879748724684184e-01
    1.6396439787385832e-02 -2.5468581598680534e-01
    1.2450754816705876e-02 -3.5456210417116735e-01
    1.1230618579610522e-02 -4.0703866324070620e-01
    1.0769391242659618e-02 -4.3214232372195066e-01
    9.9388396812724739e-03 -4.8886983000776790e-01
    9.8415884214768622e-03 -4.9682536472887001e-01
    8.7914628871756210e-03 -6.1450986779902694e-01
    8.6940568540636969e-03 -6.3020879124888118e-01
    8.8969340805746186e-03 -5.9884947161634228e-01
    8.4082065519165243e-03 -6.8567430587075617e-01
    8.1433816869695523e-03 -7.5894663844041110e-01
    8.1199578168021300e-03 -7.6727418659782565e-01
    7.8880828000424310e-03 -8.9852070067488410e-01
    7.8456646739887420e-03 -9.7493335644286505e-01
    7.8432383047722220e-03 -9.9493667632618188e-01
    7.8432383047722220e-03 -9.9493667632618188e-01
    7.8480932964502519e-03 -1.0361873433536601e+00
    7.8553927182387542e-03 -1.0574873852167095e+00
    7.8432383047722237e-03 -1.0050890913907351e+00
    7.8798720319172948e-03 -9.0778525768712193e-01
    7.8971443570797079e-03 -8.8933069828331635e-01
    7.8602703298346326e-03 -9.3605046668995173e-01
    7.9295251510448899e-03 -8.6218491743848502e-01
    7.8553927182387542e-03 -9.4563775793417293e-01
    7.8602703298346326e-03 -9.3605046668995173e-01
    7.9070653966161752e-03 -8.8021291445580063e-01
    8.0976244288419458e-03 -7.7564554808247477e-01
    8.1199578168021300e-03 -7.6727418659782565e-01
    8.6481776058245172e-03 -6.3807746954649414e-01
    9.0111947586981513e-03 -5.8321184351980415e-01
    9.2009249280436464e-03 -5.5976185412488888e-01
    9.8415884214768622e-03 -4.9682536472887001e-01
    1.0631855967151620e-02 -4.4038550605054427e-01
    1.2212019907007822e-02 -3.6357104951574054e-01
    1.3284317415911672e-02 -3.2671328873143174e-01
    1.4785796417954676e-02 -2.8708462588160727e-01
    1.7079424429847105e-02 -2.4318672855696005e-01
    2.1183622339234334e-02 -1.9194297398747862e-01
    2.4933912392250363e-02 -1.6137430609197570e-01
    1.6396439787385832e-02 -2.5468581598680534e-01
    1.4355779099087428e-02 -2.9731765849886654e-01
    1.1230618579610522e-02 -4.0703866324070620e-01
    1.0259696559428129e-02 -4.6481112585226425e-01
    1.0914583879236722e-02 -4.2384043998051230e-01
    9.1350786920156093e-03 -5.6758052380848256e-01
    8.5209915956631754e-03 -6.6178259600835831e-01
    8.3403140064944609e-03 -7.0172946526723701e-01
    8.5209915956631754e-03 -6.6178259600835831e-01
    8.2778388646020905e-03 -7.1790292894277519e-01
    7.9178554977002540e-03 -8.7116506554646200e-01
    7.8798720319172948e-03 -9.0778525768712193e-01
    7.8480932964502519e-03 -9.6507644724115416e-01
    7.8456646739887420e-03 -9.7493335644286505e-01
    7.8432383047722220e-03 -9.9493667632618188e-01
    7.8480932964502519e-03 -1.0361873433536601e+00
    7.8432383047722237e-03 -1.0050890913907351e+00
    7.8602703298346326e-03 -1.0683184674178796e+00
    7.8798720319172930e-03 -1.1015821104517880e+00
    7.8659723765256463e-03 -1.0792752961293819e+00
    7.8480932964502519e-03 -1.0361873433536601e+00
    7.8880828000424310e-03 -1.1129404133359360e+00
    7.9070653966161770e-03 -1.1360887616813244e+00
    7.8725042210196980e-03 -1.0903618155864085e+00
    7.8553927182387542e-03 -9.4563775793417293e-01
    7.8513349708125516e-03 -9.5531217893592324e-01
    7.8659723765256463e-03 -9.2654765988465804e-01
    8.0369276754689405e-03 -8.0104098937986112e-01
    8.0369276754689405e-03 -8.0104098937986112e-01
    8.0561318311052881e-03 -7.9252708064375876e-01
    8.2485333418156337e-03 -7.2603841699026950e-01
    8.6940568540636969e-03 -6.3020879124888118e-01
    8.8431474176116787e-03 -6.0667582410670984e-01
    1.0147565361379269e-02 -4.7286624374346037e-01
    1.0501398806071201e-02 -4.4857497945730540e-01
    1.2450754816705876e-02 -3.5456210417116735e-01
    1.3610161470404303e-02 -3.1710985354901400e-01
    1.5262879764670502e-02 -2.7659127289275987e-01
    1.7865091400468120e-02 -2.3124864503144013e-01
    1.8781309362800803e-02 -2.1879748724684184e-01
    1.4355779099087428e-02 -2.9731765849886654e-01
    1.2984475603353375e-02 -3.3614632272640715e-01
    1.1781262100205145e-02 -3.8124642583151164e-01
    1.0769391242659618e-02 -4.3214232372195066e-01
    9.8415884214768622e-03 -4.9682536472887001e-01
    8.7914628871756210e-03 -6.1450986779902694e-01
    8.3084197634480071e-03 -7.0980053106005059e-01
    8.0561318311052881e-03 -7.9252708064375876e-01
    8.1433816869695523e-03 -7.5894663844041110e-01
    8.0015016002317335e-03 -8.1822461795263079e-01
    7.8513349708125516e-03 -9.5531217893592324e-01
    7.8513349708125516e-03 -9.5531217893592324e-01
    7.8553927182387542e-03 -9.4563775793417293e-01
    7.8798720319172948e-03 -9.0778525768712193e-01
    7.8513349708125516e-03 -9.5531217893592324e-01
    7.8725042210196980e-03 -1.0903618155864085e+00
    7.8971443570797061e-03 -1.1244411127720089e+00
    7.8725042210196980e-03 -1.0903618155864085e+00
    7.8725042210196980e-03 -1.0903618155864085e+00
    7.8440468443656038e-03 -1.0153461651336186e+00
    7.9555498125818309e-03 -1.1842461840302649e+00
    7.9852427170176692e-03 -1.2093386622447826e+00
    7.9070653966161770e-03 -1.1360887616813244e+00
    7.8480932964502519e-03 -1.0361873433536601e+00
    7.9295251510448899e-03 -1.1598439960779621e+00
    7.8480932964502519e-03 -1.0361873433536601e+00
    7.8602703298346326e-03 -9.3605046668995173e-01
    7.8602703298346326e-03 -9.3605046668995173e-01
    7.8659723765256463e-03 -9.2654765988465804e-01
    7.9295251510448899e-03 -8.6218491743848502e-01
    7.9178554977002540e-03 -8.7116506554646200e-01
    8.0015016002317335e-03 -8.1822461795263079e-01
    8.4442934411397864e-03 -6.7768669697675143e-01
    8.8969340805746186e-03 -5.9884947161634228e-01
    9.9388396812724739e-03 -4.8886983000776790e-01
    1.0501398806071201e-02 -4.4857497945730540e-01
    1.2212019907007822e-02 -3.6357104951574054e-01
    1.3965784375906950e-02 -3.0731814857642958e-01
    1.6396439787385832e-02 -2.5468581598680534e-01
    1.9867816955903339e-02 -2.0573779994945590e-01
    1.3965784375906950e-02 -3.0731814857642958e-01
    1.2984475603353375e-02 -3.3614632272640715e-01
    1.0914583879236722e-02 -4.2384043998051230e-01
    9.4936115455471863e-03 -5.2841345480672541e-01
    8.6040841416605719e-03 -6.4596144393482158e-01
    8.4818712149939794e-03 -6.6972338451386471e-01
    8.0976244288419458e-03 -7.7564554808247477e-01
    7.9178554977002540e-03 -8.7116506554646200e-01
    7.8971443570797079e-03 -8.8933069828331635e-01
    7.8513349708125516e-03 -9.5531217893592324e-01
    7.8513349708125516e-03 -9.5531217893592324e-01
    7.8513349708125516e-03 -9.5531217893592324e-01
    7.8432383047722220e-03 -9.9493667632618188e-01
    7.8456646739887420e-03 -1.0257111354242643e+00
    7.9420857880181626e-03 -1.1719615931862335e+00
    7.9295251510448899e-03 -1.1598439960779621e+00
    7.9070653966161770e-03 -1.1360887616813244e+00
    7.8440468443656038e-03 -1.0153461651336186e+00
    7.8725042210196980e-03 -1.0903618155864085e+00
    7.9295251510448899e-03 -1.1598439960779621e+00
    7.9852427170176692e-03 -1.2093386622447826e+00
    8.2204674784055638e-03 -1.3620104492139979e+00
    7.9699306363571285e-03 -1.1967032904743342e+00
    8.0369276754689387e-03 -1.2483755678647184e+00
    8.0763568295996371e-03 -1.2754084313139324e+00
    7.8880828000424310e-03 -1.1129404133359360e+00
    7.9420857880181626e-03 -1.1719615931862335e+00
    7.8553927182387542e-03 -1.0574873852167095e+00
    7.8456646739887420e-03 -1.0257111354242643e+00
    7.8456646739887420e-03 -9.7493335644286505e-01
    7.8725042210196980e-03 -9.1712676077361466e-01
    7.9178554977002540e-03 -8.7116506554646200e-01
    8.0369276754689405e-03 -8.0104098937986112e-01
    8.3403140064944609e-03 -7.0172946526723701e-01
    8.9529164124367566e-03 -5.9102882204944174e-01
    9.7486891793763276e-03 -5.0475446512506872e-01
    1.1230618579610522e-02 -4.0703866324070620e-01
    1.3610161470404303e-02 -3.1710985354901400e-01
    1.5262879764670502e-02 -2.7659127289275987e-01
    1.7865091400468120e-02 -2.3124864503144013e-01
    1.2984475603353375e-02 -3.3614632272640715e-01
    1.1586207885120520e-02 -3.8993176791040124e-01
    9.5749287612470202e-03 -5.2054561945662736e-01
    8.6040841416605719e-03 -6.4596144393482158e-01
    8.4082065519165243e-03 -6.8567430587075617e-01
    8.4082065519165243e-03 -6.8567430587075617e-01
    8.0763568295996388e-03 -7.8406256023397514e-01
    8.0187239654008861e-03 -8.0960619122753108e-01
    7.8480932964502519e-03 -9.6507644724115416e-01
    7.8798720319172930e-03 -1.1015821104517880e+00
    7.8480932964502519e-03 -1.0361873433536601e+00
    7.8480932964502519e-03 -1.0361873433536601e+00
    7.8602703298346326e-03 -1.0683184674178796e+00
    7.9178554977002522e-03 -1.1478880863671026e+00
    8.0763568295996371e-03 -1.2754084313139324e+00
    8.1679223202629787e-03 -1.3321591073606573e+00
    7.9420857880181626e-03 -1.1719615931862335e+00
    7.8971443570797061e-03 -1.1244411127720089e+00
    8.0763568295996371e-03 -1.2754084313139324e+00
    8.0187239654008861e-03 -1.2351684199496951e+00
    8.0369276754689387e-03 -1.2483755678647184e+00
    8.3735619606005712e-03 -1.4415703243338496e+00
    8.2204674784055638e-03 -1.3620104492139979e+00
    8.1199578168021282e-03 -1.3033150566867173e+00
    8.1199578168021282e-03 -1.3033150566867173e+00
    8.1433816869695540e-03 -1.3176156917368251e+00
    8.3084197634480071e-03 -1.4088465086191915e+00
    8.0187239654008861e-03 -1.2351684199496951e+00
    8.1199578168021282e-03 -1.3033150566867173e+00
    7.8971443570797061e-03 -1.1244411127720089e+00
    7.8440468443656038e-03 -1.0153461651336186e+00
    7.8553927182387542e-03 -9.4563775793417293e-01
    7.9295251510448899e-03 -8.6218491743848502e-01
    8.0015016002317335e-03 -8.1822461795263079e-01
    8.4082065519165243e-03 -6.8567430587075617e-01
    9.3410994295210666e-03 -5.4410718758250887e-01
    1.0914583879236722e-02 -4.2384043998051230e-01
    1.2450754816705876e-02 -3.5456210417116735e-01
    1.4785796417954676e-02 -2.8708462588160727e-01
    1.9867816955903339e-02 -2.0573779994945590e-01
    1.2212019907007822e-02 -3.6357104951574054e-01
    1.0501398806071201e-02 -4.4857497945730540e-01
    8.6040841416605719e-03 -6.4596144393482158e-01
    8.2778388646020905e-03 -7.1790292894277519e-01
    8.3403140064944609e-03 -7.0172946526723701e-01
    8.2485333418156337e-03 -7.2603841699026950e-01
    7.9420857880181626e-03 -8.5327028275839811e-01
    7.8659723765256463e-03 -9.2654765988465804e-01
    7.8440468443656038e-03 -1.0153461651336186e+00
    7.8798720319172930e-03 -1.1015821104517880e+00
    7.8880828000424310e-03 -1.1129404133359360e+00
    7.8432383047722220e-03 -9.9493667632618188e-01
    7.8440468443656038e-03 -1.0153461651336186e+00
    7.9070653966161770e-03 -1.1360887616813244e+00
    8.2204674784055638e-03 -1.3620104492139979e+00
    8.1936076739783908e-03 -1.3469542361512192e+00
    8.0369276754689387e-03 -1.2483755678647184e+00
    8.1199578168021282e-03 -1.3033150566867173e+00
    8.1199578168021282e-03 -1.3033150566867173e+00
    8.0561318311052899e-03 -1.2617865362880900e+00
    8.0561318311052899e-03 -1.2617865362880900e+00
    8.0976244288419475e-03 -1.2892486812722219e+00
    8.1679223202629787e-03 -1.3321591073606573e+00
    8.0561318311052899e-03 -1.2617865362880900e+00
    8.0976244288419475e-03 -1.2892486812722219e+00
    8.2778388646020905e-03 -1.3929459815307579e+00
    8.5617096701351980e-03 -1.5293734177261809e+00
    8.5617096701351980e-03 -1.5293734177261809e+00
    8.4818712149939794e-03 -1.4931537753096000e+00
    8.2485333418156337e-03 -1.3773375851727172e+00
    7.9295251510448899e-03 -1.1598439960779621e+00
    7.9178554977002522e-03 -1.1478880863671026e+00
    7.8456646739887420e-03 -1.0257111354242643e+00
    7.8725042210196980e-03 -9.1712676077361466e-01
    8.0187239654008861e-03 -8.0960619122753108e-01
    8.8969340805746186e-03 -5.9884947161634228e-01
    1.0147565361379269e-02 -4.7286624374346037e-01
    1.2984475603353375e-02 -3.3614632272640715e-01
    1.5795939368782114e-02 -2.6580476653559748e-01
    1.8781309362800803e-02 -2.1879748724684184e-01
    1.2212019907007822e-02 -3.6357104951574054e-01
    1.0040727769340898e-02 -4.8088460154178359e-01
    8.6940568540636969e-03 -6.3020879124888118e-01
    8.0976244288419458e-03 -7.7564554808247477e-01
    7.9420857880181626e-03 -8.5327028275839811e-01
    7.8725042210196980e-03 -9.1712676077361466e-01
    7.8725042210196980e-03 -9.1712676077361466e-01
    7.8432383047722237e-03 -1.0050890913907351e+00
    7.8880828000424310e-03 -1.1129404133359360e+00
    7.8456646739887420e-03 -1.0257111354242643e+00
    7.8880828000424310e-03 -1.1129404133359360e+00
    7.8880828000424310e-03 -1.1129404133359360e+00
    7.9420857880181626e-03 -1.1719615931862335e+00
    8.2485333418156337e-03 -1.3773375851727172e+00
    8.3403140064944609e-03 -1.4250506063888506e+00
    8.2485333418156337e-03 -1.3773375851727172e+00
    8.2204674784055638e-03 -1.3620104492139979e+00
    8.2778388646020905e-03 -1.3929459815307579e+00
    8.1936076739783908e-03 -1.3469542361512192e+00
    8.1679223202629787e-03 -1.3321591073606573e+00
    8.1679223202629787e-03 -1.3321591073606573e+00
    8.1199578168021282e-03 -1.3033150566867173e+00
    8.2778388646020905e-03 -1.3929459815307579e+00
    8.1679223202629787e-03 -1.3321591073606573e+00
    8.2778388646020905e-03 -1.3929459815307579e+00
    9.2009249280436498e-03 -1.7864740025262418e+00
    9.2009249280436498e-03 -1.7864740025262418e+00
    8.9529164124367566e-03 -1.6919648631219313e+00
    8.2485333418156337e-03 -1.3773375851727172e+00
    8.2204674784055638e-03 -1.3620104492139979e+00
    8.0369276754689387e-03 -1.2483755678647184e+00
    7.9555498125818309e-03 -1.1842461840302649e+00
    7.9420857880181626e-03 -1.1719615931862335e+00
    7.8513349708125516e-03 -1.0467782386212776e+00
    7.9420857880181626e-03 -8.5327028275839811e-01
    8.3084197634480071e-03 -7.0980053106005059e-01
    9.6598819300225489e-03 -5.1266023136236427e-01
    1.2984475603353375e-02 -3.3614632272640715e-01
    1.5795939368782114e-02 -2.6580476653559748e-01
    1.7079424429847105e-02 -2.4318672855696005e-01
    1.0914583879236722e-02 -4.2384043998051230e-01
    9.0111947586981513e-03 -5.8321184351980415e-01
    8.5209915956631754e-03 -6.6178259600835831e-01
    7.9852427170176692e-03 -8.2689823059472312e-01
    7.8553927182387542e-03 -9.4563775793417293e-01
    7.8432383047722237e-03 -1.0050890913907351e+00
    7.8659723765256463e-03 -1.0792752961293819e+00
    7.9295251510448899e-03 -1.1598439960779621e+00
    7.9070653966161770e-03 -1.1360887616813244e+00
    7.9178554977002522e-03 -1.1478880863671026e+00
    7.9178554977002522e-03 -1.1478880863671026e+00
    8.0763568295996371e-03 -1.2754084313139324e+00
    8.1433816869695540e-03 -1.3176156917368251e+00
    8.0976244288419475e-03 -1.2892486812722219e+00
    8.1936076739783908e-03 -1.3469542361512192e+00
    8.1199578168021282e-03 -1.3033150566867173e+00
    8.1199578168021282e-03 -1.3033150566867173e+00
    8.3084197634480071e-03 -1.4088465086191915e+00
    8.2778388646020905e-03 -1.3929459815307579e+00
    8.3403140064944609e-03 -1.4250506063888506e+00
    8.1679223202629787e-03 -1.3321591073606573e+00
    8.1936076739783908e-03 -1.3469542361512192e+00
    8.6040841416605701e-03 -1.5480800121886238e+00
    8.6040841416605701e-03 -1.5480800121886238e+00
    8.7417932078457140e-03 -1.6068037160207782e+00
    9.2695501038145955e-03 -1.8117970900882283e+00
    9.0718768905197148e-03 -1.7379321515137769e+00
    8.8431474176116787e-03 -1.6483267673842683e+00
    8.4818712149939794e-03 -1.4931537753096000e+00
    8.2204674784055638e-03 -1.3620104492139979e+00
    8.1433816869695540e-03 -1.3176156917368251e+00
    7.9295251510448899e-03 -1.1598439960779621e+00
    7.8456646739887420e-03 -1.0257111354242643e+00
    7.8513349708125516e-03 -1.0467782386212776e+00
    7.8880828000424310e-03 -8.9852070067488410e-01
    8.4818712149939794e-03 -6.6972338451386471e-01
    9.2009249280436464e-03 -5.5976185412488888e-01
    9.8415884214768622e-03 -4.9682536472887001e-01
    1.3610161470404303e-02 -3.1710985354901400e-01
    1.2984475603353375e-02 -3.3614632272640715e-01
    9.9388396812724739e-03 -4.8886983000776790e-01
    9.0111947586981513e-03 -5.8321184351980415e-01
    8.2485333418156337e-03 -7.2603841699026950e-01
    7.8725042210196980e-03 -9.1712676077361466e-01
    7.8456646739887420e-03 -9.7493335644286505e-01
    7.8725042210196980e-03 -1.0903618155864085e+00
    7.9555498125818309e-03 -1.1842461840302649e+00
    7.9852427170176692e-03 -1.2093386622447826e+00
    8.0369276754689387e-03 -1.2483755678647184e+00
    8.0763568295996371e-03 -1.2754084313139324e+00
    8.0369276754689387e-03 -1.2483755678647184e+00
    8.4082065519165243e-03 -1.4584183648679576e+00
    8.4818712149939794e-03 -1.4931537753096000e+00
    8.3403140064944609e-03 -1.4250506063888506e+00
    8.0976244288419475e-03 -1.2892486812722219e+00
    8.1433816869695540e-03 -1.3176156917368251e+00
    8.1679223202629787e-03 -1.3321591073606573e+00
    8.1936076739783908e-03 -1.3469542361512192e+00
    8.1936076739783908e-03 -1.3469542361512192e+00
    8.0561318311052899e-03 -1.2617865362880900e+00
    8.0015016002317352e-03 -1.2221582901064614e+00
    8.1679223202629787e-03 -1.3321591073606573e+00
    8.4082065519165243e-03 -1.4584183648679576e+00
    8.4082065519165243e-03 -1.4584183648679576e+00
    8.9529164124367566e-03 -1.6919648631219313e+00
    8.8431474176116787e-03 -1.6483267673842683e+00
    8.7417932078457140e-03 -1.6068037160207782e+00
    8.8969340805746186e-03 -1.6698687189301853e+00
    8.7417932078457140e-03 -1.6068037160207782e+00
    8.7417932078457140e-03 -1.6068037160207782e+00
    8.4818712149939794e-03 -1.4931537753096000e+00
    8.1433816869695540e-03 -1.3176156917368251e+00
    7.8880828000424310e-03 -1.1129404133359360e+00
    7.8432383047722237e-03 -1.0050890913907351e+00
    7.8440468443656056e-03 -9.8488578017961048e-01
    8.0763568295996388e-03 -7.8406256023397514e-01
    8.7914628871756210e-03 -6.1450986779902694e-01
    9.4936115455471863e-03 -5.2841345480672541e-01
    1.2212019907007822e-02 -3.6357104951574054e-01
    1.3284317415911672e-02 -3.2671328873143174e-01
    1.0040727769340898e-02 -4.8088460154178359e-01
    8.3735619606005712e-03 -6.9368797561929607e-01
    8.0976244288419458e-03 -7.7564554808247477e-01
    7.8440468443656038e-03 -1.0153461651336186e+00
    7.8553927182387542e-03 -1.0574873852167095e+00
    7.9295251510448899e-03 -1.1598439960779621e+00
    8.1433816869695540e-03 -1.3176156917368251e+00
    8.2204674784055638e-03 -1.3620104492139979e+00
    8.0561318311052899e-03 -1.2617865362880900e+00
    8.1199578168021282e-03 -1.3033150566867173e+00
    8.1199578168021282e-03 -1.3033150566867173e+00
    8.3403140064944609e-03 -1.4250506063888506e+00
    8.2485333418156337e-03 -1.3773375851727172e+00
    8.2778388646020905e-03 -1.3929459815307579e+00
    8.2204674784055638e-03 -1.3620104492139979e+00
    8.2485333418156337e-03 -1.3773375851727172e+00
    8.0976244288419475e-03 -1.2892486812722219e+00
    8.3084197634480071e-03 -1.4088465086191915e+00
    8.3084197634480071e-03 -1.4088465086191915e+00
    8.1679223202629787e-03 -1.3321591073606573e+00
    8.0976244288419475e-03 -1.2892486812722219e+00
    8.2204674784055638e-03 -1.3620104492139979e+00
    8.4442934411397864e-03 -1.4756081305138939e+00
    8.6040841416605701e-03 -1.5480800121886238e+00
    8.6040841416605701e-03 -1.5480800121886238e+00
    8.9529164124367566e-03 -1.6919648631219313e+00
    9.0718768905197148e-03 -1.7379321515137769e+00
    8.4818712149939794e-03 -1.4931537753096000e+00
    8.6940568540636969e-03 -1.5867757065373613e+00
    8.6481776058245172e-03 -1.5672078199387578e+00
    8.5617096701351980e-03 -1.5293734177261809e+00
    8.3735619606005712e-03 -1.4415703243338496e+00
    8.0561318311052899e-03 -1.2617865362880900e+00
    7.8880828000424310e-03 -1.1129404133359360e+00
    7.8480932964502519e-03 -1.0361873433536601e+00
    7.9295251510448899e-03 -8.6218491743848502e-01
    8.2204674784055638e-03 -7.3420875777942085e-01
    9.3410994295210666e-03 -5.4410718758250887e-01
    1.1586207885120520e-02 -3.8993176791040124e-01
    1.3610161470404303e-02 -3.1710985354901400e-01
    9.6598819300225489e-03 -5.1266023136236427e-01
    8.5209915956631754e-03 -6.6178259600835831e-01
    8.0015016002317335e-03 -8.1822461795263079e-01
    7.8440468443656056e-03 -9.8488578017961048e-01
    7.8725042210196980e-03 -1.0903618155864085e+00
    7.9699306363571285e-03 -1.1967032904743342e+00
    8.2778388646020905e-03 -1.3929459815307579e+00
    8.3735619606005712e-03 -1.4415703243338496e+00
    8.2778388646020905e-03 -1.3929459815307579e+00
    8.4442934411397864e-03 -1.4756081305138939e+00
    8.3403140064944609e-03 -1.4250506063888506e+00
    8.3403140064944609e-03 -1.4250506063888506e+00
    8.4818712149939794e-03 -1.4931537753096000e+00
    8.2204674784055638e-03 -1.3620104492139979e+00
    8.1199578168021282e-03 -1.3033150566867173e+00
    8.2204674784055638e-03 -1.3620104492139979e+00
    8.0561318311052899e-03 -1.2617865362880900e+00
    8.1936076739783908e-03 -1.3469542361512192e+00
    8.1679223202629787e-03 -1.3321591073606573e+00
    8.1679223202629787e-03 -1.3321591073606573e+00
    8.2778388646020905e-03 -1.3929459815307579e+00
    8.2204674784055638e-03 -1.3620104492139979e+00
    8.4442934411397864e-03 -1.4756081305138939e+00
    8.3403140064944609e-03 -1.4250506063888506e+00
    8.3403140064944609e-03 -1.4250506063888506e+00
    8.4818712149939794e-03 -1.4931537753096000e+00
    8.8969340805746186e-03 -1.6698687189301853e+00
    9.1350786920156076e-03 -1.7618645426554975e+00
    9.0718768905197148e-03 -1.7379321515137769e+00
    8.6040841416605701e-03 -1.5480800121886238e+00
    8.4818712149939794e-03 -1.4931537753096000e+00
    8.4082065519165243e-03 -1.4584183648679576e+00
    8.1199578168021282e-03 -1.3033150566867173e+00
    7.9852427170176692e-03 -1.2093386622447826e+00
    7.8725042210196980e-03 -1.0903618155864085e+00
    7.8456646739887420e-03 -9.7493335644286505e-01
    8.1936076739783908e-03 -7.4241572071327044e-01
    9.2009249280436464e-03 -5.5976185412488888e-01
    1.0501398806071201e-02 -4.4857497945730540e-01
    1.2984475603353375e-02 -3.3614632272640715e-01
    9.4936115455471863e-03 -5.2841345480672541e-01
    8.3403140064944609e-03 -7.0172946526723701e-01
    7.9178554977002540e-03 -8.7116506554646200e-01
    7.8513349708125516e-03 -1.0467782386212776e+00
    7.8971443570797061e-03 -1.1244411127720089e+00
    7.9420857880181626e-03 -1.1719615931862335e+00
    8.1433816869695540e-03 -1.3176156917368251e+00
    8.4082065519165243e-03 -1.4584183648679576e+00
    8.4442934411397864e-03 -1.4756081305138939e+00
    8.7417932078457140e-03 -1.6068037160207782e+00
    8.8969340805746186e-03 -1.6698687189301853e+00
    8.6040841416605701e-03 -1.5480800121886238e+00
    8.6040841416605701e-03 -1.5480800121886238e+00
    8.6040841416605701e-03 -1.5480800121886238e+00
    8.3403140064944609e-03 -1.4250506063888506e+00
    8.2485333418156337e-03 -1.3773375851727172e+00
    8.0763568295996371e-03 -1.2754084313139324e+00
    8.1199578168021282e-03 -1.3033150566867173e+00
    8.3084197634480071e-03 -1.4088465086191915e+00
    8.1433816869695540e-03 -1.3176156917368251e+00
    8.1199578168021282e-03 -1.3033150566867173e+00
    8.2778388646020905e-03 -1.3929459815307579e+00
    8.3403140064944609e-03 -1.4250506063888506e+00
    8.4082065519165243e-03 -1.4584183648679576e+00
    8.4082065519165243e-03 -1.4584183648679576e+00
    8.4818712149939794e-03 -1.4931537753096000e+00
    8.7914628871756176e-03 -1.6273131684307558e+00
    9.0718768905197148e-03 -1.7379321515137769e+00
    8.8431474176116787e-03 -1.6483267673842683e+00
    9.1350786920156076e-03 -1.7618645426554975e+00
    8.9529164124367566e-03 -1.6919648631219313e+00
    8.7914628871756176e-03 -1.6273131684307558e+00
    8.4818712149939794e-03 -1.4931537753096000e+00
    8.2778388646020905e-03 -1.3929459815307579e+00
    7.9295251510448899e-03 -1.1598439960779621e+00
    7.8602703298346326e-03 -1.0683184674178796e+00
    8.0369276754689405e-03 -8.0104098937986112e-01
    9.0718768905197165e-03 -5.7539645556875063e-01
    1.0040727769340898e-02 -4.8088460154178359e-01
    1.3610161470404303e-02 -3.1710985354901400e-01
    1.0040727769340898e-02 -4.8088460154178359e-01
    8.3735619606005712e-03 -6.9368797561929607e-01
    8.0369276754689405e-03 -8.0104098937986112e-01
    7.8480932964502519e-03 -9.6507644724115416e-01
    7.8798720319172930e-03 -1.1015821104517880e+00
    8.0561318311052899e-03 -1.2617865362880900e+00
    8.0369276754689387e-03 -1.2483755678647184e+00
    8.4082065519165243e-03 -1.4584183648679576e+00
    8.3403140064944609e-03 -1.4250506063888506e+00
    8.4818712149939794e-03 -1.4931537753096000e+00
    8.8969340805746186e-03 -1.6698687189301853e+00
    8.6481776058245172e-03 -1.5672078199387578e+00
    8.5617096701351980e-03 -1.5293734177261809e+00
    8.4818712149939794e-03 -1.4931537753096000e+00
    8.2485333418156337e-03 -1.3773375851727172e+00
    8.3403140064944609e-03 -1.4250506063888506e+00
    8.2778388646020905e-03 -1.3929459815307579e+00
    8.1199578168021282e-03 -1.3033150566867173e+00
    8.1936076739783908e-03 -1.3469542361512192e+00
    8.2485333418156337e-03 -1.3773375851727172e+00
    8.2485333418156337e-03 -1.3773375851727172e+00
    8.2485333418156337e-03 -1.3773375851727172e+00
    8.3084197634480071e-03 -1.4088465086191915e+00
    8.4442934411397864e-03 -1.4756081305138939e+00
    8.1679223202629787e-03 -1.3321591073606573e+00
    8.3403140064944609e-03 -1.4250506063888506e+00
    8.4442934411397864e-03 -1.4756081305138939e+00
    8.6040841416605701e-03 -1.5480800121886238e+00
    8.5617096701351980e-03 -1.5293734177261809e+00
    8.8431474176116787e-03 -1.6483267673842683e+00
    8.6040841416605701e-03 -1.5480800121886238e+00
    8.9529164124367566e-03 -1.6919648631219313e+00
    8.5617096701351980e-03 -1.5293734177261809e+00
    8.2204674784055638e-03 -1.3620104492139979e+00
    8.0369276754689387e-03 -1.2483755678647184e+00
    7.8553927182387542e-03 -1.0574873852167095e+00
    7.9555498125818309e-03 -8.4441901817810194e-01
    8.9529164124367566e-03 -5.9102882204944174e-01
    9.5749287612470202e-03 -5.2054561945662736e-01
    1.3610161470404303e-02 -3.1710985354901400e-01
    9.9388396812724739e-03 -4.8886983000776790e-01
    8.4818712149939794e-03 -6.6972338451386471e-01
    7.9555498125818309e-03 -8.4441901817810194e-01
    7.8440468443656056e-03 -9.8488578017961048e-01
    7.8725042210196980e-03 -1.0903618155864085e+00
    8.0561318311052899e-03 -1.2617865362880900e+00
    8.3084197634480071e-03 -1.4088465086191915e+00
    8.3403140064944609e-03 -1.4250506063888506e+00
    8.4082065519165243e-03 -1.4584183648679576e+00
    8.6940568540636969e-03 -1.5867757065373613e+00
    8.8431474176116787e-03 -1.6483267673842683e+00
    8.7914628871756176e-03 -1.6273131684307558e+00
    8.4442934411397864e-03 -1.4756081305138939e+00
    8.4818712149939794e-03 -1.4931537753096000e+00
    8.3735619606005712e-03 -1.4415703243338496e+00
    8.2778388646020905e-03 -1.3929459815307579e+00
    8.1433816869695540e-03 -1.3176156917368251e+00
    8.4082065519165243e-03 -1.4584183648679576e+00
    8.3735619606005712e-03 -1.4415703243338496e+00
    8.3403140064944609e-03 -1.4250506063888506e+00
    8.2778388646020905e-03 -1.3929459815307579e+00
    8.2204674784055638e-03 -1.3620104492139979e+00
    8.3403140064944609e-03 -1.4250506063888506e+00
    8.3735619606005712e-03 -1.4415703243338496e+00
    8.2778388646020905e-03 -1.3929459815307579e+00
    8.5209915956631754e-03 -1.5110702608857514e+00
    8.6040841416605701e-03 -1.5480800121886238e+00
    8.5209915956631754e-03 -1.5110702608857514e+00
    9.0718768905197148e-03 -1.7379321515137769e+00
    8.8431474176116787e-03 -1.6483267673842683e+00
    8.5209915956631754e-03 -1.5110702608857514e+00
    8.5209915956631754e-03 -1.5110702608857514e+00
    8.2204674784055638e-03 -1.3620104492139979e+00
    8.0187239654008861e-03 -1.2351684199496951e+00
    8.0561318311052899e-03 -1.2617865362880900e+00
    7.8798720319172930e-03 -1.1015821104517880e+00
    7.9420857880181626e-03 -8.5327028275839811e-01
    9.0718768905197165e-03 -5.7539645556875063e-01
    9.9388396812724739e-03 -4.8886983000776790e-01
    1.3610161470404303e-02 -3.1710985354901400e-01
    9.4936115455471863e-03 -5.2841345480672541e-01
    8.2778388646020905e-03 -7.1790292894277519e-01
    7.8602703298346326e-03 -9.3605046668995173e-01
    7.8513349708125516e-03 -9.5531217893592324e-01
    7.8480932964502519e-03 -1.0361873433536601e+00
    8.0015016002317352e-03 -1.2221582901064614e+00
    8.1936076739783908e-03 -1.3469542361512192e+00
    8.6481776058245172e-03 -1.5672078199387578e+00
    8.4082065519165243e-03 -1.4584183648679576e+00
    8.8969340805746186e-03 -1.6698687189301853e+00
    8.8969340805746186e-03 -1.6698687189301853e+00
    8.3403140064944609e-03 -1.4250506063888506e+00
    8.5209915956631754e-03 -1.5110702608857514e+00
    8.6481776058245172e-03 -1.5672078199387578e+00
    8.3403140064944609e-03 -1.4250506063888506e+00
    8.3403140064944609e-03 -1.4250506063888506e+00
    8.3084197634480071e-03 -1.4088465086191915e+00
    8.3403140064944609e-03 -1.4250506063888506e+00
    8.6481776058245172e-03 -1.5672078199387578e+00
    8.7417932078457140e-03 -1.6068037160207782e+00
    8.3084197634480071e-03 -1.4088465086191915e+00
    8.0976244288419475e-03 -1.2892486812722219e+00
    8.4082065519165243e-03 -1.4584183648679576e+00
    8.4082065519165243e-03 -1.4584183648679576e+00
    8.5617096701351980e-03 -1.5293734177261809e+00
    8.5617096701351980e-03 -1.5293734177261809e+00
    8.7914628871756176e-03 -1.6273131684307558e+00
    8.5617096701351980e-03 -1.5293734177261809e+00
    8.5617096701351980e-03 -1.5293734177261809e+00
    8.7914628871756176e-03 -1.6273131684307558e+00
    8.4442934411397864e-03 -1.4756081305138939e+00
    8.3735619606005712e-03 -1.4415703243338496e+00
    8.2778388646020905e-03 -1.3929459815307579e+00
    8.0763568295996371e-03 -1.2754084313139324e+00
    7.9178554977002522e-03 -1.1478880863671026e+00
    7.8725042210196980e-03 -1.0903618155864085e+00
    7.8880828000424310e-03 -8.9852070067488410e-01
    9.0111947586981513e-03 -5.8321184351980415e-01
    1.0040727769340898e-02 -4.8088460154178359e-01
    1.2707498422262204e-02 -3.4542463985387872e-01
    9.4936115455471863e-03 -5.2841345480672541e-01
    8.2485333418156337e-03 -7.2603841699026950e-01
    7.9555498125818309e-03 -8.4441901817810194e-01
    7.8432383047722220e-03 -9.9493667632618188e-01
    7.9070653966161770e-03 -1.1360887616813244e+00
    7.9852427170176692e-03 -1.2093386622447826e+00
    8.0763568295996371e-03 -1.2754084313139324e+00
    8.2485333418156337e-03 -1.3773375851727172e+00
    8.4818712149939794e-03 -1.4931537753096000e+00
    8.3084197634480071e-03 -1.4088465086191915e+00
    8.3735619606005712e-03 -1.4415703243338496e+00
    8.3735619606005712e-03 -1.4415703243338496e+00
    8.5617096701351980e-03 -1.5293734177261809e+00
    8.5209915956631754e-03 -1.5110702608857514e+00
    8.2485333418156337e-03 -1.3773375851727172e+00
    8.2204674784055638e-03 -1.3620104492139979e+00
    8.2485333418156337e-03 -1.3773375851727172e+00
    8.2778388646020905e-03 -1.3929459815307579e+00
    8.3403140064944609e-03 -1.4250506063888506e+00
    8.5617096701351980e-03 -1.5293734177261809e+00
    8.3403140064944609e-03 -1.4250506063888506e+00
    8.0561318311052899e-03 -1.2617865362880900e+00
    8.3084197634480071e-03 -1.4088465086191915e+00
    8.1433816869695540e-03 -1.3176156917368251e+00
    8.4082065519165243e-03 -1.4584183648679576e+00
    8.3403140064944609e-03 -1.4250506063888506e+00
    8.3084197634480071e-03 -1.4088465086191915e+00
    8.3735619606005712e-03 -1.4415703243338496e+00
    8.3403140064944609e-03 -1.4250506063888506e+00
    8.4082065519165243e-03 -1.4584183648679576e+00
    8.1936076739783908e-03 -1.3469542361512192e+00
    8.0976244288419475e-03 -1.2892486812722219e+00
    8.0369276754689387e-03 -1.2483755678647184e+00
    7.8602703298346326e-03 -1.0683184674178796e+00
    7.8602703298346326e-03 -1.0683184674178796e+00
    7.8432383047722220e-03 -9.9493667632618188e-01
    7.9699306363571285e-03 -8.3562902179673348e-01
    8.4818712149939794e-03 -6.6972338451386471e-01
    1.0040727769340898e-02 -4.8088460154178359e-01
    1.3284317415911672e-02 -3.2671328873143174e-01
    9.6598819300225489e-03 -5.1266023136236427e-01
    8.3735619606005712e-03 -6.9368797561929607e-01
    7.9699306363571285e-03 -8.3562902179673348e-01
    7.8602703298346326e-03 -9.3605046668995173e-01
    7.8553927182387542e-03 -1.0574873852167095e+00
    7.9699306363571285e-03 -1.1967032904743342e+00
    8.0561318311052899e-03 -1.2617865362880900e+00
    8.1936076739783908e-03 -1.3469542361512192e+00
    8.2204674784055638e-03 -1.3620104492139979e+00
    8.3403140064944609e-03 -1.4250506063888506e+00
    8.3735619606005712e-03 -1.4415703243338496e+00
    8.5617096701351980e-03 -1.5293734177261809e+00
    8.1433816869695540e-03 -1.3176156917368251e+00
    8.6040841416605701e-03 -1.5480800121886238e+00
    8.3735619606005712e-03 -1.4415703243338496e+00
    8.3735619606005712e-03 -1.4415703243338496e+00
    8.1433816869695540e-03 -1.3176156917368251e+00
    8.1433816869695540e-03 -1.3176156917368251e+00
    8.2204674784055638e-03 -1.3620104492139979e+00
    8.1936076739783908e-03 -1.3469542361512192e+00
    8.0763568295996371e-03 -1.2754084313139324e+00
    8.3084197634480071e-03 -1.4088465086191915e+00
    8.2485333418156337e-03 -1.3773375851727172e+00
    8.1936076739783908e-03 -1.3469542361512192e+00
    8.4082065519165243e-03 -1.4584183648679576e+00
    8.4818712149939794e-03 -1.4931537753096000e+00
    8.2204674784055638e-03 -1.3620104492139979e+00
    8.3735619606005712e-03 -1.4415703243338496e+00
    8.2485333418156337e-03 -1.3773375851727172e+00
    8.0015016002317352e-03 -1.2221582901064614e+00
    8.0187239654008861e-03 -1.2351684199496951e+00
    8.0369276754689387e-03 -1.2483755678647184e+00
    8.0561318311052899e-03 -1.2617865362880900e+00
    7.8798720319172930e-03 -1.1015821104517880e+00
    7.8602703298346326e-03 -1.0683184674178796e+00
    7.8432383047722237e-03 -1.0050890913907351e+00
    8.0015016002317335e-03 -8.1822461795263079e-01
    8.4442934411397864e-03 -6.7768669697675143e-01
    9.5749287612470202e-03 -5.2054561945662736e-01
    1.6396439787385832e-02 -2.5468581598680534e-01
    1.0377501026388564e-02 -4.5671540050146625e-01
    8.7417932078457140e-03 -6.2235355197987885e-01
    7.9852427170176692e-03 -8.2689823059472312e-01
    7.8971443570797079e-03 -8.8933069828331635e-01
    7.8480932964502519e-03 -1.0361873433536601e+00
    7.8880828000424310e-03 -1.1129404133359360e+00
    8.0763568295996371e-03 -1.2754084313139324e+00
    8.1679223202629787e-03 -1.3321591073606573e+00
    8.2778388646020905e-03 -1.3929459815307579e+00
    8.1936076739783908e-03 -1.3469542361512192e+00
    8.3403140064944609e-03 -1.4250506063888506e+00
    8.3735619606005712e-03 -1.4415703243338496e+00
    8.4082065519165243e-03 -1.4584183648679576e+00
    8.2778388646020905e-03 -1.3929459815307579e+00
    8.3735619606005712e-03 -1.4415703243338496e+00
    8.2485333418156337e-03 -1.3773375851727172e+00
    8.1936076739783908e-03 -1.3469542361512192e+00
    8.2778388646020905e-03 -1.3929459815307579e+00
    8.2204674784055638e-03 -1.3620104492139979e+00
    8.3403140064944609e-03 -1.4250506063888506e+00
    8.1936076739783908e-03 -1.3469542361512192e+00
    8.1199578168021282e-03 -1.3033150566867173e+00
    8.2778388646020905e-03 -1.3929459815307579e+00
    8.3403140064944609e-03 -1.4250506063888506e+00
    8.3084197634480071e-03 -1.4088465086191915e+00
    8.4082065519165243e-03 -1.4584183648679576e+00
    8.4082065519165243e-03 -1.4584183648679576e+00
    8.2485333418156337e-03 -1.3773375851727172e+00
    8.1936076739783908e-03 -1.3469542361512192e+00
    8.1936076739783908e-03 -1.3469542361512192e+00
    7.9555498125818309e-03 -1.1842461840302649e+00
    8.0015016002317352e-03 -1.2221582901064614e+00
    7.9852427170176692e-03 -1.2093386622447826e+00
    7.8725042210196980e-03 -1.0903618155864085e+00
    7.8432383047722237e-03 -1.0050890913907351e+00
    7.8553927182387542e-03 -9.4563775793417293e-01
    8.0976244288419458e-03 -7.7564554808247477e-01
    8.5209915956631754e-03 -6.6178259600835831e-01
    1.0147565361379269e-02 -4.7286624374346037e-01
    1.8781309362800803e-02 -2.1879748724684184e-01
    1.0147565361379269e-02 -4.7286624374346037e-01
    8.6940568540636969e-03 -6.3020879124888118e-01
    8.3084197634480071e-03 -7.0980053106005059e-01
    7.9420857880181626e-03 -8.5327028275839811e-01
    7.8440468443656038e-03 -1.0153461651336186e+00
    7.8880828000424310e-03 -1.1129404133359360e+00
    8.0187239654008861e-03 -1.2351684199496951e+00
    7.9699306363571285e-03 -1.1967032904743342e+00
    8.1679223202629787e-03 -1.3321591073606573e+00
    8.1199578168021282e-03 -1.3033150566867173e+00
    8.2485333418156337e-03 -1.3773375851727172e+00
    8.2778388646020905e-03 -1.3929459815307579e+00
    8.2778388646020905e-03 -1.3929459815307579e+00
    8.4442934411397864e-03 -1.4756081305138939e+00
    8.7914628871756176e-03 -1.6273131684307558e+00
    8.3403140064944609e-03 -1.4250506063888506e+00
    8.4442934411397864e-03 -1.4756081305138939e+00
    8.2778388646020905e-03 -1.3929459815307579e+00
    8.2204674784055638e-03 -1.3620104492139979e+00
    8.3735619606005712e-03 -1.4415703243338496e+00
    8.2778388646020905e-03 -1.3929459815307579e+00
    8.3403140064944609e-03 -1.4250506063888506e+00
    8.1936076739783908e-03 -1.3469542361512192e+00
    8.2778388646020905e-03 -1.3929459815307579e+00
    8.1199578168021282e-03 -1.3033150566867173e+00
    8.4442934411397864e-03 -1.4756081305138939e+00
    8.4818712149939794e-03 -1.4931537753096000e+00
    8.0561318311052899e-03 -1.2617865362880900e+00
    8.0976244288419475e-03 -1.2892486812722219e+00
    7.9555498125818309e-03 -1.1842461840302649e+00
    7.9699306363571285e-03 -1.1967032904743342e+00
    8.0561318311052899e-03 -1.2617865362880900e+00
    7.9555498125818309e-03 -1.1842461840302649e+00
    7.8513349708125516e-03 -1.0467782386212776e+00
    7.8602703298346326e-03 -1.0683184674178796e+00
    7.8553927182387542e-03 -9.4563775793417293e-01
    8.0187239654008861e-03 -8.0960619122753108e-01
    8.4818712149939794e-03 -6.6972338451386471e-01
    1.0147565361379269e-02 -4.7286624374346037e-01
    1.7865091400468120e-02 -2.3124864503144013e-01
    1.1586207885120520e-02 -3.8993176791040124e-01
    9.0718768905197165e-03 -5.7539645556875063e-01
    8.5209915956631754e-03 -6.6178259600835831e-01
    8.0561318311052881e-03 -7.9252708064375876e-01
    7.9295251510448899e-03 -8.6218491743848502e-01
    7.8971443570797061e-03 -1.1244411127720089e+00
    8.0015016002317352e-03 -1.2221582901064614e+00
    8.1679223202629787e-03 -1.3321591073606573e+00
    8.0369276754689387e-03 -1.2483755678647184e+00
    8.3735619606005712e-03 -1.4415703243338496e+00
    8.6040841416605701e-03 -1.5480800121886238e+00
    8.7914628871756176e-03 -1.6273131684307558e+00
    8.4082065519165243e-03 -1.4584183648679576e+00
    8.4442934411397864e-03 -1.4756081305138939e+00
    8.4442934411397864e-03 -1.4756081305138939e+00
    8.5617096701351980e-03 -1.5293734177261809e+00
    8.4442934411397864e-03 -1.4756081305138939e+00
    8.6040841416605701e-03 -1.5480800121886238e+00
    8.3403140064944609e-03 -1.4250506063888506e+00
    8.1433816869695540e-03 -1.3176156917368251e+00
    8.2204674784055638e-03 -1.3620104492139979e+00
    8.4082065519165243e-03 -1.4584183648679576e+00
    8.1199578168021282e-03 -1.3033150566867173e+00
    8.1199578168021282e-03 -1.3033150566867173e+00
    8.1433816869695540e-03 -1.3176156917368251e+00
    8.0763568295996371e-03 -1.2754084313139324e+00
    8.1199578168021282e-03 -1.3033150566867173e+00
    8.1433816869695540e-03 -1.3176156917368251e+00
    8.1936076739783908e-03 -1.3469542361512192e+00
    8.0369276754689387e-03 -1.2483755678647184e+00
    8.0015016002317352e-03 -1.2221582901064614e+00
    8.0763568295996371e-03 -1.2754084313139324e+00
    8.0187239654008861e-03 -1.2351684199496951e+00
    7.9178554977002522e-03 -1.1478880863671026e+00
    7.8432383047722237e-03 -1.0050890913907351e+00
    7.8798720319172948e-03 -9.0778525768712193e-01
    8.0763568295996388e-03 -7.8406256023397514e-01
    8.8969340805746186e-03 -5.9884947161634228e-01
    1.0040727769340898e-02 -4.8088460154178359e-01
    1.8781309362800803e-02 -2.1879748724684184e-01
    1.2212019907007822e-02 -3.6357104951574054e-01
    9.4936115455471863e-03 -5.2841345480672541e-01
    8.4818712149939794e-03 -6.6972338451386471e-01
    8.0187239654008861e-03 -8.0960619122753108e-01
    7.8971443570797079e-03 -8.8933069828331635e-01
    7.8513349708125516e-03 -9.5531217893592324e-01
    7.8971443570797061e-03 -1.1244411127720089e+00
    7.9699306363571285e-03 -1.1967032904743342e+00
    8.1199578168021282e-03 -1.3033150566867173e+00
    8.0561318311052899e-03 -1.2617865362880900e+00
    8.2778388646020905e-03 -1.3929459815307579e+00
    8.4082065519165243e-03 -1.4584183648679576e+00
    8.3403140064944609e-03 -1.4250506063888506e+00
    8.6940568540636969e-03 -1.5867757065373613e+00
    8.6481776058245172e-03 -1.5672078199387578e+00
    8.2778388646020905e-03 -1.3929459815307579e+00
    8.3735619606005712e-03 -1.4415703243338496e+00
    8.3735619606005712e-03 -1.4415703243338496e+00
    8.4442934411397864e-03 -1.4756081305138939e+00
    8.3084197634480071e-03 -1.4088465086191915e+00
    8.2778388646020905e-03 -1.3929459815307579e+00
    8.2778388646020905e-03 -1.3929459815307579e+00
    8.2778388646020905e-03 -1.3929459815307579e+00
    8.0976244288419475e-03 -1.2892486812722219e+00
    8.1936076739783908e-03 -1.3469542361512192e+00
    8.0763568295996371e-03 -1.2754084313139324e+00
    8.4082065519165243e-03 -1.4584183648679576e+00
    8.3735619606005712e-03 -1.4415703243338496e+00
    8.1433816869695540e-03 -1.3176156917368251e+00
    8.0561318311052899e-03 -1.2617865362880900e+00
    8.0561318311052899e-03 -1.2617865362880900e+00
    7.9852427170176692e-03 -1.2093386622447826e+00
    7.8602703298346326e-03 -1.0683184674178796e+00
    7.8659723765256463e-03 -1.0792752961293819e+00
    7.8513349708125516e-03 -9.5531217893592324e-01
    7.8880828000424310e-03 -8.9852070067488410e-01
    8.3403140064944609e-03 -7.0172946526723701e-01
    8.9529164124367566e-03 -5.9102882204944174e-01
    1.0377501026388564e-02 -4.5671540050146625e-01
    1.4785796417954676e-02 -2.8708462588160727e-01
    1.1989397890500741e-02 -3.7246251314652051e-01
    9.7486891793763276e-03 -5.0475446512506872e-01
    9.2009249280436464e-03 -5.5976185412488888e-01
    8.1433816869695523e-03 -7.5894663844041110e-01
    8.0187239654008861e-03 -8.0960619122753108e-01
    7.8725042210196980e-03 -9.1712676077361466e-01
    7.8440468443656038e-03 -1.0153461651336186e+00
    7.9420857880181626e-03 -1.1719615931862335e+00
    7.9699306363571285e-03 -1.1967032904743342e+00
    8.0976244288419475e-03 -1.2892486812722219e+00
    8.0369276754689387e-03 -1.2483755678647184e+00
    8.0187239654008861e-03 -1.2351684199496951e+00
    8.0976244288419475e-03 -1.2892486812722219e+00
    8.3735619606005712e-03 -1.4415703243338496e+00
    8.2204674784055638e-03 -1.3620104492139979e+00
    8.2485333418156337e-03 -1.3773375851727172e+00
    8.2204674784055638e-03 -1.3620104492139979e+00
    8.2485333418156337e-03 -1.3773375851727172e+00
    8.0561318311052899e-03 -1.2617865362880900e+00
    8.1679223202629787e-03 -1.3321591073606573e+00
    8.2485333418156337e-03 -1.3773375851727172e+00
    8.1679223202629787e-03 -1.3321591073606573e+00
    8.2204674784055638e-03 -1.3620104492139979e+00
    8.2204674784055638e-03 -1.3620104492139979e+00
    8.2778388646020905e-03 -1.3929459815307579e+00
    8.2485333418156337e-03 -1.3773375851727172e+00
    8.1433816869695540e-03 -1.3176156917368251e+00
    8.0015016002317352e-03 -1.2221582901064614e+00
    8.0976244288419475e-03 -1.2892486812722219e+00
    8.1433816869695540e-03 -1.3176156917368251e+00
    8.0976244288419475e-03 -1.2892486812722219e+00
    8.0369276754689387e-03 -1.2483755678647184e+00
    7.8798720319172930e-03 -1.1015821104517880e+00
    7.8440468443656038e-03 -1.0153461651336186e+00
    7.8798720319172948e-03 -9.0778525768712193e-01
    8.0369276754689405e-03 -8.0104098937986112e-01
    8.7417932078457140e-03 -6.2235355197987885e-01
    9.3410994295210666e-03 -5.4410718758250887e-01
    1.2450754816705876e-02 -3.5456210417116735e-01
    1.3610161470404303e-02 -3.1710985354901400e-01
    1.2212019907007822e-02 -3.6357104951574054e-01
    1.0147565361379269e-02 -4.7286624374346037e-01
    9.4157299054277617e-03 -5.3626644435989590e-01
    8.6481776058245172e-03 -6.3807746954649414e-01
    8.0763568295996388e-03 -7.8406256023397514e-01
    7.8725042210196980e-03 -9.1712676077361466e-01
    7.8456646739887420e-03 -9.7493335644286505e-01
    7.8798720319172930e-03 -1.1015821104517880e+00
    7.9295251510448899e-03 -1.1598439960779621e+00
    7.8880828000424310e-03 -1.1129404133359360e+00
    8.0015016002317352e-03 -1.2221582901064614e+00
    8.2778388646020905e-03 -1.3929459815307579e+00
    8.3403140064944609e-03 -1.4250506063888506e+00
    8.3735619606005712e-03 -1.4415703243338496e+00
    8.4442934411397864e-03 -1.4756081305138939e+00
    8.2204674784055638e-03 -1.3620104492139979e+00
    8.1679223202629787e-03 -1.3321591073606573e+00
    8.2778388646020905e-03 -1.3929459815307579e+00
    8.0976244288419475e-03 -1.2892486812722219e+00
    8.1679223202629787e-03 -1.3321591073606573e+00
    8.1433816869695540e-03 -1.3176156917368251e+00
    8.2485333418156337e-03 -1.3773375851727172e+00
    8.1433816869695540e-03 -1.3176156917368251e+00
    8.4082065519165243e-03 -1.4584183648679576e+00
    8.3735619606005712e-03 -1.4415703243338496e+00
    8.1936076739783908e-03 -1.3469542361512192e+00
    8.1679223202629787e-03 -1.3321591073606573e+00
    8.1936076739783908e-03 -1.3469542361512192e+00
    8.0369276754689387e-03 -1.2483755678647184e+00
    8.1679223202629787e-03 -1.3321591073606573e+00
    8.0763568295996371e-03 -1.2754084313139324e+00
    7.8971443570797061e-03 -1.1244411127720089e+00
    7.8513349708125516e-03 -1.0467782386212776e+00
    7.8659723765256463e-03 -9.2654765988465804e-01
    8.0015016002317335e-03 -8.1822461795263079e-01
    8.1936076739783908e-03 -7.4241572071327044e-01
    8.5617096701351963e-03 -6.5386254815829459e-01
    9.3410994295210666e-03 -5.4410718758250887e-01
    1.2450754816705876e-02 -3.5456210417116735e-01
    1.8781309362800803e-02 -2.1879748724684184e-01
    1.2984475603353375e-02 -3.3614632272640715e-01
    1.0259696559428129e-02 -4.6481112585226425e-01
    9.4157299054277617e-03 -5.3626644435989590e-01
    9.0111947586981513e-03 -5.8321184351980415e-01
    8.3403140064944609e-03 -7.0172946526723701e-01
    7.9178554977002540e-03 -8.7116506554646200e-01
    7.8440468443656056e-03 -9.8488578017961048e-01
    7.8513349708125516e-03 -1.0467782386212776e+00
    7.8602703298346326e-03 -1.0683184674178796e+00
    7.9852427170176692e-03 -1.2093386622447826e+00
    7.9852427170176692e-03 -1.2093386622447826e+00
    8.0561318311052899e-03 -1.2617865362880900e+00
    8.3084197634480071e-03 -1.4088465086191915e+00
    8.0369276754689387e-03 -1.2483755678647184e+00
    8.2778388646020905e-03 -1.3929459815307579e+00
    8.2204674784055638e-03 -1.3620104492139979e+00
    8.0763568295996371e-03 -1.2754084313139324e+00
    8.0561318311052899e-03 -1.2617865362880900e+00
    8.0369276754689387e-03 -1.2483755678647184e+00
    7.9070653966161770e-03 -1.1360887616813244e+00
    8.0763568295996371e-03 -1.2754084313139324e+00
    8.0763568295996371e-03 -1.2754084313139324e+00
    8.1679223202629787e-03 -1.3321591073606573e+00
    8.0976244288419475e-03 -1.2892486812722219e+00
    8.0763568295996371e-03 -1.2754084313139324e+00
    8.0015016002317352e-03 -1.2221582901064614e+00
    8.0976244288419475e-03 -1.2892486812722219e+00
    7.9555498125818309e-03 -1.1842461840302649e+00
    7.9295251510448899e-03 -1.1598439960779621e+00
    7.9420857880181626e-03 -1.1719615931862335e+00
    7.8553927182387542e-03 -1.0574873852167095e+00
    7.8513349708125516e-03 -1.0467782386212776e+00
    7.8659723765256463e-03 -9.2654765988465804e-01
    7.9852427170176692e-03 -8.2689823059472312e-01
    8.0976244288419458e-03 -7.7564554808247477e-01
    8.3084197634480071e-03 -7.0980053106005059e-01
    8.5617096701351963e-03 -6.5386254815829459e-01
    9.9388396812724739e-03 -4.8886983000776790e-01
    1.2450754816705876e-02 -3.5456210417116735e-01
    1.6396439787385832e-02 -2.5468581598680534e-01
    1.2984475603353375e-02 -3.3614632272640715e-01
    1.1586207885120520e-02 -3.8993176791040124e-01
    9.8415884214768622e-03 -4.9682536472887001e-01
    9.0718768905197165e-03 -5.7539645556875063e-01
    8.6481776058245172e-03 -6.3807746954649414e-01
    8.4082065519165243e-03 -6.8567430587075617e-01
    7.9699306363571285e-03 -8.3562902179673348e-01
    7.9420857880181626e-03 -8.5327028275839811e-01
    7.8513349708125516e-03 -1.0467782386212776e+00
    7.8725042210196980e-03 -1.0903618155864085e+00
    7.8456646739887420e-03 -1.0257111354242643e+00
    7.8880828000424310e-03 -1.1129404133359360e+00
    8.0015016002317352e-03 -1.2221582901064614e+00
    8.2778388646020905e-03 -1.3929459815307579e+00
    8.3084197634480071e-03 -1.4088465086191915e+00
    8.3403140064944609e-03 -1.4250506063888506e+00
    8.1679223202629787e-03 -1.3321591073606573e+00
    8.0187239654008861e-03 -1.2351684199496951e+00
    7.9178554977002522e-03 -1.1478880863671026e+00
    7.9178554977002522e-03 -1.1478880863671026e+00
    8.0369276754689387e-03 -1.2483755678647184e+00
    7.9699306363571285e-03 -1.1967032904743342e+00
    7.9295251510448899e-03 -1.1598439960779621e+00
    7.9178554977002522e-03 -1.1478880863671026e+00
    7.9699306363571285e-03 -1.1967032904743342e+00
    8.0015016002317352e-03 -1.2221582901064614e+00
    7.8602703298346326e-03 -1.0683184674178796e+00
    7.8971443570797061e-03 -1.1244411127720089e+00
    7.8725042210196980e-03 -1.0903618155864085e+00
    8.0763568295996371e-03 -1.2754084313139324e+00
    7.8602703298346326e-03 -1.0683184674178796e+00
    7.8440468443656038e-03 -1.0153461651336186e+00
    7.8659723765256463e-03 -9.2654765988465804e-01
    8.0015016002317335e-03 -8.1822461795263079e-01
    8.2485333418156337e-03 -7.2603841699026950e-01
    8.4818712149939794e-03 -6.6972338451386471e-01
    9.2695501038145972e-03 -5.5193818638449355e-01
    1.0914583879236722e-02 -4.2384043998051230e-01
    1.4355779099087428e-02 -2.9731765849886654e-01
    1.8781309362800803e-02 -2.1879748724684184e-01
    1.3610161470404303e-02 -3.1710985354901400e-01
    1.2212019907007822e-02 -3.6357104951574054e-01
    1.0377501026388564e-02 -4.5671540050146625e-01
    9.4157299054277617e-03 -5.3626644435989590e-01
    9.2009249280436464e-03 -5.5976185412488888e-01
    8.7914628871756210e-03 -6.1450986779902694e-01
    8.5209915956631754e-03 -6.6178259600835831e-01
    8.0561318311052881e-03 -7.9252708064375876e-01
    7.9178554977002540e-03 -8.7116506554646200e-01
    7.8971443570797079e-03 -8.8933069828331635e-01
    7.9178554977002540e-03 -8.7116506554646200e-01
    7.8432383047722237e-03 -1.0050890913907351e+00
    7.8432383047722237e-03 -1.0050890913907351e+00
    7.9295251510448899e-03 -1.1598439960779621e+00
    8.1936076739783908e-03 -1.3469542361512192e+00
    8.2485333418156337e-03 -1.3773375851727172e+00
    8.1199578168021282e-03 -1.3033150566867173e+00
    8.0015016002317352e-03 -1.2221582901064614e+00
    8.0187239654008861e-03 -1.2351684199496951e+00
    7.9555498125818309e-03 -1.1842461840302649e+00
    7.9852427170176692e-03 -1.2093386622447826e+00
    8.0561318311052899e-03 -1.2617865362880900e+00
    7.9295251510448899e-03 -1.1598439960779621e+00
    7.8553927182387542e-03 -1.0574873852167095e+00
    7.9178554977002522e-03 -1.1478880863671026e+00
    7.8971443570797061e-03 -1.1244411127720089e+00
    7.9178554977002522e-03 -1.1478880863671026e+00
    7.8880828000424310e-03 -1.1129404133359360e+00
    7.9070653966161770e-03 -1.1360887616813244e+00
    7.8798720319172930e-03 -1.1015821104517880e+00
    7.8432383047722220e-03 -9.9493667632618188e-01
    7.8553927182387542e-03 -9.4563775793417293e-01
    7.9555498125818309e-03 -8.4441901817810194e-01
    8.0763568295996388e-03 -7.8406256023397514e-01
    8.5209915956631754e-03 -6.6178259600835831e-01
    9.3410994295210666e-03 -5.4410718758250887e-01
    9.9388396812724739e-03 -4.8886983000776790e-01
    1.2707498422262204e-02 -3.4542463985387872e-01
    1.4785796417954676e-02 -2.8708462588160727e-01
    1.9867816955903339e-02 -2.0573779994945590e-01
    1.5262879764670502e-02 -2.7659127289275987e-01
    1.2450754816705876e-02 -3.5456210417116735e-01
    9.8415884214768622e-03 -4.9682536472887001e-01
    9.5749287612470202e-03 -5.2054561945662736e-01
    9.4936115455471863e-03 -5.2841345480672541e-01
    8.8969340805746186e-03 -5.9884947161634228e-01
    8.9529164124367566e-03 -5.9102882204944174e-01
    8.2485333418156337e-03 -7.2603841699026950e-01
    8.0561318311052881e-03 -7.9252708064375876e-01
    8.0561318311052881e-03 -7.9252708064375876e-01
    7.9420857880181626e-03 -8.5327028275839811e-01
    7.9295251510448899e-03 -8.6218491743848502e-01
    7.8456646739887420e-03 -9.7493335644286505e-01
    7.8480932964502519e-03 -1.0361873433536601e+00
    7.8553927182387542e-03 -1.0574873852167095e+00
    7.8725042210196980e-03 -1.0903618155864085e+00
    7.8480932964502519e-03 -1.0361873433536601e+00
    7.8602703298346326e-03 -1.0683184674178796e+00
    7.8971443570797061e-03 -1.1244411127720089e+00
    7.9295251510448899e-03 -1.1598439960779621e+00
    7.9699306363571285e-03 -1.1967032904743342e+00
    7.9852427170176692e-03 -1.2093386622447826e+00
    7.9699306363571285e-03 -1.1967032904743342e+00
    7.8659723765256463e-03 -1.0792752961293819e+00
    7.8432383047722220e-03 -9.9493667632618188e-01
    7.8440468443656056e-03 -9.8488578017961048e-01
    7.8725042210196980e-03 -1.0903618155864085e+00
    7.8432383047722237e-03 -1.0050890913907351e+00
    7.8432383047722237e-03 -1.0050890913907351e+00
    7.8659723765256463e-03 -9.2654765988465804e-01
    7.9295251510448899e-03 -8.6218491743848502e-01
    8.1433816869695523e-03 -7.5894663844041110e-01
    8.1433816869695523e-03 -7.5894663844041110e-01
    8.3403140064944609e-03 -7.0172946526723701e-01
    9.0718768905197165e-03 -5.7539645556875063e-01
    9.4157299054277617e-03 -5.3626644435989590e-01
    1.0914583879236722e-02 -4.2384043998051230e-01
    1.3284317415911672e-02 -3.2671328873143174e-01
    1.6396439787385832e-02 -2.5468581598680534e-01
    2.1183622339234334e-02 -1.9194297398747862e-01
    1.7865091400468120e-02 -2.3124864503144013e-01
    1.2212019907007822e-02 -3.6357104951574054e-01
    1.0377501026388564e-02 -4.5671540050146625e-01
    9.8415884214768622e-03 -4.9682536472887001e-01
    9.6598819300225489e-03 -5.1266023136236427e-01
    9.3410994295210666e-03 -5.4410718758250887e-01
    9.1350786920156093e-03 -5.6758052380848256e-01
    8.6481776058245172e-03 -6.3807746954649414e-01
    8.5617096701351963e-03 -6.5386254815829459e-01
    8.2485333418156337e-03 -7.2603841699026950e-01
    8.0976244288419458e-03 -7.7564554808247477e-01
    7.9295251510448899e-03 -8.6218491743848502e-01
    7.8725042210196980e-03 -9.1712676077361466e-01
    7.9420857880181626e-03 -8.5327028275839811e-01
    7.9555498125818309e-03 -8.4441901817810194e-01
    7.8456646739887420e-03 -1.0257111354242643e+00
    7.8440468443656056e-03 -9.8488578017961048e-01
    7.8440468443656038e-03 -1.0153461651336186e+00
    7.8456646739887420e-03 -1.0257111354242643e+00
    7.8456646739887420e-03 -1.0257111354242643e+00
    7.8880828000424310e-03 -1.1129404133359360e+00
    7.9420857880181626e-03 -1.1719615931862335e+00
    7.8602703298346326e-03 -1.0683184674178796e+00
    7.8553927182387542e-03 -1.0574873852167095e+00
    7.8659723765256463e-03 -1.0792752961293819e+00
    7.8456646739887420e-03 -1.0257111354242643e+00
    7.8456646739887420e-03 -1.0257111354242643e+00
    7.8725042210196980e-03 -9.1712676077361466e-01
    7.9699306363571285e-03 -8.3562902179673348e-01
    8.1936076739783908e-03 -7.4241572071327044e-01
    8.2204674784055638e-03 -7.3420875777942085e-01
    8.2485333418156337e-03 -7.2603841699026950e-01
    8.4082065519165243e-03 -6.8567430587075617e-01
    8.8431474176116787e-03 -6.0667582410670984e-01
    9.2695501038145972e-03 -5.5193818638449355e-01
    9.6598819300225489e-03 -5.1266023136236427e-01
    1.1403015192901881e-02 -3.9852669849304290e-01
    1.3965784375906950e-02 -3.0731814857642958e-01
    1.5795939368782114e-02 -2.6580476653559748e-01
    2.4933912392250363e-02 -1.6137430609197570e-01
    1.9867816955903339e-02 -2.0573779994945590e-01
    1.3284317415911672e-02 -3.2671328873143174e-01
    1.1781262100205145e-02 -3.8124642583151164e-01
    1.0769391242659618e-02 -4.3214232372195066e-01
    1.0147565361379269e-02 -4.7286624374346037e-01
    9.8415884214768622e-03 -4.9682536472887001e-01
    9.5749287612470202e-03 -5.2054561945662736e-01
    9.2695501038145972e-03 -5.5193818638449355e-01
    9.3410994295210666e-03 -5.4410718758250887e-01
    9.0718768905197165e-03 -5.7539645556875063e-01
    8.2485333418156337e-03 -7.2603841699026950e-01
    8.2778388646020905e-03 -7.1790292894277519e-01
    8.1433816869695523e-03 -7.5894663844041110e-01
    8.2204674784055638e-03 -7.3420875777942085e-01
    7.9699306363571285e-03 -8.3562902179673348e-01
    7.8880828000424310e-03 -8.9852070067488410e-01
    7.8440468443656038e-03 -1.0153461651336186e+00
    7.8480932964502519e-03 -9.6507644724115416e-01
    7.8440468443656038e-03 -1.0153461651336186e+00
    7.8432383047722237e-03 -1.0050890913907351e+00
    7.8432383047722220e-03 -9.9493667632618188e-01
    7.8440468443656038e-03 -1.0153461651336186e+00
    7.8432383047722237e-03 -1.0050890913907351e+00
    7.8880828000424310e-03 -8.9852070067488410e-01
    7.8725042210196980e-03 -9.1712676077361466e-01
    7.9295251510448899e-03 -8.6218491743848502e-01
    7.9555498125818309e-03 -8.4441901817810194e-01
    8.0015016002317335e-03 -8.1822461795263079e-01
    8.0763568295996388e-03 -7.8406256023397514e-01
    8.4082065519165243e-03 -6.8567430587075617e-01
    8.4082065519165243e-03 -6.8567430587075617e-01
    8.4818712149939794e-03 -6.6972338451386471e-01
    8.7417932078457140e-03 -6.2235355197987885e-01
    9.4157299054277617e-03 -5.3626644435989590e-01
    9.6598819300225489e-03 -5.1266023136236427e-01
    1.0501398806071201e-02 -4.4857497945730540e-01
    1.3610161470404303e-02 -3.1710985354901400e-01
    1.4785796417954676e-02 -2.8708462588160727e-01
    1.7865091400468120e-02 -2.3124864503144013e-01
    3.2023187145307185e-02 -1.2435400084345176e-01
    1.7865091400468120e-02 -2.3124864503144013e-01
    1.5795939368782114e-02 -2.6580476653559748e-01
    1.3610161470404303e-02 -3.1710985354901400e-01
    1.1781262100205145e-02 -3.8124642583151164e-01
    1.0769391242659618e-02 -4.3214232372195066e-01
    1.0501398806071201e-02 -4.4857497945730540e-01
    1.0769391242659618e-02 -4.3214232372195066e-01
    1.0040727769340898e-02 -4.8088460154178359e-01
    9.7486891793763276e-03 -5.0475446512506872e-01
    1.0259696559428129e-02 -4.6481112585226425e-01
    9.2009249280436464e-03 -5.5976185412488888e-01
    8.4818712149939794e-03 -6.6972338451386471e-01
    8.3735619606005712e-03 -6.9368797561929607e-01
    8.1936076739783908e-03 -7.4241572071327044e-01
    8.0187239654008861e-03 -8.0960619122753108e-01
    7.9555498125818309e-03 -8.4441901817810194e-01
    7.9852427170176692e-03 -8.2689823059472312e-01
    7.8513349708125516e-03 -9.5531217893592324e-01
    7.8553927182387542e-03 -9.4563775793417293e-01
    7.8513349708125516e-03 -9.5531217893592324e-01
    7.8602703298346326e-03 -9.3605046668995173e-01
    7.9070653966161752e-03 -8.8021291445580063e-01
    7.9070653966161752e-03 -8.8021291445580063e-01
    7.8880828000424310e-03 -8.9852070067488410e-01
    7.9852427170176692e-03 -8.2689823059472312e-01
    7.9852427170176692e-03 -8.2689823059472312e-01
    8.2778388646020905e-03 -7.1790292894277519e-01
    8.6040841416605719e-03 -6.4596144393482158e-01
    8.5209915956631754e-03 -6.6178259600835831e-01
    8.4082065519165243e-03 -6.8567430587075617e-01
    8.6940568540636969e-03 -6.3020879124888118e-01
    9.0718768905197165e-03 -5.7539645556875063e-01
    9.4157299054277617e-03 -5.3626644435989590e-01
    9.7486891793763276e-03 -5.0475446512506872e-01
    1.0040727769340898e-02 -4.8088460154178359e-01
    1.1403015192901881e-02 -3.9852669849304290e-01
    1.2984475603353375e-02 -3.3614632272640715e-01
    1.5795939368782114e-02 -2.6580476653559748e-01
    1.7865091400468120e-02 -2.3124864503144013e-01
    3.2023187145307185e-02 -1.2435400084345176e-01
    2.4933912392250363e-02 -1.6137430609197570e-01
    2.1183622339234334e-02 -1.9194297398747862e-01
    1.5262879764670502e-02 -2.7659127289275987e-01
    1.4355779099087428e-02 -2.9731765849886654e-01
    1.2984475603353375e-02 -3.3614632272640715e-01
    1.1781262100205145e-02 -3.8124642583151164e-01
    1.1989397890500741e-02 -3.7246251314652051e-01
    1.1586207885120520e-02 -3.8993176791040124e-01
    1.0631855967151620e-02 -4.4038550605054427e-01
    1.0631855967151620e-02 -4.4038550605054427e-01
    1.1068082965398707e-02 -4.1547448491940830e-01
    1.0914583879236722e-02 -4.2384043998051230e-01
    9.4157299054277617e-03 -5.3626644435989590e-01
    8.8431474176116787e-03 -6.0667582410670984e-01
    8.2778388646020905e-03 -7.1790292894277519e-01
    8.1679223202629787e-03 -7.5066108430640222e-01
    8.1936076739783908e-03 -7.4241572071327044e-01
    8.0561318311052881e-03 -7.9252708064375876e-01
    7.9178554977002540e-03 -8.7116506554646200e-01
    7.9555498125818309e-03 -8.4441901817810194e-01
    7.9852427170176692e-03 -8.2689823059472312e-01
    8.1199578168021300e-03 -7.6727418659782565e-01
    7.9420857880181626e-03 -8.5327028275839811e-01
    8.0369276754689405e-03 -8.0104098937986112e-01
    8.0369276754689405e-03 -8.0104098937986112e-01
    8.4442934411397864e-03 -6.7768669697675143e-01
    8.6040841416605719e-03 -6.4596144393482158e-01
    8.6940568540636969e-03 -6.3020879124888118e-01
    8.6481776058245172e-03 -6.3807746954649414e-01
    9.0718768905197165e-03 -5.7539645556875063e-01
    9.2009249280436464e-03 -5.5976185412488888e-01
    1.0377501026388564e-02 -4.5671540050146625e-01
    1.0377501026388564e-02 -4.5671540050146625e-01
    1.0377501026388564e-02 -4.5671540050146625e-01
    1.1230618579610522e-02 -4.0703866324070620e-01
    1.2707498422262204e-02 -3.4542463985387872e-01
    1.3965784375906950e-02 -3.0731814857642958e-01
    1.7079424429847105e-02 -2.4318672855696005e-01
    2.4933912392250363e-02 -1.6137430609197570e-01
    3.2023187145307185e-02 -1.2435400084345176e-01
    2.7804647626959379e-02 -1.4396315014973890e-01
    2.2820950917583540e-02 -1.7723885738021736e-01
    1.8781309362800803e-02 -2.1879748724684184e-01
    1.6396439787385832e-02 -2.5468581598680534e-01
    1.5795939368782114e-02 -2.6580476653559748e-01
    1.3610161470404303e-02 -3.1710985354901400e-01
    1.2707498422262204e-02 -3.4542463985387872e-01
    1.2450754816705876e-02 -3.5456210417116735e-01
    1.2450754816705876e-02 -3.5456210417116735e-01
    1.1781262100205145e-02 -3.8124642583151164e-01
    1.2212019907007822e-02 -3.6357104951574054e-01
    1.2212019907007822e-02 -3.6357104951574054e-01
    1.1586207885120520e-02 -3.8993176791040124e-01
    1.0914583879236722e-02 -4.2384043998051230e-01
    9.2009249280436464e-03 -5.5976185412488888e-01
    8.8969340805746186e-03 -5.9884947161634228e-01
    8.4818712149939794e-03 -6.6972338451386471e-01
    8.4442934411397864e-03 -6.7768669697675143e-01
    8.1936076739783908e-03 -7.4241572071327044e-01
    8.1199578168021300e-03 -7.6727418659782565e-01
    8.1679223202629787e-03 -7.5066108430640222e-01
    8.2778388646020905e-03 -7.1790292894277519e-01
    8.3403140064944609e-03 -7.0172946526723701e-01
    8.2778388646020905e-03 -7.1790292894277519e-01
    8.4442934411397864e-03 -6.7768669697675143e-01
    8.8431474176116787e-03 -6.0667582410670984e-01
    9.2695501038145972e-03 -5.5193818638449355e-01
    9.6598819300225489e-03 -5.1266023136236427e-01
    9.7486891793763276e-03 -5.0475446512506872e-01
    9.6598819300225489e-03 -5.1266023136236427e-01
    9.7486891793763276e-03 -5.0475446512506872e-01
    1.0914583879236722e-02 -4.2384043998051230e-01
    1.1230618579610522e-02 -4.0703866324070620e-01
    1.2212019907007822e-02 -3.6357104951574054e-01
    1.4355779099087428e-02 -2.9731765849886654e-01
    1.4355779099087428e-02 -2.9731765849886654e-01
    1.5795939368782114e-02 -2.6580476653559748e-01
    2.2820950917583540e-02 -1.7723885738021736e-01
    3.2023187145307185e-02 -1.2435400084345176e-01
    5.5182072829131651e-02 -7.1428571428571425e-02
    3.2023187145307185e-02 -1.2435400084345176e-01
    2.7804647626959379e-02 -1.4396315014973890e-01
    2.2820950917583540e-02 -1.7723885738021736e-01
    1.9867816955903339e-02 -2.0573779994945590e-01
    1.9867816955903339e-02 -2.0573779994945590e-01
    1.7079424429847105e-02 -2.4318672855696005e-01
    1.5262879764670502e-02 -2.7659127289275987e-01
    1.4355779099087428e-02 -2.9731765849886654e-01
    1.3965784375906950e-02 -3.0731814857642958e-01
    1.3610161470404303e-02 -3.1710985354901400e-01
    1.2984475603353375e-02 -3.3614632272640715e-01
    1.3610161470404303e-02 -3.1710985354901400e-01
    1.3610161470404303e-02 -3.1710985354901400e-01
    1.2707498422262204e-02 -3.4542463985387872e-01
    1.1068082965398707e-02 -4.1547448491940830e-01
    9.9388396812724739e-03 -4.8886983000776790e-01
    9.0718768905197165e-03 -5.7539645556875063e-01
    8.6481776058245172e-03 -6.3807746954649414e-01
    9.1350786920156093e-03 -5.6758052380848256e-01
    9.3410994295210666e-03 -5.4410718758250887e-01
    8.7417932078457140e-03 -6.2235355197987885e-01
    9.2695501038145972e-03 -5.5193818638449355e-01
    8.6940568540636969e-03 -6.3020879124888118e-01
    9.4936115455471863e-03 -5.2841345480672541e-01
    9.1350786920156093e-03 -5.6758052380848256e-01
    1.0147565361379269e-02 -4.7286624374346037e-01
    1.0040727769340898e-02 -4.8088460154178359e-01
    1.0377501026388564e-02 -4.5671540050146625e-01
    1.0914583879236722e-02 -4.2384043998051230e-01
    1.0631855967151620e-02 -4.4038550605054427e-01
    1.1586207885120520e-02 -3.8993176791040124e-01
    1.3610161470404303e-02 -3.1710985354901400e-01
    1.6396439787385832e-02 -2.5468581598680534e-01
    1.7079424429847105e-02 -2.4318672855696005e-01
    1.7865091400468120e-02 -2.3124864503144013e-01
    2.1183622339234334e-02 -1.9194297398747862e-01
    1.9867816955903339e-02 -2.0573779994945590e-01
    2.4933912392250363e-02 -1.6137430609197570e-01
    3.2023187145307185e-02 -1.2435400084345176e-01
    5.5182072829131651e-02 -7.1428571428571425e-02
    2.7804647626959379e-02 -1.4396315014973890e-01
    2.7804647626959379e-02 -1.4396315014973890e-01
    2.7804647626959379e-02 -1.4396315014973890e-01
    2.7804647626959379e-02 -1.4396315014973890e-01
    3.2023187145307185e-02 -1.2435400084345176e-01
    2.2820950917583540e-02 -1.7723885738021736e-01
    1.9867816955903339e-02 -2.0573779994945590e-01
    1.7865091400468120e-02 -2.3124864503144013e-01
    1.5795939368782114e-02 -2.6580476653559748e-01
    1.5795939368782114e-02 -2.6580476653559748e-01
    1.4785796417954676e-02 -2.8708462588160727e-01
    1.5795939368782114e-02 -2.6580476653559748e-01
    1.7865091400468120e-02 -2.3124864503144013e-01
    1.7079424429847105e-02 -2.4318672855696005e-01
    1.4785796417954676e-02 -2.8708462588160727e-01
    1.1781262100205145e-02 -3.8124642583151164e-01
    1.0769391242659618e-02 -4.3214232372195066e-01
    1.0914583879236722e-02 -4.2384043998051230e-01
    1.1403015192901881e-02 -3.9852669849304290e-01
    9.8415884214768622e-03 -4.9682536472887001e-01
    1.0147565361379269e-02 -4.7286624374346037e-01
    1.2212019907007822e-02 -3.6357104951574054e-01
    1.1403015192901881e-02 -3.9852669849304290e-01
    1.0377501026388564e-02 -4.5671540050146625e-01
    1.1403015192901881e-02 -3.9852669849304290e-01
    1.0914583879236722e-02 -4.2384043998051230e-01
    1.0769391242659618e-02 -4.3214232372195066e-01
    1.1068082965398707e-02 -4.1547448491940830e-01
    1.1989397890500741e-02 -3.7246251314652051e-01
    1.2707498422262204e-02 -3.4542463985387872e-01
    1.5262879764670502e-02 -2.7659127289275987e-01
    1.8781309362800803e-02 -2.1879748724684184e-01
    1.8781309362800803e-02 -2.1879748724684184e-01
    1.9867816955903339e-02 -2.0573779994945590e-01
    2.2820950917583540e-02 -1.7723885738021736e-01
    2.7804647626959379e-02 -1.4396315014973890e-01
    3.2023187145307185e-02 -1.2435400084345176e-01
    2.7804647626959379e-02 -1.4396315014973890e-01
    2.7804647626959379e-02 -1.4396315014973890e-01</input_scale>
  <output_scale>
    1.0526315789473684e+00 0.</output_scale>
  <inv_output_scale>
    9.4999999999999996e-01 0.</inv_output_scale>
  <weights>
    <_>
      -1.1719048386403424e-03 -2.2903224389177911e-04
      -9.9637750405231888e-04 -5.5088375721748159e-04
      2.2039270841974236e-04 1.2144499427915077e-03
      9.9728247011042037e-04 2.0453599492093418e-04
      -7.2831549546728146e-04 -4.2920232853557353e-04
      -1.1054717958401724e-03 -1.2409612586460942e-04
      -2.1397120762249158e-05 -7.8018402384446585e-04
      6.7194088742161514e-04 -1.1208781013474275e-03
      1.1037170489498088e-03 1.0083693640301039e-03
      -2.5698247005999147e-04 -3.4383640164285737e-05
      3.0002183913935715e-04 -7.7645728251324352e-04
      -6.5397802009701264e-04 9.5527311481024093e-04
      -1.0954164450422850e-03 -3.1663012947851025e-04
      6.1523554708813478e-04 -6.3403300196013517e-04
      1.0630743572223426e-03 -2.4215284090006096e-04
      1.2150750992007805e-03 -3.7732545206526025e-04
      2.2581237915161135e-04 8.1166924113520002e-04
      1.1322676431532379e-03 5.1786688077618958e-04
      8.1904968067006900e-04 5.2277548999592920e-04
      1.2256443938238879e-03 -1.5902424652943092e-04
      1.6981010035144459e-01 -4.2481939868847532e-02
      -4.4316955792104928e-02 -2.3988977151978116e-02
      4.1749657822774171e-02 7.3324137429302636e-03
      -1.8829058461659002e-03 3.8765525712045570e-02
      -6.0233449471632436e-03 -1.6473264492827065e-02
      1.0926105087881569e-03 -3.5596481295795276e-02
      1.6587237382950301e-03 2.8648394691110357e-02
      -5.7820251765961879e-03 5.7037562808307466e-03
      -7.8496938254637889e-03 -2.8600149554621056e-02
      1.0034754211518048e-02 -1.1137148063897442e-02
      3.4014286737455011e-02 1.0256433882509129e-02
      6.9250303900684701e-03 -4.6871219261080482e-02
      6.3320468807826916e-03 -9.5854383830446220e-03
      -4.3878370844418910e-02 1.1721933213605748e-02
      -2.1405504368983211e-02 3.9093731371199793e-03
      6.3049391115490128e-02 4.4038479339074170e-02
      -1.1812162700628149e-02 -2.7968176962311714e-02
      -1.4020755859266938e-02 8.1361671904488595e-03
      -4.2890607359339389e-02 -3.0241090336177896e-02
      6.2978095636310905e-02 4.2710270299856669e-02
      -2.4577004503212102e-01 3.3778454757426107e-02
      1.8233810443103342e-02 5.5739981331819613e-03
      -1.2688725364680584e-02 -2.6032786076808936e-02
      8.2041997561535969e-03 -1.0391262356227539e-02
      2.7598592897109933e-02 7.7598345626407203e-02
      -1.0929178645169834e-02 1.0122894568293853e-02
      -1.0542612753144841e-02 -1.0231089967994260e-02
      2.8099274513995218e-02 -1.9901972953040716e-02
      2.9703822397879304e-02 1.1908539414255849e-02
      -8.3474198239353328e-02 8.2944696001942458e-02
      -1.0310823347021813e-02 -2.7931727954230524e-02
      -2.9686763668631412e-02 1.5304669386005882e-02
      -2.1519060025256366e-02 3.0022197671487137e-02
      3.7757379716285767e-02 -7.3386896569462540e-02
      6.9306222431549614e-03 -2.0097540149008483e-02
      -3.4241303465449881e-03 -3.6542480058862084e-02
      8.5608573458480275e-02 7.2690170332245160e-03
      8.2961171604289084e-03 -2.7482049064922388e-02
      1.6625048184624389e-02 9.0524005419225263e-03
      -8.5582363409490627e-03 -1.4361323867224921e-02
      8.4714259083630408e-02 -1.6629557603555813e-03
      2.2251999401805733e-02 -1.2026240886664980e-03
      -2.2087502086750550e-02 2.2049771167963708e-02
      -1.6793718080443984e-02 -1.9470595366698446e-02
      -1.4468912957347931e-02 -3.9139445333809027e-03
      1.9574056903539142e-02 1.7683773971841441e-02
      2.1329424294992020e-02 -7.3571910632612111e-04
      -1.7498596676694532e-02 2.4994055814142092e-02
      -1.3155538067631908e-02 1.1785613842272174e-02
      2.9443381452895251e-03 -4.8347420827025769e-03
      -1.4987492069364254e-02 1.5619435215810471e-02
      1.6594221797659417e-02 2.5892589058509306e-02
      2.6542060508702291e-02 -1.3216879457530011e-02
      -4.7436325424238526e-03 3.6734542932269731e-03
      1.5617750709376501e-03 2.8149373956970061e-02
      -2.8519842988334782e-02 7.7287118890026407e-03
      -2.8442271155290928e-03 -5.3034014831474102e-03
      1.0907880178609204e-02 1.6453045013677097e-02
      2.2894927058263286e-02 -1.3149177556434674e-03
      -2.7438402782800998e-02 -2.4570439869237171e-02
      -1.4026498847142715e-01 -4.4945895503816433e-02
      -1.6859597875437241e-02 -4.9376280388498612e-03
      1.1537902395395885e-02 -5.3704311273434988e-03
      1.2037781643810266e-02 1.4002268990541248e-02
      8.5525916914205823e-03 -6.7544160111409846e-02
      -8.4890199125337192e-03 -1.4033059765302062e-02
      -8.0487492837744111e-03 9.4884417104831170e-03
      4.9639405040641420e-03 -8.3108217867258836e-03
      1.1234834262873807e-02 -1.2584787209483148e-02
      6.7286051630665339e-02 -6.7993534839724021e-02
      1.3630616416272476e-02 -1.0275908491527890e-02
      -9.6272817224943123e-03 -6.8811879691744035e-03
      -5.7790170025584110e-03 1.3445756555698577e-02
      -6.1270551866785601e-02 6.4483652762188426e-02
      -5.2962737785023388e-03 -4.9835517382780560e-03
      5.3869137065647617e-03 3.4415850243905005e-02
      -7.0638751195772745e-02 -6.2620292503816968e-03
      -1.5372732925549271e-02 -8.7950651489827180e-03
      -1.5878686334506609e-02 -7.5014854213562229e-03
      6.4099530740904529e-03 1.2345226617216551e-02
      -1.3983922430546053e-01 -4.6316888156269484e-02
      -1.6008830805282905e-02 -4.3076993850397214e-03
      1.2681988614145932e-02 -6.7198321501361069e-03
      1.1526953580245129e-02 1.3544758412414988e-02
      8.7054568417427834e-03 -6.7329985859418282e-02
      -9.7296442432225055e-03 -1.4441338749150542e-02
      -7.8548742729123711e-03 9.0822443115819596e-03
      6.5635177756260777e-03 -7.8525235662930907e-03
      1.0535090775734992e-02 -1.3982381091823525e-02
      6.5362434115718820e-02 -6.8145328928069931e-02
      1.3640200694760362e-02 -8.8853240043797726e-03
      -8.1997105609318000e-03 -6.7683437430972456e-03
      -7.7694166163925771e-03 1.2750442119796958e-02
      -5.9668979337555168e-02 6.3727263637881837e-02
      -4.8023370806374302e-03 -4.7087168242473075e-03
      4.7399300595507496e-03 3.4317183225289621e-02
      -6.9161713823093496e-02 -5.3630084903395232e-03
      -1.4162991389597842e-02 -8.8888914179165984e-03
      -1.5099793401328523e-02 -7.5146921493657731e-03
      7.4656036302784461e-03 1.0919574062232795e-02
      -6.2696350234837078e-02 -2.4806252892147492e-02
      1.6374809419195179e-02 -7.9110319988787391e-03
      -1.9606764822188552e-02 1.2804949571157532e-02
      -3.8390188155723488e-03 -1.4955561877666206e-02
      -7.1819712552795663e-03 -3.8357076809283172e-02
      5.8715101407528607e-03 1.0714339673322415e-02
      7.2100600066105601e-03 7.0899843016629686e-03
      -1.0031558526808820e-02 1.2139224803822374e-02
      -8.3239734469956386e-03 1.2691829595101248e-03
      4.1912717431653861e-02 -4.1208075159693255e-02
      -6.4900406262424154e-03 9.9471003377432279e-03
      9.6600955182491611e-03 2.7614406963338608e-02
      1.1806157451231199e-02 -4.6426791661269467e-03
      -1.9025830312927747e-02 4.9703415914297680e-02
      -8.0994123944106711e-03 1.4603974759274331e-02
      -3.3573583521677657e-02 -7.3228897000835970e-03
      -4.2927898365863949e-02 -1.2429247295584256e-02
      1.9482213111389655e-03 1.0312512027854789e-02
      1.5204630504056007e-02 -9.5040812792258830e-03
      -3.4127908353699325e-02 -2.0103406331711076e-02
      -1.9042642906761498e-01 -3.3383348560435733e-02
      -6.3745192754462972e-03 -9.0268497527365779e-03
      -3.2686421376369024e-04 -6.2162423714865857e-03
      1.3280714533669804e-02 3.3483271510500517e-03
      1.0212511541645356e-02 -5.2431999934029742e-02
      -8.7382425642633568e-03 -4.7197516089203979e-03
      -1.0978201629404398e-02 1.0177876438165622e-02
      5.9030153173384821e-03 -9.4933248155773114e-03
      9.8245618446881275e-03 -8.6116514247343932e-03
      5.5863199277877883e-02 -5.5819804006083634e-02
      8.3042396576129430e-03 -1.1734418207966509e-02
      -8.2009573595361873e-03 6.8663414479639123e-03
      -7.9297016165888121e-03 1.2263639206826266e-02
      -2.5440899153145548e-02 5.3174981304513015e-02
      -7.5487242158145378e-03 -5.9938833065236270e-03
      -1.2042618085036762e-02 5.3232381428019136e-03
      -5.7584348778947081e-02 -8.2252778224230563e-03
      -9.3373505766394926e-03 -9.6622385474012234e-03
      -4.2361695915861001e-03 -9.4165487666407460e-03
      -8.6099863382375023e-03 6.1895610515012888e-04
      -1.8313688204732254e-01 -3.1015071438473887e-02
      -7.8102093040579457e-03 -1.0570736439104072e-02
      2.4474917123738621e-03 -4.9480549017809480e-03
      8.5375427857423154e-03 3.8464873829326817e-03
      5.0108868521668180e-03 -4.6438931305683356e-02
      -7.8590139341867468e-03 -6.6796570961146469e-03
      -7.4732677656506727e-03 1.1307622227765289e-02
      8.1636885526231251e-04 -7.7116377217490524e-03
      7.9068050404354599e-03 -1.0441904822252367e-02
      4.8774479208700872e-02 -4.9681080724778240e-02
      8.6734821541237361e-03 -1.0411749220937121e-02
      -3.9997480672463934e-03 7.3678700068117997e-04
      -7.0281116954958390e-03 1.0720782266029013e-02
      -2.3200135876826133e-02 4.7831752247241961e-02
      -1.1939999416813242e-02 -3.8495578082132953e-03
      -6.0813101656037247e-03 1.0511508706661985e-02
      -5.1827279665433094e-02 -1.3801525242993173e-02
      -1.2584532640666363e-02 -8.5691342652247735e-03
      -6.5868299895846527e-03 -1.4888891070937564e-02
      -5.2083024022395088e-03 4.0860438099235702e-03
      -3.3212976108466619e-01 -7.2202440250324851e-02
      -3.9310103723440910e-02 -2.2032706045823081e-02
      3.1551508507387048e-02 -1.8035126074827053e-02
      2.6965947025501803e-02 3.0230195019089624e-02
      1.4730936537867887e-02 -9.6695247723427635e-02
      -2.4057190750090260e-02 -3.1669719069521346e-02
      -2.5557441641585053e-02 2.5992656070033125e-02
      1.2536841421804156e-02 -2.3505208947032809e-02
      1.8734311386021732e-02 -2.9839032661761279e-02
      1.0071036720907452e-01 -1.0011973562559387e-01
      3.2926744695495218e-02 -1.9792286170030648e-02
      -1.7008643063434966e-02 -2.9271374210849677e-02
      -2.0866266148915423e-02 2.1849834919201925e-02
      -6.6108856559661228e-02 9.4748202158172395e-02
      -2.1398695662979906e-02 -2.0098574029096629e-02
      2.7460452275569525e-02 4.8647387007431819e-02
      -1.0430417827002075e-01 -2.0145841901723398e-02
      -2.9891264074273373e-02 -2.0409109556034703e-02
      -3.8717119462327192e-02 -2.2488943423975734e-02
      2.9887427659628454e-02 3.2530815837913771e-02
      -1.9474232290071308e-01 -6.3539112019967564e-02
      -2.4412799971408425e-02 -2.4204025263117560e-02
      1.8959304336957021e-02 4.2179690633379575e-03
      7.9850180884707411e-03 1.6754589349980253e-02
      -3.5248522939180654e-03 -8.1504460947354793e-02
      -4.5976609790471783e-03 -2.0476971289958564e-02
      -4.3931819915538602e-03 2.6927933404633425e-02
      -7.8917678400768840e-03 -2.2016016336468222e-03
      -2.9570396717244814e-03 -2.3139246384540353e-02
      8.3796730232105154e-02 -8.5971018632535576e-02
      2.0011391467646886e-02 2.1522148064205969e-03
      5.7998659599514842e-03 -1.3953183893571773e-02
      -2.0693074742609809e-04 1.1613232865938258e-03
      -6.1877009329478851e-02 8.5441743240302515e-02
      -2.2845571997026422e-02 9.7055005711324071e-04
      1.2107256183904158e-02 4.1028168667850723e-02
      -8.8273284492707577e-02 -3.0121186769307234e-02
      -2.3735289308063134e-02 1.0879667871891267e-03
      -2.3218846550693083e-02 -2.8728099324266964e-02
      1.4699786018580191e-02 1.8660526394647672e-02
      -2.1992081254896950e-01 -5.9603875010967013e-02
      -2.3854140754221768e-02 -2.3471480003330655e-02
      1.7194493492399328e-02 -1.5500696824576365e-03
      1.1275277301537901e-02 1.8629007769255516e-02
      -5.9399280490618218e-04 -7.7355817431813634e-02
      -8.1828473440887332e-03 -2.0801836973361437e-02
      -7.4959558073268082e-03 2.4050470147797251e-02
      -5.0544048052384005e-03 -4.5756977239807609e-03
      6.2175718859514353e-04 -2.1221094874886538e-02
      7.9449622929067362e-02 -7.8139129685193709e-02
      2.1386188634441104e-02 -3.1094412050521230e-03
      1.2317176046125812e-05 -1.4452060671899745e-02
      -3.9354224232722957e-03 5.6199518452775153e-03
      -5.8083502459420906e-02 7.9504950454068760e-02
      -2.1218679912274042e-02 -4.4301700428156145e-03
      1.3698419532593485e-02 4.1066325585381563e-02
      -8.1657309604721243e-02 -2.8536156224810951e-02
      -2.1773184306548156e-02 -2.7560806311482961e-03
      -2.3432203627661404e-02 -2.9193292097059238e-02
      1.6937073943285176e-02 1.9279238634546045e-02
      -2.1840520473126507e-01 -6.1703410985300966e-02
      -2.5186717603121331e-02 -2.2205749218289248e-02
      1.9212656003053323e-02 -1.8736753413446891e-03
      1.1880655410876824e-02 1.8207061769575650e-02
      4.2671552579414231e-04 -7.7227256240090358e-02
      -9.6871774151548740e-03 -1.8969999987322156e-02
      -9.1814332292371129e-03 2.5421996756743767e-02
      -4.1372838138418683e-03 -4.8687427370874836e-03
      6.6292914799087241e-04 -2.1414436267199511e-02
      7.8254971730792808e-02 -7.9548578947436027e-02
      2.1376266801460438e-02 -4.4141573616241700e-03
      1.4514090466230182e-03 -1.4731448386343741e-02
      -5.4051792010444072e-03 4.7220312754928514e-03
      -5.8328575650220697e-02 8.0531948154151531e-02
      -2.2139086547010887e-02 -4.0023478899058511e-03
      1.2512489272886703e-02 4.0430554806183183e-02
      -8.1195155972498129e-02 -2.7986048040782491e-02
      -2.2860578888447107e-02 -3.0193339257180542e-03
      -2.4973401690233130e-02 -2.8366431667708202e-02
      1.7127187154857906e-02 1.7700359844477365e-02
      -1.0431567631590895e-01 -2.9750494647324273e-02
      -2.2974957783044415e-02 -6.8746121817128180e-03
      1.7193650914742536e-02 1.0425875621181717e-02
      -5.5411986203682826e-03 1.8252907513228014e-02
      -4.9337975962944038e-03 -4.4575087711154392e-02
      7.7054071621379646e-03 -1.9209722984348442e-02
      1.0117434786854777e-02 1.7654301623320628e-02
      -5.4502331132448073e-03 1.1205979669143246e-02
      -4.8111268415667874e-03 -2.0521757077555346e-02
      4.5684843898559847e-02 -4.5535622527710193e-02
      1.7982080945901119e-02 6.5896912333834670e-03
      4.6853983214978339e-03 -1.5468453700958628e-02
      1.2881302273790500e-02 -2.9768174370776029e-03
      -2.2315236833328905e-02 3.4433920743257011e-02
      -6.1352027426454661e-03 1.2726283210516848e-02
      1.4220052521007999e-02 2.1833729318913944e-02
      -4.9371041289458642e-02 -1.2721217190781063e-02
      -1.9275456162008955e-02 5.6666479986396678e-03
      -2.3962553615946857e-02 -1.7352394770010830e-02
      1.6889689986965245e-02 1.8404916468238604e-02
      -4.0410355939774195e-01 -8.3178612504495986e-02
      -5.1407994239569474e-02 -2.8739675234430741e-02
      4.2531557493159046e-02 -1.4313904763744119e-02
      2.9041945990320079e-02 4.0790610777029286e-02
      1.0908693308128933e-02 -9.7885689709093546e-02
      -2.5503184701855378e-02 -4.1183894307577948e-02
      -2.5311307825356653e-02 3.2742776344825100e-02
      7.4332044900732967e-03 -2.2810610465927431e-02
      1.0289163563731220e-02 -3.9143598290351238e-02
      1.0176268005446293e-01 -1.0148414680626179e-01
      4.1762762507894215e-02 -1.3330207662865646e-02
      -9.7243933066790168e-03 -4.2512311303423138e-02
      -2.1538406429521328e-02 1.3598936126574906e-02
      -8.2408017899984157e-02 1.0025017679903189e-01
      -2.9587619073879256e-02 -2.1883197762736943e-02
      4.3906050314762947e-02 6.9876653723239882e-02
      -1.0502944606582609e-01 -2.6602348369849173e-02
      -3.7507668177340976e-02 -1.3654584162870723e-02
      -5.0481347832535467e-02 -2.8329481111645193e-02
      4.7353845876559941e-02 4.3326773628701243e-02
      -2.0556775661055768e-01 1.7275804251195313e-02
      3.9528544932982336e-02 1.8474231489040496e-02
      -2.8454622827647713e-02 -9.0646551761474070e-03
      7.6846014270602180e-04 -2.7741109958512186e-02
      1.1782758208082085e-02 2.3133173224763044e-03
      -1.0323600886914146e-03 2.9357540940943463e-02
      -7.3559867119322737e-04 -2.6858528443604739e-02
      1.3357805125074543e-02 -6.4910981898798114e-03
      1.2621514827475387e-02 2.5203376006280014e-02
      -1.1933239875321258e-03 -2.9620006252735747e-04
      -3.0836297168581602e-02 -1.0167850783139554e-02
      -1.3629848974704728e-02 2.7172521529280274e-02
      -6.2237927082438903e-03 1.2399668663186997e-02
      2.0844522887309022e-02 -3.0833892528146088e-03
      1.7349026470758984e-02 -8.0941279914786401e-03
      -2.7932081369222421e-02 -4.3663853389616869e-02
      5.8281504454556047e-04 2.8180836048045822e-02
      1.4368214075074796e-02 -1.1955503516874254e-02
      3.9699571378026599e-02 2.9615576752472745e-02
      -3.2342771404584740e-02 -2.9773539424672889e-02
      -2.1252343190455794e-01 3.6585515865456705e-02
      4.9720156552195194e-02 2.4440732180259560e-02
      -3.6804811063562086e-02 -1.2817912449834365e-02
      -5.0906854107451711e-04 -3.5760427394440110e-02
      1.4927745693174101e-02 2.9215238327886917e-02
      -1.7324338442857821e-03 3.8163665483840530e-02
      -6.7066590875932525e-04 -3.1937531634352943e-02
      1.4285984710131486e-02 -5.9761910815125567e-03
      1.5837139244158235e-02 3.2732035698184142e-02
