<?xml version="1.0"?>
<opencv_storage>
<shapeML type_id="opencv-ml-ann-mlp">
  <layer_sizes type_id="opencv-matrix">
    <rows>1</rows>
    <cols>3</cols>
    <dt>i</dt>
    <data>
      1600 40 1</data></layer_sizes>
  <activation_function>SIGMOID_SYM</activation_function>
  <f_param1>5.9999999999999998e-01</f_param1>
  <f_param2>1.</f_param2>
  <min_val>-9.4999999999999996e-01</min_val>
  <max_val>9.4999999999999996e-01</max_val>
  <min_val1>-9.7999999999999998e-01</min_val1>
  <max_val1>9.7999999999999998e-01</max_val1>
  <training_params>
    <train_method>BACKPROP</train_method>
    <dw_scale>1.0000000000000001e-01</dw_scale>
    <moment_scale>1.0000000000000001e-01</moment_scale>
    <term_criteria><epsilon>9.9999999747524271e-07</epsilon>
      <iterations>4000</iterations></term_criteria></training_params>
  <input_scale>
    5.6694115194603330e-02 -6.9504804685691590e-02
    3.2891645179895380e-02 -1.2097167578182676e-01
    4.0185978403563326e-02 -9.8532927816429319e-02
    5.6694115194603330e-02 -6.9504804685691590e-02
    3.2891645179895380e-02 -1.2097167578182676e-01
    3.2891645179895380e-02 -1.2097167578182676e-01
    2.8554731125277063e-02 -1.4002800840280100e-01
    2.5602957388130124e-02 -1.5694120514358612e-01
    2.1745835870341842e-02 -1.8661690879115478e-01
    2.3429976047305220e-02 -1.7234549688642783e-01
    2.1745835870341842e-02 -1.8661690879115478e-01
    1.9274155639442334e-02 -2.1266436150250076e-01
    2.1745835870341842e-02 -1.8661690879115478e-01
    1.7522404386365431e-02 -2.3629973222959152e-01
    1.6200714650802268e-02 -2.5819888974716115e-01
    1.5159988452742390e-02 -2.7878344149874829e-01
    1.3947940995667455e-02 -3.0779350562554625e-01
    1.7522404386365431e-02 -2.3629973222959152e-01
    1.8331185802922138e-02 -2.2473328748774737e-01
    1.2751325793332380e-02 -3.4391796971439736e-01
    1.1668149501693845e-02 -3.8622696788058714e-01
    1.2751325793332380e-02 -3.4391796971439736e-01
    1.5159988452742390e-02 -2.7878344149874829e-01
    1.6200714650802268e-02 -2.5819888974716115e-01
    2.5602957388130124e-02 -1.5694120514358612e-01
    2.5602957388130124e-02 -1.5694120514358612e-01
    2.5602957388130124e-02 -1.5694120514358612e-01
    1.8331185802922138e-02 -2.2473328748774737e-01
    1.9274155639442334e-02 -2.1266436150250076e-01
    2.1745835870341842e-02 -1.8661690879115478e-01
    2.0392156862745096e-02 -1.9999999999999998e-01
    2.8554731125277063e-02 -1.4002800840280100e-01
    2.1745835870341842e-02 -1.8661690879115478e-01
    2.5602957388130124e-02 -1.5694120514358612e-01
    2.5602957388130124e-02 -1.5694120514358612e-01
    2.5602957388130124e-02 -1.5694120514358612e-01
    3.2891645179895380e-02 -1.2097167578182676e-01
    4.0185978403563326e-02 -9.8532927816429319e-02
    5.6694115194603330e-02 -6.9504804685691590e-02
    4.0185978403563326e-02 -9.8532927816429319e-02
    4.0185978403563326e-02 -9.8532927816429319e-02
    2.8554731125277063e-02 -1.4002800840280100e-01
    4.0185978403563326e-02 -9.8532927816429319e-02
    4.0185978403563326e-02 -9.8532927816429319e-02
    2.5602957388130124e-02 -1.5694120514358612e-01
    2.5602957388130124e-02 -1.5694120514358612e-01
    2.3429976047305220e-02 -1.7234549688642783e-01
    2.1745835870341842e-02 -1.8661690879115478e-01
    1.8331185802922138e-02 -2.2473328748774737e-01
    1.9274155639442334e-02 -2.1266436150250076e-01
    1.5159988452742390e-02 -2.7878344149874829e-01
    1.3302376391678038e-02 -3.2616403652672116e-01
    1.3611796635153705e-02 -3.1706324373711392e-01
    1.1857708957152227e-02 -3.7796447300922725e-01
    1.0869056127933079e-02 -4.2640143271122083e-01
    1.0047256709338800e-02 -4.8038446141526142e-01
    1.0254730168116377e-02 -4.6516047661624044e-01
    1.0148617762062296e-02 -4.7278897170376749e-01
    9.8576408370293373e-03 -4.9548862957279677e-01
    1.0604960905726227e-02 -4.4204332236849225e-01
    9.7688730383512883e-03 -5.0300303000356872e-01
    1.0482529198715810e-02 -4.4979121681989714e-01
    1.0148617762062296e-02 -4.7278897170376749e-01
    1.0869056127933079e-02 -4.2640143271122083e-01
    1.1857708957152227e-02 -3.7796447300922725e-01
    1.2274636000901959e-02 -3.6115755925730764e-01
    1.3947940995667455e-02 -3.0779350562554625e-01
    1.3302376391678038e-02 -3.2616403652672116e-01
    1.3302376391678038e-02 -3.2616403652672116e-01
    1.4314692072252238e-02 -2.9833745256352617e-01
    1.6819167505804224e-02 -2.4743582965269675e-01
    1.8331185802922138e-02 -2.2473328748774737e-01
    1.6819167505804224e-02 -2.4743582965269675e-01
    1.7522404386365431e-02 -2.3629973222959152e-01
    1.8331185802922138e-02 -2.2473328748774737e-01
    1.8331185802922138e-02 -2.2473328748774737e-01
    2.5602957388130124e-02 -1.5694120514358612e-01
    3.2891645179895380e-02 -1.2097167578182676e-01
    3.2891645179895380e-02 -1.2097167578182676e-01
    2.8554731125277063e-02 -1.4002800840280100e-01
    5.6694115194603330e-02 -6.9504804685691590e-02
    2.8554731125277063e-02 -1.4002800840280100e-01
    2.8554731125277063e-02 -1.4002800840280100e-01
    2.8554731125277063e-02 -1.4002800840280100e-01
    2.3429976047305220e-02 -1.7234549688642783e-01
    2.0392156862745096e-02 -1.9999999999999998e-01
    1.9274155639442334e-02 -2.1266436150250076e-01
    1.9274155639442334e-02 -2.1266436150250076e-01
    1.3947940995667455e-02 -3.0779350562554625e-01
    1.3302376391678038e-02 -3.2616403652672116e-01
    1.1857708957152227e-02 -3.7796447300922725e-01
    1.1321334965217689e-02 -4.0250611571050388e-01
    1.0869056127933079e-02 -4.2640143271122083e-01
    9.6022916416065012e-03 -5.1796977028281221e-01
    9.6838254925237233e-03 -5.1049589675732032e-01
    9.0564748108176597e-03 -5.7735026918962584e-01
    9.0564748108176597e-03 -5.7735026918962584e-01
    8.8919312127377480e-03 -5.9956411182041780e-01
    8.6996947479236735e-03 -6.2926397828130609e-01
    8.9995205013518563e-03 -5.8475249796043427e-01
    8.8411212578929886e-03 -6.0697697866688405e-01
    8.9995205013518563e-03 -5.8475249796043427e-01
    9.1771875840240390e-03 -5.6254395046301198e-01
    9.3769432481323450e-03 -5.4030127321570265e-01
    9.1156625602332036e-03 -5.6994803651842696e-01
    9.1156625602332036e-03 -5.6994803651842696e-01
    1.0254730168116377e-02 -4.6516047661624044e-01
    1.1011733047195351e-02 -4.1849879681768870e-01
    1.1162270069884947e-02 -4.1053541362798002e-01
    1.2751325793332380e-02 -3.4391796971439736e-01
    1.4314692072252238e-02 -2.9833745256352617e-01
    1.5651583111989602e-02 -2.6863534475866768e-01
    1.6200714650802268e-02 -2.5819888974716115e-01
    1.4716771567578694e-02 -2.8867513459481287e-01
    1.5159988452742390e-02 -2.7878344149874829e-01
    1.5159988452742390e-02 -2.7878344149874829e-01
    1.9274155639442334e-02 -2.1266436150250076e-01
    2.3429976047305220e-02 -1.7234549688642783e-01
    2.3429976047305220e-02 -1.7234549688642783e-01
    2.8554731125277063e-02 -1.4002800840280100e-01 1. 0.
    4.0185978403563326e-02 -9.8532927816429319e-02
    2.1745835870341842e-02 -1.8661690879115478e-01
    2.0392156862745096e-02 -1.9999999999999998e-01
    1.8331185802922138e-02 -2.2473328748774737e-01
    1.8331185802922138e-02 -2.2473328748774737e-01
    1.6819167505804224e-02 -2.4743582965269675e-01
    1.2504702743322927e-02 -3.5259654610379310e-01
    1.2751325793332380e-02 -3.4391796971439736e-01
    1.1162270069884947e-02 -4.1053541362798002e-01
    1.1668149501693845e-02 -3.8622696788058714e-01
    9.7688730383512883e-03 -5.0300303000356872e-01
    9.6838254925237233e-03 -5.1049589675732032e-01
    8.9995205013518563e-03 -5.8475249796043427e-01
    8.8919312127377480e-03 -5.9956411182041780e-01
    8.4605472936563706e-03 -6.7419986246324204e-01
    8.3599692564550899e-03 -6.9693205243716949e-01
    8.2430408509080490e-03 -7.2760687510899902e-01
    8.2991686731248918e-03 -7.1221231161191978e-01
    8.4967320261437902e-03 -6.6666666666666663e-01
    8.2430408509080490e-03 -7.2760687510899902e-01
    8.1670779810922231e-03 -7.5093926148263834e-01
    8.2166509885505806e-03 -7.3535076034552427e-01
    8.1670779810922231e-03 -7.5093926148263834e-01
    8.3599692564550899e-03 -6.9693205243716949e-01
    8.7450747939710333e-03 -6.2182527020592104e-01
    8.9995205013518563e-03 -5.8475249796043427e-01
    8.7921938138543747e-03 -6.1439681290564108e-01
    1.0254730168116377e-02 -4.6516047661624044e-01
    1.0604960905726227e-02 -4.4204332236849225e-01
    1.1011733047195351e-02 -4.1849879681768870e-01
    1.2059452890866757e-02 -3.6961063547728640e-01
    1.5159988452742390e-02 -2.7878344149874829e-01
    1.5159988452742390e-02 -2.7878344149874829e-01
    1.5159988452742390e-02 -2.7878344149874829e-01
    1.4716771567578694e-02 -2.8867513459481287e-01
    1.6819167505804224e-02 -2.4743582965269675e-01
    2.0392156862745096e-02 -1.9999999999999998e-01
    2.5602957388130124e-02 -1.5694120514358612e-01
    2.5602957388130124e-02 -1.5694120514358612e-01
    5.6694115194603330e-02 -6.9504804685691590e-02
    2.3429976047305220e-02 -1.7234549688642783e-01
    2.3429976047305220e-02 -1.7234549688642783e-01
    1.6200714650802268e-02 -2.5819888974716115e-01
    1.4716771567578694e-02 -2.8867513459481287e-01
    1.4314692072252238e-02 -2.9833745256352617e-01
    1.2274636000901959e-02 -3.6115755925730764e-01
    1.1162270069884947e-02 -4.1053541362798002e-01
    1.0733643337382897e-02 -4.3424811867344748e-01
    1.0047256709338800e-02 -4.8038446141526142e-01
    9.3077035915910579e-03 -5.4772255750516607e-01
    9.0564748108176597e-03 -5.7735026918962584e-01
    8.8919312127377480e-03 -5.9956411182041780e-01
    8.5733564766235677e-03 -6.5165752834335866e-01
    8.3599692564550899e-03 -6.9693205243716949e-01
    8.3289682974530162e-03 -7.0455864035425875e-01
    7.9500679945191197e-03 -8.4794355028080126e-01
    8.0247397326142951e-03 -8.0671782600463904e-01
    8.1438430037657512e-03 -7.5878691063932813e-01
    8.2430408509080490e-03 -7.2760687510899902e-01
    8.1003573254011339e-03 -7.7459666924148340e-01
    8.2705367656811194e-03 -7.1989455837815697e-01
    8.1670779810922231e-03 -7.5093926148263834e-01
    8.1913389212188888e-03 -7.4312771847788661e-01
    8.3289682974530162e-03 -7.0455864035425875e-01
    8.1913389212188888e-03 -7.4312771847788661e-01
    8.2991686731248918e-03 -7.1221231161191978e-01
    8.4967320261437902e-03 -6.6666666666666663e-01
    8.9995205013518563e-03 -5.8475249796043427e-01
    9.3077035915910579e-03 -5.4772255750516607e-01
    1.0047256709338800e-02 -4.8038446141526142e-01
    1.1011733047195351e-02 -4.1849879681768870e-01
    1.2274636000901959e-02 -3.6115755925730764e-01
    1.4314692072252238e-02 -2.9833745256352617e-01
    1.4716771567578694e-02 -2.8867513459481287e-01
    1.3611796635153705e-02 -3.1706324373711392e-01
    1.5651583111989602e-02 -2.6863534475866768e-01
    1.8331185802922138e-02 -2.2473328748774737e-01
    2.3429976047305220e-02 -1.7234549688642783e-01
    2.0392156862745096e-02 -1.9999999999999998e-01
    5.6694115194603330e-02 -6.9504804685691590e-02
    2.0392156862745096e-02 -1.9999999999999998e-01
    1.7522404386365431e-02 -2.3629973222959152e-01
    1.4716771567578694e-02 -2.8867513459481287e-01
    1.3016454478746161e-02 -3.3511112371964275e-01
    1.1668149501693845e-02 -3.8622696788058714e-01
    1.0869056127933079e-02 -4.2640143271122083e-01
    1.0148617762062296e-02 -4.7278897170376749e-01
    9.5240813316107339e-03 -5.2542708307804409e-01
    9.1771875840240390e-03 -5.6254395046301198e-01
    9.1771875840240390e-03 -5.6254395046301198e-01
    8.7921938138543747e-03 -6.1439681290564108e-01
    8.4257198414582849e-03 -6.8175415832568709e-01
    8.6559885171986119e-03 -6.3671453996701333e-01
    8.2166509885505806e-03 -7.3535076034552427e-01
    8.0422725036405941e-03 -7.9862085847450226e-01
    7.8464024323357320e-03 -9.7155814733080181e-01
    7.8796477271395292e-03 -9.0805363470930056e-01
    7.8562224869666297e-03 -9.4387980744853883e-01
    7.9923164091804440e-03 -8.2305489175310143e-01
    7.9376362934116072e-03 -8.5634883857767530e-01
    7.9376362934116072e-03 -8.5634883857767530e-01
    8.0422725036405941e-03 -7.9862085847450226e-01
    8.0247397326142951e-03 -8.0671782600463904e-01
    7.9260109960244476e-03 -8.6481163247487902e-01
    7.9500679945191197e-03 -8.4794355028080126e-01
    7.9633171706661003e-03 -8.3959396900340177e-01
    8.1913389212188888e-03 -7.4312771847788661e-01
    8.6138949220476834e-03 -6.4417853611755627e-01
    8.7921938138543747e-03 -6.1439681290564108e-01
    9.6838254925237233e-03 -5.1049589675732032e-01
    9.6022916416065012e-03 -5.1796977028281221e-01
    1.0604960905726227e-02 -4.4204332236849225e-01
    1.1011733047195351e-02 -4.1849879681768870e-01
    1.3016454478746161e-02 -3.3511112371964275e-01
    1.2274636000901959e-02 -3.6115755925730764e-01
    1.4716771567578694e-02 -2.8867513459481287e-01
    1.6819167505804224e-02 -2.4743582965269675e-01
    2.0392156862745096e-02 -1.9999999999999998e-01
    1.9274155639442334e-02 -2.1266436150250076e-01
    5.6694115194603330e-02 -6.9504804685691590e-02
    1.6819167505804224e-02 -2.4743582965269675e-01
    1.5159988452742390e-02 -2.7878344149874829e-01
    1.2059452890866757e-02 -3.6961063547728640e-01
    1.1162270069884947e-02 -4.1053541362798002e-01
    1.0869056127933079e-02 -4.2640143271122083e-01
    1.0148617762062296e-02 -4.7278897170376749e-01
    1.0047256709338800e-02 -4.8038446141526142e-01
    8.9447027811524159e-03 -5.9215652546379216e-01
    8.8411212578929886e-03 -6.0697697866688405e-01
    8.9447027811524159e-03 -5.9215652546379216e-01
    8.5343191293767093e-03 -6.5915306160306164e-01
    8.1670779810922231e-03 -7.5093926148263834e-01
    8.1670779810922231e-03 -7.5093926148263834e-01
    7.8958746702829496e-03 -8.9056355656172115e-01
    7.8489448360419701e-03 -9.6225044864937614e-01
    7.8445879415424812e-03 -9.8095063634384583e-01
    7.8464024323357320e-03 -9.7155814733080181e-01
    7.8445879415424812e-03 -1.0194192887494868e+00
    7.8489448360419718e-03 -1.0392304845413265e+00
    7.8434998511091262e-03 -9.9043040187202502e-01
    7.8958746702829496e-03 -8.9056355656172115e-01
    7.9151818317537946e-03 -8.7333376460937306e-01
    7.8664452921850779e-03 -9.2582009977255153e-01
    7.9376362934116072e-03 -8.5634883857767530e-01
    7.8664452921850779e-03 -9.2582009977255153e-01
    7.8796477271395292e-03 -9.0805363470930056e-01
    7.9500679945191197e-03 -8.4794355028080126e-01
    8.1438430037657512e-03 -7.5878691063932813e-01
    8.1670779810922231e-03 -7.5093926148263834e-01
    8.6559885171986119e-03 -6.3671453996701333e-01
    8.9447027811524159e-03 -5.9215652546379216e-01
    9.0564748108176597e-03 -5.7735026918962584e-01
    9.6838254925237233e-03 -5.1049589675732032e-01
    1.0604960905726227e-02 -4.4204332236849225e-01
    1.2059452890866757e-02 -3.6961063547728640e-01
    1.3016454478746161e-02 -3.3511112371964275e-01
    1.4716771567578694e-02 -2.8867513459481287e-01
    1.6819167505804224e-02 -2.4743582965269675e-01
    2.0392156862745096e-02 -1.9999999999999998e-01
    2.3429976047305220e-02 -1.7234549688642783e-01
    1.5159988452742390e-02 -2.7878344149874829e-01
    1.3611796635153705e-02 -3.1706324373711392e-01
    1.1162270069884947e-02 -4.1053541362798002e-01
    1.0254730168116377e-02 -4.6516047661624044e-01
    1.1011733047195351e-02 -4.1849879681768870e-01
    9.3077035915910579e-03 -5.4772255750516607e-01
    8.6559885171986119e-03 -6.3671453996701333e-01
    8.4605472936563706e-03 -6.7419986246324204e-01
    8.5343191293767093e-03 -6.5915306160306164e-01
    8.3289682974530162e-03 -7.0455864035425875e-01
    7.9376362934116072e-03 -8.5634883857767530e-01
    7.8796477271395292e-03 -9.0805363470930056e-01
    7.8522172751401831e-03 -9.5302512072554768e-01
    7.8489448360419701e-03 -9.6225044864937614e-01
    7.8445879415424812e-03 -9.8095063634384583e-01
    7.8489448360419718e-03 -1.0392304845413265e+00
    7.8434998511091262e-03 -1.0096620601608022e+00
    7.8609638300936487e-03 -1.0697335635134650e+00
    7.8873799129335394e-03 -1.1120068074364233e+00
    7.8609638300936487e-03 -1.0697335635134650e+00
    7.8445879415424812e-03 -1.0194192887494868e+00
    7.8726714993644781e-03 -1.0906299483374395e+00
    7.8873799129335394e-03 -1.1120068074364233e+00
    7.8609638300936487e-03 -1.0697335635134650e+00
    7.8664452921850779e-03 -9.2582009977255153e-01
    7.8664452921850779e-03 -9.2582009977255153e-01
    7.8873799129335394e-03 -8.9927507036162935e-01
    8.0800631258742261e-03 -7.8256188303238594e-01
    8.0422725036405941e-03 -7.9862085847450226e-01
    8.0247397326142951e-03 -8.0671782600463904e-01
    8.2166509885505806e-03 -7.3535076034552427e-01
    8.6559885171986119e-03 -6.3671453996701333e-01
    8.7450747939710333e-03 -6.2182527020592104e-01
    1.0047256709338800e-02 -4.8038446141526142e-01
    1.0482529198715810e-02 -4.4979121681989714e-01
    1.2274636000901959e-02 -3.6115755925730764e-01
    1.3611796635153705e-02 -3.1706324373711392e-01
    1.5651583111989602e-02 -2.6863534475866768e-01
    1.8331185802922138e-02 -2.2473328748774737e-01
    1.7522404386365431e-02 -2.3629973222959152e-01
    1.4314692072252238e-02 -2.9833745256352617e-01
    1.3302376391678038e-02 -3.2616403652672116e-01
    1.1857708957152227e-02 -3.7796447300922725e-01
    1.0733643337382897e-02 -4.3424811867344748e-01
    9.7688730383512883e-03 -5.0300303000356872e-01
    8.8919312127377480e-03 -5.9956411182041780e-01
    8.3599692564550899e-03 -6.9693205243716949e-01
    8.1216102486513491e-03 -7.6667219823206367e-01
    8.1438430037657512e-03 -7.5878691063932813e-01
    7.9773957221792157e-03 -8.3129832826074279e-01
    7.8489448360419701e-03 -9.6225044864937614e-01
    7.8489448360419701e-03 -9.6225044864937614e-01
    7.8522172751401831e-03 -9.5302512072554768e-01
    7.8609638300936487e-03 -9.3481221316041530e-01
    7.8464024323357320e-03 -9.7155814733080181e-01
    7.8796477271395292e-03 -1.1012565357112793e+00
    7.9151818317537929e-03 -1.1450376024878444e+00
    7.8726714993644781e-03 -1.0906299483374395e+00
    7.8726714993644781e-03 -1.0906299483374395e+00
    7.8445879415424812e-03 -1.0194192887494868e+00
    7.9500679945191215e-03 -1.1793237883215746e+00
    7.9500679945191215e-03 -1.1793237883215746e+00
    7.8726714993644781e-03 -1.0906299483374395e+00
    7.8431372549019607e-03 -1. 7.8873799129335394e-03
    -1.1120068074364233e+00 7.8431372549019607e-03 -1.
    7.8726714993644781e-03 -9.1690128400050241e-01
    7.8664452921850779e-03 -9.2582009977255153e-01
    7.8726714993644781e-03 -9.1690128400050241e-01
    7.9260109960244476e-03 -8.6481163247487902e-01
    7.9260109960244476e-03 -8.6481163247487902e-01
    7.9923164091804440e-03 -8.2305489175310143e-01
    8.4257198414582849e-03 -6.8175415832568709e-01
    8.8411212578929886e-03 -6.0697697866688405e-01
    9.9503536849654371e-03 -4.8795003647426666e-01
    1.0482529198715810e-02 -4.4979121681989714e-01
    1.2274636000901959e-02 -3.6115755925730764e-01
    1.3947940995667455e-02 -3.0779350562554625e-01
    1.6819167505804224e-02 -2.4743582965269675e-01
    1.8331185802922138e-02 -2.2473328748774737e-01
    1.3947940995667455e-02 -3.0779350562554625e-01
    1.3302376391678038e-02 -3.2616403652672116e-01
    1.1011733047195351e-02 -4.1849879681768870e-01
    9.3769432481323450e-03 -5.4030127321570265e-01
    8.6138949220476834e-03 -6.4417853611755627e-01
    8.5343191293767093e-03 -6.5915306160306164e-01
    8.1438430037657512e-03 -7.5878691063932813e-01
    7.9260109960244476e-03 -8.6481163247487902e-01
    7.8958746702829496e-03 -8.9056355656172115e-01
    7.8522172751401831e-03 -9.5302512072554768e-01
    7.8445879415424812e-03 -9.8095063634384583e-01
    7.8464024323357320e-03 -9.7155814733080181e-01
    7.8434998511091262e-03 -1.0096620601608022e+00
    7.8522172751401831e-03 -1.0492902844351988e+00
    7.9633171706661003e-03 -1.1910519095164536e+00
    7.9773957221792140e-03 -1.2029375808949569e+00
    7.9376362934116072e-03 -1.1677484162422844e+00
    7.8489448360419718e-03 -1.0392304845413265e+00
    7.8796477271395292e-03 -1.1012565357112793e+00
    7.9260109960244476e-03 -1.1563211715113551e+00
    7.9923164091804458e-03 -1.2149857925879120e+00
    8.1670779810922231e-03 -1.3316656236958786e+00
    7.9376362934116072e-03 -1.1677484162422844e+00
    8.0080928850316657e-03 -1.2272017341845403e+00
    8.0080928850316657e-03 -1.2272017341845403e+00
    7.8609638300936487e-03 -1.0697335635134650e+00
    7.9051393047681520e-03 -1.1338934190276817e+00
    7.8522172751401831e-03 -1.0492902844351988e+00
    7.8445879415424812e-03 -1.0194192887494868e+00
    7.8489448360419701e-03 -9.6225044864937614e-01
    7.8664452921850779e-03 -9.2582009977255153e-01
    7.9260109960244476e-03 -8.6481163247487902e-01
    8.0247397326142951e-03 -8.0671782600463904e-01
    8.2991686731248918e-03 -7.1221231161191978e-01
    8.9995205013518563e-03 -5.8475249796043427e-01
    9.8576408370293373e-03 -4.9548862957279677e-01
    1.1321334965217689e-02 -4.0250611571050388e-01
    1.3016454478746161e-02 -3.3511112371964275e-01
    1.5159988452742390e-02 -2.7878344149874829e-01
    1.6200714650802268e-02 -2.5819888974716115e-01
    1.2751325793332380e-02 -3.4391796971439736e-01
    1.1668149501693845e-02 -3.8622696788058714e-01
    9.6838254925237233e-03 -5.1049589675732032e-01
    8.4967320261437902e-03 -6.6666666666666663e-01
    8.3922071804473190e-03 -6.8933105614395407e-01
    8.4257198414582849e-03 -6.8175415832568709e-01
    8.1216102486513491e-03 -7.6667219823206367e-01
    7.9773957221792157e-03 -8.3129832826074279e-01
    7.8445879415424812e-03 -9.8095063634384583e-01
    7.8873799129335394e-03 -1.1120068074364233e+00
    7.8489448360419718e-03 -1.0392304845413265e+00
    7.8464024323357303e-03 -1.0292744729148096e+00
    7.8726714993644781e-03 -1.0906299483374395e+00
    7.9376362934116072e-03 -1.1677484162422844e+00
    8.1003573254011339e-03 -1.2909944487358056e+00
    8.1913389212188905e-03 -1.3456637064329302e+00
    7.9633171706661003e-03 -1.1910519095164536e+00
    7.9051393047681520e-03 -1.1338934190276817e+00
    8.0607077612135161e-03 -1.2649110640673518e+00
    7.9773957221792140e-03 -1.2029375808949569e+00
    8.0247397326142934e-03 -1.2395908058120060e+00
    8.3922071804473190e-03 -1.4506817748701124e+00
    8.2166509885505789e-03 -1.3598952417348733e+00
    8.0607077612135161e-03 -1.2649110640673518e+00
    8.0607077612135161e-03 -1.2649110640673518e+00
    8.0607077612135161e-03 -1.2649110640673518e+00
    8.2166509885505789e-03 -1.3598952417348733e+00
    7.9923164091804458e-03 -1.2149857925879120e+00
    8.0800631258742261e-03 -1.2778542140655416e+00
    7.8796477271395292e-03 -1.1012565357112793e+00
    7.8431372549019607e-03 -1. 7.8562224869666297e-03
    -9.4387980744853883e-01 7.9260109960244476e-03
    -8.6481163247487902e-01 7.9923164091804440e-03
    -8.2305489175310143e-01 8.3922071804473190e-03
    -6.8933105614395407e-01 9.3077035915910579e-03
    -5.4772255750516607e-01 1.0733643337382897e-02
    -4.3424811867344748e-01 1.1857708957152227e-02
    -3.7796447300922725e-01 1.4314692072252238e-02
    -2.9833745256352617e-01 1.8331185802922138e-02
    -2.2473328748774737e-01 1.2504702743322927e-02
    -3.5259654610379310e-01 1.0604960905726227e-02
    -4.4204332236849225e-01 8.6996947479236735e-03
    -6.2926397828130609e-01 8.2166509885505806e-03
    -7.3535076034552427e-01 8.2705367656811194e-03
    -7.1989455837815697e-01 8.1913389212188888e-03
    -7.4312771847788661e-01 7.9260109960244476e-03
    -8.6481163247487902e-01 7.8609638300936487e-03
    -9.3481221316041530e-01 7.8445879415424812e-03
    -1.0194192887494868e+00 7.8796477271395292e-03
    -1.1012565357112793e+00 7.8958746702829496e-03
    -1.1228844843604309e+00 7.8434998511091262e-03
    -1.0096620601608022e+00 7.8464024323357303e-03
    -1.0292744729148096e+00 7.9500679945191215e-03
    -1.1793237883215746e+00 8.2705367656811211e-03
    -1.3890923168705287e+00 8.2430408509080472e-03
    -1.3743685418725533e+00 8.0422725036405959e-03
    -1.2521586299538494e+00 8.0800631258742261e-03
    -1.2778542140655416e+00 8.1438430037657512e-03
    -1.3178930553209383e+00 8.0247397326142934e-03
    -1.2395908058120060e+00 8.0422725036405959e-03
    -1.2521586299538494e+00 8.1003573254011339e-03
    -1.2909944487358056e+00 8.1670779810922231e-03
    -1.3316656236958786e+00 8.0800631258742261e-03
    -1.2778542140655416e+00 8.1003573254011339e-03
    -1.2909944487358056e+00 8.2705367656811211e-03
    -1.3890923168705287e+00 8.4605472936563706e-03
    -1.4832396974191324e+00 8.4967320261437902e-03
    -1.5000000000000000e+00 8.2991686731248918e-03
    -1.4040757000349278e+00 8.1003573254011339e-03
    -1.2909944487358056e+00 7.8796477271395292e-03
    -1.1012565357112793e+00 7.8796477271395292e-03
    -1.1012565357112793e+00 7.8434998511091262e-03
    -1.0096620601608022e+00 7.8726714993644781e-03
    -9.1690128400050241e-01 8.0080928850316639e-03
    -8.1486195149853446e-01 8.7921938138543747e-03
    -6.1439681290564108e-01 9.9503536849654371e-03
    -4.8795003647426666e-01 1.2504702743322927e-02
    -3.5259654610379310e-01 1.4314692072252238e-02
    -2.9833745256352617e-01 1.7522404386365431e-02
    -2.3629973222959152e-01 1.2274636000901959e-02
    -3.6115755925730764e-01 9.9503536849654371e-03
    -4.8795003647426666e-01 8.6996947479236735e-03
    -6.2926397828130609e-01 8.0800631258742261e-03
    -7.8256188303238594e-01 7.9260109960244476e-03
    -8.6481163247487902e-01 7.8609638300936487e-03
    -9.3481221316041530e-01 7.8562224869666297e-03
    -9.4387980744853883e-01 7.8445879415424812e-03
    -1.0194192887494868e+00 7.8958746702829496e-03
    -1.1228844843604309e+00 7.8464024323357303e-03
    -1.0292744729148096e+00 7.8873799129335394e-03
    -1.1120068074364233e+00 7.8958746702829496e-03
    -1.1228844843604309e+00 7.9376362934116072e-03
    -1.1677484162422844e+00 8.2430408509080472e-03
    -1.3743685418725533e+00 8.3599692564550916e-03
    -1.4348601079588787e+00 8.2705367656811211e-03
    -1.3890923168705287e+00 8.1913389212188905e-03
    -1.3456637064329302e+00 8.2430408509080472e-03
    -1.3743685418725533e+00 8.1216102486513491e-03
    -1.3043384151740305e+00 8.1438430037657512e-03
    -1.3178930553209383e+00 8.1438430037657512e-03
    -1.3178930553209383e+00 8.1438430037657512e-03
    -1.3178930553209383e+00 8.2991686731248918e-03
    -1.4040757000349278e+00 8.1913389212188905e-03
    -1.3456637064329302e+00 8.3599692564550916e-03
    -1.4348601079588787e+00 9.0564748108176597e-03
    -1.7320508075688774e+00 9.0564748108176597e-03
    -1.7320508075688774e+00 8.7921938138543747e-03
    -1.6276126096272245e+00 8.1438430037657512e-03
    -1.3178930553209383e+00 8.0800631258742261e-03
    -1.2778542140655416e+00 7.9633171706661003e-03
    -1.1910519095164536e+00 7.9151818317537929e-03
    -1.1450376024878444e+00 7.9151818317537929e-03
    -1.1450376024878444e+00 7.8464024323357303e-03
    -1.0292744729148096e+00 7.9376362934116072e-03
    -8.5634883857767530e-01 8.2430408509080490e-03
    -7.2760687510899902e-01 9.3769432481323450e-03
    -5.4030127321570265e-01 1.2059452890866757e-02
    -3.6961063547728640e-01 1.4314692072252238e-02
    -2.9833745256352617e-01 1.5159988452742390e-02
    -2.7878344149874829e-01 1.0869056127933079e-02
    -4.2640143271122083e-01 8.9447027811524159e-03
    -5.9215652546379216e-01 8.4967320261437902e-03
    -6.6666666666666663e-01 7.9773957221792157e-03
    -8.3129832826074279e-01 7.8522172751401831e-03
    -9.5302512072554768e-01 7.8434998511091262e-03
    -1.0096620601608022e+00 7.8726714993644781e-03
    -1.0906299483374395e+00 7.9376362934116072e-03
    -1.1677484162422844e+00 7.9260109960244476e-03
    -1.1563211715113551e+00 7.9151818317537929e-03
    -1.1450376024878444e+00 7.9151818317537929e-03
    -1.1450376024878444e+00 8.0422725036405959e-03
    -1.2521586299538494e+00 8.1003573254011339e-03
    -1.2909944487358056e+00 8.0800631258742261e-03
    -1.2778542140655416e+00 8.2166509885505789e-03
    -1.3598952417348733e+00 8.1216102486513491e-03
    -1.3043384151740305e+00 8.1438430037657512e-03
    -1.3178930553209383e+00 8.2166509885505789e-03
    -1.3598952417348733e+00 8.2166509885505789e-03
    -1.3598952417348733e+00 8.2991686731248918e-03
    -1.4040757000349278e+00 8.1670779810922231e-03
    -1.3316656236958786e+00 8.1913389212188905e-03
    -1.3456637064329302e+00 8.5733564766235677e-03
    -1.5345483731956511e+00 8.5343191293767093e-03
    -1.5170983163879990e+00 8.7921938138543747e-03
    -1.6276126096272245e+00 9.1771875840240373e-03
    -1.7776388834631176e+00 8.9995205013518546e-03
    -1.7101252298842886e+00 8.7450747939710333e-03
    -1.6081688022566925e+00 8.4257198414582849e-03
    -1.4668044012461754e+00 8.1670779810922231e-03
    -1.3316656236958786e+00 8.0800631258742261e-03
    -1.2778542140655416e+00 7.8958746702829496e-03
    -1.1228844843604309e+00 7.8445879415424812e-03
    -1.0194192887494868e+00 7.8562224869666297e-03
    -1.0594569267279517e+00 7.8796477271395292e-03
    -9.0805363470930056e-01 8.4257198414582849e-03
    -6.8175415832568709e-01 9.0564748108176597e-03
    -5.7735026918962584e-01 9.6022916416065012e-03
    -5.1796977028281221e-01 1.3016454478746161e-02
    -3.3511112371964275e-01 1.2059452890866757e-02
    -3.6961063547728640e-01 9.7688730383512883e-03
    -5.0300303000356872e-01 8.9995205013518563e-03
    -5.8475249796043427e-01 8.2430408509080490e-03
    -7.2760687510899902e-01 7.8726714993644781e-03
    -9.1690128400050241e-01 7.8445879415424812e-03
    -9.8095063634384583e-01 7.8796477271395292e-03
    -1.1012565357112793e+00 7.9376362934116072e-03
    -1.1677484162422844e+00 7.9633171706661003e-03
    -1.1910519095164536e+00 7.9923164091804458e-03
    -1.2149857925879120e+00 8.0247397326142934e-03
    -1.2395908058120060e+00 7.9923164091804458e-03
    -1.2149857925879120e+00 8.3289682974530144e-03
    -1.4193282754962600e+00 8.4605472936563706e-03
    -1.4832396974191324e+00 8.2991686731248918e-03
    -1.4040757000349278e+00 8.1003573254011339e-03
    -1.2909944487358056e+00 8.1670779810922231e-03
    -1.3316656236958786e+00 8.1438430037657512e-03
    -1.3178930553209383e+00 8.1913389212188905e-03
    -1.3456637064329302e+00 8.1670779810922231e-03
    -1.3316656236958786e+00 8.0607077612135161e-03
    -1.2649110640673518e+00 8.0422725036405959e-03
    -1.2521586299538494e+00 8.2430408509080472e-03
    -1.3743685418725533e+00 8.4605472936563706e-03
    -1.4832396974191324e+00 8.3922071804473190e-03
    -1.4506817748701124e+00 8.9447027811524159e-03
    -1.6887426837300741e+00 8.8411212578929851e-03
    -1.6475089420958273e+00 8.7450747939710333e-03
    -1.6081688022566925e+00 8.8919312127377480e-03
    -1.6678783474277079e+00 8.6559885171986119e-03
    -1.5705625319186327e+00 8.6559885171986119e-03
    -1.5705625319186327e+00 8.3922071804473190e-03
    -1.4506817748701124e+00 8.0800631258742261e-03
    -1.2778542140655416e+00 7.8726714993644781e-03
    -1.0906299483374395e+00 7.8431372549019607e-03 -1.
    7.8434998511091262e-03 -9.9043040187202502e-01
    8.0422725036405941e-03 -7.9862085847450226e-01
    8.6138949220476834e-03 -6.4417853611755627e-01
    9.1771875840240390e-03 -5.6254395046301198e-01
    1.1489678757093559e-02 -3.9440531887330782e-01
    1.2751325793332380e-02 -3.4391796971439736e-01
    9.7688730383512883e-03 -5.0300303000356872e-01
    8.3599692564550899e-03 -6.9693205243716949e-01
    8.0800631258742261e-03 -7.8256188303238594e-01
    7.8464024323357303e-03 -1.0292744729148096e+00
    7.8562224869666297e-03 -1.0594569267279517e+00
    7.9260109960244476e-03 -1.1563211715113551e+00
    8.1003573254011339e-03 -1.2909944487358056e+00
    8.1670779810922231e-03 -1.3316656236958786e+00
    8.0080928850316657e-03 -1.2272017341845403e+00
    8.0607077612135161e-03 -1.2649110640673518e+00
    8.0800631258742261e-03 -1.2778542140655416e+00
    8.2705367656811211e-03 -1.3890923168705287e+00
    8.1913389212188905e-03 -1.3456637064329302e+00
    8.2705367656811211e-03 -1.3890923168705287e+00
    8.1913389212188905e-03 -1.3456637064329302e+00
    8.1913389212188905e-03 -1.3456637064329302e+00
    8.0800631258742261e-03 -1.2778542140655416e+00
    8.2430408509080472e-03 -1.3743685418725533e+00
    8.2705367656811211e-03 -1.3890923168705287e+00
    8.1670779810922231e-03 -1.3316656236958786e+00
    8.1670779810922231e-03 -1.3316656236958786e+00
    8.2991686731248918e-03 -1.4040757000349278e+00
    8.4605472936563706e-03 -1.4832396974191324e+00
    8.6138949220476851e-03 -1.5523646690046033e+00
    8.5733564766235677e-03 -1.5345483731956511e+00
    8.9995205013518546e-03 -1.7101252298842886e+00
    9.0564748108176597e-03 -1.7320508075688774e+00
    8.5343191293767093e-03 -1.5170983163879990e+00
    8.7450747939710333e-03 -1.6081688022566925e+00
    8.6559885171986119e-03 -1.5705625319186327e+00
    8.4967320261437902e-03 -1.5000000000000000e+00
    8.2430408509080472e-03 -1.3743685418725533e+00
    8.0080928850316657e-03 -1.2272017341845403e+00
    7.8726714993644781e-03 -1.0906299483374395e+00
    7.8431372549019607e-03 -1. 7.9051393047681520e-03
    -8.8191710368819698e-01 8.1438430037657512e-03
    -7.5878691063932813e-01 8.9995205013518563e-03
    -5.8475249796043427e-01 1.0733643337382897e-02
    -4.3424811867344748e-01 1.3611796635153705e-02
    -3.1706324373711392e-01 9.3077035915910579e-03
    -5.4772255750516607e-01 8.4257198414582849e-03
    -6.8175415832568709e-01 7.9773957221792157e-03
    -8.3129832826074279e-01 7.8445879415424812e-03
    -9.8095063634384583e-01 7.8726714993644781e-03
    -1.0906299483374395e+00 7.9633171706661003e-03
    -1.1910519095164536e+00 8.2705367656811211e-03
    -1.3890923168705287e+00 8.3922071804473190e-03
    -1.4506817748701124e+00 8.2166509885505789e-03
    -1.3598952417348733e+00 8.3922071804473190e-03
    -1.4506817748701124e+00 8.2705367656811211e-03
    -1.3890923168705287e+00 8.2705367656811211e-03
    -1.3890923168705287e+00 8.3599692564550916e-03
    -1.4348601079588787e+00 8.2166509885505789e-03
    -1.3598952417348733e+00 8.1216102486513491e-03
    -1.3043384151740305e+00 8.1913389212188905e-03
    -1.3456637064329302e+00 8.0247397326142934e-03
    -1.2395908058120060e+00 8.1216102486513491e-03
    -1.3043384151740305e+00 8.1003573254011339e-03
    -1.2909944487358056e+00 8.1438430037657512e-03
    -1.3178930553209383e+00 8.2991686731248918e-03
    -1.4040757000349278e+00 8.2705367656811211e-03
    -1.3890923168705287e+00 8.4967320261437902e-03
    -1.5000000000000000e+00 8.3922071804473190e-03
    -1.4506817748701124e+00 8.3599692564550916e-03
    -1.4348601079588787e+00 8.4605472936563706e-03
    -1.4832396974191324e+00 8.9447027811524159e-03
    -1.6887426837300741e+00 9.1156625602332036e-03
    -1.7545459163410400e+00 9.1156625602332036e-03
    -1.7545459163410400e+00 8.5343191293767093e-03
    -1.5170983163879990e+00 8.3922071804473190e-03
    -1.4506817748701124e+00 8.2705367656811211e-03
    -1.3890923168705287e+00 8.1003573254011339e-03
    -1.2909944487358056e+00 7.9500679945191215e-03
    -1.1793237883215746e+00 7.8664452921850779e-03
    -1.0801234497346435e+00 7.8434998511091262e-03
    -9.9043040187202502e-01 8.1216102486513491e-03
    -7.6667219823206367e-01 8.8919312127377480e-03
    -5.9956411182041780e-01 9.9503536849654371e-03
    -4.8795003647426666e-01 1.2504702743322927e-02
    -3.5259654610379310e-01 9.1771875840240390e-03
    -5.6254395046301198e-01 8.2705367656811194e-03
    -7.1989455837815697e-01 7.9051393047681520e-03
    -8.8191710368819698e-01 7.8522172751401831e-03
    -1.0492902844351988e+00 7.9051393047681520e-03
    -1.1338934190276817e+00 7.9633171706661003e-03
    -1.1910519095164536e+00 8.1670779810922231e-03
    -1.3316656236958786e+00 8.3599692564550916e-03
    -1.4348601079588787e+00 8.3922071804473190e-03
    -1.4506817748701124e+00 8.8411212578929851e-03
    -1.6475089420958273e+00 8.8411212578929851e-03
    -1.6475089420958273e+00 8.5343191293767093e-03
    -1.5170983163879990e+00 8.4967320261437902e-03
    -1.5000000000000000e+00 8.5733564766235677e-03
    -1.5345483731956511e+00 8.3289682974530144e-03
    -1.4193282754962600e+00 8.2705367656811211e-03
    -1.3890923168705287e+00 8.1216102486513491e-03
    -1.3043384151740305e+00 8.0607077612135161e-03
    -1.2649110640673518e+00 8.2166509885505789e-03
    -1.3598952417348733e+00 8.1438430037657512e-03
    -1.3178930553209383e+00 8.1438430037657512e-03
    -1.3178930553209383e+00 8.2991686731248918e-03
    -1.4040757000349278e+00 8.3599692564550916e-03
    -1.4348601079588787e+00 8.3922071804473190e-03
    -1.4506817748701124e+00 8.3922071804473190e-03
    -1.4506817748701124e+00 8.4257198414582849e-03
    -1.4668044012461754e+00 8.6138949220476851e-03
    -1.5523646690046033e+00 9.0564748108176597e-03
    -1.7320508075688774e+00 8.8919312127377480e-03
    -1.6678783474277079e+00 9.0564748108176597e-03
    -1.7320508075688774e+00 8.9995205013518546e-03
    -1.7101252298842886e+00 8.7450747939710333e-03
    -1.6081688022566925e+00 8.4967320261437902e-03
    -1.5000000000000000e+00 8.2430408509080472e-03
    -1.3743685418725533e+00 7.9260109960244476e-03
    -1.1563211715113551e+00 7.8726714993644781e-03
    -1.0906299483374395e+00 7.9633171706661003e-03
    -8.3959396900340177e-01 8.8919312127377480e-03
    -5.9956411182041780e-01 9.6838254925237233e-03
    -5.1049589675732032e-01 1.3016454478746161e-02
    -3.3511112371964275e-01 9.6838254925237233e-03
    -5.1049589675732032e-01 8.2705367656811194e-03
    -7.1989455837815697e-01 7.9773957221792157e-03
    -8.3129832826074279e-01 7.8464024323357320e-03
    -9.7155814733080181e-01 7.8873799129335394e-03
    -1.1120068074364233e+00 8.0607077612135161e-03
    -1.2649110640673518e+00 8.0247397326142934e-03
    -1.2395908058120060e+00 8.3289682974530144e-03
    -1.4193282754962600e+00 8.3289682974530144e-03
    -1.4193282754962600e+00 8.4967320261437902e-03
    -1.5000000000000000e+00 8.9447027811524159e-03
    -1.6887426837300741e+00 8.6559885171986119e-03
    -1.5705625319186327e+00 8.5733564766235677e-03
    -1.5345483731956511e+00 8.5343191293767093e-03
    -1.5170983163879990e+00 8.2991686731248918e-03
    -1.4040757000349278e+00 8.3599692564550916e-03
    -1.4348601079588787e+00 8.2430408509080472e-03
    -1.3743685418725533e+00 8.1003573254011339e-03
    -1.2909944487358056e+00 8.1438430037657512e-03
    -1.3178930553209383e+00 8.2991686731248918e-03
    -1.4040757000349278e+00 8.2430408509080472e-03
    -1.3743685418725533e+00 8.2705367656811211e-03
    -1.3890923168705287e+00 8.2991686731248918e-03
    -1.4040757000349278e+00 8.3599692564550916e-03
    -1.4348601079588787e+00 8.1670779810922231e-03
    -1.3316656236958786e+00 8.3289682974530144e-03
    -1.4193282754962600e+00 8.4257198414582849e-03
    -1.4668044012461754e+00 8.5733564766235677e-03
    -1.5345483731956511e+00 8.6559885171986119e-03
    -1.5705625319186327e+00 8.7921938138543747e-03
    -1.6276126096272245e+00 8.6996947479236735e-03
    -1.5891581824392307e+00 8.9995205013518546e-03
    -1.7101252298842886e+00 8.4967320261437902e-03
    -1.5000000000000000e+00 8.2166509885505789e-03
    -1.3598952417348733e+00 8.0422725036405959e-03
    -1.2521586299538494e+00 7.8562224869666297e-03
    -1.0594569267279517e+00 7.9151818317537946e-03
    -8.7333376460937306e-01 8.6996947479236735e-03
    -6.2926397828130609e-01 9.3077035915910579e-03
    -5.4772255750516607e-01 1.3302376391678038e-02
    -3.2616403652672116e-01 9.6022916416065012e-03
    -5.1796977028281221e-01 8.3599692564550899e-03
    -6.9693205243716949e-01 7.9151818317537946e-03
    -8.7333376460937306e-01 7.8431372549019607e-03 -1.
    7.8796477271395292e-03 -1.1012565357112793e+00
    8.0422725036405959e-03 -1.2521586299538494e+00
    8.2991686731248918e-03 -1.4040757000349278e+00
    8.2430408509080472e-03 -1.3743685418725533e+00
    8.3289682974530144e-03 -1.4193282754962600e+00
    8.6559885171986119e-03 -1.5705625319186327e+00
    8.8411212578929851e-03 -1.6475089420958273e+00
    8.8919312127377480e-03 -1.6678783474277079e+00
    8.4967320261437902e-03 -1.5000000000000000e+00
    8.5343191293767093e-03 -1.5170983163879990e+00
    8.4257198414582849e-03 -1.4668044012461754e+00
    8.2705367656811211e-03 -1.3890923168705287e+00
    8.1670779810922231e-03 -1.3316656236958786e+00
    8.4257198414582849e-03 -1.4668044012461754e+00
    8.3922071804473190e-03 -1.4506817748701124e+00
    8.3599692564550916e-03 -1.4348601079588787e+00
    8.2430408509080472e-03 -1.3743685418725533e+00
    8.2166509885505789e-03 -1.3598952417348733e+00
    8.2705367656811211e-03 -1.3890923168705287e+00
    8.2991686731248918e-03 -1.4040757000349278e+00
    8.2430408509080472e-03 -1.3743685418725533e+00
    8.3922071804473190e-03 -1.4506817748701124e+00
    8.4605472936563706e-03 -1.4832396974191324e+00
    8.4967320261437902e-03 -1.5000000000000000e+00
    9.1771875840240373e-03 -1.7776388834631176e+00
    8.7921938138543747e-03 -1.6276126096272245e+00
    8.5343191293767093e-03 -1.5170983163879990e+00
    8.5343191293767093e-03 -1.5170983163879990e+00
    8.2430408509080472e-03 -1.3743685418725533e+00
    8.0080928850316657e-03 -1.2272017341845403e+00
    8.1003573254011339e-03 -1.2909944487358056e+00
    7.8873799129335394e-03 -1.1120068074364233e+00
    7.9260109960244476e-03 -8.6481163247487902e-01
    8.8411212578929886e-03 -6.0697697866688405e-01
    9.7688730383512883e-03 -5.0300303000356872e-01
    1.3016454478746161e-02 -3.3511112371964275e-01
    9.3077035915910579e-03 -5.4772255750516607e-01
    8.2166509885505806e-03 -7.3535076034552427e-01
    7.8522172751401831e-03 -9.5302512072554768e-01
    7.8445879415424812e-03 -9.8095063634384583e-01
    7.8522172751401831e-03 -1.0492902844351988e+00
    7.9923164091804458e-03 -1.2149857925879120e+00
    8.1438430037657512e-03 -1.3178930553209383e+00
    8.4605472936563706e-03 -1.4832396974191324e+00
    8.2705367656811211e-03 -1.3890923168705287e+00
    8.7921938138543747e-03 -1.6276126096272245e+00
    8.8919312127377480e-03 -1.6678783474277079e+00
    8.4257198414582849e-03 -1.4668044012461754e+00
    8.4967320261437902e-03 -1.5000000000000000e+00
    8.5733564766235677e-03 -1.5345483731956511e+00
    8.3289682974530144e-03 -1.4193282754962600e+00
    8.3289682974530144e-03 -1.4193282754962600e+00
    8.2991686731248918e-03 -1.4040757000349278e+00
    8.3599692564550916e-03 -1.4348601079588787e+00
    8.6996947479236735e-03 -1.5891581824392307e+00
    8.7921938138543747e-03 -1.6276126096272245e+00
    8.2705367656811211e-03 -1.3890923168705287e+00
    8.0800631258742261e-03 -1.2778542140655416e+00
    8.3599692564550916e-03 -1.4348601079588787e+00
    8.3289682974530144e-03 -1.4193282754962600e+00
    8.4605472936563706e-03 -1.4832396974191324e+00
    8.4605472936563706e-03 -1.4832396974191324e+00
    8.6138949220476851e-03 -1.5523646690046033e+00
    8.5343191293767093e-03 -1.5170983163879990e+00
    8.6559885171986119e-03 -1.5705625319186327e+00
    8.7450747939710333e-03 -1.6081688022566925e+00
    8.4257198414582849e-03 -1.4668044012461754e+00
    8.3289682974530144e-03 -1.4193282754962600e+00
    8.2991686731248918e-03 -1.4040757000349278e+00
    8.1003573254011339e-03 -1.2909944487358056e+00
    7.9260109960244476e-03 -1.1563211715113551e+00
    7.8796477271395292e-03 -1.1012565357112793e+00
    7.8873799129335394e-03 -8.9927507036162935e-01
    8.8919312127377480e-03 -5.9956411182041780e-01
    9.8576408370293373e-03 -4.9548862957279677e-01
    1.2274636000901959e-02 -3.6115755925730764e-01
    9.3769432481323450e-03 -5.4030127321570265e-01
    8.1438430037657512e-03 -7.5878691063932813e-01
    7.9376362934116072e-03 -8.5634883857767530e-01
    7.8445879415424812e-03 -1.0194192887494868e+00
    7.9151818317537929e-03 -1.1450376024878444e+00
    7.9500679945191215e-03 -1.1793237883215746e+00
    8.0247397326142934e-03 -1.2395908058120060e+00
    8.1670779810922231e-03 -1.3316656236958786e+00
    8.3289682974530144e-03 -1.4193282754962600e+00
    8.2705367656811211e-03 -1.3890923168705287e+00
    8.3289682974530144e-03 -1.4193282754962600e+00
    8.4257198414582849e-03 -1.4668044012461754e+00
    8.5733564766235677e-03 -1.5345483731956511e+00
    8.4967320261437902e-03 -1.5000000000000000e+00
    8.2430408509080472e-03 -1.3743685418725533e+00
    8.1913389212188905e-03 -1.3456637064329302e+00
    8.2430408509080472e-03 -1.3743685418725533e+00
    8.2705367656811211e-03 -1.3890923168705287e+00
    8.3922071804473190e-03 -1.4506817748701124e+00
    8.6138949220476851e-03 -1.5523646690046033e+00
    8.4257198414582849e-03 -1.4668044012461754e+00
    8.0422725036405959e-03 -1.2521586299538494e+00
    8.2430408509080472e-03 -1.3743685418725533e+00
    8.1003573254011339e-03 -1.2909944487358056e+00
    8.3599692564550916e-03 -1.4348601079588787e+00
    8.2430408509080472e-03 -1.3743685418725533e+00
    8.2705367656811211e-03 -1.3890923168705287e+00
    8.3289682974530144e-03 -1.4193282754962600e+00
    8.2991686731248918e-03 -1.4040757000349278e+00
    8.3922071804473190e-03 -1.4506817748701124e+00
    8.1438430037657512e-03 -1.3178930553209383e+00
    8.0247397326142934e-03 -1.2395908058120060e+00
    7.9773957221792140e-03 -1.2029375808949569e+00
    7.8464024323357303e-03 -1.0292744729148096e+00
    7.8445879415424812e-03 -1.0194192887494868e+00
    7.8464024323357320e-03 -9.7155814733080181e-01
    7.9773957221792157e-03 -8.3129832826074279e-01
    8.4605472936563706e-03 -6.7419986246324204e-01
    9.8576408370293373e-03 -4.9548862957279677e-01
    1.2504702743322927e-02 -3.5259654610379310e-01
    9.4490191991005567e-03 -5.3287016925696884e-01
    8.3289682974530162e-03 -7.0455864035425875e-01
    7.9376362934116072e-03 -8.5634883857767530e-01
    7.8522172751401831e-03 -9.5302512072554768e-01
    7.8609638300936487e-03 -1.0697335635134650e+00
    7.9773957221792140e-03 -1.2029375808949569e+00
    7.9923164091804458e-03 -1.2149857925879120e+00
    8.1670779810922231e-03 -1.3316656236958786e+00
    8.1913389212188905e-03 -1.3456637064329302e+00
    8.2705367656811211e-03 -1.3890923168705287e+00
    8.3289682974530144e-03 -1.4193282754962600e+00
    8.5343191293767093e-03 -1.5170983163879990e+00
    8.1670779810922231e-03 -1.3316656236958786e+00
    8.5733564766235677e-03 -1.5345483731956511e+00
    8.3599692564550916e-03 -1.4348601079588787e+00
    8.3599692564550916e-03 -1.4348601079588787e+00
    8.2166509885505789e-03 -1.3598952417348733e+00
    8.1670779810922231e-03 -1.3316656236958786e+00
    8.2430408509080472e-03 -1.3743685418725533e+00
    8.2430408509080472e-03 -1.3743685418725533e+00
    8.1216102486513491e-03 -1.3043384151740305e+00
    8.2991686731248918e-03 -1.4040757000349278e+00
    8.1913389212188905e-03 -1.3456637064329302e+00
    8.1216102486513491e-03 -1.3043384151740305e+00
    8.2705367656811211e-03 -1.3890923168705287e+00
    8.3289682974530144e-03 -1.4193282754962600e+00
    8.2166509885505789e-03 -1.3598952417348733e+00
    8.3289682974530144e-03 -1.4193282754962600e+00
    8.1670779810922231e-03 -1.3316656236958786e+00
    7.9633171706661003e-03 -1.1910519095164536e+00
    7.9923164091804458e-03 -1.2149857925879120e+00
    7.9773957221792140e-03 -1.2029375808949569e+00
    7.9773957221792140e-03 -1.2029375808949569e+00
    7.8609638300936487e-03 -1.0697335635134650e+00
    7.8464024323357303e-03 -1.0292744729148096e+00
    7.8464024323357320e-03 -9.7155814733080181e-01
    8.0247397326142951e-03 -8.0671782600463904e-01
    8.4257198414582849e-03 -6.8175415832568709e-01
    9.5240813316107339e-03 -5.2542708307804409e-01
    1.5159988452742390e-02 -2.7878344149874829e-01
    1.0047256709338800e-02 -4.8038446141526142e-01
    8.6559885171986119e-03 -6.3671453996701333e-01
    7.9633171706661003e-03 -8.3959396900340177e-01
    7.8873799129335394e-03 -8.9927507036162935e-01
    7.8522172751401831e-03 -1.0492902844351988e+00
    7.8796477271395292e-03 -1.1012565357112793e+00
    8.0607077612135161e-03 -1.2649110640673518e+00
    8.1438430037657512e-03 -1.3178930553209383e+00
    8.2705367656811211e-03 -1.3890923168705287e+00
    8.1438430037657512e-03 -1.3178930553209383e+00
    8.2991686731248918e-03 -1.4040757000349278e+00
    8.3599692564550916e-03 -1.4348601079588787e+00
    8.4257198414582849e-03 -1.4668044012461754e+00
    8.2991686731248918e-03 -1.4040757000349278e+00
    8.3599692564550916e-03 -1.4348601079588787e+00
    8.2705367656811211e-03 -1.3890923168705287e+00
    8.2705367656811211e-03 -1.3890923168705287e+00
    8.2991686731248918e-03 -1.4040757000349278e+00
    8.2166509885505789e-03 -1.3598952417348733e+00
    8.3289682974530144e-03 -1.4193282754962600e+00
    8.1913389212188905e-03 -1.3456637064329302e+00
    8.1670779810922231e-03 -1.3316656236958786e+00
    8.2430408509080472e-03 -1.3743685418725533e+00
    8.2991686731248918e-03 -1.4040757000349278e+00
    8.2166509885505789e-03 -1.3598952417348733e+00
    8.2991686731248918e-03 -1.4040757000349278e+00
    8.3922071804473190e-03 -1.4506817748701124e+00
    8.1670779810922231e-03 -1.3316656236958786e+00
    8.1438430037657512e-03 -1.3178930553209383e+00
    8.1438430037657512e-03 -1.3178930553209383e+00
    7.9260109960244476e-03 -1.1563211715113551e+00
    7.9500679945191215e-03 -1.1793237883215746e+00
    7.9376362934116072e-03 -1.1677484162422844e+00
    7.8562224869666297e-03 -1.0594569267279517e+00
    7.8445879415424812e-03 -9.8095063634384583e-01
    7.8562224869666297e-03 -9.4387980744853883e-01
    8.1438430037657512e-03 -7.5878691063932813e-01
    8.6559885171986119e-03 -6.3671453996701333e-01
    1.0148617762062296e-02 -4.7278897170376749e-01
    1.8331185802922138e-02 -2.2473328748774737e-01
    9.9503536849654371e-03 -4.8795003647426666e-01
    8.6138949220476834e-03 -6.4417853611755627e-01
    8.2705367656811194e-03 -7.1989455837815697e-01
    7.9151818317537946e-03 -8.7333376460937306e-01
    7.8489448360419718e-03 -1.0392304845413265e+00
    7.9151818317537929e-03 -1.1450376024878444e+00
    8.0247397326142934e-03 -1.2395908058120060e+00
    7.9923164091804458e-03 -1.2149857925879120e+00
    8.1913389212188905e-03 -1.3456637064329302e+00
    8.1003573254011339e-03 -1.2909944487358056e+00
    8.2166509885505789e-03 -1.3598952417348733e+00
    8.2705367656811211e-03 -1.3890923168705287e+00
    8.3289682974530144e-03 -1.4193282754962600e+00
    8.4967320261437902e-03 -1.5000000000000000e+00
    8.7450747939710333e-03 -1.6081688022566925e+00
    8.3599692564550916e-03 -1.4348601079588787e+00
    8.4967320261437902e-03 -1.5000000000000000e+00
    8.3289682974530144e-03 -1.4193282754962600e+00
    8.2166509885505789e-03 -1.3598952417348733e+00
    8.3599692564550916e-03 -1.4348601079588787e+00
    8.2991686731248918e-03 -1.4040757000349278e+00
    8.3599692564550916e-03 -1.4348601079588787e+00
    8.1913389212188905e-03 -1.3456637064329302e+00
    8.2166509885505789e-03 -1.3598952417348733e+00
    8.0800631258742261e-03 -1.2778542140655416e+00
    8.4605472936563706e-03 -1.4832396974191324e+00
    8.4605472936563706e-03 -1.4832396974191324e+00
    8.0247397326142934e-03 -1.2395908058120060e+00
    8.0247397326142934e-03 -1.2395908058120060e+00
    7.9376362934116072e-03 -1.1677484162422844e+00
    7.9376362934116072e-03 -1.1677484162422844e+00
    7.9923164091804458e-03 -1.2149857925879120e+00
    7.9260109960244476e-03 -1.1563211715113551e+00
    7.8464024323357303e-03 -1.0292744729148096e+00
    7.8522172751401831e-03 -1.0492902844351988e+00
    7.8664452921850779e-03 -9.2582009977255153e-01
    8.0422725036405941e-03 -7.9862085847450226e-01
    8.5733564766235677e-03 -6.5165752834335866e-01
    1.0148617762062296e-02 -4.7278897170376749e-01
    1.7522404386365431e-02 -2.3629973222959152e-01
    1.1489678757093559e-02 -3.9440531887330782e-01
    9.1156625602332036e-03 -5.6994803651842696e-01
    8.5733564766235677e-03 -6.5165752834335866e-01
    8.0422725036405941e-03 -7.9862085847450226e-01
    7.8958746702829496e-03 -8.9056355656172115e-01
    7.9151818317537929e-03 -1.1450376024878444e+00
    8.0080928850316657e-03 -1.2272017341845403e+00
    8.1670779810922231e-03 -1.3316656236958786e+00
    8.0422725036405959e-03 -1.2521586299538494e+00
    8.3599692564550916e-03 -1.4348601079588787e+00
    8.5343191293767093e-03 -1.5170983163879990e+00
    8.7921938138543747e-03 -1.6276126096272245e+00
    8.4605472936563706e-03 -1.4832396974191324e+00
    8.3922071804473190e-03 -1.4506817748701124e+00
    8.3922071804473190e-03 -1.4506817748701124e+00
    8.5343191293767093e-03 -1.5170983163879990e+00
    8.4257198414582849e-03 -1.4668044012461754e+00
    8.4967320261437902e-03 -1.5000000000000000e+00
    8.2991686731248918e-03 -1.4040757000349278e+00
    8.1438430037657512e-03 -1.3178930553209383e+00
    8.1670779810922231e-03 -1.3316656236958786e+00
    8.3599692564550916e-03 -1.4348601079588787e+00
    8.1003573254011339e-03 -1.2909944487358056e+00
    8.1216102486513491e-03 -1.3043384151740305e+00
    8.1670779810922231e-03 -1.3316656236958786e+00
    8.0607077612135161e-03 -1.2649110640673518e+00
    8.0800631258742261e-03 -1.2778542140655416e+00
    8.1003573254011339e-03 -1.2909944487358056e+00
    8.1216102486513491e-03 -1.3043384151740305e+00
    8.0080928850316657e-03 -1.2272017341845403e+00
    7.9773957221792140e-03 -1.2029375808949569e+00
    8.0080928850316657e-03 -1.2272017341845403e+00
    7.9633171706661003e-03 -1.1910519095164536e+00
    7.8873799129335394e-03 -1.1120068074364233e+00
    7.8434998511091262e-03 -9.9043040187202502e-01
    7.8958746702829496e-03 -8.9056355656172115e-01
    8.1216102486513491e-03 -7.6667219823206367e-01
    8.8919312127377480e-03 -5.9956411182041780e-01
    1.0047256709338800e-02 -4.8038446141526142e-01
    1.8331185802922138e-02 -2.2473328748774737e-01
    1.2274636000901959e-02 -3.6115755925730764e-01
    9.5240813316107339e-03 -5.2542708307804409e-01
    8.4605472936563706e-03 -6.7419986246324204e-01
    7.9633171706661003e-03 -8.3959396900340177e-01
    7.8796477271395292e-03 -9.0805363470930056e-01
    7.8464024323357320e-03 -9.7155814733080181e-01
    7.8873799129335394e-03 -1.1120068074364233e+00
    7.9376362934116072e-03 -1.1677484162422844e+00
    8.1216102486513491e-03 -1.3043384151740305e+00
    8.0607077612135161e-03 -1.2649110640673518e+00
    8.2705367656811211e-03 -1.3890923168705287e+00
    8.4605472936563706e-03 -1.4832396974191324e+00
    8.3599692564550916e-03 -1.4348601079588787e+00
    8.6559885171986119e-03 -1.5705625319186327e+00
    8.5733564766235677e-03 -1.5345483731956511e+00
    8.2166509885505789e-03 -1.3598952417348733e+00
    8.3599692564550916e-03 -1.4348601079588787e+00
    8.3599692564550916e-03 -1.4348601079588787e+00
    8.4257198414582849e-03 -1.4668044012461754e+00
    8.3289682974530144e-03 -1.4193282754962600e+00
    8.2705367656811211e-03 -1.3890923168705287e+00
    8.2705367656811211e-03 -1.3890923168705287e+00
    8.2430408509080472e-03 -1.3743685418725533e+00
    8.1216102486513491e-03 -1.3043384151740305e+00
    8.1670779810922231e-03 -1.3316656236958786e+00
    8.0800631258742261e-03 -1.2778542140655416e+00
    8.2991686731248918e-03 -1.4040757000349278e+00
    8.2991686731248918e-03 -1.4040757000349278e+00
    8.0800631258742261e-03 -1.2778542140655416e+00
    8.0080928850316657e-03 -1.2272017341845403e+00
    8.0080928850316657e-03 -1.2272017341845403e+00
    7.9260109960244476e-03 -1.1563211715113551e+00
    7.8489448360419718e-03 -1.0392304845413265e+00
    7.8522172751401831e-03 -1.0492902844351988e+00
    7.8664452921850779e-03 -9.2582009977255153e-01
    7.9151818317537946e-03 -8.7333376460937306e-01
    8.3922071804473190e-03 -6.8933105614395407e-01
    9.0564748108176597e-03 -5.7735026918962584e-01
    1.0604960905726227e-02 -4.4204332236849225e-01
    1.4716771567578694e-02 -2.8867513459481287e-01
    1.2059452890866757e-02 -3.6961063547728640e-01
    9.6838254925237233e-03 -5.1049589675732032e-01
    9.0564748108176597e-03 -5.7735026918962584e-01
    8.0800631258742261e-03 -7.8256188303238594e-01
    7.9773957221792157e-03 -8.3129832826074279e-01
    7.8609638300936487e-03 -9.3481221316041530e-01
    7.8445879415424812e-03 -1.0194192887494868e+00
    7.9376362934116072e-03 -1.1677484162422844e+00
    7.9773957221792140e-03 -1.2029375808949569e+00
    8.0800631258742261e-03 -1.2778542140655416e+00
    8.0607077612135161e-03 -1.2649110640673518e+00
    8.0247397326142934e-03 -1.2395908058120060e+00
    8.1003573254011339e-03 -1.2909944487358056e+00
    8.3599692564550916e-03 -1.4348601079588787e+00
    8.1913389212188905e-03 -1.3456637064329302e+00
    8.1670779810922231e-03 -1.3316656236958786e+00
    8.1438430037657512e-03 -1.3178930553209383e+00
    8.2705367656811211e-03 -1.3890923168705287e+00
    8.0800631258742261e-03 -1.2778542140655416e+00
    8.1913389212188905e-03 -1.3456637064329302e+00
    8.2705367656811211e-03 -1.3890923168705287e+00
    8.1670779810922231e-03 -1.3316656236958786e+00
    8.2166509885505789e-03 -1.3598952417348733e+00
    8.2166509885505789e-03 -1.3598952417348733e+00
    8.2705367656811211e-03 -1.3890923168705287e+00
    8.2705367656811211e-03 -1.3890923168705287e+00
    8.1003573254011339e-03 -1.2909944487358056e+00
    7.9923164091804458e-03 -1.2149857925879120e+00
    8.0607077612135161e-03 -1.2649110640673518e+00
    8.0800631258742261e-03 -1.2778542140655416e+00
    8.0080928850316657e-03 -1.2272017341845403e+00
    7.9500679945191215e-03 -1.1793237883215746e+00
    7.8522172751401831e-03 -1.0492902844351988e+00
    7.8464024323357320e-03 -9.7155814733080181e-01
    7.9051393047681520e-03 -8.8191710368819698e-01
    8.0800631258742261e-03 -7.8256188303238594e-01
    8.8919312127377480e-03 -5.9956411182041780e-01
    9.4490191991005567e-03 -5.3287016925696884e-01
    1.2504702743322927e-02 -3.5259654610379310e-01
    1.3611796635153705e-02 -3.1706324373711392e-01
    1.2059452890866757e-02 -3.6961063547728640e-01
    9.9503536849654371e-03 -4.8795003647426666e-01
    9.2411613349789347e-03 -5.5513611000270091e-01
    8.4605472936563706e-03 -6.7419986246324204e-01
    8.0422725036405941e-03 -7.9862085847450226e-01
    7.8562224869666297e-03 -9.4387980744853883e-01
    7.8434998511091262e-03 -9.9043040187202502e-01
    7.8796477271395292e-03 -1.1012565357112793e+00
    7.9260109960244476e-03 -1.1563211715113551e+00
    7.8958746702829496e-03 -1.1228844843604309e+00
    8.0422725036405959e-03 -1.2521586299538494e+00
    8.2705367656811211e-03 -1.3890923168705287e+00
    8.2991686731248918e-03 -1.4040757000349278e+00
    8.3599692564550916e-03 -1.4348601079588787e+00
    8.3922071804473190e-03 -1.4506817748701124e+00
    8.1438430037657512e-03 -1.3178930553209383e+00
    8.1003573254011339e-03 -1.2909944487358056e+00
    8.2991686731248918e-03 -1.4040757000349278e+00
    8.1670779810922231e-03 -1.3316656236958786e+00
    8.2166509885505789e-03 -1.3598952417348733e+00
    8.1670779810922231e-03 -1.3316656236958786e+00
    8.2705367656811211e-03 -1.3890923168705287e+00
    8.1670779810922231e-03 -1.3316656236958786e+00
    8.3922071804473190e-03 -1.4506817748701124e+00
    8.3922071804473190e-03 -1.4506817748701124e+00
    8.1438430037657512e-03 -1.3178930553209383e+00
    8.1438430037657512e-03 -1.3178930553209383e+00
    8.1670779810922231e-03 -1.3316656236958786e+00
    7.9923164091804458e-03 -1.2149857925879120e+00
    8.0607077612135161e-03 -1.2649110640673518e+00
    7.9773957221792140e-03 -1.2029375808949569e+00
    7.8609638300936487e-03 -1.0697335635134650e+00
    7.8431372549019607e-03 -1. 7.8873799129335394e-03
    -8.9927507036162935e-01 8.0607077612135179e-03
    -7.9056941504209499e-01 8.2705367656811194e-03
    -7.1989455837815697e-01 8.6559885171986119e-03
    -6.3671453996701333e-01 9.4490191991005567e-03
    -5.3287016925696884e-01 1.2751325793332380e-02
    -3.4391796971439736e-01 1.8331185802922138e-02
    -2.2473328748774737e-01 1.3016454478746161e-02
    -3.3511112371964275e-01 1.0047256709338800e-02
    -4.8038446141526142e-01 9.2411613349789347e-03
    -5.5513611000270091e-01 8.7921938138543747e-03
    -6.1439681290564108e-01 8.2166509885505806e-03
    -7.3535076034552427e-01 7.8873799129335394e-03
    -8.9927507036162935e-01 7.8434998511091262e-03
    -9.9043040187202502e-01 7.8489448360419718e-03
    -1.0392304845413265e+00 7.8664452921850779e-03
    -1.0801234497346435e+00 7.9923164091804458e-03
    -1.2149857925879120e+00 8.0247397326142934e-03
    -1.2395908058120060e+00 8.1003573254011339e-03
    -1.2909944487358056e+00 8.3922071804473190e-03
    -1.4506817748701124e+00 8.0607077612135161e-03
    -1.2649110640673518e+00 8.2705367656811211e-03
    -1.3890923168705287e+00 8.2166509885505789e-03
    -1.3598952417348733e+00 8.0607077612135161e-03
    -1.2649110640673518e+00 8.0800631258742261e-03
    -1.2778542140655416e+00 8.1003573254011339e-03
    -1.2909944487358056e+00 7.9500679945191215e-03
    -1.1793237883215746e+00 8.1216102486513491e-03
    -1.3043384151740305e+00 8.1438430037657512e-03
    -1.3178930553209383e+00 8.2166509885505789e-03
    -1.3598952417348733e+00 8.1003573254011339e-03
    -1.2909944487358056e+00 8.1003573254011339e-03
    -1.2909944487358056e+00 7.9773957221792140e-03
    -1.2029375808949569e+00 8.0607077612135161e-03
    -1.2649110640673518e+00 7.9260109960244476e-03
    -1.1563211715113551e+00 7.8873799129335394e-03
    -1.1120068074364233e+00 7.8873799129335394e-03
    -1.1120068074364233e+00 7.8431372549019607e-03 -1.
    7.8434998511091262e-03 -9.9043040187202502e-01
    7.8958746702829496e-03 -8.9056355656172115e-01
    8.0607077612135179e-03 -7.9056941504209499e-01
    8.1670779810922231e-03 -7.5093926148263834e-01
    8.3922071804473190e-03 -6.8933105614395407e-01
    8.6559885171986119e-03 -6.3671453996701333e-01
    1.0148617762062296e-02 -4.7278897170376749e-01
    1.2751325793332380e-02 -3.4391796971439736e-01
    1.5651583111989602e-02 -2.6863534475866768e-01
    1.2751325793332380e-02 -3.4391796971439736e-01
    1.1321334965217689e-02 -4.0250611571050388e-01
    9.5240813316107339e-03 -5.2542708307804409e-01
    8.7921938138543747e-03 -6.1439681290564108e-01
    8.4605472936563706e-03 -6.7419986246324204e-01
    8.2705367656811194e-03 -7.1989455837815697e-01
    7.9376362934116072e-03 -8.5634883857767530e-01
    7.9151818317537946e-03 -8.7333376460937306e-01
    7.8562224869666297e-03 -1.0594569267279517e+00
    7.8796477271395292e-03 -1.1012565357112793e+00
    7.8464024323357303e-03 -1.0292744729148096e+00
    7.8958746702829496e-03 -1.1228844843604309e+00
    8.0247397326142934e-03 -1.2395908058120060e+00
    8.2991686731248918e-03 -1.4040757000349278e+00
    8.2705367656811211e-03 -1.3890923168705287e+00
    8.2991686731248918e-03 -1.4040757000349278e+00
    8.1913389212188905e-03 -1.3456637064329302e+00
    8.0422725036405959e-03 -1.2521586299538494e+00
    7.9260109960244476e-03 -1.1563211715113551e+00
    7.9500679945191215e-03 -1.1793237883215746e+00
    8.0800631258742261e-03 -1.2778542140655416e+00
    7.9923164091804458e-03 -1.2149857925879120e+00
    7.9500679945191215e-03 -1.1793237883215746e+00
    7.9151818317537929e-03 -1.1450376024878444e+00
    7.9923164091804458e-03 -1.2149857925879120e+00
    7.9773957221792140e-03 -1.2029375808949569e+00
    7.8609638300936487e-03 -1.0697335635134650e+00
    7.8873799129335394e-03 -1.1120068074364233e+00
    7.8489448360419718e-03 -1.0392304845413265e+00
    7.9773957221792140e-03 -1.2029375808949569e+00
    7.8434998511091262e-03 -1.0096620601608022e+00
    7.8489448360419701e-03 -9.6225044864937614e-01
    7.9051393047681520e-03 -8.8191710368819698e-01
    8.0607077612135179e-03 -7.9056941504209499e-01
    8.3599692564550899e-03 -6.9693205243716949e-01
    8.5733564766235677e-03 -6.5165752834335866e-01
    9.3769432481323450e-03 -5.4030127321570265e-01
    1.1162270069884947e-02 -4.1053541362798002e-01
    1.4716771567578694e-02 -2.8867513459481287e-01
    1.8331185802922138e-02 -2.2473328748774737e-01
    1.3302376391678038e-02 -3.2616403652672116e-01
    1.1857708957152227e-02 -3.7796447300922725e-01
    1.0148617762062296e-02 -4.7278897170376749e-01
    9.1156625602332036e-03 -5.6994803651842696e-01
    8.8919312127377480e-03 -5.9956411182041780e-01
    8.5733564766235677e-03 -6.5165752834335866e-01
    8.3922071804473190e-03 -6.8933105614395407e-01
    8.0080928850316639e-03 -8.1486195149853446e-01
    7.8958746702829496e-03 -8.9056355656172115e-01
    7.8726714993644781e-03 -9.1690128400050241e-01
    7.9051393047681520e-03 -8.8191710368819698e-01
    7.8464024323357303e-03 -1.0292744729148096e+00
    7.8489448360419718e-03 -1.0392304845413265e+00
    7.9260109960244476e-03 -1.1563211715113551e+00
    8.2430408509080472e-03 -1.3743685418725533e+00
    8.2705367656811211e-03 -1.3890923168705287e+00
    8.1216102486513491e-03 -1.3043384151740305e+00
    7.9923164091804458e-03 -1.2149857925879120e+00
    8.0422725036405959e-03 -1.2521586299538494e+00
    7.9773957221792140e-03 -1.2029375808949569e+00
    7.9773957221792140e-03 -1.2029375808949569e+00
    8.0422725036405959e-03 -1.2521586299538494e+00
    7.9151818317537929e-03 -1.1450376024878444e+00
    7.8562224869666297e-03 -1.0594569267279517e+00
    7.9151818317537929e-03 -1.1450376024878444e+00
    7.8796477271395292e-03 -1.1012565357112793e+00
    7.8796477271395292e-03 -1.1012565357112793e+00
    7.8609638300936487e-03 -1.0697335635134650e+00
    7.8664452921850779e-03 -1.0801234497346435e+00
    7.8489448360419718e-03 -1.0392304845413265e+00
    7.8562224869666297e-03 -9.4387980744853883e-01
    7.8873799129335394e-03 -8.9927507036162935e-01
    8.0247397326142951e-03 -8.0671782600463904e-01
    8.1438430037657512e-03 -7.5878691063932813e-01
    8.6559885171986119e-03 -6.3671453996701333e-01
    9.5240813316107339e-03 -5.2542708307804409e-01
    1.0148617762062296e-02 -4.7278897170376749e-01
    1.3016454478746161e-02 -3.3511112371964275e-01
    1.5159988452742390e-02 -2.7878344149874829e-01
    1.8331185802922138e-02 -2.2473328748774737e-01
    1.4314692072252238e-02 -2.9833745256352617e-01
    1.2059452890866757e-02 -3.6961063547728640e-01
    9.6838254925237233e-03 -5.1049589675732032e-01
    9.3077035915910579e-03 -5.4772255750516607e-01
    9.1771875840240390e-03 -5.6254395046301198e-01
    8.7450747939710333e-03 -6.2182527020592104e-01
    8.7921938138543747e-03 -6.1439681290564108e-01
    8.1670779810922231e-03 -7.5093926148263834e-01
    8.0080928850316639e-03 -8.1486195149853446e-01
    8.0080928850316639e-03 -8.1486195149853446e-01
    7.9151818317537946e-03 -8.7333376460937306e-01
    7.9051393047681520e-03 -8.8191710368819698e-01
    7.8489448360419701e-03 -9.6225044864937614e-01
    7.8489448360419718e-03 -1.0392304845413265e+00
    7.8562224869666297e-03 -1.0594569267279517e+00
    7.8609638300936487e-03 -1.0697335635134650e+00
    7.8434998511091262e-03 -1.0096620601608022e+00
    7.8522172751401831e-03 -1.0492902844351988e+00
    7.9051393047681520e-03 -1.1338934190276817e+00
    7.9260109960244476e-03 -1.1563211715113551e+00
    7.9500679945191215e-03 -1.1793237883215746e+00
    7.9633171706661003e-03 -1.1910519095164536e+00
    7.9376362934116072e-03 -1.1677484162422844e+00
    7.8522172751401831e-03 -1.0492902844351988e+00
    7.8464024323357320e-03 -9.7155814733080181e-01
    7.8489448360419701e-03 -9.6225044864937614e-01
    7.8522172751401831e-03 -1.0492902844351988e+00
    7.8489448360419701e-03 -9.6225044864937614e-01
    7.8489448360419701e-03 -9.6225044864937614e-01
    7.8958746702829496e-03 -8.9056355656172115e-01
    7.9923164091804440e-03 -8.2305489175310143e-01
    8.2166509885505806e-03 -7.3535076034552427e-01
    8.2430408509080490e-03 -7.2760687510899902e-01
    8.4605472936563706e-03 -6.7419986246324204e-01
    9.1771875840240390e-03 -5.6254395046301198e-01
    9.5240813316107339e-03 -5.2542708307804409e-01
    1.1162270069884947e-02 -4.1053541362798002e-01
    1.3611796635153705e-02 -3.1706324373711392e-01
    1.6819167505804224e-02 -2.4743582965269675e-01
    1.9274155639442334e-02 -2.1266436150250076e-01
    1.6200714650802268e-02 -2.5819888974716115e-01
    1.1857708957152227e-02 -3.7796447300922725e-01
    1.0148617762062296e-02 -4.7278897170376749e-01
    9.6022916416065012e-03 -5.1796977028281221e-01
    9.4490191991005567e-03 -5.3287016925696884e-01
    9.1771875840240390e-03 -5.6254395046301198e-01
    8.9447027811524159e-03 -5.9215652546379216e-01
    8.5733564766235677e-03 -6.5165752834335866e-01
    8.4967320261437902e-03 -6.6666666666666663e-01
    8.1670779810922231e-03 -7.5093926148263834e-01
    8.0422725036405941e-03 -7.9862085847450226e-01
    7.9260109960244476e-03 -8.6481163247487902e-01
    7.8796477271395292e-03 -9.0805363470930056e-01
    7.9376362934116072e-03 -8.5634883857767530e-01
    7.9500679945191197e-03 -8.4794355028080126e-01
    7.8431372549019607e-03 -1. 7.8522172751401831e-03
    -9.5302512072554768e-01 7.8434998511091262e-03
    -1.0096620601608022e+00 7.8445879415424812e-03
    -1.0194192887494868e+00 7.8464024323357303e-03
    -1.0292744729148096e+00 7.8873799129335394e-03
    -1.1120068074364233e+00 7.9260109960244476e-03
    -1.1563211715113551e+00 7.8522172751401831e-03
    -1.0492902844351988e+00 7.8489448360419718e-03
    -1.0392304845413265e+00 7.8489448360419718e-03
    -1.0392304845413265e+00 7.8445879415424812e-03
    -9.8095063634384583e-01 7.8434998511091262e-03
    -9.9043040187202502e-01 7.8958746702829496e-03
    -8.9056355656172115e-01 8.0080928850316639e-03
    -8.1486195149853446e-01 8.2430408509080490e-03
    -7.2760687510899902e-01 8.2705367656811194e-03
    -7.1989455837815697e-01 8.3289682974530162e-03
    -7.0455864035425875e-01 8.4967320261437902e-03
    -6.6666666666666663e-01 8.9995205013518563e-03
    -5.8475249796043427e-01 9.3769432481323450e-03
    -5.4030127321570265e-01 9.7688730383512883e-03
    -5.0300303000356872e-01 1.1668149501693845e-02
    -3.8622696788058714e-01 1.4314692072252238e-02
    -2.9833745256352617e-01 1.6200714650802268e-02
    -2.5819888974716115e-01 2.3429976047305220e-02
    -1.7234549688642783e-01 1.8331185802922138e-02
    -2.2473328748774737e-01 1.3016454478746161e-02
    -3.3511112371964275e-01 1.1668149501693845e-02
    -3.8622696788058714e-01 1.0733643337382897e-02
    -4.3424811867344748e-01 9.9503536849654371e-03
    -4.8795003647426666e-01 9.6838254925237233e-03
    -5.1049589675732032e-01 9.3769432481323450e-03
    -5.4030127321570265e-01 9.1771875840240390e-03
    -5.6254395046301198e-01 9.1771875840240390e-03
    -5.6254395046301198e-01 8.8919312127377480e-03
    -5.9956411182041780e-01 8.2705367656811194e-03
    -7.1989455837815697e-01 8.2705367656811194e-03
    -7.1989455837815697e-01 8.1913389212188888e-03
    -7.4312771847788661e-01 8.2705367656811194e-03
    -7.1989455837815697e-01 7.9923164091804440e-03
    -8.2305489175310143e-01 7.9151818317537946e-03
    -8.7333376460937306e-01 7.8445879415424812e-03
    -9.8095063634384583e-01 7.8562224869666297e-03
    -9.4387980744853883e-01 7.8434998511091262e-03
    -1.0096620601608022e+00 7.8431372549019607e-03 -1.
    7.8434998511091262e-03 -9.9043040187202502e-01
    7.8434998511091262e-03 -1.0096620601608022e+00
    7.8445879415424812e-03 -9.8095063634384583e-01
    7.9051393047681520e-03 -8.8191710368819698e-01
    7.9051393047681520e-03 -8.8191710368819698e-01
    7.9773957221792157e-03 -8.3129832826074279e-01
    8.0080928850316639e-03 -8.1486195149853446e-01
    8.0607077612135179e-03 -7.9056941504209499e-01
    8.1438430037657512e-03 -7.5878691063932813e-01
    8.4967320261437902e-03 -6.6666666666666663e-01
    8.4967320261437902e-03 -6.6666666666666663e-01
    8.5733564766235677e-03 -6.5165752834335866e-01
    8.8411212578929886e-03 -6.0697697866688405e-01
    9.5240813316107339e-03 -5.2542708307804409e-01
    9.7688730383512883e-03 -5.0300303000356872e-01
    1.0733643337382897e-02 -4.3424811867344748e-01
    1.3947940995667455e-02 -3.0779350562554625e-01
    1.5159988452742390e-02 -2.7878344149874829e-01
    1.8331185802922138e-02 -2.2473328748774737e-01
    2.5602957388130124e-02 -1.5694120514358612e-01
    1.6819167505804224e-02 -2.4743582965269675e-01
    1.5651583111989602e-02 -2.6863534475866768e-01
    1.3611796635153705e-02 -3.1706324373711392e-01
    1.1857708957152227e-02 -3.7796447300922725e-01
    1.0604960905726227e-02 -4.4204332236849225e-01
    1.0365915891889467e-02 -4.5749571099781400e-01
    1.0604960905726227e-02 -4.4204332236849225e-01
    9.9503536849654371e-03 -4.8795003647426666e-01
    9.6838254925237233e-03 -5.1049589675732032e-01
    1.0254730168116377e-02 -4.6516047661624044e-01
    9.1771875840240390e-03 -5.6254395046301198e-01
    8.4967320261437902e-03 -6.6666666666666663e-01
    8.3922071804473190e-03 -6.8933105614395407e-01
    8.2430408509080490e-03 -7.2760687510899902e-01
    8.0607077612135179e-03 -7.9056941504209499e-01
    8.0080928850316639e-03 -8.1486195149853446e-01
    8.0422725036405941e-03 -7.9862085847450226e-01
    7.8664452921850779e-03 -9.2582009977255153e-01
    7.8664452921850779e-03 -9.2582009977255153e-01
    7.8562224869666297e-03 -9.4387980744853883e-01
    7.8664452921850779e-03 -9.2582009977255153e-01
    7.9151818317537946e-03 -8.7333376460937306e-01
    7.9376362934116072e-03 -8.5634883857767530e-01
    7.9151818317537946e-03 -8.7333376460937306e-01
    8.0247397326142951e-03 -8.0671782600463904e-01
    8.0422725036405941e-03 -7.9862085847450226e-01
    8.3599692564550899e-03 -6.9693205243716949e-01
    8.6996947479236735e-03 -6.2926397828130609e-01
    8.6138949220476834e-03 -6.4417853611755627e-01
    8.4967320261437902e-03 -6.6666666666666663e-01
    8.7921938138543747e-03 -6.1439681290564108e-01
    9.1771875840240390e-03 -5.6254395046301198e-01
    9.5240813316107339e-03 -5.2542708307804409e-01
    9.8576408370293373e-03 -4.9548862957279677e-01
    1.0254730168116377e-02 -4.6516047661624044e-01
    1.1668149501693845e-02 -3.8622696788058714e-01
    1.3302376391678038e-02 -3.2616403652672116e-01
    1.6200714650802268e-02 -2.5819888974716115e-01
    1.8331185802922138e-02 -2.2473328748774737e-01
    2.5602957388130124e-02 -1.5694120514358612e-01
    2.1745835870341842e-02 -1.8661690879115478e-01
    2.0392156862745096e-02 -1.9999999999999998e-01
    1.5159988452742390e-02 -2.7878344149874829e-01
    1.4314692072252238e-02 -2.9833745256352617e-01
    1.2504702743322927e-02 -3.5259654610379310e-01
    1.1321334965217689e-02 -4.0250611571050388e-01
    1.1668149501693845e-02 -3.8622696788058714e-01
    1.1321334965217689e-02 -4.0250611571050388e-01
    1.0482529198715810e-02 -4.4979121681989714e-01
    1.0604960905726227e-02 -4.4204332236849225e-01
    1.1162270069884947e-02 -4.1053541362798002e-01
    1.1011733047195351e-02 -4.1849879681768870e-01
    9.4490191991005567e-03 -5.3287016925696884e-01
    8.8919312127377480e-03 -5.9956411182041780e-01
    8.3289682974530162e-03 -7.0455864035425875e-01
    8.1913389212188888e-03 -7.4312771847788661e-01
    8.2430408509080490e-03 -7.2760687510899902e-01
    8.0800631258742261e-03 -7.8256188303238594e-01
    7.9260109960244476e-03 -8.6481163247487902e-01
    7.9923164091804440e-03 -8.2305489175310143e-01
    7.9773957221792157e-03 -8.3129832826074279e-01
    8.1216102486513491e-03 -7.6667219823206367e-01
    7.9923164091804440e-03 -8.2305489175310143e-01
    8.0800631258742261e-03 -7.8256188303238594e-01
    8.1003573254011339e-03 -7.7459666924148340e-01
    8.5343191293767093e-03 -6.5915306160306164e-01
    8.6996947479236735e-03 -6.2926397828130609e-01
    8.8411212578929886e-03 -6.0697697866688405e-01
    8.7450747939710333e-03 -6.2182527020592104e-01
    9.1156625602332036e-03 -5.6994803651842696e-01
    9.2411613349789347e-03 -5.5513611000270091e-01
    1.0365915891889467e-02 -4.5749571099781400e-01
    1.0482529198715810e-02 -4.4979121681989714e-01
    1.0482529198715810e-02 -4.4979121681989714e-01
    1.1489678757093559e-02 -3.9440531887330782e-01
    1.3016454478746161e-02 -3.3511112371964275e-01
    1.4314692072252238e-02 -2.9833745256352617e-01
    1.7522404386365431e-02 -2.3629973222959152e-01
    2.5602957388130124e-02 -1.5694120514358612e-01
    2.8554731125277063e-02 -1.4002800840280100e-01
    2.3429976047305220e-02 -1.7234549688642783e-01
    2.1745835870341842e-02 -1.8661690879115478e-01
    1.8331185802922138e-02 -2.2473328748774737e-01
    1.5651583111989602e-02 -2.6863534475866768e-01
    1.5159988452742390e-02 -2.7878344149874829e-01
    1.3016454478746161e-02 -3.3511112371964275e-01
    1.2504702743322927e-02 -3.5259654610379310e-01
    1.2274636000901959e-02 -3.6115755925730764e-01
    1.2504702743322927e-02 -3.5259654610379310e-01
    1.1857708957152227e-02 -3.7796447300922725e-01
    1.2274636000901959e-02 -3.6115755925730764e-01
    1.2274636000901959e-02 -3.6115755925730764e-01
    1.1668149501693845e-02 -3.8622696788058714e-01
    1.1011733047195351e-02 -4.1849879681768870e-01
    9.3077035915910579e-03 -5.4772255750516607e-01
    8.9447027811524159e-03 -5.9215652546379216e-01
    8.4967320261437902e-03 -6.6666666666666663e-01
    8.4605472936563706e-03 -6.7419986246324204e-01
    8.2430408509080490e-03 -7.2760687510899902e-01
    8.1670779810922231e-03 -7.5093926148263834e-01
    8.1913389212188888e-03 -7.4312771847788661e-01
    8.3289682974530162e-03 -7.0455864035425875e-01
    8.4257198414582849e-03 -6.8175415832568709e-01
    8.3599692564550899e-03 -6.9693205243716949e-01
    8.5343191293767093e-03 -6.5915306160306164e-01
    8.9447027811524159e-03 -5.9215652546379216e-01
    9.3769432481323450e-03 -5.4030127321570265e-01
    9.7688730383512883e-03 -5.0300303000356872e-01
    9.8576408370293373e-03 -4.9548862957279677e-01
    9.7688730383512883e-03 -5.0300303000356872e-01
    9.8576408370293373e-03 -4.9548862957279677e-01
    1.0869056127933079e-02 -4.2640143271122083e-01
    1.1321334965217689e-02 -4.0250611571050388e-01
    1.2274636000901959e-02 -3.6115755925730764e-01
    1.4716771567578694e-02 -2.8867513459481287e-01
    1.4716771567578694e-02 -2.8867513459481287e-01
    1.6200714650802268e-02 -2.5819888974716115e-01
    2.3429976047305220e-02 -1.7234549688642783e-01
    3.2891645179895380e-02 -1.2097167578182676e-01
    4.0185978403563326e-02 -9.8532927816429319e-02
    2.8554731125277063e-02 -1.4002800840280100e-01
    2.3429976047305220e-02 -1.7234549688642783e-01
    2.1745835870341842e-02 -1.8661690879115478e-01
    1.8331185802922138e-02 -2.2473328748774737e-01
    1.9274155639442334e-02 -2.1266436150250076e-01
    1.7522404386365431e-02 -2.3629973222959152e-01
    1.5651583111989602e-02 -2.6863534475866768e-01
    1.4716771567578694e-02 -2.8867513459481287e-01
    1.4314692072252238e-02 -2.9833745256352617e-01
    1.3611796635153705e-02 -3.1706324373711392e-01
    1.3016454478746161e-02 -3.3511112371964275e-01
    1.3302376391678038e-02 -3.2616403652672116e-01
    1.3302376391678038e-02 -3.2616403652672116e-01
    1.2751325793332380e-02 -3.4391796971439736e-01
    1.1011733047195351e-02 -4.1849879681768870e-01
    1.0047256709338800e-02 -4.8038446141526142e-01
    9.1771875840240390e-03 -5.6254395046301198e-01
    8.7450747939710333e-03 -6.2182527020592104e-01
    9.2411613349789347e-03 -5.5513611000270091e-01
    9.4490191991005567e-03 -5.3287016925696884e-01
    8.7921938138543747e-03 -6.1439681290564108e-01
    9.3077035915910579e-03 -5.4772255750516607e-01
    8.7921938138543747e-03 -6.1439681290564108e-01
    9.6022916416065012e-03 -5.1796977028281221e-01
    9.2411613349789347e-03 -5.5513611000270091e-01
    1.0254730168116377e-02 -4.6516047661624044e-01
    1.0148617762062296e-02 -4.7278897170376749e-01
    1.0365915891889467e-02 -4.5749571099781400e-01
    1.1011733047195351e-02 -4.1849879681768870e-01
    1.0733643337382897e-02 -4.3424811867344748e-01
    1.1668149501693845e-02 -3.8622696788058714e-01
    1.3302376391678038e-02 -3.2616403652672116e-01
    1.6200714650802268e-02 -2.5819888974716115e-01
    1.6819167505804224e-02 -2.4743582965269675e-01
    1.8331185802922138e-02 -2.2473328748774737e-01
    2.1745835870341842e-02 -1.8661690879115478e-01
    2.0392156862745096e-02 -1.9999999999999998e-01
    2.5602957388130124e-02 -1.5694120514358612e-01
    3.2891645179895380e-02 -1.2097167578182676e-01
    4.0185978403563326e-02 -9.8532927816429319e-02
    2.5602957388130124e-02 -1.5694120514358612e-01
    2.5602957388130124e-02 -1.5694120514358612e-01
    2.3429976047305220e-02 -1.7234549688642783e-01
    2.8554731125277063e-02 -1.4002800840280100e-01
    2.8554731125277063e-02 -1.4002800840280100e-01
    2.3429976047305220e-02 -1.7234549688642783e-01
    2.0392156862745096e-02 -1.9999999999999998e-01
    1.8331185802922138e-02 -2.2473328748774737e-01
    1.5651583111989602e-02 -2.6863534475866768e-01
    1.5651583111989602e-02 -2.6863534475866768e-01
    1.4314692072252238e-02 -2.9833745256352617e-01
    1.5651583111989602e-02 -2.6863534475866768e-01
    1.6819167505804224e-02 -2.4743582965269675e-01
    1.6819167505804224e-02 -2.4743582965269675e-01
    1.4716771567578694e-02 -2.8867513459481287e-01
    1.2059452890866757e-02 -3.6961063547728640e-01
    1.1011733047195351e-02 -4.1849879681768870e-01
    1.1162270069884947e-02 -4.1053541362798002e-01
    1.1489678757093559e-02 -3.9440531887330782e-01
    9.9503536849654371e-03 -4.8795003647426666e-01
    1.0254730168116377e-02 -4.6516047661624044e-01
    1.2274636000901959e-02 -3.6115755925730764e-01
    1.1489678757093559e-02 -3.9440531887330782e-01
    1.0482529198715810e-02 -4.4979121681989714e-01
    1.1489678757093559e-02 -3.9440531887330782e-01
    1.1011733047195351e-02 -4.1849879681768870e-01
    1.0733643337382897e-02 -4.3424811867344748e-01
    1.1011733047195351e-02 -4.1849879681768870e-01
    1.2059452890866757e-02 -3.6961063547728640e-01
    1.2751325793332380e-02 -3.4391796971439736e-01
    1.5159988452742390e-02 -2.7878344149874829e-01
    1.7522404386365431e-02 -2.3629973222959152e-01
    1.8331185802922138e-02 -2.2473328748774737e-01
    1.9274155639442334e-02 -2.1266436150250076e-01
    2.1745835870341842e-02 -1.8661690879115478e-01
    2.8554731125277063e-02 -1.4002800840280100e-01
    3.2891645179895380e-02 -1.2097167578182676e-01
    2.8554731125277063e-02 -1.4002800840280100e-01
    2.8554731125277063e-02 -1.4002800840280100e-01</input_scale>
  <output_scale>
    1.0526315789473684e+00 0.</output_scale>
  <inv_output_scale>
    9.4999999999999996e-01 0.</inv_output_scale>
  <weights>
    <_>
      -2.0157352182085408e-01 -4.7056907282981460e-03
      -5.9422335606425384e-03 -2.1806451942770699e-02
      4.2870691401490964e-03 -2.1436113088402119e-02
      1.9438119862020695e-02 9.3490714652345805e-03
      1.7386449409395058e-02 -2.3420983657668950e-03
      -1.4037240107907811e-02 -1.0712042003707848e-02
      -1.1484808596234984e-02 1.9319853165625039e-02
      1.3876490019370129e-02 -1.9083652147305907e-02
      2.2532615793924862e-02 -1.1075261884249541e-02
      3.6236925615306440e-03 -1.8247316561897378e-03
      1.1928895295389262e-02 -2.1875209591805007e-02
      -1.9712870730544632e-02 -4.3687134338567775e-03
      -1.9228253584595872e-02 2.3554740974177830e-02
      2.6958562885268626e-04 -1.1519383334102273e-03
      -1.8472204021858382e-02 -1.5895005608975419e-02
      7.1043145635298170e-03 1.4062471266828736e-03
      -6.0553926921887097e-03 -1.9179770604775086e-02
      -1.2908728638320099e-02 -2.2165438519288233e-02
      -4.2101318963551175e-03 -2.0524651385007715e-02
      7.5672541711048749e-03 4.4142790685395162e-03
      2.1167988820158026e-01 -5.4374397030115748e-02
      -4.6609806358474705e-02 -3.7200070740657898e-02
      4.1839261709264337e-02 1.3576052432077006e-02
      3.1953334003379893e-02 4.2801405218596766e-02
      -1.6840700855283136e-02 -5.7816309114379461e-02
      1.2458512174434959e-02 -4.2280461673387511e-02
      8.7765433201018369e-03 4.0128343076125235e-02
      -1.9931501861577532e-02 1.3975683224120405e-02
      -1.4631020370159068e-02 -3.9630027479603855e-02
      5.1506973596140808e-02 -5.5640209238433679e-02
      4.2805457978426789e-02 1.5435788399105151e-02
      1.8958768874194263e-02 -4.5902213603203804e-02
      1.3717563512193665e-02 -1.4978174899924838e-02
      -5.6034051002475084e-02 5.7561348817067634e-02
      -3.4351853991996910e-02 1.3638705730967385e-02
      5.0643421398522244e-02 5.6067655840085738e-02
      -4.9830065319718786e-02 -3.5906117480968031e-02
      -3.7803466227665103e-02 1.3144815998028275e-02
      -4.5081139947355083e-02 -3.8972434722869015e-02
      5.2108246142080580e-02 4.3240236878371266e-02
      -2.3354308045938627e-01 -2.8808584938871909e-02
      -2.5542796244043868e-02 -1.4842369324463273e-02
      2.6249042118864033e-02 -1.3911803182510544e-02
      1.2998850381846777e-02 2.3393249697960698e-02
      8.6663574086790988e-03 -1.9275369290606515e-02
      -1.6603438276514042e-02 -2.3200283427560028e-02
      -1.6753302394251594e-02 1.4593749521151144e-02
      6.7046571379032038e-03 -1.6060003468819289e-02
      1.3061058655610799e-02 -1.5700422853785440e-02
      1.1141045514280161e-02 -1.7287963167499323e-02
      2.0090049926881848e-02 -1.4022089207756805e-02
      -8.1987384669231968e-03 -2.5200107500434322e-02
      -1.4842289592511672e-02 1.5558052255477645e-02
      -2.7635172172856926e-02 2.7822435608264001e-02
      -1.2401709869712058e-02 -1.4912614024910391e-02
      2.8483020488780725e-02 2.7546811011342896e-02
      -2.7084148400646751e-03 -1.5482728013004488e-02
      -1.3965120818735697e-02 -1.4323741641764191e-02
      -2.6462937009370423e-02 -1.4454596889002122e-02
      2.7529959613255457e-02 2.5428258627121017e-02
      4.3555699504050538e-01 3.0786311744115656e-03
      6.2284147104483319e-03 4.2410356760116334e-02
      -1.1220430275128004e-02 3.7029709789731281e-02
      -3.9424350190820072e-02 -3.6942078147027969e-02
      -3.0946056268001745e-02 2.4319362461434971e-03
      3.9794232175305144e-02 4.0780796952559921e-02
      3.9203608349114898e-02 -4.9538644217920147e-02
      -2.7001658610194136e-02 4.1046956643422818e-02
      -3.2204204257296302e-02 5.0020624191355258e-02
      -3.9657779217551030e-03 1.7227394391138521e-03
      -4.5872659094315212e-02 3.4156967875379717e-02
      3.1894759166508649e-02 3.6973665287724313e-03
      4.1728508836433836e-02 -3.4677022813907443e-02
      2.4635781415285078e-03 -3.6632422927166735e-03
      4.2322075214869255e-02 3.9233059777665225e-02
      -3.5806701100047867e-03 -1.4374795235786348e-03
      5.1431237042011092e-03 4.2760799819480853e-02
      5.0458352419050105e-02 3.5785301604684155e-02
      5.2907255502950236e-03 4.7444897278314989e-02
      -2.0988011903644789e-03 -5.2186573165881470e-03
      1.0746781019046947e-03 -7.5825460412624560e-03
      -5.5632700621806412e-03 6.0736208857672339e-04
      7.0691069610633194e-05 -5.0786801514143033e-03
      3.3871255486244930e-04 -6.3584081880738172e-03
      6.3124266579865033e-03 -2.0008917618880902e-02
      2.5334859566088289e-03 6.5353737243286037e-03
      4.5930473578984264e-03 -6.9852404537960955e-03
      4.3603703366616427e-03 -2.2669901275040464e-03
      9.3660138472215198e-03 8.3825631623795256e-03
      1.8283392591791583e-02 -2.1637210312054147e-02
      -8.5221690912889343e-03 -7.2932351488131635e-03
      -8.7523049223056631e-03 -5.8206167052538707e-03
      -1.4586636527775905e-04 1.0790574903522839e-02
      -1.4396134198293600e-02 1.6709523615241903e-02
      -2.0624482435719295e-04 -4.7801569252546924e-04
      7.2174987254048431e-03 1.2135759047687366e-02
      -1.2800175190253053e-02 2.1603056430744721e-03
      6.9034173061763042e-03 -7.0183466322718841e-03
      -6.6272087200454875e-03 6.1289248500643045e-03
      6.2171432425007908e-03 6.6004435504855002e-03
      1.5004422678713463e-03 -8.9535386937154536e-03
      -4.7125029920263677e-03 1.2372907423868632e-03
      1.2147772883607088e-03 -6.4280811742068889e-03
      -1.7211550870270350e-04 -6.8159187662000702e-03
      6.4652918083087027e-03 -1.9794743366889345e-02
      1.2928616259199946e-03 6.1270947404801273e-03
      4.7869223687604335e-03 -7.3914378526972477e-03
      5.9599476082235672e-03 -1.8086919070712314e-03
      8.6662703600827017e-03 6.9849692800391791e-03
      1.6359775076845089e-02 -2.1789004400400071e-02
      -8.5125848128010349e-03 -5.9026506616650914e-03
      -7.3247337607431984e-03 -5.7077724791767199e-03
      -2.1362659791119730e-03 1.0095260467621202e-02
      -1.2794561669063191e-02 1.5953134490935248e-02
      2.8769187350771833e-04 -2.0318077849471671e-04
      6.5705150783908223e-03 1.2037092029071971e-02
      -1.1323137817573815e-02 3.0593264031166328e-03
      8.1131588421277327e-03 -7.1121729012058130e-03
      -5.8483157868677201e-03 6.1157181220547543e-03
      7.2727937986887788e-03 5.1747909955017334e-03
      -4.9486863819914899e-02 -3.6142565306553562e-03
      -7.4663032772889094e-03 2.0204421909310656e-03
      7.3892274366935701e-03 1.5571644026126377e-03
      -2.6101879302813939e-03 -3.2641682517244750e-03
      -9.1646367127317540e-06 1.2545869829860119e-02
      1.0529249326245492e-02 3.8933852773853457e-03
      1.1166114194400433e-02 -4.7442212575756473e-03
      -4.1263489438599374e-03 8.8102870980357219e-03
      -6.2881136515813144e-04 6.9206333084368254e-03
      -1.2897240698237481e-02 1.3039987999348676e-02
      -5.7148113061306722e-03 1.8845561746318289e-03
      9.6910758491348221e-04 -8.1514580933702771e-03
      7.2708347686406185e-03 2.4273757032104585e-03
      5.8505492610350963e-03 -5.9645619810247364e-03
      1.1146057121970536e-03 9.1925577631237817e-03
      8.2341491622821734e-03 -3.9985697943544602e-03
      1.5956175527450198e-02 1.9538927853726385e-03
      8.8114310549687758e-03 1.6204838038848936e-03
      -8.7390733352948145e-03 4.5449389135621332e-03
      5.8737061161730454e-03 8.1948682145734295e-03
      -2.9702674288133357e-01 -2.1855458561038956e-02
      -2.6057516068624210e-02 -2.2694709689822415e-02
      2.0016232961327478e-02 -2.7105020002702568e-02
      2.0995084146099813e-02 1.6937210884374245e-02
      2.6819425341957911e-02 -6.8660961353536332e-03
      -1.8693983990259209e-02 -1.6819097597080970e-02
      -1.9025869514239312e-02 2.0188738146367839e-02
      2.0770221071688553e-02 -2.4524271751241052e-02
      2.5965797380229860e-02 -1.6780213968526816e-02
      6.5187284511558329e-03 -6.4693220824266874e-03
      1.9040372788726050e-02 -2.7940920799200880e-02
      -2.6093990428481578e-02 -2.3642195889501706e-02
      -2.3707394624452899e-02 2.8692684425366009e-02
      -1.2278883441780146e-02 9.0077602707152177e-03
      -1.9956400442648382e-02 -2.2085746311040249e-02
      2.5858968879806675e-02 1.1544159613795835e-02
      -2.8068075226342711e-03 -2.0316076960695827e-02
      -1.6463031136387609e-02 -2.7444334774152809e-02
      -2.3669224054363388e-02 -1.9993813207919323e-02
      2.7432690149898489e-02 2.3140607253674873e-02
      -3.0610087330304092e-01 -2.0789510721898465e-02
      -2.4579092437139495e-02 -2.2767311413446640e-02
      2.0007283329820474e-02 -2.1481569661682742e-02
      2.0658267240174947e-02 1.7817930669686503e-02
      1.9765689251031913e-02 -1.0324440357011303e-02
      -1.3292680865140329e-02 -1.9705533608564040e-02
      -1.1993653616458997e-02 1.9900794671265466e-02
      1.4175347354147671e-02 -1.8539221774242599e-02
      2.3720305820273048e-02 -2.0165074413217365e-02
      9.4270466105079616e-03 -1.0246025336532367e-02
      2.1270241548737207e-02 -2.2263642773739881e-02
      -2.0345556198533163e-02 -2.5043444817906126e-02
      -1.7427405868985932e-02 2.7994624037503187e-02
      -1.1990514180742389e-02 1.1688686160495490e-02
      -2.3320428156001802e-02 -1.4001779866654894e-02
      2.6061231616163524e-02 1.3469866083420507e-02
      -7.9453318324377974e-03 -2.1542239324928322e-02
      -1.9543885047603533e-02 -2.5040428543315642e-02
      -2.3046071785052653e-02 -2.1906559301159603e-02
      2.5106858575270737e-02 2.3233225250093605e-02
      -4.3699850773468019e-01 -6.7180020346430419e-02
      -6.1025211100257791e-02 -3.8273981495674847e-02
      5.3819161020892070e-02 -3.2367350421017384e-02
      3.4233619602704275e-02 4.6262490132510756e-02
      2.4487117851869328e-02 -6.3454117771245350e-02
      -3.1301621514256112e-02 -4.6553498801472762e-02
      -3.1444768234346554e-02 4.0149806861489820e-02
      2.0405320198578415e-02 -3.3873646472765591e-02
      2.8242170350335383e-02 -4.1184095494292423e-02
      6.3805928544633461e-02 -6.3463064890045925e-02
      4.6568035790945143e-02 -2.9593873012982153e-02
      -2.7804907205682960e-02 -6.0927396483068039e-02
      -3.1440221669553001e-02 3.1864531636774517e-02
      -6.0374095261305098e-02 6.1592901020921680e-02
      -3.6215334995182182e-02 -3.1088369382785933e-02
      6.6428779021534656e-02 5.9009910088906992e-02
      -6.2850653583662722e-02 -3.5998996735249242e-02
      -3.8750182984689685e-02 -3.1740207338506798e-02
      -5.9881332463491449e-02 -3.7108199612238928e-02
      6.7193547860458627e-02 5.6598135473376353e-02
      -3.5833280355585734e-01 -7.6964226672945044e-02
      -6.8311346844064744e-02 -3.1538753055142657e-02
      6.4533913229733703e-02 -1.1292438310194192e-02
      2.8151895299200962e-02 4.8881746378948730e-02
      6.2460589538658896e-03 -8.4562727235213811e-02
      -1.4545322588315149e-02 -4.9012756689715900e-02
      -1.5807128902326596e-02 3.4582176521078659e-02
      9.1768892913543336e-04 -1.7076192100222976e-02
      8.1474907754424033e-03 -4.0351044192449559e-02
      8.2435690262181074e-02 -8.6430901041971153e-02
      4.3933882872038844e-02 -8.3646384405840976e-03
      -5.2479717808362929e-03 -6.7166488664822360e-02
      -1.4768092778896404e-02 1.4143819249731827e-02
      -7.7233841642211878e-02 7.9275273728846338e-02
      -3.0595785577409728e-02 -1.4185422062933677e-02
      7.2088700841033429e-02 7.4613038267907411e-02
      -8.4708009092181458e-02 -3.1420772035341112e-02
      -3.5578207302826945e-02 -1.2565053342346789e-02
      -6.6374883414860752e-02 -3.1489010545142325e-02
      7.3779851953381173e-02 6.4774275162460759e-02
      -4.5209499714010132e-01 -7.2422016966829691e-02
      -6.4795714621814923e-02 -3.8869108376140611e-02
      5.9054400764167791e-02 -2.3807220236792243e-02
      3.5100963406869204e-02 5.1079538479568927e-02
      1.5857236730335678e-02 -8.1338190551472747e-02
      -2.0950521786460199e-02 -5.0679195095620376e-02
      -2.0524197623038320e-02 3.8951159733553967e-02
      8.9749908350260331e-03 -2.3461001982652628e-02
      1.8932441418980157e-02 -4.1719443112679513e-02
      8.0074635860117691e-02 -7.9565943107714671e-02
      4.7686507941300589e-02 -2.0023328126198475e-02
      -1.7952450233376025e-02 -6.4211764365424293e-02
      -2.2617038678150968e-02 2.6031264494735921e-02
      -7.1849229225593295e-02 7.3614423660565045e-02
      -3.6279126737590491e-02 -2.2758977034242140e-02
      7.0205033338069225e-02 7.1072740471997145e-02
      -8.1310703997695924e-02 -3.8290030032729155e-02
      -3.7662165939958699e-02 -2.3394028697911434e-02
      -6.3644273659461792e-02 -4.0225352822274317e-02
      7.2639297820449797e-02 6.2088443186120841e-02
      -3.2866501521288483e-01 -8.2749771170774977e-02
      -7.2731417075681717e-02 -2.7243551984237762e-02
      6.7087923214450118e-02 -7.7359540229231943e-03
      2.6035147463738757e-02 5.2055955097468611e-02
      1.8278424212556463e-03 -9.1748318338785440e-02
      -1.1028298159855678e-02 -4.9096632880177279e-02
      -1.2029526282879486e-02 3.2402182577244816e-02
      -3.3624646158247370e-03 -1.0055329875758722e-02
      3.1039756540400310e-03 -3.9116972847842622e-02
      8.8570871969202505e-02 -9.1585636753232211e-02
      4.6363180776821299e-02 -5.3769705441600920e-03
      -1.0715435042113453e-03 -7.0906692741347296e-02
      -9.9039269298667309e-03 8.5796084752437340e-03
      -8.2137591085840483e-02 8.5379790926853202e-02
      -2.7571753421561682e-02 -9.3960566775885650e-03
      7.5876161361548136e-02 7.9616709191823981e-02
      -9.0051946980991143e-02 -2.8425006217862890e-02
      -3.3913445459729546e-02 -7.3694341232448893e-03
      -7.1615975760910180e-02 -3.0433735203459281e-02
      7.9919725868162705e-02 6.6687326019983006e-02
      -1.9963974441817678e-01 -3.2631378196619654e-02
      -2.1080986441538139e-02 -5.0483895507539758e-03
      2.7062634142735548e-02 9.1471945334478883e-04
      5.2196080417802552e-03 2.3635724243495335e-02
      -3.1974956068180046e-03 -6.0107353189536958e-02
      2.3459540426277244e-04 -2.2710282732346217e-02
      -4.9803146368572926e-04 9.9033591719646930e-03
      -4.4907887460874816e-03 2.7359035708599587e-03
      1.1303565123917747e-03 -1.6965661200459607e-02
      5.6214772207205915e-02 -5.9432987082360347e-02
      1.8457373508164631e-02 2.4037048726215484e-03
      1.1176019766470570e-03 -1.9364342146662002e-02
      5.4625747501079796e-03 4.3327952839166883e-03
      -5.1405576855221395e-02 5.5539755499442477e-02
      -5.9670533331336942e-03 5.5397466331227061e-03
      1.8719228290185436e-02 4.7675973967288746e-02
      -5.9895068997097851e-02 -6.5381042612397411e-03
      -1.2583901375230943e-02 -2.3362615012100904e-03
      -2.1310347055611623e-02 -9.5194724856564900e-03
      1.9146621281266863e-02 2.1681001857282969e-02
      -5.7706925139421839e-01 -3.4803189677155254e-02
      -3.6514561549063185e-02 -3.9735502302129855e-02
      3.5873551495267872e-02 -3.1334532476092164e-02
      3.8433548220684552e-02 3.9866324457570268e-02
      2.7683781539942342e-02 -3.3935322381380070e-02
      -3.0026377707682211e-02 -4.0141630019503195e-02
      -2.8793508745611165e-02 4.1387154810575706e-02
      2.1666084140600953e-02 -3.2694720647874612e-02
      2.8152033907653640e-02 -3.9783664598923657e-02
      3.5177640424441152e-02 -3.5043024120412644e-02
      4.1997251370711218e-02 -2.9877339069263740e-02
      -2.7767434762976450e-02 -3.3404256200759541e-02
      -3.2121612050319055e-02 3.2545892819469867e-02
      -3.1028082632384827e-02 3.2132447609644794e-02
      -3.9598496003999534e-02 -3.0127621766387190e-02
      3.6347857168472830e-02 3.1234545162607350e-02
      -3.4282328940125832e-02 -3.8766479051641795e-02
      -3.7821268319287407e-02 -3.2154113357596867e-02
      -3.4646453937224160e-02 -3.8642595103282759e-02
      3.5669228064612091e-02 3.2253214691552047e-02
      9.0818937101436070e-02 5.6425389153124421e-03
      3.7179580140364889e-03 6.4110832070017479e-03
      -1.3618154640912405e-02 -1.2467537676009399e-02
      -3.9827652146049164e-03 -1.4615219371323040e-02
      1.2561951818947873e-02 1.0682379501119927e-02
      -8.4305628976468865e-03 1.3887639089952495e-02
      -6.7011989324173050e-03 -1.3564524689587694e-02
      1.1731565794617219e-02 -1.1757084364066190e-02
      1.4895776654607385e-02 1.4381536085624053e-02
      -9.7664876622554960e-03 9.6400111479425146e-03
      -1.5222896274156716e-02 -1.2081353561498137e-02
      -1.4707792997137526e-02 2.8946662765290368e-03
      -9.3865593989846743e-03 1.6253871994259109e-02
      1.3370364160012228e-02 -1.3532147081510243e-02
      6.8557579525745241e-03 -1.1384399583848664e-02
      -3.5776009204111490e-03 -1.2744925070550906e-02
      7.8126000306346071e-03 9.2491276632187744e-03
      1.3885639384823133e-02 -1.5648292743871025e-02
      3.1476252976068288e-03 1.1354149795236872e-02
      -3.9459410873761980e-03 -3.3014737732490439e-03
      -2.0257405607597347e-02 -4.1725170653452576e-03
      -3.2450426658754534e-03 3.5265754059891795e-03
      -5.6760534977170684e-03 -1.5455218386562566e-02
      9.1016734520786124e-04 -7.2712272589256629e-03
      1.4301815105606019e-02 -1.9583879155237812e-03
      -1.0718817649846396e-02 8.0257103969142238e-03
      -8.2678053860680712e-03 -7.0563695924385625e-03
      1.0926605192372643e-02 -1.1288966711459172e-02
      1.6174524965056107e-02 9.5881269320073990e-03
      3.4564676101631136e-03 -8.0044809752773658e-04
      -7.5912493036904265e-03 -1.4882646701673040e-02
      -1.6017968419023029e-02 -5.2097516638649217e-03
