<?xml version="1.0"?>
<opencv_storage>
<shapeML type_id="opencv-ml-ann-mlp">
  <layer_sizes type_id="opencv-matrix">
    <rows>1</rows>
    <cols>3</cols>
    <dt>i</dt>
    <data>
      1600 40 1</data></layer_sizes>
  <activation_function>SIGMOID_SYM</activation_function>
  <f_param1>5.9999999999999998e-01</f_param1>
  <f_param2>1.</f_param2>
  <min_val>-9.4999999999999996e-01</min_val>
  <max_val>9.4999999999999996e-01</max_val>
  <min_val1>-9.7999999999999998e-01</min_val1>
  <max_val1>9.7999999999999998e-01</max_val1>
  <training_params>
    <train_method>BACKPROP</train_method>
    <dw_scale>1.0000000000000001e-01</dw_scale>
    <moment_scale>1.0000000000000001e-01</moment_scale>
    <term_criteria><epsilon>9.9999999747524271e-07</epsilon>
      <iterations>4000</iterations></term_criteria></training_params>
  <input_scale>
    6.1632798035288316e-02 -6.3887656499993992e-02
    3.1006821421014390e-02 -1.2856486930664504e-01
    4.3670183385214820e-02 -9.0535746042518531e-02
    6.1632798035288316e-02 -6.3887656499993992e-02
    3.5729847494553379e-02 -1.1111111111111112e-01
    3.5729847494553379e-02 -1.1111111111111112e-01
    3.1006821421014390e-02 -1.2856486930664504e-01
    2.7790822680638556e-02 -1.4403780047891934e-01
    2.3585601484755671e-02 -1.7113942540767835e-01
    2.0888126981119113e-02 -1.9487094073848929e-01
    1.9858156325469025e-02 -2.0584674239815451e-01
    1.8205238588207225e-02 -2.2645540682891915e-01
    1.8205238588207225e-02 -2.2645540682891915e-01
    1.7528521675210147e-02 -2.3620751769642942e-01
    1.6388654783484429e-02 -2.5482359571881275e-01
    1.5902705534839568e-02 -2.6375218935831479e-01
    1.4349134593916421e-02 -2.9748205865436478e-01
    1.7528521675210147e-02 -2.3620751769642942e-01
    1.8205238588207225e-02 -2.2645540682891915e-01
    1.3216389175528722e-02 -3.2879797461071458e-01
    1.2160909619707781e-02 -3.6556880747048393e-01
    1.3216389175528722e-02 -3.2879797461071458e-01
    1.5902705534839568e-02 -2.6375218935831479e-01
    1.6388654783484429e-02 -2.5482359571881275e-01
    2.3585601484755671e-02 -1.7113942540767835e-01
    2.5422232169981088e-02 -1.5811388300841897e-01
    2.7790822680638556e-02 -1.4403780047891934e-01
    1.6927269800051443e-02 -2.4565184222025874e-01
    1.7528521675210147e-02 -2.3620751769642942e-01
    2.2108610810680388e-02 -1.8333969940564224e-01
    2.0888126981119113e-02 -1.9487094073848929e-01
    2.2108610810680388e-02 -1.8333969940564224e-01
    2.3585601484755671e-02 -1.7113942540767835e-01
    2.7790822680638556e-02 -1.4403780047891934e-01
    3.1006821421014390e-02 -1.2856486930664504e-01
    2.7790822680638556e-02 -1.4403780047891934e-01
    3.5729847494553379e-02 -1.1111111111111112e-01
    4.3670183385214820e-02 -9.0535746042518531e-02
    6.1632798035288316e-02 -6.3887656499993992e-02
    3.5729847494553379e-02 -1.1111111111111112e-01
    3.5729847494553379e-02 -1.1111111111111112e-01
    2.7790822680638556e-02 -1.4403780047891934e-01
    4.3670183385214820e-02 -9.0535746042518531e-02
    4.3670183385214820e-02 -9.0535746042518531e-02
    2.7790822680638556e-02 -1.4403780047891934e-01
    2.7790822680638556e-02 -1.4403780047891934e-01
    2.5422232169981088e-02 -1.5811388300841897e-01
    2.3585601484755671e-02 -1.7113942540767835e-01
    1.8974251507997093e-02 -2.1635274585338149e-01
    1.8205238588207225e-02 -2.2645540682891915e-01
    1.5058830696019394e-02 -2.8097574347450821e-01
    1.3470340601865728e-02 -3.2115263264204263e-01
    1.3216389175528722e-02 -3.2879797461071458e-01
    1.2347745345302736e-02 -3.5838577953439649e-01
    1.1362856908643155e-02 -4.0047142031681360e-01
    1.0422099084564212e-02 -4.5374260648651510e-01
    1.0522672835293128e-02 -4.4721359549995793e-01
    1.0057754089811842e-02 -4.7958315233127197e-01
    9.8955904512796899e-03 -4.9236596391733095e-01
    1.0970361063355492e-02 -4.2075348224698805e-01
    1.0232762719862332e-02 -4.6671381185713562e-01
    1.0970361063355492e-02 -4.2075348224698805e-01
    1.0627505069887353e-02 -4.4065264923923170e-01
    1.1095171738445696e-02 -4.1403933560541262e-01
    1.2160909619707781e-02 -3.6556880747048393e-01
    1.2978628025340616e-02 -3.3633639699815621e-01
    1.5058830696019394e-02 -2.8097574347450821e-01
    1.3216389175528722e-02 -3.2879797461071458e-01
    1.3216389175528722e-02 -3.2879797461071458e-01
    1.5058830696019394e-02 -2.8097574347450821e-01
    1.7528521675210147e-02 -2.3620751769642942e-01
    1.8974251507997093e-02 -2.1635274585338149e-01
    1.8205238588207225e-02 -2.2645540682891915e-01
    1.8974251507997093e-02 -2.1635274585338149e-01
    1.9858156325469025e-02 -2.0584674239815451e-01
    1.9858156325469025e-02 -2.0584674239815451e-01
    2.5422232169981088e-02 -1.5811388300841897e-01
    3.5729847494553379e-02 -1.1111111111111112e-01
    3.1006821421014390e-02 -1.2856486930664504e-01
    2.7790822680638556e-02 -1.4403780047891934e-01
    6.1632798035288316e-02 -6.3887656499993992e-02
    2.7790822680638556e-02 -1.4403780047891934e-01
    2.7790822680638556e-02 -1.4403780047891934e-01
    3.1006821421014390e-02 -1.2856486930664504e-01
    2.5422232169981088e-02 -1.5811388300841897e-01
    2.2108610810680388e-02 -1.8333969940564224e-01
    2.0888126981119113e-02 -1.9487094073848929e-01
    2.0888126981119113e-02 -1.9487094073848929e-01
    1.4689438577237628e-02 -2.8931028417364352e-01
    1.3470340601865728e-02 -3.2115263264204263e-01
    1.2160909619707781e-02 -3.6556880747048393e-01
    1.1657704720844767e-02 -3.8669459561826547e-01
    1.0970361063355492e-02 -4.2075348224698805e-01
    9.8189211748043546e-03 -4.9872934991536749e-01
    9.8955904512796899e-03 -4.9236596391733095e-01
    9.3524223845613923e-03 -5.4289671403063688e-01
    9.1319353741684938e-03 -5.6796183424706481e-01
    8.9846074530633788e-03 -5.8673869403846823e-01
    8.9385947009132799e-03 -5.9299945332888104e-01
    9.2385115320093407e-03 -5.5543733966836650e-01
    9.1319353741684938e-03 -5.6796183424706481e-01
    9.2945120916310894e-03 -5.4916964736527596e-01
    9.4743065453099518e-03 -5.3033008588991071e-01
    9.6736981731151625e-03 -5.1140831195675895e-01
    9.4123246466691103e-03 -5.3661728930704988e-01
    9.5384616375095901e-03 -5.2403377654854510e-01
    1.0736863958847565e-02 -4.3405736614121559e-01
    1.1225861424342145e-02 -4.0727972850509614e-01
    1.1362856908643155e-02 -4.0047142031681360e-01
    1.2545587019715957e-02 -3.5112344158839170e-01
    1.4689438577237628e-02 -2.8931028417364352e-01
    1.5058830696019394e-02 -2.8097574347450821e-01
    1.5461539162770373e-02 -2.7246248890491692e-01
    1.5058830696019394e-02 -2.8097574347450821e-01
    1.5902705534839568e-02 -2.6375218935831479e-01
    1.5902705534839568e-02 -2.6375218935831479e-01
    2.0888126981119113e-02 -1.9487094073848929e-01
    2.2108610810680388e-02 -1.8333969940564224e-01
    2.2108610810680388e-02 -1.8333969940564224e-01
    3.1006821421014390e-02 -1.2856486930664504e-01 1. 0.
    4.3670183385214820e-02 -9.0535746042518531e-02
    2.2108610810680388e-02 -1.8333969940564224e-01
    2.0888126981119113e-02 -1.9487094073848929e-01
    1.9858156325469025e-02 -2.0584674239815451e-01
    1.9858156325469025e-02 -2.0584674239815451e-01
    1.6927269800051443e-02 -2.4565184222025874e-01
    1.2755483117215145e-02 -3.4377582547616431e-01
    1.2755483117215145e-02 -3.4377582547616431e-01
    1.1362856908643155e-02 -4.0047142031681360e-01
    1.1657704720844767e-02 -3.8669459561826547e-01
    1.0057754089811842e-02 -4.7958315233127197e-01
    9.4743065453099518e-03 -5.3033008588991071e-01
    9.0812189130619024e-03 -5.7422097639299963e-01
    9.0321298050584312e-03 -5.8047956186168204e-01
    8.5844098666386041e-03 -6.4958857588405539e-01
    8.4568029589957572e-03 -6.7499726056862475e-01
    8.3446945648686134e-03 -7.0064904974537079e-01
    8.4871850194674289e-03 -6.6862457592389746e-01
    8.6545945716077748e-03 -6.3695705170308436e-01
    8.4273879030585599e-03 -6.8138514386924698e-01
    8.3989142144857698e-03 -6.8778913353990179e-01
    8.4273879030585599e-03 -6.8138514386924698e-01
    8.3446945648686134e-03 -7.0064904974537079e-01
    8.5844098666386041e-03 -6.4958857588405539e-01
    8.9846074530633788e-03 -5.8673869403846823e-01
    9.1843434861744715e-03 -5.6170100711176796e-01
    9.0812189130619024e-03 -5.7422097639299963e-01
    1.0627505069887353e-02 -4.4065264923923170e-01
    1.0736863958847565e-02 -4.3405736614121559e-01
    1.1095171738445696e-02 -4.1403933560541262e-01
    1.1984155173528285e-02 -3.7267799624996495e-01
    1.5902705534839568e-02 -2.6375218935831479e-01
    1.5461539162770373e-02 -2.7246248890491692e-01
    1.5461539162770373e-02 -2.7246248890491692e-01
    1.5461539162770373e-02 -2.7246248890491692e-01
    1.8205238588207225e-02 -2.2645540682891915e-01
    1.9858156325469025e-02 -2.0584674239815451e-01
    2.5422232169981088e-02 -1.5811388300841897e-01
    2.7790822680638556e-02 -1.4403780047891934e-01
    6.1632798035288316e-02 -6.3887656499993992e-02
    2.5422232169981088e-02 -1.5811388300841897e-01
    2.5422232169981088e-02 -1.5811388300841897e-01
    1.6927269800051443e-02 -2.4565184222025874e-01
    1.5461539162770373e-02 -2.7246248890491692e-01
    1.4349134593916421e-02 -2.9748205865436478e-01
    1.2160909619707781e-02 -3.6556880747048393e-01
    1.1095171738445696e-02 -4.1403933560541262e-01
    1.0970361063355492e-02 -4.2075348224698805e-01
    1.0325537776568479e-02 -4.6024195821168035e-01
    9.4743065453099518e-03 -5.3033008588991071e-01
    9.2385115320093407e-03 -5.5543733966836650e-01
    8.8508851706236829e-03 -6.0553007081949839e-01
    8.5185610415163589e-03 -6.6226617853252190e-01
    8.4871850194674289e-03 -6.6862457592389746e-01
    8.3189033080770299e-03 -7.0710678118654757e-01
    7.9968446993653915e-03 -8.2065180664828985e-01
    8.1047692120905686e-03 -7.7291823461644193e-01
    8.3189033080770299e-03 -7.0710678118654757e-01
    8.3989142144857698e-03 -6.8778913353990179e-01
    8.2465543537892996e-03 -7.2660189275765474e-01
    8.4871850194674289e-03 -6.6862457592389746e-01
    8.3713575042722223e-03 -6.9421013450062330e-01
    8.3713575042722223e-03 -6.9421013450062330e-01
    8.5844098666386041e-03 -6.4958857588405539e-01
    8.3989142144857698e-03 -6.8778913353990179e-01
    8.4273879030585599e-03 -6.8138514386924698e-01
    8.7686042396248626e-03 -6.1807966469550857e-01
    9.4123246466691103e-03 -5.3661728930704988e-01
    9.8189211748043546e-03 -4.9872934991536749e-01
    1.0522672835293128e-02 -4.4721359549995793e-01
    1.1095171738445696e-02 -4.1403933560541262e-01
    1.2755483117215145e-02 -3.4377582547616431e-01
    1.5058830696019394e-02 -2.8097574347450821e-01
    1.5058830696019394e-02 -2.8097574347450821e-01
    1.4034405489687355e-02 -3.0550504633038938e-01
    1.6388654783484429e-02 -2.5482359571881275e-01
    1.8974251507997093e-02 -2.1635274585338149e-01
    2.3585601484755671e-02 -1.7113942540767835e-01
    2.2108610810680388e-02 -1.8333969940564224e-01
    6.1632798035288316e-02 -6.3887656499993992e-02
    2.2108610810680388e-02 -1.8333969940564224e-01
    1.8974251507997093e-02 -2.1635274585338149e-01
    1.5902705534839568e-02 -2.6375218935831479e-01
    1.3742304808368107e-02 -3.1339158526400440e-01
    1.1816662993334013e-02 -3.7971837789555030e-01
    1.0851042410176322e-02 -4.2742520713255511e-01
    1.0143565573700776e-02 -4.7316022340738378e-01
    9.8189211748043546e-03 -4.9872934991536749e-01
    9.4743065453099518e-03 -5.3033008588991071e-01
    9.2945120916310894e-03 -5.4916964736527596e-01
    8.8090892445416621e-03 -6.1180199082518005e-01
    8.4871850194674289e-03 -6.6862457592389746e-01
    8.5844098666386041e-03 -6.4958857588405539e-01
    8.2240493877321803e-03 -7.3314391493075892e-01
    8.0392156862745100e-03 -8.0000000000000004e-01
    7.8746909077593834e-03 -9.1423240782767479e-01
    7.9384202252182241e-03 -8.5580042427962322e-01
    7.9191391868905468e-03 -8.7013956187663200e-01
    8.0706628640648346e-03 -7.8639751565704907e-01
    8.0103414932715805e-03 -8.1373347120673489e-01
    8.0873779011537764e-03 -7.7964295498317815e-01
    8.2465543537892996e-03 -7.2660189275765474e-01
    8.2240493877321803e-03 -7.3314391493075892e-01
    8.0873779011537764e-03 -7.7964295498317815e-01
    8.1228490270748802e-03 -7.6622240517590490e-01
    8.0706628640648346e-03 -7.8639751565704907e-01
    8.4273879030585599e-03 -6.8138514386924698e-01
    8.9385947009132799e-03 -5.9299945332888104e-01
    9.2385115320093407e-03 -5.5543733966836650e-01
    9.8955904512796899e-03 -4.9236596391733095e-01
    9.8189211748043546e-03 -4.9872934991536749e-01
    1.0851042410176322e-02 -4.2742520713255511e-01
    1.1506630174723545e-02 -3.9361094683048226e-01
    1.2978628025340616e-02 -3.3633639699815621e-01
    1.2545587019715957e-02 -3.5112344158839170e-01
    1.5058830696019394e-02 -2.8097574347450821e-01
    1.6927269800051443e-02 -2.4565184222025874e-01
    2.0888126981119113e-02 -1.9487094073848929e-01
    1.9858156325469025e-02 -2.0584674239815451e-01
    6.1632798035288316e-02 -6.3887656499993992e-02
    1.8205238588207225e-02 -2.2645540682891915e-01
    1.6388654783484429e-02 -2.5482359571881275e-01
    1.2978628025340616e-02 -3.3633639699815621e-01
    1.1984155173528285e-02 -3.7267799624996495e-01
    1.1095171738445696e-02 -4.1403933560541262e-01
    1.0057754089811842e-02 -4.7958315233127197e-01
    9.8189211748043546e-03 -4.9872934991536749e-01
    8.9846074530633788e-03 -5.8673869403846823e-01
    8.7686042396248626e-03 -6.1807966469550857e-01
    8.7686042396248626e-03 -6.1807966469550857e-01
    8.4871850194674289e-03 -6.6862457592389746e-01
    8.1611262657550511e-03 -7.5291366098093848e-01
    8.1416302059667319e-03 -7.5955452531275003e-01
    7.9191391868905468e-03 -8.7013956187663200e-01
    7.8597794321023304e-03 -9.3694321888780829e-01
    7.8558694180478564e-03 -9.4462039587746183e-01
    7.8807318969532324e-03 -9.0676470058236280e-01
    7.8524854551865406e-03 -9.5235326648573349e-01
    7.8441742954003316e-03 -9.8386991009990743e-01
    7.8642178469902971e-03 -9.2932037728458516e-01
    7.9716870076836071e-03 -8.3459674342638734e-01
    8.0244620101214952e-03 -8.0684986918843571e-01
    7.9839626900463732e-03 -8.2760588860236795e-01
    8.0873779011537764e-03 -7.7964295498317815e-01
    7.9384202252182241e-03 -8.5580042427962322e-01
    8.0103414932715805e-03 -8.1373347120673489e-01
    8.0706628640648346e-03 -7.8639751565704907e-01
    8.3446945648686134e-03 -7.0064904974537079e-01
    8.4273879030585599e-03 -6.8138514386924698e-01
    8.9846074530633788e-03 -5.8673869403846823e-01
    9.1319353741684938e-03 -5.6796183424706481e-01
    9.2945120916310894e-03 -5.4916964736527596e-01
    1.0057754089811842e-02 -4.7958315233127197e-01
    1.0522672835293128e-02 -4.4721359549995793e-01
    1.1657704720844767e-02 -3.8669459561826547e-01
    1.2545587019715957e-02 -3.5112344158839170e-01
    1.4689438577237628e-02 -2.8931028417364352e-01
    1.7528521675210147e-02 -2.3620751769642942e-01
    2.2108610810680388e-02 -1.8333969940564224e-01
    2.5422232169981088e-02 -1.5811388300841897e-01
    1.6388654783484429e-02 -2.5482359571881275e-01
    1.4689438577237628e-02 -2.8931028417364352e-01
    1.1984155173528285e-02 -3.7267799624996495e-01
    1.0970361063355492e-02 -4.2075348224698805e-01
    1.1225861424342145e-02 -4.0727972850509614e-01
    9.2945120916310894e-03 -5.4916964736527596e-01
    8.6189439075195270e-03 -6.4326752090267691e-01
    8.5185610415163589e-03 -6.6226617853252190e-01
    8.4871850194674289e-03 -6.6862457592389746e-01
    8.2698527430663648e-03 -7.2008229982309568e-01
    7.9384202252182241e-03 -8.5580042427962322e-01
    7.8807318969532324e-03 -9.0676470058236280e-01
    7.8558694180478564e-03 -9.4462039587746183e-01
    7.8691873374369392e-03 -9.2175054117172928e-01
    7.8691873374369392e-03 -9.2175054117172928e-01
    7.8454711746842858e-03 -9.7590007294853309e-01
    7.8558694180478564e-03 -9.4462039587746183e-01
    7.8472878868018851e-03 -9.6799167042684231e-01
    7.8433964764661537e-03 -1.0081634007555276e+00
    7.8433964764661555e-03 -9.9190270074334186e-01
    7.8558694180478564e-03 -9.4462039587746183e-01
    7.8433964764661537e-03 -1.0081634007555276e+00
    7.8441742954003316e-03 -1.0163945352271770e+00
    7.8441742954003316e-03 -9.8386991009990743e-01
    7.9384202252182241e-03 -8.5580042427962322e-01
    7.9489231011126392e-03 -8.4869294817367258e-01
    7.9968446993653915e-03 -8.2065180664828985e-01
    8.2240493877321803e-03 -7.3314391493075892e-01
    8.2023205596889175e-03 -7.3970927486462867e-01
    8.2240493877321803e-03 -7.3314391493075892e-01
    8.4273879030585599e-03 -6.8138514386924698e-01
    8.8508851706236829e-03 -6.0553007081949839e-01
    8.9385947009132799e-03 -5.9299945332888104e-01
    1.0232762719862332e-02 -4.6671381185713562e-01
    1.0522672835293128e-02 -4.4721359549995793e-01
    1.2160909619707781e-02 -3.6556880747048393e-01
    1.3216389175528722e-02 -3.2879797461071458e-01
    1.5461539162770373e-02 -2.7246248890491692e-01
    1.9858156325469025e-02 -2.0584674239815451e-01
    1.8974251507997093e-02 -2.1635274585338149e-01
    1.5461539162770373e-02 -2.7246248890491692e-01
    1.4349134593916421e-02 -2.9748205865436478e-01
    1.2755483117215145e-02 -3.4377582547616431e-01
    1.1506630174723545e-02 -3.9361094683048226e-01
    1.0143565573700776e-02 -4.7316022340738378e-01
    8.8508851706236829e-03 -6.0553007081949839e-01
    8.3189033080770299e-03 -7.0710678118654757e-01
    8.1228490270748802e-03 -7.6622240517590490e-01
    8.1416302059667319e-03 -7.5955452531275003e-01
    7.9716870076836071e-03 -8.3459674342638734e-01
    7.8597794321023304e-03 -9.3694321888780829e-01
    7.8558694180478564e-03 -9.4462039587746183e-01
    7.8597794321023304e-03 -9.3694321888780829e-01
    7.8807318969532324e-03 -9.0676470058236280e-01
    7.8642178469902971e-03 -9.2932037728458516e-01
    7.8433964764661537e-03 -1.0081634007555276e+00
    7.8472878868018851e-03 -1.0330667407076384e+00
    7.8441742954003316e-03 -9.8386991009990743e-01
    7.8433964764661555e-03 -9.9190270074334186e-01
    7.8642178469902971e-03 -9.2932037728458516e-01
    7.8558694180478547e-03 -1.0586263057247414e+00
    7.8524854551865406e-03 -1.0500305245868344e+00
    7.8433964764661537e-03 -1.0081634007555276e+00
    7.8558694180478564e-03 -9.4462039587746183e-01
    7.8431372549019607e-03 -1. 7.8642178469902971e-03
    -9.2932037728458516e-01 7.9284943457188454e-03
    -8.6294892726269146e-01 7.9284943457188454e-03
    -8.6294892726269146e-01 7.9716870076836071e-03
    -8.3459674342638734e-01 7.9716870076836071e-03
    -8.3459674342638734e-01 7.9716870076836071e-03
    -8.3459674342638734e-01 8.1228490270748802e-03
    -7.6622240517590490e-01 8.4871850194674289e-03
    -6.6862457592389746e-01 8.8940375957897947e-03
    -5.9926289898461726e-01 9.9751505614209066e-03
    -4.8598446942532342e-01 1.0736863958847565e-02
    -4.3405736614121559e-01 1.2160909619707781e-02
    -3.6556880747048393e-01 1.4034405489687355e-02
    -3.0550504633038938e-01 1.8205238588207225e-02
    -2.2645540682891915e-01 1.8974251507997093e-02
    -2.1635274585338149e-01 1.5058830696019394e-02
    -2.8097574347450821e-01 1.4349134593916421e-02
    -2.9748205865436478e-01 1.1657704720844767e-02
    -3.8669459561826547e-01 9.8189211748043546e-03
    -4.9872934991536749e-01 8.8940375957897947e-03
    -5.9926289898461726e-01 8.6913966989453917e-03
    -6.3065622388689124e-01 8.1813514099009100e-03
    -7.4629888470803418e-01 7.9716870076836071e-03
    -8.3459674342638734e-01 7.9021179115696498e-03
    -8.8465173692938270e-01 7.8597794321023304e-03
    -9.3694321888780829e-01 7.8558694180478564e-03
    -9.4462039587746183e-01 7.8524854551865406e-03
    -9.5235326648573349e-01 7.8454711746842858e-03
    -9.7590007294853309e-01 7.8454711746842858e-03
    -9.7590007294853309e-01 7.8691873374369392e-03
    -1.0848922298746904e+00 7.8746909077593852e-03
    -1.0938137736509683e+00 7.8642178469902971e-03
    -1.0760551736979407e+00 7.8558694180478564e-03
    -9.4462039587746183e-01 7.8433964764661555e-03
    -9.9190270074334186e-01 7.8472878868018851e-03
    -1.0330667407076384e+00 7.8597794321023286e-03
    -1.0673005362982857e+00 7.9384202252182241e-03
    -1.1684967331510239e+00 7.8642178469902971e-03
    -1.0760551736979407e+00 7.9284943457188454e-03
    -1.1588171308956141e+00 7.8691873374369392e-03
    -1.0848922298746904e+00 7.8454711746842858e-03
    -9.7590007294853309e-01 7.8496255150202632e-03
    -1.0415112878465911e+00 7.8454711746842858e-03
    -9.7590007294853309e-01 7.8524854551865406e-03
    -9.5235326648573349e-01 7.8807318969532324e-03
    -9.0676470058236280e-01 7.9384202252182241e-03
    -8.5580042427962322e-01 8.0244620101214952e-03
    -8.0684986918843571e-01 8.1047692120905686e-03
    -7.7291823461644193e-01 8.3446945648686134e-03
    -7.0064904974537079e-01 9.2385115320093407e-03
    -5.5543733966836650e-01 1.0057754089811842e-02
    -4.7958315233127197e-01 1.1362856908643155e-02
    -4.0047142031681360e-01 1.4034405489687355e-02
    -3.0550504633038938e-01 1.6388654783484429e-02
    -2.5482359571881275e-01 1.6927269800051443e-02
    -2.4565184222025874e-01 1.3470340601865728e-02
    -3.2115263264204263e-01 1.2160909619707781e-02
    -3.6556880747048393e-01 1.0143565573700776e-02
    -4.7316022340738378e-01 8.8940375957897947e-03
    -5.9926289898461726e-01 8.6189439075195270e-03
    -6.4326752090267691e-01 8.5509593791990041e-03
    -6.5592115238002113e-01 8.1416302059667319e-03
    -7.5955452531275003e-01 8.0392156862745100e-03
    -8.0000000000000004e-01 7.8496255150202632e-03
    -9.6014321848357609e-01 7.8597794321023286e-03
    -1.0673005362982857e+00 7.8441742954003316e-03
    -9.8386991009990743e-01 7.8454711746842858e-03
    -9.7590007294853309e-01 7.8454711746842858e-03
    -1.0246950765959599e+00 7.8691873374369392e-03
    -1.0848922298746904e+00 7.9716870076836071e-03
    -1.1981834435329324e+00 8.0103414932715805e-03
    -1.2289036095775181e+00 7.8807318969532341e-03
    -1.1028219331407116e+00 7.8441742954003316e-03
    -1.0163945352271770e+00 7.9191391868905468e-03
    -1.1492409307804574e+00 7.8642178469902971e-03
    -1.0760551736979407e+00 7.8807318969532341e-03
    -1.1028219331407116e+00 8.0546124745680021e-03
    -1.2607433062326867e+00 7.9839626900463732e-03
    -1.2083045973594573e+00 7.9489231011126392e-03
    -1.1782824426100502e+00 7.9600096592242452e-03
    -1.1881770515720094e+00 7.9103488717587739e-03
    -1.1397655112174381e+00 7.9839626900463732e-03
    -1.2083045973594573e+00 7.8691873374369392e-03
    -1.0848922298746904e+00 7.9284943457188454e-03
    -1.1588171308956141e+00 7.8472878868018851e-03
    -1.0330667407076384e+00 7.8691873374369392e-03
    -9.2175054117172928e-01 7.8944411960434474e-03
    -8.9197558147978706e-01 7.9716870076836071e-03
    -8.3459674342638734e-01 8.0546124745680021e-03
    -7.9318287478215377e-01 8.5844098666386041e-03
    -6.4958857588405539e-01 9.4743065453099518e-03
    -5.3033008588991071e-01 1.0970361063355492e-02
    -4.2075348224698805e-01 1.2755483117215145e-02
    -3.4377582547616431e-01 1.5461539162770373e-02
    -2.7246248890491692e-01 1.8205238588207225e-02
    -2.2645540682891915e-01 1.2978628025340616e-02
    -3.3633639699815621e-01 1.0522672835293128e-02
    -4.4721359549995793e-01 8.7686042396248626e-03
    -6.1807966469550857e-01 8.3713575042722223e-03
    -6.9421013450062330e-01 8.4568029589957572e-03
    -6.7499726056862475e-01 8.3189033080770299e-03
    -7.0710678118654757e-01 7.9839626900463732e-03
    -8.2760588860236795e-01 7.9021179115696498e-03
    -8.8465173692938270e-01 7.8472878868018851e-03
    -9.6799167042684231e-01 7.8524854551865406e-03
    -1.0500305245868344e+00 7.8472878868018851e-03
    -1.0330667407076384e+00 7.8558694180478564e-03
    -9.4462039587746183e-01 7.8433964764661555e-03
    -9.9190270074334186e-01 7.8807318969532341e-03
    -1.1028219331407116e+00 8.0392156862745100e-03
    -1.2500000000000002e+00 8.0392156862745100e-03
    -1.2500000000000002e+00 7.9191391868905468e-03
    -1.1492409307804574e+00 7.9284943457188454e-03
    -1.1588171308956141e+00 7.9839626900463732e-03
    -1.2083045973594573e+00 7.9191391868905468e-03
    -1.1492409307804574e+00 7.9284943457188454e-03
    -1.1588171308956141e+00 7.9021179115696498e-03
    -1.1303883305208779e+00 7.9839626900463732e-03
    -1.2083045973594573e+00 7.9600096592242452e-03
    -1.1881770515720094e+00 7.9968446993653915e-03
    -1.2185435916898850e+00 8.0546124745680021e-03
    -1.2607433062326867e+00 8.1416302059667319e-03
    -1.3165611772087666e+00 8.0244620101214952e-03
    -1.2393879433925454e+00 7.9600096592242452e-03
    -1.1881770515720094e+00 7.9489231011126392e-03
    -1.1782824426100502e+00 7.8441742954003316e-03
    -1.0163945352271770e+00 7.8454711746842858e-03
    -1.0246950765959599e+00 7.8524854551865406e-03
    -9.5235326648573349e-01 7.9191391868905468e-03
    -8.7013956187663200e-01 8.1611262657550511e-03
    -7.5291366098093848e-01 8.8940375957897947e-03
    -5.9926289898461726e-01 1.0057754089811842e-02
    -4.7958315233127197e-01 1.3470340601865728e-02
    -3.2115263264204263e-01 1.5461539162770373e-02
    -2.7246248890491692e-01 1.5461539162770373e-02
    -2.7246248890491692e-01 1.1984155173528285e-02
    -3.7267799624996495e-01 9.8189211748043546e-03
    -4.9872934991536749e-01 8.8090892445416621e-03
    -6.1180199082518005e-01 8.2023205596889175e-03
    -7.3970927486462867e-01 8.0244620101214952e-03
    -8.0684986918843571e-01 7.9384202252182241e-03
    -8.5580042427962322e-01 7.9021179115696498e-03
    -8.8465173692938270e-01 7.8496255150202632e-03
    -9.6014321848357609e-01 7.8558694180478547e-03
    -1.0586263057247414e+00 7.8454711746842858e-03
    -9.7590007294853309e-01 7.8558694180478547e-03
    -1.0586263057247414e+00 7.8558694180478547e-03
    -1.0586263057247414e+00 7.8597794321023286e-03
    -1.0673005362982857e+00 8.0706628640648346e-03
    -1.2716215146794838e+00 8.1228490270748802e-03
    -1.3051040967281895e+00 8.0706628640648346e-03
    -1.2716215146794838e+00 7.9968446993653915e-03
    -1.2185435916898850e+00 8.0103414932715805e-03
    -1.2289036095775181e+00 7.9716870076836071e-03
    -1.1981834435329324e+00 8.0103414932715805e-03
    -1.2289036095775181e+00 7.9839626900463732e-03
    -1.2083045973594573e+00 7.9191391868905468e-03
    -1.1492409307804574e+00 8.0546124745680021e-03
    -1.2607433062326867e+00 8.0392156862745100e-03
    -1.2500000000000002e+00 8.1228490270748802e-03
    -1.3051040967281895e+00 8.5509593791990024e-03
    -1.5245734893157246e+00 8.4568029589957572e-03
    -1.4814874939752933e+00 8.2240493877321786e-03
    -1.3639886789409466e+00 7.9103488717587739e-03
    -1.1397655112174381e+00 7.9191391868905468e-03
    -1.1492409307804574e+00 7.8691873374369392e-03
    -1.0848922298746904e+00 7.8597794321023286e-03
    -1.0673005362982857e+00 7.8558694180478547e-03
    -1.0586263057247414e+00 7.8558694180478564e-03
    -9.4462039587746183e-01 8.0392156862745100e-03
    -8.0000000000000004e-01 8.4273879030585599e-03
    -6.8138514386924698e-01 9.6048898765513559e-03
    -5.1772699090679264e-01 1.2160909619707781e-02
    -3.6556880747048393e-01 1.5461539162770373e-02
    -2.7246248890491692e-01 1.4034405489687355e-02
    -3.0550504633038938e-01 1.0736863958847565e-02
    -4.3405736614121559e-01 9.0321298050584312e-03
    -5.8047956186168204e-01 8.6189439075195270e-03
    -6.4326752090267691e-01 8.0873779011537764e-03
    -7.7964295498317815e-01 7.8944411960434474e-03
    -8.9197558147978706e-01 7.8642178469902971e-03
    -9.2932037728458516e-01 7.8431372549019607e-03 -1.
    7.8597794321023286e-03 -1.0673005362982857e+00
    7.8746909077593852e-03 -1.0938137736509683e+00
    7.8597794321023286e-03 -1.0673005362982857e+00
    7.8642178469902971e-03 -1.0760551736979407e+00
    7.9384202252182241e-03 -1.1684967331510239e+00
    7.9600096592242452e-03 -1.1881770515720094e+00
    7.9384202252182241e-03 -1.1684967331510239e+00
    7.9968446993653915e-03 -1.2185435916898850e+00
    7.9968446993653915e-03 -1.2185435916898850e+00
    7.9600096592242452e-03 -1.1881770515720094e+00
    8.0244620101214952e-03 -1.2393879433925454e+00
    8.0546124745680021e-03 -1.2607433062326867e+00
    8.0706628640648346e-03 -1.2716215146794838e+00
    7.9968446993653915e-03 -1.2185435916898850e+00
    7.9600096592242452e-03 -1.1881770515720094e+00
    8.2698527430663648e-03 -1.3887301496588274e+00
    8.2939627071927542e-03 -1.4013762598555564e+00
    8.4273879030585617e-03 -1.4675987714106862e+00
    8.6913966989453934e-03 -1.5856499343441839e+00
    8.3989142144857698e-03 -1.4539339911539697e+00
    8.2465543537892979e-03 -1.3762694674586162e+00
    8.1813514099009100e-03 -1.3399457248166977e+00
    7.9968446993653915e-03 -1.2185435916898850e+00
    7.9284943457188454e-03 -1.1588171308956141e+00
    7.8524854551865406e-03 -1.0500305245868344e+00
    7.8524854551865406e-03 -9.5235326648573349e-01
    7.8441742954003316e-03 -9.8386991009990743e-01
    7.9489231011126392e-03 -8.4869294817367258e-01
    8.6189439075195270e-03 -6.4326752090267691e-01
    9.2945120916310894e-03 -5.4916964736527596e-01
    9.8189211748043546e-03 -4.9872934991536749e-01
    1.3216389175528722e-02 -3.2879797461071458e-01
    1.1984155173528285e-02 -3.7267799624996495e-01
    9.8955904512796899e-03 -4.9236596391733095e-01
    9.0812189130619024e-03 -5.7422097639299963e-01
    8.4273879030585599e-03 -6.8138514386924698e-01
    7.9716870076836071e-03 -8.3459674342638734e-01
    7.8807318969532324e-03 -9.0676470058236280e-01
    7.8431372549019607e-03 -1. 7.8524854551865406e-03
    -1.0500305245868344e+00 7.8746909077593852e-03
    -1.0938137736509683e+00 7.9021179115696498e-03
    -1.1303883305208779e+00 7.9103488717587739e-03
    -1.1397655112174381e+00 7.9021179115696498e-03
    -1.1303883305208779e+00 8.1047692120905703e-03
    -1.2937979144666532e+00 8.1228490270748802e-03
    -1.3051040967281895e+00 8.0546124745680021e-03
    -1.2607433062326867e+00 7.9489231011126392e-03
    -1.1782824426100502e+00 8.0103414932715805e-03
    -1.2289036095775181e+00 7.9489231011126392e-03
    -1.1782824426100502e+00 8.0244620101214952e-03
    -1.2393879433925454e+00 8.0103414932715805e-03
    -1.2289036095775181e+00 7.9191391868905468e-03
    -1.1492409307804574e+00 7.8873139843755498e-03
    -1.1119188982851385e+00 8.0103414932715805e-03
    -1.2289036095775181e+00 8.2465543537892979e-03
    -1.3762694674586162e+00 8.1813514099009100e-03
    -1.3399457248166977e+00 8.4568029589957572e-03
    -1.4814874939752933e+00 8.3989142144857698e-03
    -1.4539339911539697e+00 8.2939627071927542e-03
    -1.4013762598555564e+00 8.3713575042722206e-03
    -1.4404860290887931e+00 8.2240493877321786e-03
    -1.3639886789409466e+00 8.2240493877321786e-03
    -1.3639886789409466e+00 8.1416302059667319e-03
    -1.3165611772087666e+00 7.9284943457188454e-03
    -1.1588171308956141e+00 7.8496255150202632e-03
    -1.0415112878465911e+00 7.8496255150202632e-03
    -9.6014321848357609e-01 7.8642178469902971e-03
    -9.2932037728458516e-01 8.1813514099009100e-03
    -7.4629888470803418e-01 8.8090892445416621e-03
    -6.1180199082518005e-01 9.5384616375095901e-03
    -5.2403377654854510e-01 1.1816662993334013e-02
    -3.7971837789555030e-01 1.2755483117215145e-02
    -3.4377582547616431e-01 9.7450010180330920e-03
    -5.0507627227610541e-01 8.4568029589957572e-03
    -6.7499726056862475e-01 8.2023205596889175e-03
    -7.3970927486462867e-01 7.8642178469902971e-03
    -9.2932037728458516e-01 7.8441742954003316e-03
    -9.8386991009990743e-01 7.8524854551865406e-03
    -1.0500305245868344e+00 7.9489231011126392e-03
    -1.1782824426100502e+00 7.9839626900463732e-03
    -1.2083045973594573e+00 7.9103488717587739e-03
    -1.1397655112174381e+00 7.9384202252182241e-03
    -1.1684967331510239e+00 7.9384202252182241e-03
    -1.1684967331510239e+00 8.1228490270748802e-03
    -1.3051040967281895e+00 7.9968446993653915e-03
    -1.2185435916898850e+00 8.0546124745680021e-03
    -1.2607433062326867e+00 7.9716870076836071e-03
    -1.1981834435329324e+00 8.0392156862745100e-03
    -1.2500000000000002e+00 7.9600096592242452e-03
    -1.1881770515720094e+00 8.0244620101214952e-03
    -1.2393879433925454e+00 8.0103414932715805e-03
    -1.2289036095775181e+00 7.9489231011126392e-03
    -1.1782824426100502e+00 7.9021179115696498e-03
    -1.1303883305208779e+00 8.0392156862745100e-03
    -1.2500000000000002e+00 8.1813514099009100e-03
    -1.3399457248166977e+00 8.2939627071927542e-03
    -1.4013762598555564e+00 8.3189033080770299e-03
    -1.4142135623730951e+00 8.3446945648686117e-03
    -1.4272480642961254e+00 8.4273879030585617e-03
    -1.4675987714106862e+00 8.1611262657550528e-03
    -1.3281735367865999e+00 8.2240493877321786e-03
    -1.3639886789409466e+00 8.2240493877321786e-03
    -1.3639886789409466e+00 8.2023205596889158e-03
    -1.3518824678560450e+00 8.0546124745680021e-03
    -1.2607433062326867e+00 7.9384202252182241e-03
    -1.1684967331510239e+00 7.8472878868018851e-03
    -1.0330667407076384e+00 7.8642178469902971e-03
    -9.2932037728458516e-01 8.0103414932715805e-03
    -8.1373347120673489e-01 8.3189033080770299e-03
    -7.0710678118654757e-01 9.2945120916310894e-03
    -5.4916964736527596e-01 1.0970361063355492e-02
    -4.2075348224698805e-01 1.2978628025340616e-02
    -3.3633639699815621e-01 9.4743065453099518e-03
    -5.3033008588991071e-01 8.5509593791990041e-03
    -6.5592115238002113e-01 8.1047692120905686e-03
    -7.7291823461644193e-01 7.8873139843755515e-03
    -8.9934616773062692e-01 7.8433964764661537e-03
    -1.0081634007555276e+00 7.8873139843755498e-03
    -1.1119188982851385e+00 8.0392156862745100e-03
    -1.2500000000000002e+00 8.1047692120905703e-03
    -1.2937979144666532e+00 8.0392156862745100e-03
    -1.2500000000000002e+00 8.1611262657550528e-03
    -1.3281735367865999e+00 8.0873779011537764e-03
    -1.2826384098110348e+00 8.0546124745680021e-03
    -1.2607433062326867e+00 8.0706628640648346e-03
    -1.2716215146794838e+00 7.9716870076836071e-03
    -1.1981834435329324e+00 7.9191391868905468e-03
    -1.1492409307804574e+00 7.9839626900463732e-03
    -1.2083045973594573e+00 7.9600096592242452e-03
    -1.1881770515720094e+00 7.9384202252182241e-03
    -1.1684967331510239e+00 7.9284943457188454e-03
    -1.1588171308956141e+00 7.9489231011126392e-03
    -1.1782824426100502e+00 8.0546124745680021e-03
    -1.2607433062326867e+00 8.0546124745680021e-03
    -1.2607433062326867e+00 8.1813514099009100e-03
    -1.3399457248166977e+00 8.1813514099009100e-03
    -1.3399457248166977e+00 8.1611262657550528e-03
    -1.3281735367865999e+00 8.1228490270748802e-03
    -1.3051040967281895e+00 8.3189033080770299e-03
    -1.4142135623730951e+00 8.4568029589957572e-03
    -1.4814874939752933e+00 8.3989142144857698e-03
    -1.4539339911539697e+00 8.2023205596889158e-03
    -1.3518824678560450e+00 8.1611262657550528e-03
    -1.3281735367865999e+00 8.0392156862745100e-03
    -1.2500000000000002e+00 7.9839626900463732e-03
    -1.2083045973594573e+00 7.8642178469902971e-03
    -1.0760551736979407e+00 7.8431372549019607e-03 -1.
    7.8691873374369392e-03 -9.2175054117172928e-01
    8.2240493877321803e-03 -7.3314391493075892e-01
    9.0812189130619024e-03 -5.7422097639299963e-01
    1.0232762719862332e-02 -4.6671381185713562e-01
    1.2160909619707781e-02 -3.6556880747048393e-01
    9.3524223845613923e-03 -5.4289671403063688e-01
    8.4273879030585599e-03 -6.8138514386924698e-01
    7.9968446993653915e-03 -8.2065180664828985e-01
    7.8496255150202632e-03 -9.6014321848357609e-01
    7.8454711746842858e-03 -1.0246950765959599e+00
    7.8873139843755498e-03 -1.1119188982851385e+00
    7.9839626900463732e-03 -1.2083045973594573e+00
    8.0546124745680021e-03 -1.2607433062326867e+00
    8.1047692120905703e-03 -1.2937979144666532e+00
    8.3713575042722206e-03 -1.4404860290887931e+00
    8.3713575042722206e-03 -1.4404860290887931e+00
    8.1416302059667319e-03 -1.3165611772087666e+00
    8.1228490270748802e-03 -1.3051040967281895e+00
    8.1416302059667319e-03 -1.3165611772087666e+00
    8.0244620101214952e-03 -1.2393879433925454e+00
    8.0392156862745100e-03 -1.2500000000000002e+00
    8.0244620101214952e-03 -1.2393879433925454e+00
    7.9716870076836071e-03 -1.1981834435329324e+00
    8.0244620101214952e-03 -1.2393879433925454e+00
    7.9489231011126392e-03 -1.1782824426100502e+00
    7.9600096592242452e-03 -1.1881770515720094e+00
    8.1047692120905703e-03 -1.2937979144666532e+00
    8.1416302059667319e-03 -1.3165611772087666e+00
    8.2240493877321786e-03 -1.3639886789409466e+00
    8.1047692120905703e-03 -1.2937979144666532e+00
    8.1047692120905703e-03 -1.2937979144666532e+00
    8.2240493877321786e-03 -1.3639886789409466e+00
    8.4568029589957572e-03 -1.4814874939752933e+00
    8.2939627071927542e-03 -1.4013762598555564e+00
    8.3446945648686117e-03 -1.4272480642961254e+00
    8.3989142144857698e-03 -1.4539339911539697e+00
    8.2240493877321786e-03 -1.3639886789409466e+00
    8.2240493877321786e-03 -1.3639886789409466e+00
    8.0546124745680021e-03 -1.2607433062326867e+00
    7.8524854551865406e-03 -1.0500305245868344e+00
    7.8433964764661555e-03 -9.9190270074334186e-01
    8.0873779011537764e-03 -7.7964295498317815e-01
    9.0321298050584312e-03 -5.8047956186168204e-01
    1.0232762719862332e-02 -4.6671381185713562e-01
    1.2755483117215145e-02 -3.4377582547616431e-01
    9.8189211748043546e-03 -4.9872934991536749e-01
    8.3989142144857698e-03 -6.8778913353990179e-01
    8.0706628640648346e-03 -7.8639751565704907e-01
    7.8807318969532324e-03 -9.0676470058236280e-01
    7.8472878868018851e-03 -1.0330667407076384e+00
    7.9103488717587739e-03 -1.1397655112174381e+00
    7.8944411960434474e-03 -1.1211069235112918e+00
    8.0392156862745100e-03 -1.2500000000000002e+00
    8.0546124745680021e-03 -1.2607433062326867e+00
    8.1416302059667319e-03 -1.3165611772087666e+00
    8.3713575042722206e-03 -1.4404860290887931e+00
    8.2023205596889158e-03 -1.3518824678560450e+00
    8.1416302059667319e-03 -1.3165611772087666e+00
    8.1416302059667319e-03 -1.3165611772087666e+00
    8.1228490270748802e-03 -1.3051040967281895e+00
    8.1416302059667319e-03 -1.3165611772087666e+00
    8.1611262657550528e-03 -1.3281735367865999e+00
    8.0103414932715805e-03 -1.2289036095775181e+00
    8.0873779011537764e-03 -1.2826384098110348e+00
    8.2240493877321786e-03 -1.3639886789409466e+00
    8.1416302059667319e-03 -1.3165611772087666e+00
    8.1047692120905703e-03 -1.2937979144666532e+00
    8.1047692120905703e-03 -1.2937979144666532e+00
    8.1228490270748802e-03 -1.3051040967281895e+00
    8.0103414932715805e-03 -1.2289036095775181e+00
    8.0706628640648346e-03 -1.2716215146794838e+00
    8.1611262657550528e-03 -1.3281735367865999e+00
    8.1416302059667319e-03 -1.3165611772087666e+00
    8.1611262657550528e-03 -1.3281735367865999e+00
    8.2465543537892979e-03 -1.3762694674586162e+00
    8.2240493877321786e-03 -1.3639886789409466e+00
    8.4273879030585617e-03 -1.4675987714106862e+00
    8.1813514099009100e-03 -1.3399457248166977e+00
    8.0103414932715805e-03 -1.2289036095775181e+00
    7.9103488717587739e-03 -1.1397655112174381e+00
    7.8433964764661555e-03 -9.9190270074334186e-01
    8.0103414932715805e-03 -8.1373347120673489e-01
    8.9385947009132799e-03 -5.9299945332888104e-01
    9.8189211748043546e-03 -4.9872934991536749e-01
    1.3470340601865728e-02 -3.2115263264204263e-01
    9.6736981731151625e-03 -5.1140831195675895e-01
    8.4273879030585599e-03 -6.8138514386924698e-01
    7.9839626900463732e-03 -8.2760588860236795e-01
    7.8524854551865406e-03 -9.5235326648573349e-01
    7.8472878868018851e-03 -1.0330667407076384e+00
    7.9284943457188454e-03 -1.1588171308956141e+00
    8.0392156862745100e-03 -1.2500000000000002e+00
    8.0244620101214952e-03 -1.2393879433925454e+00
    8.1047692120905703e-03 -1.2937979144666532e+00
    8.2939627071927542e-03 -1.4013762598555564e+00
    8.3189033080770299e-03 -1.4142135623730951e+00
    8.4273879030585617e-03 -1.4675987714106862e+00
    8.1611262657550528e-03 -1.3281735367865999e+00
    8.1813514099009100e-03 -1.3399457248166977e+00
    8.1813514099009100e-03 -1.3399457248166977e+00
    8.1047692120905703e-03 -1.2937979144666532e+00
    8.1228490270748802e-03 -1.3051040967281895e+00
    8.3989142144857698e-03 -1.4539339911539697e+00
    8.2240493877321786e-03 -1.3639886789409466e+00
    8.2698527430663648e-03 -1.3887301496588274e+00
    8.1047692120905703e-03 -1.2937979144666532e+00
    8.0103414932715805e-03 -1.2289036095775181e+00
    8.0244620101214952e-03 -1.2393879433925454e+00
    8.1416302059667319e-03 -1.3165611772087666e+00
    8.1228490270748802e-03 -1.3051040967281895e+00
    8.1813514099009100e-03 -1.3399457248166977e+00
    8.1047692120905703e-03 -1.2937979144666532e+00
    8.1611262657550528e-03 -1.3281735367865999e+00
    8.4273879030585617e-03 -1.4675987714106862e+00
    8.2023205596889158e-03 -1.3518824678560450e+00
    8.2023205596889158e-03 -1.3518824678560450e+00
    8.2240493877321786e-03 -1.3639886789409466e+00
    8.0392156862745100e-03 -1.2500000000000002e+00
    7.9103488717587739e-03 -1.1397655112174381e+00
    7.9716870076836071e-03 -1.1981834435329324e+00
    7.8524854551865406e-03 -1.0500305245868344e+00
    7.9716870076836071e-03 -8.3459674342638734e-01
    8.9846074530633788e-03 -5.8673869403846823e-01
    1.0057754089811842e-02 -4.7958315233127197e-01
    1.3470340601865728e-02 -3.2115263264204263e-01
    9.4743065453099518e-03 -5.3033008588991071e-01
    8.3189033080770299e-03 -7.0710678118654757e-01
    7.8691873374369392e-03 -9.2175054117172928e-01
    7.8746909077593834e-03 -9.1423240782767479e-01
    7.8441742954003316e-03 -9.8386991009990743e-01
    7.8944411960434474e-03 -1.1211069235112918e+00
    8.0103414932715805e-03 -1.2289036095775181e+00
    8.2240493877321786e-03 -1.3639886789409466e+00
    8.0103414932715805e-03 -1.2289036095775181e+00
    8.2698527430663648e-03 -1.3887301496588274e+00
    8.3713575042722206e-03 -1.4404860290887931e+00
    8.1416302059667319e-03 -1.3165611772087666e+00
    8.1611262657550528e-03 -1.3281735367865999e+00
    8.2240493877321786e-03 -1.3639886789409466e+00
    8.1416302059667319e-03 -1.3165611772087666e+00
    8.1813514099009100e-03 -1.3399457248166977e+00
    8.0546124745680021e-03 -1.2607433062326867e+00
    8.1228490270748802e-03 -1.3051040967281895e+00
    8.3189033080770299e-03 -1.4142135623730951e+00
    8.3989142144857698e-03 -1.4539339911539697e+00
    8.0873779011537764e-03 -1.2826384098110348e+00
    7.9716870076836071e-03 -1.1981834435329324e+00
    8.1611262657550528e-03 -1.3281735367865999e+00
    8.3189033080770299e-03 -1.4142135623730951e+00
    8.2939627071927542e-03 -1.4013762598555564e+00
    8.3189033080770299e-03 -1.4142135623730951e+00
    8.3189033080770299e-03 -1.4142135623730951e+00
    8.2023205596889158e-03 -1.3518824678560450e+00
    8.2240493877321786e-03 -1.3639886789409466e+00
    8.2465543537892979e-03 -1.3762694674586162e+00
    8.2023205596889158e-03 -1.3518824678560450e+00
    8.1047692120905703e-03 -1.2937979144666532e+00
    8.1416302059667319e-03 -1.3165611772087666e+00
    7.9968446993653915e-03 -1.2185435916898850e+00
    7.8873139843755498e-03 -1.1119188982851385e+00
    7.8454711746842858e-03 -1.0246950765959599e+00
    7.9384202252182241e-03 -8.5580042427962322e-01
    8.8940375957897947e-03 -5.9926289898461726e-01
    9.9751505614209066e-03 -4.8598446942532342e-01
    1.2978628025340616e-02 -3.3633639699815621e-01
    9.8189211748043546e-03 -4.9872934991536749e-01
    8.2698527430663648e-03 -7.2008229982309568e-01
    7.9600096592242452e-03 -8.4162541153017323e-01
    7.8496255150202632e-03 -9.6014321848357609e-01
    7.8524854551865406e-03 -1.0500305245868344e+00
    7.8597794321023286e-03 -1.0673005362982857e+00
    7.9384202252182241e-03 -1.1684967331510239e+00
    7.9600096592242452e-03 -1.1881770515720094e+00
    7.9489231011126392e-03 -1.1782824426100502e+00
    7.9968446993653915e-03 -1.2185435916898850e+00
    7.9968446993653915e-03 -1.2185435916898850e+00
    8.0392156862745100e-03 -1.2500000000000002e+00
    8.1047692120905703e-03 -1.2937979144666532e+00
    8.0706628640648346e-03 -1.2716215146794838e+00
    8.0546124745680021e-03 -1.2607433062326867e+00
    8.0103414932715805e-03 -1.2289036095775181e+00
    8.0103414932715805e-03 -1.2289036095775181e+00
    8.0244620101214952e-03 -1.2393879433925454e+00
    8.0873779011537764e-03 -1.2826384098110348e+00
    8.1813514099009100e-03 -1.3399457248166977e+00
    8.0546124745680021e-03 -1.2607433062326867e+00
    7.9103488717587739e-03 -1.1397655112174381e+00
    8.0392156862745100e-03 -1.2500000000000002e+00
    8.0706628640648346e-03 -1.2716215146794838e+00
    8.1813514099009100e-03 -1.3399457248166977e+00
    8.2023205596889158e-03 -1.3518824678560450e+00
    8.1047692120905703e-03 -1.2937979144666532e+00
    8.0706628640648346e-03 -1.2716215146794838e+00
    8.0103414932715805e-03 -1.2289036095775181e+00
    8.0546124745680021e-03 -1.2607433062326867e+00
    7.9968446993653915e-03 -1.2185435916898850e+00
    7.9103488717587739e-03 -1.1397655112174381e+00
    7.9103488717587739e-03 -1.1397655112174381e+00
    7.8454711746842858e-03 -9.7590007294853309e-01
    7.8496255150202632e-03 -9.6014321848357609e-01
    7.8746909077593834e-03 -9.1423240782767479e-01
    8.0392156862745100e-03 -8.0000000000000004e-01
    8.4871850194674289e-03 -6.6862457592389746e-01
    9.7450010180330920e-03 -5.0507627227610541e-01
    1.2545587019715957e-02 -3.5112344158839170e-01
    9.7450010180330920e-03 -5.0507627227610541e-01
    8.3989142144857698e-03 -6.8778913353990179e-01
    7.9489231011126392e-03 -8.4869294817367258e-01
    7.8873139843755515e-03 -8.9934616773062692e-01
    7.8431372549019607e-03 -1. 7.8746909077593852e-03
    -1.0938137736509683e+00 7.8873139843755498e-03
    -1.1119188982851385e+00 7.9716870076836071e-03
    -1.1981834435329324e+00 7.9191391868905468e-03
    -1.1492409307804574e+00 7.9968446993653915e-03
    -1.2185435916898850e+00 7.9968446993653915e-03
    -1.2185435916898850e+00 8.1228490270748802e-03
    -1.3051040967281895e+00 7.9489231011126392e-03
    -1.1782824426100502e+00 8.1416302059667319e-03
    -1.3165611772087666e+00 8.1611262657550528e-03
    -1.3281735367865999e+00 8.1228490270748802e-03
    -1.3051040967281895e+00 8.0392156862745100e-03
    -1.2500000000000002e+00 7.9968446993653915e-03
    -1.2185435916898850e+00 8.0392156862745100e-03
    -1.2500000000000002e+00 8.0392156862745100e-03
    -1.2500000000000002e+00 7.9284943457188454e-03
    -1.1588171308956141e+00 8.0392156862745100e-03
    -1.2500000000000002e+00 8.0706628640648346e-03
    -1.2716215146794838e+00 8.0392156862745100e-03
    -1.2500000000000002e+00 8.0546124745680021e-03
    -1.2607433062326867e+00 8.2023205596889158e-03
    -1.3518824678560450e+00 7.9839626900463732e-03
    -1.2083045973594573e+00 8.0546124745680021e-03
    -1.2607433062326867e+00 7.9839626900463732e-03
    -1.2083045973594573e+00 7.8597794321023286e-03
    -1.0673005362982857e+00 7.9021179115696498e-03
    -1.1303883305208779e+00 7.8807318969532341e-03
    -1.1028219331407116e+00 7.9191391868905468e-03
    -1.1492409307804574e+00 7.8433964764661555e-03
    -9.9190270074334186e-01 7.8472878868018851e-03
    -9.6799167042684231e-01 7.8691873374369392e-03
    -9.2175054117172928e-01 8.1416302059667319e-03
    -7.5955452531275003e-01 8.5185610415163589e-03
    -6.6226617853252190e-01 9.5384616375095901e-03
    -5.2403377654854510e-01 1.5058830696019394e-02
    -2.8097574347450821e-01 1.0522672835293128e-02
    -4.4721359549995793e-01 8.8090892445416621e-03
    -6.1180199082518005e-01 8.0244620101214952e-03
    -8.0684986918843571e-01 7.9716870076836071e-03
    -8.3459674342638734e-01 7.8472878868018851e-03
    -9.6799167042684231e-01 7.8454711746842858e-03
    -1.0246950765959599e+00 7.9284943457188454e-03
    -1.1588171308956141e+00 7.9489231011126392e-03
    -1.1782824426100502e+00 7.9284943457188454e-03
    -1.1588171308956141e+00 7.9103488717587739e-03
    -1.1397655112174381e+00 8.0103414932715805e-03
    -1.2289036095775181e+00 8.0873779011537764e-03
    -1.2826384098110348e+00 8.1416302059667319e-03
    -1.3165611772087666e+00 8.0244620101214952e-03
    -1.2393879433925454e+00 8.1416302059667319e-03
    -1.3165611772087666e+00 8.1047692120905703e-03
    -1.2937979144666532e+00 8.0706628640648346e-03
    -1.2716215146794838e+00 8.0873779011537764e-03
    -1.2826384098110348e+00 8.0244620101214952e-03
    -1.2393879433925454e+00 8.0706628640648346e-03
    -1.2716215146794838e+00 7.9716870076836071e-03
    -1.1981834435329324e+00 7.9839626900463732e-03
    -1.2083045973594573e+00 8.0244620101214952e-03
    -1.2393879433925454e+00 8.1416302059667319e-03
    -1.3165611772087666e+00 7.9839626900463732e-03
    -1.2083045973594573e+00 8.0392156862745100e-03
    -1.2500000000000002e+00 8.0546124745680021e-03
    -1.2607433062326867e+00 8.0706628640648346e-03
    -1.2716215146794838e+00 8.0392156862745100e-03
    -1.2500000000000002e+00 8.0392156862745100e-03
    -1.2500000000000002e+00 7.8642178469902971e-03
    -1.0760551736979407e+00 7.8873139843755498e-03
    -1.1119188982851385e+00 7.8642178469902971e-03
    -1.0760551736979407e+00 7.8433964764661555e-03
    -9.9190270074334186e-01 7.8691873374369392e-03
    -9.2175054117172928e-01 7.9021179115696498e-03
    -8.8465173692938270e-01 8.2465543537892996e-03
    -7.2660189275765474e-01 8.8090892445416621e-03
    -6.1180199082518005e-01 1.0232762719862332e-02
    -4.6671381185713562e-01 1.6927269800051443e-02
    -2.4565184222025874e-01 1.0232762719862332e-02
    -4.6671381185713562e-01 8.6913966989453917e-03
    -6.3065622388689124e-01 8.3189033080770299e-03
    -7.0710678118654757e-01 7.9968446993653915e-03
    -8.2065180664828985e-01 7.8524854551865406e-03
    -9.5235326648573349e-01 7.8454711746842858e-03
    -1.0246950765959599e+00 7.8944411960434474e-03
    -1.1211069235112918e+00 7.8807318969532341e-03
    -1.1028219331407116e+00 7.9284943457188454e-03
    -1.1588171308956141e+00 7.8691873374369392e-03
    -1.0848922298746904e+00 7.9384202252182241e-03
    -1.1684967331510239e+00 8.0546124745680021e-03
    -1.2607433062326867e+00 7.9968446993653915e-03
    -1.2185435916898850e+00 8.2023205596889158e-03
    -1.3518824678560450e+00 8.3989142144857698e-03
    -1.4539339911539697e+00 8.0392156862745100e-03
    -1.2500000000000002e+00 8.1228490270748802e-03
    -1.3051040967281895e+00 8.0706628640648346e-03
    -1.2716215146794838e+00 8.0103414932715805e-03
    -1.2289036095775181e+00 8.0392156862745100e-03
    -1.2500000000000002e+00 8.0244620101214952e-03
    -1.2393879433925454e+00 8.1228490270748802e-03
    -1.3051040967281895e+00 8.0244620101214952e-03
    -1.2393879433925454e+00 8.1416302059667319e-03
    -1.3165611772087666e+00 7.9968446993653915e-03
    -1.2185435916898850e+00 8.2240493877321786e-03
    -1.3639886789409466e+00 8.1813514099009100e-03
    -1.3399457248166977e+00 7.9489231011126392e-03
    -1.1782824426100502e+00 7.9384202252182241e-03
    -1.1684967331510239e+00 7.8746909077593852e-03
    -1.0938137736509683e+00 7.8691873374369392e-03
    -1.0848922298746904e+00 7.9103488717587739e-03
    -1.1397655112174381e+00 7.8524854551865406e-03
    -1.0500305245868344e+00 7.8558694180478564e-03
    -9.4462039587746183e-01 7.8454711746842858e-03
    -9.7590007294853309e-01 7.9103488717587739e-03
    -8.7737345108104947e-01 8.1813514099009100e-03
    -7.4629888470803418e-01 8.7686042396248626e-03
    -6.1807966469550857e-01 1.0325537776568479e-02
    -4.6024195821168035e-01 1.7528521675210147e-02
    -2.3620751769642942e-01 1.1506630174723545e-02
    -3.9361094683048226e-01 9.1843434861744715e-03
    -5.6170100711176796e-01 8.5844098666386041e-03
    -6.4958857588405539e-01 8.1228490270748802e-03
    -7.6622240517590490e-01 7.9968446993653915e-03
    -8.2065180664828985e-01 7.8472878868018851e-03
    -1.0330667407076384e+00 7.8873139843755498e-03
    -1.1119188982851385e+00 7.9284943457188454e-03
    -1.1588171308956141e+00 7.8944411960434474e-03
    -1.1211069235112918e+00 7.9968446993653915e-03
    -1.2185435916898850e+00 8.1228490270748802e-03
    -1.3051040967281895e+00 8.3446945648686117e-03
    -1.4272480642961254e+00 8.1047692120905703e-03
    -1.2937979144666532e+00 8.1228490270748802e-03
    -1.3051040967281895e+00 8.1416302059667319e-03
    -1.3165611772087666e+00 8.1416302059667319e-03
    -1.3165611772087666e+00 8.0706628640648346e-03
    -1.2716215146794838e+00 8.0873779011537764e-03
    -1.2826384098110348e+00 8.0392156862745100e-03
    -1.2500000000000002e+00 7.9716870076836071e-03
    -1.1981834435329324e+00 7.9600096592242452e-03
    -1.1881770515720094e+00 8.1047692120905703e-03
    -1.2937979144666532e+00 7.9716870076836071e-03
    -1.1981834435329324e+00 8.0706628640648346e-03
    -1.2716215146794838e+00 8.0244620101214952e-03
    -1.2393879433925454e+00 7.9384202252182241e-03
    -1.1684967331510239e+00 7.9716870076836071e-03
    -1.1981834435329324e+00 7.9968446993653915e-03
    -1.2185435916898850e+00 8.0244620101214952e-03
    -1.2393879433925454e+00 7.9384202252182241e-03
    -1.1684967331510239e+00 7.9489231011126392e-03
    -1.1782824426100502e+00 7.9191391868905468e-03
    -1.1492409307804574e+00 7.8691873374369392e-03
    -1.0848922298746904e+00 7.8441742954003316e-03
    -1.0163945352271770e+00 7.8642178469902971e-03
    -9.2932037728458516e-01 7.9384202252182241e-03
    -8.5580042427962322e-01 8.2698527430663648e-03
    -7.2008229982309568e-01 9.0812189130619024e-03
    -5.7422097639299963e-01 1.0522672835293128e-02
    -4.4721359549995793e-01 1.9858156325469025e-02
    -2.0584674239815451e-01 1.2160909619707781e-02
    -3.6556880747048393e-01 9.5384616375095901e-03
    -5.2403377654854510e-01 8.5509593791990041e-03
    -6.5592115238002113e-01 8.0392156862745100e-03
    -8.0000000000000004e-01 7.9600096592242452e-03
    -8.4162541153017323e-01 7.8873139843755515e-03
    -8.9934616773062692e-01 7.8472878868018851e-03
    -1.0330667407076384e+00 7.8691873374369392e-03
    -1.0848922298746904e+00 7.9600096592242452e-03
    -1.1881770515720094e+00 7.8807318969532341e-03
    -1.1028219331407116e+00 8.0392156862745100e-03
    -1.2500000000000002e+00 8.1611262657550528e-03
    -1.3281735367865999e+00 8.1047692120905703e-03
    -1.2937979144666532e+00 8.2023205596889158e-03
    -1.3518824678560450e+00 8.2240493877321786e-03
    -1.3639886789409466e+00 8.0546124745680021e-03
    -1.2607433062326867e+00 8.0706628640648346e-03
    -1.2716215146794838e+00 8.0873779011537764e-03
    -1.2826384098110348e+00 8.2240493877321786e-03
    -1.3639886789409466e+00 8.1047692120905703e-03
    -1.2937979144666532e+00 8.0103414932715805e-03
    -1.2289036095775181e+00 8.0244620101214952e-03
    -1.2393879433925454e+00 8.0706628640648346e-03
    -1.2716215146794838e+00 8.0103414932715805e-03
    -1.2289036095775181e+00 8.0103414932715805e-03
    -1.2289036095775181e+00 7.9489231011126392e-03
    -1.1782824426100502e+00 8.1228490270748802e-03
    -1.3051040967281895e+00 8.1047692120905703e-03
    -1.2937979144666532e+00 7.9384202252182241e-03
    -1.1684967331510239e+00 7.9191391868905468e-03
    -1.1492409307804574e+00 7.9384202252182241e-03
    -1.1684967331510239e+00 7.8807318969532341e-03
    -1.1028219331407116e+00 7.8454711746842858e-03
    -9.7590007294853309e-01 7.8472878868018851e-03
    -9.6799167042684231e-01 7.9191391868905468e-03
    -8.7013956187663200e-01 7.9600096592242452e-03
    -8.4162541153017323e-01 8.5185610415163589e-03
    -6.6226617853252190e-01 9.3524223845613923e-03
    -5.4289671403063688e-01 1.1095171738445696e-02
    -4.1403933560541262e-01 1.5902705534839568e-02
    -2.6375218935831479e-01 1.1984155173528285e-02
    -3.7267799624996495e-01 9.7450010180330920e-03
    -5.0507627227610541e-01 9.1319353741684938e-03
    -5.6796183424706481e-01 8.2023205596889175e-03
    -7.3970927486462867e-01 8.0873779011537764e-03
    -7.7964295498317815e-01 7.9191391868905468e-03
    -8.7013956187663200e-01 7.8558694180478564e-03
    -9.4462039587746183e-01 7.8691873374369392e-03
    -1.0848922298746904e+00 7.8944411960434474e-03
    -1.1211069235112918e+00 7.9384202252182241e-03
    -1.1684967331510239e+00 7.9489231011126392e-03
    -1.1782824426100502e+00 7.9716870076836071e-03
    -1.1981834435329324e+00 7.9968446993653915e-03
    -1.2185435916898850e+00 8.0873779011537764e-03
    -1.2826384098110348e+00 8.0103414932715805e-03
    -1.2289036095775181e+00 8.0244620101214952e-03
    -1.2393879433925454e+00 8.0244620101214952e-03
    -1.2393879433925454e+00 8.1047692120905703e-03
    -1.2937979144666532e+00 7.9968446993653915e-03
    -1.2185435916898850e+00 7.9839626900463732e-03
    -1.2083045973594573e+00 7.9839626900463732e-03
    -1.2083045973594573e+00 7.9284943457188454e-03
    -1.1588171308956141e+00 8.0392156862745100e-03
    -1.2500000000000002e+00 8.0706628640648346e-03
    -1.2716215146794838e+00 8.0546124745680021e-03
    -1.2607433062326867e+00 8.0392156862745100e-03
    -1.2500000000000002e+00 7.9716870076836071e-03
    -1.1981834435329324e+00 7.9021179115696498e-03
    -1.1303883305208779e+00 7.9489231011126392e-03
    -1.1782824426100502e+00 7.9489231011126392e-03
    -1.1782824426100502e+00 7.9284943457188454e-03
    -1.1588171308956141e+00 7.8807318969532341e-03
    -1.1028219331407116e+00 7.8433964764661555e-03
    -9.9190270074334186e-01 7.8642178469902971e-03
    -9.2932037728458516e-01 7.9489231011126392e-03
    -8.4869294817367258e-01 8.1813514099009100e-03
    -7.4629888470803418e-01 9.0321298050584312e-03
    -5.8047956186168204e-01 9.7450010180330920e-03
    -5.0507627227610541e-01 1.2545587019715957e-02
    -3.5112344158839170e-01 1.4689438577237628e-02
    -2.8931028417364352e-01 1.2545587019715957e-02
    -3.5112344158839170e-01 9.9751505614209066e-03
    -4.8598446942532342e-01 9.3524223845613923e-03
    -5.4289671403063688e-01 8.6189439075195270e-03
    -6.4326752090267691e-01 8.1611262657550511e-03
    -7.5291366098093848e-01 7.9284943457188454e-03
    -8.6294892726269146e-01 7.8597794321023304e-03
    -9.3694321888780829e-01 7.8597794321023286e-03
    -1.0673005362982857e+00 7.8558694180478547e-03
    -1.0586263057247414e+00 7.8558694180478547e-03
    -1.0586263057247414e+00 7.9716870076836071e-03
    -1.1981834435329324e+00 8.1228490270748802e-03
    -1.3051040967281895e+00 8.1813514099009100e-03
    -1.3399457248166977e+00 8.0873779011537764e-03
    -1.2826384098110348e+00 8.1416302059667319e-03
    -1.3165611772087666e+00 8.0706628640648346e-03
    -1.2716215146794838e+00 7.9600096592242452e-03
    -1.1881770515720094e+00 8.1047692120905703e-03
    -1.2937979144666532e+00 8.0103414932715805e-03
    -1.2289036095775181e+00 7.9839626900463732e-03
    -1.2083045973594573e+00 7.9600096592242452e-03
    -1.1881770515720094e+00 8.0103414932715805e-03
    -1.2289036095775181e+00 7.9839626900463732e-03
    -1.2083045973594573e+00 8.1611262657550528e-03
    -1.3281735367865999e+00 8.1047692120905703e-03
    -1.2937979144666532e+00 8.0103414932715805e-03
    -1.2289036095775181e+00 7.9839626900463732e-03
    -1.2083045973594573e+00 8.0392156862745100e-03
    -1.2500000000000002e+00 7.9103488717587739e-03
    -1.1397655112174381e+00 7.9716870076836071e-03
    -1.1981834435329324e+00 7.9021179115696498e-03
    -1.1303883305208779e+00 7.8431372549019607e-03 -1.
    7.8597794321023304e-03 -9.3694321888780829e-01
    7.9489231011126392e-03 -8.4869294817367258e-01
    8.1228490270748802e-03 -7.6622240517590490e-01
    8.3713575042722223e-03 -6.9421013450062330e-01
    8.8508851706236829e-03 -6.0553007081949839e-01
    9.8189211748043546e-03 -4.9872934991536749e-01
    1.3216389175528722e-02 -3.2879797461071458e-01
    1.9858156325469025e-02 -2.0584674239815451e-01
    1.3742304808368107e-02 -3.1339158526400440e-01
    1.0232762719862332e-02 -4.6671381185713562e-01
    9.4743065453099518e-03 -5.3033008588991071e-01
    8.9385947009132799e-03 -5.9299945332888104e-01
    8.3713575042722223e-03 -6.9421013450062330e-01
    7.9716870076836071e-03 -8.3459674342638734e-01
    7.8807318969532324e-03 -9.0676470058236280e-01
    7.8454711746842858e-03 -9.7590007294853309e-01
    7.8441742954003316e-03 -1.0163945352271770e+00
    7.8944411960434474e-03 -1.1211069235112918e+00
    7.9103488717587739e-03 -1.1397655112174381e+00
    7.9600096592242452e-03 -1.1881770515720094e+00
    8.1228490270748802e-03 -1.3051040967281895e+00
    7.9284943457188454e-03 -1.1588171308956141e+00
    8.0103414932715805e-03 -1.2289036095775181e+00
    7.9968446993653915e-03 -1.2185435916898850e+00
    7.9716870076836071e-03 -1.1981834435329324e+00
    7.9600096592242452e-03 -1.1881770515720094e+00
    7.9839626900463732e-03 -1.2083045973594573e+00
    7.9191391868905468e-03 -1.1492409307804574e+00
    8.0103414932715805e-03 -1.2289036095775181e+00
    7.9489231011126392e-03 -1.1782824426100502e+00
    8.0392156862745100e-03 -1.2500000000000002e+00
    7.9489231011126392e-03 -1.1782824426100502e+00
    7.9600096592242452e-03 -1.1881770515720094e+00
    7.9021179115696498e-03 -1.1303883305208779e+00
    7.9839626900463732e-03 -1.2083045973594573e+00
    7.8944411960434474e-03 -1.1211069235112918e+00
    7.8558694180478547e-03 -1.0586263057247414e+00
    7.8597794321023286e-03 -1.0673005362982857e+00
    7.8454711746842858e-03 -9.7590007294853309e-01
    7.8597794321023304e-03 -9.3694321888780829e-01
    7.9489231011126392e-03 -8.4869294817367258e-01
    8.2023205596889175e-03 -7.3970927486462867e-01
    8.3189033080770299e-03 -7.0710678118654757e-01
    8.4871850194674289e-03 -6.6862457592389746e-01
    8.8508851706236829e-03 -6.0553007081949839e-01
    1.0522672835293128e-02 -4.4721359549995793e-01
    1.3216389175528722e-02 -3.2879797461071458e-01
    1.6927269800051443e-02 -2.4565184222025874e-01
    1.3470340601865728e-02 -3.2115263264204263e-01
    1.1984155173528285e-02 -3.7267799624996495e-01
    9.8189211748043546e-03 -4.9872934991536749e-01
    9.0812189130619024e-03 -5.7422097639299963e-01
    8.6545945716077748e-03 -6.3695705170308436e-01
    8.4273879030585599e-03 -6.8138514386924698e-01
    8.0546124745680021e-03 -7.9318287478215377e-01
    8.0244620101214952e-03 -8.0684986918843571e-01
    7.8433964764661555e-03 -9.9190270074334186e-01
    7.8454711746842858e-03 -9.7590007294853309e-01
    7.8558694180478564e-03 -9.4462039587746183e-01
    7.8441742954003316e-03 -1.0163945352271770e+00
    7.8807318969532341e-03 -1.1028219331407116e+00
    8.0392156862745100e-03 -1.2500000000000002e+00
    8.0244620101214952e-03 -1.2393879433925454e+00
    8.0392156862745100e-03 -1.2500000000000002e+00
    8.0244620101214952e-03 -1.2393879433925454e+00
    7.9968446993653915e-03 -1.2185435916898850e+00
    7.9103488717587739e-03 -1.1397655112174381e+00
    7.9284943457188454e-03 -1.1588171308956141e+00
    8.0103414932715805e-03 -1.2289036095775181e+00
    7.9489231011126392e-03 -1.1782824426100502e+00
    7.9103488717587739e-03 -1.1397655112174381e+00
    7.8944411960434474e-03 -1.1211069235112918e+00
    7.9103488717587739e-03 -1.1397655112174381e+00
    7.9021179115696498e-03 -1.1303883305208779e+00
    7.8472878868018851e-03 -1.0330667407076384e+00
    7.8642178469902971e-03 -1.0760551736979407e+00
    7.8431372549019607e-03 -1. 7.8746909077593852e-03
    -1.0938137736509683e+00 7.8441742954003316e-03
    -9.8386991009990743e-01 7.8807318969532324e-03
    -9.0676470058236280e-01 7.9600096592242452e-03
    -8.4162541153017323e-01 8.2023205596889175e-03
    -7.3970927486462867e-01 8.5509593791990041e-03
    -6.5592115238002113e-01 8.8090892445416621e-03
    -6.1180199082518005e-01 9.8189211748043546e-03
    -4.9872934991536749e-01 1.1816662993334013e-02
    -3.7971837789555030e-01 1.5902705534839568e-02
    -2.6375218935831479e-01 1.9858156325469025e-02
    -2.0584674239815451e-01 1.4349134593916421e-02
    -2.9748205865436478e-01 1.2545587019715957e-02
    -3.5112344158839170e-01 1.0736863958847565e-02
    -4.3405736614121559e-01 9.4123246466691103e-03
    -5.3661728930704988e-01 9.0321298050584312e-03
    -5.8047956186168204e-01 8.7293870124368744e-03
    -6.2436408326758874e-01 8.5509593791990041e-03
    -6.5592115238002113e-01 8.1416302059667319e-03
    -7.5955452531275003e-01 8.0244620101214952e-03
    -8.0684986918843571e-01 7.9384202252182241e-03
    -8.5580042427962322e-01 7.9839626900463732e-03
    -8.2760588860236795e-01 7.8642178469902971e-03
    -9.2932037728458516e-01 7.8558694180478564e-03
    -9.4462039587746183e-01 7.8524854551865406e-03
    -1.0500305245868344e+00 7.9968446993653915e-03
    -1.2185435916898850e+00 8.0103414932715805e-03
    -1.2289036095775181e+00 7.9600096592242452e-03
    -1.1881770515720094e+00 7.9021179115696498e-03
    -1.1303883305208779e+00 7.9489231011126392e-03
    -1.1782824426100502e+00 7.9191391868905468e-03
    -1.1492409307804574e+00 7.8807318969532341e-03
    -1.1028219331407116e+00 7.9384202252182241e-03
    -1.1684967331510239e+00 7.9021179115696498e-03
    -1.1303883305208779e+00 7.8524854551865406e-03
    -1.0500305245868344e+00 7.8807318969532341e-03
    -1.1028219331407116e+00 7.8524854551865406e-03
    -1.0500305245868344e+00 7.8597794321023286e-03
    -1.0673005362982857e+00 7.8496255150202632e-03
    -1.0415112878465911e+00 7.8441742954003316e-03
    -1.0163945352271770e+00 7.8441742954003316e-03
    -9.8386991009990743e-01 7.8642178469902971e-03
    -9.2932037728458516e-01 7.9384202252182241e-03
    -8.5580042427962322e-01 8.1047692120905686e-03
    -7.7291823461644193e-01 8.2939627071927525e-03
    -7.1358423047859587e-01 8.8508851706236829e-03
    -6.0553007081949839e-01 9.7450010180330920e-03
    -5.0507627227610541e-01 1.0627505069887353e-02
    -4.4065264923923170e-01 1.3742304808368107e-02
    -3.1339158526400440e-01 1.6388654783484429e-02
    -2.5482359571881275e-01 1.9858156325469025e-02
    -2.0584674239815451e-01 1.5461539162770373e-02
    -2.7246248890491692e-01 1.2978628025340616e-02
    -3.3633639699815621e-01 1.0325537776568479e-02
    -4.6024195821168035e-01 9.8955904512796899e-03
    -4.9236596391733095e-01 9.6048898765513559e-03
    -5.1772699090679264e-01 9.0812189130619024e-03
    -5.7422097639299963e-01 9.0812189130619024e-03
    -5.7422097639299963e-01 8.3989142144857698e-03
    -6.8778913353990179e-01 8.1611262657550511e-03
    -7.5291366098093848e-01 8.1416302059667319e-03
    -7.5955452531275003e-01 7.9839626900463732e-03
    -8.2760588860236795e-01 7.9839626900463732e-03
    -8.2760588860236795e-01 7.8873139843755515e-03
    -8.9934616773062692e-01 7.8441742954003316e-03
    -9.8386991009990743e-01 7.8431372549019607e-03 -1.
    7.8441742954003316e-03 -9.8386991009990743e-01
    7.8454711746842858e-03 -9.7590007294853309e-01
    7.8431372549019607e-03 -1. 7.8472878868018851e-03
    -1.0330667407076384e+00 7.8807318969532341e-03
    -1.1028219331407116e+00 7.8807318969532341e-03
    -1.1028219331407116e+00 7.8873139843755498e-03
    -1.1119188982851385e+00 7.8873139843755498e-03
    -1.1119188982851385e+00 7.8472878868018851e-03
    -1.0330667407076384e+00 7.8642178469902971e-03
    -9.2932037728458516e-01 7.8691873374369392e-03
    -9.2175054117172928e-01 7.8441742954003316e-03
    -1.0163945352271770e+00 7.8642178469902971e-03
    -9.2932037728458516e-01 7.8524854551865406e-03
    -9.5235326648573349e-01 7.9021179115696498e-03
    -8.8465173692938270e-01 8.0392156862745100e-03
    -8.0000000000000004e-01 8.2939627071927525e-03
    -7.1358423047859587e-01 8.3189033080770299e-03
    -7.0710678118654757e-01 8.6189439075195270e-03
    -6.4326752090267691e-01 9.2945120916310894e-03
    -5.4916964736527596e-01 9.9751505614209066e-03
    -4.8598446942532342e-01 1.1657704720844767e-02
    -3.8669459561826547e-01 1.4349134593916421e-02
    -2.9748205865436478e-01 1.7528521675210147e-02
    -2.3620751769642942e-01 2.0888126981119113e-02
    -1.9487094073848929e-01 1.7528521675210147e-02
    -2.3620751769642942e-01 1.2545587019715957e-02
    -3.5112344158839170e-01 1.0736863958847565e-02
    -4.3405736614121559e-01 1.0232762719862332e-02
    -4.6671381185713562e-01 9.9751505614209066e-03
    -4.8598446942532342e-01 9.6048898765513559e-03
    -5.1772699090679264e-01 9.2385115320093407e-03
    -5.5543733966836650e-01 8.7686042396248626e-03
    -6.1807966469550857e-01 8.6913966989453917e-03
    -6.3065622388689124e-01 8.3189033080770299e-03
    -7.0710678118654757e-01 8.1416302059667319e-03
    -7.5955452531275003e-01 8.0244620101214952e-03
    -8.0684986918843571e-01 7.9384202252182241e-03
    -8.5580042427962322e-01 7.9716870076836071e-03
    -8.3459674342638734e-01 8.0103414932715805e-03
    -8.1373347120673489e-01 7.8691873374369392e-03
    -9.2175054117172928e-01 7.8691873374369392e-03
    -9.2175054117172928e-01 7.8496255150202632e-03
    -9.6014321848357609e-01 7.8558694180478564e-03
    -9.4462039587746183e-01 7.8433964764661537e-03
    -1.0081634007555276e+00 7.8496255150202632e-03
    -1.0415112878465911e+00 7.8746909077593852e-03
    -1.0938137736509683e+00 7.8433964764661537e-03
    -1.0081634007555276e+00 7.8441742954003316e-03
    -9.8386991009990743e-01 7.8433964764661555e-03
    -9.9190270074334186e-01 7.8472878868018851e-03
    -9.6799167042684231e-01 7.8496255150202632e-03
    -9.6014321848357609e-01 7.9191391868905468e-03
    -8.7013956187663200e-01 8.0392156862745100e-03
    -8.0000000000000004e-01 8.2939627071927525e-03
    -7.1358423047859587e-01 8.3189033080770299e-03
    -7.0710678118654757e-01 8.5509593791990041e-03
    -6.5592115238002113e-01 8.6545945716077748e-03
    -6.3695705170308436e-01 9.0812189130619024e-03
    -5.7422097639299963e-01 9.4743065453099518e-03
    -5.3033008588991071e-01 1.0325537776568479e-02
    -4.6024195821168035e-01 1.2160909619707781e-02
    -3.6556880747048393e-01 1.5058830696019394e-02
    -2.8097574347450821e-01 1.6927269800051443e-02
    -2.4565184222025874e-01 2.5422232169981088e-02
    -1.5811388300841897e-01 1.8974251507997093e-02
    -2.1635274585338149e-01 1.3742304808368107e-02
    -3.1339158526400440e-01 1.2347745345302736e-02
    -3.5838577953439649e-01 1.1362856908643155e-02
    -4.0047142031681360e-01 1.0422099084564212e-02
    -4.5374260648651510e-01 1.0143565573700776e-02
    -4.7316022340738378e-01 9.6048898765513559e-03
    -5.1772699090679264e-01 9.3524223845613923e-03
    -5.4289671403063688e-01 9.5384616375095901e-03
    -5.2403377654854510e-01 8.9846074530633788e-03
    -5.8673869403846823e-01 8.3989142144857698e-03
    -6.8778913353990179e-01 8.4568029589957572e-03
    -6.7499726056862475e-01 8.2939627071927525e-03
    -7.1358423047859587e-01 8.2698527430663648e-03
    -7.2008229982309568e-01 8.0392156862745100e-03
    -8.0000000000000004e-01 7.9716870076836071e-03
    -8.3459674342638734e-01 7.8558694180478564e-03
    -9.4462039587746183e-01 7.8807318969532324e-03
    -9.0676470058236280e-01 7.8558694180478564e-03
    -9.4462039587746183e-01 7.8496255150202632e-03
    -9.6014321848357609e-01 7.8597794321023304e-03
    -9.3694321888780829e-01 7.8454711746842858e-03
    -9.7590007294853309e-01 7.8524854551865406e-03
    -9.5235326648573349e-01 7.9489231011126392e-03
    -8.4869294817367258e-01 7.9191391868905468e-03
    -8.7013956187663200e-01 7.9716870076836071e-03
    -8.3459674342638734e-01 7.9968446993653915e-03
    -8.2065180664828985e-01 8.0546124745680021e-03
    -7.9318287478215377e-01 8.1813514099009100e-03
    -7.4629888470803418e-01 8.5185610415163589e-03
    -6.6226617853252190e-01 8.4871850194674289e-03
    -6.6862457592389746e-01 8.7686042396248626e-03
    -6.1807966469550857e-01 9.0321298050584312e-03
    -5.8047956186168204e-01 9.4743065453099518e-03
    -5.3033008588991071e-01 1.0057754089811842e-02
    -4.7958315233127197e-01 1.1225861424342145e-02
    -4.0727972850509614e-01 1.4349134593916421e-02
    -2.9748205865436478e-01 1.5902705534839568e-02
    -2.6375218935831479e-01 1.8974251507997093e-02
    -2.1635274585338149e-01 2.7790822680638556e-02
    -1.4403780047891934e-01 1.7528521675210147e-02
    -2.3620751769642942e-01 1.6388654783484429e-02
    -2.5482359571881275e-01 1.4349134593916421e-02
    -2.9748205865436478e-01 1.2347745345302736e-02
    -3.5838577953439649e-01 1.0970361063355492e-02
    -4.2075348224698805e-01 1.0851042410176322e-02
    -4.2742520713255511e-01 1.0970361063355492e-02
    -4.2075348224698805e-01 1.0232762719862332e-02
    -4.6671381185713562e-01 1.0057754089811842e-02
    -4.7958315233127197e-01 1.0522672835293128e-02
    -4.4721359549995793e-01 9.2945120916310894e-03
    -5.4916964736527596e-01 8.6545945716077748e-03
    -6.3695705170308436e-01 8.4871850194674289e-03
    -6.6862457592389746e-01 8.3713575042722223e-03
    -6.9421013450062330e-01 8.1228490270748802e-03
    -7.6622240517590490e-01 8.0873779011537764e-03
    -7.7964295498317815e-01 8.0873779011537764e-03
    -7.7964295498317815e-01 7.9021179115696498e-03
    -8.8465173692938270e-01 7.8944411960434474e-03
    -8.9197558147978706e-01 7.8691873374369392e-03
    -9.2175054117172928e-01 7.8944411960434474e-03
    -8.9197558147978706e-01 7.9489231011126392e-03
    -8.4869294817367258e-01 7.9716870076836071e-03
    -8.3459674342638734e-01 7.9284943457188454e-03
    -8.6294892726269146e-01 8.0392156862745100e-03
    -8.0000000000000004e-01 8.0546124745680021e-03
    -7.9318287478215377e-01 8.3989142144857698e-03
    -6.8778913353990179e-01 8.7686042396248626e-03
    -6.1807966469550857e-01 8.6545945716077748e-03
    -6.3695705170308436e-01 8.5844098666386041e-03
    -6.4958857588405539e-01 8.8090892445416621e-03
    -6.1180199082518005e-01 9.3524223845613923e-03
    -5.4289671403063688e-01 9.8955904512796899e-03
    -4.9236596391733095e-01 1.0057754089811842e-02
    -4.7958315233127197e-01 1.0422099084564212e-02
    -4.5374260648651510e-01 1.1984155173528285e-02
    -3.7267799624996495e-01 1.3742304808368107e-02
    -3.1339158526400440e-01 1.6927269800051443e-02
    -2.4565184222025874e-01 1.8974251507997093e-02
    -2.1635274585338149e-01 2.7790822680638556e-02
    -1.4403780047891934e-01 2.3585601484755671e-02
    -1.7113942540767835e-01 2.0888126981119113e-02
    -1.9487094073848929e-01 1.5902705534839568e-02
    -2.6375218935831479e-01 1.4689438577237628e-02
    -2.8931028417364352e-01 1.2978628025340616e-02
    -3.3633639699815621e-01 1.1816662993334013e-02
    -3.7971837789555030e-01 1.2160909619707781e-02
    -3.6556880747048393e-01 1.1816662993334013e-02
    -3.7971837789555030e-01 1.0851042410176322e-02
    -4.2742520713255511e-01 1.0970361063355492e-02
    -4.2075348224698805e-01 1.1362856908643155e-02
    -4.0047142031681360e-01 1.0970361063355492e-02
    -4.2075348224698805e-01 9.6048898765513559e-03
    -5.1772699090679264e-01 9.0812189130619024e-03
    -5.7422097639299963e-01 8.5185610415163589e-03
    -6.6226617853252190e-01 8.4568029589957572e-03
    -6.7499726056862475e-01 8.4568029589957572e-03
    -6.7499726056862475e-01 8.2465543537892996e-03
    -7.2660189275765474e-01 8.0244620101214952e-03
    -8.0684986918843571e-01 8.0392156862745100e-03
    -8.0000000000000004e-01 8.1047692120905686e-03
    -7.7291823461644193e-01 8.1813514099009100e-03
    -7.4629888470803418e-01 8.0392156862745100e-03
    -8.0000000000000004e-01 8.1813514099009100e-03
    -7.4629888470803418e-01 8.1611262657550511e-03
    -7.5291366098093848e-01 8.5185610415163589e-03
    -6.6226617853252190e-01 8.8090892445416621e-03
    -6.1180199082518005e-01 8.7293870124368744e-03
    -6.2436408326758874e-01 8.6545945716077748e-03
    -6.3695705170308436e-01 9.0321298050584312e-03
    -5.8047956186168204e-01 9.1319353741684938e-03
    -5.6796183424706481e-01 1.0325537776568479e-02
    -4.6024195821168035e-01 1.0970361063355492e-02
    -4.2075348224698805e-01 1.0736863958847565e-02
    -4.3405736614121559e-01 1.1657704720844767e-02
    -3.8669459561826547e-01 1.3470340601865728e-02
    -3.2115263264204263e-01 1.4689438577237628e-02
    -2.8931028417364352e-01 1.8205238588207225e-02
    -2.2645540682891915e-01 2.5422232169981088e-02
    -1.5811388300841897e-01 3.1006821421014390e-02
    -1.2856486930664504e-01 2.5422232169981088e-02
    -1.5811388300841897e-01 2.3585601484755671e-02
    -1.7113942540767835e-01 1.8205238588207225e-02
    -2.2645540682891915e-01 1.5902705534839568e-02
    -2.6375218935831479e-01 1.5902705534839568e-02
    -2.6375218935831479e-01 1.3742304808368107e-02
    -3.1339158526400440e-01 1.3216389175528722e-02
    -3.2879797461071458e-01 1.2755483117215145e-02
    -3.4377582547616431e-01 1.2755483117215145e-02
    -3.4377582547616431e-01 1.2160909619707781e-02
    -3.6556880747048393e-01 1.2545587019715957e-02
    -3.5112344158839170e-01 1.2755483117215145e-02
    -3.4377582547616431e-01 1.2160909619707781e-02
    -3.6556880747048393e-01 1.1225861424342145e-02
    -4.0727972850509614e-01 9.6736981731151625e-03
    -5.1140831195675895e-01 9.2945120916310894e-03
    -5.4916964736527596e-01 8.7686042396248626e-03
    -6.1807966469550857e-01 8.7293870124368744e-03
    -6.2436408326758874e-01 8.3989142144857698e-03
    -6.8778913353990179e-01 8.2465543537892996e-03
    -7.2660189275765474e-01 8.2698527430663648e-03
    -7.2008229982309568e-01 8.5185610415163589e-03
    -6.6226617853252190e-01 8.4871850194674289e-03
    -6.6862457592389746e-01 8.4273879030585599e-03
    -6.8138514386924698e-01 8.6545945716077748e-03
    -6.3695705170308436e-01 8.8940375957897947e-03
    -5.9926289898461726e-01 9.1843434861744715e-03
    -5.6170100711176796e-01 9.4123246466691103e-03
    -5.3661728930704988e-01 9.9751505614209066e-03
    -4.8598446942532342e-01 1.0143565573700776e-02
    -4.7316022340738378e-01 9.7450010180330920e-03
    -5.0507627227610541e-01 1.0970361063355492e-02
    -4.2075348224698805e-01 1.1657704720844767e-02
    -3.8669459561826547e-01 1.2755483117215145e-02
    -3.4377582547616431e-01 1.5461539162770373e-02
    -2.7246248890491692e-01 1.5461539162770373e-02
    -2.7246248890491692e-01 1.6388654783484429e-02
    -2.5482359571881275e-01 2.2108610810680388e-02
    -1.8333969940564224e-01 3.1006821421014390e-02
    -1.2856486930664504e-01 4.3670183385214820e-02
    -9.0535746042518531e-02 3.1006821421014390e-02
    -1.2856486930664504e-01 2.3585601484755671e-02
    -1.7113942540767835e-01 2.2108610810680388e-02
    -1.8333969940564224e-01 1.8974251507997093e-02
    -2.1635274585338149e-01 1.9858156325469025e-02
    -2.0584674239815451e-01 1.8974251507997093e-02
    -2.1635274585338149e-01 1.6927269800051443e-02
    -2.4565184222025874e-01 1.5058830696019394e-02
    -2.8097574347450821e-01 1.4349134593916421e-02
    -2.9748205865436478e-01 1.3742304808368107e-02
    -3.1339158526400440e-01 1.3216389175528722e-02
    -3.2879797461071458e-01 1.4349134593916421e-02
    -2.9748205865436478e-01 1.4349134593916421e-02
    -2.9748205865436478e-01 1.3216389175528722e-02
    -3.2879797461071458e-01 1.1506630174723545e-02
    -3.9361094683048226e-01 1.0522672835293128e-02
    -4.4721359549995793e-01 9.6048898765513559e-03
    -5.1772699090679264e-01 9.2385115320093407e-03
    -5.5543733966836650e-01 9.4743065453099518e-03
    -5.3033008588991071e-01 9.4123246466691103e-03
    -5.3661728930704988e-01 8.8940375957897947e-03
    -5.9926289898461726e-01 9.5384616375095901e-03
    -5.2403377654854510e-01 9.0321298050584312e-03
    -5.8047956186168204e-01 9.8955904512796899e-03
    -4.9236596391733095e-01 9.5384616375095901e-03
    -5.2403377654854510e-01 1.0232762719862332e-02
    -4.6671381185713562e-01 1.0325537776568479e-02
    -4.6024195821168035e-01 1.0522672835293128e-02
    -4.4721359549995793e-01 1.1362856908643155e-02
    -4.0047142031681360e-01 1.1225861424342145e-02
    -4.0727972850509614e-01 1.1362856908643155e-02
    -4.0047142031681360e-01 1.3742304808368107e-02
    -3.1339158526400440e-01 1.6388654783484429e-02
    -2.5482359571881275e-01 1.7528521675210147e-02
    -2.3620751769642942e-01 1.8974251507997093e-02
    -2.1635274585338149e-01 2.0888126981119113e-02
    -1.9487094073848929e-01 1.9858156325469025e-02
    -2.0584674239815451e-01 2.3585601484755671e-02
    -1.7113942540767835e-01 3.1006821421014390e-02
    -1.2856486930664504e-01 3.5729847494553379e-02
    -1.1111111111111112e-01 2.5422232169981088e-02
    -1.5811388300841897e-01 2.5422232169981088e-02
    -1.5811388300841897e-01 2.5422232169981088e-02
    -1.5811388300841897e-01 3.1006821421014390e-02
    -1.2856486930664504e-01 3.1006821421014390e-02
    -1.2856486930664504e-01 2.5422232169981088e-02
    -1.5811388300841897e-01 2.2108610810680388e-02
    -1.8333969940564224e-01 1.9858156325469025e-02
    -2.0584674239815451e-01 1.5902705534839568e-02
    -2.6375218935831479e-01 1.5461539162770373e-02
    -2.7246248890491692e-01 1.5461539162770373e-02
    -2.7246248890491692e-01 1.6927269800051443e-02
    -2.4565184222025874e-01 1.8205238588207225e-02
    -2.2645540682891915e-01 1.7528521675210147e-02
    -2.3620751769642942e-01 1.4689438577237628e-02
    -2.8931028417364352e-01 1.2755483117215145e-02
    -3.4377582547616431e-01 1.1816662993334013e-02
    -3.7971837789555030e-01 1.1984155173528285e-02
    -3.7267799624996495e-01 1.1506630174723545e-02
    -3.9361094683048226e-01 9.9751505614209066e-03
    -4.8598446942532342e-01 1.0325537776568479e-02
    -4.6024195821168035e-01 1.2545587019715957e-02
    -3.5112344158839170e-01 1.1657704720844767e-02
    -3.8669459561826547e-01 1.0851042410176322e-02
    -4.2742520713255511e-01 1.1506630174723545e-02
    -3.9361094683048226e-01 1.1095171738445696e-02
    -4.1403933560541262e-01 1.1225861424342145e-02
    -4.0727972850509614e-01 1.1506630174723545e-02
    -3.9361094683048226e-01 1.2545587019715957e-02
    -3.5112344158839170e-01 1.2978628025340616e-02
    -3.3633639699815621e-01 1.3742304808368107e-02
    -3.1339158526400440e-01 1.5461539162770373e-02
    -2.7246248890491692e-01 1.8974251507997093e-02
    -2.1635274585338149e-01 1.9858156325469025e-02
    -2.0584674239815451e-01 2.2108610810680388e-02
    -1.8333969940564224e-01 2.5422232169981088e-02
    -1.5811388300841897e-01 2.7790822680638556e-02
    -1.4403780047891934e-01 2.7790822680638556e-02
    -1.4403780047891934e-01 2.5422232169981088e-02
    -1.5811388300841897e-01</input_scale>
  <output_scale>
    1.0526315789473684e+00 0.</output_scale>
  <inv_output_scale>
    9.4999999999999996e-01 0.</inv_output_scale>
  <weights>
    <_>
      -5.5497489380150600e-01 -5.1523624202400118e-03
      -1.5109768255296552e-02 1.6481942587253676e-02
      2.7254915118901175e-02 1.6070568345740582e-02
      -1.7268748438612331e-02 2.1071461847943177e-02
      -1.9376784352763507e-02 -8.1667227375631759e-04
      1.8991515260057462e-02 -1.3929432308397665e-02
      1.7424811202784697e-02 -9.9305809031289792e-03
      -1.7200756121450604e-02 2.3259581600110702e-02
      -1.6406719807452237e-02 -5.0671147945051823e-03
      5.6080931639420706e-03 -1.2230197290052868e-03
      1.2966529346545106e-02 6.4010273011049466e-03
      1.6653636273586462e-02 -3.0641998025363468e-02
      2.0398690529632179e-02 -1.7880963877679731e-02
      -5.1369452814945954e-03 2.0393513897803216e-02
      2.2029144445794367e-02 1.8524156731860419e-02
      4.4440810037131524e-02 7.9727039043276278e-03
      -2.6864548619184182e-03 1.7551538647732845e-02
      5.4454771412093175e-03 1.6828437309248531e-02
      -2.6365683463261066e-02 1.2783288842547867e-02
      2.0090345506870628e-02 2.9418975518233886e-02
      -4.6604080794955244e-01 -9.0859950275103529e-03
      -1.3795010708557142e-02 3.9635782669940285e-02
      3.1587327579574553e-02 3.3108731328869816e-02
      -4.6375366998776167e-02 4.5837651834591230e-02
      1.0611133558310355e-02 -1.7842846068034702e-03
      4.3096790823433054e-02 -3.8081699073110882e-02
      4.7340935788119598e-02 -3.3218204994750512e-02
      1.9436973183391267e-02 4.2469138459762829e-02
      4.0724048947556518e-04 -3.6880546264573730e-03
      1.0807134674342122e-02 -1.9944340425122591e-03
      3.7710513142003466e-02 9.0836769661891310e-03
      -7.3579037582679153e-03 -3.3905752396091733e-02
      4.1715984415928893e-02 -1.0724965269675719e-02
      -9.3968404874512010e-03 2.5765403725184058e-02
      4.3476755389680662e-02 4.4195035544303270e-02
      7.3987265625513846e-02 1.7630517287688611e-02
      -2.5763654905217925e-02 4.1760802755370696e-02
      2.1564301183166917e-02 1.3393399512938766e-02
      -2.4485996429832600e-02 3.9261289005713726e-02
      1.6984885330760494e-02 2.9590519578006264e-02
      -1.1584030612215734e+00 1.6375449353542203e-02
      2.3308747809656173e-02 4.4751398424709286e-02
      -6.7466417640780379e-04 5.5407303273087724e-02
      -5.3934876627008362e-02 2.9813101723978122e-02
      -1.0032664068341411e-02 1.1380713559334232e-02
      5.2669267480433324e-02 -2.7390079549172917e-02
      6.0603064402435347e-02 -4.2844352481204474e-02
      3.7544663078901074e-04 5.0713862165185995e-02
      -1.5892082601269432e-02 8.8462380383825690e-03
      4.1058605702175817e-03 3.5675917157275880e-03
      2.7984945467758076e-02 4.3066632453851915e-02
      1.4223141593229710e-02 -8.9174812690784094e-04
      5.1465844857069426e-02 -3.3341954322223942e-02
      7.5606313937734886e-03 1.4140910993656244e-02
      4.9061738718513256e-02 5.6927400378361644e-02
      6.1106563731696303e-02 1.8907853907780482e-03
      -2.8654115726952013e-02 4.6815373831462503e-02
      3.1453850869369498e-02 3.9871257784405749e-02
      8.6324507458779808e-03 4.8139921515143756e-02
      -1.3434429092414078e-02 -5.2153225767010069e-03
      1.3845113442972573e-01 4.9033943777418675e-02
      4.2805395210095125e-02 2.0154408936367066e-03
      -3.5092093914773151e-02 -7.0032018763974092e-03
      -4.6188690569023624e-04 -3.3377799587835461e-02
      7.2648390890620628e-03 1.4759709974101839e-04
      1.1487208486448068e-04 3.2878616559724384e-02
      -2.3085792491294959e-04 -1.1119328667457528e-02
      4.7542678152034060e-03 -1.7972447684174878e-03
      5.1957727732961376e-03 2.1378803456692658e-02
      -4.5298764103758701e-02 1.5349312412435917e-03
      -2.8980395210325003e-02 -1.1090011030932944e-02
      -6.1284280708355414e-03 3.5238836842376532e-02
      7.8360085935615630e-04 8.8397381521331270e-03
      5.0663522992105317e-02 -3.1303773698621723e-02
      4.2290910565764596e-03 -1.7298716592310734e-03
      -2.9477764905802641e-02 -4.2068361427252482e-02
      5.0994466589736782e-02 1.1912388754881608e-03
      1.3141609674285419e-02 -1.2902674210890287e-02
      3.7862226412290111e-02 8.6686552203388296e-03
      -3.9277751366165042e-02 -3.5900349640277412e-02
      4.5829351609587088e-01 -1.0504889588860804e-02
      -3.2254375559527095e-03 -4.9791215308227065e-03
      1.0184973868891548e-03 -1.6386242526753771e-02
      3.2233087388923463e-02 1.4304427538755465e-03
      -1.0284418073642642e-02 -2.3664925786749183e-02
      -3.1920935340416838e-02 -1.6814085964921355e-03
      1.3768192441571370e-03 -1.2874926356940327e-03
      -7.8101575266158524e-03 -3.1747375867709621e-02
      -9.1714001573396601e-03 -1.3268771672637571e-03
      1.6155898518657272e-02 -2.5901201580253636e-02
      3.2279424908834034e-04 -1.8042116295668799e-02
      9.4839639183141918e-03 -3.1804324589287843e-03
      -3.0699373859373130e-02 -7.5993623607592152e-03
      -1.0101317325393237e-02 1.7060134478734786e-02
      -3.8932317857915684e-02 -2.7623602450078680e-02
      7.1709062730574919e-03 9.4916886676814603e-03
      -1.9487363636938884e-02 -5.5529368535135104e-03
      -2.1696841615203096e-03 1.6983119931831040e-03
      -3.5262320728523260e-03 1.7504741924397231e-03
      5.6253851642108204e-03 3.6578387641255394e-03
      4.5871928026183761e-01 -1.1875882241313824e-02
      -2.3746704857984437e-03 -4.3491928770125754e-03
      2.1625836056392272e-03 -1.7735643549546314e-02
      3.1722259325358396e-02 9.7293217574933287e-04
      -1.0131552923320455e-02 -2.3450751534757626e-02
      -3.3161559671105394e-02 -2.0896875803406286e-03
      1.5706942550191554e-03 -1.6936900345951419e-03
      -6.2105802550537310e-03 -3.1289077647277182e-02
      -9.8711436444785059e-03 -2.7244710496041316e-03
      1.4232281003710682e-02 -2.6052995668599553e-02
      3.3237852757623496e-04 -1.6651531808520453e-02
      1.0911535079876808e-02 -3.0675882328516915e-03
      -3.2689773473207492e-02 -8.2946767966609047e-03
      -8.4997447961628215e-03 1.6303745354428179e-02
      -3.8438381160050765e-02 -2.7348767536047931e-02
      6.5239226260434000e-03 9.3930216490660592e-03
      -1.8010326264259677e-02 -4.6539160934713593e-03
      -9.5994262556890276e-04 1.6044857242492178e-03
      -2.7473391396745494e-03 1.7372674644301768e-03
      6.6810357203988032e-03 2.2321862091418394e-03
      2.7432450717104779e-02 6.7569959542208890e-03
      -9.2625838875013654e-03 7.9339084356155384e-03
      1.3721426324962854e-02 2.2856265384848954e-03
      1.6559716736797462e-02 6.8954292369441611e-03
      -2.2331848818536591e-02 -2.2927108630311735e-02
      -1.4248739256434283e-02 -4.8574191698702819e-03
      1.1214436154890739e-02 -5.3437159260054934e-03
      -2.1389651720204017e-02 -1.4555874575130591e-02
      -2.9707356765953440e-02 -8.9216814158901638e-04
      -1.1988540502643551e-02 -2.3009627471049014e-02
      3.7828078335581869e-03 -1.0959506171772250e-02
      2.8296926657286104e-02 -1.4229123821537107e-02
      -1.6215488429601570e-02 -1.6491629730970358e-02
      1.2663770667133220e-02 3.2220327343374842e-03
      -1.8430533574887453e-02 -1.6165044111281900e-02
      1.3362803262830979e-02 -3.7454769686224862e-03
      1.8614887200732524e-02 6.2272960631523508e-03
      4.1273947589523605e-03 1.4554533338760549e-02
      -1.4163870191501027e-02 7.9211750308210704e-03
      6.0502568495821134e-03 1.5016162523862984e-02
      -2.4807210615933842e-01 -3.5600719463009467e-02
      -4.5625393466905625e-02 1.5720026643489798e-02
      4.5424576115643586e-02 2.6734990489672168e-02
      3.6341006396241075e-03 3.4175516273948034e-02
      -5.7749700306021730e-02 -5.2380447804388053e-02
      2.2258270773923201e-03 -2.9236537048409273e-02
      2.4879875424539115e-02 -4.0166358697837955e-03
      -6.2170815833468202e-02 -1.7119843043278689e-04
      -5.9843846293284146e-02 -1.4834055770298348e-02
      3.9101655105236631e-02 -5.6199302237848747e-02
      2.6320337080054199e-02 1.5491545431381907e-02
      6.1913791620730046e-02 -4.8127913236423493e-02
      1.0149815067531595e-03 -4.9706271749251997e-02
      -3.5185743494928375e-02 4.8803271550124053e-02
      -4.9571864487506934e-03 2.1598234990781047e-03
      4.8906672260085091e-02 3.8190742055530601e-02
      -3.1321074612446063e-02 1.5256877593577241e-02
      -3.0853793902272061e-03 4.2463758368009884e-02
      -4.7089121119583847e-02 1.0151393350599072e-02
      4.7192039550348938e-02 4.8858811367068759e-02
      -4.0170710962400158e-01 -6.8062556545780431e-02
      -6.8497417671967986e-02 -1.4068861724827087e-03
      6.5308101871965660e-02 1.3592009909885872e-02
      1.5518080472513011e-02 5.2234476343686782e-02
      -5.0512864881591714e-02 -9.1833539311036730e-02
      -1.4830242789084371e-02 -4.9634900959698212e-02
      5.8746330658755817e-03 1.2937544905808191e-02
      -4.8474085630304073e-02 -1.6396989964622421e-02
      -5.0395838223503180e-02 -3.5263865448736310e-02
      8.1430776213166717e-02 -9.6148631131925288e-02
      4.5255396117468601e-02 7.4020998196136908e-03
      5.6737650890626920e-02 -7.2514345848781220e-02
      -1.3721866117350564e-02 -4.1988063352375489e-02
      -7.0708166413533849e-02 8.5051085887102029e-02
      -2.0772057213737295e-02 -1.1202862232233088e-02
      7.3732423572265005e-02 7.3191986562603978e-02
      -7.8165156508260891e-02 -3.5781162630187067e-03
      -2.3120127047341218e-02 3.1792953616167241e-02
      -6.9568214507245804e-02 -8.8884689164077796e-03
      7.3398650593457335e-02 7.0115948607467130e-02
      -3.9574828790901723e-01 -2.0484897733807256e-02
      -3.4377608826845207e-02 2.5369248650742769e-02
      3.5736085566601447e-02 2.9630265703736846e-02
      -1.1065049235907296e-02 2.3748216153703774e-02
      -4.7798766869601564e-02 -2.3347155927182627e-02
      1.4381879814722226e-02 -2.0973938136265673e-02
      3.1431311498710361e-02 -1.6793828371645822e-02
      -5.0699519208981067e-02 7.9378456087018448e-03
      -4.7447156544072652e-02 -2.5101619246124694e-03
      9.5138266396666317e-03 -2.4202852313961267e-02
      1.5805204386390218e-02 1.8617516225839754e-02
      4.4252865972399538e-02 -3.9641360966414102e-02
      1.3410461871358383e-02 -2.8211067428269197e-02
      -2.6958417292629190e-02 2.4547342186318308e-02
      6.9612961172284774e-03 1.3160237243603906e-02
      3.6677010534850452e-02 1.7596314134710571e-02
      1.1149668286666962e-03 2.6899606529565048e-02
      9.4144374985176450e-03 3.3115428815127780e-02
      -3.8237972883021810e-02 2.2120922926554428e-02
      3.2410819739614377e-02 3.9721548378014115e-02
      -4.5244522491638095e-01 8.5816853696315219e-03
      -1.3927168132115352e-02 1.9234612236810597e-02
      2.1121202840321558e-02 3.0568627824647188e-02
      -9.0308906961285296e-03 4.9766307659955978e-03
      -7.1346737954587999e-02 -5.9012128936099667e-03
      1.2086662114654402e-02 -5.6224803831706254e-03
      2.3701297300967341e-02 -1.3338452763269218e-02
      -7.7571416888377001e-02 3.0707368736166852e-03
      -7.5478468077822089e-02 5.3380845726812695e-03
      -2.5824611232422804e-02 -6.0810453679910796e-03
      -8.0477405318786336e-04 3.0118187871474796e-02
      7.6639649188200126e-02 -2.0112865874205212e-02
      9.0489089161587561e-03 -4.6261617701719909e-02
      3.0009882732614599e-03 -1.5361321149341741e-02
      3.9997864970028572e-03 9.0083585852499329e-03
      1.1988366815532758e-02 -1.3119887562070599e-02
      3.1005970680604247e-02 1.8776440521751682e-02
      9.7093159050307704e-03 4.9979880584407811e-02
      -1.7440415236799237e-02 1.6316994318084196e-02
      2.3211951018649269e-03 2.2814001240794239e-02
      -7.2736355718270007e-01 -2.2342835373936016e-02
      -4.0158777443381338e-02 1.1864610345698559e-02
      4.6314678276970771e-02 2.8339979718276391e-02
      -3.7296249700316526e-03 3.0975390442278265e-02
      -7.1466564734110533e-02 -4.2969848550516249e-02
      8.0093806359701585e-03 -2.8059506261503022e-02
      1.7475402433814631e-02 -3.1975123722724750e-03
      -7.5924235179983451e-02 3.1263629010355679e-03
      -7.2932917784620618e-02 -1.1446380582743901e-02
      1.5911853734026857e-02 -4.0376702923080467e-02
      2.1795837108543749e-02 2.7156000402160017e-02
      7.3733056167141750e-02 -5.1084220074129390e-02
      7.6114246629619305e-03 -4.5534206033234194e-02
      -3.0589231476978177e-02 2.4600705263040180e-02
      4.9672539352549404e-04 5.1588676215264320e-03
      4.9699502330840147e-02 2.1964646699255581e-02
      -9.7897606185367858e-03 1.0851307271702785e-02
      -2.4170566223027231e-03 4.9088196615835550e-02
      -4.7451388433539576e-02 4.1724240136660883e-03
      3.6409703411684417e-02 5.2025329944061664e-02
      2.2383576763962812e-01 -1.0514410394063515e-02
      -2.6961656246346936e-02 -2.1463099008987907e-02
      3.0278245744004697e-02 -2.2382999463180148e-02
      3.6808944319509124e-02 1.5818252381655819e-02
      -1.5930122455364897e-02 -2.0844120626948067e-02
      -3.7985360859732045e-02 -1.3960528269657890e-02
      -2.7483862636564174e-02 1.1860924267276699e-02
      -1.7676674349435463e-02 -3.8824775921370853e-02
      -2.0838913106998078e-02 -2.1003163936186339e-03
      -2.5913383762579288e-03 -2.0375002987012010e-02
      9.9014683287174284e-03 -2.6627286899212409e-02
      2.4518773980733037e-02 -3.1573747079115595e-02
      -3.8319830629292680e-02 5.2983214429419001e-03
      -1.9497425277930493e-02 5.5922801983698395e-03
      -3.5931864195568680e-02 -4.0428104389473099e-02
      2.3579682479720896e-02 6.1159014654550460e-03
      8.9368618220889654e-03 -2.3786849747283661e-02
      -4.7905546845015161e-03 -1.1137118888127144e-02
      -3.1014220417957757e-02 -1.7346082711879224e-02
      2.0750076644043915e-02 3.1823990146092516e-02
      -5.0350244392427534e-01 5.8124017465782364e-02
      3.4089089319510865e-02 4.2217052296124706e-02
      -2.4650808079735128e-02 5.5217183849965452e-03
      -2.2548919416122411e-02 -2.9718755874916011e-02
      -4.5426614091008136e-02 9.2875765815162201e-02
      1.7112652053093473e-02 3.0522407666589608e-02
      4.9775867417244386e-02 -3.9850845672623876e-02
      -5.9461705346135055e-02 6.0140633091818763e-03
      -7.4406088132430145e-02 3.2654095219466509e-02
      -8.2396448578037379e-02 1.0203419619224049e-01
      -3.3648599012652915e-02 -8.0925367004131389e-04
      5.3717708781834843e-02 2.7947631135183979e-02
      1.4298871139033014e-02 -4.7308636471484325e-02
      5.4803674680566142e-02 -6.8961495859826805e-02
      1.9514318938411251e-02 1.4574634017507535e-02
      -3.8469538279061292e-02 -6.4090453215606080e-02
      9.0531824461092980e-02 4.2000165809226192e-02
      3.3821818729650018e-02 3.7771495027374577e-02
      2.7931324302613240e-02 4.1571580750044128e-02
      -4.6846987423655624e-02 -2.3789627305940479e-02
      -6.8610400404719107e-01 2.8908638266189259e-02
      2.7115773166502691e-03 3.9376940771875125e-02
      4.1976599121567081e-03 5.0542891306644688e-02
      -2.8098075499574524e-02 -5.0568291953646902e-03
      -7.1314777688131964e-02 4.4511278764535527e-02
      3.2663051125060336e-02 7.7057908273706387e-03
      4.1788027212828330e-02 -2.9675683369853156e-02
      -7.0731783840597848e-02 3.0196023677658383e-02
      -7.7439413381860445e-02 1.9113593362541145e-02
      -4.9089491191944827e-02 4.2214475852861297e-02
      -1.0622545239521783e-02 5.0408005700302974e-02
      7.6465253474619896e-02 -2.2320844070861409e-03
      3.0949805369723634e-02 -7.1249802669033385e-02
      2.3084519257536833e-02 -3.9086102939437622e-02
      2.7268375563031508e-02 2.9974817594881006e-02
      -5.6074874264434660e-03 -3.4281582021530047e-02
      5.5039093258911494e-02 3.8942602209091834e-02
      2.7324551070664300e-02 7.0360237359756495e-02
      -1.9647838393466325e-03 3.4047555411025915e-02
      -1.6276155324700853e-02 5.1812706752117424e-03
      2.2397624397103036e-01 7.9654316657085771e-03
      -1.3343818438840440e-02 2.7603065461859748e-02
      1.9695130040686175e-02 3.7455423462364551e-02
      -2.3888565820504033e-02 7.4961486405619579e-03
      -3.7646140126222062e-02 1.9456472940793099e-02
      2.8708325144642357e-02 -6.4898603051603493e-03
      3.1693795112063938e-02 -2.4816863657088292e-02
      -3.2817516331783939e-02 3.1054692110348538e-02
      -3.6625676031344888e-02 6.3691703016741565e-03
      -2.1751722435359944e-02 1.6394496451610962e-02
      1.3626837305477305e-03 2.9149372480274400e-02
      4.7118419875881133e-02 -1.9580189968542272e-02
      2.8071482280546737e-02 -2.8529591588999068e-02
      5.4813960925529847e-03 -1.3656280067378802e-02
      2.6659542842847727e-02 2.6795167715333076e-02
      1.4441422670777934e-02 -1.2102467714852027e-02
      2.5706344280578365e-02 2.9358025840356516e-02
      1.9262872424017721e-02 3.5873073896478667e-02
      -1.7811774382058786e-02 2.5942526583860405e-02
      2.8516523047436839e-03 2.1628738078788418e-02
      -3.9890970817307463e-02 -2.4599430223689673e-02
      -3.9678896444897062e-02 3.6316288142924300e-02
      4.5680051890797158e-02 5.3024014959664606e-02
      -3.5629661430437581e-02 2.6953424494701325e-02
      -4.6920215613321499e-02 -3.0913978700219141e-02
      3.9735365294451284e-02 -2.3861037016961208e-02
      4.0348123734234992e-02 -1.9802727078656632e-02
      -4.0662668731372135e-02 4.2986057586928320e-02
      -4.2841504296800011e-02 -6.6144122196030936e-03
      1.5420595937676609e-02 -3.3696261964494392e-02
      1.9394793985202979e-02 4.5786081976656949e-02
      5.6207168815808388e-02 -4.8956663402914595e-02
      4.1489744774638730e-02 -5.3282804195973123e-02
