<?xml version="1.0"?>
<opencv_storage>
<shapeML type_id="opencv-ml-ann-mlp">
  <layer_sizes type_id="opencv-matrix">
    <rows>1</rows>
    <cols>3</cols>
    <dt>i</dt>
    <data>
      1600 40 1</data></layer_sizes>
  <activation_function>SIGMOID_SYM</activation_function>
  <f_param1>5.9999999999999998e-01</f_param1>
  <f_param2>1.</f_param2>
  <min_val>-9.4999999999999996e-01</min_val>
  <max_val>9.4999999999999996e-01</max_val>
  <min_val1>-9.7999999999999998e-01</min_val1>
  <max_val1>9.7999999999999998e-01</max_val1>
  <training_params>
    <train_method>BACKPROP</train_method>
    <dw_scale>1.0000000000000001e-01</dw_scale>
    <moment_scale>1.0000000000000001e-01</moment_scale>
    <term_criteria><epsilon>9.9999999747524271e-07</epsilon>
      <iterations>4000</iterations></term_criteria></training_params>
  <input_scale>
    5.8298911077602711e-02 -6.7573737839948605e-02
    2.9351184281715639e-02 -1.3608276348795434e-01
    4.1317996617383002e-02 -9.5782628522115151e-02
    5.8298911077602711e-02 -6.7573737839948605e-02
    3.3813646346532646e-02 -1.1757927025044305e-01
    3.3813646346532646e-02 -1.1757927025044305e-01
    2.9351184281715639e-02 -1.3608276348795434e-01
    2.6313478802488650e-02 -1.5249857033260469e-01
    2.2343112830119125e-02 -1.8128389273528470e-01
    2.0949302913588052e-02 -1.9425717247145285e-01
    1.9797940651076228e-02 -2.0652851724645427e-01
    1.7993390891808767e-02 -2.2941573387056177e-01
    2.0949302913588052e-02 -1.9425717247145285e-01
    1.7268722469176063e-02 -2.4019223070763068e-01
    1.6065153235220481e-02 -2.6069362295335052e-01
    1.5558221147202752e-02 -2.7050089040022968e-01
    1.4307724303673046e-02 -2.9851115706299675e-01
    1.7268722469176063e-02 -2.4019223070763068e-01
    1.7993390891808767e-02 -2.2941573387056177e-01
    1.2579078977878131e-02 -3.4992710611188255e-01
    1.1592225421859873e-02 -3.8965684997569894e-01
    1.2816972995824709e-02 -3.4168884827505419e-01
    1.5101059729713831e-02 -2.8005601680560199e-01
    1.6065153235220481e-02 -2.6069362295335052e-01
    2.6313478802488650e-02 -1.5249857033260469e-01
    2.6313478802488650e-02 -1.5249857033260469e-01
    2.6313478802488650e-02 -1.5249857033260469e-01
    1.8826641510556207e-02 -2.1821789023599242e-01
    1.9797940651076228e-02 -2.0652851724645427e-01
    2.0949302913588052e-02 -1.9425717247145285e-01
    1.9797940651076228e-02 -2.0652851724645427e-01
    2.9351184281715639e-02 -1.3608276348795434e-01
    2.2343112830119125e-02 -1.8128389273528470e-01
    2.6313478802488650e-02 -1.5249857033260469e-01
    2.6313478802488650e-02 -1.5249857033260469e-01
    2.6313478802488650e-02 -1.5249857033260469e-01
    3.3813646346532646e-02 -1.1757927025044305e-01
    4.1317996617383002e-02 -9.5782628522115151e-02
    5.8298911077602711e-02 -6.7573737839948605e-02
    3.3813646346532646e-02 -1.1757927025044305e-01
    3.3813646346532646e-02 -1.1757927025044305e-01
    2.6313478802488650e-02 -1.5249857033260469e-01
    4.1317996617383002e-02 -9.5782628522115151e-02
    4.1317996617383002e-02 -9.5782628522115151e-02
    2.6313478802488650e-02 -1.5249857033260469e-01
    2.6313478802488650e-02 -1.5249857033260469e-01
    2.4076867819785974e-02 -1.6744367165578425e-01
    2.2343112830119125e-02 -1.8128389273528470e-01
    1.8826641510556207e-02 -2.1821789023599242e-01
    1.7993390891808767e-02 -2.2941573387056177e-01
    1.4686219698294412e-02 -2.8938528360048305e-01
    1.3071895424836602e-02 -3.3333333333333337e-01
    1.3641197749745950e-02 -3.1622776601683794e-01
    1.1951487560989817e-02 -3.7402723571552227e-01
    1.0982588894337331e-02 -4.2008402520840293e-01
    1.0268592259604383e-02 -4.6418704555347995e-01
    1.0484702052820549e-02 -4.4965074485619033e-01
    1.0268592259604383e-02 -4.6418704555347995e-01
    9.9781000444146561e-03 -4.8575205216218620e-01
    1.0600402076495872e-02 -4.4232586846469141e-01
    9.8039215686274508e-03 -5.0000000000000000e-01
    1.0600402076495872e-02 -4.4232586846469141e-01
    1.0268592259604383e-02 -4.6418704555347995e-01
    1.0982588894337331e-02 -4.2008402520840293e-01
    1.2147725269407208e-02 -3.6608826607349904e-01
    1.2579078977878131e-02 -3.4992710611188255e-01
    1.4307724303673046e-02 -2.9851115706299675e-01
    1.3641197749745950e-02 -3.1622776601683794e-01
    1.3641197749745950e-02 -3.1622776601683794e-01
    1.4307724303673046e-02 -2.9851115706299675e-01
    1.6631279089225209e-02 -2.5060313718537075e-01
    1.8826641510556207e-02 -2.1821789023599242e-01
    1.7268722469176063e-02 -2.4019223070763068e-01
    1.7993390891808767e-02 -2.2941573387056177e-01
    1.8826641510556207e-02 -2.1821789023599242e-01
    1.8826641510556207e-02 -2.1821789023599242e-01
    2.6313478802488650e-02 -1.5249857033260469e-01
    3.3813646346532646e-02 -1.1757927025044305e-01
    2.9351184281715639e-02 -1.3608276348795434e-01
    2.6313478802488650e-02 -1.5249857033260469e-01
    5.8298911077602711e-02 -6.7573737839948605e-02
    2.6313478802488650e-02 -1.5249857033260469e-01
    2.6313478802488650e-02 -1.5249857033260469e-01
    2.9351184281715639e-02 -1.3608276348795434e-01
    2.4076867819785974e-02 -1.6744367165578425e-01
    2.0949302913588052e-02 -1.9425717247145285e-01
    1.9797940651076228e-02 -2.0652851724645427e-01
    1.9797940651076228e-02 -2.0652851724645427e-01
    1.4307724303673046e-02 -2.9851115706299675e-01
    1.3071895424836602e-02 -3.3333333333333337e-01
    1.1766650944097630e-02 -3.8188130791298669e-01
    1.1271215448844216e-02 -4.0499526419597059e-01
    1.0982588894337331e-02 -4.2008402520840293e-01
    9.7220358713868572e-03 -5.0709255283710997e-01
    9.8039215686274508e-03 -5.0000000000000000e-01
    9.2305204267059647e-03 -5.5634864026418673e-01
    9.2305204267059647e-03 -5.5634864026418673e-01
    9.0025711592416728e-03 -5.8434870979077769e-01
    8.8053552845146921e-03 -6.1237243569579447e-01
    9.0564748108176597e-03 -5.7735026918962584e-01
    8.9004301522769974e-03 -5.9835164523716733e-01
    9.1123748441428211e-03 -5.7035182547203023e-01
    9.2929598336700513e-03 -5.4934064834945007e-01
    9.4950587937077079e-03 -5.2827054379537430e-01
    9.2929598336700513e-03 -5.4934064834945007e-01
    9.2929598336700513e-03 -5.4934064834945007e-01
    1.0484702052820549e-02 -4.4965074485619033e-01
    1.1123170302790909e-02 -4.1256849850351734e-01
    1.1271215448844216e-02 -4.0499526419597059e-01
    1.2816972995824709e-02 -3.4168884827505419e-01
    1.4307724303673046e-02 -2.9851115706299675e-01
    1.6065153235220481e-02 -2.6069362295335052e-01
    1.6631279089225209e-02 -2.5060313718537075e-01
    1.5101059729713831e-02 -2.8005601680560199e-01
    1.5558221147202752e-02 -2.7050089040022968e-01
    1.5558221147202752e-02 -2.7050089040022968e-01
    1.9797940651076228e-02 -2.0652851724645427e-01
    2.2343112830119125e-02 -1.8128389273528470e-01
    2.2343112830119125e-02 -1.8128389273528470e-01
    2.9351184281715639e-02 -1.3608276348795434e-01 1. 0.
    4.1317996617383002e-02 -9.5782628522115151e-02
    2.0949302913588052e-02 -1.9425717247145285e-01
    1.9797940651076228e-02 -2.0652851724645427e-01
    1.8826641510556207e-02 -2.1821789023599242e-01
    1.8826641510556207e-02 -2.1821789023599242e-01
    1.6065153235220481e-02 -2.6069362295335052e-01
    1.2356491944209824e-02 -3.5805743701971648e-01
    1.2579078977878131e-02 -3.4992710611188255e-01
    1.0982588894337331e-02 -4.2008402520840293e-01
    1.1427337982521947e-02 -3.9735970711951313e-01
    9.7220358713868572e-03 -5.0709255283710997e-01
    9.5677654420527024e-03 -5.2122576737728021e-01
    8.9505818903546155e-03 -5.9134867171047423e-01
    8.9505818903546155e-03 -5.9134867171047423e-01
    8.5211730201379832e-03 -6.6174655022298834e-01
    8.4195300411246000e-03 -6.8313005106397329e-01
    8.3284158682289579e-03 -7.0469755175946380e-01
    8.3880341865632483e-03 -6.9029708612603458e-01
    8.5575643229800942e-03 -6.5465367070797720e-01
    8.3002316389455804e-03 -7.1193350466774130e-01
    8.2469708254123506e-03 -7.2648315725677892e-01
    8.3002316389455804e-03 -7.1193350466774130e-01
    8.2218418566424971e-03 -7.3379938570534287e-01
    8.4521944803585321e-03 -6.7598346309958357e-01
    8.8520438488639639e-03 -6.0535908957344697e-01
    9.1123748441428211e-03 -5.7035182547203023e-01
    8.9004301522769974e-03 -5.9835164523716733e-01
    1.0374209358201372e-02 -4.5693676673168770e-01
    1.0721674393746198e-02 -4.3495883620084008e-01
    1.1123170302790909e-02 -4.1256849850351734e-01
    1.2147725269407208e-02 -3.6608826607349904e-01
    1.5558221147202752e-02 -2.7050089040022968e-01
    1.5558221147202752e-02 -2.7050089040022968e-01
    1.5558221147202752e-02 -2.7050089040022968e-01
    1.5101059729713831e-02 -2.8005601680560199e-01
    1.6631279089225209e-02 -2.5060313718537075e-01
    1.9797940651076228e-02 -2.0652851724645427e-01
    2.6313478802488650e-02 -1.5249857033260469e-01
    2.6313478802488650e-02 -1.5249857033260469e-01
    5.8298911077602711e-02 -6.7573737839948605e-02
    2.4076867819785974e-02 -1.6744367165578425e-01
    2.4076867819785974e-02 -1.6744367165578425e-01
    1.6065153235220481e-02 -2.6069362295335052e-01
    1.4686219698294412e-02 -2.8938528360048305e-01
    1.4686219698294412e-02 -2.8938528360048305e-01
    1.2147725269407208e-02 -3.6608826607349904e-01
    1.1123170302790909e-02 -4.1256849850351734e-01
    1.0721674393746198e-02 -4.3495883620084008e-01
    9.9781000444146561e-03 -4.8575205216218620e-01
    9.2929598336700513e-03 -5.4934064834945007e-01
    9.0564748108176597e-03 -5.7735026918962584e-01
    8.8520438488639639e-03 -6.0535908957344697e-01
    8.5575643229800942e-03 -6.5465367070797720e-01
    8.4195300411246000e-03 -6.8313005106397329e-01
    8.3880341865632483e-03 -6.9029708612603458e-01
    7.9900932752550776e-03 -8.2425075855415442e-01
    8.0906454645008601e-03 -7.7835686934618498e-01
    8.2218418566424971e-03 -7.3379938570534287e-01
    8.3002316389455804e-03 -7.1193350466774130e-01
    8.1521749080421570e-03 -7.5592894601845462e-01
    8.3576733737386402e-03 -6.9748583246291562e-01
    8.2469708254123506e-03 -7.2648315725677892e-01
    8.2469708254123506e-03 -7.2648315725677892e-01
    8.4521944803585321e-03 -6.7598346309958357e-01
    8.2730922609242762e-03 -7.1919495222807628e-01
    8.3880341865632483e-03 -6.9029708612603458e-01
    8.5952788945159175e-03 -6.4757612580273338e-01
    9.1703588375870761e-03 -5.6335181677267876e-01
    9.4251095147569724e-03 -5.3530337903131076e-01
    1.0167548487649704e-02 -4.7140452079103173e-01
    1.1123170302790909e-02 -4.1256849850351734e-01
    1.2356491944209824e-02 -3.5805743701971648e-01
    1.4686219698294412e-02 -2.8938528360048305e-01
    1.5101059729713831e-02 -2.8005601680560199e-01
    1.3641197749745950e-02 -3.1622776601683794e-01
    1.5558221147202752e-02 -2.7050089040022968e-01
    1.8826641510556207e-02 -2.1821789023599242e-01
    2.4076867819785974e-02 -1.6744367165578425e-01
    2.0949302913588052e-02 -1.9425717247145285e-01
    5.8298911077602711e-02 -6.7573737839948605e-02
    2.0949302913588052e-02 -1.9425717247145285e-01
    1.7993390891808767e-02 -2.2941573387056177e-01
    1.5101059729713831e-02 -2.8005601680560199e-01
    1.3071895424836602e-02 -3.3333333333333337e-01
    1.1766650944097630e-02 -3.8188130791298669e-01
    1.0721674393746198e-02 -4.3495883620084008e-01
    1.0167548487649704e-02 -4.7140452079103173e-01
    9.5677654420527024e-03 -5.2122576737728021e-01
    9.1703588375870761e-03 -5.6335181677267876e-01
    9.1123748441428211e-03 -5.7035182547203023e-01
    8.7603008413572898e-03 -6.1939308903323931e-01
    8.4195300411246000e-03 -6.8313005106397329e-01
    8.6343612345880314e-03 -6.4051261522034852e-01
    8.2730922609242762e-03 -7.1919495222807628e-01
    8.1102834156984299e-03 -7.7084557373751894e-01
    7.8639620834712737e-03 -9.2973478995949022e-01
    7.9274461576727892e-03 -8.6373129272462157e-01
    7.8902278950244015e-03 -8.9625815953027177e-01
    8.0538985225140428e-03 -7.9349204761587211e-01
    7.9900932752550776e-03 -8.2425075855415442e-01
    8.0048684404679018e-03 -8.1649658092772603e-01
    8.1307871254724887e-03 -7.6337003671197390e-01
    8.0906454645008601e-03 -7.7835686934618498e-01
    7.9760812529117899e-03 -8.3205029433784350e-01
    8.0048684404679018e-03 -8.1649658092772603e-01
    8.0204189345144308e-03 -8.0878633664637567e-01
    8.3002316389455804e-03 -7.1193350466774130e-01
    8.7603008413572898e-03 -6.1939308903323931e-01
    8.9505818903546155e-03 -5.9134867171047423e-01
    9.8039215686274508e-03 -5.0000000000000000e-01
    9.7220358713868572e-03 -5.0709255283710997e-01
    1.0848921574718482e-02 -4.2754613660367835e-01
    1.1123170302790909e-02 -4.1256849850351734e-01
    1.2816972995824709e-02 -3.4168884827505419e-01
    1.2147725269407208e-02 -3.6608826607349904e-01
    1.5101059729713831e-02 -2.8005601680560199e-01
    1.7268722469176063e-02 -2.4019223070763068e-01
    2.0949302913588052e-02 -1.9425717247145285e-01
    1.8826641510556207e-02 -2.1821789023599242e-01
    5.8298911077602711e-02 -6.7573737839948605e-02
    1.7268722469176063e-02 -2.4019223070763068e-01
    1.5558221147202752e-02 -2.7050089040022968e-01
    1.2356491944209824e-02 -3.5805743701971648e-01
    1.1427337982521947e-02 -3.9735970711951313e-01
    1.0982588894337331e-02 -4.2008402520840293e-01
    1.0070801978266033e-02 -4.7859197583077900e-01
    1.0070801978266033e-02 -4.7859197583077900e-01
    9.0025711592416728e-03 -5.8434870979077769e-01
    8.8520438488639639e-03 -6.0535908957344697e-01
    8.9004301522769974e-03 -5.9835164523716733e-01
    8.5211730201379832e-03 -6.6174655022298834e-01
    8.1744661242894364e-03 -7.4852100033550317e-01
    8.1744661242894364e-03 -7.4852100033550317e-01
    7.9274461576727892e-03 -8.6373129272462157e-01
    7.8695216190426548e-03 -9.2127058772019799e-01
    7.8590663835113265e-03 -9.3826535710420456e-01
    7.8695216190426548e-03 -9.2127058772019799e-01
    7.8483279485574448e-03 -9.6427411113412598e-01
    7.8434613715727564e-03 -9.9095004010393073e-01
    7.8548308313936537e-03 -9.4686415294799864e-01
    7.9503015573719037e-03 -8.4779124789065852e-01
    7.9760812529117899e-03 -8.3205029433784350e-01
    7.8984900890565462e-03 -8.8804160160369849e-01
    7.9900932752550776e-03 -8.2425075855415442e-01
    7.8984900890565462e-03 -8.8804160160369849e-01
    7.9274461576727892e-03 -8.6373129272462157e-01
    8.0204189345144308e-03 -8.0878633664637567e-01
    8.2469708254123506e-03 -7.2648315725677892e-01
    8.2730922609242762e-03 -7.1919495222807628e-01
    8.7603008413572898e-03 -6.1939308903323931e-01
    9.0564748108176597e-03 -5.7735026918962584e-01
    9.1703588375870761e-03 -5.6335181677267876e-01
    9.7220358713868572e-03 -5.0709255283710997e-01
    1.0600402076495872e-02 -4.4232586846469141e-01
    1.2147725269407208e-02 -3.6608826607349904e-01
    1.3071895424836602e-02 -3.3333333333333337e-01
    1.4686219698294412e-02 -2.8938528360048305e-01
    1.6631279089225209e-02 -2.5060313718537075e-01
    2.0949302913588052e-02 -1.9425717247145285e-01
    2.4076867819785974e-02 -1.6744367165578425e-01
    1.5558221147202752e-02 -2.7050089040022968e-01
    1.3960715317964081e-02 -3.0745302597970897e-01
    1.1427337982521947e-02 -3.9735970711951313e-01
    1.0484702052820549e-02 -4.4965074485619033e-01
    1.1271215448844216e-02 -4.0499526419597059e-01
    9.2929598336700513e-03 -5.4934064834945007e-01
    8.6748584986593175e-03 -6.3346182627709968e-01
    8.5211730201379832e-03 -6.6174655022298834e-01
    8.5575643229800942e-03 -6.5465367070797720e-01
    8.3284158682289579e-03 -7.0469755175946380e-01
    7.9503015573719037e-03 -8.4779124789065852e-01
    7.8902278950244015e-03 -8.9625815953027177e-01
    7.8590663835113265e-03 -9.3826535710420456e-01
    7.8639620834712737e-03 -9.2973478995949022e-01
    7.8590663835113265e-03 -9.3826535710420456e-01
    7.8434613715727564e-03 -9.9095004010393073e-01
    7.8512522464724566e-03 -9.5553308590590924e-01
    7.8434613715727564e-03 -1.0091326096471220e+00
    7.8548308313936572e-03 -1.0561177090573837e+00
    7.8444339627317533e-03 -1.0183501544346312e+00
    7.8483279485574448e-03 -9.6427411113412598e-01
    7.8460557523173432e-03 -1.0276549841046556e+00
    7.8548308313936572e-03 -1.0561177090573837e+00
    7.8444339627317533e-03 -1.0183501544346312e+00
    7.8984900890565462e-03 -8.8804160160369849e-01
    7.9074424766415984e-03 -8.7988269012811959e-01
    7.9385130972237268e-03 -8.5573562773027578e-01
    8.1744661242894364e-03 -7.4852100033550317e-01
    8.1102834156984299e-03 -7.7084557373751894e-01
    8.1102834156984299e-03 -7.7084557373751894e-01
    8.3284158682289579e-03 -7.0469755175946380e-01
    8.7603008413572898e-03 -6.1939308903323931e-01
    8.8520438488639639e-03 -6.0535908957344697e-01
    1.0268592259604383e-02 -4.6418704555347995e-01
    1.0721674393746198e-02 -4.3495883620084008e-01
    1.2579078977878131e-02 -3.4992710611188255e-01
    1.3960715317964081e-02 -3.0745302597970897e-01
    1.6065153235220481e-02 -2.6069362295335052e-01
    1.8826641510556207e-02 -2.1821789023599242e-01
    1.7993390891808767e-02 -2.2941573387056177e-01
    1.4686219698294412e-02 -2.8938528360048305e-01
    1.3641197749745950e-02 -3.1622776601683794e-01
    1.2147725269407208e-02 -3.6608826607349904e-01
    1.0982588894337331e-02 -4.2008402520840293e-01
    9.9781000444146561e-03 -4.8575205216218620e-01
    8.9505818903546155e-03 -5.9134867171047423e-01
    8.3880341865632483e-03 -6.9029708612603458e-01
    8.1521749080421570e-03 -7.5592894601845462e-01
    8.1744661242894364e-03 -7.4852100033550317e-01
    7.9900932752550776e-03 -8.2425075855415442e-01
    7.8548308313936537e-03 -9.4686415294799864e-01
    7.8548308313936537e-03 -9.4686415294799864e-01
    7.8590663835113265e-03 -9.3826535710420456e-01
    7.8826495314448016e-03 -9.0453403373329100e-01
    7.8639620834712737e-03 -9.2973478995949022e-01
    7.8512522464724548e-03 -1.0465362369445670e+00
    7.8639620834712719e-03 -1.0755755413256844e+00
    7.8460557523173432e-03 -1.0276549841046556e+00
    7.8512522464724548e-03 -1.0465362369445670e+00
    7.8444339627317516e-03 -9.8198050606196563e-01
    7.8902278950244015e-03 -1.1157499537009505e+00
    7.8902278950244015e-03 -1.1157499537009505e+00
    7.8483279485574431e-03 -1.0370495157480220e+00
    7.8512522464724566e-03 -9.5553308590590924e-01
    7.8548308313936572e-03 -1.0561177090573837e+00
    7.8548308313936537e-03 -9.4686415294799864e-01
    7.9170919923958576e-03 -8.7177978870813477e-01
    7.9074424766415984e-03 -8.7988269012811959e-01
    7.9074424766415984e-03 -8.7988269012811959e-01
    7.9900932752550776e-03 -8.2425075855415442e-01
    7.9760812529117899e-03 -8.3205029433784350e-01
    8.0538985225140428e-03 -7.9349204761587211e-01
    8.5575643229800942e-03 -6.5465367070797720e-01
    9.0025711592416728e-03 -5.8434870979077769e-01
    1.0167548487649704e-02 -4.7140452079103173e-01
    1.0721674393746198e-02 -4.3495883620084008e-01
    1.2579078977878131e-02 -3.4992710611188255e-01
    1.4307724303673046e-02 -2.9851115706299675e-01
    1.7268722469176063e-02 -2.4019223070763068e-01
    1.8826641510556207e-02 -2.1821789023599242e-01
    1.4307724303673046e-02 -2.9851115706299675e-01
    1.3641197749745950e-02 -3.1622776601683794e-01
    1.1271215448844216e-02 -4.0499526419597059e-01
    9.5677654420527024e-03 -5.2122576737728021e-01
    8.7603008413572898e-03 -6.1939308903323931e-01
    8.5952788945159175e-03 -6.4757612580273338e-01
    8.1976812347432891e-03 -7.4114490799565458e-01
    7.9503015573719037e-03 -8.4779124789065852e-01
    7.9074424766415984e-03 -8.7988269012811959e-01
    7.8590663835113265e-03 -9.3826535710420456e-01
    7.8483279485574448e-03 -9.6427411113412598e-01
    7.8512522464724566e-03 -9.5553308590590924e-01
    7.8434613715727564e-03 -9.9095004010393073e-01
    7.8434613715727564e-03 -1.0091326096471220e+00
    7.8984900890565462e-03 -1.1260733711057207e+00
    7.9074424766415984e-03 -1.1365151414154879e+00
    7.8757491928847425e-03 -1.0954451150103324e+00
    7.8444339627317516e-03 -9.8198050606196563e-01
    7.8548308313936572e-03 -1.0561177090573837e+00
    7.8826495314448016e-03 -1.1055415967851334e+00
    7.9170919923958558e-03 -1.1470786693528086e+00
    8.0367577109536365e-03 -1.2482545953785715e+00
    7.8826495314448016e-03 -1.1055415967851334e+00
    7.9274461576727875e-03 -1.1577674774819393e+00
    7.9274461576727875e-03 -1.1577674774819393e+00
    7.8434613715727564e-03 -1.0091326096471220e+00
    7.8590663835113265e-03 -1.0657965706911838e+00
    7.8431372549019607e-03 -1. 7.8483279485574448e-03
    -9.6427411113412598e-01 7.8695216190426548e-03
    -9.2127058772019799e-01 7.8984900890565462e-03
    -8.8804160160369849e-01 7.9900932752550776e-03
    -8.2425075855415442e-01 8.1102834156984299e-03
    -7.7084557373751894e-01 8.4195300411246000e-03
    -6.8313005106397329e-01 9.1703588375870761e-03
    -5.6335181677267876e-01 1.0070801978266033e-02
    -4.7859197583077900e-01 1.1592225421859873e-02
    -3.8965684997569894e-01 1.3345852320263042e-02
    -3.2485017806822086e-01 1.5558221147202752e-02
    -2.7050089040022968e-01 1.6631279089225209e-02
    -2.5060313718537075e-01 1.3071895424836602e-02
    -3.3333333333333337e-01 1.1951487560989817e-02
    -3.7402723571552227e-01 9.8892109124136124e-03
    -4.9288726206643302e-01 8.6343612345880314e-03
    -6.4051261522034852e-01 8.5211730201379832e-03
    -6.6174655022298834e-01 8.4860629696185980e-03
    -6.6885605405993853e-01 8.1744661242894364e-03
    -7.4852100033550317e-01 8.0204189345144308e-03
    -8.0878633664637567e-01 7.8483279485574448e-03
    -9.6427411113412598e-01 7.8757491928847425e-03
    -1.0954451150103324e+00 7.8460557523173432e-03
    -1.0276549841046556e+00 7.8434613715727564e-03
    -1.0091326096471220e+00 7.8590663835113265e-03
    -1.0657965706911838e+00 7.9074424766415984e-03
    -1.1365151414154879e+00 8.0204189345144308e-03
    -1.2364204916548041e+00 8.0906454645008584e-03
    -1.2847577241015340e+00 7.9074424766415984e-03
    -1.1365151414154879e+00 7.8695216190426548e-03
    -1.0854574251356790e+00 7.9900932752550793e-03
    -1.2132230266358905e+00 7.9170919923958558e-03
    -1.1470786693528086e+00 7.9385130972237285e-03
    -1.1685852120617748e+00 8.1976812347432891e-03
    -1.3492638068638840e+00 8.0718559551140358e-03
    -1.2724180205607034e+00 7.9760812529117899e-03
    -1.2018504251546629e+00 7.9760812529117899e-03
    -1.2018504251546629e+00 7.9628209257815181e-03
    -1.1906227016071957e+00 8.0718559551140358e-03
    -1.2724180205607034e+00 7.9074424766415984e-03
    -1.1365151414154879e+00 7.9760812529117899e-03
    -1.2018504251546629e+00 7.8512522464724548e-03
    -1.0465362369445670e+00 7.8548308313936537e-03
    -9.4686415294799864e-01 7.8902278950244015e-03
    -8.9625815953027177e-01 7.9900932752550776e-03
    -8.2425075855415442e-01 8.0718559551140358e-03
    -7.8590524799337569e-01 8.5211730201379832e-03
    -6.6174655022298834e-01 9.4950587937077079e-03
    -5.2827054379537430e-01 1.0982588894337331e-02
    -4.2008402520840293e-01 1.2147725269407208e-02
    -3.6608826607349904e-01 1.4686219698294412e-02
    -2.8938528360048305e-01 1.8826641510556207e-02
    -2.1821789023599242e-01 1.2816972995824709e-02
    -3.4168884827505419e-01 1.0848921574718482e-02
    -4.2754613660367835e-01 8.8520438488639639e-03
    -6.0535908957344697e-01 8.3284158682289579e-03
    -7.0469755175946380e-01 8.3880341865632483e-03
    -6.9029708612603458e-01 8.2469708254123506e-03
    -7.2648315725677892e-01 7.9628209257815198e-03
    -8.3989663446709173e-01 7.8826495314448016e-03
    -9.0453403373329100e-01 7.8434613715727564e-03
    -9.9095004010393073e-01 7.8695216190426548e-03
    -1.0854574251356790e+00 7.8826495314448016e-03
    -1.1055415967851334e+00 7.8431372549019607e-03 -1.
    7.8434613715727564e-03 -1.0091326096471220e+00
    7.9170919923958558e-03 -1.1470786693528086e+00
    8.1521749080421570e-03 -1.3228756555322956e+00
    8.1307871254724905e-03 -1.3099806802835110e+00
    7.9628209257815181e-03 -1.1906227016071957e+00
    7.9900932752550793e-03 -1.2132230266358905e+00
    8.0538985225140428e-03 -1.2602520756252087e+00
    7.9503015573719055e-03 -1.1795356492391773e+00
    7.9503015573719055e-03 -1.1795356492391773e+00
    7.9900932752550793e-03 -1.2132230266358905e+00
    8.0367577109536365e-03 -1.2482545953785715e+00
    7.9900932752550793e-03 -1.2132230266358905e+00
    8.0048684404679018e-03 -1.2247448713915889e+00
    8.1102834156984317e-03 -1.2972766972655811e+00
    8.2469708254123506e-03 -1.3764944032233706e+00
    8.2730922609242762e-03 -1.3904435743076140e+00
    8.1307871254724905e-03 -1.3099806802835110e+00
    7.9900932752550793e-03 -1.2132230266358905e+00
    7.8483279485574431e-03 -1.0370495157480220e+00
    7.8483279485574431e-03 -1.0370495157480220e+00
    7.8512522464724566e-03 -9.5553308590590924e-01
    7.9170919923958576e-03 -8.7177978870813477e-01
    8.0906454645008601e-03 -7.7835686934618498e-01
    8.9505818903546155e-03 -5.9134867171047423e-01
    1.0167548487649704e-02 -4.7140452079103173e-01
    1.2816972995824709e-02 -3.4168884827505419e-01
    1.4686219698294412e-02 -2.8938528360048305e-01
    1.7993390891808767e-02 -2.2941573387056177e-01
    1.2579078977878131e-02 -3.4992710611188255e-01
    1.0167548487649704e-02 -4.7140452079103173e-01
    8.8520438488639639e-03 -6.0535908957344697e-01
    8.1744661242894364e-03 -7.4852100033550317e-01
    7.9900932752550776e-03 -8.2425075855415442e-01
    7.8826495314448016e-03 -9.0453403373329100e-01
    7.8757491928847425e-03 -9.1287092917527690e-01
    7.8444339627317516e-03 -9.8198050606196563e-01
    7.8695216190426548e-03 -1.0854574251356790e+00
    7.8434613715727564e-03 -1.0091326096471220e+00
    7.8757491928847425e-03 -1.0954451150103324e+00
    7.8826495314448016e-03 -1.1055415967851334e+00
    7.9074424766415984e-03 -1.1365151414154879e+00
    8.1521749080421570e-03 -1.3228756555322956e+00
    8.2218418566424971e-03 -1.3627702877384940e+00
    8.1521749080421570e-03 -1.3228756555322956e+00
    8.0718559551140358e-03 -1.2724180205607034e+00
    8.1102834156984317e-03 -1.2972766972655811e+00
    8.0367577109536365e-03 -1.2482545953785715e+00
    8.0367577109536365e-03 -1.2482545953785715e+00
    8.0204189345144308e-03 -1.2364204916548041e+00
    8.0204189345144308e-03 -1.2364204916548041e+00
    8.1307871254724905e-03 -1.3099806802835110e+00
    8.0718559551140358e-03 -1.2724180205607034e+00
    8.1744661242894364e-03 -1.3359678613583033e+00
    8.7168206854014735e-03 -1.5963668427946607e+00
    8.7168206854014735e-03 -1.5963668427946607e+00
    8.4860629696185980e-03 -1.4950900031928041e+00
    8.0204189345144308e-03 -1.2364204916548041e+00
    7.9628209257815181e-03 -1.1906227016071957e+00
    7.8902278950244015e-03 -1.1157499537009505e+00
    7.8639620834712719e-03 -1.0755755413256844e+00
    7.8639620834712719e-03 -1.0755755413256844e+00
    7.8460557523173432e-03 -9.7308923273626680e-01
    8.0048684404679018e-03 -8.1649658092772603e-01
    8.3576733737386402e-03 -6.9748583246291562e-01
    9.5677654420527024e-03 -5.2122576737728021e-01
    1.2356491944209824e-02 -3.5805743701971648e-01
    1.4686219698294412e-02 -2.8938528360048305e-01
    1.5558221147202752e-02 -2.7050089040022968e-01
    1.1123170302790909e-02 -4.1256849850351734e-01
    9.1123748441428211e-03 -5.7035182547203023e-01
    8.6343612345880314e-03 -6.4051261522034852e-01
    8.0538985225140428e-03 -7.9349204761587211e-01
    7.8826495314448016e-03 -9.0453403373329100e-01
    7.8512522464724566e-03 -9.5553308590590924e-01
    7.8460557523173432e-03 -1.0276549841046556e+00
    7.8757491928847425e-03 -1.0954451150103324e+00
    7.8826495314448016e-03 -1.1055415967851334e+00
    7.8826495314448016e-03 -1.1055415967851334e+00
    7.8826495314448016e-03 -1.1055415967851334e+00
    8.0048684404679018e-03 -1.2247448713915889e+00
    8.0538985225140428e-03 -1.2602520756252087e+00
    8.0204189345144308e-03 -1.2364204916548041e+00
    8.1102834156984317e-03 -1.2972766972655811e+00
    8.0367577109536365e-03 -1.2482545953785715e+00
    8.0367577109536365e-03 -1.2482545953785715e+00
    8.0906454645008584e-03 -1.2847577241015340e+00
    8.1307871254724905e-03 -1.3099806802835110e+00
    8.1744661242894364e-03 -1.3359678613583033e+00
    8.0538985225140428e-03 -1.2602520756252087e+00
    8.0718559551140358e-03 -1.2724180205607034e+00
    8.3880341865632500e-03 -1.4486516314475941e+00
    8.3576733737386385e-03 -1.4337208778404373e+00
    8.5211730201379850e-03 -1.5111525699121977e+00
    8.8520438488639639e-03 -1.6519120918868639e+00
    8.6343612345880314e-03 -1.5612494995995994e+00
    8.4195300411246017e-03 -1.4638501094228002e+00
    8.1976812347432891e-03 -1.3492638068638840e+00
    8.0204189345144308e-03 -1.2364204916548041e+00
    7.9628209257815181e-03 -1.1906227016071957e+00
    7.8548308313936572e-03 -1.0561177090573837e+00
    7.8483279485574448e-03 -9.6427411113412598e-01
    7.8431372549019607e-03 -1. 7.9274461576727892e-03
    -8.6373129272462157e-01 8.5575643229800942e-03
    -6.5465367070797720e-01 9.2305204267059647e-03
    -5.5634864026418673e-01 9.8039215686274508e-03
    -5.0000000000000000e-01 1.3345852320263042e-02
    -3.2485017806822086e-01 1.2356491944209824e-02
    -3.5805743701971648e-01 9.9781000444146561e-03
    -4.8575205216218620e-01 9.1703588375870761e-03
    -5.6335181677267876e-01 8.3576733737386402e-03
    -6.9748583246291562e-01 7.9170919923958576e-03
    -8.7177978870813477e-01 7.8639620834712737e-03
    -9.2973478995949022e-01 7.8483279485574431e-03
    -1.0370495157480220e+00 7.8757491928847425e-03
    -1.0954451150103324e+00 7.8902278950244015e-03
    -1.1157499537009505e+00 7.9274461576727875e-03
    -1.1577674774819393e+00 7.9628209257815181e-03
    -1.1906227016071957e+00 7.9385130972237285e-03
    -1.1685852120617748e+00 8.2218418566424971e-03
    -1.3627702877384940e+00 8.3576733737386385e-03
    -1.4337208778404373e+00 8.2218418566424971e-03
    -1.3627702877384940e+00 8.0204189345144308e-03
    -1.2364204916548041e+00 8.0718559551140358e-03
    -1.2724180205607034e+00 8.0367577109536365e-03
    -1.2482545953785715e+00 8.0718559551140358e-03
    -1.2724180205607034e+00 8.0718559551140358e-03
    -1.2724180205607034e+00 7.9760812529117899e-03
    -1.2018504251546629e+00 7.9503015573719055e-03
    -1.1795356492391773e+00 8.0906454645008584e-03
    -1.2847577241015340e+00 8.3002316389455821e-03
    -1.4046255632633819e+00 8.2218418566424971e-03
    -1.3627702877384940e+00 8.6748584986593175e-03
    -1.5786270908810263e+00 8.5952788945159158e-03
    -1.5442199922988253e+00 8.4195300411246017e-03
    -1.4638501094228002e+00 8.5211730201379850e-03
    -1.5111525699121977e+00 8.3576733737386385e-03
    -1.4337208778404373e+00 8.3576733737386385e-03
    -1.4337208778404373e+00 8.1744661242894364e-03
    -1.3359678613583033e+00 7.9628209257815181e-03
    -1.1906227016071957e+00 7.8460557523173432e-03
    -1.0276549841046556e+00 7.8548308313936537e-03
    -9.4686415294799864e-01 7.8590663835113265e-03
    -9.3826535710420456e-01 8.1307871254724887e-03
    -7.6337003671197390e-01 8.7603008413572898e-03
    -6.1939308903323931e-01 9.3577844549224236e-03
    -5.4232614454664041e-01 1.1766650944097630e-02
    -3.8188130791298669e-01 1.2816972995824709e-02
    -3.4168884827505419e-01 9.8892109124136124e-03
    -4.9288726206643302e-01 8.4521944803585321e-03
    -6.7598346309958357e-01 8.1521749080421570e-03
    -7.5592894601845462e-01 7.8444339627317516e-03
    -9.8198050606196563e-01 7.8434613715727564e-03
    -1.0091326096471220e+00 7.8757491928847425e-03
    -1.0954451150103324e+00 7.9900932752550793e-03
    -1.2132230266358905e+00 8.0367577109536365e-03
    -1.2482545953785715e+00 7.9503015573719055e-03
    -1.1795356492391773e+00 7.9900932752550793e-03
    -1.2132230266358905e+00 8.0048684404679018e-03
    -1.2247448713915889e+00 8.1976812347432891e-03
    -1.3492638068638840e+00 8.1307871254724905e-03
    -1.3099806802835110e+00 8.2218418566424971e-03
    -1.3627702877384940e+00 8.1102834156984317e-03
    -1.2972766972655811e+00 8.1102834156984317e-03
    -1.2972766972655811e+00 8.0048684404679018e-03
    -1.2247448713915889e+00 8.1307871254724905e-03
    -1.3099806802835110e+00 8.1521749080421570e-03
    -1.3228756555322956e+00 8.0718559551140358e-03
    -1.2724180205607034e+00 8.0538985225140428e-03
    -1.2602520756252087e+00 8.1307871254724905e-03
    -1.3099806802835110e+00 8.3002316389455821e-03
    -1.4046255632633819e+00 8.3880341865632500e-03
    -1.4486516314475941e+00 8.3284158682289579e-03
    -1.4190484946389204e+00 8.5952788945159158e-03
    -1.5442199922988253e+00 8.6343612345880314e-03
    -1.5612494995995994e+00 8.2730922609242762e-03
    -1.3904435743076140e+00 8.4195300411246017e-03
    -1.4638501094228002e+00 8.3576733737386385e-03
    -1.4337208778404373e+00 8.2469708254123506e-03
    -1.3764944032233706e+00 8.0718559551140358e-03
    -1.2724180205607034e+00 7.9170919923958558e-03
    -1.1470786693528086e+00 7.8460557523173432e-03
    -1.0276549841046556e+00 7.8548308313936537e-03
    -9.4686415294799864e-01 7.9628209257815198e-03
    -8.3989663446709173e-01 8.2469708254123506e-03
    -7.2648315725677892e-01 9.1703588375870761e-03
    -5.6335181677267876e-01 1.0982588894337331e-02
    -4.2008402520840293e-01 1.3641197749745950e-02
    -3.1622776601683794e-01 9.4251095147569724e-03
    -5.3530337903131076e-01 8.5575643229800942e-03
    -6.5465367070797720e-01 8.0538985225140428e-03
    -7.9349204761587211e-01 7.8639620834712737e-03
    -9.2973478995949022e-01 7.8460557523173432e-03
    -1.0276549841046556e+00 7.8902278950244015e-03
    -1.1157499537009505e+00 8.0906454645008584e-03
    -1.2847577241015340e+00 8.1744661242894364e-03
    -1.3359678613583033e+00 8.1102834156984317e-03
    -1.2972766972655811e+00 8.2730922609242762e-03
    -1.3904435743076140e+00 8.1744661242894364e-03
    -1.3359678613583033e+00 8.1976812347432891e-03
    -1.3492638068638840e+00 8.2730922609242762e-03
    -1.3904435743076140e+00 8.1521749080421570e-03
    -1.3228756555322956e+00 8.0538985225140428e-03
    -1.2602520756252087e+00 8.1102834156984317e-03
    -1.2972766972655811e+00 7.9760812529117899e-03
    -1.2018504251546629e+00 8.0367577109536365e-03
    -1.2482545953785715e+00 8.0204189345144308e-03
    -1.2364204916548041e+00 8.0538985225140428e-03
    -1.2602520756252087e+00 8.1521749080421570e-03
    -1.3228756555322956e+00 8.1102834156984317e-03
    -1.2972766972655811e+00 8.3284158682289579e-03
    -1.4190484946389204e+00 8.1976812347432891e-03
    -1.3492638068638840e+00 8.1744661242894364e-03
    -1.3359678613583033e+00 8.2218418566424971e-03
    -1.3627702877384940e+00 8.5575643229800942e-03
    -1.5275252316519468e+00 8.6748584986593175e-03
    -1.5786270908810263e+00 8.6748584986593175e-03
    -1.5786270908810263e+00 8.2730922609242762e-03
    -1.3904435743076140e+00 8.1744661242894364e-03
    -1.3359678613583033e+00 8.0906454645008584e-03
    -1.2847577241015340e+00 7.9760812529117899e-03
    -1.2018504251546629e+00 7.8826495314448016e-03
    -1.1055415967851334e+00 7.8444339627317533e-03
    -1.0183501544346312e+00 7.8590663835113265e-03
    -9.3826535710420456e-01 8.2218418566424971e-03
    -7.3379938570534287e-01 9.0564748108176597e-03
    -5.7735026918962584e-01 1.0167548487649704e-02
    -4.7140452079103173e-01 1.2579078977878131e-02
    -3.4992710611188255e-01 9.2929598336700513e-03
    -5.4934064834945007e-01 8.3880341865632483e-03
    -6.9029708612603458e-01 7.9628209257815198e-03
    -8.3989663446709173e-01 7.8434613715727564e-03
    -9.9095004010393073e-01 7.8590663835113265e-03
    -1.0657965706911838e+00 7.8902278950244015e-03
    -1.1157499537009505e+00 8.0204189345144308e-03
    -1.2364204916548041e+00 8.1521749080421570e-03
    -1.3228756555322956e+00 8.2218418566424971e-03
    -1.3627702877384940e+00 8.5952788945159158e-03
    -1.5442199922988253e+00 8.5952788945159158e-03
    -1.5442199922988253e+00 8.4195300411246017e-03
    -1.4638501094228002e+00 8.3880341865632500e-03
    -1.4486516314475941e+00 8.4521944803585321e-03
    -1.4793261293918423e+00 8.2218418566424971e-03
    -1.3627702877384940e+00 8.1744661242894364e-03
    -1.3359678613583033e+00 8.0538985225140428e-03
    -1.2602520756252087e+00 8.0048684404679018e-03
    -1.2247448713915889e+00 8.1102834156984317e-03
    -1.2972766972655811e+00 8.0538985225140428e-03
    -1.2602520756252087e+00 8.0367577109536365e-03
    -1.2482545953785715e+00 8.1976812347432891e-03
    -1.3492638068638840e+00 8.2218418566424971e-03
    -1.3627702877384940e+00 8.2469708254123506e-03
    -1.3764944032233706e+00 8.1744661242894364e-03
    -1.3359678613583033e+00 8.1976812347432891e-03
    -1.3492638068638840e+00 8.3284158682289579e-03
    -1.4190484946389204e+00 8.6343612345880314e-03
    -1.5612494995995994e+00 8.5211730201379850e-03
    -1.5111525699121977e+00 8.6343612345880314e-03
    -1.5612494995995994e+00 8.5952788945159158e-03
    -1.5442199922988253e+00 8.4195300411246017e-03
    -1.4638501094228002e+00 8.2469708254123506e-03
    -1.3764944032233706e+00 8.0718559551140358e-03
    -1.2724180205607034e+00 7.8695216190426548e-03
    -1.0854574251356790e+00 7.8460557523173432e-03
    -1.0276549841046556e+00 8.0367577109536348e-03
    -8.0111862091460551e-01 9.0564748108176597e-03
    -5.7735026918962584e-01 9.8892109124136124e-03
    -4.9288726206643302e-01 1.3071895424836602e-02
    -3.3333333333333337e-01 9.8039215686274508e-03
    -5.0000000000000000e-01 8.3576733737386402e-03
    -6.9748583246291562e-01 8.0538985225140428e-03
    -7.9349204761587211e-01 7.8695216190426548e-03
    -9.2127058772019799e-01 7.8512522464724548e-03
    -1.0465362369445670e+00 7.9503015573719055e-03
    -1.1795356492391773e+00 7.9274461576727875e-03
    -1.1577674774819393e+00 8.1307871254724905e-03
    -1.3099806802835110e+00 8.1307871254724905e-03
    -1.3099806802835110e+00 8.2730922609242762e-03
    -1.3904435743076140e+00 8.5952788945159158e-03
    -1.5442199922988253e+00 8.4521944803585321e-03
    -1.4793261293918423e+00 8.3880341865632500e-03
    -1.4486516314475941e+00 8.3576733737386385e-03
    -1.4337208778404373e+00 8.2218418566424971e-03
    -1.3627702877384940e+00 8.2730922609242762e-03
    -1.3904435743076140e+00 8.1976812347432891e-03
    -1.3492638068638840e+00 8.0718559551140358e-03
    -1.2724180205607034e+00 8.1521749080421570e-03
    -1.3228756555322956e+00 8.3002316389455821e-03
    -1.4046255632633819e+00 8.2469708254123506e-03
    -1.3764944032233706e+00 8.2469708254123506e-03
    -1.3764944032233706e+00 8.2469708254123506e-03
    -1.3764944032233706e+00 8.1976812347432891e-03
    -1.3492638068638840e+00 8.0538985225140428e-03
    -1.2602520756252087e+00 8.1307871254724905e-03
    -1.3099806802835110e+00 8.1976812347432891e-03
    -1.3492638068638840e+00 8.3002316389455821e-03
    -1.4046255632633819e+00 8.3576733737386385e-03
    -1.4337208778404373e+00 8.4521944803585321e-03
    -1.4793261293918423e+00 8.3880341865632500e-03
    -1.4486516314475941e+00 8.5952788945159158e-03
    -1.5442199922988253e+00 8.2469708254123506e-03
    -1.3764944032233706e+00 8.0538985225140428e-03
    -1.2602520756252087e+00 7.9385130972237285e-03
    -1.1685852120617748e+00 7.8431372549019607e-03 -1.
    7.9760812529117899e-03 -8.3205029433784350e-01
    8.8520438488639639e-03 -6.0535908957344697e-01
    9.4950587937077079e-03 -5.2827054379537430e-01
    1.3071895424836602e-02 -3.3333333333333337e-01
    9.6433728904095194e-03 -5.1416710911138030e-01
    8.4195300411246000e-03 -6.8313005106397329e-01
    7.9628209257815198e-03 -8.3989663446709173e-01
    7.8512522464724566e-03 -9.5553308590590924e-01
    7.8512522464724548e-03 -1.0465362369445670e+00
    7.9503015573719055e-03 -1.1795356492391773e+00
    8.1307871254724905e-03 -1.3099806802835110e+00
    8.0906454645008584e-03 -1.2847577241015340e+00
    8.1521749080421570e-03 -1.3228756555322956e+00
    8.4860629696185980e-03 -1.4950900031928041e+00
    8.6343612345880314e-03 -1.5612494995995994e+00
    8.7603008413572880e-03 -1.6144836255128692e+00
    8.4195300411246017e-03 -1.4638501094228002e+00
    8.4521944803585321e-03 -1.4793261293918423e+00
    8.4195300411246017e-03 -1.4638501094228002e+00
    8.2730922609242762e-03 -1.3904435743076140e+00
    8.1521749080421570e-03 -1.3228756555322956e+00
    8.4195300411246017e-03 -1.4638501094228002e+00
    8.4195300411246017e-03 -1.4638501094228002e+00
    8.3880341865632500e-03 -1.4486516314475941e+00
    8.2218418566424971e-03 -1.3627702877384940e+00
    8.1307871254724905e-03 -1.3099806802835110e+00
    8.1521749080421570e-03 -1.3228756555322956e+00
    8.1744661242894364e-03 -1.3359678613583033e+00
    8.1307871254724905e-03 -1.3099806802835110e+00
    8.1976812347432891e-03 -1.3492638068638840e+00
    8.2469708254123506e-03 -1.3764944032233706e+00
    8.2730922609242762e-03 -1.3904435743076140e+00
    8.7603008413572880e-03 -1.6144836255128692e+00
    8.4860629696185980e-03 -1.4950900031928041e+00
    8.3002316389455821e-03 -1.4046255632633819e+00
    8.3002316389455821e-03 -1.4046255632633819e+00
    8.0906454645008584e-03 -1.2847577241015340e+00
    7.9274461576727875e-03 -1.1577674774819393e+00
    7.9900932752550793e-03 -1.2132230266358905e+00
    7.8548308313936572e-03 -1.0561177090573837e+00
    7.9760812529117899e-03 -8.3205029433784350e-01
    8.9505818903546155e-03 -5.9134867171047423e-01
    9.8892109124136124e-03 -4.9288726206643302e-01
    1.3071895424836602e-02 -3.3333333333333337e-01
    9.4251095147569724e-03 -5.3530337903131076e-01
    8.2730922609242762e-03 -7.1919495222807628e-01
    7.8695216190426548e-03 -9.2127058772019799e-01
    7.8590663835113265e-03 -9.3826535710420456e-01
    7.8444339627317533e-03 -1.0183501544346312e+00
    7.9385130972237285e-03 -1.1685852120617748e+00
    8.0538985225140428e-03 -1.2602520756252087e+00
    8.3002316389455821e-03 -1.4046255632633819e+00
    8.1521749080421570e-03 -1.3228756555322956e+00
    8.5952788945159158e-03 -1.5442199922988253e+00
    8.6748584986593175e-03 -1.5786270908810263e+00
    8.3576733737386385e-03 -1.4337208778404373e+00
    8.4195300411246017e-03 -1.4638501094228002e+00
    8.4860629696185980e-03 -1.4950900031928041e+00
    8.3284158682289579e-03 -1.4190484946389204e+00
    8.3284158682289579e-03 -1.4190484946389204e+00
    8.1976812347432891e-03 -1.3492638068638840e+00
    8.2469708254123506e-03 -1.3764944032233706e+00
    8.6343612345880314e-03 -1.5612494995995994e+00
    8.7168206854014735e-03 -1.5963668427946607e+00
    8.1976812347432891e-03 -1.3492638068638840e+00
    8.0204189345144308e-03 -1.2364204916548041e+00
    8.2469708254123506e-03 -1.3764944032233706e+00
    8.2730922609242762e-03 -1.3904435743076140e+00
    8.3576733737386385e-03 -1.4337208778404373e+00
    8.3002316389455821e-03 -1.4046255632633819e+00
    8.4195300411246017e-03 -1.4638501094228002e+00
    8.4195300411246017e-03 -1.4638501094228002e+00
    8.4521944803585321e-03 -1.4793261293918423e+00
    8.5211730201379850e-03 -1.5111525699121977e+00
    8.2730922609242762e-03 -1.3904435743076140e+00
    8.1976812347432891e-03 -1.3492638068638840e+00
    8.1744661242894364e-03 -1.3359678613583033e+00
    8.0204189345144308e-03 -1.2364204916548041e+00
    7.8902278950244015e-03 -1.1157499537009505e+00
    7.8590663835113265e-03 -1.0657965706911838e+00
    7.9274461576727892e-03 -8.6373129272462157e-01
    9.0025711592416728e-03 -5.8434870979077769e-01
    9.9781000444146561e-03 -4.8575205216218620e-01
    1.2579078977878131e-02 -3.4992710611188255e-01
    9.5677654420527024e-03 -5.2122576737728021e-01
    8.2469708254123506e-03 -7.2648315725677892e-01
    7.9628209257815198e-03 -8.3989663446709173e-01
    7.8434613715727564e-03 -9.9095004010393073e-01
    7.8757491928847425e-03 -1.0954451150103324e+00
    7.8984900890565462e-03 -1.1260733711057207e+00
    7.9503015573719055e-03 -1.1795356492391773e+00
    8.0204189345144308e-03 -1.2364204916548041e+00
    8.1307871254724905e-03 -1.3099806802835110e+00
    8.1102834156984317e-03 -1.2972766972655811e+00
    8.1521749080421570e-03 -1.3228756555322956e+00
    8.2730922609242762e-03 -1.3904435743076140e+00
    8.3880341865632500e-03 -1.4486516314475941e+00
    8.3284158682289579e-03 -1.4190484946389204e+00
    8.1744661242894364e-03 -1.3359678613583033e+00
    8.1102834156984317e-03 -1.2972766972655811e+00
    8.1307871254724905e-03 -1.3099806802835110e+00
    8.1521749080421570e-03 -1.3228756555322956e+00
    8.3002316389455821e-03 -1.4046255632633819e+00
    8.5211730201379850e-03 -1.5111525699121977e+00
    8.3002316389455821e-03 -1.4046255632633819e+00
    7.9900932752550793e-03 -1.2132230266358905e+00
    8.1307871254724905e-03 -1.3099806802835110e+00
    8.0538985225140428e-03 -1.2602520756252087e+00
    8.2469708254123506e-03 -1.3764944032233706e+00
    8.1521749080421570e-03 -1.3228756555322956e+00
    8.1744661242894364e-03 -1.3359678613583033e+00
    8.2218418566424971e-03 -1.3627702877384940e+00
    8.1521749080421570e-03 -1.3228756555322956e+00
    8.1744661242894364e-03 -1.3359678613583033e+00
    8.0048684404679018e-03 -1.2247448713915889e+00
    7.9274461576727875e-03 -1.1577674774819393e+00
    7.8984900890565462e-03 -1.1260733711057207e+00
    7.8460557523173432e-03 -9.7308923273626680e-01
    7.8483279485574448e-03 -9.6427411113412598e-01
    7.8590663835113265e-03 -9.3826535710420456e-01
    8.0204189345144308e-03 -8.0878633664637567e-01
    8.5211730201379832e-03 -6.6174655022298834e-01
    9.8892109124136124e-03 -4.9288726206643302e-01
    1.2356491944209824e-02 -3.5805743701971648e-01
    9.4950587937077079e-03 -5.2827054379537430e-01
    8.3880341865632483e-03 -6.9029708612603458e-01
    7.9628209257815198e-03 -8.3989663446709173e-01
    7.8757491928847425e-03 -9.1287092917527690e-01
    7.8444339627317533e-03 -1.0183501544346312e+00
    7.8984900890565462e-03 -1.1260733711057207e+00
    7.9074424766415984e-03 -1.1365151414154879e+00
    8.0204189345144308e-03 -1.2364204916548041e+00
    8.0367577109536365e-03 -1.2482545953785715e+00
    8.0906454645008584e-03 -1.2847577241015340e+00
    8.1307871254724905e-03 -1.3099806802835110e+00
    8.3576733737386385e-03 -1.4337208778404373e+00
    8.0718559551140358e-03 -1.2724180205607034e+00
    8.3880341865632500e-03 -1.4486516314475941e+00
    8.2730922609242762e-03 -1.3904435743076140e+00
    8.2469708254123506e-03 -1.3764944032233706e+00
    8.1521749080421570e-03 -1.3228756555322956e+00
    8.1102834156984317e-03 -1.2972766972655811e+00
    8.1976812347432891e-03 -1.3492638068638840e+00
    8.1744661242894364e-03 -1.3359678613583033e+00
    8.0538985225140428e-03 -1.2602520756252087e+00
    8.2218418566424971e-03 -1.3627702877384940e+00
    8.1307871254724905e-03 -1.3099806802835110e+00
    8.0538985225140428e-03 -1.2602520756252087e+00
    8.1976812347432891e-03 -1.3492638068638840e+00
    8.1744661242894364e-03 -1.3359678613583033e+00
    8.0906454645008584e-03 -1.2847577241015340e+00
    8.1744661242894364e-03 -1.3359678613583033e+00
    8.0204189345144308e-03 -1.2364204916548041e+00
    7.8902278950244015e-03 -1.1157499537009505e+00
    7.9074424766415984e-03 -1.1365151414154879e+00
    7.8984900890565462e-03 -1.1260733711057207e+00
    7.8984900890565462e-03 -1.1260733711057207e+00
    7.8434613715727564e-03 -1.0091326096471220e+00
    7.8460557523173432e-03 -9.7308923273626680e-01
    7.8695216190426548e-03 -9.2127058772019799e-01
    8.1102834156984299e-03 -7.7084557373751894e-01
    8.5575643229800942e-03 -6.5465367070797720e-01
    9.5677654420527024e-03 -5.2122576737728021e-01
    1.5558221147202752e-02 -2.7050089040022968e-01
    1.0268592259604383e-02 -4.6418704555347995e-01
    8.8053552845146921e-03 -6.1237243569579447e-01
    8.0367577109536348e-03 -8.0111862091460551e-01
    7.9385130972237268e-03 -8.5573562773027578e-01
    7.8431372549019607e-03 -1. 7.8512522464724548e-03
    -1.0465362369445670e+00 7.9628209257815181e-03
    -1.1906227016071957e+00 8.0048684404679018e-03
    -1.2247448713915889e+00 8.0906454645008584e-03
    -1.2847577241015340e+00 8.0048684404679018e-03
    -1.2247448713915889e+00 8.1102834156984317e-03
    -1.2972766972655811e+00 8.2218418566424971e-03
    -1.3627702877384940e+00 8.2730922609242762e-03
    -1.3904435743076140e+00 8.1744661242894364e-03
    -1.3359678613583033e+00 8.2730922609242762e-03
    -1.3904435743076140e+00 8.1976812347432891e-03
    -1.3492638068638840e+00 8.1976812347432891e-03
    -1.3492638068638840e+00 8.2218418566424971e-03
    -1.3627702877384940e+00 8.1521749080421570e-03
    -1.3228756555322956e+00 8.2469708254123506e-03
    -1.3764944032233706e+00 8.1102834156984317e-03
    -1.2972766972655811e+00 8.1102834156984317e-03
    -1.2972766972655811e+00 8.1744661242894364e-03
    -1.3359678613583033e+00 8.1976812347432891e-03
    -1.3492638068638840e+00 8.1307871254724905e-03
    -1.3099806802835110e+00 8.1744661242894364e-03
    -1.3359678613583033e+00 8.2218418566424971e-03
    -1.3627702877384940e+00 8.0538985225140428e-03
    -1.2602520756252087e+00 8.0367577109536365e-03
    -1.2482545953785715e+00 8.0367577109536365e-03
    -1.2482545953785715e+00 7.8826495314448016e-03
    -1.1055415967851334e+00 7.8826495314448016e-03
    -1.1055415967851334e+00 7.8757491928847425e-03
    -1.0954451150103324e+00 7.8431372549019607e-03 -1.
    7.8639620834712737e-03 -9.2973478995949022e-01
    7.8902278950244015e-03 -8.9625815953027177e-01
    8.2469708254123506e-03 -7.2648315725677892e-01
    8.8053552845146921e-03 -6.1237243569579447e-01
    1.0374209358201372e-02 -4.5693676673168770e-01
    1.8826641510556207e-02 -2.1821789023599242e-01
    1.0167548487649704e-02 -4.7140452079103173e-01
    8.7603008413572898e-03 -6.1939308903323931e-01
    8.3880341865632483e-03 -6.9029708612603458e-01
    7.9760812529117899e-03 -8.3205029433784350e-01
    7.8434613715727564e-03 -9.9095004010393073e-01
    7.8695216190426548e-03 -1.0854574251356790e+00
    7.9385130972237285e-03 -1.1685852120617748e+00
    7.9170919923958558e-03 -1.1470786693528086e+00
    8.0367577109536365e-03 -1.2482545953785715e+00
    7.9760812529117899e-03 -1.2018504251546629e+00
    8.0538985225140428e-03 -1.2602520756252087e+00
    8.1521749080421570e-03 -1.3228756555322956e+00
    8.1976812347432891e-03 -1.3492638068638840e+00
    8.3284158682289579e-03 -1.4190484946389204e+00
    8.6343612345880314e-03 -1.5612494995995994e+00
    8.2730922609242762e-03 -1.3904435743076140e+00
    8.3576733737386385e-03 -1.4337208778404373e+00
    8.2218418566424971e-03 -1.3627702877384940e+00
    8.1521749080421570e-03 -1.3228756555322956e+00
    8.2730922609242762e-03 -1.3904435743076140e+00
    8.1976812347432891e-03 -1.3492638068638840e+00
    8.2469708254123506e-03 -1.3764944032233706e+00
    8.1307871254724905e-03 -1.3099806802835110e+00
    8.1521749080421570e-03 -1.3228756555322956e+00
    8.0204189345144308e-03 -1.2364204916548041e+00
    8.3284158682289579e-03 -1.4190484946389204e+00
    8.3002316389455821e-03 -1.4046255632633819e+00
    7.9628209257815181e-03 -1.1906227016071957e+00
    7.9628209257815181e-03 -1.1906227016071957e+00
    7.8984900890565462e-03 -1.1260733711057207e+00
    7.8902278950244015e-03 -1.1157499537009505e+00
    7.9074424766415984e-03 -1.1365151414154879e+00
    7.8695216190426548e-03 -1.0854574251356790e+00
    7.8460557523173432e-03 -9.7308923273626680e-01
    7.8434613715727564e-03 -9.9095004010393073e-01
    7.9074424766415984e-03 -8.7988269012811959e-01
    8.1307871254724887e-03 -7.6337003671197390e-01
    8.7168206854014735e-03 -6.2642243198271497e-01
    1.0374209358201372e-02 -4.5693676673168770e-01
    1.7993390891808767e-02 -2.2941573387056177e-01
    1.1766650944097630e-02 -3.8188130791298669e-01
    9.2929598336700513e-03 -5.4934064834945007e-01
    8.7168206854014735e-03 -6.2642243198271497e-01
    8.1307871254724887e-03 -7.6337003671197390e-01
    7.9503015573719037e-03 -8.4779124789065852e-01
    7.8695216190426548e-03 -1.0854574251356790e+00
    7.9274461576727875e-03 -1.1577674774819393e+00
    8.0367577109536365e-03 -1.2482545953785715e+00
    7.9385130972237285e-03 -1.1685852120617748e+00
    8.1521749080421570e-03 -1.3228756555322956e+00
    8.2730922609242762e-03 -1.3904435743076140e+00
    8.5575643229800942e-03 -1.5275252316519468e+00
    8.3002316389455821e-03 -1.4046255632633819e+00
    8.3002316389455821e-03 -1.4046255632633819e+00
    8.3002316389455821e-03 -1.4046255632633819e+00
    8.3880341865632500e-03 -1.4486516314475941e+00
    8.3002316389455821e-03 -1.4046255632633819e+00
    8.3576733737386385e-03 -1.4337208778404373e+00
    8.2218418566424971e-03 -1.3627702877384940e+00
    8.0906454645008584e-03 -1.2847577241015340e+00
    8.0906454645008584e-03 -1.2847577241015340e+00
    8.2469708254123506e-03 -1.3764944032233706e+00
    8.0367577109536365e-03 -1.2482545953785715e+00
    8.0718559551140358e-03 -1.2724180205607034e+00
    8.1102834156984317e-03 -1.2972766972655811e+00
    8.0204189345144308e-03 -1.2364204916548041e+00
    8.0204189345144308e-03 -1.2364204916548041e+00
    8.0367577109536365e-03 -1.2482545953785715e+00
    8.0538985225140428e-03 -1.2602520756252087e+00
    7.9503015573719055e-03 -1.1795356492391773e+00
    7.9170919923958558e-03 -1.1470786693528086e+00
    7.9170919923958558e-03 -1.1470786693528086e+00
    7.8902278950244015e-03 -1.1157499537009505e+00
    7.8512522464724548e-03 -1.0465362369445670e+00
    7.8590663835113265e-03 -9.3826535710420456e-01
    7.9503015573719037e-03 -8.4779124789065852e-01
    8.2218418566424971e-03 -7.3379938570534287e-01
    9.0564748108176597e-03 -5.7735026918962584e-01
    1.0268592259604383e-02 -4.6418704555347995e-01
    1.8826641510556207e-02 -2.1821789023599242e-01
    1.2579078977878131e-02 -3.4992710611188255e-01
    9.7220358713868572e-03 -5.0709255283710997e-01
    8.5952788945159175e-03 -6.4757612580273338e-01
    8.0367577109536348e-03 -8.0111862091460551e-01
    7.9274461576727892e-03 -8.6373129272462157e-01
    7.8639620834712737e-03 -9.2973478995949022e-01
    7.8590663835113265e-03 -1.0657965706911838e+00
    7.8902278950244015e-03 -1.1157499537009505e+00
    8.0204189345144308e-03 -1.2364204916548041e+00
    7.9628209257815181e-03 -1.1906227016071957e+00
    8.1307871254724905e-03 -1.3099806802835110e+00
    8.3284158682289579e-03 -1.4190484946389204e+00
    8.2469708254123506e-03 -1.3764944032233706e+00
    8.4860629696185980e-03 -1.4950900031928041e+00
    8.4521944803585321e-03 -1.4793261293918423e+00
    8.1307871254724905e-03 -1.3099806802835110e+00
    8.2469708254123506e-03 -1.3764944032233706e+00
    8.2469708254123506e-03 -1.3764944032233706e+00
    8.3284158682289579e-03 -1.4190484946389204e+00
    8.2469708254123506e-03 -1.3764944032233706e+00
    8.1744661242894364e-03 -1.3359678613583033e+00
    8.1744661242894364e-03 -1.3359678613583033e+00
    8.1521749080421570e-03 -1.3228756555322956e+00
    8.0538985225140428e-03 -1.2602520756252087e+00
    8.1102834156984317e-03 -1.2972766972655811e+00
    8.0367577109536365e-03 -1.2482545953785715e+00
    8.2218418566424971e-03 -1.3627702877384940e+00
    8.1976812347432891e-03 -1.3492638068638840e+00
    8.0204189345144308e-03 -1.2364204916548041e+00
    7.9503015573719055e-03 -1.1795356492391773e+00
    7.9503015573719055e-03 -1.1795356492391773e+00
    7.8757491928847425e-03 -1.0954451150103324e+00
    7.8444339627317516e-03 -9.8198050606196563e-01
    7.8434613715727564e-03 -9.9095004010393073e-01
    7.9074424766415984e-03 -8.7988269012811959e-01
    7.9760812529117899e-03 -8.3205029433784350e-01
    8.5211730201379832e-03 -6.6174655022298834e-01
    9.2305204267059647e-03 -5.5634864026418673e-01
    1.0848921574718482e-02 -4.2754613660367835e-01
    1.5101059729713831e-02 -2.8005601680560199e-01
    1.2356491944209824e-02 -3.5805743701971648e-01
    9.8892109124136124e-03 -4.9288726206643302e-01
    9.2305204267059647e-03 -5.5634864026418673e-01
    8.1744661242894364e-03 -7.4852100033550317e-01
    8.0538985225140428e-03 -7.9349204761587211e-01
    7.8902278950244015e-03 -8.9625815953027177e-01
    7.8444339627317516e-03 -9.8198050606196563e-01
    7.8902278950244015e-03 -1.1157499537009505e+00
    7.9170919923958558e-03 -1.1470786693528086e+00
    7.9900932752550793e-03 -1.2132230266358905e+00
    7.9760812529117899e-03 -1.2018504251546629e+00
    7.9760812529117899e-03 -1.2018504251546629e+00
    8.0538985225140428e-03 -1.2602520756252087e+00
    8.2469708254123506e-03 -1.3764944032233706e+00
    8.1102834156984317e-03 -1.2972766972655811e+00
    8.0906454645008584e-03 -1.2847577241015340e+00
    8.0718559551140358e-03 -1.2724180205607034e+00
    8.1744661242894364e-03 -1.3359678613583033e+00
    8.0367577109536365e-03 -1.2482545953785715e+00
    8.1307871254724905e-03 -1.3099806802835110e+00
    8.1744661242894364e-03 -1.3359678613583033e+00
    8.0906454645008584e-03 -1.2847577241015340e+00
    8.1307871254724905e-03 -1.3099806802835110e+00
    8.1307871254724905e-03 -1.3099806802835110e+00
    8.1744661242894364e-03 -1.3359678613583033e+00
    8.1744661242894364e-03 -1.3359678613583033e+00
    8.0538985225140428e-03 -1.2602520756252087e+00
    7.9628209257815181e-03 -1.1906227016071957e+00
    8.0048684404679018e-03 -1.2247448713915889e+00
    8.0048684404679018e-03 -1.2247448713915889e+00
    7.9503015573719055e-03 -1.1795356492391773e+00
    7.8902278950244015e-03 -1.1157499537009505e+00
    7.8434613715727564e-03 -9.9095004010393073e-01
    7.8695216190426548e-03 -9.2127058772019799e-01
    7.9628209257815198e-03 -8.3989663446709173e-01
    8.1744661242894364e-03 -7.4852100033550317e-01
    9.0564748108176597e-03 -5.7735026918962584e-01
    9.6433728904095194e-03 -5.1416710911138030e-01
    1.2816972995824709e-02 -3.4168884827505419e-01
    1.3960715317964081e-02 -3.0745302597970897e-01
    1.2356491944209824e-02 -3.5805743701971648e-01
    1.0167548487649704e-02 -4.7140452079103173e-01
    9.4251095147569724e-03 -5.3530337903131076e-01
    8.5952788945159175e-03 -6.4757612580273338e-01
    8.1307871254724887e-03 -7.6337003671197390e-01
    7.8826495314448016e-03 -9.0453403373329100e-01
    7.8512522464724566e-03 -9.5553308590590924e-01
    7.8548308313936572e-03 -1.0561177090573837e+00
    7.8826495314448016e-03 -1.1055415967851334e+00
    7.8639620834712719e-03 -1.0755755413256844e+00
    7.9900932752550793e-03 -1.2132230266358905e+00
    8.2218418566424971e-03 -1.3627702877384940e+00
    8.1976812347432891e-03 -1.3492638068638840e+00
    8.2218418566424971e-03 -1.3627702877384940e+00
    8.2730922609242762e-03 -1.3904435743076140e+00
    8.0718559551140358e-03 -1.2724180205607034e+00
    8.0367577109536365e-03 -1.2482545953785715e+00
    8.1976812347432891e-03 -1.3492638068638840e+00
    8.1102834156984317e-03 -1.2972766972655811e+00
    8.1521749080421570e-03 -1.3228756555322956e+00
    8.0906454645008584e-03 -1.2847577241015340e+00
    8.1744661242894364e-03 -1.3359678613583033e+00
    8.0906454645008584e-03 -1.2847577241015340e+00
    8.2730922609242762e-03 -1.3904435743076140e+00
    8.2730922609242762e-03 -1.3904435743076140e+00
    8.0718559551140358e-03 -1.2724180205607034e+00
    8.0718559551140358e-03 -1.2724180205607034e+00
    8.1102834156984317e-03 -1.2972766972655811e+00
    7.9628209257815181e-03 -1.1906227016071957e+00
    8.0048684404679018e-03 -1.2247448713915889e+00
    7.9385130972237285e-03 -1.1685852120617748e+00
    7.8483279485574431e-03 -1.0370495157480220e+00
    7.8483279485574448e-03 -9.6427411113412598e-01
    7.9385130972237268e-03 -8.5573562773027578e-01
    8.1521749080421570e-03 -7.5592894601845462e-01
    8.3880341865632483e-03 -6.9029708612603458e-01
    8.8053552845146921e-03 -6.1237243569579447e-01
    9.6433728904095194e-03 -5.1416710911138030e-01
    1.3071895424836602e-02 -3.3333333333333337e-01
    1.8826641510556207e-02 -2.1821789023599242e-01
    1.3345852320263042e-02 -3.2485017806822086e-01
    1.0268592259604383e-02 -4.6418704555347995e-01
    9.4251095147569724e-03 -5.3530337903131076e-01
    8.9505818903546155e-03 -5.9134867171047423e-01
    8.3284158682289579e-03 -7.0469755175946380e-01
    7.9385130972237268e-03 -8.5573562773027578e-01
    7.8590663835113265e-03 -9.3826535710420456e-01
    7.8444339627317516e-03 -9.8198050606196563e-01
    7.8444339627317533e-03 -1.0183501544346312e+00
    7.9170919923958558e-03 -1.1470786693528086e+00
    7.9628209257815181e-03 -1.1906227016071957e+00
    8.0718559551140358e-03 -1.2724180205607034e+00
    8.2469708254123506e-03 -1.3764944032233706e+00
    7.9900932752550793e-03 -1.2132230266358905e+00
    8.1744661242894364e-03 -1.3359678613583033e+00
    8.1307871254724905e-03 -1.3099806802835110e+00
    8.0048684404679018e-03 -1.2247448713915889e+00
    8.0204189345144308e-03 -1.2364204916548041e+00
    8.0538985225140428e-03 -1.2602520756252087e+00
    7.9274461576727875e-03 -1.1577674774819393e+00
    8.0538985225140428e-03 -1.2602520756252087e+00
    8.0718559551140358e-03 -1.2724180205607034e+00
    8.1307871254724905e-03 -1.3099806802835110e+00
    8.0367577109536365e-03 -1.2482545953785715e+00
    8.0367577109536365e-03 -1.2482545953785715e+00
    7.9385130972237285e-03 -1.1685852120617748e+00
    8.0048684404679018e-03 -1.2247448713915889e+00
    7.9074424766415984e-03 -1.1365151414154879e+00
    7.8757491928847425e-03 -1.0954451150103324e+00
    7.8695216190426548e-03 -1.0854574251356790e+00
    7.8444339627317516e-03 -9.8198050606196563e-01
    7.8483279485574448e-03 -9.6427411113412598e-01
    7.9274461576727892e-03 -8.6373129272462157e-01
    8.1521749080421570e-03 -7.5592894601845462e-01
    8.2730922609242762e-03 -7.1919495222807628e-01
    8.5211730201379832e-03 -6.6174655022298834e-01
    8.8053552845146921e-03 -6.1237243569579447e-01
    1.0374209358201372e-02 -4.5693676673168770e-01
    1.3071895424836602e-02 -3.3333333333333337e-01
    1.6065153235220481e-02 -2.6069362295335052e-01
    1.3071895424836602e-02 -3.3333333333333337e-01
    1.1592225421859873e-02 -3.8965684997569894e-01
    9.7220358713868572e-03 -5.0709255283710997e-01
    8.9505818903546155e-03 -5.9134867171047423e-01
    8.5952788945159175e-03 -6.4757612580273338e-01
    8.3880341865632483e-03 -6.9029708612603458e-01
    8.0048684404679018e-03 -8.1649658092772603e-01
    7.9760812529117899e-03 -8.3205029433784350e-01
    7.8434613715727564e-03 -1.0091326096471220e+00
    7.8512522464724548e-03 -1.0465362369445670e+00
    7.8434613715727564e-03 -9.9095004010393073e-01
    7.8695216190426548e-03 -1.0854574251356790e+00
    7.9503015573719055e-03 -1.1795356492391773e+00
    8.1976812347432891e-03 -1.3492638068638840e+00
    8.1521749080421570e-03 -1.3228756555322956e+00
    8.1744661242894364e-03 -1.3359678613583033e+00
    8.1102834156984317e-03 -1.2972766972655811e+00
    7.9900932752550793e-03 -1.2132230266358905e+00
    7.9074424766415984e-03 -1.1365151414154879e+00
    7.9274461576727875e-03 -1.1577674774819393e+00
    8.0204189345144308e-03 -1.2364204916548041e+00
    7.9503015573719055e-03 -1.1795356492391773e+00
    7.9170919923958558e-03 -1.1470786693528086e+00
    7.8902278950244015e-03 -1.1157499537009505e+00
    7.9503015573719055e-03 -1.1795356492391773e+00
    7.9385130972237285e-03 -1.1685852120617748e+00
    7.8512522464724548e-03 -1.0465362369445670e+00
    7.8695216190426548e-03 -1.0854574251356790e+00
    7.8460557523173432e-03 -1.0276549841046556e+00
    7.9503015573719055e-03 -1.1795356492391773e+00
    7.8431372549019607e-03 -1. 7.8590663835113265e-03
    -9.3826535710420456e-01 7.9385130972237268e-03
    -8.5573562773027578e-01 8.1521749080421570e-03
    -7.5592894601845462e-01 8.4860629696185980e-03
    -6.6885605405993853e-01 8.7168206854014735e-03
    -6.2642243198271497e-01 9.5677654420527024e-03
    -5.2122576737728021e-01 1.1427337982521947e-02
    -3.9735970711951313e-01 1.5101059729713831e-02
    -2.8005601680560199e-01 1.8826641510556207e-02
    -2.1821789023599242e-01 1.3641197749745950e-02
    -3.1622776601683794e-01 1.2147725269407208e-02
    -3.6608826607349904e-01 1.0374209358201372e-02
    -4.5693676673168770e-01 9.2929598336700513e-03
    -5.4934064834945007e-01 9.0564748108176597e-03
    -5.7735026918962584e-01 8.7168206854014735e-03
    -6.2642243198271497e-01 8.5211730201379832e-03
    -6.6174655022298834e-01 8.0906454645008601e-03
    -7.7835686934618498e-01 7.9385130972237268e-03
    -8.5573562773027578e-01 7.8984900890565462e-03
    -8.8804160160369849e-01 7.9385130972237268e-03
    -8.5573562773027578e-01 7.8444339627317516e-03
    -9.8198050606196563e-01 7.8434613715727564e-03
    -9.9095004010393073e-01 7.8902278950244015e-03
    -1.1157499537009505e+00 8.1307871254724905e-03
    -1.3099806802835110e+00 8.1521749080421570e-03
    -1.3228756555322956e+00 8.0538985225140428e-03
    -1.2602520756252087e+00 7.9503015573719055e-03
    -1.1795356492391773e+00 8.0048684404679018e-03
    -1.2247448713915889e+00 7.9503015573719055e-03
    -1.1795356492391773e+00 7.9385130972237285e-03
    -1.1685852120617748e+00 7.9900932752550793e-03
    -1.2132230266358905e+00 7.8902278950244015e-03
    -1.1157499537009505e+00 7.8483279485574431e-03
    -1.0370495157480220e+00 7.8902278950244015e-03
    -1.1157499537009505e+00 7.8639620834712719e-03
    -1.0755755413256844e+00 7.8639620834712719e-03
    -1.0755755413256844e+00 7.8512522464724548e-03
    -1.0465362369445670e+00 7.8548308313936572e-03
    -1.0561177090573837e+00 7.8460557523173432e-03
    -1.0276549841046556e+00 7.8590663835113265e-03
    -9.3826535710420456e-01 7.8984900890565462e-03
    -8.8804160160369849e-01 8.0718559551140358e-03
    -7.8590524799337569e-01 8.2469708254123506e-03
    -7.2648315725677892e-01 8.8053552845146921e-03
    -6.1237243569579447e-01 9.7220358713868572e-03
    -5.0709255283710997e-01 1.0374209358201372e-02
    -4.5693676673168770e-01 1.3345852320263042e-02
    -3.2485017806822086e-01 1.5558221147202752e-02
    -2.7050089040022968e-01 1.8826641510556207e-02
    -2.1821789023599242e-01 1.4686219698294412e-02
    -2.8938528360048305e-01 1.2356491944209824e-02
    -3.5805743701971648e-01 9.8892109124136124e-03
    -4.9288726206643302e-01 9.4950587937077079e-03
    -5.2827054379537430e-01 9.3577844549224236e-03
    -5.4232614454664041e-01 8.9004301522769974e-03
    -5.9835164523716733e-01 8.9505818903546155e-03
    -5.9134867171047423e-01 8.2469708254123506e-03
    -7.2648315725677892e-01 8.0538985225140428e-03
    -7.9349204761587211e-01 8.0718559551140358e-03
    -7.8590524799337569e-01 7.9628209257815198e-03
    -8.3989663446709173e-01 7.9628209257815198e-03
    -8.3989663446709173e-01 7.8695216190426548e-03
    -9.2127058772019799e-01 7.8434613715727564e-03
    -1.0091326096471220e+00 7.8483279485574431e-03
    -1.0370495157480220e+00 7.8483279485574431e-03
    -1.0370495157480220e+00 7.8434613715727564e-03
    -9.9095004010393073e-01 7.8460557523173432e-03
    -1.0276549841046556e+00 7.8902278950244015e-03
    -1.1157499537009505e+00 7.9074424766415984e-03
    -1.1365151414154879e+00 7.9170919923958558e-03
    -1.1470786693528086e+00 7.9274461576727875e-03
    -1.1577674774819393e+00 7.9074424766415984e-03
    -1.1365151414154879e+00 7.8460557523173432e-03
    -1.0276549841046556e+00 7.8512522464724566e-03
    -9.5553308590590924e-01 7.8548308313936537e-03
    -9.4686415294799864e-01 7.8460557523173432e-03
    -1.0276549841046556e+00 7.8548308313936537e-03
    -9.4686415294799864e-01 7.8548308313936537e-03
    -9.4686415294799864e-01 7.9074424766415984e-03
    -8.7988269012811959e-01 8.0048684404679018e-03
    -8.1649658092772603e-01 8.2218418566424971e-03
    -7.3379938570534287e-01 8.2730922609242762e-03
    -7.1919495222807628e-01 8.5952788945159175e-03
    -6.4757612580273338e-01 9.3577844549224236e-03
    -5.4232614454664041e-01 9.7220358713868572e-03
    -5.0709255283710997e-01 1.1427337982521947e-02
    -3.9735970711951313e-01 1.3960715317964081e-02
    -3.0745302597970897e-01 1.7268722469176063e-02
    -2.4019223070763068e-01 1.9797940651076228e-02
    -2.0652851724645427e-01 1.6631279089225209e-02
    -2.5060313718537075e-01 1.2147725269407208e-02
    -3.6608826607349904e-01 1.0374209358201372e-02
    -4.5693676673168770e-01 9.8039215686274508e-03
    -5.0000000000000000e-01 9.6433728904095194e-03
    -5.1416710911138030e-01 9.3577844549224236e-03
    -5.4232614454664041e-01 9.0025711592416728e-03
    -5.8434870979077769e-01 8.6343612345880314e-03
    -6.4051261522034852e-01 8.5952788945159175e-03
    -6.4757612580273338e-01 8.2469708254123506e-03
    -7.2648315725677892e-01 8.1102834156984299e-03
    -7.7084557373751894e-01 7.9900932752550776e-03
    -8.2425075855415442e-01 7.9170919923958576e-03
    -8.7177978870813477e-01 7.9628209257815198e-03
    -8.3989663446709173e-01 7.9760812529117899e-03
    -8.3205029433784350e-01 7.8483279485574448e-03
    -9.6427411113412598e-01 7.8639620834712737e-03
    -9.2973478995949022e-01 7.8444339627317516e-03
    -9.8198050606196563e-01 7.8431372549019607e-03 -1.
    7.8434613715727564e-03 -1.0091326096471220e+00
    7.8639620834712719e-03 -1.0755755413256844e+00
    7.8984900890565462e-03 -1.1260733711057207e+00
    7.8460557523173432e-03 -1.0276549841046556e+00
    7.8444339627317533e-03 -1.0183501544346312e+00
    7.8460557523173432e-03 -1.0276549841046556e+00
    7.8460557523173432e-03 -9.7308923273626680e-01
    7.8444339627317516e-03 -9.8198050606196563e-01
    7.9074424766415984e-03 -8.7988269012811959e-01
    8.0204189345144308e-03 -8.0878633664637567e-01
    8.2730922609242762e-03 -7.1919495222807628e-01
    8.3284158682289579e-03 -7.0469755175946380e-01
    8.4521944803585321e-03 -6.7598346309958357e-01
    8.5952788945159175e-03 -6.4757612580273338e-01
    9.1123748441428211e-03 -5.7035182547203023e-01
    9.5677654420527024e-03 -5.2122576737728021e-01
    9.9781000444146561e-03 -4.8575205216218620e-01
    1.1951487560989817e-02 -3.7402723571552227e-01
    1.4686219698294412e-02 -2.8938528360048305e-01
    1.6631279089225209e-02 -2.5060313718537075e-01
    2.4076867819785974e-02 -1.6744367165578425e-01
    1.8826641510556207e-02 -2.1821789023599242e-01
    1.3345852320263042e-02 -3.2485017806822086e-01
    1.1951487560989817e-02 -3.7402723571552227e-01
    1.0982588894337331e-02 -4.2008402520840293e-01
    1.0070801978266033e-02 -4.7859197583077900e-01
    9.8039215686274508e-03 -5.0000000000000000e-01
    9.4251095147569724e-03 -5.3530337903131076e-01
    9.2929598336700513e-03 -5.4934064834945007e-01
    9.2929598336700513e-03 -5.4934064834945007e-01
    9.0025711592416728e-03 -5.8434870979077769e-01
    8.3576733737386402e-03 -6.9748583246291562e-01
    8.3880341865632483e-03 -6.9029708612603458e-01
    8.3002316389455804e-03 -7.1193350466774130e-01
    8.3002316389455804e-03 -7.1193350466774130e-01
    8.0204189345144308e-03 -8.0878633664637567e-01
    7.9385130972237268e-03 -8.5573562773027578e-01
    7.8483279485574448e-03 -9.6427411113412598e-01
    7.8695216190426548e-03 -9.2127058772019799e-01
    7.8434613715727564e-03 -9.9095004010393073e-01
    7.8444339627317516e-03 -9.8198050606196563e-01
    7.8483279485574448e-03 -9.6427411113412598e-01
    7.8431372549019607e-03 -1. 7.8483279485574448e-03
    -9.6427411113412598e-01 7.9170919923958576e-03
    -8.7177978870813477e-01 7.9074424766415984e-03
    -8.7988269012811959e-01 7.9900932752550776e-03
    -8.2425075855415442e-01 8.0204189345144308e-03
    -8.0878633664637567e-01 8.0718559551140358e-03
    -7.8590524799337569e-01 8.1521749080421570e-03
    -7.5592894601845462e-01 8.5211730201379832e-03
    -6.6174655022298834e-01 8.5575643229800942e-03
    -6.5465367070797720e-01 8.7168206854014735e-03
    -6.2642243198271497e-01 9.0025711592416728e-03
    -5.8434870979077769e-01 9.6433728904095194e-03
    -5.1416710911138030e-01 9.8892109124136124e-03
    -4.9288726206643302e-01 1.0982588894337331e-02
    -4.2008402520840293e-01 1.4307724303673046e-02
    -2.9851115706299675e-01 1.5558221147202752e-02
    -2.7050089040022968e-01 1.8826641510556207e-02
    -2.1821789023599242e-01 2.6313478802488650e-02
    -1.5249857033260469e-01 1.7268722469176063e-02
    -2.4019223070763068e-01 1.6065153235220481e-02
    -2.6069362295335052e-01 1.3960715317964081e-02
    -3.0745302597970897e-01 1.1951487560989817e-02
    -3.7402723571552227e-01 1.0721674393746198e-02
    -4.3495883620084008e-01 1.0484702052820549e-02
    -4.4965074485619033e-01 1.0721674393746198e-02
    -4.3495883620084008e-01 1.0070801978266033e-02
    -4.7859197583077900e-01 9.8039215686274508e-03
    -5.0000000000000000e-01 1.0374209358201372e-02
    -4.5693676673168770e-01 9.2929598336700513e-03
    -5.4934064834945007e-01 8.6343612345880314e-03
    -6.4051261522034852e-01 8.5211730201379832e-03
    -6.6174655022298834e-01 8.3576733737386402e-03
    -6.9748583246291562e-01 8.1307871254724887e-03
    -7.6337003671197390e-01 8.0718559551140358e-03
    -7.8590524799337569e-01 8.0718559551140358e-03
    -7.8590524799337569e-01 7.8826495314448016e-03
    -9.0453403373329100e-01 7.8757491928847425e-03
    -9.1287092917527690e-01 7.8590663835113265e-03
    -9.3826535710420456e-01 7.8757491928847425e-03
    -9.1287092917527690e-01 7.9385130972237268e-03
    -8.5573562773027578e-01 7.9628209257815198e-03
    -8.3989663446709173e-01 7.9503015573719037e-03
    -8.4779124789065852e-01 8.0906454645008601e-03
    -7.7835686934618498e-01 8.1102834156984299e-03
    -7.7084557373751894e-01 8.4521944803585321e-03
    -6.7598346309958357e-01 8.8053552845146921e-03
    -6.1237243569579447e-01 8.7168206854014735e-03
    -6.2642243198271497e-01 8.5952788945159175e-03
    -6.4757612580273338e-01 8.9505818903546155e-03
    -5.9134867171047423e-01 9.3577844549224236e-03
    -5.4232614454664041e-01 9.7220358713868572e-03
    -5.0709255283710997e-01 9.9781000444146561e-03
    -4.8575205216218620e-01 1.0374209358201372e-02
    -4.5693676673168770e-01 1.1766650944097630e-02
    -3.8188130791298669e-01 1.3641197749745950e-02
    -3.1622776601683794e-01 1.6631279089225209e-02
    -2.5060313718537075e-01 1.8826641510556207e-02
    -2.1821789023599242e-01 2.6313478802488650e-02
    -1.5249857033260469e-01 2.2343112830119125e-02
    -1.8128389273528470e-01 2.0949302913588052e-02
    -1.9425717247145285e-01 1.5558221147202752e-02
    -2.7050089040022968e-01 1.4307724303673046e-02
    -2.9851115706299675e-01 1.2579078977878131e-02
    -3.4992710611188255e-01 1.1592225421859873e-02
    -3.8965684997569894e-01 1.1951487560989817e-02
    -3.7402723571552227e-01 1.1592225421859873e-02
    -3.8965684997569894e-01 1.0600402076495872e-02
    -4.4232586846469141e-01 1.0721674393746198e-02
    -4.3495883620084008e-01 1.1271215448844216e-02
    -4.0499526419597059e-01 1.1271215448844216e-02
    -4.0499526419597059e-01 9.6433728904095194e-03
    -5.1416710911138030e-01 9.0564748108176597e-03
    -5.7735026918962584e-01 8.4521944803585321e-03
    -6.7598346309958357e-01 8.3002316389455804e-03
    -7.1193350466774130e-01 8.3002316389455804e-03
    -7.1193350466774130e-01 8.1307871254724887e-03
    -7.6337003671197390e-01 7.9503015573719037e-03
    -8.4779124789065852e-01 8.0048684404679018e-03
    -8.1649658092772603e-01 8.0048684404679018e-03
    -8.1649658092772603e-01 8.1744661242894364e-03
    -7.4852100033550317e-01 8.0367577109536348e-03
    -8.0111862091460551e-01 8.1521749080421570e-03
    -7.5592894601845462e-01 8.1976812347432891e-03
    -7.4114490799565458e-01 8.6748584986593175e-03
    -6.3346182627709968e-01 8.8520438488639639e-03
    -6.0535908957344697e-01 9.0025711592416728e-03
    -5.8434870979077769e-01 8.9004301522769974e-03
    -5.9835164523716733e-01 9.2929598336700513e-03
    -5.4934064834945007e-01 9.4251095147569724e-03
    -5.3530337903131076e-01 1.0600402076495872e-02
    -4.4232586846469141e-01 1.0721674393746198e-02
    -4.3495883620084008e-01 1.0721674393746198e-02
    -4.3495883620084008e-01 1.1592225421859873e-02
    -3.8965684997569894e-01 1.3071895424836602e-02
    -3.3333333333333337e-01 1.4307724303673046e-02
    -2.9851115706299675e-01 1.7993390891808767e-02
    -2.2941573387056177e-01 2.6313478802488650e-02
    -1.5249857033260469e-01 2.9351184281715639e-02
    -1.3608276348795434e-01 2.4076867819785974e-02
    -1.6744367165578425e-01 2.2343112830119125e-02
    -1.8128389273528470e-01 1.7993390891808767e-02
    -2.2941573387056177e-01 1.5558221147202752e-02
    -2.7050089040022968e-01 1.5558221147202752e-02
    -2.7050089040022968e-01 1.3345852320263042e-02
    -3.2485017806822086e-01 1.2816972995824709e-02
    -3.4168884827505419e-01 1.2579078977878131e-02
    -3.4992710611188255e-01 1.2579078977878131e-02
    -3.4992710611188255e-01 1.1951487560989817e-02
    -3.7402723571552227e-01 1.2356491944209824e-02
    -3.5805743701971648e-01 1.2579078977878131e-02
    -3.4992710611188255e-01 1.1951487560989817e-02
    -3.7402723571552227e-01 1.1271215448844216e-02
    -4.0499526419597059e-01 9.4950587937077079e-03
    -5.2827054379537430e-01 9.1123748441428211e-03
    -5.7035182547203023e-01 8.5575643229800942e-03
    -6.5465367070797720e-01 8.5211730201379832e-03
    -6.6174655022298834e-01 8.2730922609242762e-03
    -7.1919495222807628e-01 8.1744661242894364e-03
    -7.4852100033550317e-01 8.2218418566424971e-03
    -7.3379938570534287e-01 8.3880341865632483e-03
    -6.9029708612603458e-01 8.4860629696185980e-03
    -6.6885605405993853e-01 8.4521944803585321e-03
    -6.7598346309958357e-01 8.6748584986593175e-03
    -6.3346182627709968e-01 9.1123748441428211e-03
    -5.7035182547203023e-01 9.5677654420527024e-03
    -5.2122576737728021e-01 9.9781000444146561e-03
    -4.8575205216218620e-01 1.0070801978266033e-02
    -4.7859197583077900e-01 9.9781000444146561e-03
    -4.8575205216218620e-01 1.0070801978266033e-02
    -4.7859197583077900e-01 1.1123170302790909e-02
    -4.1256849850351734e-01 1.1592225421859873e-02
    -3.8965684997569894e-01 1.2579078977878131e-02
    -3.4992710611188255e-01 1.5101059729713831e-02
    -2.8005601680560199e-01 1.5101059729713831e-02
    -2.8005601680560199e-01 1.6065153235220481e-02
    -2.6069362295335052e-01 2.2343112830119125e-02
    -1.8128389273528470e-01 3.3813646346532646e-02
    -1.1757927025044305e-01 4.1317996617383002e-02
    -9.5782628522115151e-02 2.9351184281715639e-02
    -1.3608276348795434e-01 2.2343112830119125e-02
    -1.8128389273528470e-01 2.0949302913588052e-02
    -1.9425717247145285e-01 1.8826641510556207e-02
    -2.1821789023599242e-01 1.9797940651076228e-02
    -2.0652851724645427e-01 1.7993390891808767e-02
    -2.2941573387056177e-01 1.6065153235220481e-02
    -2.6069362295335052e-01 1.5101059729713831e-02
    -2.8005601680560199e-01 1.4307724303673046e-02
    -2.9851115706299675e-01 1.3641197749745950e-02
    -3.1622776601683794e-01 1.3071895424836602e-02
    -3.3333333333333337e-01 1.3641197749745950e-02
    -3.1622776601683794e-01 1.3641197749745950e-02
    -3.1622776601683794e-01 1.3071895424836602e-02
    -3.3333333333333337e-01 1.1271215448844216e-02
    -4.0499526419597059e-01 1.0268592259604383e-02
    -4.6418704555347995e-01 9.3577844549224236e-03
    -5.4232614454664041e-01 8.9004301522769974e-03
    -5.9835164523716733e-01 9.1703588375870761e-03
    -5.6335181677267876e-01 9.3577844549224236e-03
    -5.4232614454664041e-01 8.8053552845146921e-03
    -6.1237243569579447e-01 9.3577844549224236e-03
    -5.4232614454664041e-01 8.8520438488639639e-03
    -6.0535908957344697e-01 9.7220358713868572e-03
    -5.0709255283710997e-01 9.4251095147569724e-03
    -5.3530337903131076e-01 1.0484702052820549e-02
    -4.4965074485619033e-01 1.0374209358201372e-02
    -4.5693676673168770e-01 1.0600402076495872e-02
    -4.4232586846469141e-01 1.1271215448844216e-02
    -4.0499526419597059e-01 1.0982588894337331e-02
    -4.2008402520840293e-01 1.1951487560989817e-02
    -3.7402723571552227e-01 1.3641197749745950e-02
    -3.1622776601683794e-01 1.6631279089225209e-02
    -2.5060313718537075e-01 1.7268722469176063e-02
    -2.4019223070763068e-01 1.8826641510556207e-02
    -2.1821789023599242e-01 2.2343112830119125e-02
    -1.8128389273528470e-01 2.0949302913588052e-02
    -1.9425717247145285e-01 2.4076867819785974e-02
    -1.6744367165578425e-01 2.9351184281715639e-02
    -1.3608276348795434e-01 3.3813646346532646e-02
    -1.1757927025044305e-01 2.4076867819785974e-02
    -1.6744367165578425e-01 2.4076867819785974e-02
    -1.6744367165578425e-01 2.4076867819785974e-02
    -1.6744367165578425e-01 2.9351184281715639e-02
    -1.3608276348795434e-01 2.9351184281715639e-02
    -1.3608276348795434e-01 2.4076867819785974e-02
    -1.6744367165578425e-01 2.0949302913588052e-02
    -1.9425717247145285e-01 1.8826641510556207e-02
    -2.1821789023599242e-01 1.6065153235220481e-02
    -2.6069362295335052e-01 1.5558221147202752e-02
    -2.7050089040022968e-01 1.4686219698294412e-02
    -2.8938528360048305e-01 1.6065153235220481e-02
    -2.6069362295335052e-01 1.7268722469176063e-02
    -2.4019223070763068e-01 1.7268722469176063e-02
    -2.4019223070763068e-01 1.5101059729713831e-02
    -2.8005601680560199e-01 1.2356491944209824e-02
    -3.5805743701971648e-01 1.1271215448844216e-02
    -4.0499526419597059e-01 1.1427337982521947e-02
    -3.9735970711951313e-01 1.1123170302790909e-02
    -4.1256849850351734e-01 9.8039215686274508e-03
    -5.0000000000000000e-01 1.0167548487649704e-02
    -4.7140452079103173e-01 1.2147725269407208e-02
    -3.6608826607349904e-01 1.1427337982521947e-02
    -3.9735970711951313e-01 1.0600402076495872e-02
    -4.4232586846469141e-01 1.1766650944097630e-02
    -3.8188130791298669e-01 1.1271215448844216e-02
    -4.0499526419597059e-01 1.0982588894337331e-02
    -4.2008402520840293e-01 1.1271215448844216e-02
    -4.0499526419597059e-01 1.2356491944209824e-02
    -3.5805743701971648e-01 1.3071895424836602e-02
    -3.3333333333333337e-01 1.5558221147202752e-02
    -2.7050089040022968e-01 1.7993390891808767e-02
    -2.2941573387056177e-01 1.8826641510556207e-02
    -2.1821789023599242e-01 1.9797940651076228e-02
    -2.0652851724645427e-01 2.2343112830119125e-02
    -1.8128389273528470e-01 2.9351184281715639e-02
    -1.3608276348795434e-01 3.3813646346532646e-02
    -1.1757927025044305e-01 2.9351184281715639e-02
    -1.3608276348795434e-01 2.6313478802488650e-02
    -1.5249857033260469e-01</input_scale>
  <output_scale>
    1.0526315789473684e+00 0.</output_scale>
  <inv_output_scale>
    9.4999999999999996e-01 0.</inv_output_scale>
  <weights>
    <_>
      -2.4538008464414346e-01 -2.3413200577630754e-02
      -2.2096981997133898e-02 -8.3916911683959063e-03
      1.9475239596868702e-02 -1.7910920379201424e-02
      3.3204827725866448e-04 1.8686817109103894e-02
      2.0457623624708283e-02 1.9211871433837437e-03
      2.4659598207822189e-03 -2.3021341128743367e-02
      -9.2700153366634657e-03 3.9394646541547566e-03
      1.8874836374611004e-02 -3.7664184512647778e-03
      2.8454680164729799e-02 -1.3846733910944166e-02
      7.3750271288164412e-03 1.2701502922645515e-04
      1.8530743581541501e-02 -2.0636231330377015e-02
      -2.4344989633269278e-02 -2.1639576397593160e-02
      -9.2282994195849004e-03 2.7664250343230282e-02
      -1.2067460870777194e-02 4.1071132614612302e-03
      1.6218971387907052e-03 4.7286744147931256e-03
      2.2792010752697153e-02 1.9103504894510941e-02
      -2.0837512421494647e-02 2.5903251557229932e-03
      -4.0029172684935737e-03 -2.1084185161644679e-02
      -1.9652344942583697e-02 -6.4538450721530829e-05
      2.3113960832415063e-02 2.1203243593313409e-02
      4.1269547678271595e-01 -3.8433517797398321e-02
      -3.9293318524024727e-02 -1.4148791326056166e-02
      3.4801284822932758e-02 1.6528769785769851e-02
      1.7270330133780633e-02 3.2847146376420784e-02
      -2.2810132505781160e-02 -4.4063221594294766e-02
      -2.0814540852423371e-02 -3.5737793082477563e-02
      -1.2996358006120465e-02 1.9136633489775273e-02
      -2.2607047362853818e-02 -1.2652246185873552e-02
      -2.4887415132102370e-02 -2.6136949457639620e-02
      4.8781302935162404e-02 -4.6302631779785247e-02
      3.1557927714828495e-02 2.3319050102052877e-02
      2.5246087102562566e-02 -3.9956812045525765e-02
      -1.0730136290908810e-02 -2.6285527416910412e-02
      -4.6585083802388245e-02 4.3806329018093469e-02
      -1.8492872184018908e-02 -2.0892687765406148e-02
      3.9676675812406310e-02 3.6552691455812088e-02
      -4.0259297181328382e-02 -2.0133298727730047e-02
      -2.0556633509714921e-02 2.5110458508139762e-02
      -3.6982675840624764e-02 -2.1295546376500493e-02
      4.1804780580522088e-02 3.7626338391009102e-02
      -8.3654792045397497e-02 -3.7502626579646943e-03
      -1.5301756010732168e-02 -2.5192125589044937e-03
      1.2849471358221490e-02 -6.5107044946446299e-03
      -2.5748166718556871e-03 1.2221537017957999e-02
      5.9038159058598738e-03 -6.2510617850389028e-02
      2.4283862493252426e-03 -1.8496349207029025e-02
      -1.6227961435626582e-03 8.4935887430998285e-04
      9.4721899175502552e-03 1.3168224369129711e-03
      -1.3623674942402056e-03 -9.4492004636973891e-03
      5.6609970403894899e-02 -6.4091492186105811e-02
      1.4147368524969539e-02 -2.3572053670691223e-03
      -3.2898781194251009e-03 -1.7568761264717816e-02
      -8.9043055511428429e-04 -1.6968312758292386e-03
      -3.6455878132595522e-02 5.2042083363719176e-02
      3.4046468782249948e-03 3.6704965046270650e-03
      1.1954033369082172e-02 1.5425434616186040e-03
      1.0139943786675713e-02 8.3198179123418980e-04
      -1.4912420483951868e-03 -1.2601249842363843e-03
      -1.4352508646140237e-02 6.2221100661631254e-04
      1.4442493256907512e-02 1.6627592089341673e-02
      2.4718926596482002e-01 5.3044583214804410e-02
      4.9502825141834697e-02 2.0638689125696864e-02
      -4.2798409124078528e-02 3.1411407087344509e-02
      -1.9088000605245625e-02 -3.7437962429426590e-02
      -2.9546729527766501e-02 3.4012051309266437e-03
      1.9616626502500935e-02 3.5448738474175956e-02
      1.9408390020039676e-02 -2.7120938623336650e-02
      -2.3139508906147011e-02 1.7835520772484240e-02
      -3.7609362474671108e-02 3.1880291158490615e-02
      -6.0902312640458969e-03 3.0652197451089972e-03
      -3.3064570517547652e-02 3.2603937609708929e-02
      3.5442653307199576e-02 4.7530093844904156e-02
      1.8591094329805623e-02 -3.8009994060670571e-02
      2.5020372022225412e-02 -4.8168273831840861e-03
      2.2333755898333068e-02 1.8698732427434472e-02
      -5.1682274227524708e-02 -5.2667551650281023e-02
      4.2160984484012821e-02 2.1754777017543588e-02
      2.9269945279807388e-02 3.4965612894472926e-02
      4.9311646733779746e-02 2.5560941011434458e-02
      -5.0325898343474576e-02 -4.5086582453151121e-02
      1.2785680414813885e-02 1.0843013034275630e-03
      -1.6935601772242160e-03 2.4068663159926736e-03
      2.4736783886332577e-04 2.7882083635496040e-03
      -1.4036122882034529e-02 2.5362827641544137e-03
      9.6751436920954471e-04 -2.8171135676824870e-02
      1.8177285214764038e-02 -5.3858403057694204e-03
      2.5023444886110992e-03 -9.5524214384163850e-03
      3.9863363653722707e-03 8.2485170414319364e-03
      -1.2004881111338038e-02 -8.9623928813401758e-04
      2.3347823160304974e-02 -2.3961731927549322e-02
      1.7935128186700173e-03 3.8547780519532647e-03
      2.4245338351684808e-03 -3.6567497385094944e-03
      3.4494575963759755e-03 -1.4194378234237385e-02
      -6.9503641525313102e-03 2.0594035299056273e-02
      1.4102258901152001e-02 1.9155749924355408e-02
      1.2893125124092864e-03 2.3145318850329474e-03
      -5.6518304988560841e-03 1.6485833887684823e-02
      8.2833215302197463e-03 7.7278854663585346e-03
      -1.3857122630901656e-03 1.5954052819757238e-02
      2.3434141306923348e-03 4.3104643185401482e-03
      1.3211444580780520e-02 -2.8669134902551503e-04
      -8.4279310706994394e-04 3.0367949698028186e-03
      1.3914540576133777e-03 1.4388073407570442e-03
      -1.4546950945599870e-02 2.0787721860281495e-03
      1.1203795195317474e-03 -2.7956961424833320e-02
      1.6936660884075232e-02 -5.7941192896179038e-03
      2.6962194994731080e-03 -9.9586188373175268e-03
      5.5859136369341734e-03 8.7068152618647223e-03
      -1.2704624598476856e-02 -2.2938331704743806e-03
      2.1424205645358487e-02 -2.4113526015895254e-02
      1.8030970971579124e-03 5.2453625391013529e-03
      3.8521049967310175e-03 -3.5439055124323509e-03
      1.4590579825417454e-03 -1.4889692670139029e-02
      -5.3487916233009329e-03 1.9837646174749642e-02
      1.4596195599017167e-02 1.9430584838386136e-02
      6.4232886539527232e-04 2.2158648664175498e-03
      -4.1747931261768715e-03 1.7384854647727006e-02
      9.4930630661711514e-03 7.6340591974246473e-03
      -6.0681932991240206e-04 1.5940846091747687e-02
      3.3990646868803211e-03 2.8848117635563147e-03
      -2.2748874273326017e-01 -1.6378993849282774e-02
      -1.1438286079800604e-02 -9.9416386625316780e-03
      1.2525095771373363e-02 -7.1143717886882453e-03
      -9.0541326652581831e-03 1.5599613389707832e-02
      6.7026620168558568e-03 -3.6585842565679948e-02
      1.2283277096222341e-02 -2.7284515246235999e-02
      -1.5061525914114719e-02 2.5880751176870806e-03
      1.0273019204146531e-02 1.1301117280734696e-03
      -8.8731924577381306e-03 -1.7705397110485913e-02
      3.1520862587808153e-02 -3.5515197667352241e-02
      2.0681037288323188e-02 3.0725477060788721e-03
      1.3384188383362642e-03 -1.7657163131456256e-02
      -1.4586455698642012e-02 -7.6423589372751517e-03
      -2.4564453702547239e-02 2.9113674891530019e-02
      7.7163119147621992e-03 1.4573974613785186e-02
      1.5078854904761956e-02 2.1342959419132144e-02
      -1.9756025613427590e-02 9.3317212940730553e-03
      -2.5374376599982631e-03 4.6846270036077879e-03
      -1.2666208166100212e-02 7.3274678330358320e-03
      1.4579537337057814e-02 1.7095015333824373e-02
      -4.2279339205009758e-01 -5.4164387216806595e-02
      -4.4369352883692523e-02 -1.9974156223090029e-02
      3.9760599333634551e-02 -2.9907281084181895e-02
      -7.2883223992127755e-03 4.2082142219779961e-02
      3.1731305297181163e-02 -6.3823094588485674e-02
      1.6108784604681372e-02 -5.6475110989406122e-02
      -2.5801900544438046e-02 1.0195755412190699e-02
      3.2220434195098291e-02 -2.8656723699888877e-03
      2.2432026360647343e-02 -3.6512928817497639e-02
      6.6065388706812403e-02 -6.5202739627138448e-02
      4.5683104112337343e-02 -2.4587814278616525e-02
      -2.6901465119843902e-02 -4.9129539722715297e-02
      -2.1358680803885453e-02 2.3143542876450793e-02
      -5.9117811735230098e-02 5.7567883761502500e-02
      8.5998632293528259e-03 1.7909867845816229e-02
      4.6445971946745129e-02 5.7280313592020793e-02
      -5.9341448345556706e-02 9.5504297052551694e-03
      -1.0884839112534621e-02 -2.4323802535846768e-02
      -4.1507974180807802e-02 3.4356665847358088e-03
      5.0776581346477549e-02 4.8251446839661913e-02
      -3.9337262259196182e-01 -5.8989723204207936e-02
      -4.9045387027548508e-02 -2.1406236465924239e-02
      4.5228767817633860e-02 -2.3728126332281160e-02
      -8.3506807705363410e-04 4.5073399388664233e-02
      2.1778045515566519e-02 -6.8891509367034531e-02
      4.5610763924782685e-03 -5.8735680089802365e-02
      -2.6146503855537573e-02 1.4385533956776289e-02
      2.2996139073169910e-02 -8.6509989432334202e-03
      1.1299704335244192e-02 -4.0484593882586788e-02
      7.0574595063007506e-02 -7.0217120965101534e-02
      4.8318141584138739e-02 -1.6710420272570546e-02
      -1.6575760224240080e-02 -5.6176149624849507e-02
      -2.3159527777913594e-02 1.1919646779829679e-02
      -6.3589492171113690e-02 6.3573611691409807e-02
      -1.7694447111875427e-03 8.8216389419153596e-03
      5.2636836019626307e-02 6.4037113884529137e-02
      -6.7247685570004850e-02 7.2710516872367655e-04
      -1.7945687169090410e-02 -1.6511071325725074e-02
      -4.7154894139815405e-02 -5.3002459266856426e-03
      5.4868947881980323e-02 5.3376129236851172e-02
      -3.6905574669194269e-01 -3.1090078745500318e-02
      -2.7968427172356317e-02 -1.3576451316653811e-02
      2.7944388231150589e-02 -2.3357911161434083e-02
      -1.2108035417624704e-02 2.9548881407805875e-02
      2.4891962066641311e-02 -4.0249384990359467e-02
      1.7946848825508770e-02 -4.0027695420841752e-02
      -1.8077295503942499e-02 3.0320204136952086e-03
      2.8980093067399525e-02 1.5648168699347741e-03
      1.6961650697812816e-02 -2.4909690139895628e-02
      3.8781310372238198e-02 -4.1093583063473674e-02
      3.2463282780305032e-02 -1.7050207129840719e-02
      -2.4206124518312847e-02 -3.4830886063955395e-02
      -1.3834933506149834e-02 1.6207929278264668e-02
      -3.7557942453468059e-02 3.6061303185381442e-02
      1.1239162546174972e-02 2.0630979110892556e-02
      3.0164296882010454e-02 3.5982746662686520e-02
      -4.0227884452873688e-02 1.3969395035265378e-02
      -3.1545525358806789e-03 -2.1288329046888085e-02
      -2.7142720799710616e-02 9.7483187152526841e-03
      3.0568554826224854e-02 3.3587772185985833e-02
      -3.8658257048917755e-01 -3.2332313323344658e-02
      -2.9736283912267052e-02 -1.6750281007617940e-02
      3.1021499939869163e-02 -2.0536754455782135e-02
      -5.6276919382800975e-03 2.9823049089624843e-02
      2.1036132958253611e-02 -6.3604463967822281e-02
      1.1347373036363285e-02 -3.7540188674668219e-02
      -1.9394393436062314e-02 1.0603894637671500e-02
      2.2981178666835741e-02 -3.2013799455377343e-03
      4.7887477891254745e-03 -2.9011901002439049e-02
      5.2885582066289516e-02 -6.3797548819276712e-02
      3.1125370108208206e-02 -1.2866746422907513e-02
      -1.3965402605319416e-02 -3.3916260639966618e-02
      -1.8102658543730728e-02 5.1903131051605818e-03
      -4.9097264469305971e-02 5.0928740994623377e-02
      3.6989307421003048e-03 1.3550159216196563e-02
      3.1623682253204666e-02 4.1732558487786640e-02
      -5.0985670059401217e-02 4.7164172916647085e-03
      -1.2379284949672728e-02 -1.5503799739119875e-02
      -2.8737885328087961e-02 1.0398855838715834e-03
      3.3373940796000957e-02 3.3530585901619545e-02
      -4.7948125612691755e-01 -4.7104829742016546e-02
      -4.2656242690423792e-02 -2.2442963393727221e-02
      4.1037579247000820e-02 -2.6884829735709624e-02
      1.0455484157707955e-03 4.2268151586711301e-02
      2.4975262892439294e-02 -7.1325766668912993e-02
      4.7270164608134201e-03 -4.9243525792096329e-02
      -2.4159504115998733e-02 1.5504546860736995e-02
      2.5861415810625666e-02 -6.8965751356589895e-03
      1.0528943045236329e-02 -3.5893823177930412e-02
      6.4372466521179936e-02 -6.8619625948611485e-02
      4.2516918128428997e-02 -1.8007828837561780e-02
      -2.1309832638916879e-02 -4.7517684407621712e-02
      -2.1867046481313612e-02 1.2195172492667260e-02
      -6.0189910829895187e-02 5.9342713558480274e-02
      -1.7238752757146654e-03 6.6336296966635544e-03
      4.6433775518027055e-02 5.6643062223715263e-02
      -6.5355732527606625e-02 -1.9736169920675827e-03
      -1.7299047630256446e-02 -2.0223053904479281e-02
      -4.2156273294837905e-02 -7.7307893991734678e-03
      4.9438778458634716e-02 4.6644465730381043e-02
      -2.7643923656921277e-01 -5.3304608982985280e-02
      -4.1361852028607739e-02 -2.1338477609874392e-02
      3.8999404809481851e-02 -7.2896733492301968e-03
      7.9236622219329249e-03 3.6898325376988665e-02
      4.3220467954958267e-04 -8.2099570646362599e-02
      -4.2271442072212319e-03 -4.1495215987415332e-02
      -2.3655008672965612e-02 2.1047108175899758e-02
      3.1235193229680056e-03 -1.2430959294276881e-02
      -1.6345072049855029e-02 -3.2774226093799784e-02
      6.7849711531938209e-02 -7.9379045487043401e-02
      3.7894334192499698e-02 3.0979390919276834e-03
      7.8195134182242210e-03 -4.1531036245039434e-02
      -2.1809540581629358e-02 -1.5035658169973766e-02
      -6.3642630298179459e-02 6.8052190480881278e-02
      -8.5749177580542943e-03 -1.5587368107276925e-03
      4.4081602739223048e-02 5.5759190366333332e-02
      -6.0818090953415394e-02 -7.6157599527852142e-03
      -2.2471717322425450e-02 5.9525795363788211e-03
      -4.1029588991925846e-02 -1.2321479405939305e-02
      4.7338624190499112e-02 3.8891112834448079e-02
      -1.1022305183740294e-01 -2.8113671538386530e-02
      -8.3218202953727251e-03 -1.1224154953369526e-02
      5.7670584343621767e-03 9.6457528132105255e-03
      -2.4422019239248756e-03 1.0682737080765453e-02
      -6.1342048851335471e-03 -4.7461684379500241e-02
      2.8542130579678375e-03 -1.0910370597394289e-02
      -1.0018475444226417e-02 2.1901620638448030e-03
      -1.6667641509417248e-04 1.0945468933783369e-04
      -2.0363023478997783e-02 -1.2500475021094245e-02
      3.6619604455155143e-02 -4.3740511218611625e-02
      1.0053195584820892e-02 1.5025428523998113e-02
      1.2572259536048430e-02 -1.7725021585270832e-03
      -1.0366037696319988e-02 -2.9336217691129617e-02
      -3.4287063510022420e-02 3.8037066489365487e-02
      1.5995033978998153e-03 3.6835655420068658e-03
      2.0489308988452692e-02 3.0198178527321987e-02
      -2.9054587321082567e-02 1.4696792791290202e-03
      -7.0283393123613380e-03 2.0749925985741505e-02
      -1.3450072146676770e-02 -8.8548944197509578e-04
      2.0551011320522627e-02 3.1539550069218021e-03
      -6.3800420207654895e-01 -5.9699519216863881e-02
      -5.3057435851173083e-02 -2.5703818384428746e-02
      4.8038198791324045e-02 -3.1273288969129336e-02
      -4.2573176852856744e-04 4.6837126043617387e-02
      2.8736777354631940e-02 -4.9540130207263125e-02
      1.0934431146127719e-02 -5.2312640435706499e-02
      -2.7990133425533883e-02 2.0689121296360535e-02
      2.8509587264227525e-02 -1.0599722990289023e-02
      2.0343968152293262e-02 -4.1496939765733522e-02
      5.7524675290995080e-02 -5.0099456221670967e-02
      4.6984194255934350e-02 -2.4873877144238367e-02
      -2.4474562903803711e-02 -5.3343466689806406e-02
      -2.6737356545888026e-02 2.0589568666229185e-02
      -6.0652596387485970e-02 5.4562911986218626e-02
      -1.8294996182693300e-04 1.5111360671633416e-02
      5.6075953138766038e-02 6.5226361081471312e-02
      -5.0986265628699928e-02 4.1505044692049997e-03
      -2.0345575331361797e-02 -2.5324966537344069e-02
      -5.1756030694111985e-02 -2.2085126144910875e-03
      5.6651633290607815e-02 4.9992328973979490e-02
      -4.6820558966191700e-01 -4.1834480429845163e-03
      -7.9276207243904277e-03 -5.3255494850331887e-03
      6.9913882231599951e-03 -2.1683657598640996e-02
      -2.7708640118362670e-02 9.1009468316599080e-03
      3.4397030731987646e-02 1.9748805237117462e-02
      3.8130259752126867e-02 -2.0245947610410413e-02
      -9.2408258790355104e-03 -1.2726189461672159e-02
      3.7815741250635589e-02 9.6679634149016737e-03
      3.0106424102038495e-02 -1.0649983653808717e-02
      -1.5108446815695986e-03 9.1779558286267573e-03
      1.3507467070113138e-02 -2.2278014237027657e-02
      -3.4983850053722738e-02 -1.0614968477306759e-02
      -9.7321050218675022e-03 2.6776382101523961e-02
      5.3973401951779697e-03 -3.6820088712035941e-03
      2.9842049214849668e-02 4.0729989730628503e-02
      5.0085767004632324e-03 1.2607283607073087e-03
      1.2298568731187729e-02 3.5434271920652079e-02
      1.3683171881334307e-02 -2.8027103993556558e-02
      -6.7825062320965614e-03 3.0210377132443185e-02
      5.5206522547062821e-03 1.0429987039436206e-02
      -4.8026636723178789e-01 -5.0815745066737647e-03
      -7.1774565375770536e-03 -4.2460727691287069e-03
      7.5262432596305134e-03 -1.8242005158775932e-02
      -2.4639743821098448e-02 7.6378388078164319e-03
      2.9323892271562377e-02 1.8458349614937669e-02
      3.3769661946841723e-02 -1.5299504610455424e-02
      -9.2625563040885095e-03 -9.0330307434754783e-03
      3.1054162643942868e-02 8.0610588164226702e-03
      2.3803112439551757e-02 -7.5956727371200182e-03
      1.0593372808023541e-04 1.1074131422024147e-02
      1.1905267083304378e-02 -1.8719434208435668e-02
      -2.8949938613110682e-02 -1.0701176103582464e-02
