<?xml version="1.0"?>
<opencv_storage>
<shapeML type_id="opencv-ml-ann-mlp">
  <layer_sizes type_id="opencv-matrix">
    <rows>1</rows>
    <cols>3</cols>
    <dt>i</dt>
    <data>
      1600 40 1</data></layer_sizes>
  <activation_function>SIGMOID_SYM</activation_function>
  <f_param1>5.9999999999999998e-01</f_param1>
  <f_param2>1.</f_param2>
  <min_val>-9.4999999999999996e-01</min_val>
  <max_val>9.4999999999999996e-01</max_val>
  <min_val1>-9.7999999999999998e-01</min_val1>
  <max_val1>9.7999999999999998e-01</max_val1>
  <training_params>
    <train_method>BACKPROP</train_method>
    <dw_scale>1.0000000000000001e-01</dw_scale>
    <moment_scale>1.0000000000000001e-01</moment_scale>
    <term_criteria><epsilon>9.9999999747524271e-07</epsilon>
      <iterations>4000</iterations></term_criteria></training_params>
  <input_scale>
    5.9084967320261438e-02 -6.6666666666666666e-02
    2.9741425191837159e-02 -1.3423121104280489e-01
    4.1872534754943805e-02 -9.4491118252306827e-02
    5.9084967320261438e-02 -6.6666666666666666e-02
    3.4265352177277518e-02 -1.1598670095405886e-01
    3.4265352177277518e-02 -1.1598670095405886e-01
    2.9741425191837159e-02 -1.3423121104280489e-01
    2.6661655940536905e-02 -1.5041420939904671e-01
    2.2635869489797667e-02 -1.7878330548357893e-01
    2.1222425535292178e-02 -1.9156525704423030e-01
    2.0054744670102161e-02 -2.0365326999063918e-01
    1.8224376802010028e-02 -2.2619193331698287e-01
    2.0054744670102161e-02 -2.0365326999063918e-01
    1.7489232409787451e-02 -2.3680111138915752e-01
    1.6268080411416044e-02 -2.5697808437502334e-01
    1.5753657583059598e-02 -2.6662716927080959e-01
    1.4484394294519472e-02 -2.9417420270727601e-01
    1.7489232409787451e-02 -2.3680111138915752e-01
    1.8224376802010028e-02 -2.2619193331698287e-01
    1.2728785064161008e-02 -3.4469099377285561e-01
    1.1725628938849479e-02 -3.8367710620704382e-01
    1.2970488164736360e-02 -3.3660138533707412e-01
    1.5289687883467851e-02 -2.7602622373694174e-01
    1.6268080411416044e-02 -2.5697808437502334e-01
    2.6661655940536905e-02 -1.5041420939904671e-01
    2.6661655940536905e-02 -1.5041420939904671e-01
    2.6661655940536905e-02 -1.5041420939904671e-01
    1.6842508718654392e-02 -2.4704830266521818e-01
    1.7489232409787451e-02 -2.3680111138915752e-01
    2.1222425535292178e-02 -1.9156525704423030e-01
    2.0054744670102161e-02 -2.0365326999063918e-01
    2.2635869489797667e-02 -1.7878330548357893e-01
    2.2635869489797667e-02 -1.7878330548357893e-01
    2.6661655940536905e-02 -1.5041420939904671e-01
    2.6661655940536905e-02 -1.5041420939904671e-01
    2.4393903031231127e-02 -1.6514456476895409e-01
    3.4265352177277518e-02 -1.1598670095405886e-01
    4.1872534754943805e-02 -9.4491118252306827e-02
    5.9084967320261438e-02 -6.6666666666666666e-02
    3.4265352177277518e-02 -1.1598670095405886e-01
    3.4265352177277518e-02 -1.1598670095405886e-01
    2.6661655940536905e-02 -1.5041420939904671e-01
    4.1872534754943805e-02 -9.4491118252306827e-02
    4.1872534754943805e-02 -9.4491118252306827e-02
    2.6661655940536905e-02 -1.5041420939904671e-01
    2.6661655940536905e-02 -1.5041420939904671e-01
    2.4393903031231127e-02 -1.6514456476895409e-01
    2.2635869489797667e-02 -1.7878330548357893e-01
    1.9069591203548501e-02 -2.1516574145596762e-01
    1.8224376802010028e-02 -2.2619193331698287e-01
    1.4868619750563635e-02 -2.8520117972873166e-01
    1.3229451381372184e-02 -3.2839478871459266e-01
    1.3507708529435560e-02 -3.2006096980144877e-01
    1.2090933663387786e-02 -3.6834547908152609e-01
    1.1105359814091425e-02 -4.1350266741406783e-01
    1.0378035499652889e-02 -4.5667948249578755e-01
    1.0598306977354482e-02 -4.4245586872274134e-01
    1.0274999062921375e-02 -4.6373889576016825e-01
    9.9909891205824611e-03 -4.8473980401410033e-01
    1.0716185132343962e-02 -4.3528575006600695e-01
    9.9038995408327821e-03 -4.9168917189444161e-01
    1.0716185132343962e-02 -4.3528575006600695e-01
    1.0378035499652889e-02 -4.5667948249578755e-01
    1.1105359814091425e-02 -4.1350266741406783e-01
    1.2290416112441352e-02 -3.6055512754639890e-01
    1.2728785064161008e-02 -3.4469099377285561e-01
    1.4484394294519472e-02 -2.9417420270727601e-01
    1.2970488164736360e-02 -3.3660138533707412e-01
    1.2970488164736360e-02 -3.3660138533707412e-01
    1.4484394294519472e-02 -2.9417420270727601e-01
    1.6842508718654392e-02 -2.4704830266521818e-01
    1.9069591203548501e-02 -2.1516574145596762e-01
    1.7489232409787451e-02 -2.3680111138915752e-01
    1.8224376802010028e-02 -2.2619193331698287e-01
    1.9069591203548501e-02 -2.1516574145596762e-01
    1.9069591203548501e-02 -2.1516574145596762e-01
    2.6661655940536905e-02 -1.5041420939904671e-01
    3.4265352177277518e-02 -1.1598670095405886e-01
    2.9741425191837159e-02 -1.3423121104280489e-01
    2.6661655940536905e-02 -1.5041420939904671e-01
    5.9084967320261438e-02 -6.6666666666666666e-02
    2.6661655940536905e-02 -1.5041420939904671e-01
    2.6661655940536905e-02 -1.5041420939904671e-01
    2.9741425191837159e-02 -1.3423121104280489e-01
    2.4393903031231127e-02 -1.6514456476895409e-01
    2.1222425535292178e-02 -1.9156525704423030e-01
    2.0054744670102161e-02 -2.0365326999063918e-01
    2.0054744670102161e-02 -2.0365326999063918e-01
    1.4484394294519472e-02 -2.9417420270727601e-01
    1.3229451381372184e-02 -3.2839478871459266e-01
    1.1903005873838952e-02 -3.7605071654517752e-01
    1.1399087992833064e-02 -3.9871588753692644e-01
    1.0969281603565117e-02 -4.2081270576508656e-01
    9.8202538523584713e-03 -4.9861687148590023e-01
    9.9038995408327821e-03 -4.9168917189444161e-01
    9.3173404096124190e-03 -5.4667227359053394e-01
    9.2556574341863939e-03 -5.5349650541163320e-01
    9.0299943498250348e-03 -5.8075649502082693e-01
    8.8805239425834171e-03 -6.0120361204215167e-01
    9.1387933872603012e-03 -5.6713087281560048e-01
    8.9784138752412920e-03 -5.8756965139300310e-01
    9.1961734796352952e-03 -5.6031552572822130e-01
    9.3813242376189539e-03 -5.3984124650546239e-01
    9.5882122415871466e-03 -5.1929078688949859e-01
    9.3813242376189539e-03 -5.3984124650546239e-01
    9.3813242376189539e-03 -5.3984124650546239e-01
    1.0598306977354482e-02 -4.4245586872274134e-01
    1.0839707240663982e-02 -4.2807250939347802e-01
    1.0969281603565117e-02 -4.2081270576508656e-01
    1.2090933663387786e-02 -3.6834547908152609e-01
    1.4484394294519472e-02 -2.9417420270727601e-01
    1.4868619750563635e-02 -2.8520117972873166e-01
    1.5289687883467851e-02 -2.7602622373694174e-01
    1.4868619750563635e-02 -2.8520117972873166e-01
    1.5753657583059598e-02 -2.6662716927080959e-01
    1.5753657583059598e-02 -2.6662716927080959e-01
    2.0054744670102161e-02 -2.0365326999063918e-01
    2.2635869489797667e-02 -1.7878330548357893e-01
    2.2635869489797667e-02 -1.7878330548357893e-01
    2.9741425191837159e-02 -1.3423121104280489e-01 1. 0.
    4.1872534754943805e-02 -9.4491118252306827e-02
    2.1222425535292178e-02 -1.9156525704423030e-01
    2.0054744670102161e-02 -2.0365326999063918e-01
    1.9069591203548501e-02 -2.1516574145596762e-01
    1.9069591203548501e-02 -2.1516574145596762e-01
    1.6268080411416044e-02 -2.5697808437502334e-01
    1.2502596798748487e-02 -3.5267280792929917e-01
    1.2728785064161008e-02 -3.4469099377285561e-01
    1.1105359814091425e-02 -4.1350266741406783e-01
    1.1557917646700984e-02 -3.9123039821797578e-01
    9.8202538523584713e-03 -4.9861687148590023e-01
    9.5882122415871466e-03 -5.1929078688949859e-01
    9.0299943498250348e-03 -5.8075649502082693e-01
    9.0299943498250348e-03 -5.8075649502082693e-01
    8.5868187354958304e-03 -6.4914069953958520e-01
    8.4483760216826319e-03 -6.7680463660426571e-01
    8.3566190552679109e-03 -6.9774071492436052e-01
    8.4483760216826319e-03 -6.7680463660426571e-01
    8.6245471264953036e-03 -6.4226162893325645e-01
    8.3566190552679109e-03 -6.9774071492436052e-01
    8.3007213104887376e-03 -7.1180521680208730e-01
    8.3566190552679109e-03 -6.9774071492436052e-01
    8.2742714012258318e-03 -7.1887309275694344e-01
    8.5151810649579784e-03 -6.6294075592006907e-01
    8.9286133683816899e-03 -5.9438490321815274e-01
    9.0299943498250348e-03 -5.8075649502082693e-01
    8.8340808392854582e-03 -6.0802711263312081e-01
    1.0176313228276612e-02 -4.7076705664438934e-01
    1.0378035499652889e-02 -4.5667948249578755e-01
    1.0839707240663982e-02 -4.2807250939347802e-01
    1.1725628938849479e-02 -3.8367710620704382e-01
    1.5753657583059598e-02 -2.6662716927080959e-01
    1.5753657583059598e-02 -2.6662716927080959e-01
    1.5753657583059598e-02 -2.6662716927080959e-01
    1.5289687883467851e-02 -2.7602622373694174e-01
    1.6842508718654392e-02 -2.4704830266521818e-01
    2.0054744670102161e-02 -2.0365326999063918e-01
    2.6661655940536905e-02 -1.5041420939904671e-01
    2.6661655940536905e-02 -1.5041420939904671e-01
    5.9084967320261438e-02 -6.6666666666666666e-02
    2.4393903031231127e-02 -1.6514456476895409e-01
    2.4393903031231127e-02 -1.6514456476895409e-01
    1.6268080411416044e-02 -2.5697808437502334e-01
    1.4868619750563635e-02 -2.8520117972873166e-01
    1.4868619750563635e-02 -2.8520117972873166e-01
    1.2290416112441352e-02 -3.6055512754639890e-01
    1.1248442809813623e-02 -4.0613846605344767e-01
    1.0839707240663982e-02 -4.2807250939347802e-01
    1.0081721634674858e-02 -4.7776654295295456e-01
    9.3813242376189539e-03 -5.3984124650546239e-01
    9.1387933872603012e-03 -5.6713087281560048e-01
    8.8805239425834171e-03 -6.0120361204215167e-01
    8.5868187354958304e-03 -6.4914069953958520e-01
    8.4811928691821241e-03 -6.6986412705708365e-01
    8.4166961698948287e-03 -6.8376345875782762e-01
    8.0108306318654090e-03 -8.1348921681996078e-01
    8.1149237510647863e-03 -7.6912241923808733e-01
    8.2742714012258318e-03 -7.1887309275694344e-01
    8.3566190552679109e-03 -6.9774071492436052e-01
    8.2006228188558229e-03 -7.4023321019760524e-01
    8.4166961698948287e-03 -6.8376345875782762e-01
    8.3007213104887376e-03 -7.1180521680208730e-01
    8.3007213104887376e-03 -7.1180521680208730e-01
    8.5151810649579784e-03 -6.6294075592006907e-01
    8.3281617863604981e-03 -7.0476147860240945e-01
    8.3566190552679109e-03 -6.9774071492436052e-01
    8.5503769012485551e-03 -6.5603334277721215e-01
    9.0834281344175510e-03 -5.7394404318355141e-01
    9.4477180188956775e-03 -5.3300179088902611e-01
    1.0176313228276612e-02 -4.7076705664438934e-01
    1.0716185132343962e-02 -4.3528575006600695e-01
    1.2290416112441352e-02 -3.6055512754639890e-01
    1.4868619750563635e-02 -2.8520117972873166e-01
    1.5289687883467851e-02 -2.7602622373694174e-01
    1.3807646210200473e-02 -3.1158847642487797e-01
    1.5753657583059598e-02 -2.6662716927080959e-01
    1.9069591203548501e-02 -2.1516574145596762e-01
    2.4393903031231127e-02 -1.6514456476895409e-01
    2.1222425535292178e-02 -1.9156525704423030e-01
    5.9084967320261438e-02 -6.6666666666666666e-02
    2.1222425535292178e-02 -1.9156525704423030e-01
    1.8224376802010028e-02 -2.2619193331698287e-01
    1.5289687883467851e-02 -2.7602622373694174e-01
    1.3229451381372184e-02 -3.2839478871459266e-01
    1.1903005873838952e-02 -3.7605071654517752e-01
    1.0839707240663982e-02 -4.2807250939347802e-01
    1.0274999062921375e-02 -4.6373889576016825e-01
    9.6625735841508031e-03 -5.1241568321259900e-01
    9.2556574341863939e-03 -5.5349650541163320e-01
    9.1961734796352952e-03 -5.6031552572822130e-01
    8.8340808392854582e-03 -6.0802711263312081e-01
    8.4811928691821241e-03 -6.6986412705708365e-01
    8.6636049822189747e-03 -6.3539492292159083e-01
    8.3007213104887376e-03 -7.1180521680208730e-01
    8.1350681178676935e-03 -7.6185272882597233e-01
    7.8740304627808715e-03 -9.1509473497760885e-01
    7.9445775414699812e-03 -8.5158137585004556e-01
    7.9040340216859680e-03 -8.8290857910381537e-01
    8.0770917326611052e-03 -7.8376381281972574e-01
    8.0108306318654090e-03 -8.1348921681996078e-01
    8.0424316643520517e-03 -7.9854940950469044e-01
    8.1778991054227614e-03 -7.4740931868365990e-01
    8.1350681178676935e-03 -7.6185272882597233e-01
    8.0108306318654090e-03 -8.1348921681996078e-01
    8.0424316643520517e-03 -7.9854940950469044e-01
    8.0108306318654090e-03 -8.1348921681996078e-01
    8.2742714012258318e-03 -7.1887309275694344e-01
    8.7040377204880039e-03 -6.2853936105470898e-01
    8.9784138752412920e-03 -5.8756965139300310e-01
    9.5882122415871466e-03 -5.1929078688949859e-01
    9.5166387859181700e-03 -5.2615221960198022e-01
    1.0485702596798827e-02 -4.4958609806628597e-01
    1.1248442809813623e-02 -4.0613846605344767e-01
    1.2970488164736360e-02 -3.3660138533707412e-01
    1.2290416112441352e-02 -3.6055512754639890e-01
    1.5289687883467851e-02 -2.7602622373694174e-01
    1.7489232409787451e-02 -2.3680111138915752e-01
    2.1222425535292178e-02 -1.9156525704423030e-01
    1.9069591203548501e-02 -2.1516574145596762e-01
    5.9084967320261438e-02 -6.6666666666666666e-02
    1.7489232409787451e-02 -2.3680111138915752e-01
    1.5753657583059598e-02 -2.6662716927080959e-01
    1.2502596798748487e-02 -3.5267280792929917e-01
    1.1557917646700984e-02 -3.9123039821797578e-01
    1.1105359814091425e-02 -4.1350266741406783e-01
    1.0176313228276612e-02 -4.7076705664438934e-01
    1.0081721634674858e-02 -4.7776654295295456e-01
    9.0834281344175510e-03 -5.7394404318355141e-01
    8.9286133683816899e-03 -5.9438490321815274e-01
    8.9784138752412920e-03 -5.8756965139300310e-01
    8.5868187354958304e-03 -6.4914069953958520e-01
    8.2242451180016031e-03 -7.3308591992098360e-01
    8.2242451180016031e-03 -7.3308591992098360e-01
    7.9564138793077610e-03 -8.4387274640268595e-01
    7.8805645417002346e-03 -9.0696231738771294e-01
    7.8681326605699164e-03 -9.2328707149696532e-01
    7.8805645417002346e-03 -9.0696231738771294e-01
    7.8542168767015939e-03 -9.4824029858762382e-01
    7.8459027640201719e-03 -9.7379456872020276e-01
    7.8628668979097496e-03 -9.3154097872359976e-01
    7.9689474684684122e-03 -8.3621057174658586e-01
    7.9961453204662278e-03 -8.2102014230716291e-01
    7.9229613333218814e-03 -8.6714357778635731e-01
    8.0262553389809522e-03 -8.0599940229279954e-01
    7.8955608721840414e-03 -8.9087080637474803e-01
    7.9564138793077610e-03 -8.4387274640268595e-01
    7.9961453204662278e-03 -8.2102014230716291e-01
    8.2006228188558229e-03 -7.4023321019760524e-01
    8.3007213104887376e-03 -7.1180521680208730e-01
    8.7892231298682538e-03 -6.1485671541246500e-01
    8.9286133683816899e-03 -5.9438490321815274e-01
    9.0299943498250348e-03 -5.8075649502082693e-01
    9.8202538523584713e-03 -4.9861687148590023e-01
    1.0716185132343962e-02 -4.3528575006600695e-01
    1.2290416112441352e-02 -3.6055512754639890e-01
    1.3229451381372184e-02 -3.2839478871459266e-01
    1.4868619750563635e-02 -2.8520117972873166e-01
    1.6842508718654392e-02 -2.4704830266521818e-01
    2.1222425535292178e-02 -1.9156525704423030e-01
    2.4393903031231127e-02 -1.6514456476895409e-01
    1.5753657583059598e-02 -2.6662716927080959e-01
    1.4132086451123713e-02 -3.0296441971546190e-01
    1.1557917646700984e-02 -3.9123039821797578e-01
    1.0598306977354482e-02 -4.4245586872274134e-01
    1.1399087992833064e-02 -3.9871588753692644e-01
    9.3813242376189539e-03 -5.3984124650546239e-01
    8.7040377204880039e-03 -6.2853936105470898e-01
    8.5868187354958304e-03 -6.4914069953958520e-01
    8.6245471264953036e-03 -6.4226162893325645e-01
    8.3861207850736644e-03 -6.9074176289445244e-01
    7.9821878822835552e-03 -8.2859348547952305e-01
    7.9131652661064422e-03 -8.7500000000000000e-01
    7.8740304627808715e-03 -9.1509473497760885e-01
    7.8805645417002346e-03 -9.0696231738771294e-01
    7.8740304627808715e-03 -9.1509473497760885e-01
    7.8480557392012554e-03 -9.6520667819070305e-01
    7.8628668979097496e-03 -9.3154097872359976e-01
    7.8443660089835884e-03 -9.8245477824902860e-01
    7.8459027640201719e-03 -1.0269106361049412e+00
    7.8431372549019607e-03 -1. 7.8542168767015939e-03
    -9.4824029858762382e-01 7.8434443892883461e-03
    -1.0088890637018240e+00 7.8480557392012571e-03
    -1.0360475353056173e+00 7.8431372549019607e-03 -1.
    7.8955608721840414e-03 -8.9087080637474803e-01
    7.9040340216859680e-03 -8.8290857910381537e-01
    7.9229613333218814e-03 -8.6714357778635731e-01
    8.1350681178676935e-03 -7.6185272882597233e-01
    8.1350681178676935e-03 -7.6185272882597233e-01
    8.1350681178676935e-03 -7.6185272882597233e-01
    8.2742714012258318e-03 -7.1887309275694344e-01
    8.6636049822189747e-03 -6.3539492292159083e-01
    8.7892231298682538e-03 -6.1485671541246500e-01
    1.0378035499652889e-02 -4.5667948249578755e-01
    1.0839707240663982e-02 -4.2807250939347802e-01
    1.2728785064161008e-02 -3.4469099377285561e-01
    1.4132086451123713e-02 -3.0296441971546190e-01
    1.6268080411416044e-02 -2.5697808437502334e-01
    1.9069591203548501e-02 -2.1516574145596762e-01
    1.8224376802010028e-02 -2.2619193331698287e-01
    1.4868619750563635e-02 -2.8520117972873166e-01
    1.3807646210200473e-02 -3.1158847642487797e-01
    1.2290416112441352e-02 -3.6055512754639890e-01
    1.1105359814091425e-02 -4.1350266741406783e-01
    1.0081721634674858e-02 -4.7776654295295456e-01
    8.9784138752412920e-03 -5.8756965139300310e-01
    8.4166961698948287e-03 -6.8376345875782762e-01
    8.1778991054227614e-03 -7.4740931868365990e-01
    8.2242451180016031e-03 -7.3308591992098360e-01
    8.0262553389809522e-03 -8.0599940229279954e-01
    7.8681326605699164e-03 -9.2328707149696532e-01
    7.8681326605699164e-03 -9.2328707149696532e-01
    7.8740304627808715e-03 -9.1509473497760885e-01
    7.9040340216859680e-03 -8.8290857910381537e-01
    7.8805645417002346e-03 -9.0696231738771294e-01
    7.8443660089835884e-03 -1.0178585540417864e+00
    7.8508264562299271e-03 -1.0452715401237103e+00
    7.8431372549019607e-03 -1. 7.8443660089835884e-03
    -1.0178585540417864e+00 7.8508264562299254e-03
    -9.5668920621492093e-01 7.8681326605699181e-03
    -1.0830867569483635e+00 7.8681326605699181e-03
    -1.0830867569483635e+00 7.8443660089835884e-03
    -1.0178585540417864e+00 7.8582294059711452e-03
    -9.3985814532477896e-01 7.8459027640201719e-03
    -1.0269106361049412e+00 7.8542168767015939e-03
    -9.4824029858762382e-01 7.9040340216859680e-03
    -8.8290857910381537e-01 7.8955608721840414e-03
    -8.9087080637474803e-01 7.9229613333218814e-03
    -8.6714357778635731e-01 7.9689474684684122e-03
    -8.3621057174658586e-01 7.9689474684684122e-03
    -8.3621057174658586e-01 8.0956036871567619e-03
    -7.7642570760673801e-01 8.5151810649579784e-03
    -6.6294075592006907e-01 8.9286133683816899e-03
    -5.9438490321815274e-01 1.0274999062921375e-02
    -4.6373889576016825e-01 1.0839707240663982e-02
    -4.2807250939347802e-01 1.2728785064161008e-02
    -3.4469099377285561e-01 1.4484394294519472e-02
    -2.9417420270727601e-01 1.7489232409787451e-02
    -2.3680111138915752e-01 1.9069591203548501e-02
    -2.1516574145596762e-01 1.4484394294519472e-02
    -2.9417420270727601e-01 1.3807646210200473e-02
    -3.1158847642487797e-01 1.1399087992833064e-02
    -3.9871588753692644e-01 9.6625735841508031e-03
    -5.1241568321259900e-01 8.8340808392854582e-03
    -6.0802711263312081e-01 8.6245471264953036e-03
    -6.4226162893325645e-01 8.2242451180016031e-03
    -7.3308591992098360e-01 7.9689474684684122e-03
    -8.3621057174658586e-01 7.9334294869074420e-03
    -8.5933784884731934e-01 7.8740304627808715e-03
    -9.1509473497760885e-01 7.8582294059711452e-03
    -9.3985814532477896e-01 7.8628668979097496e-03
    -9.3154097872359976e-01 7.8480557392012554e-03
    -9.6520667819070305e-01 7.8443660089835884e-03
    -9.8245477824902860e-01 7.8740304627808715e-03
    -1.0927830330315136e+00 7.8805645417002364e-03
    -1.1025816407458473e+00 7.8582294059711452e-03
    -1.0639903531978629e+00 7.8508264562299254e-03
    -9.5668920621492093e-01 7.8459027640201719e-03
    -1.0269106361049412e+00 7.8628668979097514e-03
    -1.0734900802433867e+00 7.8877396113518888e-03
    -1.1124853987249623e+00 7.9821878822835535e-03
    -1.2068644245027831e+00 7.8628668979097514e-03
    -1.0734900802433867e+00 7.9040340216859680e-03
    -1.1326200964261066e+00 7.8955608721840414e-03
    -1.1224972160321827e+00 7.8434443892883461e-03
    -1.0088890637018240e+00 7.8628668979097514e-03
    -1.0734900802433867e+00 7.8434443892883461e-03
    -1.0088890637018240e+00 7.8480557392012554e-03
    -9.6520667819070305e-01 7.8681326605699164e-03
    -9.2328707149696532e-01 7.9229613333218814e-03
    -8.6714357778635731e-01 8.0262553389809522e-03
    -8.0599940229279954e-01 8.1560538865736339e-03
    -7.5461542817811811e-01 8.3861207850736644e-03
    -6.9074176289445244e-01 9.2556574341863939e-03
    -5.5349650541163320e-01 1.0176313228276612e-02
    -4.7076705664438934e-01 1.1725628938849479e-02
    -3.8367710620704382e-01 1.3507708529435560e-02
    -3.2006096980144877e-01 1.5753657583059598e-02
    -2.6662716927080959e-01 1.6842508718654392e-02
    -2.4704830266521818e-01 1.3229451381372184e-02
    -3.2839478871459266e-01 1.2090933663387786e-02
    -3.6834547908152609e-01 9.9909891205824611e-03
    -4.8473980401410033e-01 8.7040377204880039e-03
    -6.2853936105470898e-01 8.5868187354958304e-03
    -6.4914069953958520e-01 8.5151810649579784e-03
    -6.6294075592006907e-01 8.2006228188558229e-03
    -7.4023321019760524e-01 8.0424316643520517e-03
    -7.9854940950469044e-01 7.8542168767015939e-03
    -9.4824029858762382e-01 7.8582294059711452e-03
    -1.0639903531978629e+00 7.8431372549019607e-03 -1.
    7.8443660089835884e-03 -9.8245477824902860e-01
    7.8480557392012571e-03 -1.0360475353056173e+00
    7.8805645417002364e-03 -1.1025816407458473e+00
    7.9689474684684122e-03 -1.1958710327128592e+00
    8.0262553389809522e-03 -1.2406957091473432e+00
    7.8805645417002364e-03 -1.1025816407458473e+00
    7.8542168767015939e-03 -1.0545850049712826e+00
    7.9445775414699812e-03 -1.1742858972247998e+00
    7.8877396113518888e-03 -1.1124853987249623e+00
    7.9040340216859680e-03 -1.1326200964261066e+00
    8.1149237510647846e-03 -1.3001831372834329e+00
    8.0108306318654073e-03 -1.2292725943057181e+00
    7.9445775414699812e-03 -1.1742858972247998e+00
    7.9961453204662261e-03 -1.2179969144117249e+00
    7.9689474684684122e-03 -1.1958710327128592e+00
    8.0770917326611069e-03 -1.2758945790088563e+00
    7.9040340216859680e-03 -1.1326200964261066e+00
    7.9689474684684122e-03 -1.1958710327128592e+00
    7.8508264562299271e-03 -1.0452715401237103e+00
    7.8681326605699164e-03 -9.2328707149696532e-01
    7.8877396113518870e-03 -8.9888820216976928e-01
    7.9821878822835552e-03 -8.2859348547952305e-01
    8.0593725589429115e-03 -7.9113796557587823e-01
    8.5868187354958304e-03 -6.4914069953958520e-01
    9.5882122415871466e-03 -5.1929078688949859e-01
    1.1105359814091425e-02 -4.1350266741406783e-01
    1.2290416112441352e-02 -3.6055512754639890e-01
    1.4868619750563635e-02 -2.8520117972873166e-01
    1.9069591203548501e-02 -2.1516574145596762e-01
    1.2970488164736360e-02 -3.3660138533707412e-01
    1.0969281603565117e-02 -4.2081270576508656e-01
    8.9286133683816899e-03 -5.9438490321815274e-01
    8.3861207850736644e-03 -6.9074176289445244e-01
    8.4483760216826319e-03 -6.7680463660426571e-01
    8.3007213104887376e-03 -7.1180521680208730e-01
    7.9821878822835552e-03 -8.2859348547952305e-01
    7.8955608721840414e-03 -8.9087080637474803e-01
    7.8459027640201719e-03 -9.7379456872020276e-01
    7.8542168767015939e-03 -1.0545850049712826e+00
    7.8628668979097514e-03 -1.0734900802433867e+00
    7.8459027640201719e-03 -9.7379456872020276e-01
    7.8443660089835884e-03 -9.8245477824902860e-01
    7.8877396113518888e-03 -1.1124853987249623e+00
    8.0770917326611069e-03 -1.2758945790088563e+00
    8.0593725589429115e-03 -1.2640020369545641e+00
    7.9229613333218814e-03 -1.1532115622107226e+00
    7.9445775414699812e-03 -1.1742858972247998e+00
    8.0424316643520500e-03 -1.2522706649050823e+00
    7.9445775414699812e-03 -1.1742858972247998e+00
    7.9445775414699812e-03 -1.1742858972247998e+00
    7.9445775414699812e-03 -1.1742858972247998e+00
    7.9821878822835535e-03 -1.2068644245027831e+00
    7.9564138793077610e-03 -1.1850127928207930e+00
    8.0108306318654073e-03 -1.2292725943057181e+00
    8.1350681178676935e-03 -1.3125896412302895e+00
    8.2487871949650203e-03 -1.3774744634423888e+00
    8.1778991054227580e-03 -1.3379549531991437e+00
    8.0593725589429115e-03 -1.2640020369545641e+00
    7.9821878822835535e-03 -1.2068644245027831e+00
    7.8480557392012571e-03 -1.0360475353056173e+00
    7.8480557392012571e-03 -1.0360475353056173e+00
    7.8508264562299254e-03 -9.5668920621492093e-01
    7.9131652661064422e-03 -8.7500000000000000e-01
    8.1350681178676935e-03 -7.6185272882597233e-01
    9.0299943498250348e-03 -5.8075649502082693e-01
    1.0274999062921375e-02 -4.6373889576016825e-01
    1.2970488164736360e-02 -3.3660138533707412e-01
    1.4868619750563635e-02 -2.8520117972873166e-01
    1.8224376802010028e-02 -2.2619193331698287e-01
    1.2728785064161008e-02 -3.4469099377285561e-01
    1.0274999062921375e-02 -4.6373889576016825e-01
    8.9286133683816899e-03 -5.9438490321815274e-01
    8.2242451180016031e-03 -7.3308591992098360e-01
    8.0262553389809522e-03 -8.0599940229279954e-01
    7.9040340216859680e-03 -8.8290857910381537e-01
    7.8877396113518870e-03 -8.9888820216976928e-01
    7.8480557392012554e-03 -9.6520667819070305e-01
    7.8582294059711452e-03 -1.0639903531978629e+00
    7.8443660089835884e-03 -9.8245477824902860e-01
    7.8582294059711452e-03 -1.0639903531978629e+00
    7.8628668979097514e-03 -1.0734900802433867e+00
    7.8805645417002364e-03 -1.1025816407458473e+00
    8.0956036871567619e-03 -1.2879532326182361e+00
    8.1560538865736321e-03 -1.3251783128981582e+00
    8.0956036871567619e-03 -1.2879532326182361e+00
    8.0262553389809522e-03 -1.2406957091473432e+00
    8.0593725589429115e-03 -1.2640020369545641e+00
    8.0424316643520500e-03 -1.2522706649050823e+00
    8.0424316643520500e-03 -1.2522706649050823e+00
    8.0108306318654073e-03 -1.2292725943057181e+00
    7.9689474684684122e-03 -1.1958710327128592e+00
    8.0593725589429115e-03 -1.2640020369545641e+00
    8.0262553389809522e-03 -1.2406957091473432e+00
    8.1350681178676935e-03 -1.3125896412302895e+00
    8.7458934438116448e-03 -1.6085091194337657e+00
    8.6636049822189747e-03 -1.5738243475442479e+00
    8.3566190552679109e-03 -1.4331971441689568e+00
    7.9689474684684122e-03 -1.1958710327128592e+00
    7.9564138793077610e-03 -1.1850127928207930e+00
    7.8877396113518888e-03 -1.1124853987249623e+00
    7.8628668979097514e-03 -1.0734900802433867e+00
    7.8628668979097514e-03 -1.0734900802433867e+00
    7.8542168767015939e-03 -9.4824029858762382e-01
    8.0424316643520517e-03 -7.9854940950469044e-01
    8.4166961698948287e-03 -6.8376345875782762e-01
    9.6625735841508031e-03 -5.1241568321259900e-01
    1.2502596798748487e-02 -3.5267280792929917e-01
    1.4868619750563635e-02 -2.8520117972873166e-01
    1.5753657583059598e-02 -2.6662716927080959e-01
    1.1248442809813623e-02 -4.0613846605344767e-01
    9.1961734796352952e-03 -5.6031552572822130e-01
    8.7040377204880039e-03 -6.2853936105470898e-01
    8.0956036871567619e-03 -7.7642570760673801e-01
    7.9040340216859680e-03 -8.8290857910381537e-01
    7.8628668979097496e-03 -9.3154097872359976e-01
    7.8434443892883461e-03 -1.0088890637018240e+00
    7.8628668979097514e-03 -1.0734900802433867e+00
    7.8681326605699181e-03 -1.0830867569483635e+00
    7.8628668979097514e-03 -1.0734900802433867e+00
    7.8628668979097514e-03 -1.0734900802433867e+00
    7.9564138793077610e-03 -1.1850127928207930e+00
    8.0108306318654073e-03 -1.2292725943057181e+00
    7.9821878822835535e-03 -1.2068644245027831e+00
    8.0593725589429115e-03 -1.2640020369545641e+00
    7.9961453204662261e-03 -1.2179969144117249e+00
    7.9821878822835535e-03 -1.2068644245027831e+00
    8.0424316643520500e-03 -1.2522706649050823e+00
    8.1350681178676935e-03 -1.3125896412302895e+00
    8.1149237510647846e-03 -1.3001831372834329e+00
    8.0593725589429115e-03 -1.2640020369545641e+00
    8.0108306318654073e-03 -1.2292725943057181e+00
    8.2742714012258318e-03 -1.3910661145556438e+00
    8.3007213104887394e-03 -1.4048787173725410e+00
    8.4483760216826319e-03 -1.4775312489248054e+00
    8.8340808392854599e-03 -1.6446635013846715e+00
    8.5868187354958304e-03 -1.5404980780118516e+00
    8.3861207850736644e-03 -1.4477190372993320e+00
    8.1778991054227580e-03 -1.3379549531991437e+00
    8.0108306318654073e-03 -1.2292725943057181e+00
    7.9564138793077610e-03 -1.1850127928207930e+00
    7.8542168767015939e-03 -1.0545850049712826e+00
    7.8582294059711452e-03 -9.3985814532477896e-01
    7.8459027640201719e-03 -9.7379456872020276e-01
    7.9564138793077610e-03 -8.4387274640268595e-01
    8.6245471264953036e-03 -6.4226162893325645e-01
    9.3173404096124190e-03 -5.4667227359053394e-01
    9.9038995408327821e-03 -4.9168917189444161e-01
    1.3507708529435560e-02 -3.2006096980144877e-01
    1.2502596798748487e-02 -3.5267280792929917e-01
    1.0081721634674858e-02 -4.7776654295295456e-01
    9.2556574341863939e-03 -5.5349650541163320e-01
    8.4166961698948287e-03 -6.8376345875782762e-01
    7.9445775414699812e-03 -8.5158137585004556e-01
    7.8805645417002346e-03 -9.0696231738771294e-01
    7.8434443892883461e-03 -1.0088890637018240e+00
    7.8628668979097514e-03 -1.0734900802433867e+00
    7.8740304627808715e-03 -1.0927830330315136e+00
    7.9040340216859680e-03 -1.1326200964261066e+00
    7.9229613333218814e-03 -1.1532115622107226e+00
    7.9040340216859680e-03 -1.1326200964261066e+00
    8.1350681178676935e-03 -1.3125896412302895e+00
    8.2742714012258318e-03 -1.3910661145556438e+00
    8.1560538865736321e-03 -1.3251783128981582e+00
    7.9689474684684122e-03 -1.1958710327128592e+00
    8.0108306318654073e-03 -1.2292725943057181e+00
    7.9821878822835535e-03 -1.2068644245027831e+00
    8.0593725589429115e-03 -1.2640020369545641e+00
    8.0593725589429115e-03 -1.2640020369545641e+00
    7.9689474684684122e-03 -1.1958710327128592e+00
    7.9229613333218814e-03 -1.1532115622107226e+00
    8.0956036871567619e-03 -1.2879532326182361e+00
    8.3007213104887394e-03 -1.4048787173725410e+00
    8.1560538865736321e-03 -1.3251783128981582e+00
    8.5503769012485551e-03 -1.5243127670411694e+00
    8.5503769012485551e-03 -1.5243127670411694e+00
    8.3861207850736644e-03 -1.4477190372993320e+00
    8.4811928691821241e-03 -1.4928400545843581e+00
    8.2487871949650203e-03 -1.3774744634423888e+00
    8.2487871949650203e-03 -1.3774744634423888e+00
    8.1560538865736321e-03 -1.3251783128981582e+00
    7.9564138793077610e-03 -1.1850127928207930e+00
    7.8459027640201719e-03 -1.0269106361049412e+00
    7.8542168767015939e-03 -9.4824029858762382e-01
    7.8740304627808715e-03 -9.1509473497760885e-01
    8.1778991054227614e-03 -7.4740931868365990e-01
    8.8340808392854582e-03 -6.0802711263312081e-01
    9.4477180188956775e-03 -5.3300179088902611e-01
    1.1903005873838952e-02 -3.7605071654517752e-01
    1.2970488164736360e-02 -3.3660138533707412e-01
    9.9909891205824611e-03 -4.8473980401410033e-01
    8.5151810649579784e-03 -6.6294075592006907e-01
    8.2006228188558229e-03 -7.4023321019760524e-01
    7.8508264562299254e-03 -9.5668920621492093e-01
    7.8443660089835884e-03 -9.8245477824902860e-01
    7.8582294059711452e-03 -1.0639903531978629e+00
    7.9564138793077610e-03 -1.1850127928207930e+00
    7.9961453204662261e-03 -1.2179969144117249e+00
    7.9131652661064440e-03 -1.1428571428571432e+00
    7.9445775414699812e-03 -1.1742858972247998e+00
    7.9564138793077610e-03 -1.1850127928207930e+00
    8.1350681178676935e-03 -1.3125896412302895e+00
    8.0770917326611069e-03 -1.2758945790088563e+00
    8.1560538865736321e-03 -1.3251783128981582e+00
    8.0424316643520500e-03 -1.2522706649050823e+00
    8.0424316643520500e-03 -1.2522706649050823e+00
    7.9961453204662261e-03 -1.2179969144117249e+00
    8.1149237510647846e-03 -1.3001831372834329e+00
    8.1350681178676935e-03 -1.3125896412302895e+00
    8.0108306318654073e-03 -1.2292725943057181e+00
    7.9961453204662261e-03 -1.2179969144117249e+00
    8.1149237510647846e-03 -1.3001831372834329e+00
    8.2742714012258318e-03 -1.3910661145556438e+00
    8.3007213104887394e-03 -1.4048787173725410e+00
    8.3281617863604981e-03 -1.4189197769195177e+00
    8.5503769012485551e-03 -1.5243127670411694e+00
    8.5868187354958304e-03 -1.5404980780118516e+00
    8.1778991054227580e-03 -1.3379549531991437e+00
    8.3007213104887394e-03 -1.4048787173725410e+00
    8.2487871949650203e-03 -1.3774744634423888e+00
    8.2242451180016031e-03 -1.3640965851694251e+00
    8.0593725589429115e-03 -1.2640020369545641e+00
    7.9131652661064440e-03 -1.1428571428571432e+00
    7.8459027640201719e-03 -1.0269106361049412e+00
    7.8681326605699164e-03 -9.2328707149696532e-01
    7.9961453204662278e-03 -8.2102014230716291e-01
    8.3007213104887376e-03 -7.1180521680208730e-01
    9.2556574341863939e-03 -5.5349650541163320e-01
    1.1105359814091425e-02 -4.1350266741406783e-01
    1.3807646210200473e-02 -3.1158847642487797e-01
    9.5166387859181700e-03 -5.2615221960198022e-01
    8.5868187354958304e-03 -6.4914069953958520e-01
    8.0770917326611052e-03 -7.8376381281972574e-01
    7.8740304627808715e-03 -9.1509473497760885e-01
    7.8434443892883461e-03 -1.0088890637018240e+00
    7.8805645417002364e-03 -1.1025816407458473e+00
    8.0424316643520500e-03 -1.2522706649050823e+00
    8.1149237510647846e-03 -1.3001831372834329e+00
    8.0424316643520500e-03 -1.2522706649050823e+00
    8.1778991054227580e-03 -1.3379549531991437e+00
    8.1149237510647846e-03 -1.3001831372834329e+00
    8.1350681178676935e-03 -1.3125896412302895e+00
    8.2006228188558229e-03 -1.3509256086106296e+00
    8.0770917326611069e-03 -1.2758945790088563e+00
    7.9961453204662261e-03 -1.2179969144117249e+00
    8.0424316643520500e-03 -1.2522706649050823e+00
    7.9689474684684122e-03 -1.1958710327128592e+00
    7.9821878822835535e-03 -1.2068644245027831e+00
    8.0108306318654073e-03 -1.2292725943057181e+00
    7.9961453204662261e-03 -1.2179969144117249e+00
    8.1350681178676935e-03 -1.3125896412302895e+00
    8.0956036871567619e-03 -1.2879532326182361e+00
    8.2242451180016031e-03 -1.3640965851694251e+00
    8.2006228188558229e-03 -1.3509256086106296e+00
    8.1778991054227580e-03 -1.3379549531991437e+00
    8.1560538865736321e-03 -1.3251783128981582e+00
    8.4166961698948304e-03 -1.4624940645653539e+00
    8.5151810649579784e-03 -1.5084304156442154e+00
    8.5151810649579784e-03 -1.5084304156442154e+00
    8.1778991054227580e-03 -1.3379549531991437e+00
    8.1560538865736321e-03 -1.3251783128981582e+00
    8.0262553389809522e-03 -1.2406957091473432e+00
    7.9689474684684122e-03 -1.1958710327128592e+00
    7.8628668979097514e-03 -1.0734900802433867e+00
    7.8434443892883461e-03 -9.9118925556670423e-01
    7.8740304627808715e-03 -9.1509473497760885e-01
    8.2742714012258318e-03 -7.1887309275694344e-01
    9.1387933872603012e-03 -5.6713087281560048e-01
    1.0274999062921375e-02 -4.6373889576016825e-01
    1.2728785064161008e-02 -3.4469099377285561e-01
    9.3813242376189539e-03 -5.3984124650546239e-01
    8.4166961698948287e-03 -6.8376345875782762e-01
    7.9821878822835552e-03 -8.2859348547952305e-01
    7.8459027640201719e-03 -9.7379456872020276e-01
    7.8480557392012571e-03 -1.0360475353056173e+00
    7.8740304627808715e-03 -1.0927830330315136e+00
    7.9821878822835535e-03 -1.2068644245027831e+00
    8.0956036871567619e-03 -1.2879532326182361e+00
    8.1350681178676935e-03 -1.3125896412302895e+00
    8.4483760216826319e-03 -1.4775312489248054e+00
    8.4811928691821241e-03 -1.4928400545843581e+00
    8.3281617863604981e-03 -1.4189197769195177e+00
    8.3007213104887394e-03 -1.4048787173725410e+00
    8.3281617863604981e-03 -1.4189197769195177e+00
    8.1350681178676935e-03 -1.3125896412302895e+00
    8.0956036871567619e-03 -1.2879532326182361e+00
    8.0424316643520500e-03 -1.2522706649050823e+00
    7.9961453204662261e-03 -1.2179969144117249e+00
    8.0956036871567619e-03 -1.2879532326182361e+00
    7.9961453204662261e-03 -1.2179969144117249e+00
    8.0262553389809522e-03 -1.2406957091473432e+00
    8.1778991054227580e-03 -1.3379549531991437e+00
    8.2006228188558229e-03 -1.3509256086106296e+00
    8.2487871949650203e-03 -1.3774744634423888e+00
    8.1149237510647846e-03 -1.3001831372834329e+00
    8.1350681178676935e-03 -1.3125896412302895e+00
    8.2487871949650203e-03 -1.3774744634423888e+00
    8.4811928691821241e-03 -1.4928400545843581e+00
    8.3861207850736644e-03 -1.4477190372993320e+00
    8.4811928691821241e-03 -1.4928400545843581e+00
    8.5503769012485551e-03 -1.5243127670411694e+00
    8.3007213104887394e-03 -1.4048787173725410e+00
    8.2242451180016031e-03 -1.3640965851694251e+00
    8.0593725589429115e-03 -1.2640020369545641e+00
    7.8542168767015939e-03 -1.0545850049712826e+00
    7.8431372549019607e-03 -1. 8.0770917326611052e-03
    -7.8376381281972574e-01 9.1387933872603012e-03
    -5.6713087281560048e-01 9.9909891205824611e-03
    -4.8473980401410033e-01 1.3229451381372184e-02
    -3.2839478871459266e-01 9.9038995408327821e-03
    -4.9168917189444161e-01 8.3861207850736644e-03
    -6.9074176289445244e-01 8.0593725589429115e-03
    -7.9113796557587823e-01 7.8805645417002346e-03
    -9.0696231738771294e-01 7.8459027640201719e-03
    -1.0269106361049412e+00 7.9229613333218814e-03
    -1.1532115622107226e+00 7.8955608721840414e-03
    -1.1224972160321827e+00 8.0770917326611069e-03
    -1.2758945790088563e+00 8.0770917326611069e-03
    -1.2758945790088563e+00 8.2006228188558229e-03
    -1.3509256086106296e+00 8.4811928691821241e-03
    -1.4928400545843581e+00 8.3566190552679109e-03
    -1.4331971441689568e+00 8.2742714012258318e-03
    -1.3910661145556438e+00 8.2487871949650203e-03
    -1.3774744634423888e+00 8.1350681178676935e-03
    -1.3125896412302895e+00 8.1778991054227580e-03
    -1.3379549531991437e+00 8.1778991054227580e-03
    -1.3379549531991437e+00 8.0108306318654073e-03
    -1.2292725943057181e+00 8.1350681178676935e-03
    -1.3125896412302895e+00 8.2742714012258318e-03
    -1.3910661145556438e+00 8.1560538865736321e-03
    -1.3251783128981582e+00 8.1560538865736321e-03
    -1.3251783128981582e+00 8.1560538865736321e-03
    -1.3251783128981582e+00 8.1778991054227580e-03
    -1.3379549531991437e+00 8.0108306318654073e-03
    -1.2292725943057181e+00 8.0770917326611069e-03
    -1.2758945790088563e+00 8.1350681178676935e-03
    -1.3125896412302895e+00 8.2006228188558229e-03
    -1.3509256086106296e+00 8.2487871949650203e-03
    -1.3774744634423888e+00 8.3281617863604981e-03
    -1.4189197769195177e+00 8.3566190552679109e-03
    -1.4331971441689568e+00 8.5503769012485551e-03
    -1.5243127670411694e+00 8.2242451180016031e-03
    -1.3640965851694251e+00 7.9961453204662261e-03
    -1.2179969144117249e+00 7.9040340216859680e-03
    -1.1326200964261066e+00 7.8459027640201719e-03
    -9.7379456872020276e-01 8.0108306318654090e-03
    -8.1348921681996078e-01 8.9286133683816899e-03
    -5.9438490321815274e-01 9.5882122415871466e-03
    -5.1929078688949859e-01 1.3229451381372184e-02
    -3.2839478871459266e-01 9.7398684305521482e-03
    -5.0552502960343670e-01 8.4166961698948287e-03
    -6.8376345875782762e-01 7.9689474684684122e-03
    -8.3621057174658586e-01 7.8582294059711452e-03
    -9.3985814532477896e-01 7.8459027640201719e-03
    -1.0269106361049412e+00 7.9229613333218814e-03
    -1.1532115622107226e+00 8.0593725589429115e-03
    -1.2640020369545641e+00 8.0424316643520500e-03
    -1.2522706649050823e+00 8.0956036871567619e-03
    -1.2879532326182361e+00 8.3861207850736644e-03
    -1.4477190372993320e+00 8.5151810649579784e-03
    -1.5084304156442154e+00 8.6245471264953036e-03
    -1.5569978883230460e+00 8.3007213104887394e-03
    -1.4048787173725410e+00 8.3281617863604981e-03
    -1.4189197769195177e+00 8.3007213104887394e-03
    -1.4048787173725410e+00 8.1778991054227580e-03
    -1.3379549531991437e+00 8.1350681178676935e-03
    -1.3125896412302895e+00 8.3861207850736644e-03
    -1.4477190372993320e+00 8.3007213104887394e-03
    -1.4048787173725410e+00 8.2742714012258318e-03
    -1.3910661145556438e+00 8.1350681178676935e-03
    -1.3125896412302895e+00 8.0593725589429115e-03
    -1.2640020369545641e+00 8.0770917326611069e-03
    -1.2758945790088563e+00 8.1560538865736321e-03
    -1.3251783128981582e+00 8.0770917326611069e-03
    -1.2758945790088563e+00 8.1350681178676935e-03
    -1.3125896412302895e+00 8.1560538865736321e-03
    -1.3251783128981582e+00 8.1778991054227580e-03
    -1.3379549531991437e+00 8.5868187354958304e-03
    -1.5404980780118516e+00 8.3566190552679109e-03
    -1.4331971441689568e+00 8.2742714012258318e-03
    -1.3910661145556438e+00 8.2742714012258318e-03
    -1.3910661145556438e+00 8.0770917326611069e-03
    -1.2758945790088563e+00 7.8955608721840414e-03
    -1.1224972160321827e+00 7.9445775414699812e-03
    -1.1742858972247998e+00 7.8459027640201719e-03
    -1.0269106361049412e+00 8.0108306318654090e-03
    -8.1348921681996078e-01 9.0299943498250348e-03
    -5.8075649502082693e-01 9.9909891205824611e-03
    -4.8473980401410033e-01 1.3229451381372184e-02
    -3.2839478871459266e-01 9.5166387859181700e-03
    -5.2615221960198022e-01 8.2742714012258318e-03
    -7.1887309275694344e-01 7.8740304627808715e-03
    -9.1509473497760885e-01 7.8740304627808715e-03
    -9.1509473497760885e-01 7.8434443892883461e-03
    -9.9118925556670423e-01 7.9040340216859680e-03
    -1.1326200964261066e+00 7.9961453204662261e-03
    -1.2179969144117249e+00 8.2242451180016031e-03
    -1.3640965851694251e+00 8.0770917326611069e-03
    -1.2758945790088563e+00 8.4483760216826319e-03
    -1.4775312489248054e+00 8.6245471264953036e-03
    -1.5569978883230460e+00 8.3281617863604981e-03
    -1.4189197769195177e+00 8.3007213104887394e-03
    -1.4048787173725410e+00 8.4483760216826319e-03
    -1.4775312489248054e+00 8.3007213104887394e-03
    -1.4048787173725410e+00 8.3007213104887394e-03
    -1.4048787173725410e+00 8.1149237510647846e-03
    -1.3001831372834329e+00 8.1560538865736321e-03
    -1.3251783128981582e+00 8.4811928691821241e-03
    -1.4928400545843581e+00 8.5503769012485551e-03
    -1.5243127670411694e+00 8.1149237510647846e-03
    -1.3001831372834329e+00 7.9689474684684122e-03
    -1.1958710327128592e+00 8.1560538865736321e-03
    -1.3251783128981582e+00 8.2487871949650203e-03
    -1.3774744634423888e+00 8.2487871949650203e-03
    -1.3774744634423888e+00 8.2242451180016031e-03
    -1.3640965851694251e+00 8.3007213104887394e-03
    -1.4048787173725410e+00 8.3007213104887394e-03
    -1.4048787173725410e+00 8.3281617863604981e-03
    -1.4189197769195177e+00 8.3861207850736644e-03
    -1.4477190372993320e+00 8.2487871949650203e-03
    -1.3774744634423888e+00 8.1149237510647846e-03
    -1.3001831372834329e+00 8.1560538865736321e-03
    -1.3251783128981582e+00 7.9689474684684122e-03
    -1.1958710327128592e+00 7.8681326605699181e-03
    -1.0830867569483635e+00 7.8480557392012571e-03
    -1.0360475353056173e+00 7.9564138793077610e-03
    -8.4387274640268595e-01 9.0834281344175510e-03
    -5.7394404318355141e-01 1.0081721634674858e-02
    -4.7776654295295456e-01 1.2728785064161008e-02
    -3.4469099377285561e-01 9.6625735841508031e-03
    -5.1241568321259900e-01 8.2487871949650220e-03
    -7.2596627127369151e-01 7.9689474684684122e-03
    -8.3621057174658586e-01 7.8480557392012554e-03
    -9.6520667819070305e-01 7.8582294059711452e-03
    -1.0639903531978629e+00 7.8740304627808715e-03
    -1.0927830330315136e+00 7.9445775414699812e-03
    -1.1742858972247998e+00 7.9689474684684122e-03
    -1.1958710327128592e+00 8.0593725589429115e-03
    -1.2640020369545641e+00 8.0956036871567619e-03
    -1.2879532326182361e+00 8.0770917326611069e-03
    -1.2758945790088563e+00 8.1778991054227580e-03
    -1.3379549531991437e+00 8.2742714012258318e-03
    -1.3910661145556438e+00 8.2242451180016031e-03
    -1.3640965851694251e+00 8.1560538865736321e-03
    -1.3251783128981582e+00 8.0956036871567619e-03
    -1.2879532326182361e+00 8.0593725589429115e-03
    -1.2640020369545641e+00 8.0770917326611069e-03
    -1.2758945790088563e+00 8.2006228188558229e-03
    -1.3509256086106296e+00 8.3861207850736644e-03
    -1.4477190372993320e+00 8.2006228188558229e-03
    -1.3509256086106296e+00 7.9445775414699812e-03
    -1.1742858972247998e+00 8.0593725589429115e-03
    -1.2640020369545641e+00 8.0424316643520500e-03
    -1.2522706649050823e+00 8.1560538865736321e-03
    -1.3251783128981582e+00 8.0956036871567619e-03
    -1.2879532326182361e+00 8.0956036871567619e-03
    -1.2879532326182361e+00 8.1350681178676935e-03
    -1.3125896412302895e+00 8.0770917326611069e-03
    -1.2758945790088563e+00 8.0956036871567619e-03
    -1.2879532326182361e+00 7.9961453204662261e-03
    -1.2179969144117249e+00 7.8955608721840414e-03
    -1.1224972160321827e+00 7.8955608721840414e-03
    -1.1224972160321827e+00 7.8542168767015939e-03
    -9.4824029858762382e-01 7.8582294059711452e-03
    -9.3985814532477896e-01 7.8740304627808715e-03
    -9.1509473497760885e-01 8.0593725589429115e-03
    -7.9113796557587823e-01 8.5868187354958304e-03
    -6.4914069953958520e-01 9.9909891205824611e-03
    -4.8473980401410033e-01 1.2502596798748487e-02
    -3.5267280792929917e-01 9.5166387859181700e-03
    -5.2615221960198022e-01 8.3861207850736644e-03
    -6.9074176289445244e-01 7.9689474684684122e-03
    -8.3621057174658586e-01 7.8955608721840414e-03
    -8.9087080637474803e-01 7.8434443892883461e-03
    -9.9118925556670423e-01 7.8740304627808715e-03
    -1.0927830330315136e+00 7.8805645417002364e-03
    -1.1025816407458473e+00 7.9689474684684122e-03
    -1.1958710327128592e+00 7.9821878822835535e-03
    -1.2068644245027831e+00 8.0770917326611069e-03
    -1.2758945790088563e+00 8.0593725589429115e-03
    -1.2640020369545641e+00 8.2487871949650203e-03
    -1.3774744634423888e+00 8.0593725589429115e-03
    -1.2640020369545641e+00 8.3566190552679109e-03
    -1.4331971441689568e+00 8.2742714012258318e-03
    -1.3910661145556438e+00 8.2487871949650203e-03
    -1.3774744634423888e+00 8.0770917326611069e-03
    -1.2758945790088563e+00 8.0424316643520500e-03
    -1.2522706649050823e+00 8.1149237510647846e-03
    -1.3001831372834329e+00 8.0956036871567619e-03
    -1.2879532326182361e+00 7.9961453204662261e-03
    -1.2179969144117249e+00 8.1350681178676935e-03
    -1.3125896412302895e+00 8.0593725589429115e-03
    -1.2640020369545641e+00 8.0424316643520500e-03
    -1.2522706649050823e+00 8.1149237510647846e-03
    -1.3001831372834329e+00 8.1778991054227580e-03
    -1.3379549531991437e+00 8.0262553389809522e-03
    -1.2406957091473432e+00 8.1560538865736321e-03
    -1.3251783128981582e+00 8.0108306318654073e-03
    -1.2292725943057181e+00 7.8681326605699181e-03
    -1.0830867569483635e+00 7.9040340216859680e-03
    -1.1326200964261066e+00 7.8740304627808715e-03
    -1.0927830330315136e+00 7.8955608721840414e-03
    -1.1224972160321827e+00 7.8443660089835884e-03
    -9.8245477824902860e-01 7.8542168767015939e-03
    -9.4824029858762382e-01 7.8877396113518870e-03
    -8.9888820216976928e-01 8.1560538865736339e-03
    -7.5461542817811811e-01 8.6245471264953036e-03
    -6.4226162893325645e-01 9.6625735841508031e-03
    -5.1241568321259900e-01 1.5289687883467851e-02
    -2.7602622373694174e-01 1.0274999062921375e-02
    -4.6373889576016825e-01 8.7892231298682538e-03
    -6.1485671541246500e-01 8.0424316643520517e-03
    -7.9854940950469044e-01 7.9689474684684122e-03
    -8.3621057174658586e-01 7.8459027640201719e-03
    -9.7379456872020276e-01 7.8443660089835884e-03
    -1.0178585540417864e+00 7.9229613333218814e-03
    -1.1532115622107226e+00 7.9961453204662261e-03
    -1.2179969144117249e+00 8.0262553389809522e-03
    -1.2406957091473432e+00 7.9961453204662261e-03
    -1.2179969144117249e+00 8.0956036871567619e-03
    -1.2879532326182361e+00 8.2006228188558229e-03
    -1.3509256086106296e+00 8.2487871949650203e-03
    -1.3774744634423888e+00 8.0956036871567619e-03
    -1.2879532326182361e+00 8.2742714012258318e-03
    -1.3910661145556438e+00 8.2006228188558229e-03
    -1.3509256086106296e+00 8.1149237510647846e-03
    -1.3001831372834329e+00 8.1350681178676935e-03
    -1.3125896412302895e+00 8.0770917326611069e-03
    -1.2758945790088563e+00 8.1560538865736321e-03
    -1.3251783128981582e+00 8.0424316643520500e-03
    -1.2522706649050823e+00 8.0424316643520500e-03
    -1.2522706649050823e+00 8.0956036871567619e-03
    -1.2879532326182361e+00 8.1778991054227580e-03
    -1.3379549531991437e+00 8.0593725589429115e-03
    -1.2640020369545641e+00 8.1149237510647846e-03
    -1.3001831372834329e+00 8.1350681178676935e-03
    -1.3125896412302895e+00 8.0424316643520500e-03
    -1.2522706649050823e+00 8.0262553389809522e-03
    -1.2406957091473432e+00 8.0262553389809522e-03
    -1.2406957091473432e+00 7.8805645417002364e-03
    -1.1025816407458473e+00 7.8805645417002364e-03
    -1.1025816407458473e+00 7.8582294059711452e-03
    -1.0639903531978629e+00 7.8459027640201719e-03
    -9.7379456872020276e-01 7.8805645417002346e-03
    -9.0696231738771294e-01 7.9131652661064422e-03
    -8.7500000000000000e-01 8.3007213104887376e-03
    -7.1180521680208730e-01 8.8805239425834171e-03
    -6.0120361204215167e-01 1.0485702596798827e-02
    -4.4958609806628597e-01 1.8224376802010028e-02
    -2.2619193331698287e-01 1.0176313228276612e-02
    -4.7076705664438934e-01 8.7458934438116431e-03
    -6.2169370873820373e-01 8.3861207850736644e-03
    -6.9074176289445244e-01 7.9961453204662278e-03
    -8.2102014230716291e-01 7.8480557392012554e-03
    -9.6520667819070305e-01 7.8542168767015939e-03
    -1.0545850049712826e+00 7.9334294869074420e-03
    -1.1636866703140785e+00 7.9131652661064440e-03
    -1.1428571428571432e+00 8.0262553389809522e-03
    -1.2406957091473432e+00 7.9689474684684122e-03
    -1.1958710327128592e+00 8.0424316643520500e-03
    -1.2522706649050823e+00 8.1560538865736321e-03
    -1.3251783128981582e+00 8.1149237510647846e-03
    -1.3001831372834329e+00 8.3007213104887394e-03
    -1.4048787173725410e+00 8.6245471264953036e-03
    -1.5569978883230460e+00 8.2006228188558229e-03
    -1.3509256086106296e+00 8.2487871949650203e-03
    -1.3774744634423888e+00 8.1350681178676935e-03
    -1.3125896412302895e+00 8.0770917326611069e-03
    -1.2758945790088563e+00 8.1778991054227580e-03
    -1.3379549531991437e+00 8.1149237510647846e-03
    -1.3001831372834329e+00 8.1778991054227580e-03
    -1.3379549531991437e+00 8.0770917326611069e-03
    -1.2758945790088563e+00 8.1560538865736321e-03
    -1.3251783128981582e+00 8.0262553389809522e-03
    -1.2406957091473432e+00 8.3281617863604981e-03
    -1.4189197769195177e+00 8.2742714012258318e-03
    -1.3910661145556438e+00 7.9229613333218814e-03
    -1.1532115622107226e+00 7.9229613333218814e-03
    -1.1532115622107226e+00 7.8740304627808715e-03
    -1.0927830330315136e+00 7.8681326605699181e-03
    -1.0830867569483635e+00 7.9040340216859680e-03
    -1.1326200964261066e+00 7.8542168767015939e-03
    -1.0545850049712826e+00 7.8542168767015939e-03
    -9.4824029858762382e-01 7.8480557392012554e-03
    -9.6520667819070305e-01 7.9334294869074420e-03
    -8.5933784884731934e-01 8.1778991054227614e-03
    -7.4740931868365990e-01 8.7892231298682538e-03
    -6.1485671541246500e-01 1.0485702596798827e-02
    -4.4958609806628597e-01 1.7489232409787451e-02
    -2.3680111138915752e-01 1.1725628938849479e-02
    -3.8367710620704382e-01 9.2556574341863939e-03
    -5.5349650541163320e-01 8.7040377204880039e-03
    -6.2853936105470898e-01 8.1350681178676935e-03
    -7.6185272882597233e-01 7.9564138793077610e-03
    -8.4387274640268595e-01 7.8582294059711452e-03
    -1.0639903531978629e+00 7.9229613333218814e-03
    -1.1532115622107226e+00 7.9821878822835535e-03
    -1.2068644245027831e+00 7.9334294869074420e-03
    -1.1636866703140785e+00 8.1560538865736321e-03
    -1.3251783128981582e+00 8.2742714012258318e-03
    -1.3910661145556438e+00 8.5503769012485551e-03
    -1.5243127670411694e+00 8.2742714012258318e-03
    -1.3910661145556438e+00 8.2742714012258318e-03
    -1.3910661145556438e+00 8.3007213104887394e-03
    -1.4048787173725410e+00 8.3007213104887394e-03
    -1.4048787173725410e+00 8.2242451180016031e-03
    -1.3640965851694251e+00 8.2487871949650203e-03
    -1.3774744634423888e+00 8.1350681178676935e-03
    -1.3125896412302895e+00 8.0262553389809522e-03
    -1.2406957091473432e+00 8.0262553389809522e-03
    -1.2406957091473432e+00 8.1778991054227580e-03
    -1.3379549531991437e+00 7.9961453204662261e-03
    -1.2179969144117249e+00 8.0770917326611069e-03
    -1.2758945790088563e+00 8.0424316643520500e-03
    -1.2522706649050823e+00 7.9689474684684122e-03
    -1.1958710327128592e+00 7.9689474684684122e-03
    -1.1958710327128592e+00 7.9821878822835535e-03
    -1.2068644245027831e+00 7.9961453204662261e-03
    -1.2179969144117249e+00 7.9131652661064440e-03
    -1.1428571428571432e+00 7.9131652661064440e-03
    -1.1428571428571432e+00 7.9131652661064440e-03
    -1.1428571428571432e+00 7.8681326605699181e-03
    -1.0830867569483635e+00 7.8443660089835884e-03
    -1.0178585540417864e+00 7.8740304627808715e-03
    -9.1509473497760885e-01 7.9821878822835552e-03
    -8.2859348547952305e-01 8.2742714012258318e-03
    -7.1887309275694344e-01 9.1387933872603012e-03
    -5.6713087281560048e-01 1.0378035499652889e-02
    -4.5667948249578755e-01 1.9069591203548501e-02
    -2.1516574145596762e-01 1.2502596798748487e-02
    -3.5267280792929917e-01 9.6625735841508031e-03
    -5.1241568321259900e-01 8.5868187354958304e-03
    -6.4914069953958520e-01 8.0424316643520517e-03
    -7.9854940950469044e-01 7.9445775414699812e-03
    -8.5158137585004556e-01 7.8740304627808715e-03
    -9.1509473497760885e-01 7.8628668979097514e-03
    -1.0734900802433867e+00 7.8740304627808715e-03
    -1.0927830330315136e+00 7.9821878822835535e-03
    -1.2068644245027831e+00 7.9334294869074420e-03
    -1.1636866703140785e+00 8.1350681178676935e-03
    -1.3125896412302895e+00 8.2242451180016031e-03
    -1.3640965851694251e+00 8.1560538865736321e-03
    -1.3251783128981582e+00 8.3566190552679109e-03
    -1.4331971441689568e+00 8.3566190552679109e-03
    -1.4331971441689568e+00 8.1350681178676935e-03
    -1.3125896412302895e+00 8.1778991054227580e-03
    -1.3379549531991437e+00 8.1560538865736321e-03
    -1.3251783128981582e+00 8.3007213104887394e-03
    -1.4048787173725410e+00 8.1560538865736321e-03
    -1.3251783128981582e+00 8.0956036871567619e-03
    -1.2879532326182361e+00 8.1149237510647846e-03
    -1.3001831372834329e+00 8.0956036871567619e-03
    -1.2879532326182361e+00 8.0424316643520500e-03
    -1.2522706649050823e+00 8.0424316643520500e-03
    -1.2522706649050823e+00 7.9821878822835535e-03
    -1.2068644245027831e+00 8.1350681178676935e-03
    -1.3125896412302895e+00 8.1149237510647846e-03
    -1.3001831372834329e+00 7.9689474684684122e-03
    -1.1958710327128592e+00 7.9131652661064440e-03
    -1.1428571428571432e+00 7.9445775414699812e-03
    -1.1742858972247998e+00 7.8740304627808715e-03
    -1.0927830330315136e+00 7.8443660089835884e-03
    -9.8245477824902860e-01 7.8480557392012554e-03
    -9.6520667819070305e-01 7.9334294869074420e-03
    -8.5933784884731934e-01 7.9961453204662278e-03
    -8.2102014230716291e-01 8.5868187354958304e-03
    -6.4914069953958520e-01 9.3173404096124190e-03
    -5.4667227359053394e-01 1.0969281603565117e-02
    -4.2081270576508656e-01 1.5289687883467851e-02
    -2.7602622373694174e-01 1.2090933663387786e-02
    -3.6834547908152609e-01 9.8202538523584713e-03
    -4.9861687148590023e-01 9.2556574341863939e-03
    -5.5349650541163320e-01 8.2006228188558229e-03
    -7.4023321019760524e-01 8.0770917326611052e-03
    -7.8376381281972574e-01 7.8805645417002346e-03
    -9.0696231738771294e-01 7.8434443892883461e-03
    -9.9118925556670423e-01 7.8740304627808715e-03
    -1.0927830330315136e+00 7.8955608721840414e-03
    -1.1224972160321827e+00 7.9564138793077610e-03
    -1.1850127928207930e+00 7.9821878822835535e-03
    -1.2068644245027831e+00 7.9689474684684122e-03
    -1.1958710327128592e+00 7.9961453204662261e-03
    -1.2179969144117249e+00 8.2242451180016031e-03
    -1.3640965851694251e+00 8.0956036871567619e-03
    -1.2879532326182361e+00 8.0424316643520500e-03
    -1.2522706649050823e+00 8.0770917326611069e-03
    -1.2758945790088563e+00 8.1778991054227580e-03
    -1.3379549531991437e+00 8.0262553389809522e-03
    -1.2406957091473432e+00 8.0593725589429115e-03
    -1.2640020369545641e+00 8.0956036871567619e-03
    -1.2879532326182361e+00 8.0262553389809522e-03
    -1.2406957091473432e+00 8.0770917326611069e-03
    -1.2758945790088563e+00 8.1350681178676935e-03
    -1.3125896412302895e+00 8.0956036871567619e-03
    -1.2879532326182361e+00 8.0956036871567619e-03
    -1.2879532326182361e+00 7.9961453204662261e-03
    -1.2179969144117249e+00 7.9229613333218814e-03
    -1.1532115622107226e+00 7.9564138793077610e-03
    -1.1850127928207930e+00 7.9564138793077610e-03
    -1.1850127928207930e+00 7.9445775414699812e-03
    -1.1742858972247998e+00 7.8877396113518888e-03
    -1.1124853987249623e+00 7.8434443892883461e-03
    -9.9118925556670423e-01 7.8681326605699164e-03
    -9.2328707149696532e-01 7.9821878822835552e-03
    -8.2859348547952305e-01 8.2006228188558229e-03
    -7.4023321019760524e-01 9.0834281344175510e-03
    -5.7394404318355141e-01 9.6625735841508031e-03
    -5.1241568321259900e-01 1.2970488164736360e-02
    -3.3660138533707412e-01 1.4132086451123713e-02
    -3.0296441971546190e-01 1.2090933663387786e-02
    -3.6834547908152609e-01 1.0081721634674858e-02
    -4.7776654295295456e-01 9.5166387859181700e-03
    -5.2615221960198022e-01 8.6245471264953036e-03
    -6.4226162893325645e-01 8.1560538865736339e-03
    -7.5461542817811811e-01 7.8955608721840414e-03
    -8.9087080637474803e-01 7.8582294059711452e-03
    -9.3985814532477896e-01 7.8582294059711452e-03
    -1.0639903531978629e+00 7.8628668979097514e-03
    -1.0734900802433867e+00 7.8628668979097514e-03
    -1.0734900802433867e+00 7.9821878822835535e-03
    -1.2068644245027831e+00 8.1350681178676935e-03
    -1.3125896412302895e+00 8.1778991054227580e-03
    -1.3379549531991437e+00 8.2006228188558229e-03
    -1.3509256086106296e+00 8.2487871949650203e-03
    -1.3774744634423888e+00 8.0770917326611069e-03
    -1.2758945790088563e+00 7.9961453204662261e-03
    -1.2179969144117249e+00 8.2006228188558229e-03
    -1.3509256086106296e+00 8.0956036871567619e-03
    -1.2879532326182361e+00 8.0770917326611069e-03
    -1.2758945790088563e+00 8.0262553389809522e-03
    -1.2406957091473432e+00 8.1149237510647846e-03
    -1.3001831372834329e+00 8.0424316643520500e-03
    -1.2522706649050823e+00 8.2742714012258318e-03
    -1.3910661145556438e+00 8.1778991054227580e-03
    -1.3379549531991437e+00 8.0108306318654073e-03
    -1.2292725943057181e+00 8.0108306318654073e-03
    -1.2292725943057181e+00 8.0956036871567619e-03
    -1.2879532326182361e+00 7.9229613333218814e-03
    -1.1532115622107226e+00 7.9961453204662261e-03
    -1.2179969144117249e+00 7.9334294869074420e-03
    -1.1636866703140785e+00 7.8434443892883461e-03
    -1.0088890637018240e+00 7.8582294059711452e-03
    -9.3985814532477896e-01 7.9689474684684122e-03
    -8.3621057174658586e-01 8.1778991054227614e-03
    -7.4740931868365990e-01 8.4166961698948287e-03
    -6.8376345875782762e-01 8.8340808392854582e-03
    -6.0802711263312081e-01 9.7398684305521482e-03
    -5.0552502960343670e-01 1.3229451381372184e-02
    -3.2839478871459266e-01 1.9069591203548501e-02
    -2.1516574145596762e-01 1.3229451381372184e-02
    -3.2839478871459266e-01 1.0176313228276612e-02
    -4.7076705664438934e-01 9.4477180188956775e-03
    -5.3300179088902611e-01 8.9784138752412920e-03
    -5.8756965139300310e-01 8.3861207850736644e-03
    -6.9074176289445244e-01 7.9689474684684122e-03
    -8.3621057174658586e-01 7.8740304627808715e-03
    -9.1509473497760885e-01 7.8443660089835884e-03
    -9.8245477824902860e-01 7.8443660089835884e-03
    -1.0178585540417864e+00 7.9131652661064440e-03
    -1.1428571428571432e+00 7.9229613333218814e-03
    -1.1532115622107226e+00 8.0108306318654073e-03
    -1.2292725943057181e+00 8.1560538865736321e-03
    -1.3251783128981582e+00 7.9445775414699812e-03
    -1.1742858972247998e+00 8.0956036871567619e-03
    -1.2879532326182361e+00 8.0593725589429115e-03
    -1.2640020369545641e+00 8.0108306318654073e-03
    -1.2292725943057181e+00 8.0262553389809522e-03
    -1.2406957091473432e+00 8.0593725589429115e-03
    -1.2640020369545641e+00 7.9334294869074420e-03
    -1.1636866703140785e+00 8.0593725589429115e-03
    -1.2640020369545641e+00 8.0262553389809522e-03
    -1.2406957091473432e+00 8.1350681178676935e-03
    -1.3125896412302895e+00 8.0424316643520500e-03
    -1.2522706649050823e+00 8.0262553389809522e-03
    -1.2406957091473432e+00 7.9040340216859680e-03
    -1.1326200964261066e+00 7.9961453204662261e-03
    -1.2179969144117249e+00 7.9040340216859680e-03
    -1.1326200964261066e+00 7.8582294059711452e-03
    -1.0639903531978629e+00 7.8542168767015939e-03
    -1.0545850049712826e+00 7.8443660089835884e-03
    -9.8245477824902860e-01 7.8542168767015939e-03
    -9.4824029858762382e-01 7.9445775414699812e-03
    -8.5158137585004556e-01 8.1778991054227614e-03
    -7.4740931868365990e-01 8.3007213104887376e-03
    -7.1180521680208730e-01 8.5503769012485551e-03
    -6.5603334277721215e-01 8.8340808392854582e-03
    -6.0802711263312081e-01 1.0485702596798827e-02
    -4.4958609806628597e-01 1.3229451381372184e-02
    -3.2839478871459266e-01 1.6268080411416044e-02
    -2.5697808437502334e-01 1.2970488164736360e-02
    -3.3660138533707412e-01 1.1557917646700984e-02
    -3.9123039821797578e-01 9.8202538523584713e-03
    -4.9861687148590023e-01 9.0299943498250348e-03
    -5.8075649502082693e-01 8.6636049822189747e-03
    -6.3539492292159083e-01 8.4483760216826319e-03
    -6.7680463660426571e-01 8.0424316643520517e-03
    -7.9854940950469044e-01 8.0108306318654090e-03
    -8.1348921681996078e-01 7.8434443892883461e-03
    -1.0088890637018240e+00 7.8443660089835884e-03
    -1.0178585540417864e+00 7.8480557392012554e-03
    -9.6520667819070305e-01 7.8542168767015939e-03
    -1.0545850049712826e+00 7.9131652661064440e-03
    -1.1428571428571432e+00 8.1149237510647846e-03
    -1.3001831372834329e+00 8.0770917326611069e-03
    -1.2758945790088563e+00 8.0956036871567619e-03
    -1.2879532326182361e+00 8.1149237510647846e-03
    -1.3001831372834329e+00 7.9961453204662261e-03
    -1.2179969144117249e+00 7.9131652661064440e-03
    -1.1428571428571432e+00 7.9334294869074420e-03
    -1.1636866703140785e+00 8.0262553389809522e-03
    -1.2406957091473432e+00 7.9564138793077610e-03
    -1.1850127928207930e+00 7.9229613333218814e-03
    -1.1532115622107226e+00 7.8955608721840414e-03
    -1.1224972160321827e+00 7.9445775414699812e-03
    -1.1742858972247998e+00 7.9445775414699812e-03
    -1.1742858972247998e+00 7.8542168767015939e-03
    -1.0545850049712826e+00 7.8740304627808715e-03
    -1.0927830330315136e+00 7.8431372549019607e-03 -1.
    7.9131652661064440e-03 -1.1428571428571432e+00
    7.8434443892883461e-03 -1.0088890637018240e+00
    7.8681326605699164e-03 -9.2328707149696532e-01
    7.9564138793077610e-03 -8.4387274640268595e-01
    8.2006228188558229e-03 -7.4023321019760524e-01
    8.5503769012485551e-03 -6.5603334277721215e-01
    8.7892231298682538e-03 -6.1485671541246500e-01
    9.6625735841508031e-03 -5.1241568321259900e-01
    1.1557917646700984e-02 -3.9123039821797578e-01
    1.5289687883467851e-02 -2.7602622373694174e-01
    1.9069591203548501e-02 -2.1516574145596762e-01
    1.3807646210200473e-02 -3.1158847642487797e-01
    1.2090933663387786e-02 -3.6834547908152609e-01
    1.0378035499652889e-02 -4.5667948249578755e-01
    9.3173404096124190e-03 -5.4667227359053394e-01
    9.0834281344175510e-03 -5.7394404318355141e-01
    8.7458934438116431e-03 -6.2169370873820373e-01
    8.5868187354958304e-03 -6.4914069953958520e-01
    8.1350681178676935e-03 -7.6185272882597233e-01
    7.9689474684684122e-03 -8.3621057174658586e-01
    7.9229613333218814e-03 -8.6714357778635731e-01
    7.9689474684684122e-03 -8.3621057174658586e-01
    7.8508264562299254e-03 -9.5668920621492093e-01
    7.8480557392012554e-03 -9.6520667819070305e-01
    7.8681326605699181e-03 -1.0830867569483635e+00
    8.0593725589429115e-03 -1.2640020369545641e+00
    8.0770917326611069e-03 -1.2758945790088563e+00
    8.0108306318654073e-03 -1.2292725943057181e+00
    7.9229613333218814e-03 -1.1532115622107226e+00
    7.9689474684684122e-03 -1.1958710327128592e+00
    7.9334294869074420e-03 -1.1636866703140785e+00
    7.9040340216859680e-03 -1.1326200964261066e+00
    7.9445775414699812e-03 -1.1742858972247998e+00
    7.8877396113518888e-03 -1.1124853987249623e+00
    7.8508264562299271e-03 -1.0452715401237103e+00
    7.8955608721840414e-03 -1.1224972160321827e+00
    7.8681326605699181e-03 -1.0830867569483635e+00
    7.8681326605699181e-03 -1.0830867569483635e+00
    7.8542168767015939e-03 -1.0545850049712826e+00
    7.8480557392012571e-03 -1.0360475353056173e+00
    7.8434443892883461e-03 -1.0088890637018240e+00
    7.8542168767015939e-03 -9.4824029858762382e-01
    7.9131652661064422e-03 -8.7500000000000000e-01
    8.0956036871567619e-03 -7.7642570760673801e-01
    8.3007213104887376e-03 -7.1180521680208730e-01
    8.8805239425834171e-03 -6.0120361204215167e-01
    9.8202538523584713e-03 -4.9861687148590023e-01
    1.0485702596798827e-02 -4.4958609806628597e-01
    1.3507708529435560e-02 -3.2006096980144877e-01
    1.5753657583059598e-02 -2.6662716927080959e-01
    1.9069591203548501e-02 -2.1516574145596762e-01
    1.4868619750563635e-02 -2.8520117972873166e-01
    1.2502596798748487e-02 -3.5267280792929917e-01
    9.9909891205824611e-03 -4.8473980401410033e-01
    9.5882122415871466e-03 -5.1929078688949859e-01
    9.3813242376189539e-03 -5.3984124650546239e-01
    8.9286133683816899e-03 -5.9438490321815274e-01
    8.9784138752412920e-03 -5.8756965139300310e-01
    8.3007213104887376e-03 -7.1180521680208730e-01
    8.0956036871567619e-03 -7.7642570760673801e-01
    8.1149237510647863e-03 -7.6912241923808733e-01
    7.9961453204662278e-03 -8.2102014230716291e-01
    7.9961453204662278e-03 -8.2102014230716291e-01
    7.8877396113518870e-03 -8.9888820216976928e-01
    7.8443660089835884e-03 -9.8245477824902860e-01
    7.8434443892883461e-03 -1.0088890637018240e+00
    7.8434443892883461e-03 -1.0088890637018240e+00
    7.8459027640201719e-03 -9.7379456872020276e-01
    7.8434443892883461e-03 -1.0088890637018240e+00
    7.8740304627808715e-03 -1.0927830330315136e+00
    7.8955608721840414e-03 -1.1224972160321827e+00
    7.8955608721840414e-03 -1.1224972160321827e+00
    7.9040340216859680e-03 -1.1326200964261066e+00
    7.8877396113518888e-03 -1.1124853987249623e+00
    7.8480557392012571e-03 -1.0360475353056173e+00
    7.8582294059711452e-03 -9.3985814532477896e-01
    7.8508264562299254e-03 -9.5668920621492093e-01
    7.8480557392012571e-03 -1.0360475353056173e+00
    7.8628668979097496e-03 -9.3154097872359976e-01
    7.8542168767015939e-03 -9.4824029858762382e-01
    7.9040340216859680e-03 -8.8290857910381537e-01
    7.9961453204662278e-03 -8.2102014230716291e-01
    8.2742714012258318e-03 -7.1887309275694344e-01
    8.3281617863604981e-03 -7.0476147860240945e-01
    8.6636049822189747e-03 -6.3539492292159083e-01
    9.4477180188956775e-03 -5.3300179088902611e-01
    9.8202538523584713e-03 -4.9861687148590023e-01
    1.1557917646700984e-02 -3.9123039821797578e-01
    1.4132086451123713e-02 -3.0296441971546190e-01
    1.7489232409787451e-02 -2.3680111138915752e-01
    2.0054744670102161e-02 -2.0365326999063918e-01
    1.6842508718654392e-02 -2.4704830266521818e-01
    1.2290416112441352e-02 -3.6055512754639890e-01
    1.0485702596798827e-02 -4.4958609806628597e-01
    9.9038995408327821e-03 -4.9168917189444161e-01
    9.7398684305521482e-03 -5.0552502960343670e-01
    9.3813242376189539e-03 -5.3984124650546239e-01
    9.0299943498250348e-03 -5.8075649502082693e-01
    8.6636049822189747e-03 -6.3539492292159083e-01
    8.6636049822189747e-03 -6.3539492292159083e-01
    8.3007213104887376e-03 -7.1180521680208730e-01
    8.1560538865736339e-03 -7.5461542817811811e-01
    8.0262553389809522e-03 -8.0599940229279954e-01
    7.9445775414699812e-03 -8.5158137585004556e-01
    7.9961453204662278e-03 -8.2102014230716291e-01
    8.0108306318654090e-03 -8.1348921681996078e-01
    7.8582294059711452e-03 -9.3985814532477896e-01
    7.8740304627808715e-03 -9.1509473497760885e-01
    7.8480557392012554e-03 -9.6520667819070305e-01
    7.8443660089835884e-03 -9.8245477824902860e-01
    7.8431372549019607e-03 -1. 7.8542168767015939e-03
    -1.0545850049712826e+00 7.8805645417002364e-03
    -1.1025816407458473e+00 7.8434443892883461e-03
    -1.0088890637018240e+00 7.8434443892883461e-03
    -9.9118925556670423e-01 7.8431372549019607e-03 -1.
    7.8459027640201719e-03 -9.7379456872020276e-01
    7.8508264562299254e-03 -9.5668920621492093e-01
    7.9334294869074420e-03 -8.5933784884731934e-01
    8.0593725589429115e-03 -7.9113796557587823e-01
    8.3281617863604981e-03 -7.0476147860240945e-01
    8.3007213104887376e-03 -7.1180521680208730e-01
    8.5151810649579784e-03 -6.6294075592006907e-01
    8.6636049822189747e-03 -6.3539492292159083e-01
    9.1961734796352952e-03 -5.6031552572822130e-01
    9.6625735841508031e-03 -5.1241568321259900e-01
    1.0081721634674858e-02 -4.7776654295295456e-01
    1.2090933663387786e-02 -3.6834547908152609e-01
    1.4868619750563635e-02 -2.8520117972873166e-01
    1.6842508718654392e-02 -2.4704830266521818e-01
    2.4393903031231127e-02 -1.6514456476895409e-01
    1.9069591203548501e-02 -2.1516574145596762e-01
    1.3507708529435560e-02 -3.2006096980144877e-01
    1.2090933663387786e-02 -3.6834547908152609e-01
    1.1105359814091425e-02 -4.1350266741406783e-01
    1.0176313228276612e-02 -4.7076705664438934e-01
    9.9038995408327821e-03 -4.9168917189444161e-01
    9.4477180188956775e-03 -5.3300179088902611e-01
    9.3173404096124190e-03 -5.4667227359053394e-01
    9.3813242376189539e-03 -5.3984124650546239e-01
    9.0834281344175510e-03 -5.7394404318355141e-01
    8.4166961698948287e-03 -6.8376345875782762e-01
    8.4483760216826319e-03 -6.7680463660426571e-01
    8.3566190552679109e-03 -6.9774071492436052e-01
    8.3281617863604981e-03 -7.0476147860240945e-01
    8.0424316643520517e-03 -7.9854940950469044e-01
    7.9564138793077610e-03 -8.4387274640268595e-01
    7.8542168767015939e-03 -9.4824029858762382e-01
    7.8805645417002346e-03 -9.0696231738771294e-01
    7.8480557392012554e-03 -9.6520667819070305e-01
    7.8480557392012554e-03 -9.6520667819070305e-01
    7.8582294059711452e-03 -9.3985814532477896e-01
    7.8459027640201719e-03 -9.7379456872020276e-01
    7.8582294059711452e-03 -9.3985814532477896e-01
    7.9445775414699812e-03 -8.5158137585004556e-01
    7.9334294869074420e-03 -8.5933784884731934e-01
    7.9821878822835552e-03 -8.2859348547952305e-01
    8.0108306318654090e-03 -8.1348921681996078e-01
    8.1149237510647863e-03 -7.6912241923808733e-01
    8.2006228188558229e-03 -7.4023321019760524e-01
    8.5868187354958304e-03 -6.4914069953958520e-01
    8.5151810649579784e-03 -6.6294075592006907e-01
    8.7892231298682538e-03 -6.1485671541246500e-01
    9.0834281344175510e-03 -5.7394404318355141e-01
    9.7398684305521482e-03 -5.0552502960343670e-01
    9.9909891205824611e-03 -4.8473980401410033e-01
    1.1105359814091425e-02 -4.1350266741406783e-01
    1.4484394294519472e-02 -2.9417420270727601e-01
    1.5753657583059598e-02 -2.6662716927080959e-01
    1.9069591203548501e-02 -2.1516574145596762e-01
    2.6661655940536905e-02 -1.5041420939904671e-01
    1.7489232409787451e-02 -2.3680111138915752e-01
    1.6268080411416044e-02 -2.5697808437502334e-01
    1.4132086451123713e-02 -3.0296441971546190e-01
    1.2090933663387786e-02 -3.6834547908152609e-01
    1.0839707240663982e-02 -4.2807250939347802e-01
    1.0598306977354482e-02 -4.4245586872274134e-01
    1.0716185132343962e-02 -4.3528575006600695e-01
    1.0081721634674858e-02 -4.7776654295295456e-01
    9.9038995408327821e-03 -4.9168917189444161e-01
    1.0485702596798827e-02 -4.4958609806628597e-01
    9.3813242376189539e-03 -5.3984124650546239e-01
    8.7040377204880039e-03 -6.2853936105470898e-01
    8.5503769012485551e-03 -6.5603334277721215e-01
    8.3861207850736644e-03 -6.9074176289445244e-01
    8.1560538865736339e-03 -7.5461542817811811e-01
    8.0956036871567619e-03 -7.7642570760673801e-01
    8.0956036871567619e-03 -7.7642570760673801e-01
    7.8955608721840414e-03 -8.9087080637474803e-01
    7.8877396113518870e-03 -8.9888820216976928e-01
    7.8628668979097496e-03 -9.3154097872359976e-01
    7.8955608721840414e-03 -8.9087080637474803e-01
    7.9689474684684122e-03 -8.3621057174658586e-01
    7.9961453204662278e-03 -8.2102014230716291e-01
    7.9445775414699812e-03 -8.5158137585004556e-01
    8.0770917326611052e-03 -7.8376381281972574e-01
    8.0956036871567619e-03 -7.7642570760673801e-01
    8.5151810649579784e-03 -6.6294075592006907e-01
    8.8805239425834171e-03 -6.0120361204215167e-01
    8.7892231298682538e-03 -6.1485671541246500e-01
    8.6636049822189747e-03 -6.3539492292159083e-01
    8.8805239425834171e-03 -6.0120361204215167e-01
    9.4477180188956775e-03 -5.3300179088902611e-01
    9.8202538523584713e-03 -4.9861687148590023e-01
    1.0081721634674858e-02 -4.7776654295295456e-01
    1.0485702596798827e-02 -4.4958609806628597e-01
    1.1903005873838952e-02 -3.7605071654517752e-01
    1.3807646210200473e-02 -3.1158847642487797e-01
    1.6842508718654392e-02 -2.4704830266521818e-01
    1.9069591203548501e-02 -2.1516574145596762e-01
    2.6661655940536905e-02 -1.5041420939904671e-01
    2.2635869489797667e-02 -1.7878330548357893e-01
    2.1222425535292178e-02 -1.9156525704423030e-01
    1.5753657583059598e-02 -2.6662716927080959e-01
    1.4484394294519472e-02 -2.9417420270727601e-01
    1.2728785064161008e-02 -3.4469099377285561e-01
    1.1725628938849479e-02 -3.8367710620704382e-01
    1.1903005873838952e-02 -3.7605071654517752e-01
    1.1557917646700984e-02 -3.9123039821797578e-01
    1.0598306977354482e-02 -4.4245586872274134e-01
    1.0716185132343962e-02 -4.3528575006600695e-01
    1.1248442809813623e-02 -4.0613846605344767e-01
    1.1248442809813623e-02 -4.0613846605344767e-01
    9.7398684305521482e-03 -5.0552502960343670e-01
    9.1387933872603012e-03 -5.6713087281560048e-01
    8.5151810649579784e-03 -6.6294075592006907e-01
    8.3566190552679109e-03 -6.9774071492436052e-01
    8.3281617863604981e-03 -7.0476147860240945e-01
    8.1560538865736339e-03 -7.5461542817811811e-01
    7.9689474684684122e-03 -8.3621057174658586e-01
    8.0108306318654090e-03 -8.1348921681996078e-01
    8.0424316643520517e-03 -7.9854940950469044e-01
    8.2242451180016031e-03 -7.3308591992098360e-01
    8.0593725589429115e-03 -7.9113796557587823e-01
    8.1778991054227614e-03 -7.4740931868365990e-01
    8.1778991054227614e-03 -7.4740931868365990e-01
    8.6245471264953036e-03 -6.4226162893325645e-01
    8.9286133683816899e-03 -5.9438490321815274e-01
    8.9286133683816899e-03 -5.9438490321815274e-01
    8.8340808392854582e-03 -6.0802711263312081e-01
    9.1961734796352952e-03 -5.6031552572822130e-01
    9.2556574341863939e-03 -5.5349650541163320e-01
    1.0378035499652889e-02 -4.5667948249578755e-01
    1.0839707240663982e-02 -4.2807250939347802e-01
    1.0839707240663982e-02 -4.2807250939347802e-01
    1.1725628938849479e-02 -3.8367710620704382e-01
    1.3229451381372184e-02 -3.2839478871459266e-01
    1.4484394294519472e-02 -2.9417420270727601e-01
    1.8224376802010028e-02 -2.2619193331698287e-01
    2.6661655940536905e-02 -1.5041420939904671e-01
    2.9741425191837159e-02 -1.3423121104280489e-01
    2.4393903031231127e-02 -1.6514456476895409e-01
    2.2635869489797667e-02 -1.7878330548357893e-01
    1.8224376802010028e-02 -2.2619193331698287e-01
    1.5753657583059598e-02 -2.6662716927080959e-01
    1.5753657583059598e-02 -2.6662716927080959e-01
    1.3507708529435560e-02 -3.2006096980144877e-01
    1.2970488164736360e-02 -3.3660138533707412e-01
    1.2728785064161008e-02 -3.4469099377285561e-01
    1.2728785064161008e-02 -3.4469099377285561e-01
    1.2090933663387786e-02 -3.6834547908152609e-01
    1.2502596798748487e-02 -3.5267280792929917e-01
    1.2728785064161008e-02 -3.4469099377285561e-01
    1.2090933663387786e-02 -3.6834547908152609e-01
    1.1399087992833064e-02 -3.9871588753692644e-01
    9.5882122415871466e-03 -5.1929078688949859e-01
    9.1961734796352952e-03 -5.6031552572822130e-01
    8.6245471264953036e-03 -6.4226162893325645e-01
    8.5868187354958304e-03 -6.4914069953958520e-01
    8.3007213104887376e-03 -7.1180521680208730e-01
    8.1778991054227614e-03 -7.4740931868365990e-01
    8.2242451180016031e-03 -7.3308591992098360e-01
    8.4166961698948287e-03 -6.8376345875782762e-01
    8.5151810649579784e-03 -6.6294075592006907e-01
    8.4811928691821241e-03 -6.6986412705708365e-01
    8.7040377204880039e-03 -6.2853936105470898e-01
    8.9784138752412920e-03 -5.8756965139300310e-01
    9.3813242376189539e-03 -5.3984124650546239e-01
    9.7398684305521482e-03 -5.0552502960343670e-01
    1.0176313228276612e-02 -4.7076705664438934e-01
    1.0081721634674858e-02 -4.7776654295295456e-01
    9.8202538523584713e-03 -4.9861687148590023e-01
    1.1105359814091425e-02 -4.1350266741406783e-01
    1.1725628938849479e-02 -3.8367710620704382e-01
    1.2728785064161008e-02 -3.4469099377285561e-01
    1.5289687883467851e-02 -2.7602622373694174e-01
    1.5289687883467851e-02 -2.7602622373694174e-01
    1.6268080411416044e-02 -2.5697808437502334e-01
    2.2635869489797667e-02 -1.7878330548357893e-01
    3.4265352177277518e-02 -1.1598670095405886e-01
    4.1872534754943805e-02 -9.4491118252306827e-02
    2.9741425191837159e-02 -1.3423121104280489e-01
    2.2635869489797667e-02 -1.7878330548357893e-01
    2.1222425535292178e-02 -1.9156525704423030e-01
    1.9069591203548501e-02 -2.1516574145596762e-01
    2.0054744670102161e-02 -2.0365326999063918e-01
    1.8224376802010028e-02 -2.2619193331698287e-01
    1.6268080411416044e-02 -2.5697808437502334e-01
    1.5289687883467851e-02 -2.7602622373694174e-01
    1.4484394294519472e-02 -2.9417420270727601e-01
    1.3807646210200473e-02 -3.1158847642487797e-01
    1.3229451381372184e-02 -3.2839478871459266e-01
    1.3807646210200473e-02 -3.1158847642487797e-01
    1.3807646210200473e-02 -3.1158847642487797e-01
    1.3229451381372184e-02 -3.2839478871459266e-01
    1.1399087992833064e-02 -3.9871588753692644e-01
    1.0378035499652889e-02 -4.5667948249578755e-01
    9.4477180188956775e-03 -5.3300179088902611e-01
    8.9784138752412920e-03 -5.8756965139300310e-01
    9.1961734796352952e-03 -5.6031552572822130e-01
    9.3173404096124190e-03 -5.4667227359053394e-01
    8.7892231298682538e-03 -6.1485671541246500e-01
    9.3813242376189539e-03 -5.3984124650546239e-01
    8.8805239425834171e-03 -6.0120361204215167e-01
    9.7398684305521482e-03 -5.0552502960343670e-01
    9.4477180188956775e-03 -5.3300179088902611e-01
    1.0176313228276612e-02 -4.7076705664438934e-01
    1.0378035499652889e-02 -4.5667948249578755e-01
    1.0598306977354482e-02 -4.4245586872274134e-01
    1.1399087992833064e-02 -3.9871588753692644e-01
    1.1105359814091425e-02 -4.1350266741406783e-01
    1.1399087992833064e-02 -3.9871588753692644e-01
    1.3507708529435560e-02 -3.2006096980144877e-01
    1.6268080411416044e-02 -2.5697808437502334e-01
    1.7489232409787451e-02 -2.3680111138915752e-01
    1.8224376802010028e-02 -2.2619193331698287e-01
    2.1222425535292178e-02 -1.9156525704423030e-01
    2.0054744670102161e-02 -2.0365326999063918e-01
    2.2635869489797667e-02 -1.7878330548357893e-01
    2.9741425191837159e-02 -1.3423121104280489e-01
    3.4265352177277518e-02 -1.1598670095405886e-01
    2.4393903031231127e-02 -1.6514456476895409e-01
    2.4393903031231127e-02 -1.6514456476895409e-01
    2.4393903031231127e-02 -1.6514456476895409e-01
    2.9741425191837159e-02 -1.3423121104280489e-01
    2.9741425191837159e-02 -1.3423121104280489e-01
    2.4393903031231127e-02 -1.6514456476895409e-01
    2.1222425535292178e-02 -1.9156525704423030e-01
    1.9069591203548501e-02 -2.1516574145596762e-01
    1.6268080411416044e-02 -2.5697808437502334e-01
    1.5753657583059598e-02 -2.6662716927080959e-01
    1.4868619750563635e-02 -2.8520117972873166e-01
    1.6268080411416044e-02 -2.5697808437502334e-01
    1.7489232409787451e-02 -2.3680111138915752e-01
    1.7489232409787451e-02 -2.3680111138915752e-01
    1.5289687883467851e-02 -2.7602622373694174e-01
    1.2502596798748487e-02 -3.5267280792929917e-01
    1.1399087992833064e-02 -3.9871588753692644e-01
    1.1557917646700984e-02 -3.9123039821797578e-01
    1.1248442809813623e-02 -4.0613846605344767e-01
    9.8202538523584713e-03 -4.9861687148590023e-01
    1.0176313228276612e-02 -4.7076705664438934e-01
    1.2290416112441352e-02 -3.6055512754639890e-01
    1.1557917646700984e-02 -3.9123039821797578e-01
    1.0716185132343962e-02 -4.3528575006600695e-01
    1.1399087992833064e-02 -3.9871588753692644e-01
    1.0969281603565117e-02 -4.2081270576508656e-01
    1.0969281603565117e-02 -4.2081270576508656e-01
    1.1248442809813623e-02 -4.0613846605344767e-01
    1.2290416112441352e-02 -3.6055512754639890e-01
    1.2970488164736360e-02 -3.3660138533707412e-01
    1.4132086451123713e-02 -3.0296441971546190e-01
    1.5753657583059598e-02 -2.6662716927080959e-01
    1.8224376802010028e-02 -2.2619193331698287e-01
    1.9069591203548501e-02 -2.1516574145596762e-01
    2.1222425535292178e-02 -1.9156525704423030e-01
    2.6661655940536905e-02 -1.5041420939904671e-01
    2.9741425191837159e-02 -1.3423121104280489e-01
    2.6661655940536905e-02 -1.5041420939904671e-01
    2.4393903031231127e-02 -1.6514456476895409e-01</input_scale>
  <output_scale>
    1.0526315789473684e+00 0.</output_scale>
  <inv_output_scale>
    9.4999999999999996e-01 0.</inv_output_scale>
  <weights>
    <_>
      -1.0424014501194643e+00 -9.6989697287700218e-03
      -1.5926582360816476e-02 4.1684847075482050e-03
      1.3850486813187880e-02 1.1538208953135018e-02
      -5.0583987074103390e-03 1.0833711239254555e-02
      -4.3058884144491445e-02 -6.9267920039814508e-03
      5.8015366357817210e-03 -9.2758299461602363e-03
      6.4442575350745308e-03 -1.7361534981193045e-03
      -4.0096991860529931e-02 6.9756693816179710e-03
      -3.6209194757562339e-02 -3.3456435821383078e-03
      6.1312762216615344e-03 -6.3765943919224070e-03
      8.0934749525599682e-03 1.8647470619027523e-02
      4.1397244180059106e-02 -1.5917208384659254e-02
      6.8937984425472562e-03 -1.6999021418925047e-02
      -7.4564020741262130e-03 6.4216471088078290e-03
      6.8069326616181066e-03 7.7745771011196608e-03
      4.4665882087971481e-02 6.9433646489094388e-03
      -5.7444258066107956e-03 5.2396119677777806e-03
      7.9131588474961115e-04 1.9679431289559981e-02
      -1.5341064299452431e-02 3.0640387855082295e-03
      1.1941789415179274e-02 2.9646895676046166e-02
      -7.3559024097977743e-01 -9.6785761575963712e-03
      -1.7235514509984499e-02 -3.5458202337288656e-03
      1.4942466902819865e-02 -1.5407384277084676e-02
      3.6458209355407223e-03 9.3915176855170236e-03
      -1.6938729482058008e-02 -3.2506067888658677e-03
      -5.0320653673601437e-03 -6.8755713659935892e-03
      -4.0794482743913962e-03 -6.5440506583304121e-04
      -1.8426359384792767e-02 -4.7107237504278301e-03
      -1.3751122424485774e-02 -6.4762415536867373e-04
      2.0061973116752372e-03 -1.8904440337226640e-03
      6.1226933382070216e-03 -1.0854637381187892e-02
      2.0749305631233540e-02 -1.9084737487779710e-02
      -5.3683043006757395e-03 1.9591683732138078e-03
      -5.2082773776842292e-03 3.3771793875463038e-03
      -2.8858540206788022e-03 -5.7106913021425761e-03
      4.5222974542806313e-02 6.3265263658470860e-03
      -3.1306785980383329e-03 -3.2362295078091287e-03
      2.1127475045566338e-03 -1.1079815533341992e-02
      -1.9377085569424690e-02 -2.1645091070997160e-03
      1.0096090080691407e-02 2.6600545063113393e-02
      -8.8763172177276717e-01 5.6850430947710154e-02
      3.9057837280389147e-02 3.1106627642498687e-02
      -3.4080558087081075e-02 2.1950090293371562e-02
      -3.1613928689103510e-02 -3.5741401190364154e-02
      -9.2262652706295412e-02 7.8719160663811502e-02
      3.0314877751245837e-02 3.4537497607981471e-02
      3.2064498371449396e-02 -3.5628551119179161e-02
      -8.4723651872475964e-02 2.9554150188760425e-02
      -7.4994440185785383e-02 3.7396782578741981e-02
      -7.8991115142813165e-02 8.0019756977199971e-02
      -3.4521873095295308e-02 4.8563963650681385e-02
      8.9378481879128030e-02 3.6935760336140995e-02
      2.9991994479770787e-02 -5.7382908125363313e-02
      6.6495677685933008e-02 -7.1352717524636525e-02
      3.2673369685835368e-02 3.0289657463513971e-02
      -2.2376355434503056e-02 -6.3831721094977367e-02
      8.1312016647381177e-02 3.0189394788641209e-02
      3.8053498288213354e-02 4.8652940514692947e-02
      3.3810828588173067e-02 3.2868304347889621e-02
      -5.3074443986150410e-02 -3.1361653529387357e-02
      2.7345855552376463e-01 1.1144249913415584e-01
      9.0774145305102152e-02 3.7669456984665554e-02
      -8.0917637282473323e-02 1.8753894258872337e-02
      -3.3862083514167647e-02 -7.2146056867727876e-02
      -5.6722715177599716e-03 1.3754523293332896e-01
      3.2786385557469877e-02 7.0908401375901792e-02
      3.4231230397942881e-02 -4.8004986265425882e-02
      -3.5262307560959506e-03 3.0598961891310179e-02
      -9.1185659574432101e-03 5.9719049300748485e-02
      -1.3991454448525453e-01 1.3881266444757070e-01
      -6.5629017409904192e-02 3.3317934021045270e-02
      8.1504784884454621e-03 9.0176367144008493e-02
      3.1104804613057761e-02 -1.5050209103657407e-02
      1.1765308052939077e-01 -1.2489221049413117e-01
      3.7558252600029547e-02 3.1130350354119360e-02
      -9.7156003946920380e-02 -1.1523035307931055e-01
      1.4479731555708375e-01 3.7733625844228409e-02
      5.1498173514042234e-02 3.3115728697955024e-02
      8.9730933778628466e-02 4.4171900553877021e-02
      -1.0220345590108766e-01 -8.4927812934436284e-02
      1.4817420252717137e-01 3.7892311730226842e-02
      2.9887463832948966e-02 3.5518321269116575e-02
      -3.1545787473462532e-02 2.8397099553789173e-02
      -3.4860196838872690e-02 -3.3165369369166059e-02
      2.2428001495878925e-03 6.9324633354098997e-02
      3.5363524409468647e-02 3.3985400026928590e-02
      3.6311437658742611e-02 -3.7252788530248965e-02
      1.9666007659060673e-05 3.3201244267322842e-02
      3.1231420326952954e-03 3.6091711205751408e-02
      -7.3402639167221895e-02 7.3453773388053409e-02
      -3.6499792846052280e-02 1.4230798008067841e-02
      -2.3284794463303477e-03 3.0038935648930482e-02
      3.4898472265306922e-02 -2.8728505023977880e-03
      4.8023569712582412e-02 -5.9177009263066134e-02
      3.4652117680796159e-02 3.4220806790388948e-02
      -2.8035087573841069e-02 -5.0871679559817397e-02
      7.4051971978090339e-02 3.5471227452882746e-02
      3.5110543779298030e-02 1.6741253296614057e-02
      2.7946397543886167e-02 3.7483424735840883e-02
      -3.2429064340498900e-02 -2.8127638446435101e-02
      1.4859996669313794e-01 3.6521319077773708e-02
      3.0738230903103233e-02 3.6148249922926715e-02
      -3.0401701254712029e-02 2.7047698530996572e-02
      -3.5371024902437875e-02 -3.3622879947292308e-02
      2.3956652999101145e-03 6.9538807606090547e-02
      3.4122900078779841e-02 3.3577121043080103e-02
      3.6505312669604627e-02 -3.7658985929150124e-02
      1.6192432792209715e-03 3.3659542487755600e-02
      2.4233985455564852e-03 3.4694117323411107e-02
      -7.5326256682168385e-02 7.3301979299707484e-02
      -3.6490208567564374e-02 1.5621382495215858e-02
      -9.0090828476775914e-04 3.0151779875007639e-02
      3.2908072651472768e-02 -3.5681649382994325e-03
      4.9625142241812734e-02 -5.9933398387372765e-02
      3.5146054378661147e-02 3.4495641704419690e-02
      -2.8682071220855084e-02 -5.0970346578432781e-02
      7.5529009350769574e-02 3.6370248212924894e-02
      3.6320285315249452e-02 1.6647427027680094e-02
      2.8725290477063941e-02 3.7470218007831339e-02
      -3.1373413784311299e-02 -2.9553291001418881e-02
      -3.4780850677369074e-01 2.6034373835215219e-02
      1.8632719540537097e-02 1.5135887670664734e-02
      -1.6938190840090475e-02 2.3585089042836842e-02
      -1.5638852710820602e-02 -1.5105306980051478e-02
      -4.7805374425172725e-03 4.2462753554129248e-02
      1.5433767399760491e-02 1.4788638849718424e-02
      1.5532891337875332e-02 -1.2261041957011963e-02
      -2.8956736981154163e-03 1.7075418547493830e-02
      -6.7238927274111812e-03 1.1008285504905617e-02
      -4.5018500802746393e-02 4.5859685548727006e-02
      -1.3472611544249535e-02 1.8491814106533343e-02
      9.0839171003326540e-03 1.5865588655918670e-02
      1.5026636358217634e-02 -9.1652943994935908e-04
      2.8287367232262793e-02 -3.1677354254948970e-02
      1.3968441666204069e-02 1.6994079964084603e-02
      -5.3927141543932636e-03 -2.9491461879847278e-02
      4.6394505748271593e-02 1.2967689248407183e-02
      1.2919725936073984e-02 1.9033003498642516e-02
      1.5846281605079830e-02 1.4067072712443701e-02
      -2.3924785734360653e-02 -8.0208773668759784e-03
      -6.1532614493061388e-01 -1.7561281729077748e-02
      -2.1281980795249771e-02 2.3050445160612228e-02
      1.8777109325633416e-02 4.2252764880737793e-02
      -2.6287435930551516e-02 1.5567312928450752e-02
      -2.7155503036524292e-02 -7.8731589873626742e-03
      3.0840143886283065e-02 -1.2872851288640606e-02
      2.7717624803072501e-02 -8.8479484612667154e-03
      -2.6257022355506213e-02 3.0096440139636711e-02
      -2.8054757426123070e-02 -5.3471631027553175e-03
      6.8604183239144283e-03 -6.5686384564537991e-03
      1.1632194090769233e-02 4.0343645600187536e-02
      3.0409272627764716e-02 -2.0561571166237202e-02
      3.0672895111893833e-02 -2.8752792516359173e-02
      -1.7316520569685846e-02 1.5744070006648073e-02
      2.5398982623439630e-02 3.1888711298055816e-02
      3.0726371714513787e-02 1.6354728547494497e-02
      -2.8062113545559331e-03 2.0662001052199896e-02
      3.9533886552263892e-03 4.1943020933124617e-02
      -2.0603962615108506e-02 1.5791311986018356e-02
      2.0152451492518535e-02 2.7464834194344444e-02
      -6.0873933402881153e-01 -3.3853306323104820e-02
      -3.3954433817017377e-02 1.3784898641482888e-02
      3.1018924185822187e-02 2.9610926586890129e-02
      -1.7200770047755914e-02 2.5884501189873281e-02
      -2.3979508752769951e-02 -3.1582376366932570e-02
      1.8064295690207718e-02 -2.5082626301506206e-02
      1.8009611582254829e-02 6.3089734216754609e-04
      -2.3372281973846477e-02 1.9000100734286745e-02
      -2.1781618034896155e-02 -1.7668812299816365e-02
      2.9696260602422576e-02 -3.0714630403530282e-02
      2.3026359812135667e-02 3.0318357371060721e-02
      2.5599480096723887e-02 -3.6052491386608737e-02
      1.9186094973641248e-02 -2.2434802379577581e-02
      -3.4794514050397352e-02 3.6502227315122350e-02
      1.2793126058407938e-02 2.1647095961811771e-02
      4.3738486170011921e-02 3.5550890047968887e-02
      -2.8661346308230751e-02 1.0260348559681845e-02
      -8.5476259090006800e-03 3.1747646285462491e-02
      -3.3844445643489422e-02 4.1205300189135754e-03
      3.4217393771152141e-02 3.9617244811808457e-02
      -3.6095288932632569e-01 -2.8546982942001479e-02
      -2.6384002042482976e-02 -5.0557443068836314e-03
      2.4631229391530344e-02 1.1405801393858464e-03
      4.5118343730451305e-03 1.9959194645743073e-02
      -2.1470988113131667e-02 -2.4939084391039076e-02
      -2.7538347193892666e-03 -1.8446976791927531e-02
      -3.3013194442847605e-03 3.4650741367857215e-03
      -1.8877267271889351e-02 -3.1063046312698687e-03
      -1.8528428577987980e-02 -1.2354528887462185e-02
      2.4595424725157095e-02 -2.3812390858140377e-02
      1.7281631419111196e-02 7.1986557804989216e-03
      2.0421848634063218e-02 -2.7906288825390001e-02
      -1.1202896238120758e-03 -1.2909907210820040e-02
      -2.9244906455506738e-02 3.0859271091261745e-02
      -6.0680245202085707e-03 -1.2973715721137640e-03
      3.6364754939820242e-02 2.8217556915371447e-02
      -2.2765960015743585e-02 -5.6176921441422568e-03
      -6.7454022563620307e-03 5.5070483006935105e-03
      -2.7193395068231679e-02 1.2472777368954340e-03
      2.7593550028307736e-02 3.0911533686850765e-02
      -3.6347338464422563e-01 6.4060930343236401e-03
      2.9619227587159959e-03 3.0165050718308031e-03
      -6.5910983821593509e-04 2.2574487151250898e-02
      -4.4976009584670081e-03 -2.4396136885177070e-03
      -4.4445190198900891e-02 1.1945789039662777e-02
      6.4821998951746307e-03 1.0956530536129928e-03
      5.4608825037329575e-03 -5.7573985766372713e-03
      -4.2326644871261677e-02 6.3005340057317180e-03
      -3.9076614631724682e-02 5.3037049602506364e-04
      -1.4356317573954648e-02 1.2471862839472027e-02
      -2.4667976604326328e-03 2.2468001239169335e-02
      4.4162677913953195e-02 2.0942995505950661e-03
      7.3631646083928545e-03 -2.9506409833931307e-02
      3.9517775569232264e-03 -7.4448444023097358e-03
      1.4503840130178445e-03 7.6878661992684071e-03
      1.0530487951110655e-02 -7.0806062873038436e-03
      1.2843992917082842e-02 2.0124818457675215e-03
      2.6287532743664750e-03 2.0892430752962245e-02
      3.5445545768630761e-03 8.9433270028716361e-03
      -5.8409688125824945e-03 1.7021229866324530e-03
      -7.0390450799048221e-01 -1.2748835210166167e-02
      -1.5163336522640035e-02 -2.7535412737456841e-03
      1.4006720225804552e-02 1.5599104441161927e-02
      7.7294577594685032e-04 1.3665029543390215e-02
      -5.3587685317064489e-02 -1.2352461168074013e-02
      1.3517203983881862e-03 -1.3002445508009631e-02
      1.0263817450981974e-03 1.1675989927878417e-03
      -5.1271270128258703e-02 3.6992693257552251e-03
      -4.6488393899629679e-02 -9.0914224447575433e-03
      9.6826898506346751e-03 -8.3753491665710337e-03
      1.1922074097031854e-02 2.2790104457147329e-02
      5.0325567779760667e-02 -1.6963725715821710e-02
      3.5901073978427045e-03 -3.0196479410448604e-02
      -1.6155999857576535e-02 1.3280728727824129e-02
      -2.5647826542687766e-03 2.3042297715919935e-03
      3.8267206883553631e-02 1.3827156363370270e-02
      -9.8165640249086028e-03 -4.0862663105844859e-03
      -4.8750193194785560e-03 2.2706015737222449e-02
      -1.5518197239604915e-02 -8.1277787148073218e-04
      1.5015970505285785e-02 2.4039952758851832e-02
      -2.5207494571357464e-01 -1.4463206747403751e-02
      -1.3071500880380071e-02 -1.7414445563718330e-02
      1.2244264235675857e-02 -6.0292414412274082e-03
      2.0749667683594115e-02 1.0760054596236657e-02
      -3.0189741741151548e-03 -1.4896119580687431e-02
      -2.0431568159975853e-02 -9.2743127436262229e-03
      -2.0167675573874926e-02 1.6037719218196890e-02
      -3.1245954291962111e-03 -1.8989052606155146e-02
      -1.8133547238358258e-03 -9.7643893022428003e-03
      9.1841709658928190e-03 -1.1737358002718792e-02
      1.0537701431416359e-02 5.3394908654658688e-03
      2.9063000529489045e-03 -1.3224666296490580e-02
      -1.9608148691689475e-02 1.5092839907524346e-04
      -1.7618259191359446e-02 1.5472647035547111e-02
      -2.0144301581741908e-02 -2.0073754962700995e-02
      2.6646288590077203e-02 1.3165316761058298e-02
      -1.3380970709194286e-02 -1.8372006458059999e-02
      -1.4214419933487344e-02 5.7012005391437470e-03
      -1.3145159076464985e-02 -1.7491766257503150e-02
      1.3812003482486911e-02 1.4433444559205649e-02
      -4.3313390208786745e-01 5.3175153980441012e-03
      4.8303805445423752e-03 2.2743591318254708e-02
      -4.4593206384669773e-03 3.6819487897158200e-02
      -2.4465944229433656e-02 -1.6023624560045947e-03
      -1.4872860278834860e-02 7.1922496381817500e-03
      2.5760410598956156e-02 1.8558433882082568e-03
      2.6406974341668964e-02 -1.4918112847154759e-02
      -1.4769192132537650e-02 2.7349490167323676e-02
      -1.9997217517413467e-02 -2.4170875285992451e-04
      -1.1632660654297508e-02 1.0781502471705506e-02
      -2.9416339241099738e-03 2.3575580887339923e-02
      1.5271260541426133e-02 3.8493599098483912e-03
      2.8415412743003490e-02 -1.4549864170533987e-02
      3.8454738933182552e-03 -5.0989718575736951e-03
      2.2774116872535319e-02 2.8538241606967191e-02
      6.1993229356828708e-03 -6.5741640944780404e-03
      7.7238129352180445e-03 2.2159252659921996e-02
      6.6534092267800894e-03 2.2533827538298658e-02
      3.6080946842617493e-03 1.8570496019958756e-02
      -6.1231806747527049e-03 -9.1277543419582285e-04
      -8.8725070320678612e-01 -3.1784303564731199e-02
      -3.0199574818612882e-02 8.0568969896268761e-03
      2.6128318828759132e-02 2.9743195651451799e-02
      -9.9069924428191857e-03 2.3143828415846470e-02
      -5.4504480470978882e-02 -3.7597421620233190e-02
      1.3017145391118591e-02 -2.1423773174102091e-02
      1.2249025147530358e-02 4.8277477006391286e-03
      -5.4859410753428720e-02 1.4662507270098813e-02
      -4.7988470976138571e-02 -1.6363243071894924e-02
      3.8367022889244186e-02 -3.7966260323707202e-02
      2.0545945781372588e-02 2.0062047245202039e-02
      5.2246997062401559e-02 -2.9745772901890340e-02
      1.4768201824909611e-02 -2.4082772222641515e-02
      -3.4303226471011548e-02 3.6125455968138126e-02
      7.2938738851702975e-03 1.5665770664215237e-02
      4.8221646898716684e-02 3.4794159186473453e-02
      -3.8908235896451558e-02 6.4750439621102168e-03
      -8.9361712603765343e-03 2.0361070484594457e-02
      -2.9569719456110720e-02 2.8381436451643178e-03
      3.0710904383996641e-02 3.2942358724751049e-02
      -5.4859104840222817e-01 -1.7398660212920830e-02
      -1.8353613500487399e-02 3.9380918752354131e-03
      1.6807220957242679e-02 3.5898114116618175e-02
      -5.3348894802555478e-03 1.3888053999482661e-02
      -5.8778520861341180e-02 -1.3205488347996371e-02
      6.5727501767135479e-03 -1.4488269032096650e-02
      7.2890932262083159e-03 -1.1333760370838774e-03
      -5.5316766336668988e-02 6.8453420703434298e-03
      -5.3702531060249269e-02 -9.6256745385300494e-03
      1.5187926127393430e-02 -1.5096327011896201e-02
      1.2219750995155912e-02 4.9276661888702486e-02
      5.3429890709912616e-02 -1.8602281129430836e-02
      7.6033982832483926e-03 -4.5556940331598211e-02
      -1.6274212127080322e-02 1.7103582265177636e-02
      5.7426951174511113e-03 6.1855830094256041e-03
      3.6045834525010673e-02 1.7062077605937951e-02
      -1.1836791648423500e-02 5.2640877299410032e-03
      -1.7449458220830491e-03 4.8701548957254016e-02
      -1.7890411795939844e-02 3.2348612837686495e-03
      1.6649280821509342e-02 2.3391628289269901e-02
      -6.5196362645171002e-01 -1.5906162778735165e-02
      -1.6350430308726904e-02 7.6205238460393026e-03
      1.6383622626128490e-02 4.5591330505399902e-02
      -6.8038114495051353e-03 1.2480330623703200e-02
      -5.8815213723116065e-02 -1.2028017104413731e-02
      6.8930461761698121e-03 -1.1726242597292718e-02
      8.8859082756779107e-03 -1.8096008192789005e-03
      -5.9433072881348518e-02 9.9640501384659318e-03
      -5.8491828854754888e-02 -7.0053491892860314e-03
      1.5272494563845867e-02 -1.1903765796849368e-02
      1.1746015364464337e-02 5.5502738648903961e-02
      5.4578382122356550e-02 -1.7929743035393686e-02
