<?xml version="1.0"?>
<opencv_storage>
<shapeML type_id="opencv-ml-ann-mlp">
  <layer_sizes type_id="opencv-matrix">
    <rows>1</rows>
    <cols>3</cols>
    <dt>i</dt>
    <data>
      1600 40 1</data></layer_sizes>
  <activation_function>SIGMOID_SYM</activation_function>
  <f_param1>5.9999999999999998e-01</f_param1>
  <f_param2>1.</f_param2>
  <min_val>-9.4999999999999996e-01</min_val>
  <max_val>9.4999999999999996e-01</max_val>
  <min_val1>-9.7999999999999998e-01</min_val1>
  <max_val1>9.7999999999999998e-01</max_val1>
  <training_params>
    <train_method>BACKPROP</train_method>
    <dw_scale>1.0000000000000001e-01</dw_scale>
    <moment_scale>1.0000000000000001e-01</moment_scale>
    <term_criteria><epsilon>9.9999999747524271e-07</epsilon>
      <iterations>4000</iterations></term_criteria></training_params>
  <input_scale>
    6.5386041774035425e-02 -6.0192926542884599e-02
    3.2872162068482015e-02 -1.2104550653376049e-01
    4.6318900729807128e-02 -8.5280286542244163e-02
    6.5386041774035425e-02 -6.0192926542884599e-02
    3.2872162068482015e-02 -1.2104550653376049e-01
    3.7888174407254539e-02 -1.0463701596227337e-01
    2.9455753341062627e-02 -1.3558153613666010e-01
    2.6938866495732093e-02 -1.4879590519303287e-01
    2.3416309795275654e-02 -1.7245224542369073e-01
    1.8542400150362796e-02 -2.2190634114964861e-01
    1.7327795484381067e-02 -2.3927371020851113e-01
    1.6339112158249389e-02 -2.5570415597837942e-01
    1.6339112158249389e-02 -2.5570415597837942e-01
    1.5515041270989387e-02 -2.7137319479402017e-01
    1.4503010386683442e-02 -2.9372522840900400e-01
    1.4503010386683442e-02 -2.9372522840900400e-01
    1.3221712281388322e-02 -3.2863353450309968e-01
    1.5515041270989387e-02 -2.7137319479402017e-01
    1.5909387283706913e-02 -2.6362486509824812e-01
    1.2808985949640408e-02 -3.4195830721151921e-01
    1.1803148833712194e-02 -3.8030001206094349e-01
    1.2439163842293826e-02 -3.5498769015643572e-01
    1.5909387283706913e-02 -2.6362486509824812e-01
    1.6339112158249389e-02 -2.5570415597837942e-01
    1.9263093322601833e-02 -2.1279807063957260e-01
    2.0081790300106900e-02 -2.0335531332779730e-01
    2.0081790300106900e-02 -2.0335531332779730e-01
    1.5515041270989387e-02 -2.7137319479402017e-01
    1.7327795484381067e-02 -2.3927371020851113e-01
    2.2118258880193822e-02 -1.8325416653445786e-01
    2.1022480482488514e-02 -1.9352824992904588e-01
    2.1022480482488514e-02 -1.9352824992904588e-01
    2.2118258880193822e-02 -1.8325416653445786e-01
    2.3416309795275654e-02 -1.7245224542369073e-01
    2.6938866495732093e-02 -1.4879590519303287e-01
    2.4986687573572825e-02 -1.6101529717988264e-01
    3.2872162068482015e-02 -1.2104550653376049e-01
    3.7888174407254539e-02 -1.0463701596227337e-01
    4.6318900729807128e-02 -8.5280286542244163e-02
    3.7888174407254539e-02 -1.0463701596227337e-01
    3.7888174407254539e-02 -1.0463701596227337e-01
    2.9455753341062627e-02 -1.3558153613666010e-01
    4.6318900729807128e-02 -8.5280286542244163e-02
    3.7888174407254539e-02 -1.0463701596227337e-01
    2.6938866495732093e-02 -1.4879590519303287e-01
    2.9455753341062627e-02 -1.3558153613666010e-01
    2.4986687573572825e-02 -1.6101529717988264e-01
    2.3416309795275654e-02 -1.7245224542369073e-01
    1.6339112158249389e-02 -2.5570415597837942e-01
    1.5909387283706913e-02 -2.6362486509824812e-01
    1.4212118249710127e-02 -3.0091723297671441e-01
    1.3009508805881283e-02 -3.3533535333571252e-01
    1.2808985949640408e-02 -3.4195830721151921e-01
    1.1950800409783824e-02 -3.7405573845785473e-01
    1.1043116626634403e-02 -4.1680788567315052e-01
    1.0360989385268374e-02 -4.5782855622990942e-01
    1.0447845497793687e-02 -4.5204847758504452e-01
    1.0042611395711665e-02 -4.8074017006186526e-01
    9.8989761341454156e-03 -4.9208989663242736e-01
    1.0829226370040419e-02 -4.2867316659744836e-01
    1.0118130605433802e-02 -4.7504075279302016e-01
    1.0537914797648113e-02 -4.4624455081737313e-01
    1.0196277763647781e-02 -4.6932325446393214e-01
    1.0934048911439242e-02 -4.2275690917514180e-01
    1.1662182059675175e-02 -3.8649397584049860e-01
    1.1950800409783824e-02 -3.7405573845785473e-01
    1.3221712281388322e-02 -3.2863353450309968e-01
    1.2268220054154637e-02 -3.6140316116210047e-01
    1.2808985949640408e-02 -3.4195830721151921e-01
    1.5151583694560076e-02 -2.7896417632583531e-01
    1.7327795484381067e-02 -2.3927371020851113e-01
    1.7901841042864700e-02 -2.3072047842248006e-01
    1.6809676037595873e-02 -2.4759378423606918e-01
    1.7327795484381067e-02 -2.3927371020851113e-01
    1.7327795484381067e-02 -2.3927371020851113e-01
    1.8542400150362796e-02 -2.2190634114964861e-01
    2.3416309795275654e-02 -1.7245224542369073e-01
    2.9455753341062627e-02 -1.3558153613666010e-01
    2.9455753341062627e-02 -1.3558153613666010e-01
    2.9455753341062627e-02 -1.3558153613666010e-01
    6.5386041774035425e-02 -6.0192926542884599e-02
    2.9455753341062627e-02 -1.3558153613666010e-01
    2.9455753341062627e-02 -1.3558153613666010e-01
    3.2872162068482015e-02 -1.2104550653376049e-01
    2.3416309795275654e-02 -1.7245224542369073e-01
    2.1022480482488514e-02 -1.9352824992904588e-01
    1.9263093322601833e-02 -2.1279807063957260e-01
    1.6339112158249389e-02 -2.5570415597837942e-01
    1.3446710470282819e-02 -3.2184725782662482e-01
    1.2808985949640408e-02 -3.4195830721151921e-01
    1.1803148833712194e-02 -3.8030001206094349e-01
    1.1398529822918129e-02 -3.9874279416634173e-01
    1.0829226370040419e-02 -4.2867316659744836e-01
    9.7644871513315502e-03 -5.0338222570763369e-01
    9.8306391899856353e-03 -4.9774265212833407e-01
    9.3554014277175222e-03 -5.4257950879524186e-01
    9.1578292115039664e-03 -5.6484300389366526e-01
    8.9820776266421945e-03 -5.8707767303377956e-01
    8.9820776266421945e-03 -5.8707767303377956e-01
    9.2050551157906915e-03 -5.5928186858757156e-01
    9.0241310979964594e-03 -5.8151891732576466e-01
    9.2050551157906915e-03 -5.5928186858757156e-01
    9.3554014277175222e-03 -5.4257950879524186e-01
    9.8306391899856353e-03 -4.9774265212833407e-01
    9.4085893569202522e-03 -5.3700287990219919e-01
    9.3554014277175222e-03 -5.4257950879524186e-01
    1.0631372601671430e-02 -4.4041516463602765e-01
    1.0934048911439242e-02 -4.2275690917514180e-01
    1.1156691387986264e-02 -4.1082401500888049e-01
    1.2268220054154637e-02 -3.6140316116210047e-01
    1.3685772421379864e-02 -3.1497039417435607e-01
    1.4212118249710127e-02 -3.0091723297671441e-01
    1.4503010386683442e-02 -2.9372522840900400e-01
    1.4503010386683442e-02 -2.9372522840900400e-01
    1.5151583694560076e-02 -2.7896417632583531e-01
    1.4815283234159288e-02 -2.8641098093474004e-01
    1.8542400150362796e-02 -2.2190634114964861e-01
    2.1022480482488514e-02 -1.9352824992904588e-01
    2.2118258880193822e-02 -1.8325416653445786e-01
    2.9455753341062627e-02 -1.3558153613666010e-01 1. 0.
    4.6318900729807128e-02 -8.5280286542244163e-02
    2.3416309795275654e-02 -1.7245224542369073e-01
    2.2118258880193822e-02 -1.8325416653445786e-01
    2.0081790300106900e-02 -2.0335531332779730e-01
    1.9263093322601833e-02 -2.1279807063957260e-01
    1.4815283234159288e-02 -2.8641098093474004e-01
    1.1803148833712194e-02 -3.8030001206094349e-01
    1.1950800409783824e-02 -3.7405573845785473e-01
    1.1043116626634403e-02 -4.1680788567315052e-01
    1.1043116626634403e-02 -4.1680788567315052e-01
    1.0277183834930452e-02 -4.6358632497276536e-01
    9.6383686760823217e-03 -5.1462625530417883e-01
    9.2536907109700001e-03 -5.5371813550298821e-01
    9.2050551157906915e-03 -5.5928186858757156e-01
    8.7534494523541315e-03 -6.2048368229954287e-01
    8.4756629793684129e-03 -6.7101548425108049e-01
    8.3978025776688548e-03 -6.8804378880936701e-01
    8.5031435603228640e-03 -6.6536330927797138e-01
    8.6212262682850913e-03 -6.4285714285714279e-01
    8.3978025776688548e-03 -6.8804378880936701e-01
    8.3733169508116226e-03 -6.9374593509432037e-01
    8.3733169508116226e-03 -6.9374593509432037e-01
    8.4756629793684129e-03 -6.7101548425108049e-01
    8.6212262682850913e-03 -6.4285714285714279e-01
    8.8253771155122097e-03 -6.0933334777679071e-01
    9.1578292115039664e-03 -5.6484300389366526e-01
    9.0674125506121205e-03 -5.7596073584122842e-01
    1.0360989385268374e-02 -4.5782855622990942e-01
    1.0728408211274037e-02 -4.3455862862994471e-01
    1.0934048911439242e-02 -4.2275690917514180e-01
    1.1662182059675175e-02 -3.8649397584049860e-01
    1.4212118249710127e-02 -3.0091723297671441e-01
    1.5151583694560076e-02 -2.7896417632583531e-01
    1.4815283234159288e-02 -2.8641098093474004e-01
    1.4503010386683442e-02 -2.9372522840900400e-01
    1.6809676037595873e-02 -2.4759378423606918e-01
    1.7901841042864700e-02 -2.3072047842248006e-01
    2.3416309795275654e-02 -1.7245224542369073e-01
    2.6938866495732093e-02 -1.4879590519303287e-01
    6.5386041774035425e-02 -6.0192926542884599e-02
    2.6938866495732093e-02 -1.4879590519303287e-01
    2.6938866495732093e-02 -1.4879590519303287e-01
    1.7327795484381067e-02 -2.3927371020851113e-01
    1.5515041270989387e-02 -2.7137319479402017e-01
    1.3009508805881283e-02 -3.3533535333571252e-01
    1.1398529822918129e-02 -3.9874279416634173e-01
    1.0537914797648113e-02 -4.4624455081737313e-01
    1.0277183834930452e-02 -4.6358632497276536e-01
    1.0042611395711665e-02 -4.8074017006186526e-01
    9.4634130363752105e-03 -5.3142017971413869e-01
    9.3554014277175222e-03 -5.4257950879524186e-01
    8.9820776266421945e-03 -5.8707767303377956e-01
    8.6212262682850913e-03 -6.4285714285714279e-01
    8.5904389696724280e-03 -6.4846959875758303e-01
    8.3978025776688548e-03 -6.8804378880936701e-01
    8.0831514426787550e-03 -7.8132267103871356e-01
    8.1305603620603194e-03 -7.6345081233642209e-01
    8.3733169508116226e-03 -6.9374593509432037e-01
    8.3978025776688548e-03 -6.8804378880936701e-01
    8.3495375149361221e-03 -6.9946215896784369e-01
    8.3978025776688548e-03 -6.8804378880936701e-01
    8.3978025776688548e-03 -6.8804378880936701e-01
    8.3733169508116226e-03 -6.9374593509432037e-01
    8.5904389696724280e-03 -6.4846959875758303e-01
    8.3978025776688548e-03 -6.8804378880936701e-01
    8.5031435603228640e-03 -6.6536330927797138e-01
    8.8628971555129304e-03 -6.0376487120768596e-01
    9.4085893569202522e-03 -5.3700287990219919e-01
    9.8989761341454156e-03 -4.9208989663242736e-01
    1.0728408211274037e-02 -4.3455862862994471e-01
    1.1043116626634403e-02 -4.1680788567315052e-01
    1.2619161097645649e-02 -3.4850751767866145e-01
    1.4503010386683442e-02 -2.9372522840900400e-01
    1.4503010386683442e-02 -2.9372522840900400e-01
    1.3446710470282819e-02 -3.2184725782662482e-01
    1.5515041270989387e-02 -2.7137319479402017e-01
    1.7901841042864700e-02 -2.3072047842248006e-01
    1.9263093322601833e-02 -2.1279807063957260e-01
    2.2118258880193822e-02 -1.8325416653445786e-01
    4.6318900729807128e-02 -8.5280286542244163e-02
    2.2118258880193822e-02 -1.8325416653445786e-01
    1.8542400150362796e-02 -2.2190634114964861e-01
    1.5515041270989387e-02 -2.7137319479402017e-01
    1.2619161097645649e-02 -3.4850751767866145e-01
    1.1275058570639825e-02 -4.0480309561376554e-01
    1.0447845497793687e-02 -4.5204847758504452e-01
    9.6383686760823217e-03 -5.1462625530417883e-01
    9.2536907109700001e-03 -5.5371813550298821e-01
    9.0674125506121205e-03 -5.7596073584122842e-01
    9.0241310979964594e-03 -5.8151891732576466e-01
    8.7889048706273881e-03 -6.1490605195941794e-01
    8.4756629793684129e-03 -6.7101548425108049e-01
    8.5314193790007303e-03 -6.5972203284547171e-01
    8.2016273980463940e-03 -7.3992299161436603e-01
    8.0405241108861911e-03 -7.9940806503178963e-01
    7.8864768103086205e-03 -9.0025413986266634e-01
    7.9688079573416639e-03 -8.3629331162426779e-01
    7.8993948808998380e-03 -8.8718474637109734e-01
    8.1142120337995977e-03 -7.6938548399908457e-01
    8.0405241108861911e-03 -7.9940806503178963e-01
    8.1142120337995977e-03 -7.6938548399908457e-01
    8.2611801338290294e-03 -7.2248046477259298e-01
    8.1649392061483757e-03 -7.5164602800282887e-01
    8.0984120009393260e-03 -7.7534254969281924e-01
    8.0273407537469477e-03 -8.0548713447796538e-01
    8.0405241108861911e-03 -7.9940806503178963e-01
    8.4756629793684129e-03 -6.7101548425108049e-01
    8.9820776266421945e-03 -5.8707767303377956e-01
    9.3037878736385426e-03 -5.4815096786202533e-01
    9.8989761341454156e-03 -4.9208989663242736e-01
    9.7004262992273927e-03 -5.0900973378797887e-01
    1.0537914797648113e-02 -4.4624455081737313e-01
    1.1398529822918129e-02 -3.9874279416634173e-01
    1.2619161097645649e-02 -3.4850751767866145e-01
    1.2105638631145305e-02 -3.6775793892089437e-01
    1.4212118249710127e-02 -3.0091723297671441e-01
    1.5515041270989387e-02 -2.7137319479402017e-01
    1.7901841042864700e-02 -2.3072047842248006e-01
    1.8542400150362796e-02 -2.2190634114964861e-01
    3.7888174407254539e-02 -1.0463701596227337e-01
    1.7901841042864700e-02 -2.3072047842248006e-01
    1.6339112158249389e-02 -2.5570415597837942e-01
    1.2268220054154637e-02 -3.6140316116210047e-01
    1.1275058570639825e-02 -4.0480309561376554e-01
    1.0631372601671430e-02 -4.4041516463602765e-01
    9.7644871513315502e-03 -5.0338222570763369e-01
    9.4085893569202522e-03 -5.3700287990219919e-01
    8.5904389696724280e-03 -6.4846959875758303e-01
    8.5314193790007303e-03 -6.5972203284547171e-01
    8.5031435603228640e-03 -6.6536330927797138e-01
    8.2208641009581997e-03 -7.3409051818484139e-01
    8.0405241108861911e-03 -7.9940806503178963e-01
    8.0024700092048220e-03 -8.1772531989365527e-01
    7.8806635796264020e-03 -9.0684531263751467e-01
    7.8493288090908907e-03 -9.6104688288923312e-01
    7.8616530886369777e-03 -9.3360678104950678e-01
    7.8864768103086205e-03 -9.0025413986266634e-01
    7.8472803921325277e-03 -9.6802011191035553e-01
    7.8517890281793838e-03 -9.5411992306324200e-01
    7.8864768103086205e-03 -9.0025413986266634e-01
    8.0146582865168094e-03 -8.1159265320143148e-01
    8.0542153815440463e-03 -7.9335475337700101e-01
    8.0273407537469477e-03 -8.0548713447796538e-01
    8.0984120009393260e-03 -7.7534254969281924e-01
    7.9220497324288333e-03 -8.6785053837744741e-01
    7.9688079573416639e-03 -8.3629331162426779e-01
    8.0831514426787550e-03 -7.8132267103871356e-01
    8.3978025776688548e-03 -6.8804378880936701e-01
    8.4756629793684129e-03 -6.7101548425108049e-01
    8.9014975133838176e-03 -5.9819991412144324e-01
    9.1119638736861207e-03 -5.7040235945746331e-01
    9.3037878736385426e-03 -5.4815096786202533e-01
    9.9695979512439015e-03 -4.8642280256700837e-01
    1.0196277763647781e-02 -4.6932325446393214e-01
    1.1043116626634403e-02 -4.1680788567315052e-01
    1.1950800409783824e-02 -3.7405573845785473e-01
    1.3685772421379864e-02 -3.1497039417435607e-01
    1.5515041270989387e-02 -2.7137319479402017e-01
    2.0081790300106900e-02 -2.0335531332779730e-01
    2.2118258880193822e-02 -1.8325416653445786e-01
    1.5909387283706913e-02 -2.6362486509824812e-01
    1.4503010386683442e-02 -2.9372522840900400e-01
    1.1527446246461613e-02 -3.9264063297965823e-01
    1.0537914797648113e-02 -4.4624455081737313e-01
    1.0728408211274037e-02 -4.3455862862994471e-01
    8.9820776266421945e-03 -5.8707767303377956e-01
    8.4230106627574009e-03 -6.8235508762554542e-01
    8.2407110167906882e-03 -7.2827655484128540e-01
    8.3040356093422602e-03 -7.1093936633773169e-01
    8.0684219239594412e-03 -7.8732651481813598e-01
    7.8864768103086205e-03 -9.0025413986266634e-01
    7.8517890281793838e-03 -9.5411992306324200e-01
    7.8435972794408323e-03 -9.8922769298651803e-01
    7.8472803921325277e-03 -9.6802011191035553e-01
    7.8517890281793838e-03 -9.5411992306324200e-01
    7.8431883647425669e-03 -9.9639638467614056e-01
    7.8493288090908907e-03 -9.6104688288923312e-01
    7.8435972794408323e-03 -9.8922769298651803e-01
    7.8435972794408323e-03 -1.0108896132708944e+00
    7.8431883647425669e-03 -9.9639638467614056e-01
    7.8579497109853118e-03 -9.4040084086340459e-01
    7.8431883647425669e-03 -1.0036166483332141e+00
    7.8435972794408323e-03 -1.0108896132708944e+00
    7.8435972794408323e-03 -1.0108896132708944e+00
    7.9393814166028448e-03 -8.5513156882435326e-01
    7.8993948808998380e-03 -8.8718474637109734e-01
    8.0024700092048220e-03 -8.1772531989365527e-01
    8.2208641009581997e-03 -7.3409051818484139e-01
    8.2208641009581997e-03 -7.3409051818484139e-01
    8.2611801338290294e-03 -7.2248046477259298e-01
    8.5031435603228640e-03 -6.6536330927797138e-01
    8.8628971555129304e-03 -6.0376487120768596e-01
    8.9820776266421945e-03 -5.8707767303377956e-01
    9.9695979512439015e-03 -4.8642280256700837e-01
    1.0277183834930452e-02 -4.6358632497276536e-01
    1.1527446246461613e-02 -3.9264063297965823e-01
    1.2619161097645649e-02 -3.4850751767866145e-01
    1.4815283234159288e-02 -2.8641098093474004e-01
    1.9263093322601833e-02 -2.1279807063957260e-01
    1.7901841042864700e-02 -2.3072047842248006e-01
    1.5151583694560076e-02 -2.7896417632583531e-01
    1.4212118249710127e-02 -3.0091723297671441e-01
    1.2808985949640408e-02 -3.4195830721151921e-01
    1.1043116626634403e-02 -4.1680788567315052e-01
    9.7644871513315502e-03 -5.0338222570763369e-01
    8.5904389696724280e-03 -6.4846959875758303e-01
    8.0984120009393260e-03 -7.7534254969281924e-01
    7.9795507807873325e-03 -8.3007493049959202e-01
    7.9795507807873325e-03 -8.3007493049959202e-01
    7.8927195697839850e-03 -8.9370090002265234e-01
    7.8444153007476859e-03 -9.8210946797808574e-01
    7.8431883647425669e-03 -9.9639638467614056e-01
    7.8431883647425669e-03 -9.9639638467614056e-01
    7.8472803921325277e-03 -9.6802011191035553e-01
    7.8435972794408323e-03 -9.8922769298651803e-01
    7.8472803921325295e-03 -1.0330363880834394e+00
    7.8472803921325295e-03 -1.0330363880834394e+00
    7.8431883647425669e-03 -1.0036166483332141e+00
    7.8472803921325295e-03 -1.0330363880834394e+00
    7.8456428127340362e-03 -9.7504062753923904e-01
    7.8657741001317352e-03 -1.0789172813520047e+00
    7.8657741001317352e-03 -1.0789172813520047e+00
    7.8472803921325295e-03 -1.0330363880834394e+00
    7.8444153007476859e-03 -9.8210946797808574e-01
    7.8472803921325295e-03 -1.0330363880834394e+00
    7.8657741001317318e-03 -9.2685511418158739e-01
    7.8993948808998380e-03 -8.8718474637109734e-01
    7.8993948808998380e-03 -8.8718474637109734e-01
    7.9795507807873325e-03 -8.3007493049959202e-01
    8.0273407537469477e-03 -8.0548713447796538e-01
    8.0273407537469477e-03 -8.0548713447796538e-01
    8.2208641009581997e-03 -7.3409051818484139e-01
    8.5904389696724280e-03 -6.4846959875758303e-01
    8.9014975133838176e-03 -5.9819991412144324e-01
    9.7644871513315502e-03 -5.0338222570763369e-01
    1.0360989385268374e-02 -4.5782855622990942e-01
    1.1527446246461613e-02 -3.9264063297965823e-01
    1.3940350945882222e-02 -3.0799620140360723e-01
    1.6809676037595873e-02 -2.4759378423606918e-01
    1.7901841042864700e-02 -2.3072047842248006e-01
    1.4815283234159288e-02 -2.8641098093474004e-01
    1.4212118249710127e-02 -3.0091723297671441e-01
    1.1398529822918129e-02 -3.9874279416634173e-01
    9.5199374854734922e-03 -5.2583048204961891e-01
    8.7189813575627041e-03 -6.2606692852679491e-01
    8.3978025776688548e-03 -6.8804378880936701e-01
    8.0273407537469477e-03 -8.0548713447796538e-01
    7.8927195697839850e-03 -8.9370090002265234e-01
    7.8546622096549480e-03 -9.4723823506687188e-01
    7.8472803921325277e-03 -9.6802011191035553e-01
    7.8444153007476859e-03 -9.8210946797808574e-01
    7.8444153007476859e-03 -1.0182164337125743e+00
    7.8472803921325295e-03 -1.0330363880834394e+00
    7.8472803921325295e-03 -1.0330363880834394e+00
    7.8927195697839833e-03 -1.1189425902722636e+00
    7.9065059900194530e-03 -1.1354541815269814e+00
    7.8927195697839833e-03 -1.1189425902722636e+00
    7.8435972794408323e-03 -1.0108896132708944e+00
    7.8616530886369777e-03 -1.0711147565529227e+00
    7.8703147063770400e-03 -1.0867853340033278e+00
    7.8806635796264020e-03 -1.1027239001672178e+00
    7.9795507807873343e-03 -1.2047105186011782e+00
    7.8752770742763732e-03 -1.0947203745307283e+00
    7.9220497324288333e-03 -1.1522721433919050e+00
    7.8752770742763732e-03 -1.0947203745307283e+00
    7.8456428127340362e-03 -9.7504062753923904e-01
    7.8546622096549498e-03 -1.0557006283951400e+00
    7.8472803921325277e-03 -9.6802011191035553e-01
    7.8616530886369777e-03 -9.3360678104950678e-01
    7.8864768103086205e-03 -9.0025413986266634e-01
    7.9795507807873325e-03 -8.3007493049959202e-01
    8.0984120009393260e-03 -7.7534254969281924e-01
    8.2407110167906882e-03 -7.2827655484128540e-01
    8.4489582065571511e-03 -6.7667919787895447e-01
    9.2536907109700001e-03 -5.5371813550298821e-01
    9.8989761341454156e-03 -4.9208989663242736e-01
    1.1043116626634403e-02 -4.1680788567315052e-01
    1.3685772421379864e-02 -3.1497039417435607e-01
    1.5515041270989387e-02 -2.7137319479402017e-01
    1.6809676037595873e-02 -2.4759378423606918e-01
    1.3685772421379864e-02 -3.1497039417435607e-01
    1.2268220054154637e-02 -3.6140316116210047e-01
    1.0118130605433802e-02 -4.7504075279302016e-01
    8.9412123618279847e-03 -5.9263775798975382e-01
    8.4230106627574009e-03 -6.8235508762554542e-01
    8.2611801338290294e-03 -7.2248046477259298e-01
    8.0542153815440463e-03 -7.9335475337700101e-01
    7.9907695350593336e-03 -8.2388584087109951e-01
    7.8444153007476859e-03 -9.8210946797808574e-01
    7.8579497109853118e-03 -1.0633763354378498e+00
    7.8444153007476859e-03 -1.0182164337125743e+00
    7.8435972794408323e-03 -1.0108896132708944e+00
    7.8579497109853118e-03 -1.0633763354378498e+00
    7.8657741001317352e-03 -1.0789172813520047e+00
    7.9688079573416622e-03 -1.1957527174978562e+00
    8.0024700092048238e-03 -1.2229045324535748e+00
    7.9065059900194530e-03 -1.1354541815269814e+00
    7.8703147063770400e-03 -1.0867853340033278e+00
    8.0024700092048238e-03 -1.2229045324535748e+00
    7.9140563714853764e-03 -1.1438239957848990e+00
    7.9393814166028448e-03 -1.1694106924093719e+00
    8.0542153815440481e-03 -1.2604701689167310e+00
    7.9907695350593354e-03 -1.2137603905690308e+00
    7.9487283664424133e-03 -1.1781048486797590e+00
    7.9487283664424133e-03 -1.1781048486797590e+00
    7.8927195697839833e-03 -1.1189425902722636e+00
    8.0273407537469477e-03 -1.2414847577275063e+00
    7.8579497109853118e-03 -1.0633763354378498e+00
    7.8927195697839833e-03 -1.1189425902722636e+00
    7.8431883647425669e-03 -1.0036166483332141e+00
    7.8927195697839850e-03 -8.9370090002265234e-01
    7.9220497324288333e-03 -8.6785053837744741e-01
    8.0684219239594412e-03 -7.8732651481813598e-01
    8.1474662070246048e-03 -7.5753787784086168e-01
    8.6528959628419128e-03 -6.3725298787716611e-01
    9.4085893569202522e-03 -5.3700287990219919e-01
    1.0631372601671430e-02 -4.4041516463602765e-01
    1.2268220054154637e-02 -3.6140316116210047e-01
    1.4815283234159288e-02 -2.8641098093474004e-01
    1.7901841042864700e-02 -2.3072047842248006e-01
    1.3221712281388322e-02 -3.2863353450309968e-01
    1.0631372601671430e-02 -4.4041516463602765e-01
    8.7889048706273881e-03 -6.1490605195941794e-01
    8.3264487016837755e-03 -7.0519309220758619e-01
    8.2822839725516066e-03 -7.1670161307603608e-01
    8.1305603620603194e-03 -7.6345081233642209e-01
    7.9304900179384616e-03 -8.6147452938544511e-01
    7.8806635796264020e-03 -9.0684531263751467e-01
    7.8431883647425669e-03 -9.9639638467614056e-01
    7.8616530886369777e-03 -1.0711147565529227e+00
    7.8579497109853118e-03 -1.0633763354378498e+00
    7.8431883647425669e-03 -9.9639638467614056e-01
    7.8435972794408323e-03 -1.0108896132708944e+00
    7.8864768103086205e-03 -1.1107974467660318e+00
    8.0146582865168112e-03 -1.2321452098603554e+00
    8.0273407537469477e-03 -1.2414847577275063e+00
    7.9487283664424133e-03 -1.1781048486797590e+00
    7.9795507807873343e-03 -1.2047105186011782e+00
    8.0542153815440481e-03 -1.2604701689167310e+00
    7.9795507807873343e-03 -1.2047105186011782e+00
    8.0024700092048238e-03 -1.2229045324535748e+00
    7.9140563714853764e-03 -1.1438239957848990e+00
    7.9795507807873343e-03 -1.2047105186011782e+00
    7.9585355612476240e-03 -1.1868848521124162e+00
    8.0024700092048238e-03 -1.2229045324535748e+00
    8.0273407537469477e-03 -1.2414847577275063e+00
    8.1142120337995977e-03 -1.2997385846198128e+00
    7.9585355612476240e-03 -1.1868848521124162e+00
    7.9140563714853764e-03 -1.1438239957848990e+00
    7.9393814166028448e-03 -1.1694106924093719e+00
    7.8472803921325295e-03 -1.0330363880834394e+00
    7.8456428127340362e-03 -1.0255982897079403e+00
    7.8657741001317318e-03 -9.2685511418158739e-01
    7.9688079573416639e-03 -8.3629331162426779e-01
    8.2016273980463940e-03 -7.3992299161436603e-01
    8.9014975133838176e-03 -5.9819991412144324e-01
    9.9695979512439015e-03 -4.8642280256700837e-01
    1.2808985949640408e-02 -3.4195830721151921e-01
    1.4815283234159288e-02 -2.8641098093474004e-01
    1.5151583694560076e-02 -2.7896417632583531e-01
    1.2105638631145305e-02 -3.6775793892089437e-01
    9.8989761341454156e-03 -4.9208989663242736e-01
    8.7534494523541315e-03 -6.2048368229954287e-01
    8.1829894296367653e-03 -7.4577461426418823e-01
    7.9487283664424150e-03 -8.4882088476305639e-01
    7.8864768103086205e-03 -9.0025413986266634e-01
    7.8703147063770400e-03 -9.2014491612281746e-01
    7.8444153007476859e-03 -9.8210946797808574e-01
    7.8616530886369777e-03 -1.0711147565529227e+00
    7.8435972794408323e-03 -9.8922769298651803e-01
    7.8752770742763732e-03 -1.0947203745307283e+00
    7.8806635796264020e-03 -1.1027239001672178e+00
    7.8927195697839833e-03 -1.1189425902722636e+00
    8.0831514426787550e-03 -1.2798809468443690e+00
    8.1649392061483757e-03 -1.3304134695650069e+00
    8.0684219239594412e-03 -1.2701210757915216e+00
    8.0273407537469477e-03 -1.2414847577275063e+00
    8.0273407537469477e-03 -1.2414847577275063e+00
    8.0146582865168112e-03 -1.2321452098603554e+00
    8.0684219239594412e-03 -1.2701210757915216e+00
    8.0405241108861911e-03 -1.2509255832441892e+00
    7.9304900179384616e-03 -1.1608004251888624e+00
    8.0024700092048238e-03 -1.2229045324535748e+00
    8.0405241108861911e-03 -1.2509255832441892e+00
    8.1142120337995977e-03 -1.2997385846198128e+00
    8.5605107598563067e-03 -1.5288392320941933e+00
    8.4489582065571511e-03 -1.4778051447931191e+00
    8.2208641009581997e-03 -1.3622298275594995e+00
    7.8993948808998397e-03 -1.1271609482583616e+00
    7.8864768103086205e-03 -1.1107974467660318e+00
    7.8546622096549498e-03 -1.0557006283951400e+00
    7.8616530886369777e-03 -1.0711147565529227e+00
    7.8493288090908907e-03 -1.0405319634289441e+00
    7.8616530886369777e-03 -9.3360678104950678e-01
    8.0684219239594412e-03 -7.8732651481813598e-01
    8.5031435603228640e-03 -6.6536330927797138e-01
    9.5199374854734922e-03 -5.2583048204961891e-01
    1.1803148833712194e-02 -3.8030001206094349e-01
    1.4503010386683442e-02 -2.9372522840900400e-01
    1.3446710470282819e-02 -3.2184725782662482e-01
    1.0728408211274037e-02 -4.3455862862994471e-01
    9.1119638736861207e-03 -5.7040235945746331e-01
    8.5605107598563050e-03 -6.5409101166916506e-01
    8.0405241108861911e-03 -7.9940806503178963e-01
    7.8703147063770400e-03 -9.2014491612281746e-01
    7.8493288090908907e-03 -9.6104688288923312e-01
    7.8431883647425669e-03 -9.9639638467614056e-01
    7.8579497109853118e-03 -1.0633763354378498e+00
    7.8752770742763732e-03 -1.0947203745307283e+00
    7.8657741001317352e-03 -1.0789172813520047e+00
    7.8864768103086205e-03 -1.1107974467660318e+00
    7.9688079573416622e-03 -1.1957527174978562e+00
    7.9907695350593354e-03 -1.2137603905690308e+00
    7.9688079573416622e-03 -1.1957527174978562e+00
    8.0405241108861911e-03 -1.2509255832441892e+00
    8.0273407537469477e-03 -1.2414847577275063e+00
    8.0273407537469477e-03 -1.2414847577275063e+00
    7.9907695350593354e-03 -1.2137603905690308e+00
    8.0684219239594412e-03 -1.2701210757915216e+00
    8.1649392061483757e-03 -1.3304134695650069e+00
    8.0405241108861911e-03 -1.2509255832441892e+00
    7.9795507807873343e-03 -1.2047105186011782e+00
    8.2611801338290294e-03 -1.3841204693538096e+00
    8.3264487016837755e-03 -1.4180513267217765e+00
    8.4230106627574009e-03 -1.4655126313775919e+00
    8.6528959628419128e-03 -1.5692354826475217e+00
    8.3978025776688548e-03 -1.4533958684961910e+00
    8.2822839725516066e-03 -1.3952807999246235e+00
    8.1474662070246066e-03 -1.3200660049504127e+00
    7.9795507807873343e-03 -1.2047105186011782e+00
    7.9065059900194530e-03 -1.1354541815269814e+00
    7.8517890281793838e-03 -1.0480862791225007e+00
    7.8493288090908907e-03 -9.6104688288923312e-01
    7.8435972794408323e-03 -9.8922769298651803e-01
    7.9304900179384616e-03 -8.6147452938544511e-01
    8.6528959628419128e-03 -6.3725298787716611e-01
    9.2536907109700001e-03 -5.5371813550298821e-01
    9.7644871513315502e-03 -5.0338222570763369e-01
    1.2619161097645649e-02 -3.4850751767866145e-01
    1.1950800409783824e-02 -3.7405573845785473e-01
    9.9695979512439015e-03 -4.8642280256700837e-01
    9.1578292115039664e-03 -5.6484300389366526e-01
    8.3978025776688548e-03 -6.8804378880936701e-01
    7.9688079573416639e-03 -8.3629331162426779e-01
    7.8703147063770400e-03 -9.2014491612281746e-01
    7.8435972794408323e-03 -9.8922769298651803e-01
    7.8493288090908907e-03 -1.0405319634289441e+00
    7.8752770742763732e-03 -1.0947203745307283e+00
    7.9065059900194530e-03 -1.1354541815269814e+00
    7.9140563714853764e-03 -1.1438239957848990e+00
    7.9065059900194530e-03 -1.1354541815269814e+00
    8.0984120009393260e-03 -1.2897525105467089e+00
    8.1142120337995977e-03 -1.2997385846198128e+00
    8.0542153815440481e-03 -1.2604701689167310e+00
    8.0146582865168112e-03 -1.2321452098603554e+00
    8.0405241108861911e-03 -1.2509255832441892e+00
    8.0024700092048238e-03 -1.2229045324535748e+00
    8.0542153815440481e-03 -1.2604701689167310e+00
    8.0684219239594412e-03 -1.2701210757915216e+00
    7.9795507807873343e-03 -1.2047105186011782e+00
    7.9220497324288333e-03 -1.1522721433919050e+00
    8.0273407537469477e-03 -1.2414847577275063e+00
    8.2208641009581997e-03 -1.3622298275594995e+00
    8.1474662070246066e-03 -1.3200660049504127e+00
    8.4230106627574009e-03 -1.4655126313775919e+00
    8.3978025776688548e-03 -1.4533958684961910e+00
    8.2822839725516066e-03 -1.3952807999246235e+00
    8.3733169508116208e-03 -1.4414498873626429e+00
    8.2016273980463940e-03 -1.3514919948874644e+00
    8.2208641009581997e-03 -1.3622298275594995e+00
    8.0831514426787550e-03 -1.2798809468443690e+00
    7.9065059900194530e-03 -1.1354541815269814e+00
    7.8579497109853118e-03 -1.0633763354378498e+00
    7.8472803921325277e-03 -9.6802011191035553e-01
    7.8657741001317318e-03 -9.2685511418158739e-01
    8.2016273980463940e-03 -7.3992299161436603e-01
    8.8253771155122097e-03 -6.0933334777679071e-01
    9.5782316442717518e-03 -5.2023283425295486e-01
    1.1527446246461613e-02 -3.9264063297965823e-01
    1.2619161097645649e-02 -3.4850751767866145e-01
    9.8989761341454156e-03 -4.9208989663242736e-01
    8.5031435603228640e-03 -6.6536330927797138e-01
    8.2407110167906882e-03 -7.2827655484128540e-01
    7.8703147063770400e-03 -9.2014491612281746e-01
    7.8472803921325277e-03 -9.6802011191035553e-01
    7.8435972794408323e-03 -1.0108896132708944e+00
    7.9220497324288333e-03 -1.1522721433919050e+00
    7.9688079573416622e-03 -1.1957527174978562e+00
    7.9220497324288333e-03 -1.1522721433919050e+00
    7.9304900179384616e-03 -1.1608004251888624e+00
    7.9585355612476240e-03 -1.1868848521124162e+00
    8.0542153815440481e-03 -1.2604701689167310e+00
    7.9487283664424133e-03 -1.1781048486797590e+00
    7.9795507807873343e-03 -1.2047105186011782e+00
    7.9585355612476240e-03 -1.1868848521124162e+00
    8.0405241108861911e-03 -1.2509255832441892e+00
    8.0273407537469477e-03 -1.2414847577275063e+00
    8.0684219239594412e-03 -1.2701210757915216e+00
    8.0405241108861911e-03 -1.2509255832441892e+00
    8.0024700092048238e-03 -1.2229045324535748e+00
    7.9688079573416622e-03 -1.1957527174978562e+00
    8.0684219239594412e-03 -1.2701210757915216e+00
    8.1649392061483757e-03 -1.3304134695650069e+00
    8.2407110167906864e-03 -1.3731047544403399e+00
    8.2611801338290294e-03 -1.3841204693538096e+00
    8.3264487016837755e-03 -1.4180513267217765e+00
    8.4230106627574009e-03 -1.4655126313775919e+00
    8.1649392061483757e-03 -1.3304134695650069e+00
    8.2016273980463940e-03 -1.3514919948874644e+00
    8.1649392061483757e-03 -1.3304134695650069e+00
    8.1649392061483757e-03 -1.3304134695650069e+00
    8.0146582865168112e-03 -1.2321452098603554e+00
    7.9688079573416622e-03 -1.1957527174978562e+00
    7.8517890281793838e-03 -1.0480862791225007e+00
    7.8546622096549480e-03 -9.4723823506687188e-01
    7.9907695350593336e-03 -8.2388584087109951e-01
    8.3264487016837755e-03 -7.0519309220758619e-01
    9.4085893569202522e-03 -5.3700287990219919e-01
    1.1043116626634403e-02 -4.1680788567315052e-01
    1.2808985949640408e-02 -3.4195830721151921e-01
    9.5782316442717518e-03 -5.2023283425295486e-01
    8.5605107598563050e-03 -6.5409101166916506e-01
    8.1305603620603194e-03 -7.6345081233642209e-01
    7.8927195697839850e-03 -8.9370090002265234e-01
    7.8472803921325277e-03 -9.6802011191035553e-01
    7.8579497109853118e-03 -1.0633763354378498e+00
    7.9393814166028448e-03 -1.1694106924093719e+00
    7.9795507807873343e-03 -1.2047105186011782e+00
    8.0024700092048238e-03 -1.2229045324535748e+00
    8.0984120009393260e-03 -1.2897525105467089e+00
    8.0273407537469477e-03 -1.2414847577275063e+00
    7.9688079573416622e-03 -1.1957527174978562e+00
    8.0024700092048238e-03 -1.2229045324535748e+00
    7.9487283664424133e-03 -1.1781048486797590e+00
    7.9220497324288333e-03 -1.1522721433919050e+00
    7.9907695350593354e-03 -1.2137603905690308e+00
    7.9688079573416622e-03 -1.1957527174978562e+00
    7.9393814166028448e-03 -1.1694106924093719e+00
    7.9487283664424133e-03 -1.1781048486797590e+00
    8.0024700092048238e-03 -1.2229045324535748e+00
    8.1142120337995977e-03 -1.2997385846198128e+00
    8.0831514426787550e-03 -1.2798809468443690e+00
    8.2016273980463940e-03 -1.3514919948874644e+00
    8.2208641009581997e-03 -1.3622298275594995e+00
    8.1305603620603194e-03 -1.3098420799889594e+00
    8.1649392061483757e-03 -1.3304134695650069e+00
    8.3495375149361204e-03 -1.4296699073408670e+00
    8.4230106627574009e-03 -1.4655126313775919e+00
    8.4230106627574009e-03 -1.4655126313775919e+00
    8.2407110167906864e-03 -1.3731047544403399e+00
    8.2016273980463940e-03 -1.3514919948874644e+00
    8.0273407537469477e-03 -1.2414847577275063e+00
    8.0146582865168112e-03 -1.2321452098603554e+00
    7.8993948808998397e-03 -1.1271609482583616e+00
    7.8472803921325295e-03 -1.0330363880834394e+00
    7.8472803921325277e-03 -9.6802011191035553e-01
    8.2407110167906882e-03 -7.2827655484128540e-01
    9.2050551157906915e-03 -5.5928186858757156e-01
    1.0360989385268374e-02 -4.5782855622990942e-01
    1.2105638631145305e-02 -3.6775793892089437e-01
    9.4634130363752105e-03 -5.3142017971413869e-01
    8.3978025776688548e-03 -6.8804378880936701e-01
    8.0024700092048220e-03 -8.1772531989365527e-01
    7.8616530886369777e-03 -9.3360678104950678e-01
    7.8435972794408323e-03 -9.8922769298651803e-01
    7.8546622096549498e-03 -1.0557006283951400e+00
    7.9140563714853764e-03 -1.1438239957848990e+00
    7.9907695350593354e-03 -1.2137603905690308e+00
    8.0405241108861911e-03 -1.2509255832441892e+00
    8.2407110167906864e-03 -1.3731047544403399e+00
    8.2407110167906864e-03 -1.3731047544403399e+00
    8.0273407537469477e-03 -1.2414847577275063e+00
    8.0024700092048238e-03 -1.2229045324535748e+00
    8.0984120009393260e-03 -1.2897525105467089e+00
    8.0146582865168112e-03 -1.2321452098603554e+00
    8.0146582865168112e-03 -1.2321452098603554e+00
    8.0024700092048238e-03 -1.2229045324535748e+00
    7.9688079573416622e-03 -1.1957527174978562e+00
    8.0542153815440481e-03 -1.2604701689167310e+00
    8.0146582865168112e-03 -1.2321452098603554e+00
    8.0273407537469477e-03 -1.2414847577275063e+00
    8.1474662070246066e-03 -1.3200660049504127e+00
    8.1649392061483757e-03 -1.3304134695650069e+00
    8.2407110167906864e-03 -1.3731047544403399e+00
    8.1305603620603194e-03 -1.3098420799889594e+00
    8.1142120337995977e-03 -1.2997385846198128e+00
    8.2208641009581997e-03 -1.3622298275594995e+00
    8.4756629793684146e-03 -1.4902785754878651e+00
    8.3264487016837755e-03 -1.4180513267217765e+00
    8.3978025776688548e-03 -1.4533958684961910e+00
    8.4489582065571511e-03 -1.4778051447931191e+00
    8.2822839725516066e-03 -1.3952807999246235e+00
    8.2822839725516066e-03 -1.3952807999246235e+00
    8.1142120337995977e-03 -1.2997385846198128e+00
    7.8703147063770400e-03 -1.0867853340033278e+00
    7.8456428127340362e-03 -1.0255982897079403e+00
    8.0831514426787550e-03 -7.8132267103871356e-01
    9.0241310979964594e-03 -5.8151891732576466e-01
    1.0360989385268374e-02 -4.5782855622990942e-01
    1.2808985949640408e-02 -3.4195830721151921e-01
    9.7004262992273927e-03 -5.0900973378797887e-01
    8.4756629793684129e-03 -6.7101548425108049e-01
    8.0405241108861911e-03 -7.9940806503178963e-01
    7.8993948808998380e-03 -8.8718474637109734e-01
    7.8431883647425669e-03 -1.0036166483332141e+00
    7.8703147063770400e-03 -1.0867853340033278e+00
    7.8517890281793838e-03 -1.0480862791225007e+00
    7.9688079573416622e-03 -1.1957527174978562e+00
    7.9907695350593354e-03 -1.2137603905690308e+00
    8.0984120009393260e-03 -1.2897525105467089e+00
    8.2611801338290294e-03 -1.3841204693538096e+00
    8.0684219239594412e-03 -1.2701210757915216e+00
    8.0146582865168112e-03 -1.2321452098603554e+00
    8.0542153815440481e-03 -1.2604701689167310e+00
    8.0273407537469477e-03 -1.2414847577275063e+00
    8.1142120337995977e-03 -1.2997385846198128e+00
    8.1474662070246066e-03 -1.3200660049504127e+00
    7.9688079573416622e-03 -1.1957527174978562e+00
    8.0684219239594412e-03 -1.2701210757915216e+00
    8.2208641009581997e-03 -1.3622298275594995e+00
    8.2016273980463940e-03 -1.3514919948874644e+00
    8.1649392061483757e-03 -1.3304134695650069e+00
    8.1474662070246066e-03 -1.3200660049504127e+00
    8.1474662070246066e-03 -1.3200660049504127e+00
    8.0024700092048238e-03 -1.2229045324535748e+00
    8.0273407537469477e-03 -1.2414847577275063e+00
    8.0684219239594412e-03 -1.2701210757915216e+00
    8.1649392061483757e-03 -1.3304134695650069e+00
    8.1649392061483757e-03 -1.3304134695650069e+00
    8.3040356093422585e-03 -1.4065897140445442e+00
    8.2822839725516066e-03 -1.3952807999246235e+00
    8.5031435603228657e-03 -1.5029382986043593e+00
    8.2611801338290294e-03 -1.3841204693538096e+00
    8.0542153815440481e-03 -1.2604701689167310e+00
    7.9304900179384616e-03 -1.1608004251888624e+00
    7.8435972794408323e-03 -9.8922769298651803e-01
    8.0684219239594412e-03 -7.8732651481813598e-01
    8.9412123618279847e-03 -5.9263775798975382e-01
    9.8989761341454156e-03 -4.9208989663242736e-01
    1.2808985949640408e-02 -3.4195830721151921e-01
    9.5782316442717518e-03 -5.2023283425295486e-01
    8.3978025776688548e-03 -6.8804378880936701e-01
    7.9795507807873325e-03 -8.3007493049959202e-01
    7.8657741001317318e-03 -9.2685511418158739e-01
    7.8435972794408323e-03 -9.8922769298651803e-01
    7.8752770742763732e-03 -1.0947203745307283e+00
    7.9393814166028448e-03 -1.1694106924093719e+00
    7.9393814166028448e-03 -1.1694106924093719e+00
    8.0024700092048238e-03 -1.2229045324535748e+00
    8.2208641009581997e-03 -1.3622298275594995e+00
    8.2407110167906864e-03 -1.3731047544403399e+00
    8.3040356093422585e-03 -1.4065897140445442e+00
    8.0542153815440481e-03 -1.2604701689167310e+00
    8.1142120337995977e-03 -1.2997385846198128e+00
    8.0684219239594412e-03 -1.2701210757915216e+00
    8.0984120009393260e-03 -1.2897525105467089e+00
    8.0984120009393260e-03 -1.2897525105467089e+00
    8.3264487016837755e-03 -1.4180513267217765e+00
    8.2611801338290294e-03 -1.3841204693538096e+00
    8.2611801338290294e-03 -1.3841204693538096e+00
    8.1649392061483757e-03 -1.3304134695650069e+00
    8.0684219239594412e-03 -1.2701210757915216e+00
    8.0273407537469477e-03 -1.2414847577275063e+00
    8.1649392061483757e-03 -1.3304134695650069e+00
    8.2016273980463940e-03 -1.3514919948874644e+00
    8.1474662070246066e-03 -1.3200660049504127e+00
    8.0405241108861911e-03 -1.2509255832441892e+00
    8.0831514426787550e-03 -1.2798809468443690e+00
    8.3978025776688548e-03 -1.4533958684961910e+00
    8.1474662070246066e-03 -1.3200660049504127e+00
    8.2822839725516066e-03 -1.3952807999246235e+00
    8.3264487016837755e-03 -1.4180513267217765e+00
    8.0831514426787550e-03 -1.2798809468443690e+00
    7.9393814166028448e-03 -1.1694106924093719e+00
    7.9585355612476240e-03 -1.1868848521124162e+00
    7.8616530886369777e-03 -1.0711147565529227e+00
    7.9907695350593336e-03 -8.2388584087109951e-01
    8.9014975133838176e-03 -5.9819991412144324e-01
    1.0118130605433802e-02 -4.7504075279302016e-01
    1.3221712281388322e-02 -3.2863353450309968e-01
    9.3037878736385426e-03 -5.4815096786202533e-01
    8.2407110167906882e-03 -7.2827655484128540e-01
    7.8703147063770400e-03 -9.2014491612281746e-01
    7.8752770742763750e-03 -9.1347527940974704e-01
    7.8546622096549480e-03 -9.4723823506687188e-01
    7.8546622096549498e-03 -1.0557006283951400e+00
    7.9393814166028448e-03 -1.1694106924093719e+00
    8.0831514426787550e-03 -1.2798809468443690e+00
    7.9585355612476240e-03 -1.1868848521124162e+00
    8.1649392061483757e-03 -1.3304134695650069e+00
    8.1474662070246066e-03 -1.3200660049504127e+00
    8.0405241108861911e-03 -1.2509255832441892e+00
    8.0273407537469477e-03 -1.2414847577275063e+00
    8.1305603620603194e-03 -1.3098420799889594e+00
    8.1305603620603194e-03 -1.3098420799889594e+00
    8.1474662070246066e-03 -1.3200660049504127e+00
    8.0684219239594412e-03 -1.2701210757915216e+00
    8.0984120009393260e-03 -1.2897525105467089e+00
    8.3733169508116208e-03 -1.4414498873626429e+00
    8.4489582065571511e-03 -1.4778051447931191e+00
    8.1829894296367653e-03 -1.3408876902931870e+00
    8.0273407537469477e-03 -1.2414847577275063e+00
    8.2407110167906864e-03 -1.3731047544403399e+00
    8.3264487016837755e-03 -1.4180513267217765e+00
    8.3264487016837755e-03 -1.4180513267217765e+00
    8.3040356093422585e-03 -1.4065897140445442e+00
    8.1829894296367653e-03 -1.3408876902931870e+00
    8.0684219239594412e-03 -1.2701210757915216e+00
    8.1649392061483757e-03 -1.3304134695650069e+00
    8.3264487016837755e-03 -1.4180513267217765e+00
    8.2822839725516066e-03 -1.3952807999246235e+00
    8.1474662070246066e-03 -1.3200660049504127e+00
    8.1829894296367653e-03 -1.3408876902931870e+00
    8.0146582865168112e-03 -1.2321452098603554e+00
    7.8993948808998397e-03 -1.1271609482583616e+00
    7.8435972794408323e-03 -1.0108896132708944e+00
    7.9585355612476257e-03 -8.4254171600572791e-01
    8.7889048706273881e-03 -6.1490605195941794e-01
    9.8306391899856353e-03 -4.9774265212833407e-01
    1.3009508805881283e-02 -3.3533535333571252e-01
    9.5199374854734922e-03 -5.2583048204961891e-01
    8.2208641009581997e-03 -7.3409051818484139e-01
    7.9688079573416639e-03 -8.3629331162426779e-01
    7.8546622096549480e-03 -9.4723823506687188e-01
    7.8431883647425669e-03 -9.9639638467614056e-01
    7.8435972794408323e-03 -1.0108896132708944e+00
    7.9140563714853764e-03 -1.1438239957848990e+00
    7.8993948808998397e-03 -1.1271609482583616e+00
    7.9065059900194530e-03 -1.1354541815269814e+00
    7.9304900179384616e-03 -1.1608004251888624e+00
    7.9393814166028448e-03 -1.1694106924093719e+00
    7.9795507807873343e-03 -1.2047105186011782e+00
    8.0831514426787550e-03 -1.2798809468443690e+00
    8.0542153815440481e-03 -1.2604701689167310e+00
    7.9907695350593354e-03 -1.2137603905690308e+00
    7.9688079573416622e-03 -1.1957527174978562e+00
    8.0273407537469477e-03 -1.2414847577275063e+00
    8.0146582865168112e-03 -1.2321452098603554e+00
    8.1305603620603194e-03 -1.3098420799889594e+00
    8.2822839725516066e-03 -1.3952807999246235e+00
    8.1305603620603194e-03 -1.3098420799889594e+00
    7.9585355612476240e-03 -1.1868848521124162e+00
    8.1142120337995977e-03 -1.2997385846198128e+00
    8.0684219239594412e-03 -1.2701210757915216e+00
    8.1305603620603194e-03 -1.3098420799889594e+00
    8.1829894296367653e-03 -1.3408876902931870e+00
    8.0146582865168112e-03 -1.2321452098603554e+00
    8.0024700092048238e-03 -1.2229045324535748e+00
    8.0024700092048238e-03 -1.2229045324535748e+00
    8.1142120337995977e-03 -1.2997385846198128e+00
    7.9907695350593354e-03 -1.2137603905690308e+00
    7.9487283664424133e-03 -1.1781048486797590e+00
    7.9393814166028448e-03 -1.1694106924093719e+00
    7.8431883647425669e-03 -9.9639638467614056e-01
    7.8456428127340362e-03 -9.7504062753923904e-01
    7.8864768103086205e-03 -9.0025413986266634e-01
    8.0405241108861911e-03 -7.9940806503178963e-01
    8.4756629793684129e-03 -6.7101548425108049e-01
    9.6383686760823217e-03 -5.1462625530417883e-01
    1.2439163842293826e-02 -3.5498769015643572e-01
    9.7644871513315502e-03 -5.0338222570763369e-01
    8.3264487016837755e-03 -7.0519309220758619e-01
    7.9585355612476257e-03 -8.4254171600572791e-01
    7.9140563714853781e-03 -8.7426037894387210e-01
    7.8435972794408323e-03 -9.8922769298651803e-01
    7.8546622096549498e-03 -1.0557006283951400e+00
    7.8993948808998397e-03 -1.1271609482583616e+00
    7.9795507807873343e-03 -1.2047105186011782e+00
    7.8993948808998397e-03 -1.1271609482583616e+00
    7.9140563714853764e-03 -1.1438239957848990e+00
    7.9487283664424133e-03 -1.1781048486797590e+00
    8.0146582865168112e-03 -1.2321452098603554e+00
    7.9393814166028448e-03 -1.1694106924093719e+00
    8.1474662070246066e-03 -1.3200660049504127e+00
    8.2208641009581997e-03 -1.3622298275594995e+00
    8.1829894296367653e-03 -1.3408876902931870e+00
    8.0831514426787550e-03 -1.2798809468443690e+00
    8.0146582865168112e-03 -1.2321452098603554e+00
    8.0405241108861911e-03 -1.2509255832441892e+00
    8.1649392061483757e-03 -1.3304134695650069e+00
    8.0024700092048238e-03 -1.2229045324535748e+00
    8.1305603620603194e-03 -1.3098420799889594e+00
    8.1649392061483757e-03 -1.3304134695650069e+00
    8.1305603620603194e-03 -1.3098420799889594e+00
    8.0542153815440481e-03 -1.2604701689167310e+00
    8.1474662070246066e-03 -1.3200660049504127e+00
    7.9304900179384616e-03 -1.1608004251888624e+00
    8.0273407537469477e-03 -1.2414847577275063e+00
    8.0146582865168112e-03 -1.2321452098603554e+00
    7.8864768103086205e-03 -1.1107974467660318e+00
    7.9487283664424133e-03 -1.1781048486797590e+00
    7.9140563714853764e-03 -1.1438239957848990e+00
    7.9907695350593354e-03 -1.2137603905690308e+00
    7.8435972794408323e-03 -1.0108896132708944e+00
    7.8472803921325277e-03 -9.6802011191035553e-01
    7.8864768103086205e-03 -9.0025413986266634e-01
    8.1649392061483757e-03 -7.5164602800282887e-01
    8.4756629793684129e-03 -6.7101548425108049e-01
    9.3554014277175222e-03 -5.4257950879524186e-01
    1.4815283234159288e-02 -2.8641098093474004e-01
    1.0447845497793687e-02 -4.5204847758504452e-01
    8.6854724658832639e-03 -6.3165647229320698e-01
    8.0405241108861911e-03 -7.9940806503178963e-01
    8.0146582865168094e-03 -8.1159265320143148e-01
    7.8657741001317318e-03 -9.2685511418158739e-01
    7.8493288090908907e-03 -1.0405319634289441e+00
    7.9304900179384616e-03 -1.1608004251888624e+00
    7.9487283664424133e-03 -1.1781048486797590e+00
    7.8993948808998397e-03 -1.1271609482583616e+00
    7.8616530886369777e-03 -1.0711147565529227e+00
    7.9585355612476240e-03 -1.1868848521124162e+00
    8.0273407537469477e-03 -1.2414847577275063e+00
    8.1142120337995977e-03 -1.2997385846198128e+00
    8.0542153815440481e-03 -1.2604701689167310e+00
    8.1829894296367653e-03 -1.3408876902931870e+00
    8.1829894296367653e-03 -1.3408876902931870e+00
    8.0984120009393260e-03 -1.2897525105467089e+00
    8.1305603620603194e-03 -1.3098420799889594e+00
    8.0984120009393260e-03 -1.2897525105467089e+00
    8.1829894296367653e-03 -1.3408876902931870e+00
    8.0542153815440481e-03 -1.2604701689167310e+00
    8.0684219239594412e-03 -1.2701210757915216e+00
    8.0831514426787550e-03 -1.2798809468443690e+00
    8.1649392061483757e-03 -1.3304134695650069e+00
    7.9907695350593354e-03 -1.2137603905690308e+00
    8.0984120009393260e-03 -1.2897525105467089e+00
    8.0405241108861911e-03 -1.2509255832441892e+00
    8.0984120009393260e-03 -1.2897525105467089e+00
    8.0542153815440481e-03 -1.2604701689167310e+00
    8.0684219239594412e-03 -1.2701210757915216e+00
    7.8657741001317352e-03 -1.0789172813520047e+00
    7.8864768103086205e-03 -1.1107974467660318e+00
    7.9065059900194530e-03 -1.1354541815269814e+00
    7.8431883647425669e-03 -1.0036166483332141e+00
    7.8927195697839850e-03 -8.9370090002265234e-01
    7.9304900179384616e-03 -8.6147452938544511e-01
    8.2611801338290294e-03 -7.2248046477259298e-01
    8.7189813575627041e-03 -6.2606692852679491e-01
    9.8989761341454156e-03 -4.9208989663242736e-01
    1.5909387283706913e-02 -2.6362486509824812e-01
    1.0196277763647781e-02 -4.6932325446393214e-01
    8.6528959628419128e-03 -6.3725298787716611e-01
    8.3978025776688548e-03 -6.8804378880936701e-01
    7.9907695350593336e-03 -8.2388584087109951e-01
    7.8546622096549480e-03 -9.4723823506687188e-01
    7.8431883647425669e-03 -1.0036166483332141e+00
    7.8864768103086205e-03 -1.1107974467660318e+00
    7.8993948808998397e-03 -1.1271609482583616e+00
    7.9065059900194530e-03 -1.1354541815269814e+00
    7.8657741001317352e-03 -1.0789172813520047e+00
    7.9304900179384616e-03 -1.1608004251888624e+00
    7.9907695350593354e-03 -1.2137603905690308e+00
    7.9795507807873343e-03 -1.2047105186011782e+00
    8.1649392061483757e-03 -1.3304134695650069e+00
    8.3733169508116208e-03 -1.4414498873626429e+00
    8.0831514426787550e-03 -1.2798809468443690e+00
    8.1305603620603194e-03 -1.3098420799889594e+00
    8.1305603620603194e-03 -1.3098420799889594e+00
    8.0684219239594412e-03 -1.2701210757915216e+00
    8.1142120337995977e-03 -1.2997385846198128e+00
    8.0831514426787550e-03 -1.2798809468443690e+00
    8.1829894296367653e-03 -1.3408876902931870e+00
    8.0542153815440481e-03 -1.2604701689167310e+00
    8.1305603620603194e-03 -1.3098420799889594e+00
    7.9585355612476240e-03 -1.1868848521124162e+00
    8.1649392061483757e-03 -1.3304134695650069e+00
    8.1305603620603194e-03 -1.3098420799889594e+00
    7.9795507807873343e-03 -1.2047105186011782e+00
    7.9393814166028448e-03 -1.1694106924093719e+00
    7.9304900179384616e-03 -1.1608004251888624e+00
    7.8927195697839833e-03 -1.1189425902722636e+00
    7.9487283664424133e-03 -1.1781048486797590e+00
    7.8616530886369777e-03 -1.0711147565529227e+00
    7.8472803921325277e-03 -9.6802011191035553e-01
    7.8546622096549480e-03 -9.4723823506687188e-01
    7.9585355612476257e-03 -8.4254171600572791e-01
    8.1829894296367653e-03 -7.4577461426418823e-01
    8.7534494523541315e-03 -6.2048368229954287e-01
    1.0042611395711665e-02 -4.8074017006186526e-01
    1.6339112158249389e-02 -2.5570415597837942e-01
    1.1398529822918129e-02 -3.9874279416634173e-01
    9.0241310979964594e-03 -5.8151891732576466e-01
    8.4756629793684129e-03 -6.7101548425108049e-01
    8.0831514426787550e-03 -7.8132267103871356e-01
    7.9688079573416639e-03 -8.3629331162426779e-01
    7.8456428127340362e-03 -1.0255982897079403e+00
    7.8864768103086205e-03 -1.1107974467660318e+00
    7.9140563714853764e-03 -1.1438239957848990e+00
    7.9140563714853764e-03 -1.1438239957848990e+00
    7.9688079573416622e-03 -1.1957527174978562e+00
    8.0831514426787550e-03 -1.2798809468443690e+00
    8.2611801338290294e-03 -1.3841204693538096e+00
    8.0542153815440481e-03 -1.2604701689167310e+00
    8.1305603620603194e-03 -1.3098420799889594e+00
    8.1474662070246066e-03 -1.3200660049504127e+00
    8.1305603620603194e-03 -1.3098420799889594e+00
    8.1142120337995977e-03 -1.2997385846198128e+00
    8.1829894296367653e-03 -1.3408876902931870e+00
    8.0984120009393260e-03 -1.2897525105467089e+00
    8.0146582865168112e-03 -1.2321452098603554e+00
    7.9795507807873343e-03 -1.2047105186011782e+00
    8.0984120009393260e-03 -1.2897525105467089e+00
    8.0146582865168112e-03 -1.2321452098603554e+00
    8.0984120009393260e-03 -1.2897525105467089e+00
    8.0146582865168112e-03 -1.2321452098603554e+00
    7.9393814166028448e-03 -1.1694106924093719e+00
    7.9487283664424133e-03 -1.1781048486797590e+00
    7.9795507807873343e-03 -1.2047105186011782e+00
    8.0984120009393260e-03 -1.2897525105467089e+00
    8.0146582865168112e-03 -1.2321452098603554e+00
    8.0024700092048238e-03 -1.2229045324535748e+00
    7.9688079573416622e-03 -1.1957527174978562e+00
    7.9220497324288333e-03 -1.1522721433919050e+00
    7.8472803921325295e-03 -1.0330363880834394e+00
    7.8546622096549480e-03 -9.4723823506687188e-01
    7.9795507807873325e-03 -8.3007493049959202e-01
    8.3040356093422602e-03 -7.1093936633773169e-01
    8.9820776266421945e-03 -5.8707767303377956e-01
    1.0196277763647781e-02 -4.6932325446393214e-01
    1.7901841042864700e-02 -2.3072047842248006e-01
    1.1950800409783824e-02 -3.7405573845785473e-01
    9.4634130363752105e-03 -5.3142017971413869e-01
    8.4756629793684129e-03 -6.7101548425108049e-01
    8.0146582865168094e-03 -8.1159265320143148e-01
    7.9585355612476257e-03 -8.4254171600572791e-01
    7.8864768103086205e-03 -9.0025413986266634e-01
    7.8444153007476859e-03 -1.0182164337125743e+00
    7.8657741001317352e-03 -1.0789172813520047e+00
    7.9487283664424133e-03 -1.1781048486797590e+00
    7.8806635796264020e-03 -1.1027239001672178e+00
    8.0024700092048238e-03 -1.2229045324535748e+00
    8.1142120337995977e-03 -1.2997385846198128e+00
    8.0542153815440481e-03 -1.2604701689167310e+00
    8.1305603620603194e-03 -1.3098420799889594e+00
    8.1649392061483757e-03 -1.3304134695650069e+00
    8.0542153815440481e-03 -1.2604701689167310e+00
    8.1305603620603194e-03 -1.3098420799889594e+00
    8.2016273980463940e-03 -1.3514919948874644e+00
    8.3040356093422585e-03 -1.4065897140445442e+00
    8.1474662070246066e-03 -1.3200660049504127e+00
    8.0024700092048238e-03 -1.2229045324535748e+00
    8.0273407537469477e-03 -1.2414847577275063e+00
    8.0831514426787550e-03 -1.2798809468443690e+00
    8.0024700092048238e-03 -1.2229045324535748e+00
    8.0273407537469477e-03 -1.2414847577275063e+00
    7.9585355612476240e-03 -1.1868848521124162e+00
    8.0984120009393260e-03 -1.2897525105467089e+00
    8.1142120337995977e-03 -1.2997385846198128e+00
    7.9907695350593354e-03 -1.2137603905690308e+00
    8.0024700092048238e-03 -1.2229045324535748e+00
    8.0024700092048238e-03 -1.2229045324535748e+00
    7.9220497324288333e-03 -1.1522721433919050e+00
    7.8472803921325295e-03 -1.0330363880834394e+00
    7.8435972794408323e-03 -9.8922769298651803e-01
    7.8993948808998380e-03 -8.8718474637109734e-01
    7.9795507807873325e-03 -8.3007493049959202e-01
    8.5605107598563050e-03 -6.5409101166916506e-01
    9.2536907109700001e-03 -5.5371813550298821e-01
    1.0728408211274037e-02 -4.3455862862994471e-01
    1.5151583694560076e-02 -2.7896417632583531e-01
    1.1803148833712194e-02 -3.8030001206094349e-01
    9.7004262992273927e-03 -5.0900973378797887e-01
    9.0241310979964594e-03 -5.8151891732576466e-01
    8.1649392061483757e-03 -7.5164602800282887e-01
    8.0405241108861911e-03 -7.9940806503178963e-01
    7.9065059900194547e-03 -8.8070484592797937e-01
    7.8579497109853118e-03 -9.4040084086340459e-01
    7.8579497109853118e-03 -1.0633763354378498e+00
    7.8993948808998397e-03 -1.1271609482583616e+00
    7.9220497324288333e-03 -1.1522721433919050e+00
    7.9065059900194530e-03 -1.1354541815269814e+00
    7.9304900179384616e-03 -1.1608004251888624e+00
    7.9304900179384616e-03 -1.1608004251888624e+00
    8.0273407537469477e-03 -1.2414847577275063e+00
    7.9907695350593354e-03 -1.2137603905690308e+00
    8.0405241108861911e-03 -1.2509255832441892e+00
    8.0405241108861911e-03 -1.2509255832441892e+00
    8.1474662070246066e-03 -1.3200660049504127e+00
    8.0831514426787550e-03 -1.2798809468443690e+00
    8.0024700092048238e-03 -1.2229045324535748e+00
    7.9907695350593354e-03 -1.2137603905690308e+00
    7.9065059900194530e-03 -1.1354541815269814e+00
    8.0146582865168112e-03 -1.2321452098603554e+00
    8.0542153815440481e-03 -1.2604701689167310e+00
    8.0405241108861911e-03 -1.2509255832441892e+00
    8.0405241108861911e-03 -1.2509255832441892e+00
    7.9795507807873343e-03 -1.2047105186011782e+00
    7.9220497324288333e-03 -1.1522721433919050e+00
    8.0146582865168112e-03 -1.2321452098603554e+00
    8.0024700092048238e-03 -1.2229045324535748e+00
    7.9688079573416622e-03 -1.1957527174978562e+00
    7.9220497324288333e-03 -1.1522721433919050e+00
    7.8456428127340362e-03 -1.0255982897079403e+00
    7.8616530886369777e-03 -9.3360678104950678e-01
    7.9585355612476257e-03 -8.4254171600572791e-01
    8.1305603620603194e-03 -7.6345081233642209e-01
    8.9820776266421945e-03 -5.8707767303377956e-01
    9.5199374854734922e-03 -5.2583048204961891e-01
    1.1950800409783824e-02 -3.7405573845785473e-01
    1.4212118249710127e-02 -3.0091723297671441e-01
    1.2268220054154637e-02 -3.6140316116210047e-01
    9.9695979512439015e-03 -4.8642280256700837e-01
    9.1119638736861207e-03 -5.7040235945746331e-01
    8.4756629793684129e-03 -6.7101548425108049e-01
    8.0542153815440463e-03 -7.9335475337700101e-01
    7.9065059900194547e-03 -8.8070484592797937e-01
    7.8579497109853118e-03 -9.4040084086340459e-01
    7.8472803921325295e-03 -1.0330363880834394e+00
    7.8517890281793838e-03 -1.0480862791225007e+00
    7.8616530886369777e-03 -1.0711147565529227e+00
    7.9304900179384616e-03 -1.1608004251888624e+00
    8.0542153815440481e-03 -1.2604701689167310e+00
    8.0984120009393260e-03 -1.2897525105467089e+00
    8.0831514426787550e-03 -1.2798809468443690e+00
    8.1649392061483757e-03 -1.3304134695650069e+00
    8.1142120337995977e-03 -1.2997385846198128e+00
    7.9907695350593354e-03 -1.2137603905690308e+00
    8.1474662070246066e-03 -1.3200660049504127e+00
    8.0831514426787550e-03 -1.2798809468443690e+00
    7.9907695350593354e-03 -1.2137603905690308e+00
    7.9795507807873343e-03 -1.2047105186011782e+00
    7.9585355612476240e-03 -1.1868848521124162e+00
    7.9907695350593354e-03 -1.2137603905690308e+00
    8.0984120009393260e-03 -1.2897525105467089e+00
    8.0146582865168112e-03 -1.2321452098603554e+00
    8.0405241108861911e-03 -1.2509255832441892e+00
    8.0146582865168112e-03 -1.2321452098603554e+00
    8.1305603620603194e-03 -1.3098420799889594e+00
    7.9688079573416622e-03 -1.1957527174978562e+00
    8.0024700092048238e-03 -1.2229045324535748e+00
    7.9220497324288333e-03 -1.1522721433919050e+00
    7.8493288090908907e-03 -1.0405319634289441e+00
    7.8472803921325277e-03 -9.6802011191035553e-01
    7.9220497324288333e-03 -8.6785053837744741e-01
    8.0684219239594412e-03 -7.8732651481813598e-01
    8.3264487016837755e-03 -7.0519309220758619e-01
    8.8253771155122097e-03 -6.0933334777679071e-01
    9.5782316442717518e-03 -5.2023283425295486e-01
    1.2808985949640408e-02 -3.4195830721151921e-01
    1.6809676037595873e-02 -2.4759378423606918e-01
    1.2808985949640408e-02 -3.4195830721151921e-01
    1.0118130605433802e-02 -4.7504075279302016e-01
    9.1578292115039664e-03 -5.6484300389366526e-01
    8.6854724658832639e-03 -6.3165647229320698e-01
    8.2611801338290294e-03 -7.2248046477259298e-01
    7.9304900179384616e-03 -8.6147452938544511e-01
    7.8703147063770400e-03 -9.2014491612281746e-01
    7.8435972794408323e-03 -9.8922769298651803e-01
    7.8431883647425669e-03 -1.0036166483332141e+00
    7.8806635796264020e-03 -1.1027239001672178e+00
    7.8927195697839833e-03 -1.1189425902722636e+00
    7.9393814166028448e-03 -1.1694106924093719e+00
    8.0684219239594412e-03 -1.2701210757915216e+00
    7.9140563714853764e-03 -1.1438239957848990e+00
    8.0405241108861911e-03 -1.2509255832441892e+00
    8.0024700092048238e-03 -1.2229045324535748e+00
    8.0024700092048238e-03 -1.2229045324535748e+00
    7.9907695350593354e-03 -1.2137603905690308e+00
    7.9585355612476240e-03 -1.1868848521124162e+00
    7.9585355612476240e-03 -1.1868848521124162e+00
    7.9907695350593354e-03 -1.2137603905690308e+00
    7.9585355612476240e-03 -1.1868848521124162e+00
    8.0405241108861911e-03 -1.2509255832441892e+00
    7.9304900179384616e-03 -1.1608004251888624e+00
    7.9487283664424133e-03 -1.1781048486797590e+00
    7.9220497324288333e-03 -1.1522721433919050e+00
    8.0542153815440481e-03 -1.2604701689167310e+00
    7.9220497324288333e-03 -1.1522721433919050e+00
    7.8657741001317352e-03 -1.0789172813520047e+00
    7.8752770742763732e-03 -1.0947203745307283e+00
    7.8431883647425669e-03 -9.9639638467614056e-01
    7.8546622096549480e-03 -9.4723823506687188e-01
    7.9304900179384616e-03 -8.6147452938544511e-01
    8.1649392061483757e-03 -7.5164602800282887e-01
    8.2407110167906882e-03 -7.2827655484128540e-01
    8.4230106627574009e-03 -6.8235508762554542e-01
    8.7889048706273881e-03 -6.1490605195941794e-01
    1.0196277763647781e-02 -4.6932325446393214e-01
    1.3009508805881283e-02 -3.3533535333571252e-01
    1.6339112158249389e-02 -2.5570415597837942e-01
    1.2808985949640408e-02 -3.4195830721151921e-01
    1.1662182059675175e-02 -3.8649397584049860e-01
    9.5199374854734922e-03 -5.2583048204961891e-01
    8.7189813575627041e-03 -6.2606692852679491e-01
    8.5031435603228640e-03 -6.6536330927797138e-01
    8.3495375149361221e-03 -6.9946215896784369e-01
    8.0273407537469477e-03 -8.0548713447796538e-01
    7.9487283664424150e-03 -8.4882088476305639e-01
    7.8431883647425669e-03 -1.0036166483332141e+00
    7.8435972794408323e-03 -1.0108896132708944e+00
    7.8493288090908907e-03 -9.6104688288923312e-01
    7.8444153007476859e-03 -1.0182164337125743e+00
    7.8752770742763732e-03 -1.0947203745307283e+00
    7.9907695350593354e-03 -1.2137603905690308e+00
    8.0273407537469477e-03 -1.2414847577275063e+00
    8.0405241108861911e-03 -1.2509255832441892e+00
    8.0273407537469477e-03 -1.2414847577275063e+00
    8.0146582865168112e-03 -1.2321452098603554e+00
    7.9140563714853764e-03 -1.1438239957848990e+00
    7.9393814166028448e-03 -1.1694106924093719e+00
    8.0024700092048238e-03 -1.2229045324535748e+00
    7.9487283664424133e-03 -1.1781048486797590e+00
    7.9140563714853764e-03 -1.1438239957848990e+00
    7.8703147063770400e-03 -1.0867853340033278e+00
    7.9065059900194530e-03 -1.1354541815269814e+00
    7.8993948808998397e-03 -1.1271609482583616e+00
    7.8517890281793838e-03 -1.0480862791225007e+00
    7.8864768103086205e-03 -1.1107974467660318e+00
    7.8456428127340362e-03 -9.7504062753923904e-01
    7.8703147063770400e-03 -1.0867853340033278e+00
    7.8444153007476859e-03 -9.8210946797808574e-01
    7.8864768103086205e-03 -9.0025413986266634e-01
    7.9487283664424150e-03 -8.4882088476305639e-01
    8.1142120337995977e-03 -7.6938548399908457e-01
    8.3733169508116226e-03 -6.9374593509432037e-01
    8.6212262682850913e-03 -6.4285714285714279e-01
    9.8306391899856353e-03 -4.9774265212833407e-01
    1.1527446246461613e-02 -3.9264063297965823e-01
    1.4212118249710127e-02 -3.0091723297671441e-01
    1.8542400150362796e-02 -2.2190634114964861e-01
    1.3940350945882222e-02 -3.0799620140360723e-01
    1.2105638631145305e-02 -3.6775793892089437e-01
    1.0042611395711665e-02 -4.8074017006186526e-01
    9.1119638736861207e-03 -5.7040235945746331e-01
    8.7889048706273881e-03 -6.1490605195941794e-01
    8.5605107598563050e-03 -6.5409101166916506e-01
    8.4489582065571511e-03 -6.7667919787895447e-01
    8.0984120009393260e-03 -7.7534254969281924e-01
    8.0146582865168094e-03 -8.1159265320143148e-01
    7.9140563714853781e-03 -8.7426037894387210e-01
    7.9393814166028448e-03 -8.5513156882435326e-01
    7.8579497109853118e-03 -9.4040084086340459e-01
    7.8546622096549480e-03 -9.4723823506687188e-01
    7.8657741001317352e-03 -1.0789172813520047e+00
    8.0024700092048238e-03 -1.2229045324535748e+00
    8.0542153815440481e-03 -1.2604701689167310e+00
    7.9907695350593354e-03 -1.2137603905690308e+00
    7.9220497324288333e-03 -1.1522721433919050e+00
    7.9393814166028448e-03 -1.1694106924093719e+00
    7.9304900179384616e-03 -1.1608004251888624e+00
    7.8993948808998397e-03 -1.1271609482583616e+00
    7.9688079573416622e-03 -1.1957527174978562e+00
    7.8864768103086205e-03 -1.1107974467660318e+00
    7.8579497109853118e-03 -1.0633763354378498e+00
    7.8657741001317352e-03 -1.0789172813520047e+00
    7.8616530886369777e-03 -1.0711147565529227e+00
    7.8616530886369777e-03 -1.0711147565529227e+00
    7.8616530886369777e-03 -1.0711147565529227e+00
    7.8435972794408323e-03 -1.0108896132708944e+00
    7.8444153007476859e-03 -9.8210946797808574e-01
    7.8703147063770400e-03 -9.2014491612281746e-01
    7.9140563714853781e-03 -8.7426037894387210e-01
    8.0405241108861911e-03 -7.9940806503178963e-01
    8.2822839725516066e-03 -7.1670161307603608e-01
    8.5904389696724280e-03 -6.4846959875758303e-01
    9.4085893569202522e-03 -5.3700287990219919e-01
    1.0196277763647781e-02 -4.6932325446393214e-01
    1.3009508805881283e-02 -3.3533535333571252e-01
    1.4503010386683442e-02 -2.9372522840900400e-01
    1.8542400150362796e-02 -2.2190634114964861e-01
    1.4503010386683442e-02 -2.9372522840900400e-01
    1.2619161097645649e-02 -3.4850751767866145e-01
    9.7644871513315502e-03 -5.0338222570763369e-01
    9.5199374854734922e-03 -5.2583048204961891e-01
    9.2050551157906915e-03 -5.5928186858757156e-01
    8.8253771155122097e-03 -6.0933334777679071e-01
    8.8628971555129304e-03 -6.0376487120768596e-01
    8.3040356093422602e-03 -7.1093936633773169e-01
    8.1305603620603194e-03 -7.6345081233642209e-01
    8.0542153815440463e-03 -7.9335475337700101e-01
    7.9393814166028448e-03 -8.5513156882435326e-01
    7.9487283664424150e-03 -8.4882088476305639e-01
    7.8806635796264020e-03 -9.0684531263751467e-01
    7.8456428127340362e-03 -1.0255982897079403e+00
    7.8493288090908907e-03 -1.0405319634289441e+00
    7.8456428127340362e-03 -1.0255982897079403e+00
    7.8444153007476859e-03 -1.0182164337125743e+00
    7.8493288090908907e-03 -1.0405319634289441e+00
    7.8493288090908907e-03 -1.0405319634289441e+00
    7.9065059900194530e-03 -1.1354541815269814e+00
    7.9140563714853764e-03 -1.1438239957848990e+00
    7.9220497324288333e-03 -1.1522721433919050e+00
    7.9140563714853764e-03 -1.1438239957848990e+00
    7.8616530886369777e-03 -1.0711147565529227e+00
    7.8493288090908907e-03 -9.6104688288923312e-01
    7.8444153007476859e-03 -9.8210946797808574e-01
    7.8579497109853118e-03 -1.0633763354378498e+00
    7.8431883647425669e-03 -9.9639638467614056e-01
    7.8472803921325277e-03 -9.6802011191035553e-01
    7.8864768103086205e-03 -9.0025413986266634e-01
    8.0146582865168094e-03 -8.1159265320143148e-01
    8.1829894296367653e-03 -7.4577461426418823e-01
    8.2407110167906882e-03 -7.2827655484128540e-01
    8.5605107598563050e-03 -6.5409101166916506e-01
    9.0674125506121205e-03 -5.7596073584122842e-01
    9.5782316442717518e-03 -5.2023283425295486e-01
    1.0829226370040419e-02 -4.2867316659744836e-01
    1.3446710470282819e-02 -3.2184725782662482e-01
    1.5515041270989387e-02 -2.7137319479402017e-01
    1.9263093322601833e-02 -2.1279807063957260e-01
    1.6339112158249389e-02 -2.5570415597837942e-01
    1.2268220054154637e-02 -3.6140316116210047e-01
    1.0042611395711665e-02 -4.8074017006186526e-01
    9.7644871513315502e-03 -5.0338222570763369e-01
    9.5782316442717518e-03 -5.2023283425295486e-01
    9.2536907109700001e-03 -5.5371813550298821e-01
    8.9820776266421945e-03 -5.8707767303377956e-01
    8.6212262682850913e-03 -6.4285714285714279e-01
    8.5314193790007303e-03 -6.5972203284547171e-01
    8.1649392061483757e-03 -7.5164602800282887e-01
    8.0684219239594412e-03 -7.8732651481813598e-01
    8.0405241108861911e-03 -7.9940806503178963e-01
    7.8927195697839850e-03 -8.9370090002265234e-01
    7.9065059900194547e-03 -8.8070484592797937e-01
    7.9220497324288333e-03 -8.6785053837744741e-01
    7.8472803921325277e-03 -9.6802011191035553e-01
    7.8493288090908907e-03 -9.6104688288923312e-01
    7.8431883647425669e-03 -1.0036166483332141e+00
    7.8435972794408323e-03 -9.8922769298651803e-01
    7.8493288090908907e-03 -1.0405319634289441e+00
    7.8657741001317352e-03 -1.0789172813520047e+00
    7.9065059900194530e-03 -1.1354541815269814e+00
    7.8546622096549498e-03 -1.0557006283951400e+00
    7.8546622096549498e-03 -1.0557006283951400e+00
    7.8616530886369777e-03 -1.0711147565529227e+00
    7.8517890281793838e-03 -1.0480862791225007e+00
    7.8493288090908907e-03 -1.0405319634289441e+00
    7.8752770742763750e-03 -9.1347527940974704e-01
    7.9487283664424150e-03 -8.4882088476305639e-01
    8.2016273980463940e-03 -7.3992299161436603e-01
    8.2822839725516066e-03 -7.1670161307603608e-01
    8.3978025776688548e-03 -6.8804378880936701e-01
    8.5314193790007303e-03 -6.5972203284547171e-01
    8.8628971555129304e-03 -6.0376487120768596e-01
    9.1578292115039664e-03 -5.6484300389366526e-01
    9.8989761341454156e-03 -4.9208989663242736e-01
    1.1156691387986264e-02 -4.1082401500888049e-01
    1.3685772421379864e-02 -3.1497039417435607e-01
    1.5151583694560076e-02 -2.7896417632583531e-01
    2.2118258880193822e-02 -1.8325416653445786e-01
    1.7901841042864700e-02 -2.3072047842248006e-01
    1.3221712281388322e-02 -3.2863353450309968e-01
    1.2268220054154637e-02 -3.6140316116210047e-01
    1.0537914797648113e-02 -4.4624455081737313e-01
    9.8306391899856353e-03 -4.9774265212833407e-01
    9.7644871513315502e-03 -5.0338222570763369e-01
    9.5199374854734922e-03 -5.2583048204961891e-01
    9.0674125506121205e-03 -5.7596073584122842e-01
    9.2050551157906915e-03 -5.5928186858757156e-01
    8.9820776266421945e-03 -5.8707767303377956e-01
    8.3733169508116226e-03 -6.9374593509432037e-01
    8.3495375149361221e-03 -6.9946215896784369e-01
    8.1474662070246048e-03 -7.5753787784086168e-01
    8.0984120009393260e-03 -7.7534254969281924e-01
    7.9487283664424150e-03 -8.4882088476305639e-01
    7.9065059900194547e-03 -8.8070484592797937e-01
    7.8444153007476859e-03 -9.8210946797808574e-01
    7.8517890281793838e-03 -9.5411992306324200e-01
    7.8444153007476859e-03 -9.8210946797808574e-01
    7.8435972794408323e-03 -9.8922769298651803e-01
    7.8444153007476859e-03 -9.8210946797808574e-01
    7.8472803921325295e-03 -1.0330363880834394e+00
    7.8493288090908907e-03 -1.0405319634289441e+00
    7.8579497109853118e-03 -9.4040084086340459e-01
    7.8657741001317318e-03 -9.2685511418158739e-01
    7.8864768103086205e-03 -9.0025413986266634e-01
    7.9585355612476257e-03 -8.4254171600572791e-01
    8.0146582865168094e-03 -8.1159265320143148e-01
    8.1305603620603194e-03 -7.6345081233642209e-01
    8.4230106627574009e-03 -6.8235508762554542e-01
    8.3733169508116226e-03 -6.9374593509432037e-01
    8.6212262682850913e-03 -6.4285714285714279e-01
    8.9014975133838176e-03 -5.9819991412144324e-01
    9.4085893569202522e-03 -5.3700287990219919e-01
    9.7004262992273927e-03 -5.0900973378797887e-01
    1.0728408211274037e-02 -4.3455862862994471e-01
    1.2808985949640408e-02 -3.4195830721151921e-01
    1.4503010386683442e-02 -2.9372522840900400e-01
    1.6809676037595873e-02 -2.4759378423606918e-01
    2.3416309795275654e-02 -1.7245224542369073e-01
    1.6809676037595873e-02 -2.4759378423606918e-01
    1.5515041270989387e-02 -2.7137319479402017e-01
    1.3940350945882222e-02 -3.0799620140360723e-01
    1.1275058570639825e-02 -4.0480309561376554e-01
    1.0360989385268374e-02 -4.5782855622990942e-01
    1.0277183834930452e-02 -4.6358632497276536e-01
    1.0196277763647781e-02 -4.6932325446393214e-01
    9.8989761341454156e-03 -4.9208989663242736e-01
    9.9695979512439015e-03 -4.8642280256700837e-01
    1.0277183834930452e-02 -4.6358632497276536e-01
    9.2536907109700001e-03 -5.5371813550298821e-01
    8.6212262682850913e-03 -6.4285714285714279e-01
    8.3495375149361221e-03 -6.9946215896784369e-01
    8.2407110167906882e-03 -7.2827655484128540e-01
    8.0542153815440463e-03 -7.9335475337700101e-01
    7.9907695350593336e-03 -8.2388584087109951e-01
    7.9688079573416639e-03 -8.3629331162426779e-01
    7.8657741001317318e-03 -9.2685511418158739e-01
    7.8703147063770400e-03 -9.2014491612281746e-01
    7.8579497109853118e-03 -9.4040084086340459e-01
    7.8864768103086205e-03 -9.0025413986266634e-01
    7.9065059900194547e-03 -8.8070484592797937e-01
    7.9304900179384616e-03 -8.6147452938544511e-01
    7.8703147063770400e-03 -9.2014491612281746e-01
    7.9688079573416639e-03 -8.3629331162426779e-01
    7.9688079573416639e-03 -8.3629331162426779e-01
    8.2407110167906882e-03 -7.2827655484128540e-01
    8.5314193790007303e-03 -6.5972203284547171e-01
    8.4230106627574009e-03 -6.8235508762554542e-01
    8.4756629793684129e-03 -6.7101548425108049e-01
    8.7189813575627041e-03 -6.2606692852679491e-01
    9.1578292115039664e-03 -5.6484300389366526e-01
    9.6383686760823217e-03 -5.1462625530417883e-01
    9.9695979512439015e-03 -4.8642280256700837e-01
    1.0360989385268374e-02 -4.5782855622990942e-01
    1.1662182059675175e-02 -3.8649397584049860e-01
    1.2619161097645649e-02 -3.4850751767866145e-01
    1.5909387283706913e-02 -2.6362486509824812e-01
    1.7327795484381067e-02 -2.3927371020851113e-01
    2.9455753341062627e-02 -1.3558153613666010e-01
    2.4986687573572825e-02 -1.6101529717988264e-01
    2.2118258880193822e-02 -1.8325416653445786e-01
    1.6809676037595873e-02 -2.4759378423606918e-01
    1.3685772421379864e-02 -3.1497039417435607e-01
    1.1950800409783824e-02 -3.7405573845785473e-01
    1.1156691387986264e-02 -4.1082401500888049e-01
    1.1275058570639825e-02 -4.0480309561376554e-01
    1.1803148833712194e-02 -3.8030001206094349e-01
    1.1043116626634403e-02 -4.1680788567315052e-01
    1.0829226370040419e-02 -4.2867316659744836e-01
    1.1156691387986264e-02 -4.1082401500888049e-01
    1.1043116626634403e-02 -4.1680788567315052e-01
    9.2536907109700001e-03 -5.5371813550298821e-01
    8.7889048706273881e-03 -6.1490605195941794e-01
    8.3733169508116226e-03 -6.9374593509432037e-01
    8.3264487016837755e-03 -7.0519309220758619e-01
    8.3040356093422602e-03 -7.1093936633773169e-01
    8.1474662070246048e-03 -7.5753787784086168e-01
    7.9907695350593336e-03 -8.2388584087109951e-01
    8.0146582865168094e-03 -8.1159265320143148e-01
    8.1142120337995977e-03 -7.6938548399908457e-01
    8.1649392061483757e-03 -7.5164602800282887e-01
    8.0146582865168094e-03 -8.1159265320143148e-01
    8.1305603620603194e-03 -7.6345081233642209e-01
    8.0984120009393260e-03 -7.7534254969281924e-01
    8.4230106627574009e-03 -6.8235508762554542e-01
    8.6212262682850913e-03 -6.4285714285714279e-01
    8.5904389696724280e-03 -6.4846959875758303e-01
    8.6854724658832639e-03 -6.3165647229320698e-01
    9.0241310979964594e-03 -5.8151891732576466e-01
    9.1578292115039664e-03 -5.6484300389366526e-01
    1.0118130605433802e-02 -4.7504075279302016e-01
    1.0537914797648113e-02 -4.4624455081737313e-01
    1.0728408211274037e-02 -4.3455862862994471e-01
    1.1803148833712194e-02 -3.8030001206094349e-01
    1.3446710470282819e-02 -3.2184725782662482e-01
    1.3940350945882222e-02 -3.0799620140360723e-01
    1.7901841042864700e-02 -2.3072047842248006e-01
    2.3416309795275654e-02 -1.7245224542369073e-01
    3.2872162068482015e-02 -1.2104550653376049e-01
    2.6938866495732093e-02 -1.4879590519303287e-01
    2.4986687573572825e-02 -1.6101529717988264e-01
    1.6809676037595873e-02 -2.4759378423606918e-01
    1.4815283234159288e-02 -2.8641098093474004e-01
    1.4503010386683442e-02 -2.9372522840900400e-01
    1.2439163842293826e-02 -3.5498769015643572e-01
    1.2268220054154637e-02 -3.6140316116210047e-01
    1.2619161097645649e-02 -3.4850751767866145e-01
    1.2808985949640408e-02 -3.4195830721151921e-01
    1.1803148833712194e-02 -3.8030001206094349e-01
    1.2268220054154637e-02 -3.6140316116210047e-01
    1.2105638631145305e-02 -3.6775793892089437e-01
    1.1043116626634403e-02 -4.1680788567315052e-01
    1.0360989385268374e-02 -4.5782855622990942e-01
    9.3554014277175222e-03 -5.4257950879524186e-01
    9.0241310979964594e-03 -5.8151891732576466e-01
    8.7889048706273881e-03 -6.1490605195941794e-01
    8.7534494523541315e-03 -6.2048368229954287e-01
    8.4489582065571511e-03 -6.7667919787895447e-01
    8.3495375149361221e-03 -6.9946215896784369e-01
    8.3264487016837755e-03 -7.0519309220758619e-01
    8.5031435603228640e-03 -6.6536330927797138e-01
    8.4756629793684129e-03 -6.7101548425108049e-01
    8.4756629793684129e-03 -6.7101548425108049e-01
    8.6528959628419128e-03 -6.3725298787716611e-01
    8.9014975133838176e-03 -5.9819991412144324e-01
    9.1119638736861207e-03 -5.7040235945746331e-01
    9.3037878736385426e-03 -5.4815096786202533e-01
    9.7644871513315502e-03 -5.0338222570763369e-01
    9.9695979512439015e-03 -4.8642280256700837e-01
    9.6383686760823217e-03 -5.1462625530417883e-01
    1.0728408211274037e-02 -4.3455862862994471e-01
    1.1156691387986264e-02 -4.1082401500888049e-01
    1.2439163842293826e-02 -3.5498769015643572e-01
    1.5151583694560076e-02 -2.7896417632583531e-01
    1.5151583694560076e-02 -2.7896417632583531e-01
    1.5151583694560076e-02 -2.7896417632583531e-01
    2.1022480482488514e-02 -1.9352824992904588e-01
    2.9455753341062627e-02 -1.3558153613666010e-01
    4.6318900729807128e-02 -8.5280286542244163e-02
    3.2872162068482015e-02 -1.2104550653376049e-01
    2.4986687573572825e-02 -1.6101529717988264e-01
    2.3416309795275654e-02 -1.7245224542369073e-01
    1.6809676037595873e-02 -2.4759378423606918e-01
    1.7327795484381067e-02 -2.3927371020851113e-01
    1.6339112158249389e-02 -2.5570415597837942e-01
    1.4815283234159288e-02 -2.8641098093474004e-01
    1.3685772421379864e-02 -3.1497039417435607e-01
    1.3009508805881283e-02 -3.3533535333571252e-01
    1.2268220054154637e-02 -3.6140316116210047e-01
    1.1950800409783824e-02 -3.7405573845785473e-01
    1.2808985949640408e-02 -3.4195830721151921e-01
    1.2439163842293826e-02 -3.5498769015643572e-01
    1.1662182059675175e-02 -3.8649397584049860e-01
    1.0829226370040419e-02 -4.2867316659744836e-01
    1.0537914797648113e-02 -4.4624455081737313e-01
    9.6383686760823217e-03 -5.1462625530417883e-01
    9.3037878736385426e-03 -5.4815096786202533e-01
    9.4634130363752105e-03 -5.3142017971413869e-01
    9.4634130363752105e-03 -5.3142017971413869e-01
    8.9820776266421945e-03 -5.8707767303377956e-01
    9.6383686760823217e-03 -5.1462625530417883e-01
    9.2050551157906915e-03 -5.5928186858757156e-01
    1.0042611395711665e-02 -4.8074017006186526e-01
    9.5199374854734922e-03 -5.2583048204961891e-01
    1.0447845497793687e-02 -4.5204847758504452e-01
    1.0537914797648113e-02 -4.4624455081737313e-01
    1.0631372601671430e-02 -4.4041516463602765e-01
    1.1527446246461613e-02 -3.9264063297965823e-01
    1.1398529822918129e-02 -3.9874279416634173e-01
    1.1156691387986264e-02 -4.1082401500888049e-01
    1.3009508805881283e-02 -3.3533535333571252e-01
    1.4815283234159288e-02 -2.8641098093474004e-01
    1.6809676037595873e-02 -2.4759378423606918e-01
    1.8542400150362796e-02 -2.2190634114964861e-01
    2.0081790300106900e-02 -2.0335531332779730e-01
    2.0081790300106900e-02 -2.0335531332779730e-01
    2.3416309795275654e-02 -1.7245224542369073e-01
    3.2872162068482015e-02 -1.2104550653376049e-01
    3.7888174407254539e-02 -1.0463701596227337e-01
    2.6938866495732093e-02 -1.4879590519303287e-01
    2.6938866495732093e-02 -1.4879590519303287e-01
    2.6938866495732093e-02 -1.4879590519303287e-01
    3.2872162068482015e-02 -1.2104550653376049e-01
    2.2118258880193822e-02 -1.8325416653445786e-01
    2.0081790300106900e-02 -2.0335531332779730e-01
    1.8542400150362796e-02 -2.2190634114964861e-01
    1.6339112158249389e-02 -2.5570415597837942e-01
    1.4212118249710127e-02 -3.0091723297671441e-01
    1.3940350945882222e-02 -3.0799620140360723e-01
    1.3685772421379864e-02 -3.1497039417435607e-01
    1.4212118249710127e-02 -3.0091723297671441e-01
    1.4815283234159288e-02 -2.8641098093474004e-01
    1.4815283234159288e-02 -2.8641098093474004e-01
    1.4815283234159288e-02 -2.8641098093474004e-01
    1.3221712281388322e-02 -3.2863353450309968e-01
    1.2105638631145305e-02 -3.6775793892089437e-01
    1.2619161097645649e-02 -3.4850751767866145e-01
    1.1950800409783824e-02 -3.7405573845785473e-01
    1.0277183834930452e-02 -4.6358632497276536e-01
    1.0728408211274037e-02 -4.3455862862994471e-01
    1.2808985949640408e-02 -3.4195830721151921e-01
    1.1950800409783824e-02 -3.7405573845785473e-01
    1.1156691387986264e-02 -4.1082401500888049e-01
    1.1662182059675175e-02 -3.8649397584049860e-01
    1.1398529822918129e-02 -3.9874279416634173e-01
    1.1527446246461613e-02 -3.9264063297965823e-01
    1.1662182059675175e-02 -3.8649397584049860e-01
    1.3009508805881283e-02 -3.3533535333571252e-01
    1.3221712281388322e-02 -3.2863353450309968e-01
    1.4212118249710127e-02 -3.0091723297671441e-01
    1.5515041270989387e-02 -2.7137319479402017e-01
    1.7327795484381067e-02 -2.3927371020851113e-01
    2.0081790300106900e-02 -2.0335531332779730e-01
    2.3416309795275654e-02 -1.7245224542369073e-01
    2.6938866495732093e-02 -1.4879590519303287e-01
    2.9455753341062627e-02 -1.3558153613666010e-01
    2.9455753341062627e-02 -1.3558153613666010e-01
    2.6938866495732093e-02 -1.4879590519303287e-01</input_scale>
  <output_scale>
    1.0526315789473684e+00 0.</output_scale>
  <inv_output_scale>
    9.4999999999999996e-01 0.</inv_output_scale>
  <weights>
    <_>
      -3.1086309893170305e-01 -1.1825330870077426e-01
      -9.8720458769085140e-02 -3.8532284583794457e-02
      8.7343873178047676e-02 -1.0428902781177274e-02
      3.6841736913760186e-02 7.6654172127689588e-02
      7.8533263435534347e-03 -1.1502784053044329e-01
      -2.7438043184168041e-02 -7.6282927288676042e-02
      -3.4194632218534145e-02 5.0206078351659612e-02
      5.1960395873033929e-03 -3.1107571069988755e-02
      1.1243290241733088e-02 -6.4627544046098911e-02
      1.0378879785109195e-01 -1.1255252041113356e-01
      7.2575120956098763e-02 -9.5362681546149672e-03
      -8.6015274672066808e-03 -9.7142302020346114e-02
      -2.1042820655020906e-02 1.1140528807724365e-02
      -1.0754583392762222e-01 1.1668716375211664e-01
      -3.5070220172669600e-02 -3.0853540252185077e-02
      1.0717975920677478e-01 1.1973879254953541e-01
      -9.6138412326016998e-02 -4.0588140643282318e-02
      -5.6092293891749315e-02 -1.2532699379625962e-02
      -9.5680568350867856e-02 -4.5756931453206862e-02
      1.1258128332332108e-01 9.1238781538830527e-02
      -9.2273726475409629e-02 -1.4930732739966996e-02
      -3.2483361803940708e-02 5.0237629790757729e-03
      2.7317416106458214e-02 4.8969463263026976e-03
      -2.2906285306901969e-03 2.2652607827191380e-02
      -4.6323760524504213e-03 -8.0881326413102111e-02
      7.6555596127654895e-03 -1.3428731043388256e-02
      5.0594023355296667e-03 -6.6544112493612006e-04
      -2.2724527425362416e-03 5.8784413894667703e-03
      -6.3801299160021526e-03 -1.0793832368069545e-02
      7.9730726057398643e-02 -8.1348708826031776e-02
      1.2495499586378991e-02 7.5136763214023470e-03
      2.0907298026339566e-03 -3.1460255678835258e-02
      1.1387608927068475e-02 -5.9408866042743973e-03
      -8.5109947598390967e-02 8.8332864756027279e-02
      6.8727997936114463e-03 1.9754706054362441e-03
      3.0769750992195404e-02 5.8911491879127691e-02
      -1.1289579151739723e-01 -9.3730653095429870e-04
      -7.3793853597558271e-03 6.9536251209765237e-03
      -3.1277722734618194e-02 1.0998900955149753e-03
      2.3947218581014142e-02 3.0486432769487842e-02
      -1.7391047852078345e-01 -2.8912518049001520e-02
      -4.2280211582351498e-02 -1.1458435741572169e-02
      3.8458511701576222e-02 -1.6365682170564756e-03
      9.7070857127420519e-03 2.7913005656546773e-02
      -8.2460394504252214e-04 -2.5224823542105930e-02
      -9.8860970298812606e-03 -1.3365901909579711e-02
      -7.9341036130390966e-03 1.5230179858225879e-02
      -2.1003845800843962e-03 -7.6379142752569110e-03
      -4.3138892042164618e-04 -1.4339487187246792e-02
      3.0631642255670385e-02 -1.3954422364021715e-02
      1.4869013921178566e-02 2.0103974152629223e-03
      2.0564662317839881e-03 -4.1323849485329633e-02
      -7.9047571866470434e-03 1.0200739468730303e-03
      -4.2185771742626707e-02 4.5328517926132426e-02
      -8.2397742064583852e-03 -4.9245952194521747e-03
      3.6050378437248662e-02 4.4723634036487880e-02
      -3.4958826093125929e-02 -1.3138073377484877e-02
      -1.5715747852701436e-02 1.5192894047437856e-04
      -4.5352191181914907e-02 -1.3208670067696000e-02
      2.9552807768638535e-02 4.4705695061794559e-02
      -7.5363331946110862e-02 1.3764577870049984e-02
      1.1196888869117518e-02 3.0090336730280411e-02
      -5.9922095939274663e-03 2.4234022621103603e-02
      -2.5042202330551742e-02 -8.4640024106120027e-03
      -1.9537962999004371e-02 2.3875784222134572e-02
      2.8846606305539955e-02 1.8052520888887067e-02
      2.9857777762741147e-02 -3.7606836830793612e-02
      -1.6789705579752328e-02 2.9437977632293281e-02
      -1.8292652771988018e-02 2.1041043801327944e-02
      -3.5420662434546057e-02 2.3539419701432609e-02
      -2.4510774917861494e-02 1.9462189599149884e-02
      2.1782220254818307e-02 1.0384820478882548e-02
      2.6494436004795088e-02 -2.0948863294468587e-02
      3.5642155746976878e-02 -3.7462310690320272e-02
      3.1517656317994795e-02 2.1874524373861580e-02
      -1.0872124398095873e-02 -1.4307727271625967e-02
      1.5324847303295910e-01 2.6103481920839316e-02
      3.1123750571738378e-02 1.9606358889099652e-02
      9.9181310037809306e-03 3.7240423828868122e-02
      -1.1517380044377168e-02 -6.7183361227719915e-03
      -7.0995304642234983e-02 -4.2776346504301746e-02
      -2.1427835251968928e-02 -1.3755343585479975e-02
      2.2408214008638832e-02 -1.9766405960860742e-03
      2.6330862736538632e-02 2.5172255534388007e-02
      -2.7381063318172361e-03 -4.1470149341312434e-02
      -1.0911189135421290e-02 -3.3246949125721327e-02
      -1.2779187678658771e-02 2.2577996633317166e-02
      -6.0007209985935709e-03 -1.5386915755441138e-02
      -9.4934091159298243e-04 -3.9480692932748945e-02
      6.5777281695682727e-02 -4.9585753399258990e-02
      3.6664908810613663e-02 -2.4217496796563281e-03
      2.0430999182717833e-03 -1.9727103385435017e-02
      -1.2327018432301582e-02 -7.2964543933520104e-04
      -2.0368068295487703e-02 9.1841849734002456e-03
      -1.2676990266451237e-02 -2.4219179506247725e-02
      3.2580568003669617e-02 3.5188658303167655e-02
      -1.7609799036731758e-03 -3.0596192920574031e-02
      -3.5018998642682847e-02 -1.1715998414551624e-04
      -2.1264057139861063e-02 -2.4644151749377220e-02
      3.6942879394589123e-02 2.1069176345736681e-02
      -1.1776658690238978e-01 -4.9817977113651435e-02
      -2.0428813171456325e-02 5.8227124223150031e-03
      2.1895129234991730e-02 1.0527903089885047e-02
      9.3258794164082382e-03 2.1525475779498173e-02
      -1.5725965569842466e-02 1.0244134596353633e-03
      7.3025275510283467e-03 -2.6127634394137129e-02
      4.2427788356989805e-03 5.4578347944025888e-03
      -1.4237954214328871e-02 2.9547724506512676e-03
      -1.5225642317374628e-02 -2.5500070432519180e-02
      3.7247657534659417e-02 -6.3487566142770135e-03
      2.2876261247287432e-02 1.2328160975330904e-02
      1.5723728822783313e-02 -1.9566670859095019e-02
      4.8937462675925809e-03 -1.4896942557568451e-02
      3.6156756336152139e-02 -5.2684646913660683e-02
      6.6425795446877992e-03 -8.2998717643001513e-03
      3.5947058268300441e-02 3.6773341683496129e-02
      1.4107811583160632e-02 -1.3105843064559803e-02
      -1.7063639485881087e-02 1.4889562819624206e-02
      -1.9699496459094686e-02 -6.5616494114132977e-03
      4.2532227549222208e-02 1.7544101957839082e-02
      -2.5189602500504343e-01 2.3810641017318467e-02
      -1.7622754721281046e-02 5.7969857899012794e-02
      1.8828736009661305e-02 6.1461894764125460e-02
      -4.1732530273963141e-02 1.6208038813333717e-02
      -7.0472543843662944e-02 -1.8771658060466774e-02
      6.6635232123919488e-02 2.9425641987119149e-03
      4.8490883551820477e-02 -3.2801661244949251e-02
      -5.8286892810160605e-02 5.4425756379425851e-02
      -7.5417183045026939e-02 1.0808588947968715e-02
      4.7859685892562044e-02 -2.4681675007791250e-02
      -1.3272352508851355e-02 6.3093072748899540e-02
      6.8761888184943970e-02 -1.9526062758724455e-02
      7.0595495592416374e-02 -6.9232567312516896e-02
      -1.1148331869087286e-02 -3.1264193276132868e-03
      5.8221452625939633e-02 3.4353549815937426e-02
      8.1690588707343439e-04 -4.6155888854761042e-03
      1.0491093267518434e-03 2.6590654118273264e-02
      2.0292624946515850e-02 7.4644770349287931e-02
      -1.3630662154034032e-02 3.5961059692991508e-02
      -1.4778561191563485e-02 1.1745030212417859e-02
      -1.4490814605519706e-01 7.6709880508975207e-03
      -1.6261334893484639e-02 1.3137568484275467e-02
      1.5892959427671858e-02 2.3378375841669668e-02
      5.0448268994442344e-05 1.9136506185423261e-02
      -3.1622026850423278e-02 -3.5106330944333290e-02
      2.3425992160753525e-02 -1.9355779059915038e-02
      5.8651507992360866e-03 3.4888526713346859e-03
      -2.5001382599776755e-02 1.0172685175454046e-02
      -3.4986091814335235e-02 -1.8746864120471295e-02
      5.3118311830008452e-02 -4.1266993237129956e-02
      1.5763314481538667e-02 2.3677918791033960e-02
      3.1225882511499721e-02 -1.4837171329155794e-02
      2.6452541094949236e-02 -3.2809017683855982e-02
      -3.7817292518635359e-02 1.3539767016111544e-02
      1.5694125083235901e-02 -5.3266473412374726e-03
      5.0299509062446263e-03 -4.6485644069111090e-03
      -1.0482284754632634e-02 -1.1422345252019324e-02
      -1.4283808135141424e-02 3.6072654079611230e-02
      -9.1570606701537969e-03 -4.0368817562352662e-03
      -3.1902150077992161e-04 9.0853230777635467e-03
      -8.4065839766325812e-02 1.1035070982737210e-02
      -1.3907189409972103e-02 2.3781684891564705e-02
      1.3109478621438332e-02 2.6584033995107528e-02
      -8.3678488072092359e-03 1.3861939491048853e-02
      -3.3803628579503864e-02 -2.1489707901014728e-02
      3.3786996006501695e-02 -1.4518621219685356e-02
      1.5132270215471744e-02 -9.2132508806540159e-03
      -2.4132248180719865e-02 1.6900253361440819e-02
      -3.3387822958645147e-02 -1.4356904220845403e-02
      3.9900608797121984e-02 -2.5065685594442201e-02
      9.4276018540809074e-03 2.2333459859525780e-02
      3.0864056422710087e-02 -1.5609828593611636e-02
      3.7349481688050967e-02 -3.3777779811259297e-02
      -1.7292574535946875e-02 4.0691390820286732e-03
      2.2716485117584732e-02 1.4963940225946513e-03
      2.9019548244555932e-03 -7.3015392316654968e-03
      -5.0105945984799003e-03 -3.5218711418050384e-03
      -9.1494458144439194e-03 3.6909555295793157e-02
      -9.0095660926921908e-03 4.7407509005584145e-03
      -4.7658265631938639e-03 9.8288581002683797e-03
      -3.3896887946134199e-02 -8.0733115385748386e-02
      -4.3028984359654153e-02 -3.2083024646238592e-02
      4.3325026338085756e-02 -2.3671309835392756e-02
      4.9197486629625066e-02 4.7970929900156924e-02
      7.4216927164279271e-03 -7.1714867807045501e-02
      -2.0686570394837147e-02 -7.1551024766449048e-02
      -3.6426671947747014e-02 4.7762034506048434e-02
      1.8800004871654476e-02 -3.8485047971697502e-02
      1.0647438273865056e-02 -6.8618804824278068e-02
      3.6477717928790648e-02 -4.5036894051155400e-02
      7.1928519361945845e-02 -2.9426551483330416e-02
      -1.5329727262905518e-02 -4.3449309282551883e-02
      -1.5346885887530260e-02 1.2322549143605361e-02
      -4.9354587332639137e-02 4.2265343690690502e-02
      -3.0920973250889133e-02 -4.9547346413376575e-02
      6.5374699834374800e-02 6.0639595060052266e-02
      -7.2558790861175825e-03 -5.4636036078805898e-02
      -6.0151142992060591e-02 -8.9633709280034640e-03
      -3.9742613087664115e-02 -4.8339531189490283e-02
      7.2780251561874745e-02 3.7418100540735362e-02
      1.7432954723882021e-01 -5.8181364763208593e-02
      -1.4364445135132731e-02 -3.1945417625018430e-02
      2.3035236658704612e-02 -2.6715012539760795e-02
      4.2747536314721633e-02 3.3696864812252675e-02
      1.3036604560753669e-02 -5.0726630773398299e-02
      -1.9241762064537059e-02 -5.9514533733169367e-02
      -3.4254379861790078e-02 4.7676497831699159e-02
      2.4118407071865688e-02 -3.7954574400413887e-02
      1.3902034150549842e-02 -6.2317659540156702e-02
      -6.4790303720731121e-03 -4.5416926169530906e-02
      6.1985060197561143e-02 -3.5507849029110791e-02
      -1.7093675730359605e-02 -1.4479885047235873e-02
      -1.6356484002092875e-02 1.5883838120169115e-02
      -7.0601446516829827e-02 4.9979118615731129e-02
      -3.1416876330299659e-02 -4.6525149257126468e-02
      4.2999271422052232e-02 4.4341570513414551e-02
      3.2140073127143821e-02 -4.3809235335949950e-02
      -5.1634726255261186e-02 -1.3577085197014232e-02
      -9.2745357946683871e-03 -4.1624705870411498e-02
      5.1757427904018265e-02 8.9316263658608449e-03
      8.9287286099939966e-02 -8.2678330006798834e-02
      -4.0037280297916797e-02 -4.0758030287964958e-02
      4.3772265381379773e-02 -2.9528384659637558e-02
      5.1435246662730548e-02 5.4319314703462566e-02
      1.3119564527775053e-02 -7.4267173994289531e-02
      -2.5438756766032612e-02 -7.8415814837928199e-02
      -4.1452004722443168e-02 5.7748919935849879e-02
      2.3196446660545090e-02 -4.2474264962270136e-02
      1.4554923553570638e-02 -7.6692713018479117e-02
      1.9404986017688898e-02 -6.3660572512148073e-02
      8.1378427239572143e-02 -3.6879947771024581e-02
      -1.9912443150855733e-02 -4.0589652361249173e-02
      -1.9675722471752630e-02 1.7545054452583808e-02
      -8.7937330736168939e-02 7.3842198374937162e-02
      -3.8627002429030416e-02 -5.4155235412117357e-02
      6.8118841997989218e-02 7.2225569610900639e-02
      8.3428677097216169e-03 -5.4113727367017819e-02
      -6.3977155001194844e-02 -1.4941373587001717e-02
      -3.6187880781857314e-02 -5.4912570014549453e-02
      7.7581208371654720e-02 3.4985322538670864e-02
      1.0572131115821339e-01 -5.3119335764681974e-02
      -2.0587575248171942e-02 -1.7476938804827100e-04
      2.5824452238459281e-02 8.6253768497959868e-04
      1.4360642445976167e-02 3.4193817789487685e-02
      -1.7652386327822737e-02 -4.3732722860477455e-02
      1.0200314693605465e-02 -5.2080956553786237e-02
      -6.8962042696919974e-03 2.4860608353152118e-02
      -3.8629322571969251e-03 -6.0928906597575412e-03
      -1.9367362698456701e-02 -4.8428426467397402e-02
      -3.0510546618175639e-02 -3.2201422499909163e-02
      5.5055495294414426e-02 -5.4916250781583114e-03
      1.3155289116998375e-02 -2.0193701523728767e-02
      1.5640009936617974e-02 -1.6995983900516268e-02
      -3.0449325631998810e-02 1.6354591541142112e-02
      -4.1330580805791854e-05 -1.2386211304154703e-02
      4.1942244917615071e-02 1.1208070221607110e-02
      6.5450342850837673e-02 -1.5900655405464880e-02
      -3.3380038955022812e-02 2.0118601295659577e-02
      -1.7954993344492368e-02 -1.9670536192768946e-02
      4.9539073866562575e-02 1.5108965952672873e-02
      1.2736162138098200e-01 -6.0823085632566568e-02
      -1.1699802901394279e-02 -2.6316143204358908e-02
      1.7305027553377487e-02 -2.1382286972690314e-02
      3.2919642992969338e-02 3.1489147902715231e-02
      1.4325920437194863e-02 -3.8281788903780624e-02
      -1.8888366969798634e-02 -6.2376195041871862e-02
      -2.7706532702246996e-02 3.3733726744955943e-02
      2.1192288363910780e-02 -3.0172342276311125e-02
      1.4511804615839678e-02 -4.6629246426020100e-02
      -2.3863107559563144e-02 -2.9492295661305675e-02
      6.0449959886155293e-02 -2.5987228356401861e-02
      -1.8100704839703659e-02 -1.2428070780281492e-02
      -1.4136291230409312e-02 1.4017903071932042e-02
      -2.8645948083669059e-02 1.9694849251622709e-02
      -2.6273091196535554e-02 -3.3044204576024791e-02
      4.7944606700836202e-02 3.2828204444909040e-02
      3.8810863872375805e-02 -3.0538551222416953e-02
      -3.3907225540443890e-02 -1.4221826865351665e-02
      -9.4423135180202768e-03 -3.0301473848526616e-02
      5.5404659839353158e-02 8.1968348820119184e-03
      4.6452890468333105e-02 -7.2419920930863524e-02
      -4.0628134629071090e-02 -4.4428807687547471e-02
      4.2943609923977125e-02 -2.7717201218292995e-02
      5.2036330040216690e-02 5.1916885626666048e-02
      1.6470764845515351e-02 -6.7424117079315476e-02
      -2.9682534208139391e-02 -7.2288830668262596e-02
      -4.6724125219189450e-02 6.7656432054547272e-02
      1.6703360462478563e-02 -4.6641455389003723e-02
      1.7812407912794322e-02 -7.5247345714431521e-02
      1.2414848942594476e-02 -6.1379584061099196e-02
      8.1732450543433005e-02 -3.0688606027867167e-02
      -1.6534066962700478e-02 -3.9332879107627450e-02
      -2.6716340853600831e-02 1.9697811100970419e-02
      -6.1109045142941097e-02 5.6768114073560548e-02
      -4.4423693653140438e-02 -4.6411345038329221e-02
      6.0149302806586473e-02 6.7576891720763921e-02
      2.1759152967286742e-03 -5.2070984491777432e-02
      -6.7151407472076846e-02 -2.2098560816585310e-02
      -3.4513039371371033e-02 -6.3065032318002992e-02
      6.6543597028480062e-02 2.9670710002271512e-02
      -1.1787815138991807e-01 -8.7337373397876658e-02
      -4.7400075238888978e-02 -4.2003595756038660e-02
      3.1617587748191206e-02 -2.1306410283588404e-02
      3.9518944732924832e-02 2.9652052203961270e-02
      7.7459435675719659e-03 -8.3702894894215452e-02
      -2.7688263295088188e-02 -4.1766100755716427e-02
      -4.1561100651751233e-02 6.0620100945451935e-02
      8.2859148789079032e-03 -4.0445573585654156e-02
      1.0198756393513841e-02 -4.4250493515607218e-02
      3.3608250124531655e-02 -7.8073502951240978e-02
      4.6039656618834489e-02 -1.7208853317254059e-02
      -1.0372931828873066e-02 -4.7142743918087274e-02
      -2.3100272547549715e-02 1.1107964247560826e-02
      -8.6471206549241106e-02 8.0925267414022117e-02
      -3.8966998621033401e-02 -3.4515128355580661e-02
      6.3178604082654424e-02 7.5057742953036910e-02
      -8.6396651707358208e-03 -3.6057867820883292e-02
      -4.8309200490461432e-02 -1.1542067592424052e-02
      -4.8643252529098097e-02 -5.5163355249763062e-02
      8.0844620985768598e-02 4.6676097977865330e-02
      -1.3512732280629142e-01 -9.9767495575486115e-02
      -5.7126406321329593e-02 -5.9423952824557105e-02
      4.5117671507450857e-02 -3.7802779525672354e-02
      5.8486713120546693e-02 4.3122438330583740e-02
      2.1052606892533608e-02 -1.0782891536039407e-01
      -4.8391496517566995e-02 -5.6230610449274555e-02
      -5.8985736345687864e-02 8.1699988730242257e-02
      1.7205048778140223e-02 -5.6711883514506102e-02
