<?xml version="1.0"?>
<opencv_storage>
<shapeML type_id="opencv-ml-ann-mlp">
  <layer_sizes type_id="opencv-matrix">
    <rows>1</rows>
    <cols>3</cols>
    <dt>i</dt>
    <data>
      1600 40 1</data></layer_sizes>
  <activation_function>SIGMOID_SYM</activation_function>
  <f_param1>5.9999999999999998e-01</f_param1>
  <f_param2>1.</f_param2>
  <min_val>-9.4999999999999996e-01</min_val>
  <max_val>9.4999999999999996e-01</max_val>
  <min_val1>-9.7999999999999998e-01</min_val1>
  <max_val1>9.7999999999999998e-01</max_val1>
  <training_params>
    <train_method>BACKPROP</train_method>
    <dw_scale>1.0000000000000001e-01</dw_scale>
    <moment_scale>1.0000000000000001e-01</moment_scale>
    <term_criteria><epsilon>9.9999999747524271e-07</epsilon>
      <iterations>4000</iterations></term_criteria></training_params>
  <input_scale>
    6.3476599466241970e-02 -6.2017367294604227e-02
    3.1923005267651211e-02 -1.2475657231036105e-01
    4.4971300516759960e-02 -8.7874955032749349e-02
    6.3476599466241970e-02 -6.2017367294604227e-02
    3.6790004975290752e-02 -1.0783277320343841e-01
    3.6790004975290752e-02 -1.0783277320343841e-01
    3.1923005267651211e-02 -1.2475657231036105e-01
    2.8608516770953191e-02 -1.3975424859373684e-01
    2.4273614396622737e-02 -1.6600920190793711e-01
    2.1492097484838411e-02 -1.8898223650461360e-01
    2.0429769474368979e-02 -1.9960119601394979e-01
    1.8724491410006001e-02 -2.1952851997938069e-01
    1.8724491410006001e-02 -2.1952851997938069e-01
    1.7405553257374976e-02 -2.3807595834800258e-01
    1.5892087700551387e-02 -2.6395478996892824e-01
    1.5892087700551387e-02 -2.6395478996892824e-01
    1.4417337286545283e-02 -2.9580398915498080e-01
    1.8026142932306526e-02 -2.2895273494481277e-01
    1.8724491410006001e-02 -2.1952851997938069e-01
    1.3571271318291866e-02 -3.1822291367029204e-01
    1.2478354962115544e-02 -3.5355339059327373e-01
    1.3571271318291866e-02 -3.1822291367029204e-01
    1.6347723869116110e-02 -2.5555062599997597e-01
    1.6347723869116110e-02 -2.5555062599997597e-01
    2.0429769474368979e-02 -1.9960119601394979e-01
    2.2750716193689222e-02 -1.7782168978975485e-01
    2.1492097484838411e-02 -1.8898223650461360e-01
    1.5476078984904613e-02 -2.7216552697590868e-01
    1.7405553257374976e-02 -2.3807595834800258e-01
    2.1492097484838411e-02 -1.8898223650461360e-01
    2.0429769474368979e-02 -1.9960119601394979e-01
    2.1492097484838411e-02 -1.8898223650461360e-01
    2.2750716193689222e-02 -1.7782168978975485e-01
    2.6167040795969113e-02 -1.5339299776947410e-01
    3.1923005267651211e-02 -1.2475657231036105e-01
    2.8608516770953191e-02 -1.3975424859373684e-01
    3.6790004975290752e-02 -1.0783277320343841e-01
    4.4971300516759960e-02 -8.7874955032749349e-02
    6.3476599466241970e-02 -6.2017367294604227e-02
    3.6790004975290752e-02 -1.0783277320343841e-01
    3.6790004975290752e-02 -1.0783277320343841e-01
    2.8608516770953191e-02 -1.3975424859373684e-01
    4.4971300516759960e-02 -8.7874955032749349e-02
    4.4971300516759960e-02 -8.7874955032749349e-02
    2.8608516770953191e-02 -1.3975424859373684e-01
    2.8608516770953191e-02 -1.3975424859373684e-01
    2.6167040795969113e-02 -1.5339299776947410e-01
    2.4273614396622737e-02 -1.6600920190793711e-01
    1.9517940062203892e-02 -2.0976176963403034e-01
    1.8724491410006001e-02 -2.1952851997938069e-01
    1.5476078984904613e-02 -2.7216552697590868e-01
    1.3834005065564876e-02 -3.1086758509401535e-01
    1.3571271318291866e-02 -3.1822291367029204e-01
    1.2478354962115544e-02 -3.5355339059327373e-01
    1.1372549019607844e-02 -3.9999999999999997e-01
    1.0571530139625125e-02 -4.4412577770494055e-01
    1.0672191862121047e-02 -4.3792787296289815e-01
    1.0292056960393108e-02 -4.6255106569123050e-01
    1.0122549437535808e-02 -4.7471266327754130e-01
    1.1242825129189990e-02 -4.0642166702646576e-01
    1.0474760980079661e-02 -4.5029432259193031e-01
    1.0999970897856275e-02 -4.1913682214245462e-01
    1.0571530139625125e-02 -4.4412577770494055e-01
    1.0999970897856275e-02 -4.1913682214245462e-01
    1.1956597139968179e-02 -3.7381545081279827e-01
    1.2121477564127420e-02 -3.6712751013190520e-01
    1.3571271318291866e-02 -3.1822291367029204e-01
    1.2478354962115544e-02 -3.5355339059327373e-01
    1.3094222665948311e-02 -3.3262335737638815e-01
    1.5094399613236727e-02 -2.8020063649858978e-01
    1.7405553257374976e-02 -2.3807595834800258e-01
    1.8724491410006001e-02 -2.1952851997938069e-01
    1.8026142932306526e-02 -2.2895273494481277e-01
    1.8724491410006001e-02 -2.1952851997938069e-01
    1.9517940062203892e-02 -2.0976176963403034e-01
    2.0429769474368979e-02 -1.9960119601394979e-01
    2.6167040795969113e-02 -1.5339299776947410e-01
    3.6790004975290752e-02 -1.0783277320343841e-01
    3.1923005267651211e-02 -1.2475657231036105e-01
    2.8608516770953191e-02 -1.3975424859373684e-01
    6.3476599466241970e-02 -6.2017367294604227e-02
    2.8608516770953191e-02 -1.3975424859373684e-01
    2.8608516770953191e-02 -1.3975424859373684e-01
    3.1923005267651211e-02 -1.2475657231036105e-01
    2.4273614396622737e-02 -1.6600920190793711e-01
    2.1492097484838411e-02 -1.8898223650461360e-01
    2.0429769474368979e-02 -1.9960119601394979e-01
    2.0429769474368979e-02 -1.9960119601394979e-01
    1.5094399613236727e-02 -2.8020063649858978e-01
    1.3834005065564876e-02 -3.1086758509401535e-01
    1.2478354962115544e-02 -3.5355339059327373e-01
    1.1956597139968179e-02 -3.7381545081279827e-01
    1.1118753370328730e-02 -4.1279969409381373e-01
    9.8902117846594133e-03 -4.9280538030458115e-01
    9.9649264389358779e-03 -4.8679238351123538e-01
    9.4327497145561545e-03 -5.3452248382484868e-01
    9.2146309018556315e-03 -5.5817361899746187e-01
    9.0680856380345679e-03 -5.7587555344989638e-01
    9.0680856380345679e-03 -5.7587555344989638e-01
    9.3202309273743740e-03 -5.4635836470815291e-01
    9.1642611595043263e-03 -5.6407607481776623e-01
    9.3202309273743740e-03 -5.4635836470815291e-01
    9.4917833165676820e-03 -5.2859413987092441e-01
    9.6809566243151804e-03 -5.1075391845524920e-01
    9.4327497145561545e-03 -5.3452248382484868e-01
    9.3755906308211588e-03 -5.4044352889158753e-01
    1.0672191862121047e-02 -4.3792787296289815e-01
    1.1118753370328730e-02 -4.1279969409381373e-01
    1.1372549019607844e-02 -3.9999999999999997e-01
    1.2478354962115544e-02 -3.5355339059327373e-01
    1.4115297502111266e-02 -3.0339777389595485e-01
    1.4742692519607040e-02 -2.8807560095783868e-01
    1.5094399613236727e-02 -2.8020063649858978e-01
    1.5094399613236727e-02 -2.8020063649858978e-01
    1.5892087700551387e-02 -2.6395478996892824e-01
    1.5892087700551387e-02 -2.6395478996892824e-01
    2.0429769474368979e-02 -1.9960119601394979e-01
    2.2750716193689222e-02 -1.7782168978975485e-01
    2.2750716193689222e-02 -1.7782168978975485e-01
    3.1923005267651211e-02 -1.2475657231036105e-01 1. 0.
    4.4971300516759960e-02 -8.7874955032749349e-02
    2.2750716193689222e-02 -1.7782168978975485e-01
    2.1492097484838411e-02 -1.8898223650461360e-01
    1.9517940062203892e-02 -2.0976176963403034e-01
    1.9517940062203892e-02 -2.0976176963403034e-01
    1.6849504884022412e-02 -2.4693239916239743e-01
    1.2671947084422076e-02 -3.4665786276924765e-01
    1.2876876074585599e-02 -3.3968311024337872e-01
    1.1508324128262047e-02 -3.9353177335148953e-01
    1.1650590554468387e-02 -3.8701387014268551e-01
    1.0122549437535808e-02 -4.7471266327754130e-01
    9.5527713509338964e-03 -5.2265737506259025e-01
    9.1642611595043263e-03 -5.6407607481776623e-01
    9.1154313955119689e-03 -5.6997639990327720e-01
    8.6319251652715416e-03 -6.4094524790407070e-01
    8.5058172194653562e-03 -6.6482249531453352e-01
    8.4207598032781782e-03 -6.8285586680606369e-01
    8.5669746280017268e-03 -6.5286254923737297e-01
    8.7008897114618216e-03 -6.2906432511603283e-01
    8.4765975617639086e-03 -6.7082039324993692e-01
    8.4207598032781782e-03 -6.8285586680606369e-01
    8.4482524944714064e-03 -6.7683126306282415e-01
    8.3940982987344495e-03 -6.8889496382717208e-01
    8.6319251652715416e-03 -6.4094524790407070e-01
    8.8925264818458354e-03 -5.9947894041408989e-01
    9.2146309018556315e-03 -5.5817361899746187e-01
    9.1154313955119689e-03 -5.6997639990327720e-01
    1.0571530139625125e-02 -4.4412577770494055e-01
    1.0776979534532804e-02 -4.3169854802122781e-01
    1.0999970897856275e-02 -4.1913682214245462e-01
    1.1799834971833038e-02 -3.8044295512634102e-01
    1.5094399613236727e-02 -2.8020063649858978e-01
    1.5476078984904613e-02 -2.7216552697590868e-01
    1.5476078984904613e-02 -2.7216552697590868e-01
    1.5476078984904613e-02 -2.7216552697590868e-01
    1.8026142932306526e-02 -2.2895273494481277e-01
    1.9517940062203892e-02 -2.0976176963403034e-01
    2.6167040795969113e-02 -1.5339299776947410e-01
    2.8608516770953191e-02 -1.3975424859373684e-01
    6.3476599466241970e-02 -6.2017367294604227e-02
    2.6167040795969113e-02 -1.5339299776947410e-01
    2.6167040795969113e-02 -1.5339299776947410e-01
    1.6849504884022412e-02 -2.4693239916239743e-01
    1.5476078984904613e-02 -2.7216552697590868e-01
    1.4417337286545283e-02 -2.9580398915498080e-01
    1.2121477564127420e-02 -3.6712751013190520e-01
    1.1118753370328730e-02 -4.1279969409381373e-01
    1.0672191862121047e-02 -4.3792787296289815e-01
    1.0381669390620796e-02 -4.5643546458763845e-01
    9.5527713509338964e-03 -5.2265737506259025e-01
    9.3202309273743740e-03 -5.4635836470815291e-01
    8.9344375191990448e-03 -5.9357527426402856e-01
    8.5989624567302369e-03 -6.4689895723332647e-01
    8.5669746280017268e-03 -6.5286254923737297e-01
    8.3682477639106453e-03 -6.9494931142821170e-01
    8.0371426914793050e-03 -8.0094284063362731e-01
    8.1505042880089668e-03 -7.5649795546749898e-01
    8.3682477639106453e-03 -6.9494931142821170e-01
    8.4482524944714064e-03 -6.7683126306282415e-01
    8.2725823701887465e-03 -7.1933431759169952e-01
    8.5058172194653562e-03 -6.6482249531453352e-01
    8.3940982987344495e-03 -6.8889496382717208e-01
    8.4207598032781782e-03 -6.8285586680606369e-01
    8.6319251652715416e-03 -6.4094524790407070e-01
    8.3940982987344495e-03 -6.8889496382717208e-01
    8.5058172194653562e-03 -6.6482249531453352e-01
    8.8518617674471674e-03 -6.0538594846334071e-01
    9.4917833165676820e-03 -5.2859413987092441e-01
    9.8902117846594133e-03 -4.9280538030458115e-01
    1.0571530139625125e-02 -4.4412577770494055e-01
    1.1118753370328730e-02 -4.1279969409381373e-01
    1.2671947084422076e-02 -3.4665786276924765e-01
    1.5094399613236727e-02 -2.8020063649858978e-01
    1.5094399613236727e-02 -2.8020063649858978e-01
    1.4115297502111266e-02 -3.0339777389595485e-01
    1.6347723869116110e-02 -2.5555062599997597e-01
    1.8724491410006001e-02 -2.1952851997938069e-01
    2.2750716193689222e-02 -1.7782168978975485e-01
    2.2750716193689222e-02 -1.7782168978975485e-01
    6.3476599466241970e-02 -6.2017367294604227e-02
    2.2750716193689222e-02 -1.7782168978975485e-01
    1.8724491410006001e-02 -2.1952851997938069e-01
    1.5892087700551387e-02 -2.6395478996892824e-01
    1.3834005065564876e-02 -3.1086758509401535e-01
    1.1956597139968179e-02 -3.7381545081279827e-01
    1.0886146998118230e-02 -4.2543562981151700e-01
    9.9649264389358779e-03 -4.8679238351123538e-01
    9.5527713509338964e-03 -5.2265737506259025e-01
    9.1154313955119689e-03 -5.6997639990327720e-01
    9.1154313955119689e-03 -5.6997639990327720e-01
    8.7741120566679712e-03 -6.1721339984836754e-01
    8.4765975617639086e-03 -6.7082039324993692e-01
    8.5359347628026650e-03 -6.5883680381861942e-01
    8.1884973302248591e-03 -7.4402380914284494e-01
    8.0233025830945791e-03 -8.0740246109187397e-01
    7.8737690847018923e-03 -9.1543878496275444e-01
    7.9321918201664919e-03 -8.6023252670426265e-01
    7.9065902736001909e-03 -8.8063057185271088e-01
    8.0665418050355001e-03 -7.8811040623910056e-01
    8.0371426914793050e-03 -8.0094284063362731e-01
    8.1150749587315177e-03 -7.6906658660622251e-01
    8.2725823701887465e-03 -7.1933431759169952e-01
    8.2725823701887465e-03 -7.1933431759169952e-01
    8.1505042880089668e-03 -7.5649795546749898e-01
    8.1324750259182867e-03 -7.6277007139647379e-01
    8.0821186592322913e-03 -7.8173595997057155e-01
    8.5058172194653562e-03 -6.6482249531453352e-01
    9.0221709853472980e-03 -5.8177447388273951e-01
    9.3202309273743740e-03 -5.4635836470815291e-01
    9.8902117846594133e-03 -4.9280538030458115e-01
    9.8902117846594133e-03 -4.9280538030458115e-01
    1.0886146998118230e-02 -4.2543562981151700e-01
    1.1650590554468387e-02 -3.8701387014268551e-01
    1.3325217947449031e-02 -3.2547227745205964e-01
    1.2671947084422076e-02 -3.4665786276924765e-01
    1.5094399613236727e-02 -2.8020063649858978e-01
    1.6849504884022412e-02 -2.4693239916239743e-01
    2.0429769474368979e-02 -1.9960119601394979e-01
    1.9517940062203892e-02 -2.0976176963403034e-01
    4.4971300516759960e-02 -8.7874955032749349e-02
    1.8026142932306526e-02 -2.2895273494481277e-01
    1.6347723869116110e-02 -2.5555062599997597e-01
    1.3094222665948311e-02 -3.3262335737638815e-01
    1.1956597139968179e-02 -3.7381545081279827e-01
    1.1118753370328730e-02 -4.1279969409381373e-01
    1.0122549437535808e-02 -4.7471266327754130e-01
    9.6809566243151804e-03 -5.1075391845524920e-01
    8.7369524519886159e-03 -6.2313551683436041e-01
    8.5669746280017268e-03 -6.5286254923737297e-01
    8.5669746280017268e-03 -6.5286254923737297e-01
    8.3431889054955705e-03 -7.0101966550773120e-01
    8.0982930216956100e-03 -7.7538828587039577e-01
    8.0515528633672180e-03 -7.9451242910353526e-01
    7.9065902736001909e-03 -8.8063057185271088e-01
    7.8598274416724553e-03 -9.3685529390969391e-01
    7.8561221604097741e-03 -9.4408916306993318e-01
    7.8793665515828129e-03 -9.0839133922270821e-01
    7.8501122387907331e-03 -9.5870623605921312e-01
    7.8459595944146178e-03 -9.7353027381271029e-01
    7.8793665515828129e-03 -9.0839133922270821e-01
    8.0100242528852988e-03 -8.1389211948857521e-01
    8.0665418050355001e-03 -7.8811040623910056e-01
    8.0371426914793050e-03 -8.0094284063362731e-01
    8.1150749587315177e-03 -7.6906658660622251e-01
    7.9623769483945662e-03 -8.4016805041680598e-01
    8.0233025830945791e-03 -8.0740246109187397e-01
    8.0665418050355001e-03 -7.8811040623910056e-01
    8.3940982987344495e-03 -6.8889496382717208e-01
    8.4765975617639086e-03 -6.7082039324993692e-01
    9.0221709853472980e-03 -5.8177447388273951e-01
    9.2146309018556315e-03 -5.5817361899746187e-01
    9.3755906308211588e-03 -5.4044352889158753e-01
    1.0122549437535808e-02 -4.7471266327754130e-01
    1.0571530139625125e-02 -4.4412577770494055e-01
    1.1650590554468387e-02 -3.8701387014268551e-01
    1.2478354962115544e-02 -3.5355339059327373e-01
    1.4742692519607040e-02 -2.8807560095783868e-01
    1.7405553257374976e-02 -2.3807595834800258e-01
    2.1492097484838411e-02 -1.8898223650461360e-01
    2.4273614396622737e-02 -1.6600920190793711e-01
    1.6347723869116110e-02 -2.5555062599997597e-01
    1.4742692519607040e-02 -2.8807560095783868e-01
    1.2121477564127420e-02 -3.6712751013190520e-01
    1.0999970897856275e-02 -4.1913682214245462e-01
    1.1242825129189990e-02 -4.0642166702646576e-01
    9.1642611595043263e-03 -5.6407607481776623e-01
    8.5359347628026650e-03 -6.5883680381861942e-01
    8.3682477639106453e-03 -6.9494931142821170e-01
    8.3431889054955705e-03 -7.0101966550773120e-01
    8.1691743401105851e-03 -7.5024945951130551e-01
    7.8990521093087514e-03 -8.8750844101716153e-01
    7.8640021562974283e-03 -9.2966968020136842e-01
    7.8459595944146178e-03 -9.7353027381271029e-01
    7.8501122387907331e-03 -9.5870623605921312e-01
    7.8640021562974283e-03 -9.2966968020136842e-01
    7.8459595944146178e-03 -9.7353027381271029e-01
    7.8501122387907331e-03 -9.5870623605921312e-01
    7.8436554154584608e-03 -9.8857105322416117e-01
    7.8436554154584608e-03 -1.0115610777177462e+00
    7.8431948232260285e-03 -9.9617589421434038e-01
    7.8561221604097741e-03 -9.4408916306993318e-01
    7.8431948232260285e-03 -1.0038387857082969e+00
    7.8431948232260285e-03 -1.0038387857082969e+00
    7.8436554154584608e-03 -9.8857105322416117e-01
    7.9517969900545649e-03 -8.4682067945810968e-01
    7.9517969900545649e-03 -8.4682067945810968e-01
    7.9972998218919809e-03 -8.2041265414236708e-01
    8.2084859832423102e-03 -7.3782023435580313e-01
    8.1884973302248591e-03 -7.4402380914284494e-01
    8.2725823701887465e-03 -7.1933431759169952e-01
    8.5058172194653562e-03 -6.6482249531453352e-01
    8.9344375191990448e-03 -5.9357527426402856e-01
    9.0221709853472980e-03 -5.8177447388273951e-01
    1.0292056960393108e-02 -4.6255106569123050e-01
    1.0571530139625125e-02 -4.4412577770494055e-01
    1.2295146549727630e-02 -3.6037498507822363e-01
    1.3325217947449031e-02 -3.2547227745205964e-01
    1.5476078984904613e-02 -2.7216552697590868e-01
    1.9517940062203892e-02 -2.0976176963403034e-01
    1.8724491410006001e-02 -2.1952851997938069e-01
    1.5476078984904613e-02 -2.7216552697590868e-01
    1.4417337286545283e-02 -2.9580398915498080e-01
    1.2876876074585599e-02 -3.3968311024337872e-01
    1.1650590554468387e-02 -3.8701387014268551e-01
    9.9649264389358779e-03 -4.8679238351123538e-01
    8.6658910188365298e-03 -6.3500063500095272e-01
    8.2084859832423102e-03 -7.3782023435580313e-01
    8.0515528633672180e-03 -7.9451242910353526e-01
    8.0665418050355001e-03 -7.8811040623910056e-01
    7.9321918201664919e-03 -8.6023252670426265e-01
    7.8478044003640283e-03 -9.6609178307929588e-01
    7.8459595944146178e-03 -9.7353027381271029e-01
    7.8478044003640283e-03 -9.6609178307929588e-01
    7.8598274416724553e-03 -9.3685529390969391e-01
    7.8501122387907331e-03 -9.5870623605921312e-01
    7.8431948232260285e-03 -1.0038387857082969e+00
    7.8478044003640283e-03 -1.0350983390135313e+00
    7.8431948232260285e-03 -9.9617589421434038e-01
    7.8431948232260285e-03 -1.0038387857082969e+00
    7.8561221604097741e-03 -9.4408916306993318e-01
    7.8561221604097724e-03 -1.0592219878345588e+00
    7.8528843343060560e-03 -1.0511130812987819e+00
    7.8431948232260285e-03 -1.0038387857082969e+00
    7.8528843343060543e-03 -9.5137242394926225e-01
    7.8431948232260285e-03 -1.0038387857082969e+00
    7.8686485390699022e-03 -9.2253120802888511e-01
    7.9321918201664919e-03 -8.6023252670426265e-01
    7.9321918201664919e-03 -8.6023252670426265e-01
    7.9734830922330788e-03 -8.3354975544666499e-01
    8.0100242528852988e-03 -8.1389211948857521e-01
    8.0233025830945791e-03 -8.0740246109187397e-01
    8.1884973302248591e-03 -7.4402380914284494e-01
    8.5669746280017268e-03 -6.5286254923737297e-01
    8.9776373999038185e-03 -5.8767408037301438e-01
    1.0042326944147853e-02 -4.8076197382041158e-01
    1.0776979534532804e-02 -4.3169854802122781e-01
    1.2121477564127420e-02 -3.6712751013190520e-01
    1.4115297502111266e-02 -3.0339777389595485e-01
    1.8026142932306526e-02 -2.2895273494481277e-01
    1.8724491410006001e-02 -2.1952851997938069e-01
    1.5094399613236727e-02 -2.8020063649858978e-01
    1.4417337286545283e-02 -2.9580398915498080e-01
    1.1372549019607844e-02 -3.9999999999999997e-01
    9.6809566243151804e-03 -5.1075391845524920e-01
    8.8124030489960242e-03 -6.1129715403093110e-01
    8.5058172194653562e-03 -6.6482249531453352e-01
    8.0982930216956100e-03 -7.7538828587039577e-01
    7.9321918201664919e-03 -8.6023252670426265e-01
    7.8793665515828129e-03 -9.0839133922270821e-01
    7.8561221604097741e-03 -9.4408916306993318e-01
    7.8528843343060543e-03 -9.5137242394926225e-01
    7.8445768434105920e-03 -9.8102294317594529e-01
    7.8431948232260285e-03 -9.9617589421434038e-01
    7.8431948232260285e-03 -9.9617589421434038e-01
    7.8793665515828129e-03 -1.1008471314309092e+00
    7.8854439659468839e-03 -1.1094003924504581e+00
    7.8793665515828129e-03 -1.1008471314309092e+00
    7.8445768434105920e-03 -9.8102294317594529e-01
    7.8478044003640283e-03 -1.0350983390135313e+00
    7.8598274416724553e-03 -1.0674007037167823e+00
    7.8640021562974265e-03 -1.0756508696544755e+00
    7.9321918201664936e-03 -1.1624763874381931e+00
    7.8598274416724553e-03 -1.0674007037167823e+00
    7.9146232674337253e-03 -1.1444363299346698e+00
    7.8737690847018940e-03 -1.0923723316362284e+00
    7.8431948232260285e-03 -9.9617589421434038e-01
    7.8501122387907348e-03 -1.0430723848324241e+00
    7.8561221604097741e-03 -9.4408916306993318e-01
    7.8686485390699022e-03 -9.2253120802888511e-01
    7.9146232674337253e-03 -8.7379260326093022e-01
    7.9972998218919809e-03 -8.2041265414236708e-01
    8.0982930216956100e-03 -7.7538828587039577e-01
    8.1884973302248591e-03 -7.4402380914284494e-01
    8.4482524944714064e-03 -6.7683126306282415e-01
    9.3755906308211588e-03 -5.4044352889158753e-01
    1.0122549437535808e-02 -4.7471266327754130e-01
    1.1372549019607844e-02 -3.9999999999999997e-01
    1.4115297502111266e-02 -3.0339777389595485e-01
    1.6347723869116110e-02 -2.5555062599997597e-01
    1.7405553257374976e-02 -2.3807595834800258e-01
    1.3834005065564876e-02 -3.1086758509401535e-01
    1.2295146549727630e-02 -3.6037498507822363e-01
    1.0042326944147853e-02 -4.8076197382041158e-01
    8.8925264818458354e-03 -5.9947894041408989e-01
    8.5359347628026650e-03 -6.5883680381861942e-01
    8.3940982987344495e-03 -6.8889496382717208e-01
    8.1150749587315177e-03 -7.6906658660622251e-01
    8.0233025830945791e-03 -8.0740246109187397e-01
    7.8501122387907331e-03 -9.5870623605921312e-01
    7.8598274416724553e-03 -1.0674007037167823e+00
    7.8436554154584608e-03 -9.8857105322416117e-01
    7.8445768434105920e-03 -9.8102294317594529e-01
    7.8501122387907348e-03 -1.0430723848324241e+00
    7.8793665515828129e-03 -1.1008471314309092e+00
    7.9851218038297107e-03 -1.2092411467293844e+00
    8.0233025830945791e-03 -1.2385396975972436e+00
    7.9065902736001909e-03 -1.1355499479153377e+00
    7.8561221604097724e-03 -1.0592219878345588e+00
    7.9623769483945662e-03 -1.1902380714238083e+00
    7.8854439659468839e-03 -1.1094003924504581e+00
    7.9065902736001909e-03 -1.1355499479153377e+00
    8.0233025830945791e-03 -1.2385396975972436e+00
    7.9623769483945662e-03 -1.1902380714238083e+00
    7.9321918201664936e-03 -1.1624763874381931e+00
    7.9623769483945662e-03 -1.1902380714238083e+00
    7.9231555343189757e-03 -1.1534110901396533e+00
    8.0100242528853005e-03 -1.2286640649971763e+00
    7.8640021562974265e-03 -1.0756508696544755e+00
    7.9146232674337253e-03 -1.1444363299346698e+00
    7.8436554154584608e-03 -9.8857105322416117e-01
    7.9065902736001909e-03 -8.8063057185271088e-01
    7.9417371808043861e-03 -8.5350853609794264e-01
    8.0371426914793050e-03 -8.0094284063362731e-01
    8.1324750259182867e-03 -7.6277007139647379e-01
    8.7008897114618216e-03 -6.2906432511603283e-01
    9.5527713509338964e-03 -5.2265737506259025e-01
    1.0886146998118230e-02 -4.2543562981151700e-01
    1.2671947084422076e-02 -3.4665786276924765e-01
    1.5094399613236727e-02 -2.8020063649858978e-01
    1.8724491410006001e-02 -2.1952851997938069e-01
    1.3325217947449031e-02 -3.2547227745205964e-01
    1.0571530139625125e-02 -4.4412577770494055e-01
    8.7008897114618216e-03 -6.2906432511603283e-01
    8.3189033080770299e-03 -7.0710678118654757e-01
    8.3940982987344495e-03 -6.8889496382717208e-01
    8.2084859832423102e-03 -7.3782023435580313e-01
    7.9734830922330788e-03 -8.3354975544666499e-01
    7.8990521093087514e-03 -8.8750844101716153e-01
    7.8459595944146178e-03 -9.7353027381271029e-01
    7.8528843343060560e-03 -1.0511130812987819e+00
    7.8478044003640283e-03 -1.0350983390135313e+00
    7.8528843343060543e-03 -9.5137242394926225e-01
    7.8431948232260285e-03 -9.9617589421434038e-01
    7.8920046264698458e-03 -1.1180339887498947e+00
    8.0515528633672180e-03 -1.2586335510551052e+00
    8.0665418050355001e-03 -1.2688577540449519e+00
    7.9417371808043844e-03 -1.1716344450071754e+00
    7.9623769483945662e-03 -1.1902380714238083e+00
    8.0371426914793032e-03 -1.2485285456935951e+00
    7.9623769483945662e-03 -1.1902380714238083e+00
    7.9623769483945662e-03 -1.1902380714238083e+00
    7.8920046264698458e-03 -1.1180339887498947e+00
    7.9623769483945662e-03 -1.1902380714238083e+00
    7.9417371808043844e-03 -1.1716344450071754e+00
    7.9972998218919809e-03 -1.2188988004400882e+00
    8.0665418050355001e-03 -1.2688577540449519e+00
    8.1691743401105851e-03 -1.3328899972168937e+00
    7.9972998218919809e-03 -1.2188988004400882e+00
    7.9321918201664936e-03 -1.1624763874381931e+00
    7.9146232674337253e-03 -1.1444363299346698e+00
    7.8436554154584608e-03 -1.0115610777177462e+00
    7.8431948232260285e-03 -9.9617589421434038e-01
    7.8793665515828129e-03 -9.0839133922270821e-01
    7.9734830922330788e-03 -8.3354975544666499e-01
    8.2291536264894761e-03 -7.3163796897581723e-01
    8.9776373999038185e-03 -5.8767408037301438e-01
    1.0122549437535808e-02 -4.7471266327754130e-01
    1.3325217947449031e-02 -3.2547227745205964e-01
    1.5094399613236727e-02 -2.8020063649858978e-01
    1.5892087700551387e-02 -2.6395478996892824e-01
    1.2295146549727630e-02 -3.6037498507822363e-01
    9.8902117846594133e-03 -4.9280538030458115e-01
    8.7008897114618216e-03 -6.2906432511603283e-01
    8.1691743401105851e-03 -7.5024945951130551e-01
    7.9734830922330788e-03 -8.3354975544666499e-01
    7.9065902736001909e-03 -8.8063057185271088e-01
    7.8990521093087514e-03 -8.8750844101716153e-01
    7.8478044003640283e-03 -9.6609178307929588e-01
    7.8561221604097724e-03 -1.0592219878345588e+00
    7.8445768434105920e-03 -9.8102294317594529e-01
    7.8561221604097724e-03 -1.0592219878345588e+00
    7.8561221604097724e-03 -1.0592219878345588e+00
    7.8598274416724553e-03 -1.0674007037167823e+00
    8.0515528633672180e-03 -1.2586335510551052e+00
    8.1505042880089668e-03 -1.3218806379747876e+00
    8.0982930216956118e-03 -1.2896764346619851e+00
    8.0371426914793032e-03 -1.2485285456935951e+00
    8.0371426914793032e-03 -1.2485285456935951e+00
    8.0100242528853005e-03 -1.2286640649971763e+00
    8.0665418050355001e-03 -1.2688577540449519e+00
    8.0371426914793032e-03 -1.2485285456935951e+00
    7.9417371808043844e-03 -1.1716344450071754e+00
    8.0371426914793032e-03 -1.2485285456935951e+00
    8.0233025830945791e-03 -1.2385396975972436e+00
    8.0821186592322913e-03 -1.2792042981336627e+00
    8.5669746280017268e-03 -1.5317159809030674e+00
    8.4765975617639069e-03 -1.4907119849998594e+00
    8.2291536264894761e-03 -1.3667962057789993e+00
    7.9231555343189757e-03 -1.1534110901396533e+00
    7.9146232674337253e-03 -1.1444363299346698e+00
    7.8686485390699005e-03 -1.0839741694339398e+00
    7.8598274416724553e-03 -1.0674007037167823e+00
    7.8436554154584608e-03 -1.0115610777177462e+00
    7.8793665515828129e-03 -9.0839133922270821e-01
    8.0982930216956100e-03 -7.7538828587039577e-01
    8.5359347628026650e-03 -6.5883680381861942e-01
    9.6809566243151804e-03 -5.1075391845524920e-01
    1.2121477564127420e-02 -3.6712751013190520e-01
    1.5094399613236727e-02 -2.8020063649858978e-01
    1.3834005065564876e-02 -3.1086758509401535e-01
    1.0776979534532804e-02 -4.3169854802122781e-01
    9.1154313955119689e-03 -5.6997639990327720e-01
    8.5669746280017268e-03 -6.5286254923737297e-01
    8.0371426914793050e-03 -8.0094284063362731e-01
    7.8793665515828129e-03 -9.0839133922270821e-01
    7.8528843343060543e-03 -9.5137242394926225e-01
    7.8431948232260285e-03 -9.9617589421434038e-01
    7.8561221604097724e-03 -1.0592219878345588e+00
    7.8737690847018940e-03 -1.0923723316362284e+00
    7.8598274416724553e-03 -1.0674007037167823e+00
    7.8640021562974265e-03 -1.0756508696544755e+00
    7.9321918201664936e-03 -1.1624763874381931e+00
    7.9517969900545667e-03 -1.1808875530058045e+00
    7.9321918201664936e-03 -1.1624763874381931e+00
    8.0100242528853005e-03 -1.2286640649971763e+00
    8.0233025830945791e-03 -1.2385396975972436e+00
    7.9972998218919809e-03 -1.2188988004400882e+00
    8.0233025830945791e-03 -1.2385396975972436e+00
    8.0821186592322913e-03 -1.2792042981336627e+00
    8.1150749587315160e-03 -1.3002775278703140e+00
    8.0371426914793032e-03 -1.2485285456935951e+00
    7.9851218038297107e-03 -1.2092411467293844e+00
    8.2725823701887465e-03 -1.3901741868064306e+00
    8.2953733913714248e-03 -1.4021088013806529e+00
    8.4207598032781782e-03 -1.4644378830298717e+00
    8.6658910188365298e-03 -1.5748015748023625e+00
    8.3940982987344512e-03 -1.4516001023501131e+00
    8.2725823701887465e-03 -1.3901741868064306e+00
    8.2291536264894761e-03 -1.3667962057789993e+00
    8.0371426914793032e-03 -1.2485285456935951e+00
    7.9321918201664936e-03 -1.1624763874381931e+00
    7.8561221604097724e-03 -1.0592219878345588e+00
    7.8598274416724553e-03 -9.3685529390969391e-01
    7.8478044003640283e-03 -9.6609178307929588e-01
    7.9972998218919809e-03 -8.2041265414236708e-01
    8.7369524519886159e-03 -6.2313551683436041e-01
    9.3755906308211588e-03 -5.4044352889158753e-01
    9.8902117846594133e-03 -4.9280538030458115e-01
    1.3094222665948311e-02 -3.3262335737638815e-01
    1.1956597139968179e-02 -3.7381545081279827e-01
    9.9649264389358779e-03 -4.8679238351123538e-01
    9.1642611595043263e-03 -5.6407607481776623e-01
    8.3940982987344495e-03 -6.8889496382717208e-01
    7.9417371808043861e-03 -8.5350853609794264e-01
    7.8686485390699022e-03 -9.2253120802888511e-01
    7.8431948232260285e-03 -9.9617589421434038e-01
    7.8501122387907348e-03 -1.0430723848324241e+00
    7.8686485390699005e-03 -1.0839741694339398e+00
    7.8990521093087514e-03 -1.1267498468565702e+00
    7.9146232674337253e-03 -1.1444363299346698e+00
    7.9065902736001909e-03 -1.1355499479153377e+00
    8.0982930216956118e-03 -1.2896764346619851e+00
    8.1150749587315160e-03 -1.3002775278703140e+00
    8.0515528633672180e-03 -1.2586335510551052e+00
    7.9734830922330770e-03 -1.1996884330727700e+00
    7.9851218038297107e-03 -1.2092411467293844e+00
    7.9517969900545667e-03 -1.1808875530058045e+00
    8.0233025830945791e-03 -1.2385396975972436e+00
    8.0371426914793032e-03 -1.2485285456935951e+00
    7.9417371808043844e-03 -1.1716344450071754e+00
    7.9146232674337253e-03 -1.1444363299346698e+00
    8.0371426914793032e-03 -1.2485285456935951e+00
    8.2505142169373869e-03 -1.3784048752090219e+00
    8.1691743401105851e-03 -1.3328899972168937e+00
    8.4482524944714064e-03 -1.4774731230273843e+00
    8.4207598032781782e-03 -1.4644378830298717e+00
    8.3189033080770299e-03 -1.4142135623730951e+00
    8.3940982987344512e-03 -1.4516001023501131e+00
    8.2505142169373869e-03 -1.3784048752090219e+00
    8.2505142169373869e-03 -1.3784048752090219e+00
    8.1505042880089668e-03 -1.3218806379747876e+00
    7.9417371808043844e-03 -1.1716344450071754e+00
    7.8528843343060560e-03 -1.0511130812987819e+00
    7.8528843343060543e-03 -9.5137242394926225e-01
    7.8920046264698458e-03 -8.9442719099991586e-01
    8.2505142169373869e-03 -7.2547625011001160e-01
    8.8925264818458354e-03 -5.9947894041408989e-01
    9.6157988963726480e-03 -5.1671103264990947e-01
    1.1799834971833038e-02 -3.8044295512634102e-01
    1.2671947084422076e-02 -3.4665786276924765e-01
    9.8180561614516614e-03 -4.9880239348984301e-01
    8.4207598032781782e-03 -6.8285586680606369e-01
    8.1884973302248591e-03 -7.4402380914284494e-01
    7.8561221604097741e-03 -9.4408916306993318e-01
    7.8431948232260285e-03 -1.0038387857082969e+00
    7.8528843343060560e-03 -1.0511130812987819e+00
    7.9417371808043844e-03 -1.1716344450071754e+00
    7.9734830922330770e-03 -1.1996884330727700e+00
    7.9146232674337253e-03 -1.1444363299346698e+00
    7.9417371808043844e-03 -1.1716344450071754e+00
    7.9417371808043844e-03 -1.1716344450071754e+00
    8.1150749587315160e-03 -1.3002775278703140e+00
    7.9851218038297107e-03 -1.2092411467293844e+00
    8.0371426914793032e-03 -1.2485285456935951e+00
    7.9734830922330770e-03 -1.1996884330727700e+00
    8.0515528633672180e-03 -1.2586335510551052e+00
    7.9623769483945662e-03 -1.1902380714238083e+00
    8.0233025830945791e-03 -1.2385396975972436e+00
    8.0100242528853005e-03 -1.2286640649971763e+00
    7.9734830922330770e-03 -1.1996884330727700e+00
    7.9321918201664936e-03 -1.1624763874381931e+00
    8.0665418050355001e-03 -1.2688577540449519e+00
    8.1884973302248608e-03 -1.3440430100644944e+00
    8.2725823701887465e-03 -1.3901741868064306e+00
    8.2953733913714248e-03 -1.4021088013806529e+00
    8.3431889054955705e-03 -1.4264935053936392e+00
    8.4482524944714064e-03 -1.4774731230273843e+00
    8.1884973302248608e-03 -1.3440430100644944e+00
    8.2291536264894761e-03 -1.3667962057789993e+00
    8.2505142169373869e-03 -1.3784048752090219e+00
    8.2084859832423102e-03 -1.3553436913709862e+00
    8.0665418050355001e-03 -1.2688577540449519e+00
    7.9517969900545667e-03 -1.1808875530058045e+00
    7.8445768434105920e-03 -1.0193441518937556e+00
    7.8737690847018923e-03 -9.1543878496275444e-01
    8.0100242528852988e-03 -8.1389211948857521e-01
    8.3431889054955705e-03 -7.0101966550773120e-01
    9.3755906308211588e-03 -5.4044352889158753e-01
    1.0999970897856275e-02 -4.1913682214245462e-01
    1.2876876074585599e-02 -3.3968311024337872e-01
    9.5527713509338964e-03 -5.2265737506259025e-01
    8.5058172194653562e-03 -6.6482249531453352e-01
    8.0982930216956100e-03 -7.7538828587039577e-01
    7.8686485390699022e-03 -9.2253120802888511e-01
    7.8431948232260285e-03 -1.0038387857082969e+00
    7.8854439659468839e-03 -1.1094003924504581e+00
    7.9972998218919809e-03 -1.2188988004400882e+00
    8.0515528633672180e-03 -1.2586335510551052e+00
    7.9972998218919809e-03 -1.2188988004400882e+00
    8.1150749587315160e-03 -1.3002775278703140e+00
    8.0515528633672180e-03 -1.2586335510551052e+00
    8.0100242528853005e-03 -1.2286640649971763e+00
    8.0233025830945791e-03 -1.2385396975972436e+00
    7.9623769483945662e-03 -1.1902380714238083e+00
    7.9231555343189757e-03 -1.1534110901396533e+00
    7.9851218038297107e-03 -1.2092411467293844e+00
    7.9623769483945662e-03 -1.1902380714238083e+00
    7.9417371808043844e-03 -1.1716344450071754e+00
    7.9231555343189757e-03 -1.1534110901396533e+00
    7.9734830922330770e-03 -1.1996884330727700e+00
    8.0821186592322913e-03 -1.2792042981336627e+00
    8.0821186592322913e-03 -1.2792042981336627e+00
    8.2084859832423102e-03 -1.3553436913709862e+00
    8.2291536264894761e-03 -1.3667962057789993e+00
    8.1691743401105851e-03 -1.3328899972168937e+00
    8.1505042880089668e-03 -1.3218806379747876e+00
    8.3431889054955705e-03 -1.4264935053936392e+00
    8.4765975617639069e-03 -1.4907119849998594e+00
    8.4482524944714064e-03 -1.4774731230273843e+00
    8.2505142169373869e-03 -1.3784048752090219e+00
    8.2084859832423102e-03 -1.3553436913709862e+00
    8.0665418050355001e-03 -1.2688577540449519e+00
    7.9972998218919809e-03 -1.2188988004400882e+00
    7.8737690847018940e-03 -1.0923723316362284e+00
    7.8431948232260285e-03 -9.9617589421434038e-01
    7.8640021562974283e-03 -9.2966968020136842e-01
    8.2505142169373869e-03 -7.2547625011001160e-01
    9.1642611595043263e-03 -5.6407607481776623e-01
    1.0292056960393108e-02 -4.6255106569123050e-01
    1.2121477564127420e-02 -3.6712751013190520e-01
    9.4327497145561545e-03 -5.3452248382484868e-01
    8.3940982987344495e-03 -6.8889496382717208e-01
    7.9851218038297107e-03 -8.2696491324719179e-01
    7.8501122387907331e-03 -9.5870623605921312e-01
    7.8445768434105920e-03 -1.0193441518937556e+00
    7.8737690847018940e-03 -1.0923723316362284e+00
    7.9517969900545667e-03 -1.1808875530058045e+00
    7.9972998218919809e-03 -1.2188988004400882e+00
    8.0515528633672180e-03 -1.2586335510551052e+00
    8.2505142169373869e-03 -1.3784048752090219e+00
    8.2505142169373869e-03 -1.3784048752090219e+00
    8.0665418050355001e-03 -1.2688577540449519e+00
    8.0515528633672180e-03 -1.2586335510551052e+00
    8.1150749587315160e-03 -1.3002775278703140e+00
    8.0233025830945791e-03 -1.2385396975972436e+00
    8.0371426914793032e-03 -1.2485285456935951e+00
    8.0233025830945791e-03 -1.2385396975972436e+00
    7.9734830922330770e-03 -1.1996884330727700e+00
    8.0100242528853005e-03 -1.2286640649971763e+00
    7.9734830922330770e-03 -1.1996884330727700e+00
    7.9851218038297107e-03 -1.2092411467293844e+00
    8.1324750259182885e-03 -1.3110110602126894e+00
    8.1691743401105851e-03 -1.3328899972168937e+00
    8.2505142169373869e-03 -1.3784048752090219e+00
    8.1324750259182885e-03 -1.3110110602126894e+00
    8.1324750259182885e-03 -1.3110110602126894e+00
    8.2505142169373869e-03 -1.3784048752090219e+00
    8.4765975617639069e-03 -1.4907119849998594e+00
    8.3431889054955705e-03 -1.4264935053936392e+00
    8.3940982987344512e-03 -1.4516001023501131e+00
    8.4207598032781782e-03 -1.4644378830298717e+00
    8.2725823701887465e-03 -1.3901741868064306e+00
    8.2505142169373869e-03 -1.3784048752090219e+00
    8.0665418050355001e-03 -1.2688577540449519e+00
    7.8528843343060560e-03 -1.0511130812987819e+00
    7.8431948232260285e-03 -9.9617589421434038e-01
    8.0665418050355001e-03 -7.8811040623910056e-01
    8.9776373999038185e-03 -5.8767408037301438e-01
    1.0292056960393108e-02 -4.6255106569123050e-01
    1.2671947084422076e-02 -3.4665786276924765e-01
    9.6809566243151804e-03 -5.1075391845524920e-01
    8.3940982987344495e-03 -6.8889496382717208e-01
    8.0100242528852988e-03 -8.1389211948857521e-01
    7.8793665515828129e-03 -9.0839133922270821e-01
    7.8459595944146178e-03 -1.0271894227630172e+00
    7.8920046264698458e-03 -1.1180339887498947e+00
    7.8686485390699005e-03 -1.0839741694339398e+00
    7.9734830922330770e-03 -1.1996884330727700e+00
    7.9851218038297107e-03 -1.2092411467293844e+00
    8.0665418050355001e-03 -1.2688577540449519e+00
    8.2505142169373869e-03 -1.3784048752090219e+00
    8.1150749587315160e-03 -1.3002775278703140e+00
    8.0821186592322913e-03 -1.2792042981336627e+00
    8.0982930216956118e-03 -1.2896764346619851e+00
    8.0982930216956118e-03 -1.2896764346619851e+00
    8.1150749587315160e-03 -1.3002775278703140e+00
    8.1691743401105851e-03 -1.3328899972168937e+00
    7.9851218038297107e-03 -1.2092411467293844e+00
    8.0371426914793032e-03 -1.2485285456935951e+00
    8.1884973302248608e-03 -1.3440430100644944e+00
    8.1691743401105851e-03 -1.3328899972168937e+00
    8.1505042880089668e-03 -1.3218806379747876e+00
    8.1324750259182885e-03 -1.3110110602126894e+00
    8.1691743401105851e-03 -1.3328899972168937e+00
    8.0515528633672180e-03 -1.2586335510551052e+00
    8.0821186592322913e-03 -1.2792042981336627e+00
    8.1505042880089668e-03 -1.3218806379747876e+00
    8.1884973302248608e-03 -1.3440430100644944e+00
    8.1884973302248608e-03 -1.3440430100644944e+00
    8.2953733913714248e-03 -1.4021088013806529e+00
    8.2505142169373869e-03 -1.3784048752090219e+00
    8.4482524944714064e-03 -1.4774731230273843e+00
    8.2084859832423102e-03 -1.3553436913709862e+00
    7.9972998218919809e-03 -1.2188988004400882e+00
    7.8990521093087514e-03 -1.1267498468565702e+00
    7.8478044003640283e-03 -9.6609178307929588e-01
    8.0515528633672180e-03 -7.9451242910353526e-01
    8.8518617674471674e-03 -6.0538594846334071e-01
    9.8902117846594133e-03 -4.9280538030458115e-01
    1.2671947084422076e-02 -3.4665786276924765e-01
    9.5527713509338964e-03 -5.2265737506259025e-01
    8.3940982987344495e-03 -6.8889496382717208e-01
    7.9517969900545649e-03 -8.4682067945810968e-01
    7.8528843343060543e-03 -9.5137242394926225e-01
    7.8445768434105920e-03 -1.0193441518937556e+00
    7.9065902736001909e-03 -1.1355499479153377e+00
    7.9734830922330770e-03 -1.1996884330727700e+00
    7.9623769483945662e-03 -1.1902380714238083e+00
    8.0233025830945791e-03 -1.2385396975972436e+00
    8.1884973302248608e-03 -1.3440430100644944e+00
    8.2084859832423102e-03 -1.3553436913709862e+00
    8.3189033080770299e-03 -1.4142135623730951e+00
    8.0982930216956118e-03 -1.2896764346619851e+00
    8.1505042880089668e-03 -1.3218806379747876e+00
    8.1505042880089668e-03 -1.3218806379747876e+00
    8.0821186592322913e-03 -1.2792042981336627e+00
    8.0821186592322913e-03 -1.2792042981336627e+00
    8.3189033080770299e-03 -1.4142135623730951e+00
    8.2291536264894761e-03 -1.3667962057789993e+00
    8.2505142169373869e-03 -1.3784048752090219e+00
    8.1505042880089668e-03 -1.3218806379747876e+00
    8.0515528633672180e-03 -1.2586335510551052e+00
    8.0665418050355001e-03 -1.2688577540449519e+00
    8.1884973302248608e-03 -1.3440430100644944e+00
    8.1691743401105851e-03 -1.3328899972168937e+00
    8.1884973302248608e-03 -1.3440430100644944e+00
    8.0665418050355001e-03 -1.2688577540449519e+00
    8.0982930216956118e-03 -1.2896764346619851e+00
    8.4765975617639069e-03 -1.4907119849998594e+00
    8.2505142169373869e-03 -1.3784048752090219e+00
    8.2505142169373869e-03 -1.3784048752090219e+00
    8.2725823701887465e-03 -1.3901741868064306e+00
    8.0233025830945791e-03 -1.2385396975972436e+00
    7.9065902736001909e-03 -1.1355499479153377e+00
    7.9517969900545667e-03 -1.1808875530058045e+00
    7.8501122387907348e-03 -1.0430723848324241e+00
    7.9734830922330788e-03 -8.3354975544666499e-01
    8.8925264818458354e-03 -5.9947894041408989e-01
    1.0205740262020424e-02 -4.6864290053760455e-01
    1.3325217947449031e-02 -3.2547227745205964e-01
    9.3202309273743740e-03 -5.4635836470815291e-01
    8.2725823701887465e-03 -7.1933431759169952e-01
    7.8561221604097741e-03 -9.4408916306993318e-01
    7.8598274416724553e-03 -9.3685529390969391e-01
    7.8459595944146178e-03 -9.7353027381271029e-01
    7.8793665515828129e-03 -1.1008471314309092e+00
    7.9517969900545667e-03 -1.1808875530058045e+00
    8.0982930216956118e-03 -1.2896764346619851e+00
    7.9417371808043844e-03 -1.1716344450071754e+00
    8.1691743401105851e-03 -1.3328899972168937e+00
    8.2725823701887465e-03 -1.3901741868064306e+00
    8.0821186592322913e-03 -1.2792042981336627e+00
    8.0821186592322913e-03 -1.2792042981336627e+00
    8.1691743401105851e-03 -1.3328899972168937e+00
    8.0821186592322913e-03 -1.2792042981336627e+00
    8.1324750259182885e-03 -1.3110110602126894e+00
    8.0371426914793032e-03 -1.2485285456935951e+00
    8.0665418050355001e-03 -1.2688577540449519e+00
    8.3189033080770299e-03 -1.4142135623730951e+00
    8.3682477639106471e-03 -1.4389538683690033e+00
    8.1324750259182885e-03 -1.3110110602126894e+00
    7.9972998218919809e-03 -1.2188988004400882e+00
    8.2084859832423102e-03 -1.3553436913709862e+00
    8.3682477639106471e-03 -1.4389538683690033e+00
    8.3431889054955705e-03 -1.4264935053936392e+00
    8.3189033080770299e-03 -1.4142135623730951e+00
    8.2505142169373869e-03 -1.3784048752090219e+00
    8.1505042880089668e-03 -1.3218806379747876e+00
    8.2084859832423102e-03 -1.3553436913709862e+00
    8.3189033080770299e-03 -1.4142135623730951e+00
    8.2725823701887465e-03 -1.3901741868064306e+00
    8.1150749587315160e-03 -1.3002775278703140e+00
    8.1150749587315160e-03 -1.3002775278703140e+00
    7.9851218038297107e-03 -1.2092411467293844e+00
    7.8854439659468839e-03 -1.1094003924504581e+00
    7.8459595944146178e-03 -1.0271894227630172e+00
    7.9417371808043861e-03 -8.5350853609794264e-01
    8.8124030489960242e-03 -6.1129715403093110e-01
    9.8902117846594133e-03 -4.9280538030458115e-01
    1.3094222665948311e-02 -3.3262335737638815e-01
    9.6157988963726480e-03 -5.1671103264990947e-01
    8.2291536264894761e-03 -7.3163796897581723e-01
    7.9517969900545649e-03 -8.4682067945810968e-01
    7.8445768434105920e-03 -9.8102294317594529e-01
    7.8478044003640283e-03 -1.0350983390135313e+00
    7.8528843343060560e-03 -1.0511130812987819e+00
    7.9146232674337253e-03 -1.1444363299346698e+00
    7.9065902736001909e-03 -1.1355499479153377e+00
    7.8990521093087514e-03 -1.1267498468565702e+00
    7.9517969900545667e-03 -1.1808875530058045e+00
    7.9734830922330770e-03 -1.1996884330727700e+00
    8.0100242528853005e-03 -1.2286640649971763e+00
    8.0982930216956118e-03 -1.2896764346619851e+00
    8.0233025830945791e-03 -1.2385396975972436e+00
    8.0233025830945791e-03 -1.2385396975972436e+00
    7.9851218038297107e-03 -1.2092411467293844e+00
    7.9972998218919809e-03 -1.2188988004400882e+00
    7.9851218038297107e-03 -1.2092411467293844e+00
    8.0821186592322913e-03 -1.2792042981336627e+00
    8.2291536264894761e-03 -1.3667962057789993e+00
    8.1150749587315160e-03 -1.3002775278703140e+00
    7.9321918201664936e-03 -1.1624763874381931e+00
    8.0821186592322913e-03 -1.2792042981336627e+00
    8.1150749587315160e-03 -1.3002775278703140e+00
    8.2084859832423102e-03 -1.3553436913709862e+00
    8.2505142169373869e-03 -1.3784048752090219e+00
    8.0665418050355001e-03 -1.2688577540449519e+00
    8.0371426914793032e-03 -1.2485285456935951e+00
    8.0233025830945791e-03 -1.2385396975972436e+00
    8.1324750259182885e-03 -1.3110110602126894e+00
    8.0100242528853005e-03 -1.2286640649971763e+00
    7.9231555343189757e-03 -1.1534110901396533e+00
    7.9146232674337253e-03 -1.1444363299346698e+00
    7.8445768434105920e-03 -9.8102294317594529e-01
    7.8478044003640283e-03 -9.6609178307929588e-01
    7.8737690847018923e-03 -9.1543878496275444e-01
    8.0233025830945791e-03 -8.0740246109187397e-01
    8.4482524944714064e-03 -6.7683126306282415e-01
    9.6809566243151804e-03 -5.1075391845524920e-01
    1.2876876074585599e-02 -3.3968311024337872e-01
    9.8180561614516614e-03 -4.9880239348984301e-01
    8.3431889054955705e-03 -7.0101966550773120e-01
    7.9417371808043861e-03 -8.5350853609794264e-01
    7.8854439659468856e-03 -9.0138781886599739e-01
    7.8436554154584608e-03 -1.0115610777177462e+00
    7.8793665515828129e-03 -1.1008471314309092e+00
    7.8990521093087514e-03 -1.1267498468565702e+00
    7.9734830922330770e-03 -1.1996884330727700e+00
    7.9146232674337253e-03 -1.1444363299346698e+00
    7.9517969900545667e-03 -1.1808875530058045e+00
    7.9623769483945662e-03 -1.1902380714238083e+00
    8.0665418050355001e-03 -1.2688577540449519e+00
    7.9623769483945662e-03 -1.1902380714238083e+00
    8.1505042880089668e-03 -1.3218806379747876e+00
    8.1884973302248608e-03 -1.3440430100644944e+00
    8.0982930216956118e-03 -1.2896764346619851e+00
    8.0233025830945791e-03 -1.2385396975972436e+00
    7.9851218038297107e-03 -1.2092411467293844e+00
    8.0233025830945791e-03 -1.2385396975972436e+00
    8.0982930216956118e-03 -1.2896764346619851e+00
    7.9623769483945662e-03 -1.1902380714238083e+00
    8.0821186592322913e-03 -1.2792042981336627e+00
    8.1150749587315160e-03 -1.3002775278703140e+00
    8.0982930216956118e-03 -1.2896764346619851e+00
    8.0821186592322913e-03 -1.2792042981336627e+00
    8.1884973302248608e-03 -1.3440430100644944e+00
    7.9623769483945662e-03 -1.1902380714238083e+00
    8.0665418050355001e-03 -1.2688577540449519e+00
    8.0371426914793032e-03 -1.2485285456935951e+00
    7.8854439659468839e-03 -1.1094003924504581e+00
    7.9417371808043844e-03 -1.1716344450071754e+00
    7.8920046264698458e-03 -1.1180339887498947e+00
    7.9623769483945662e-03 -1.1902380714238083e+00
    7.8431948232260285e-03 -9.9617589421434038e-01
    7.8478044003640283e-03 -9.6609178307929588e-01
    7.8686485390699022e-03 -9.2253120802888511e-01
    8.1150749587315177e-03 -7.6906658660622251e-01
    8.4482524944714064e-03 -6.7683126306282415e-01
    9.3755906308211588e-03 -5.4044352889158753e-01
    1.5476078984904613e-02 -2.7216552697590868e-01
    1.0672191862121047e-02 -4.3792787296289815e-01
    8.7369524519886159e-03 -6.2313551683436041e-01
    8.0233025830945791e-03 -8.0740246109187397e-01
    7.9623769483945662e-03 -8.4016805041680598e-01
    7.8501122387907331e-03 -9.5870623605921312e-01
    7.8501122387907348e-03 -1.0430723848324241e+00
    7.9417371808043844e-03 -1.1716344450071754e+00
    7.9623769483945662e-03 -1.1902380714238083e+00
    7.9417371808043844e-03 -1.1716344450071754e+00
    7.8854439659468839e-03 -1.1094003924504581e+00
    7.9734830922330770e-03 -1.1996884330727700e+00
    8.0371426914793032e-03 -1.2485285456935951e+00
    8.1505042880089668e-03 -1.3218806379747876e+00
    8.0371426914793032e-03 -1.2485285456935951e+00
    8.1691743401105851e-03 -1.3328899972168937e+00
    8.1505042880089668e-03 -1.3218806379747876e+00
    8.0665418050355001e-03 -1.2688577540449519e+00
    8.1150749587315160e-03 -1.3002775278703140e+00
    8.0515528633672180e-03 -1.2586335510551052e+00
    8.1150749587315160e-03 -1.3002775278703140e+00
    7.9972998218919809e-03 -1.2188988004400882e+00
    8.0100242528853005e-03 -1.2286640649971763e+00
    8.0515528633672180e-03 -1.2586335510551052e+00
    8.1691743401105851e-03 -1.3328899972168937e+00
    8.0100242528853005e-03 -1.2286640649971763e+00
    8.0665418050355001e-03 -1.2688577540449519e+00
    8.0821186592322913e-03 -1.2792042981336627e+00
    8.1324750259182885e-03 -1.3110110602126894e+00
    8.0982930216956118e-03 -1.2896764346619851e+00
    8.0982930216956118e-03 -1.2896764346619851e+00
    7.8598274416724553e-03 -1.0674007037167823e+00
    7.8793665515828129e-03 -1.1008471314309092e+00
    7.8920046264698458e-03 -1.1180339887498947e+00
    7.8431948232260285e-03 -9.9617589421434038e-01
    7.8686485390699022e-03 -9.2253120802888511e-01
    7.8990521093087514e-03 -8.8750844101716153e-01
    8.2084859832423102e-03 -7.3782023435580313e-01
    8.7008897114618216e-03 -6.2906432511603283e-01
    9.9649264389358779e-03 -4.8679238351123538e-01
    1.6849504884022412e-02 -2.4693239916239743e-01
    1.0381669390620796e-02 -4.5643546458763845e-01
    8.7008897114618216e-03 -6.2906432511603283e-01
    8.3189033080770299e-03 -7.0710678118654757e-01
    7.9851218038297107e-03 -8.2696491324719179e-01
    7.8528843343060543e-03 -9.5137242394926225e-01
    7.8445768434105920e-03 -1.0193441518937556e+00
    7.8854439659468839e-03 -1.1094003924504581e+00
    7.8920046264698458e-03 -1.1180339887498947e+00
    7.9417371808043844e-03 -1.1716344450071754e+00
    7.8793665515828129e-03 -1.1008471314309092e+00
    7.9517969900545667e-03 -1.1808875530058045e+00
    7.9851218038297107e-03 -1.2092411467293844e+00
    7.9734830922330770e-03 -1.1996884330727700e+00
    8.1691743401105851e-03 -1.3328899972168937e+00
    8.3682477639106471e-03 -1.4389538683690033e+00
    8.0821186592322913e-03 -1.2792042981336627e+00
    8.0982930216956118e-03 -1.2896764346619851e+00
    8.0982930216956118e-03 -1.2896764346619851e+00
    8.0233025830945791e-03 -1.2385396975972436e+00
    8.0371426914793032e-03 -1.2485285456935951e+00
    8.0371426914793032e-03 -1.2485285456935951e+00
    8.1505042880089668e-03 -1.3218806379747876e+00
    8.0515528633672180e-03 -1.2586335510551052e+00
    8.1505042880089668e-03 -1.3218806379747876e+00
    8.0100242528853005e-03 -1.2286640649971763e+00
    8.2505142169373869e-03 -1.3784048752090219e+00
    8.1884973302248608e-03 -1.3440430100644944e+00
    7.9734830922330770e-03 -1.1996884330727700e+00
    7.9623769483945662e-03 -1.1902380714238083e+00
    7.9065902736001909e-03 -1.1355499479153377e+00
    7.8737690847018940e-03 -1.0923723316362284e+00
    7.9146232674337253e-03 -1.1444363299346698e+00
    7.8686485390699005e-03 -1.0839741694339398e+00
    7.8445768434105920e-03 -9.8102294317594529e-01
    7.8436554154584608e-03 -9.8857105322416117e-01
    7.9065902736001909e-03 -8.8063057185271088e-01
    8.1505042880089668e-03 -7.5649795546749898e-01
    8.7008897114618216e-03 -6.2906432511603283e-01
    1.0122549437535808e-02 -4.7471266327754130e-01
    1.7405553257374976e-02 -2.3807595834800258e-01
    1.1650590554468387e-02 -3.8701387014268551e-01
    9.1642611595043263e-03 -5.6407607481776623e-01
    8.5669746280017268e-03 -6.5286254923737297e-01
    8.1150749587315177e-03 -7.6906658660622251e-01
    7.9851218038297107e-03 -8.2696491324719179e-01
    7.8459595944146178e-03 -1.0271894227630172e+00
    7.8793665515828129e-03 -1.1008471314309092e+00
    7.9146232674337253e-03 -1.1444363299346698e+00
    7.9146232674337253e-03 -1.1444363299346698e+00
    8.0100242528853005e-03 -1.2286640649971763e+00
    8.1324750259182885e-03 -1.3110110602126894e+00
    8.3431889054955705e-03 -1.4264935053936392e+00
    8.0821186592322913e-03 -1.2792042981336627e+00
    8.1150749587315160e-03 -1.3002775278703140e+00
    8.1150749587315160e-03 -1.3002775278703140e+00
    8.1150749587315160e-03 -1.3002775278703140e+00
    8.0982930216956118e-03 -1.2896764346619851e+00
    8.1150749587315160e-03 -1.3002775278703140e+00
    8.0515528633672180e-03 -1.2586335510551052e+00
    7.9734830922330770e-03 -1.1996884330727700e+00
    7.9321918201664936e-03 -1.1624763874381931e+00
    8.0665418050355001e-03 -1.2688577540449519e+00
    7.9623769483945662e-03 -1.1902380714238083e+00
    8.0515528633672180e-03 -1.2586335510551052e+00
    8.0100242528853005e-03 -1.2286640649971763e+00
    7.9321918201664936e-03 -1.1624763874381931e+00
    7.9517969900545667e-03 -1.1808875530058045e+00
    7.9734830922330770e-03 -1.1996884330727700e+00
    8.0515528633672180e-03 -1.2586335510551052e+00
    7.9734830922330770e-03 -1.1996884330727700e+00
    7.9734830922330770e-03 -1.1996884330727700e+00
    7.9417371808043844e-03 -1.1716344450071754e+00
    7.8920046264698458e-03 -1.1180339887498947e+00
    7.8528843343060560e-03 -1.0511130812987819e+00
    7.8478044003640283e-03 -9.6609178307929588e-01
    7.9321918201664919e-03 -8.6023252670426265e-01
    8.2291536264894761e-03 -7.3163796897581723e-01
    8.9776373999038185e-03 -5.8767408037301438e-01
    1.0292056960393108e-02 -4.6255106569123050e-01
    1.9517940062203892e-02 -2.0976176963403034e-01
    1.2295146549727630e-02 -3.6037498507822363e-01
    9.6809566243151804e-03 -5.1075391845524920e-01
    8.5669746280017268e-03 -6.5286254923737297e-01
    8.0371426914793050e-03 -8.0094284063362731e-01
    7.9623769483945662e-03 -8.4016805041680598e-01
    7.8920046264698458e-03 -8.9442719099991586e-01
    7.8445768434105920e-03 -1.0193441518937556e+00
    7.8640021562974265e-03 -1.0756508696544755e+00
    7.9734830922330770e-03 -1.1996884330727700e+00
    7.8920046264698458e-03 -1.1180339887498947e+00
    8.0515528633672180e-03 -1.2586335510551052e+00
    8.1691743401105851e-03 -1.3328899972168937e+00
    8.0665418050355001e-03 -1.2688577540449519e+00
    8.1324750259182885e-03 -1.3110110602126894e+00
    8.1505042880089668e-03 -1.3218806379747876e+00
    8.0233025830945791e-03 -1.2385396975972436e+00
    8.0821186592322913e-03 -1.2792042981336627e+00
    8.1150749587315160e-03 -1.3002775278703140e+00
    8.2291536264894761e-03 -1.3667962057789993e+00
    8.0982930216956118e-03 -1.2896764346619851e+00
    7.9734830922330770e-03 -1.1996884330727700e+00
    7.9851218038297107e-03 -1.2092411467293844e+00
    8.0371426914793032e-03 -1.2485285456935951e+00
    7.9851218038297107e-03 -1.2092411467293844e+00
    7.9972998218919809e-03 -1.2188988004400882e+00
    7.9417371808043844e-03 -1.1716344450071754e+00
    8.0982930216956118e-03 -1.2896764346619851e+00
    8.0821186592322913e-03 -1.2792042981336627e+00
    7.9734830922330770e-03 -1.1996884330727700e+00
    7.9517969900545667e-03 -1.1808875530058045e+00
    7.9623769483945662e-03 -1.1902380714238083e+00
    7.8990521093087514e-03 -1.1267498468565702e+00
    7.8431948232260285e-03 -1.0038387857082969e+00
    7.8431948232260285e-03 -9.9617589421434038e-01
    7.8793665515828129e-03 -9.0839133922270821e-01
    7.9417371808043861e-03 -8.5350853609794264e-01
    8.4765975617639086e-03 -6.7082039324993692e-01
    9.2146309018556315e-03 -5.5817361899746187e-01
    1.0776979534532804e-02 -4.3169854802122781e-01
    1.5892087700551387e-02 -2.6395478996892824e-01
    1.2121477564127420e-02 -3.6712751013190520e-01
    9.8180561614516614e-03 -4.9880239348984301e-01
    9.2665998890577809e-03 -5.5226805085936315e-01
    8.2291536264894761e-03 -7.3163796897581723e-01
    8.0982930216956100e-03 -7.7538828587039577e-01
    7.9231555343189739e-03 -8.6699357111168551e-01
    7.8598274416724553e-03 -9.3685529390969391e-01
    7.8598274416724553e-03 -1.0674007037167823e+00
    7.8990521093087514e-03 -1.1267498468565702e+00
    7.9417371808043844e-03 -1.1716344450071754e+00
    7.9517969900545667e-03 -1.1808875530058045e+00
    7.9623769483945662e-03 -1.1902380714238083e+00
    7.9517969900545667e-03 -1.1808875530058045e+00
    8.0100242528853005e-03 -1.2286640649971763e+00
    7.9623769483945662e-03 -1.1902380714238083e+00
    8.0233025830945791e-03 -1.2385396975972436e+00
    8.0233025830945791e-03 -1.2385396975972436e+00
    8.0982930216956118e-03 -1.2896764346619851e+00
    8.0233025830945791e-03 -1.2385396975972436e+00
    7.9851218038297107e-03 -1.2092411467293844e+00
    7.9851218038297107e-03 -1.2092411467293844e+00
    7.9146232674337253e-03 -1.1444363299346698e+00
    8.0233025830945791e-03 -1.2385396975972436e+00
    8.0371426914793032e-03 -1.2485285456935951e+00
    8.0233025830945791e-03 -1.2385396975972436e+00
    8.0233025830945791e-03 -1.2385396975972436e+00
    7.9623769483945662e-03 -1.1902380714238083e+00
    7.8990521093087514e-03 -1.1267498468565702e+00
    7.9851218038297107e-03 -1.2092411467293844e+00
    7.9734830922330770e-03 -1.1996884330727700e+00
    7.9517969900545667e-03 -1.1808875530058045e+00
    7.8990521093087514e-03 -1.1267498468565702e+00
    7.8445768434105920e-03 -1.0193441518937556e+00
    7.8501122387907331e-03 -9.5870623605921312e-01
    7.9321918201664919e-03 -8.6023252670426265e-01
    8.0821186592322913e-03 -7.8173595997057155e-01
    8.8925264818458354e-03 -5.9947894041408989e-01
    9.4917833165676820e-03 -5.2859413987092441e-01
    1.1956597139968179e-02 -3.7381545081279827e-01
    1.4742692519607040e-02 -2.8807560095783868e-01
    1.2671947084422076e-02 -3.4665786276924765e-01
    1.0042326944147853e-02 -4.8076197382041158e-01
    9.4327497145561545e-03 -5.3452248382484868e-01
    8.6658910188365298e-03 -6.3500063500095272e-01
    8.1324750259182867e-03 -7.6277007139647379e-01
    7.9231555343189739e-03 -8.6699357111168551e-01
    7.8598274416724553e-03 -9.3685529390969391e-01
    7.8561221604097724e-03 -1.0592219878345588e+00
    7.8528843343060560e-03 -1.0511130812987819e+00
    7.8640021562974265e-03 -1.0756508696544755e+00
    7.9851218038297107e-03 -1.2092411467293844e+00
    8.1150749587315160e-03 -1.3002775278703140e+00
    8.1505042880089668e-03 -1.3218806379747876e+00
    8.0233025830945791e-03 -1.2385396975972436e+00
    8.1324750259182885e-03 -1.3110110602126894e+00
    8.0821186592322913e-03 -1.2792042981336627e+00
    7.9734830922330770e-03 -1.1996884330727700e+00
    8.1150749587315160e-03 -1.3002775278703140e+00
    8.0371426914793032e-03 -1.2485285456935951e+00
    8.0100242528853005e-03 -1.2286640649971763e+00
    7.9734830922330770e-03 -1.1996884330727700e+00
    7.9417371808043844e-03 -1.1716344450071754e+00
    7.9623769483945662e-03 -1.1902380714238083e+00
    8.0982930216956118e-03 -1.2896764346619851e+00
    8.0515528633672180e-03 -1.2586335510551052e+00
    7.9972998218919809e-03 -1.2188988004400882e+00
    7.9734830922330770e-03 -1.1996884330727700e+00
    8.0821186592322913e-03 -1.2792042981336627e+00
    7.9417371808043844e-03 -1.1716344450071754e+00
    7.9972998218919809e-03 -1.2188988004400882e+00
    7.9231555343189757e-03 -1.1534110901396533e+00
    7.8459595944146178e-03 -1.0271894227630172e+00
    7.8478044003640283e-03 -9.6609178307929588e-01
    7.9065902736001909e-03 -8.8063057185271088e-01
    8.0233025830945791e-03 -8.0740246109187397e-01
    8.2291536264894761e-03 -7.3163796897581723e-01
    8.7008897114618216e-03 -6.2906432511603283e-01
    9.5527713509338964e-03 -5.2265737506259025e-01
    1.3094222665948311e-02 -3.3262335737638815e-01
    1.8724491410006001e-02 -2.1952851997938069e-01
    1.3571271318291866e-02 -3.1822291367029204e-01
    1.0292056960393108e-02 -4.6255106569123050e-01
    9.4917833165676820e-03 -5.2859413987092441e-01
    8.9344375191990448e-03 -5.9357527426402856e-01
    8.3940982987344495e-03 -6.8889496382717208e-01
    7.9623769483945662e-03 -8.4016805041680598e-01
    7.8793665515828129e-03 -9.0839133922270821e-01
    7.8459595944146178e-03 -9.7353027381271029e-01
    7.8431948232260285e-03 -1.0038387857082969e+00
    7.8990521093087514e-03 -1.1267498468565702e+00
    7.9065902736001909e-03 -1.1355499479153377e+00
    7.9517969900545667e-03 -1.1808875530058045e+00
    8.0982930216956118e-03 -1.2896764346619851e+00
    7.9231555343189757e-03 -1.1534110901396533e+00
    8.0100242528853005e-03 -1.2286640649971763e+00
    7.9972998218919809e-03 -1.2188988004400882e+00
    7.9851218038297107e-03 -1.2092411467293844e+00
    7.9734830922330770e-03 -1.1996884330727700e+00
    7.9734830922330770e-03 -1.1996884330727700e+00
    7.9231555343189757e-03 -1.1534110901396533e+00
    8.0100242528853005e-03 -1.2286640649971763e+00
    7.9851218038297107e-03 -1.2092411467293844e+00
    8.0371426914793032e-03 -1.2485285456935951e+00
    7.9321918201664936e-03 -1.1624763874381931e+00
    7.9231555343189757e-03 -1.1534110901396533e+00
    7.8920046264698458e-03 -1.1180339887498947e+00
    7.9972998218919809e-03 -1.2188988004400882e+00
    7.8990521093087514e-03 -1.1267498468565702e+00
    7.8598274416724553e-03 -1.0674007037167823e+00
    7.8737690847018940e-03 -1.0923723316362284e+00
    7.8431948232260285e-03 -1.0038387857082969e+00
    7.8478044003640283e-03 -9.6609178307929588e-01
    7.9065902736001909e-03 -8.8063057185271088e-01
    8.1150749587315177e-03 -7.6906658660622251e-01
    8.1884973302248591e-03 -7.4402380914284494e-01
    8.3431889054955705e-03 -7.0101966550773120e-01
    8.7008897114618216e-03 -6.2906432511603283e-01
    1.0122549437535808e-02 -4.7471266327754130e-01
    1.3094222665948311e-02 -3.3262335737638815e-01
    1.7405553257374976e-02 -2.3807595834800258e-01
    1.3571271318291866e-02 -3.1822291367029204e-01
    1.1956597139968179e-02 -3.7381545081279827e-01
    9.8902117846594133e-03 -4.9280538030458115e-01
    9.0680856380345679e-03 -5.7587555344989638e-01
    8.7008897114618216e-03 -6.2906432511603283e-01
    8.4765975617639086e-03 -6.7082039324993692e-01
    8.0821186592322913e-03 -7.8173595997057155e-01
    8.0100242528852988e-03 -8.1389211948857521e-01
    7.8459595944146178e-03 -9.7353027381271029e-01
    7.8445768434105920e-03 -9.8102294317594529e-01
    7.8528843343060543e-03 -9.5137242394926225e-01
    7.8445768434105920e-03 -1.0193441518937556e+00
    7.8793665515828129e-03 -1.1008471314309092e+00
    8.0233025830945791e-03 -1.2385396975972436e+00
    8.0233025830945791e-03 -1.2385396975972436e+00
    8.0371426914793032e-03 -1.2485285456935951e+00
    8.0371426914793032e-03 -1.2485285456935951e+00
    8.0100242528853005e-03 -1.2286640649971763e+00
    7.9065902736001909e-03 -1.1355499479153377e+00
    7.9231555343189757e-03 -1.1534110901396533e+00
    8.0233025830945791e-03 -1.2385396975972436e+00
    7.9623769483945662e-03 -1.1902380714238083e+00
    7.9231555343189757e-03 -1.1534110901396533e+00
    7.8737690847018940e-03 -1.0923723316362284e+00
    7.8920046264698458e-03 -1.1180339887498947e+00
    7.8854439659468839e-03 -1.1094003924504581e+00
    7.8478044003640283e-03 -1.0350983390135313e+00
    7.8737690847018940e-03 -1.0923723316362284e+00
    7.8436554154584608e-03 -1.0115610777177462e+00
    7.8920046264698458e-03 -1.1180339887498947e+00
    7.8436554154584608e-03 -1.0115610777177462e+00
    7.8598274416724553e-03 -9.3685529390969391e-01
    7.9146232674337253e-03 -8.7379260326093022e-01
    8.0982930216956100e-03 -7.7538828587039577e-01
    8.3682477639106453e-03 -6.9494931142821170e-01
    8.5989624567302369e-03 -6.4689895723332647e-01
    9.7483412713342578e-03 -5.0478479801564169e-01
    1.1508324128262047e-02 -3.9353177335148953e-01
    1.4742692519607040e-02 -2.8807560095783868e-01
    2.0429769474368979e-02 -1.9960119601394979e-01
    1.4742692519607040e-02 -2.8807560095783868e-01
    1.2671947084422076e-02 -3.4665786276924765e-01
    1.0776979534532804e-02 -4.3169854802122781e-01
    9.4327497145561545e-03 -5.3452248382484868e-01
    9.0680856380345679e-03 -5.7587555344989638e-01
    8.7369524519886159e-03 -6.2313551683436041e-01
    8.5669746280017268e-03 -6.5286254923737297e-01
    8.1691743401105851e-03 -7.5024945951130551e-01
    8.0233025830945791e-03 -8.0740246109187397e-01
    7.9231555343189739e-03 -8.6699357111168551e-01
    7.9517969900545649e-03 -8.4682067945810968e-01
    7.8561221604097741e-03 -9.4408916306993318e-01
    7.8501122387907331e-03 -9.5870623605921312e-01
    7.8561221604097724e-03 -1.0592219878345588e+00
    7.9972998218919809e-03 -1.2188988004400882e+00
    8.0233025830945791e-03 -1.2385396975972436e+00
    7.9851218038297107e-03 -1.2092411467293844e+00
    7.9231555343189757e-03 -1.1534110901396533e+00
    7.9417371808043844e-03 -1.1716344450071754e+00
    7.9231555343189757e-03 -1.1534110901396533e+00
    7.8920046264698458e-03 -1.1180339887498947e+00
    7.9517969900545667e-03 -1.1808875530058045e+00
    7.8920046264698458e-03 -1.1180339887498947e+00
    7.8561221604097724e-03 -1.0592219878345588e+00
    7.8737690847018940e-03 -1.0923723316362284e+00
    7.8598274416724553e-03 -1.0674007037167823e+00
    7.8640021562974265e-03 -1.0756508696544755e+00
    7.8561221604097724e-03 -1.0592219878345588e+00
    7.8478044003640283e-03 -1.0350983390135313e+00
    7.8436554154584608e-03 -1.0115610777177462e+00
    7.8501122387907331e-03 -9.5870623605921312e-01
    7.8990521093087514e-03 -8.8750844101716153e-01
    8.0233025830945791e-03 -8.0740246109187397e-01
    8.2505142169373869e-03 -7.2547625011001160e-01
    8.6319251652715416e-03 -6.4094524790407070e-01
    9.4917833165676820e-03 -5.2859413987092441e-01
    1.0205740262020424e-02 -4.6864290053760455e-01
    1.3094222665948311e-02 -3.3262335737638815e-01
    1.5094399613236727e-02 -2.8020063649858978e-01
    1.9517940062203892e-02 -2.0976176963403034e-01
    1.5476078984904613e-02 -2.7216552697590868e-01
    1.3094222665948311e-02 -3.3262335737638815e-01
    1.0292056960393108e-02 -4.6255106569123050e-01
    9.8902117846594133e-03 -4.9280538030458115e-01
    9.6157988963726480e-03 -5.1671103264990947e-01
    9.1154313955119689e-03 -5.6997639990327720e-01
    9.1154313955119689e-03 -5.6997639990327720e-01
    8.4482524944714064e-03 -6.7683126306282415e-01
    8.2084859832423102e-03 -7.3782023435580313e-01
    8.1324750259182867e-03 -7.6277007139647379e-01
    7.9851218038297107e-03 -8.2696491324719179e-01
    7.9517969900545649e-03 -8.4682067945810968e-01
    7.8737690847018923e-03 -9.1543878496275444e-01
    7.8431948232260285e-03 -9.9617589421434038e-01
    7.8436554154584608e-03 -1.0115610777177462e+00
    7.8431948232260285e-03 -1.0038387857082969e+00
    7.8431948232260285e-03 -1.0038387857082969e+00
    7.8459595944146178e-03 -1.0271894227630172e+00
    7.8478044003640283e-03 -1.0350983390135313e+00
    7.8920046264698458e-03 -1.1180339887498947e+00
    7.8990521093087514e-03 -1.1267498468565702e+00
    7.9065902736001909e-03 -1.1355499479153377e+00
    7.9065902736001909e-03 -1.1355499479153377e+00
    7.8561221604097724e-03 -1.0592219878345588e+00
    7.8528843343060543e-03 -9.5137242394926225e-01
    7.8478044003640283e-03 -9.6609178307929588e-01
    7.8561221604097724e-03 -1.0592219878345588e+00
    7.8528843343060543e-03 -9.5137242394926225e-01
    7.8459595944146178e-03 -9.7353027381271029e-01
    7.8793665515828129e-03 -9.0839133922270821e-01
    8.0100242528852988e-03 -8.1389211948857521e-01
    8.1691743401105851e-03 -7.5024945951130551e-01
    8.2084859832423102e-03 -7.3782023435580313e-01
    8.5669746280017268e-03 -6.5286254923737297e-01
    9.1642611595043263e-03 -5.6407607481776623e-01
    9.7483412713342578e-03 -5.0478479801564169e-01
    1.1118753370328730e-02 -4.1279969409381373e-01
    1.3834005065564876e-02 -3.1086758509401535e-01
    1.6347723869116110e-02 -2.5555062599997597e-01
    2.0429769474368979e-02 -1.9960119601394979e-01
    1.7405553257374976e-02 -2.3807595834800258e-01
    1.2671947084422076e-02 -3.4665786276924765e-01
    1.0672191862121047e-02 -4.3792787296289815e-01
    1.0205740262020424e-02 -4.6864290053760455e-01
    9.9649264389358779e-03 -4.8679238351123538e-01
    9.6157988963726480e-03 -5.1671103264990947e-01
    9.2665998890577809e-03 -5.5226805085936315e-01
    8.8124030489960242e-03 -6.1129715403093110e-01
    8.7741120566679712e-03 -6.1721339984836754e-01
    8.2953733913714248e-03 -7.1321141341906047e-01
    8.1324750259182867e-03 -7.6277007139647379e-01
    8.0233025830945791e-03 -8.0740246109187397e-01
    7.9146232674337253e-03 -8.7379260326093022e-01
    7.9417371808043861e-03 -8.5350853609794264e-01
    7.9734830922330788e-03 -8.3354975544666499e-01
    7.8561221604097741e-03 -9.4408916306993318e-01
    7.8561221604097741e-03 -9.4408916306993318e-01
    7.8445768434105920e-03 -9.8102294317594529e-01
    7.8459595944146178e-03 -9.7353027381271029e-01
    7.8459595944146178e-03 -1.0271894227630172e+00
    7.8598274416724553e-03 -1.0674007037167823e+00
    7.8920046264698458e-03 -1.1180339887498947e+00
    7.8478044003640283e-03 -1.0350983390135313e+00
    7.8478044003640283e-03 -1.0350983390135313e+00
    7.8501122387907348e-03 -1.0430723848324241e+00
    7.8436554154584608e-03 -1.0115610777177462e+00
    7.8431948232260285e-03 -1.0038387857082969e+00
    7.9065902736001909e-03 -8.8063057185271088e-01
    8.0100242528852988e-03 -8.1389211948857521e-01
    8.2291536264894761e-03 -7.3163796897581723e-01
    8.2291536264894761e-03 -7.3163796897581723e-01
    8.4207598032781782e-03 -6.8285586680606369e-01
    8.5359347628026650e-03 -6.5883680381861942e-01
    8.8925264818458354e-03 -5.9947894041408989e-01
    9.2146309018556315e-03 -5.5817361899746187e-01
    9.8902117846594133e-03 -4.9280538030458115e-01
    1.1508324128262047e-02 -3.9353177335148953e-01
    1.4417337286545283e-02 -2.9580398915498080e-01
    1.5892087700551387e-02 -2.6395478996892824e-01
    2.4273614396622737e-02 -1.6600920190793711e-01
    1.8724491410006001e-02 -2.1952851997938069e-01
    1.3571271318291866e-02 -3.1822291367029204e-01
    1.2295146549727630e-02 -3.6037498507822363e-01
    1.1242825129189990e-02 -4.0642166702646576e-01
    1.0381669390620796e-02 -4.5643546458763845e-01
    1.0122549437535808e-02 -4.7471266327754130e-01
    9.6809566243151804e-03 -5.1075391845524920e-01
    9.3755906308211588e-03 -5.4044352889158753e-01
    9.5527713509338964e-03 -5.2265737506259025e-01
    9.0221709853472980e-03 -5.8177447388273951e-01
    8.3682477639106453e-03 -6.9494931142821170e-01
    8.4207598032781782e-03 -6.8285586680606369e-01
    8.2084859832423102e-03 -7.3782023435580313e-01
    8.1884973302248591e-03 -7.4402380914284494e-01
    7.9972998218919809e-03 -8.2041265414236708e-01
    7.9321918201664919e-03 -8.6023252670426265e-01
    7.8478044003640283e-03 -9.6609178307929588e-01
    7.8598274416724553e-03 -9.3685529390969391e-01
    7.8459595944146178e-03 -9.7353027381271029e-01
    7.8445768434105920e-03 -9.8102294317594529e-01
    7.8501122387907331e-03 -9.5870623605921312e-01
    7.8431948232260285e-03 -1.0038387857082969e+00
    7.8431948232260285e-03 -1.0038387857082969e+00
    7.8854439659468856e-03 -9.0138781886599739e-01
    7.8854439659468856e-03 -9.0138781886599739e-01
    7.9321918201664919e-03 -8.6023252670426265e-01
    8.0100242528852988e-03 -8.1389211948857521e-01
    8.0665418050355001e-03 -7.8811040623910056e-01
    8.1884973302248591e-03 -7.4402380914284494e-01
    8.4207598032781782e-03 -6.8285586680606369e-01
    8.3682477639106453e-03 -6.9494931142821170e-01
    8.5989624567302369e-03 -6.4689895723332647e-01
    8.8925264818458354e-03 -5.9947894041408989e-01
    9.4327497145561545e-03 -5.3452248382484868e-01
    9.7483412713342578e-03 -5.0478479801564169e-01
    1.0672191862121047e-02 -4.3792787296289815e-01
    1.3094222665948311e-02 -3.3262335737638815e-01
    1.5094399613236727e-02 -2.8020063649858978e-01
    1.7405553257374976e-02 -2.3807595834800258e-01
    2.6167040795969113e-02 -1.5339299776947410e-01
    1.7405553257374976e-02 -2.3807595834800258e-01
    1.5892087700551387e-02 -2.6395478996892824e-01
    1.4115297502111266e-02 -3.0339777389595485e-01
    1.2295146549727630e-02 -3.6037498507822363e-01
    1.0999970897856275e-02 -4.1913682214245462e-01
    1.0776979534532804e-02 -4.3169854802122781e-01
    1.0886146998118230e-02 -4.2543562981151700e-01
    1.0122549437535808e-02 -4.7471266327754130e-01
    1.0122549437535808e-02 -4.7471266327754130e-01
    1.0474760980079661e-02 -4.5029432259193031e-01
    9.3202309273743740e-03 -5.4635836470815291e-01
    8.5989624567302369e-03 -6.4689895723332647e-01
    8.4482524944714064e-03 -6.7683126306282415e-01
    8.3431889054955705e-03 -7.0101966550773120e-01
    8.1150749587315177e-03 -7.6906658660622251e-01
    8.0371426914793050e-03 -8.0094284063362731e-01
    8.0100242528852988e-03 -8.1389211948857521e-01
    7.8737690847018923e-03 -9.1543878496275444e-01
    7.8854439659468856e-03 -9.0138781886599739e-01
    7.8598274416724553e-03 -9.3685529390969391e-01
    7.8990521093087514e-03 -8.8750844101716153e-01
    7.9517969900545649e-03 -8.4682067945810968e-01
    7.9734830922330788e-03 -8.3354975544666499e-01
    7.8990521093087514e-03 -8.8750844101716153e-01
    8.0100242528852988e-03 -8.1389211948857521e-01
    8.0515528633672180e-03 -7.9451242910353526e-01
    8.3682477639106453e-03 -6.9494931142821170e-01
    8.7008897114618216e-03 -6.2906432511603283e-01
    8.5669746280017268e-03 -6.5286254923737297e-01
    8.5058172194653562e-03 -6.6482249531453352e-01
    8.7369524519886159e-03 -6.2313551683436041e-01
    9.2146309018556315e-03 -5.5817361899746187e-01
    9.6809566243151804e-03 -5.1075391845524920e-01
    1.0042326944147853e-02 -4.8076197382041158e-01
    1.0381669390620796e-02 -4.5643546458763845e-01
    1.1650590554468387e-02 -3.8701387014268551e-01
    1.2876876074585599e-02 -3.3968311024337872e-01
    1.6347723869116110e-02 -2.5555062599997597e-01
    1.8026142932306526e-02 -2.2895273494481277e-01
    2.8608516770953191e-02 -1.3975424859373684e-01
    2.4273614396622737e-02 -1.6600920190793711e-01
    2.1492097484838411e-02 -1.8898223650461360e-01
    1.6347723869116110e-02 -2.5555062599997597e-01
    1.4742692519607040e-02 -2.8807560095783868e-01
    1.2876876074585599e-02 -3.3968311024337872e-01
    1.1650590554468387e-02 -3.8701387014268551e-01
    1.1956597139968179e-02 -3.7381545081279827e-01
    1.1799834971833038e-02 -3.8044295512634102e-01
    1.0886146998118230e-02 -4.2543562981151700e-01
    1.0776979534532804e-02 -4.3169854802122781e-01
    1.1118753370328730e-02 -4.1279969409381373e-01
    1.0886146998118230e-02 -4.2543562981151700e-01
    9.4327497145561545e-03 -5.3452248382484868e-01
    8.9344375191990448e-03 -5.9357527426402856e-01
    8.4765975617639086e-03 -6.7082039324993692e-01
    8.4207598032781782e-03 -6.8285586680606369e-01
    8.3940982987344495e-03 -6.8889496382717208e-01
    8.2084859832423102e-03 -7.3782023435580313e-01
    8.0100242528852988e-03 -8.1389211948857521e-01
    8.0100242528852988e-03 -8.1389211948857521e-01
    8.1150749587315177e-03 -7.6906658660622251e-01
    8.1884973302248591e-03 -7.4402380914284494e-01
    8.0515528633672180e-03 -7.9451242910353526e-01
    8.1691743401105851e-03 -7.5024945951130551e-01
    8.1324750259182867e-03 -7.6277007139647379e-01
    8.5058172194653562e-03 -6.6482249531453352e-01
    8.7741120566679712e-03 -6.1721339984836754e-01
    8.7008897114618216e-03 -6.2906432511603283e-01
    8.6319251652715416e-03 -6.4094524790407070e-01
    8.9776373999038185e-03 -5.8767408037301438e-01
    9.1154313955119689e-03 -5.6997639990327720e-01
    1.0205740262020424e-02 -4.6864290053760455e-01
    1.0672191862121047e-02 -4.3792787296289815e-01
    1.0776979534532804e-02 -4.3169854802122781e-01
    1.1650590554468387e-02 -3.8701387014268551e-01
    1.3325217947449031e-02 -3.2547227745205964e-01
    1.3571271318291866e-02 -3.1822291367029204e-01
    1.7405553257374976e-02 -2.3807595834800258e-01
    2.2750716193689222e-02 -1.7782168978975485e-01
    3.1923005267651211e-02 -1.2475657231036105e-01
    2.6167040795969113e-02 -1.5339299776947410e-01
    2.4273614396622737e-02 -1.6600920190793711e-01
    1.8724491410006001e-02 -2.1952851997938069e-01
    1.5892087700551387e-02 -2.6395478996892824e-01
    1.5892087700551387e-02 -2.6395478996892824e-01
    1.3325217947449031e-02 -3.2547227745205964e-01
    1.2876876074585599e-02 -3.3968311024337872e-01
    1.2671947084422076e-02 -3.4665786276924765e-01
    1.2671947084422076e-02 -3.4665786276924765e-01
    1.1799834971833038e-02 -3.8044295512634102e-01
    1.2121477564127420e-02 -3.6712751013190520e-01
    1.2295146549727630e-02 -3.6037498507822363e-01
    1.1799834971833038e-02 -3.8044295512634102e-01
    1.0999970897856275e-02 -4.1913682214245462e-01
    9.6809566243151804e-03 -5.1075391845524920e-01
    9.3202309273743740e-03 -5.4635836470815291e-01
    8.7741120566679712e-03 -6.1721339984836754e-01
    8.7369524519886159e-03 -6.2313551683436041e-01
    8.4207598032781782e-03 -6.8285586680606369e-01
    8.2725823701887465e-03 -7.1933431759169952e-01
    8.2953733913714248e-03 -7.1321141341906047e-01
    8.4765975617639086e-03 -6.7082039324993692e-01
    8.4482524944714064e-03 -6.7683126306282415e-01
    8.3940982987344495e-03 -6.8889496382717208e-01
    8.5669746280017268e-03 -6.5286254923737297e-01
    8.8518617674471674e-03 -6.0538594846334071e-01
    9.1154313955119689e-03 -5.6997639990327720e-01
    9.3202309273743740e-03 -5.4635836470815291e-01
    9.8180561614516614e-03 -4.9880239348984301e-01
    1.0042326944147853e-02 -4.8076197382041158e-01
    9.6809566243151804e-03 -5.1075391845524920e-01
    1.0776979534532804e-02 -4.3169854802122781e-01
    1.1242825129189990e-02 -4.0642166702646576e-01
    1.2671947084422076e-02 -3.4665786276924765e-01
    1.5094399613236727e-02 -2.8020063649858978e-01
    1.5094399613236727e-02 -2.8020063649858978e-01
    1.4742692519607040e-02 -2.8807560095783868e-01
    2.0429769474368979e-02 -1.9960119601394979e-01
    2.8608516770953191e-02 -1.3975424859373684e-01
    4.4971300516759960e-02 -8.7874955032749349e-02
    3.1923005267651211e-02 -1.2475657231036105e-01
    2.4273614396622737e-02 -1.6600920190793711e-01
    2.2750716193689222e-02 -1.7782168978975485e-01
    1.8724491410006001e-02 -2.1952851997938069e-01
    1.9517940062203892e-02 -2.0976176963403034e-01
    1.8724491410006001e-02 -2.1952851997938069e-01
    1.6347723869116110e-02 -2.5555062599997597e-01
    1.4742692519607040e-02 -2.8807560095783868e-01
    1.4115297502111266e-02 -3.0339777389595485e-01
    1.3094222665948311e-02 -3.3262335737638815e-01
    1.2671947084422076e-02 -3.4665786276924765e-01
    1.3571271318291866e-02 -3.1822291367029204e-01
    1.3571271318291866e-02 -3.1822291367029204e-01
    1.2671947084422076e-02 -3.4665786276924765e-01
    1.1372549019607844e-02 -3.9999999999999997e-01
    1.0474760980079661e-02 -4.5029432259193031e-01
    9.6157988963726480e-03 -5.1671103264990947e-01
    9.2146309018556315e-03 -5.5817361899746187e-01
    9.4327497145561545e-03 -5.3452248382484868e-01
    9.4327497145561545e-03 -5.3452248382484868e-01
    8.9776373999038185e-03 -5.8767408037301438e-01
    9.6809566243151804e-03 -5.1075391845524920e-01
    9.1642611595043263e-03 -5.6407607481776623e-01
    9.9649264389358779e-03 -4.8679238351123538e-01
    9.4917833165676820e-03 -5.2859413987092441e-01
    1.0381669390620796e-02 -4.5643546458763845e-01
    1.0474760980079661e-02 -4.5029432259193031e-01
    1.0672191862121047e-02 -4.3792787296289815e-01
    1.1508324128262047e-02 -3.9353177335148953e-01
    1.1508324128262047e-02 -3.9353177335148953e-01
    1.1242825129189990e-02 -4.0642166702646576e-01
    1.3325217947449031e-02 -3.2547227745205964e-01
    1.5476078984904613e-02 -2.7216552697590868e-01
    1.7405553257374976e-02 -2.3807595834800258e-01
    1.8724491410006001e-02 -2.1952851997938069e-01
    2.0429769474368979e-02 -1.9960119601394979e-01
    1.9517940062203892e-02 -2.0976176963403034e-01
    2.2750716193689222e-02 -1.7782168978975485e-01
    3.1923005267651211e-02 -1.2475657231036105e-01
    3.6790004975290752e-02 -1.0783277320343841e-01
    2.6167040795969113e-02 -1.5339299776947410e-01
    2.6167040795969113e-02 -1.5339299776947410e-01
    2.6167040795969113e-02 -1.5339299776947410e-01
    3.1923005267651211e-02 -1.2475657231036105e-01
    3.1923005267651211e-02 -1.2475657231036105e-01
    2.6167040795969113e-02 -1.5339299776947410e-01
    2.2750716193689222e-02 -1.7782168978975485e-01
    1.9517940062203892e-02 -2.0976176963403034e-01
    1.5892087700551387e-02 -2.6395478996892824e-01
    1.5476078984904613e-02 -2.7216552697590868e-01
    1.5094399613236727e-02 -2.8020063649858978e-01
    1.5892087700551387e-02 -2.6395478996892824e-01
    1.6849504884022412e-02 -2.4693239916239743e-01
    1.6849504884022412e-02 -2.4693239916239743e-01
    1.4417337286545283e-02 -2.9580398915498080e-01
    1.2876876074585599e-02 -3.3968311024337872e-01
    1.1956597139968179e-02 -3.7381545081279827e-01
    1.2295146549727630e-02 -3.6037498507822363e-01
    1.1799834971833038e-02 -3.8044295512634102e-01
    1.0122549437535808e-02 -4.7471266327754130e-01
    1.0474760980079661e-02 -4.5029432259193031e-01
    1.2876876074585599e-02 -3.3968311024337872e-01
    1.1956597139968179e-02 -3.7381545081279827e-01
    1.1118753370328730e-02 -4.1279969409381373e-01
    1.1650590554468387e-02 -3.8701387014268551e-01
    1.1242825129189990e-02 -4.0642166702646576e-01
    1.1372549019607844e-02 -3.9999999999999997e-01
    1.1650590554468387e-02 -3.8701387014268551e-01
    1.2671947084422076e-02 -3.4665786276924765e-01
    1.3325217947449031e-02 -3.2547227745205964e-01
    1.4115297502111266e-02 -3.0339777389595485e-01
    1.5892087700551387e-02 -2.6395478996892824e-01
    1.7405553257374976e-02 -2.3807595834800258e-01
    2.0429769474368979e-02 -1.9960119601394979e-01
    2.2750716193689222e-02 -1.7782168978975485e-01
    2.6167040795969113e-02 -1.5339299776947410e-01
    2.8608516770953191e-02 -1.3975424859373684e-01
    2.8608516770953191e-02 -1.3975424859373684e-01
    2.6167040795969113e-02 -1.5339299776947410e-01</input_scale>
  <output_scale>
    1.0526315789473684e+00 0.</output_scale>
  <inv_output_scale>
    9.4999999999999996e-01 0.</inv_output_scale>
  <weights>
    <_>
      -9.8085387653647838e-01 -9.8985064255964761e-02
      -8.4715484117935891e-02 -3.5458184828121873e-02
      7.5174287212903645e-02 -1.7428172104928363e-02
      3.3491265889623666e-02 6.6891007876546171e-02
      -2.9239544568190945e-02 -1.0056938942839727e-01
      -3.2046839531620762e-02 -6.5713051581319265e-02
      -3.0889446977226041e-02 4.4552507536054192e-02
      -2.5246333700539660e-02 -2.9730533435468099e-02
      -2.3751451158370702e-02 -5.5320167188608917e-02
      1.1727021024621143e-01 -1.1534480167932434e-01
      6.2745567511709788e-02 -1.8439919183590864e-02
      2.4462494109000959e-02 -8.1311297546169614e-02
      -2.9658071573330020e-02 -1.7429248182158014e-03
      -9.9439109107048146e-02 1.0831031786458559e-01
      -3.3364833218733930e-02 -2.9187256265058321e-02
      9.0400561838090795e-02 1.0358913322918874e-01
      -1.1960093385726113e-01 -3.6192942080673265e-02
      -4.8482004939015604e-02 -1.5364651742547563e-02
      -8.2142998399036785e-02 -4.0560161192324494e-02
      9.4672598372316563e-02 7.7960230050462223e-02
      2.6666590577520766e-01 -7.3666408343679698e-02
      -6.2630838128730756e-02 -1.9159954784111033e-02
      5.7947440231661325e-02 -1.7572278794782480e-02
      1.3850879126325362e-02 4.9968404042980419e-02
      -6.2119061913534701e-03 -6.7870936489479450e-02
      -1.6292314435833934e-02 -5.5433045587302561e-02
      -1.5853702002618299e-02 2.4043674864924321e-02
      -5.4324091446310372e-03 -1.2242209090294160e-02
      -6.7391414648738553e-03 -4.0564236347886307e-02
      1.0292052635551713e-02 -8.1367411599225753e-02
      4.9224626289959800e-02 -1.4473148182705455e-02
      5.1805944784039590e-03 -6.4228191224277004e-02
      -1.3415268931189902e-02 1.1346822917608754e-03
      -6.9111094119833932e-02 1.0481436658029136e-01
      -1.5514776660386346e-02 -1.4128345143922989e-02
      7.7987791077614790e-02 7.5006315283260502e-02
      -8.7766143975210140e-02 -1.6864795812047240e-02
      -2.8798392746838208e-02 -1.1160108265420684e-02
      -6.4526088451326263e-02 -2.2054200497088044e-02
      7.2798229629982253e-02 6.1265535786462141e-02
      -7.3425122525134029e-02 -3.3907193780252833e-03
      -1.3085820163797487e-02 1.2043291277714264e-02
      1.2854807521549064e-02 2.7382320959984295e-02
      -1.6078054172265564e-02 6.9980852368646245e-03
      -1.2410445719673167e-02 5.4974765381905016e-02
      1.8759331651655803e-02 -1.1929966135231829e-02
      1.9897283389337345e-02 -6.0692410034055870e-03
      -1.3016228657825795e-02 1.7857169830864054e-02
      -7.7733802793567815e-03 -2.4576256898652701e-03
      2.9874809876004497e-02 1.1796899622075316e-02
      8.1450922269284652e-03 2.2436234661014836e-02
      6.8003724522360141e-03 -1.7938503875852312e-02
      1.8026533209263007e-02 -1.0887300337368877e-02
      -1.3132134370842720e-02 3.0438158453891598e-02
      1.7063042905462667e-02 2.4198953381174504e-02
      2.9218788026314155e-02 1.6910179762728871e-02
      2.2619396758455167e-02 1.2562377694275324e-02
      3.4849520252316622e-03 1.3015150522099801e-02
      -1.5896557578828158e-02 8.0434048413691814e-03
      2.3466927093205137e-02 1.4919466997250211e-02
      1.2863618244422562e-01 7.3960908817453555e-02
      5.7777882759463058e-02 2.2865968770300532e-02
      -5.1080792512326716e-02 9.0986576715166440e-03
      -1.9018094705060898e-02 -4.5545942835362112e-02
      4.0192908298913727e-03 6.2032232600511432e-02
      1.8523626379287939e-02 4.4419289662717527e-02
      1.9989510382247614e-02 -2.9376484215565310e-02
      3.9665613181553627e-03 1.7255249863091616e-02
      1.4000928329655406e-03 3.6527162717063827e-02
      -7.7909437949465726e-02 9.0834331848537578e-02
      -4.0112415468160197e-02 1.6154284739176813e-03
      4.2887824094568115e-04 6.2484097934261983e-02
      1.7978590557645373e-02 -6.4465619203663413e-03
      8.4304043871253800e-02 -8.6557168905764634e-02
      2.2360915318976035e-02 1.7134984961112609e-02
      -7.1597145665679790e-02 -7.6285809466505733e-02
      9.1037828438857063e-02 2.1867941346899004e-02
      3.1163873774621823e-02 1.4411304233693950e-03
      5.6619545141249485e-02 2.7195158297283778e-02
      -7.0548216215105805e-02 -5.5054000818767927e-02
      -2.3644873687589493e-01 7.6963355598890183e-03
      1.3181126693046801e-04 6.1913213831178062e-03
      3.1289637984471372e-03 1.0694880056560005e-02
      -6.9163331347470687e-03 3.7466444734915306e-03
      5.4451927238586550e-03 -2.2948082147599087e-02
      8.0393803533255238e-03 -3.7196704184800835e-03
      1.1026308905133104e-02 -3.4277604666958766e-03
      -5.7432936965406750e-04 6.7366080900582697e-03
      5.0013701354620502e-03 -1.6237983794492280e-03
      6.4684020695903413e-02 7.0195282810308884e-03
      1.6703161433446133e-03 -9.5450480958059400e-03
      3.7900969432573718e-04 -4.2600535395716163e-03
      8.7208066186187459e-03 -1.0625563263858233e-02
      7.5901132039946024e-03 4.5456564177805527e-03
      5.3328531359040339e-03 8.6008298387000841e-03
      1.4879446423150739e-02 -2.4095078433908901e-03
      -4.2812198280728214e-03 5.1011657419554749e-03
      -1.9292953728721246e-04 -7.2936352591987759e-03
      6.5033410094627285e-04 5.2396806602856734e-03
      5.2001619872376571e-03 9.4262204789169761e-04
      -2.3602297270992800e-01 6.3253429074359427e-03
      9.8257833708473405e-04 6.8212500369279356e-03
      4.2730500171972658e-03 9.3454790337673972e-03
      -7.4271611983122389e-03 3.2891338953653011e-03
      5.5980578741808475e-03 -2.2733907895607530e-02
      6.7987560226367592e-03 -4.1279494023285374e-03
      1.1220183915995113e-02 -3.8339578655970179e-03
      1.0252479019077537e-03 7.1949063104910730e-03
      4.3016266483232495e-03 -3.0213922617896307e-03
      6.2760403180956909e-02 6.8677341926849760e-03
      1.6799004218325127e-03 -8.1544636086578037e-03
      1.8065808558882872e-03 -4.1472093134944567e-03
      6.7304070047845103e-03 -1.1320877699759873e-02
      9.1916857332246978e-03 3.7892672934739468e-03
      5.8267898337689078e-03 8.8756647527308292e-03
      1.4232462776136717e-02 -2.5081748620063016e-03
      -2.8041824553935758e-03 6.0001865019976433e-03
      1.0168119986641742e-03 -7.3874615281326649e-03
      1.4292270341240351e-03 5.2264739322761215e-03
      6.2558125434256468e-03 -4.8303050709205418e-04
      -5.7375179791669872e-01 -3.8634294781492134e-02
      -3.3390702032366854e-02 -5.4845126503502480e-03
      3.0662172062099813e-02 5.9007931166152770e-03
      4.2324824736116005e-03 2.7118741007801275e-02
      -4.8093829573538690e-03 -5.1479552612604292e-02
      -2.2374846563115291e-03 -2.9149190708260601e-02
      -1.0507558054029613e-03 1.4519731224064435e-02
      -2.2195300322979845e-03 -6.1918755400298031e-04
      -9.6652059585208738e-05 -2.5893245210760394e-02
      3.4740804096211018e-02 -2.8398985451540515e-02
      2.7903145161537746e-02 -3.7203135890322672e-03
      1.6226882615850932e-03 -3.5751406655259631e-02
      -2.9317504706613930e-03 -7.5372632990841348e-03
      -3.4284168824819307e-02 3.1459299603310474e-02
      -6.9322991739828449e-03 1.4882311435066100e-03
      4.4527118859475717e-02 4.1313804464890559e-02
      -3.3409855029206792e-02 -9.1315854581719424e-03
      -1.7919656264342960e-02 -9.3226376873571139e-03
      -3.6506738266069483e-02 -1.0663040820938651e-02
      3.9760093006356627e-02 3.4328352923953316e-02
      -7.8543878934549838e-01 -6.2860475321724549e-02
      -5.3904850811196572e-02 4.0776222174488180e-03
      5.0596021353442155e-02 2.9319845092481520e-02
      -9.8956132992028562e-03 4.4916594005690362e-02
      -1.8841954804318283e-02 -1.0008673970624718e-01
      1.9408392179091381e-02 -5.3789786988566866e-02
      1.6163168037135120e-02 1.2278267058907518e-02
      -1.5669091307279115e-02 1.8174815237046026e-02
      -1.5173858163180119e-02 -3.7699960830262572e-02
      1.2620981580364360e-01 -4.0230881916626035e-02
      4.6554588851365979e-02 1.3311714405480488e-02
      1.6461542034584480e-02 -5.7845030396158799e-02
      1.7927824099786768e-02 -2.4580347865340066e-02
      -5.2927184594803792e-02 7.1425139071985180e-02
      9.8268913865437683e-03 2.5357688792950202e-02
      7.1831874437312968e-02 5.8949434989354704e-02
      -6.2809371206954179e-02 4.6428283441425052e-03
      -2.0175682258810380e-02 8.6503463818158148e-03
      -6.0060203633015410e-02 -6.2332480656022964e-03
      6.8782069091133449e-02 5.8408561632258625e-02
      -5.7011432560615527e-01 -5.5795943749803241e-02
      -4.6735094220293545e-02 3.7469250298695547e-03
      4.4424604491115252e-02 2.3974539627657991e-02
      -8.7417700961725381e-03 3.8636090611704997e-02
      6.7964760552593204e-04 -8.9688188910045388e-02
      1.4003726762505081e-02 -4.8596637428075434e-02
      1.3649707249452305e-02 1.0122925261106247e-02
      2.6035067648859729e-03 1.2072833462839045e-02
      4.2820094807905825e-03 -3.4738188601938336e-02
      1.0031685116206542e-01 -3.6771243889634424e-02
      4.1771853306244743e-02 5.3473478232590440e-03
      -7.8793461506469092e-04 -5.1265729149088127e-02
      1.1928734273896032e-02 -9.2234768246056264e-03
      -4.6743417488001177e-02 5.4558410564849461e-02
      5.4202823602071135e-03 2.1022001433676083e-02
      6.2988407125381118e-02 5.4553470360272700e-02
      -5.4064901157524971e-02 3.2796566878437457e-03
      -1.9868062399249431e-02 -5.9014921473310895e-03
      -5.3763364050790338e-02 -7.3587956069956235e-03
      5.7676532970176338e-02 5.2294462773736450e-02
      -8.0756889166851320e-01 -8.0290774448979266e-02
      -5.8638265269474632e-02 -5.4586656255936573e-03
      5.6265919103378643e-02 1.7546988103771404e-02
      -4.2512527527545151e-04 4.9714221379768851e-02
      -5.7765585967104599e-03 -1.0586380368642744e-01
      7.1461201205176321e-03 -6.1944578484305353e-02
      5.2857814062850662e-03 2.0146737378159949e-02
      -1.0780425724108652e-03 7.0458286014002773e-03
      9.6630925188349371e-04 -4.3091373938492862e-02
      1.4307030462484255e-01 -8.2684798251531702e-02
      5.2796451261185019e-02 9.1275284227525476e-03
      2.9742195208987295e-04 -5.6872550908670376e-02
      8.1974378406388503e-03 -1.0115362337015089e-02
      -6.4618192618738440e-02 7.1164919025804116e-02
      -1.5476865155836996e-03 1.4042102916002044e-02
      6.4700608816306474e-02 6.4479729136608779e-02
      -1.0248218106179656e-01 -3.8563011439640398e-03
      -2.8411997380528395e-02 4.6292153593112894e-04
      -6.8278025102183240e-02 -1.3170561472525769e-02
      6.0092795283550673e-02 6.3413877373734509e-02
      -5.5432214643592215e-01 -5.2596910708263403e-02
      -2.9103520930812921e-02 1.0909362397916845e-04
      2.8951109466208248e-02 1.8833840357351833e-02
      -3.9265422090249049e-03 2.5460574376458912e-02
      -6.3771073941662834e-05 -9.2527811586758033e-02
      8.2124234648219187e-03 -3.8407377266746402e-02
      1.0109696345051013e-02 1.1076310860862120e-02
      -6.2009391999254988e-03 8.3151347789116592e-03
      2.6974231371964157e-03 -2.7710078596543310e-02
      6.9935037979431749e-02 -6.3101298831743938e-02
      3.0385801539231178e-02 1.1229014388077815e-02
      -9.8806734284251200e-04 -2.3549911837908413e-02
      8.6918919620641855e-03 -1.2592165829949790e-02
      -4.1333813435757226e-02 3.0843318756286146e-02
      6.2788323677589826e-05 1.5092109282425582e-02
      2.6017137260597456e-02 3.6864148618555845e-02
      -7.1394704764124156e-02 -1.5643320222696519e-03
      -1.7623559850077210e-02 3.9519687405524279e-04
      -3.7027670024664845e-02 -5.5799130478543452e-03
      2.4205797778927004e-02 3.3496524697367649e-02
      -8.2999308202122846e-01 -7.9346906683976592e-02
      -5.2938700299308424e-02 -1.1227306656439636e-02
      4.8341576450420892e-02 1.1266492908553293e-02
      7.0903645985364930e-03 4.6016971277656853e-02
      -5.7465889205345639e-03 -1.1863375082313167e-01
      -2.1009580492862192e-03 -5.6751561540265977e-02
      2.5818169391434375e-04 2.3033071229750849e-02
      -1.0460904388425212e-02 -9.7263287750670019e-05
      -2.5040936982110803e-03 -4.1808182933270654e-02
      9.7934022453015607e-02 -9.2237588598049300e-02
      4.9368742414816529e-02 3.8903200422057455e-03
      1.2893908812559726e-03 -4.7057669025312027e-02
      -6.5416309006836838e-04 -9.6045476846773666e-03
      -6.9976138786948389e-02 5.7339347352903462e-02
      -9.8103278751639714e-03 4.1989329407857816e-03
      5.3523929735821166e-02 6.8746158119645170e-02
      -1.0162004092436772e-01 -1.3217543890135774e-02
      -3.0380433848285624e-02 -5.9320382440382780e-03
      -6.1386257392481811e-02 -2.0552881967330221e-02
      5.3224964149306053e-02 5.6319614202464938e-02
      5.7359942067957026e-01 -2.6042078269689225e-03
      2.6456677460584654e-03 -2.2425209015051177e-02
      3.5928231241256321e-04 -4.6685545822507231e-02
      3.2292533032964560e-02 1.1773099336643239e-03
      7.3004432934017538e-02 -6.0901252076698362e-03
      -3.9160909932944868e-02 -2.2046749137229222e-03
      -3.6314387943740194e-02 5.2631625809120676e-03
      7.2993275139036778e-02 -4.2838822802909945e-02
      6.7597070903886350e-02 1.0140205052096035e-02
      -9.4455110102266371e-02 1.0467866576659277e-01
      -3.2404284489122854e-03 -5.7093120157677112e-02
      -6.3474065964186616e-02 7.6021773577264534e-03
      -4.1935188153066578e-02 4.8959982864735040e-02
      1.0206911523550971e-02 -3.8318112931743087e-02
      -3.1167716452601385e-02 -4.5123707806478411e-02
      -1.2595226337531708e-02 -1.5848032825038102e-02
      8.8711580667698117e-02 -2.6775124996890987e-02
      1.9592588645370897e-03 -5.9774957077402220e-02
      -9.9341130454728942e-03 -1.3502721959169387e-02
      -8.8777164377188689e-03 6.1822119708194708e-03
      -3.7769316716097984e-01 -6.1647195348357104e-03
      1.4481561648915902e-02 1.1398273189293491e-02
      -1.1849117043164855e-02 1.7330271405639083e-02
      -1.1105383537737211e-02 -1.8635100938953538e-03
      1.6182423149067749e-02 -1.4519311341830722e-02
      1.5040218947520296e-02 -1.2505555459923752e-02
      1.9248563354534457e-02 -7.6264814641303124e-03
      1.2167037498237551e-02 9.2224710007672607e-03
      1.1061733752409866e-02 -4.9580297481694215e-03
      6.8302219615530721e-02 -1.3640592006276252e-02
      5.2836737047607758e-03 -8.1246281515116939e-03
      -1.0081404359008592e-02 2.7120235755852550e-02
      1.0558267823309377e-02 -4.9758171486274901e-03
      2.2053328976707587e-02 -2.6721253888234615e-02
      1.0298308355718806e-02 1.5366933530286495e-02
      -4.5195174141519724e-02 -3.4960276502997864e-02
      -1.7662607575336373e-02 8.9913115697008942e-03
      2.4106752319888367e-03 -8.8114415775385722e-03
      -7.4294020616222601e-03 7.2693535588386820e-03
      -3.5575946989797949e-02 3.9949968900773883e-03
      -7.8203517387425847e-01 -7.1021789938881197e-02
      -4.7996311908632315e-02 -2.1283708674714675e-02
      4.9689512348391682e-02 -1.3697712858535936e-02
      1.9508758911193011e-02 4.8956353278393400e-02
      6.9825067562492198e-03 -6.7181270816156033e-02
      -1.8003954714169535e-02 -5.7732342272613688e-02
      -1.1705709960505821e-02 3.1216090421048809e-02
      9.7980132745890589e-04 -1.3854131520140934e-02
      6.0295490033307414e-03 -4.3139394831662035e-02
      6.5284264123713798e-02 -1.0449849281564057e-01
      5.0854949535383706e-02 -1.9610782665813575e-02
      -6.7438979663292358e-03 -4.4481122520245692e-02
      -1.4648346927306618e-02 -1.2064862170376629e-03
      -5.9275259287296156e-02 3.9755726122043186e-02
      -2.4093579759767440e-02 -1.1950096023921426e-02
      4.6725830887874027e-02 3.7347297804173889e-02
      -8.3775567101803367e-02 -2.4043964607859888e-02
      -3.4073742023640920e-02 -1.4890136738228928e-02
      -6.1739932762684149e-02 -2.4607037501799475e-02
      3.7430704616753387e-02 5.8534568501566589e-02
      -9.8549660519239313e-01 -2.5755241931036107e-02
      -2.5748564735366235e-03 1.6901566540050567e-02
      1.1053628028207306e-02 2.6302541254635638e-02
      -1.6940880917427226e-02 1.2948937999278333e-02
      -3.9395584783879535e-03 -2.2193969194262954e-02
      2.5028124902961850e-02 -1.9585488958785580e-02
      3.1201419421892154e-02 2.0068462271183074e-04
      -1.1422636866377026e-03 2.3887365951381832e-02
      -4.8010589816625919e-03 -1.9204309698894251e-02
      6.8880921347460544e-02 -6.1897383043860964e-02
      1.9238196709272473e-02 -9.2794141887165751e-03
      6.1529682978698616e-03 -8.8914578281458153e-04
      2.2575335060122687e-02 -4.6226533560414056e-03
      -1.2334945710991849e-02 2.6816441558075683e-02
      1.6037121599377747e-02 2.9285859873571879e-02
      1.4844111059987392e-02 -1.3711371506696185e-02
      -3.4813112548626193e-02 1.2251561052753594e-02
      -9.9810370332068590e-03 -1.4488181250739432e-02
      -1.2596863792593352e-02 8.6851711213568484e-03
      -1.7226162707957859e-02 1.2692669581998018e-02
      -1.1406289036116311e+00 -3.5522016383998052e-02
      -2.2683983798852857e-02 2.2881390267100767e-02
      3.3694348629654286e-02 3.5956341941177417e-02
      -2.2831203161082819e-02 2.9566357501278333e-02
      -2.3995379612845976e-02 -6.7257875738267803e-02
      3.0450655460969318e-02 -3.6285656152459621e-02
      3.6446451254655780e-02 7.1194954035709503e-04
      -2.6025947907925891e-02 3.2641852127095521e-02
