<?xml version="1.0"?>
<opencv_storage>
<shapeML type_id="opencv-ml-ann-mlp">
  <layer_sizes type_id="opencv-matrix">
    <rows>1</rows>
    <cols>3</cols>
    <dt>i</dt>
    <data>
      1600 40 1</data></layer_sizes>
  <activation_function>SIGMOID_SYM</activation_function>
  <f_param1>5.9999999999999998e-01</f_param1>
  <f_param2>1.</f_param2>
  <min_val>-9.4999999999999996e-01</min_val>
  <max_val>9.4999999999999996e-01</max_val>
  <min_val1>-9.7999999999999998e-01</min_val1>
  <max_val1>9.7999999999999998e-01</max_val1>
  <training_params>
    <train_method>BACKPROP</train_method>
    <dw_scale>1.0000000000000001e-01</dw_scale>
    <moment_scale>1.0000000000000001e-01</moment_scale>
    <term_criteria><epsilon>9.9999999747524271e-07</epsilon>
      <iterations>4000</iterations></term_criteria></training_params>
  <input_scale>
    6.1507912908940220e-02 -6.4018439966447988e-02
    3.0944779111412461e-02 -1.2883132528016616e-01
    4.3582061509214128e-02 -9.0721842325302879e-02
    6.1507912908940220e-02 -6.4018439966447988e-02
    3.5658050325720655e-02 -1.1134044285378082e-01
    3.5658050325720655e-02 -1.1134044285378082e-01
    3.0944779111412461e-02 -1.2883132528016616e-01
    2.7735454108129082e-02 -1.4433756729740643e-01
    2.3539021490148269e-02 -1.7149858514250882e-01
    2.0847243915229966e-02 -1.9528336647123581e-01
    1.9819467084972894e-02 -2.0628424925175867e-01
    1.8170100122127185e-02 -2.2694084234167017e-01
    1.8170100122127185e-02 -2.2694084234167017e-01
    1.7494850488104050e-02 -2.3671603823699969e-01
    1.6357478434187719e-02 -2.5537695922762460e-01
    1.5872603638382058e-02 -2.6432744018203591e-01
    1.4322526914704535e-02 -2.9814239699997191e-01
    1.7494850488104050e-02 -2.3671603823699969e-01
    1.8170100122127185e-02 -2.2694084234167017e-01
    1.3192410187584998e-02 -3.2954102182865386e-01
    1.2139478475609892e-02 -3.6641405439647001e-01
    1.3192410187584998e-02 -3.2954102182865386e-01
    1.5872603638382058e-02 -2.6432744018203591e-01
    1.6357478434187719e-02 -2.5537695922762460e-01
    2.3539021490148269e-02 -1.7149858514250882e-01
    2.5371802860757322e-02 -1.5844431990595390e-01
    2.7735454108129082e-02 -1.4433756729740643e-01
    1.6894910526575081e-02 -2.4618298195866548e-01
    1.7494850488104050e-02 -2.3671603823699969e-01
    2.2065142545643769e-02 -1.8372608486985018e-01
    2.0847243915229966e-02 -1.9528336647123581e-01
    2.2065142545643769e-02 -1.8372608486985018e-01
    2.3539021490148269e-02 -1.7149858514250882e-01
    2.7735454108129082e-02 -1.4433756729740643e-01
    3.0944779111412461e-02 -1.2883132528016616e-01
    2.7735454108129082e-02 -1.4433756729740643e-01
    3.5658050325720655e-02 -1.1134044285378082e-01
    4.3582061509214128e-02 -9.0721842325302879e-02
    6.1507912908940220e-02 -6.4018439966447988e-02
    3.5658050325720655e-02 -1.1134044285378082e-01
    3.5658050325720655e-02 -1.1134044285378082e-01
    2.7735454108129082e-02 -1.4433756729740643e-01
    4.3582061509214128e-02 -9.0721842325302879e-02
    4.3582061509214128e-02 -9.0721842325302879e-02
    2.7735454108129082e-02 -1.4433756729740643e-01
    2.7735454108129082e-02 -1.4433756729740643e-01
    2.5371802860757322e-02 -1.5844431990595390e-01
    2.3539021490148269e-02 -1.7149858514250882e-01
    1.8937455819258202e-02 -2.1681454519599694e-01
    1.8170100122127185e-02 -2.2694084234167017e-01
    1.5030614031851420e-02 -2.8159395267835924e-01
    1.3445764447248413e-02 -3.2187513666576301e-01
    1.3192410187584998e-02 -3.2954102182865386e-01
    1.2325854060661022e-02 -3.5921060405354976e-01
    1.1343451480183071e-02 -4.0141928299260088e-01
    1.0405267264808478e-02 -4.5485882614734208e-01
    1.0505552365291212e-02 -4.4830836726171275e-01
    1.0042005384011012e-02 -4.8078662512020071e-01
    9.8803464263962325e-03 -4.9361404187383628e-01
    1.0951998469014759e-02 -4.2176369614348669e-01
    1.0216485829851253e-02 -4.6787335106502470e-01
    1.0951998469014759e-02 -4.2176369614348669e-01
    1.0610087799348000e-02 -4.4172610429938608e-01
    1.1076473440992699e-02 -4.1502867831964479e-01
    1.2139478475609892e-02 -3.6641405439647001e-01
    1.2955213043411318e-02 -3.3709993123162102e-01
    1.5030614031851420e-02 -2.8159395267835924e-01
    1.3192410187584998e-02 -3.2954102182865386e-01
    1.3192410187584998e-02 -3.2954102182865386e-01
    1.5030614031851420e-02 -2.8159395267835924e-01
    1.7494850488104050e-02 -2.3671603823699969e-01
    1.8937455819258202e-02 -2.1681454519599694e-01
    1.8170100122127185e-02 -2.2694084234167017e-01
    1.8937455819258202e-02 -2.1681454519599694e-01
    1.9819467084972894e-02 -2.0628424925175867e-01
    1.9819467084972894e-02 -2.0628424925175867e-01
    2.5371802860757322e-02 -1.5844431990595390e-01
    3.5658050325720655e-02 -1.1134044285378082e-01
    3.0944779111412461e-02 -1.2883132528016616e-01
    2.7735454108129082e-02 -1.4433756729740643e-01
    6.1507912908940220e-02 -6.4018439966447988e-02
    2.7735454108129082e-02 -1.4433756729740643e-01
    2.7735454108129082e-02 -1.4433756729740643e-01
    3.0944779111412461e-02 -1.2883132528016616e-01
    2.5371802860757322e-02 -1.5844431990595390e-01
    2.2065142545643769e-02 -1.8372608486985018e-01
    2.0847243915229966e-02 -1.9528336647123581e-01
    2.0847243915229966e-02 -1.9528336647123581e-01
    1.4662056336609915e-02 -2.8994964469744916e-01
    1.3445764447248413e-02 -3.2187513666576301e-01
    1.2139478475609892e-02 -3.6641405439647001e-01
    1.1637538025717624e-02 -3.8760126648920740e-01
    1.0951998469014759e-02 -4.2176369614348669e-01
    9.8039215686274508e-03 -5.0000000000000000e-01
    9.8803464263962325e-03 -4.9361404187383628e-01
    9.3390131805458857e-03 -5.4433105395181736e-01
    9.1193611356612664e-03 -5.6949479745149945e-01
    8.9726336337731250e-03 -5.8834840541455202e-01
    8.9268169524782219e-03 -5.9463531699773298e-01
    9.2255252932940523e-03 -5.5692048607273081e-01
    9.1193611356612664e-03 -5.6949479745149945e-01
    9.2813158324480029e-03 -5.5062826785563967e-01
    9.4604618863078985e-03 -5.3171657214065216e-01
    9.6591731418067123e-03 -5.1272468044569919e-01
    9.3986993781103555e-03 -5.3802758684897034e-01
    9.5243940441639852e-03 -5.2539667553827041e-01
    1.0719141161578308e-02 -4.3510962796692354e-01
    1.1206815816655063e-02 -4.0824829046386302e-01
    1.1343451480183071e-02 -4.0141928299260088e-01
    1.2523213223295091e-02 -3.5192784915259878e-01
    1.4662056336609915e-02 -2.8994964469744916e-01
    1.5030614031851420e-02 -2.8159395267835924e-01
    1.5432419482332616e-02 -2.7305934063637505e-01
    1.5030614031851420e-02 -2.8159395267835924e-01
    1.5872603638382058e-02 -2.6432744018203591e-01
    1.5872603638382058e-02 -2.6432744018203591e-01
    2.0847243915229966e-02 -1.9528336647123581e-01
    2.2065142545643769e-02 -1.8372608486985018e-01
    2.2065142545643769e-02 -1.8372608486985018e-01
    3.0944779111412461e-02 -1.2883132528016616e-01 1. 0.
    4.3582061509214128e-02 -9.0721842325302879e-02
    2.2065142545643769e-02 -1.8372608486985018e-01
    2.0847243915229966e-02 -1.9528336647123581e-01
    1.9819467084972894e-02 -2.0628424925175867e-01
    1.9819467084972894e-02 -2.0628424925175867e-01
    1.6894910526575081e-02 -2.4618298195866548e-01
    1.2732602250952300e-02 -3.4455980785230100e-01
    1.2955213043411318e-02 -3.3709993123162102e-01
    1.1486851418177308e-02 -3.9453818238351857e-01
    1.1796092524198745e-02 -3.8060453634200436e-01
    1.0127555905114417e-02 -4.7434164902525688e-01
    9.5243940441639852e-03 -5.2539667553827041e-01
    9.1193611356612664e-03 -5.6949479745149945e-01
    9.0688469982991952e-03 -5.7577924513691425e-01
    8.6086807836447867e-03 -6.4512399668456444e-01
    8.4776553240252846e-03 -6.7059983746779606e-01
    8.3625540606168565e-03 -6.9631062382279130e-01
    8.5088489002871914e-03 -6.6421116415507153e-01
    8.6807622043837875e-03 -6.3245553203367599e-01
    8.4474552632875389e-03 -6.7700320038632988e-01
    8.4182218548256634e-03 -6.8342217425503038e-01
    8.4474552632875389e-03 -6.7700320038632988e-01
    8.3625540606168565e-03 -6.9631062382279130e-01
    8.5743311103666162e-03 -6.5147417803867169e-01
    8.9726336337731250e-03 -5.8834840541455202e-01
    9.1715645289448082e-03 -5.6320893199173316e-01
    9.0688469982991952e-03 -5.7577924513691425e-01
    1.0610087799348000e-02 -4.4172610429938608e-01
    1.0719141161578308e-02 -4.3510962796692354e-01
    1.1076473440992699e-02 -4.1502867831964479e-01
    1.1963163730145030e-02 -3.7354368381881420e-01
    1.5872603638382058e-02 -2.6432744018203591e-01
    1.5432419482332616e-02 -2.7305934063637505e-01
    1.5432419482332616e-02 -2.7305934063637505e-01
    1.5432419482332616e-02 -2.7305934063637505e-01
    1.8170100122127185e-02 -2.2694084234167017e-01
    1.9819467084972894e-02 -2.0628424925175867e-01
    2.5371802860757322e-02 -1.5844431990595390e-01
    2.7735454108129082e-02 -1.4433756729740643e-01
    6.1507912908940220e-02 -6.4018439966447988e-02
    2.5371802860757322e-02 -1.5844431990595390e-01
    2.5371802860757322e-02 -1.5844431990595390e-01
    1.6894910526575081e-02 -2.4618298195866548e-01
    1.5432419482332616e-02 -2.7305934063637505e-01
    1.4322526914704535e-02 -2.9814239699997191e-01
    1.2139478475609892e-02 -3.6641405439647001e-01
    1.1076473440992699e-02 -4.1502867831964479e-01
    1.1076473440992699e-02 -4.1502867831964479e-01
    1.0405267264808478e-02 -4.5485882614734208e-01
    9.5243940441639852e-03 -5.2539667553827041e-01
    9.2813158324480029e-03 -5.5062826785563967e-01
    8.8824541225608587e-03 -6.0092521257733156e-01
    8.5410642503498634e-03 -6.5783625471062002e-01
    8.5088489002871914e-03 -6.6421116415507153e-01
    8.3360722576706937e-03 -7.0278192849872723e-01
    8.0048684404679018e-03 -8.1649658092772603e-01
    8.1160524939677993e-03 -7.6870611478580719e-01
    8.3360722576706937e-03 -7.0278192849872723e-01
    8.4182218548256634e-03 -6.8342217425503038e-01
    8.2617742313763169e-03 -7.2231511851461516e-01
    8.5088489002871914e-03 -6.6421116415507153e-01
    8.3899295534723209e-03 -6.8985767695795885e-01
    8.3899295534723209e-03 -6.8985767695795885e-01
    8.5743311103666162e-03 -6.5147417803867169e-01
    8.3899295534723209e-03 -6.8985767695795885e-01
    8.4182218548256634e-03 -6.8342217425503038e-01
    8.7575941384111892e-03 -6.1982319330632651e-01
    9.3986993781103555e-03 -5.3802758684897034e-01
    9.8039215686274508e-03 -5.0000000000000000e-01
    1.0505552365291212e-02 -4.4830836726171275e-01
    1.1076473440992699e-02 -4.1502867831964479e-01
    1.2732602250952300e-02 -3.4455980785230100e-01
    1.5030614031851420e-02 -2.8159395267835924e-01
    1.5030614031851420e-02 -2.8159395267835924e-01
    1.4008519770818831e-02 -3.0618621784789729e-01
    1.6357478434187719e-02 -2.5537695922762460e-01
    1.8937455819258202e-02 -2.1681454519599694e-01
    2.3539021490148269e-02 -1.7149858514250882e-01
    2.2065142545643769e-02 -1.8372608486985018e-01
    6.1507912908940220e-02 -6.4018439966447988e-02
    2.2065142545643769e-02 -1.8372608486985018e-01
    1.8937455819258202e-02 -2.1681454519599694e-01
    1.5872603638382058e-02 -2.6432744018203591e-01
    1.3717094544240116e-02 -3.1409347099260015e-01
    1.1796092524198745e-02 -3.8060453634200436e-01
    1.0833004733037640e-02 -4.2845639127810098e-01
    1.0127555905114417e-02 -4.7434164902525688e-01
    9.8803464263962325e-03 -4.9361404187383628e-01
    9.5243940441639852e-03 -5.2539667553827041e-01
    9.3390131805458857e-03 -5.4433105395181736e-01
    8.8394943115264121e-03 -6.0721913984893683e-01
    8.5088489002871914e-03 -6.6421116415507153e-01
    8.6086807836447867e-03 -6.4512399668456444e-01
    8.2386575215518953e-03 -7.2886898685566259e-01
    8.0485652965855223e-03 -7.9582242575422157e-01
    7.8779281465715407e-03 -9.1014186199472424e-01
    7.9444368899903878e-03 -8.5167606087998993e-01
    7.9244154594654524e-03 -8.6602540378443882e-01
    8.0809540201892058e-03 -7.8220336566851845e-01
    8.0187962591224578e-03 -8.0957112436487344e-01
    8.0981585404524548e-03 -7.7543999738373304e-01
    8.2617742313763169e-03 -7.2231511851461516e-01
    8.2386575215518953e-03 -7.2886898685566259e-01
    8.0809540201892058e-03 -7.8220336566851845e-01
    8.1160524939677993e-03 -7.6870611478580719e-01
    8.0644267863729073e-03 -7.8899718395656560e-01
    8.4182218548256634e-03 -6.8342217425503038e-01
    8.9268169524782219e-03 -5.9463531699773298e-01
    9.2255252932940523e-03 -5.5692048607273081e-01
    9.8803464263962325e-03 -4.9361404187383628e-01
    9.8039215686274508e-03 -5.0000000000000000e-01
    1.0833004733037640e-02 -4.2845639127810098e-01
    1.1486851418177308e-02 -3.9453818238351857e-01
    1.2955213043411318e-02 -3.3709993123162102e-01
    1.2523213223295091e-02 -3.5192784915259878e-01
    1.5030614031851420e-02 -2.8159395267835924e-01
    1.6894910526575081e-02 -2.4618298195866548e-01
    2.0847243915229966e-02 -1.9528336647123581e-01
    1.9819467084972894e-02 -2.0628424925175867e-01
    6.1507912908940220e-02 -6.4018439966447988e-02
    1.8170100122127185e-02 -2.2694084234167017e-01
    1.6357478434187719e-02 -2.5537695922762460e-01
    1.2955213043411318e-02 -3.3709993123162102e-01
    1.1963163730145030e-02 -3.7354368381881420e-01
    1.1076473440992699e-02 -4.1502867831964479e-01
    1.0127555905114417e-02 -4.7434164902525688e-01
    9.8803464263962325e-03 -4.9361404187383628e-01
    9.0199579790807369e-03 -5.8206341081333235e-01
    8.7978894679045117e-03 -6.1351812881285139e-01
    8.7978894679045117e-03 -6.1351812881285139e-01
    8.5088489002871914e-03 -6.6421116415507153e-01
    8.1740020378854930e-03 -7.4867186012306308e-01
    8.1539604652681470e-03 -7.5532299085412491e-01
    7.9244154594654524e-03 -8.6602540378443882e-01
    7.8620867306891627e-03 -9.3286065820871000e-01
    7.8578784677190202e-03 -9.4053994312596023e-01
    7.8842915790683712e-03 -9.0267093384844010e-01
    7.8542017756107821e-03 -9.4827464703088549e-01
    7.8447710716585441e-03 -9.7979589711327120e-01
    7.8668291178082671e-03 -9.2523543277406217e-01
    7.9788794369279568e-03 -8.3045479853739956e-01
    8.0333585888338003e-03 -8.0268007450878143e-01
    7.9915657832652070e-03 -8.2345746203481696e-01
    8.0981585404524548e-03 -7.7543999738373304e-01
    7.9444368899903878e-03 -8.5167606087998993e-01
    8.0187962591224578e-03 -8.0957112436487344e-01
    8.0809540201892058e-03 -7.8220336566851845e-01
    8.3625540606168565e-03 -6.9631062382279130e-01
    8.4474552632875389e-03 -6.7700320038632988e-01
    9.0199579790807369e-03 -5.8206341081333235e-01
    9.1715645289448082e-03 -5.6320893199173316e-01
    9.2813158324480029e-03 -5.5062826785563967e-01
    1.0042005384011012e-02 -4.8078662512020071e-01
    1.0505552365291212e-02 -4.4830836726171275e-01
    1.1637538025717624e-02 -3.8760126648920740e-01
    1.2523213223295091e-02 -3.5192784915259878e-01
    1.4662056336609915e-02 -2.8994964469744916e-01
    1.7494850488104050e-02 -2.3671603823699969e-01
    2.2065142545643769e-02 -1.8372608486985018e-01
    2.5371802860757322e-02 -1.5844431990595390e-01
    1.6357478434187719e-02 -2.5537695922762460e-01
    1.4662056336609915e-02 -2.8994964469744916e-01
    1.1963163730145030e-02 -3.7354368381881420e-01
    1.0951998469014759e-02 -4.2176369614348669e-01
    1.1206815816655063e-02 -4.0824829046386302e-01
    9.3390131805458857e-03 -5.4433105395181736e-01
    8.6441462369357385e-03 -6.3878476579478183e-01
    8.5410642503498634e-03 -6.5783625471062002e-01
    8.5088489002871914e-03 -6.6421116415507153e-01
    8.2857027798715274e-03 -7.1578326259584024e-01
    7.9444368899903878e-03 -8.5167606087998993e-01
    7.8842915790683712e-03 -9.0267093384844010e-01
    7.8578784677190202e-03 -9.4053994312596023e-01
    7.8721085151663341e-03 -9.1766293548224698e-01
    7.8721085151663341e-03 -9.1766293548224698e-01
    7.8463404967160921e-03 -9.7182531580755027e-01
    7.8578784677190202e-03 -9.4053994312596023e-01
    7.8484345294453171e-03 -9.6391589792248811e-01
    7.8432025879736373e-03 -1.0040899966195638e+00
    7.8437253113297408e-03 -9.8782916114726182e-01
    7.8578784677190202e-03 -9.4053994312596023e-01
    7.8432025879736373e-03 -1.0040899966195638e+00
    7.8437253113297408e-03 -1.0123207932418219e+00
    7.8447710716585441e-03 -9.7979589711327120e-01
    7.9444368899903878e-03 -8.5167606087998993e-01
    7.9553226677602801e-03 -8.4456303097324448e-01
    8.0048684404679018e-03 -8.1649658092772603e-01
    8.2386575215518953e-03 -7.2886898685566259e-01
    8.2163345829161169e-03 -7.3544578531979776e-01
    8.2386575215518953e-03 -7.2886898685566259e-01
    8.4474552632875389e-03 -6.7700320038632988e-01
    8.8394943115264121e-03 -6.0721913984893683e-01
    8.9268169524782219e-03 -5.9463531699773298e-01
    1.0216485829851253e-02 -4.6787335106502470e-01
    1.0505552365291212e-02 -4.4830836726171275e-01
    1.2139478475609892e-02 -3.6641405439647001e-01
    1.3192410187584998e-02 -3.2954102182865386e-01
    1.5432419482332616e-02 -2.7305934063637505e-01
    1.9819467084972894e-02 -2.0628424925175867e-01
    1.8937455819258202e-02 -2.1681454519599694e-01
    1.5432419482332616e-02 -2.7305934063637505e-01
    1.4322526914704535e-02 -2.9814239699997191e-01
    1.2732602250952300e-02 -3.4455980785230100e-01
    1.1486851418177308e-02 -3.9453818238351857e-01
    1.0127555905114417e-02 -4.7434164902525688e-01
    8.8824541225608587e-03 -6.0092521257733156e-01
    8.3360722576706937e-03 -7.0278192849872723e-01
    8.1346486575285416e-03 -7.6200076200114297e-01
    8.1539604652681470e-03 -7.5532299085412491e-01
    7.9788794369279568e-03 -8.3045479853739956e-01
    7.8620867306891627e-03 -9.3286065820871000e-01
    7.8578784677190202e-03 -9.4053994312596023e-01
    7.8620867306891627e-03 -9.3286065820871000e-01
    7.8842915790683712e-03 -9.0267093384844010e-01
    7.8668291178082671e-03 -9.2523543277406217e-01
    7.8432025879736373e-03 -1.0040899966195638e+00
    7.8463404967160904e-03 -1.0289915108550529e+00
    7.8447710716585441e-03 -9.7979589711327120e-01
    7.8437253113297408e-03 -9.8782916114726182e-01
    7.8668291178082671e-03 -9.2523543277406217e-01
    7.8542017756107821e-03 -1.0545468057498639e+00
    7.8510544295514843e-03 -1.0459527207369814e+00
    7.8432025879736373e-03 -1.0040899966195638e+00
    7.8578784677190202e-03 -9.4053994312596023e-01
    7.8432025879736373e-03 -9.9592666331371371e-01
    7.8668291178082671e-03 -9.2523543277406217e-01
    7.9341366842935034e-03 -8.5882981578556616e-01
    7.9341366842935034e-03 -8.5882981578556616e-01
    7.9788794369279568e-03 -8.3045479853739956e-01
    7.9788794369279568e-03 -8.3045479853739956e-01
    7.9788794369279568e-03 -8.3045479853739956e-01
    8.1160524939677993e-03 -7.6870611478580719e-01
    8.4776553240252846e-03 -6.7059983746779606e-01
    8.8824541225608587e-03 -6.0092521257733156e-01
    9.9596569493415107e-03 -4.8721015729737960e-01
    1.0719141161578308e-02 -4.3510962796692354e-01
    1.2139478475609892e-02 -3.6641405439647001e-01
    1.4008519770818831e-02 -3.0618621784789729e-01
    1.8170100122127185e-02 -2.2694084234167017e-01
    1.8937455819258202e-02 -2.1681454519599694e-01
    1.5030614031851420e-02 -2.8159395267835924e-01
    1.4322526914704535e-02 -2.9814239699997191e-01
    1.1796092524198745e-02 -3.8060453634200436e-01
    9.8803464263962325e-03 -4.9361404187383628e-01
    8.9268169524782219e-03 -5.9463531699773298e-01
    8.7185652998506748e-03 -6.2613533245254127e-01
    8.1947882138763486e-03 -7.4204643479529309e-01
    7.9788794369279568e-03 -8.3045479853739956e-01
    7.9066856355533965e-03 -8.8054660231050785e-01
    7.8620867306891627e-03 -9.3286065820871000e-01
    7.8542017756107821e-03 -9.4827464703088549e-01
    7.8510544295514843e-03 -9.5606615879864698e-01
    7.8447710716585441e-03 -9.7979589711327120e-01
    7.8447710716585441e-03 -9.7979589711327120e-01
    7.8721085151663341e-03 -1.0897247358851680e+00
    7.8779281465715407e-03 -1.0987298153810185e+00
    7.8668291178082671e-03 -1.0808059922670459e+00
    7.8542017756107821e-03 -9.4827464703088549e-01
    7.8432025879736373e-03 -9.9592666331371371e-01
    7.8484345294453171e-03 -1.0374349070860676e+00
    7.8620867306891627e-03 -1.0719714581170265e+00
    7.9341366842935034e-03 -1.1643750387092773e+00
    7.8620867306891627e-03 -1.0719714581170265e+00
    7.9244154594654524e-03 -1.1547005383792517e+00
    7.8668291178082671e-03 -1.0808059922670459e+00
    7.8463404967160921e-03 -9.7182531580755027e-01
    7.8484345294453171e-03 -1.0374349070860676e+00
    7.8463404967160921e-03 -9.7182531580755027e-01
    7.8542017756107821e-03 -9.4827464703088549e-01
    7.8842915790683712e-03 -9.0267093384844010e-01
    7.9444368899903878e-03 -8.5167606087998993e-01
    8.0333585888338003e-03 -8.0268007450878143e-01
    8.1160524939677993e-03 -7.6870611478580719e-01
    8.3625540606168565e-03 -6.9631062382279130e-01
    9.2255252932940523e-03 -5.5692048607273081e-01
    1.0042005384011012e-02 -4.8078662512020071e-01
    1.1343451480183071e-02 -4.0141928299260088e-01
    1.4008519770818831e-02 -3.0618621784789729e-01
    1.6357478434187719e-02 -2.5537695922762460e-01
    1.6894910526575081e-02 -2.4618298195866548e-01
    1.3445764447248413e-02 -3.2187513666576301e-01
    1.2139478475609892e-02 -3.6641405439647001e-01
    1.0216485829851253e-02 -4.6787335106502470e-01
    8.9268169524782219e-03 -5.9463531699773298e-01
    8.6441462369357385e-03 -6.3878476579478183e-01
    8.5743311103666162e-03 -6.5147417803867169e-01
    8.1539604652681470e-03 -7.5532299085412491e-01
    8.0485652965855223e-03 -7.9582242575422157e-01
    7.8510544295514843e-03 -9.5606615879864698e-01
    7.8578784677190202e-03 -1.0632190661423897e+00
    7.8437253113297408e-03 -9.8782916114726182e-01
    7.8447710716585441e-03 -9.7979589711327120e-01
    7.8463404967160904e-03 -1.0289915108550529e+00
    7.8721085151663341e-03 -1.0897247358851680e+00
    7.9788794369279568e-03 -1.2041594578792294e+00
    8.0187962591224578e-03 -1.2352219217113531e+00
    7.8842915790683730e-03 -1.1078234188139948e+00
    7.8447710716585458e-03 -1.0206207261596578e+00
    7.9244154594654524e-03 -1.1547005383792517e+00
    7.8668291178082671e-03 -1.0808059922670459e+00
    7.8842915790683730e-03 -1.1078234188139948e+00
    8.0485652965855223e-03 -1.2565617248750867e+00
    7.9788794369279568e-03 -1.2041594578792294e+00
    7.9444368899903878e-03 -1.1741553460675589e+00
    7.9553226677602801e-03 -1.1840442493056271e+00
    7.9066856355533965e-03 -1.1356582347556083e+00
    7.9788794369279568e-03 -1.2041594578792294e+00
    7.8668291178082671e-03 -1.0808059922670459e+00
    7.9244154594654524e-03 -1.1547005383792517e+00
    7.8463404967160904e-03 -1.0289915108550529e+00
    7.8721085151663341e-03 -9.1766293548224698e-01
    7.8986658691772918e-03 -8.8787452260058219e-01
    7.9788794369279568e-03 -8.3045479853739956e-01
    8.0644267863729073e-03 -7.8899718395656560e-01
    8.5743311103666162e-03 -6.5147417803867169e-01
    9.4604618863078985e-03 -5.3171657214065216e-01
    1.0951998469014759e-02 -4.2176369614348669e-01
    1.2732602250952300e-02 -3.4455980785230100e-01
    1.5432419482332616e-02 -2.7305934063637505e-01
    1.8170100122127185e-02 -2.2694084234167017e-01
    1.2955213043411318e-02 -3.3709993123162102e-01
    1.0505552365291212e-02 -4.4830836726171275e-01
    8.7978894679045117e-03 -6.1351812881285139e-01
    8.3899295534723209e-03 -6.8985767695795885e-01
    8.4776553240252846e-03 -6.7059983746779606e-01
    8.3360722576706937e-03 -7.0278192849872723e-01
    7.9915657832652070e-03 -8.2345746203481696e-01
    7.9066856355533965e-03 -8.8054660231050785e-01
    7.8484345294453171e-03 -9.6391589792248811e-01
    7.8510544295514843e-03 -1.0459527207369814e+00
    7.8484345294453171e-03 -1.0374349070860676e+00
    7.8542017756107821e-03 -9.4827464703088549e-01
    7.8432025879736373e-03 -9.9592666331371371e-01
    7.8842915790683730e-03 -1.1078234188139948e+00
    8.0485652965855223e-03 -1.2565617248750867e+00
    8.0485652965855223e-03 -1.2565617248750867e+00
    7.9244154594654524e-03 -1.1547005383792517e+00
    7.9341366842935034e-03 -1.1643750387092773e+00
    7.9915657832652070e-03 -1.2143918126978108e+00
    7.9244154594654524e-03 -1.1547005383792517e+00
    7.9341366842935034e-03 -1.1643750387092773e+00
    7.8986658691772935e-03 -1.1262852740396276e+00
    7.9788794369279568e-03 -1.2041594578792294e+00
    7.9553226677602801e-03 -1.1840442493056271e+00
    7.9915657832652070e-03 -1.2143918126978108e+00
    8.0485652965855223e-03 -1.2565617248750867e+00
    8.1346486575285433e-03 -1.3123346456686356e+00
    8.0187962591224578e-03 -1.2352219217113531e+00
    7.9553226677602801e-03 -1.1840442493056271e+00
    7.9444368899903878e-03 -1.1741553460675589e+00
    7.8437253113297408e-03 -1.0123207932418219e+00
    7.8447710716585458e-03 -1.0206207261596578e+00
    7.8542017756107821e-03 -9.4827464703088549e-01
    7.9244154594654524e-03 -8.6602540378443882e-01
    8.1539604652681470e-03 -7.5532299085412491e-01
    8.8824541225608587e-03 -6.0092521257733156e-01
    1.0042005384011012e-02 -4.8078662512020071e-01
    1.3445764447248413e-02 -3.2187513666576301e-01
    1.5432419482332616e-02 -2.7305934063637505e-01
    1.5872603638382058e-02 -2.6432744018203591e-01
    1.2139478475609892e-02 -3.6641405439647001e-01
    9.8803464263962325e-03 -4.9361404187383628e-01
    8.8394943115264121e-03 -6.0721913984893683e-01
    8.2163345829161169e-03 -7.3544578531979776e-01
    8.0333585888338003e-03 -8.0268007450878143e-01
    7.9444368899903878e-03 -8.5167606087998993e-01
    7.9066856355533965e-03 -8.8054660231050785e-01
    7.8484345294453171e-03 -9.6391589792248811e-01
    7.8578784677190202e-03 -1.0632190661423897e+00
    7.8447710716585441e-03 -9.7979589711327120e-01
    7.8578784677190202e-03 -1.0632190661423897e+00
    7.8578784677190202e-03 -1.0632190661423897e+00
    7.8620867306891627e-03 -1.0719714581170265e+00
    8.0809540201892058e-03 -1.2784399094797292e+00
    8.1346486575285433e-03 -1.3123346456686356e+00
    8.0809540201892058e-03 -1.2784399094797292e+00
    8.0048684404679018e-03 -1.2247448713915889e+00
    8.0187962591224578e-03 -1.2352219217113531e+00
    7.9788794369279568e-03 -1.2041594578792294e+00
    8.0187962591224578e-03 -1.2352219217113531e+00
    7.9915657832652070e-03 -1.2143918126978108e+00
    7.9244154594654524e-03 -1.1547005383792517e+00
    8.0644267863729056e-03 -1.2674316465685254e+00
    8.0485652965855223e-03 -1.2565617248750867e+00
    8.1346486575285433e-03 -1.3123346456686356e+00
    8.5743311103666144e-03 -1.5349802551048151e+00
    8.4474552632875406e-03 -1.4770978917519928e+00
    8.2163345829161169e-03 -1.3597195333238121e+00
    7.9066856355533965e-03 -1.1356582347556083e+00
    7.9152670361369946e-03 -1.1451291432484725e+00
    7.8668291178082671e-03 -1.0808059922670459e+00
    7.8578784677190202e-03 -1.0632190661423897e+00
    7.8542017756107821e-03 -1.0545468057498639e+00
    7.8578784677190202e-03 -9.4053994312596023e-01
    8.0333585888338003e-03 -8.0268007450878143e-01
    8.4182218548256634e-03 -6.8342217425503038e-01
    9.5905955740829725e-03 -5.1906651964220496e-01
    1.2139478475609892e-02 -3.6641405439647001e-01
    1.5432419482332616e-02 -2.7305934063637505e-01
    1.4322526914704535e-02 -2.9814239699997191e-01
    1.0833004733037640e-02 -4.2845639127810098e-01
    9.0688469982991952e-03 -5.7577924513691425e-01
    8.6441462369357385e-03 -6.3878476579478183e-01
    8.0981585404524548e-03 -7.7543999738373304e-01
    7.8986658691772918e-03 -8.8787452260058219e-01
    7.8668291178082671e-03 -9.2523543277406217e-01
    7.8432025879736373e-03 -9.9592666331371371e-01
    7.8620867306891627e-03 -1.0719714581170265e+00
    7.8779281465715407e-03 -1.0987298153810185e+00
    7.8620867306891627e-03 -1.0719714581170265e+00
    7.8668291178082671e-03 -1.0808059922670459e+00
    7.9444368899903878e-03 -1.1741553460675589e+00
    7.9668010327270371e-03 -1.1940446282519870e+00
    7.9444368899903878e-03 -1.1741553460675589e+00
    8.0048684404679018e-03 -1.2247448713915889e+00
    8.0048684404679018e-03 -1.2247448713915889e+00
    7.9668010327270371e-03 -1.1940446282519870e+00
    8.0333585888338003e-03 -1.2458263656438378e+00
    8.0644267863729056e-03 -1.2674316465685254e+00
    8.0809540201892058e-03 -1.2784399094797292e+00
    8.0048684404679018e-03 -1.2247448713915889e+00
    7.9668010327270371e-03 -1.1940446282519870e+00
    8.2857027798715274e-03 -1.3970709462713993e+00
    8.3104621441290518e-03 -1.4098953429417307e+00
    8.4474552632875406e-03 -1.4770978917519928e+00
    8.7185652998506748e-03 -1.5970988190093807e+00
    8.3899295534723209e-03 -1.4495743591774830e+00
    8.2386575215518953e-03 -1.3719886811400708e+00
    8.1740020378854930e-03 -1.3356986595377376e+00
    7.9915657832652070e-03 -1.2143918126978108e+00
    7.9244154594654524e-03 -1.1547005383792517e+00
    7.8510544295514843e-03 -1.0459527207369814e+00
    7.8542017756107821e-03 -9.4827464703088549e-01
    7.8447710716585441e-03 -9.7979589711327120e-01
    7.9444368899903878e-03 -8.5167606087998993e-01
    8.6086807836447867e-03 -6.4512399668456444e-01
    9.2813158324480029e-03 -5.5062826785563967e-01
    9.8039215686274508e-03 -5.0000000000000000e-01
    1.3192410187584998e-02 -3.2954102182865386e-01
    1.2139478475609892e-02 -3.6641405439647001e-01
    9.9596569493415107e-03 -4.8721015729737960e-01
    9.1193611356612664e-03 -5.6949479745149945e-01
    8.4474552632875389e-03 -6.7700320038632988e-01
    7.9788794369279568e-03 -8.3045479853739956e-01
    7.8842915790683712e-03 -9.0267093384844010e-01
    7.8432025879736373e-03 -9.9592666331371371e-01
    7.8510544295514843e-03 -1.0459527207369814e+00
    7.8779281465715407e-03 -1.0987298153810185e+00
    7.9066856355533965e-03 -1.1356582347556083e+00
    7.9152670361369946e-03 -1.1451291432484725e+00
    7.9066856355533965e-03 -1.1356582347556083e+00
    8.1160524939677993e-03 -1.3008872711759816e+00
    8.1346486575285433e-03 -1.3123346456686356e+00
    8.0644267863729056e-03 -1.2674316465685254e+00
    7.9553226677602801e-03 -1.1840442493056271e+00
    8.0187962591224578e-03 -1.2352219217113531e+00
    7.9553226677602801e-03 -1.1840442493056271e+00
    8.0333585888338003e-03 -1.2458263656438378e+00
    8.0187962591224578e-03 -1.2352219217113531e+00
    7.9244154594654524e-03 -1.1547005383792517e+00
    7.8912027290773488e-03 -1.1170077985485813e+00
    8.0187962591224578e-03 -1.2352219217113531e+00
    8.2617742313763204e-03 -1.3844373104863463e+00
    8.1947882138763504e-03 -1.3476245597431762e+00
    8.4776553240252829e-03 -1.4912022701586511e+00
    8.4182218548256634e-03 -1.4632243987255138e+00
    8.3104621441290518e-03 -1.4098953429417307e+00
    8.3899295534723209e-03 -1.4495743591774830e+00
    8.2386575215518953e-03 -1.3719886811400708e+00
    8.2163345829161169e-03 -1.3597195333238121e+00
    8.1346486575285433e-03 -1.3123346456686356e+00
    7.9244154594654524e-03 -1.1547005383792517e+00
    7.8484345294453171e-03 -1.0374349070860676e+00
    7.8510544295514843e-03 -9.5606615879864698e-01
    7.8668291178082671e-03 -9.2523543277406217e-01
    8.1947882138763486e-03 -7.4204643479529309e-01
    8.8394943115264121e-03 -6.0721913984893683e-01
    9.5243940441639852e-03 -5.2539667553827041e-01
    1.1796092524198745e-02 -3.8060453634200436e-01
    1.2955213043411318e-02 -3.3709993123162102e-01
    9.8039215686274508e-03 -5.0000000000000000e-01
    8.4776553240252846e-03 -6.7059983746779606e-01
    8.2163345829161169e-03 -7.3544578531979776e-01
    7.8668291178082671e-03 -9.2523543277406217e-01
    7.8447710716585441e-03 -9.7979589711327120e-01
    7.8510544295514843e-03 -1.0459527207369814e+00
    7.9444368899903878e-03 -1.1741553460675589e+00
    7.9915657832652070e-03 -1.2143918126978108e+00
    7.9152670361369946e-03 -1.1451291432484725e+00
    7.9444368899903878e-03 -1.1741553460675589e+00
    7.9444368899903878e-03 -1.1741553460675589e+00
    8.1346486575285433e-03 -1.3123346456686356e+00
    8.0048684404679018e-03 -1.2247448713915889e+00
    8.0644267863729056e-03 -1.2674316465685254e+00
    7.9788794369279568e-03 -1.2041594578792294e+00
    8.0485652965855223e-03 -1.2565617248750867e+00
    7.9668010327270371e-03 -1.1940446282519870e+00
    8.0333585888338003e-03 -1.2458263656438378e+00
    8.0187962591224578e-03 -1.2352219217113531e+00
    7.9553226677602801e-03 -1.1840442493056271e+00
    7.9066856355533965e-03 -1.1356582347556083e+00
    8.0485652965855223e-03 -1.2565617248750867e+00
    8.1947882138763504e-03 -1.3476245597431762e+00
    8.3104621441290518e-03 -1.4098953429417307e+00
    8.3360722576706937e-03 -1.4229164972072998e+00
    8.3625540606168565e-03 -1.4361406616345072e+00
    8.4474552632875406e-03 -1.4770978917519928e+00
    8.1740020378854930e-03 -1.3356986595377376e+00
    8.2386575215518953e-03 -1.3719886811400708e+00
    8.2163345829161169e-03 -1.3597195333238121e+00
    8.1947882138763504e-03 -1.3476245597431762e+00
    8.0485652965855223e-03 -1.2565617248750867e+00
    7.9341366842935034e-03 -1.1643750387092773e+00
    7.8463404967160904e-03 -1.0289915108550529e+00
    7.8668291178082671e-03 -9.2523543277406217e-01
    8.0187962591224578e-03 -8.0957112436487344e-01
    8.3360722576706937e-03 -7.0278192849872723e-01
    9.2813158324480029e-03 -5.5062826785563967e-01
    1.0951998469014759e-02 -4.2176369614348669e-01
    1.3192410187584998e-02 -3.2954102182865386e-01
    9.5243940441639852e-03 -5.2539667553827041e-01
    8.5743311103666162e-03 -6.5147417803867169e-01
    8.1160524939677993e-03 -7.6870611478580719e-01
    7.8912027290773505e-03 -8.9524889736614266e-01
    7.8432025879736373e-03 -1.0040899966195638e+00
    7.8842915790683730e-03 -1.1078234188139948e+00
    8.0333585888338003e-03 -1.2458263656438378e+00
    8.1160524939677993e-03 -1.3008872711759816e+00
    8.0485652965855223e-03 -1.2565617248750867e+00
    8.1740020378854930e-03 -1.3356986595377376e+00
    8.0981585404524548e-03 -1.2895904304316430e+00
    8.0644267863729056e-03 -1.2674316465685254e+00
    8.0809540201892058e-03 -1.2784399094797292e+00
    7.9788794369279568e-03 -1.2041594578792294e+00
    7.9244154594654524e-03 -1.1547005383792517e+00
    7.9915657832652070e-03 -1.2143918126978108e+00
    7.9668010327270371e-03 -1.1940446282519870e+00
    7.9444368899903878e-03 -1.1741553460675589e+00
    7.9341366842935034e-03 -1.1643750387092773e+00
    7.9553226677602801e-03 -1.1840442493056271e+00
    8.0644267863729056e-03 -1.2674316465685254e+00
    8.0644267863729056e-03 -1.2674316465685254e+00
    8.1947882138763504e-03 -1.3476245597431762e+00
    8.1947882138763504e-03 -1.3476245597431762e+00
    8.1740020378854930e-03 -1.3356986595377376e+00
    8.1346486575285433e-03 -1.3123346456686356e+00
    8.3360722576706937e-03 -1.4229164972072998e+00
    8.4776553240252829e-03 -1.4912022701586511e+00
    8.4182218548256634e-03 -1.4632243987255138e+00
    8.1947882138763504e-03 -1.3476245597431762e+00
    8.1539604652681487e-03 -1.3239369277892530e+00
    8.0333585888338003e-03 -1.2458263656438378e+00
    7.9788794369279568e-03 -1.2041594578792294e+00
    7.8620867306891627e-03 -1.0719714581170265e+00
    7.8432025879736373e-03 -9.9592666331371371e-01
    7.8721085151663341e-03 -9.1766293548224698e-01
    8.2386575215518953e-03 -7.2886898685566259e-01
    9.0688469982991952e-03 -5.7577924513691425e-01
    1.0216485829851253e-02 -4.6787335106502470e-01
    1.2325854060661022e-02 -3.5921060405354976e-01
    9.3986993781103555e-03 -5.3802758684897034e-01
    8.4474552632875389e-03 -6.7700320038632988e-01
    8.0048684404679018e-03 -8.1649658092772603e-01
    7.8510544295514843e-03 -9.5606615879864698e-01
    7.8447710716585458e-03 -1.0206207261596578e+00
    7.8842915790683730e-03 -1.1078234188139948e+00
    7.9788794369279568e-03 -1.2041594578792294e+00
    8.0644267863729056e-03 -1.2674316465685254e+00
    8.1160524939677993e-03 -1.3008872711759816e+00
    8.3899295534723209e-03 -1.4495743591774830e+00
    8.3899295534723209e-03 -1.4495743591774830e+00
    8.1539604652681487e-03 -1.3239369277892530e+00
    8.1346486575285433e-03 -1.3123346456686356e+00
    8.1539604652681487e-03 -1.3239369277892530e+00
    8.0333585888338003e-03 -1.2458263656438378e+00
    8.0485652965855223e-03 -1.2565617248750867e+00
    8.0333585888338003e-03 -1.2458263656438378e+00
    7.9788794369279568e-03 -1.2041594578792294e+00
    8.0333585888338003e-03 -1.2458263656438378e+00
    7.9553226677602801e-03 -1.1840442493056271e+00
    7.9668010327270371e-03 -1.1940446282519870e+00
    8.1160524939677993e-03 -1.3008872711759816e+00
    8.1539604652681487e-03 -1.3239369277892530e+00
    8.2386575215518953e-03 -1.3719886811400708e+00
    8.1160524939677993e-03 -1.3008872711759816e+00
    8.1160524939677993e-03 -1.3008872711759816e+00
    8.2386575215518953e-03 -1.3719886811400708e+00
    8.4776553240252829e-03 -1.4912022701586511e+00
    8.3104621441290518e-03 -1.4098953429417307e+00
    8.3625540606168565e-03 -1.4361406616345072e+00
    8.4182218548256634e-03 -1.4632243987255138e+00
    8.2163345829161169e-03 -1.3597195333238121e+00
    8.2163345829161169e-03 -1.3597195333238121e+00
    8.0485652965855223e-03 -1.2565617248750867e+00
    7.8510544295514843e-03 -1.0459527207369814e+00
    7.8437253113297408e-03 -9.8782916114726182e-01
    8.0981585404524548e-03 -7.7543999738373304e-01
    9.0199579790807369e-03 -5.8206341081333235e-01
    1.0216485829851253e-02 -4.6787335106502470e-01
    1.2955213043411318e-02 -3.3709993123162102e-01
    9.8803464263962325e-03 -4.9361404187383628e-01
    8.4182218548256634e-03 -6.8342217425503038e-01
    8.0809540201892058e-03 -7.8220336566851845e-01
    7.8842915790683712e-03 -9.0267093384844010e-01
    7.8463404967160904e-03 -1.0289915108550529e+00
    7.9066856355533965e-03 -1.1356582347556083e+00
    7.8912027290773488e-03 -1.1170077985485813e+00
    8.0485652965855223e-03 -1.2565617248750867e+00
    8.0644267863729056e-03 -1.2674316465685254e+00
    8.1539604652681487e-03 -1.3239369277892530e+00
    8.3899295534723209e-03 -1.4495743591774830e+00
    8.2163345829161169e-03 -1.3597195333238121e+00
    8.1539604652681487e-03 -1.3239369277892530e+00
    8.1539604652681487e-03 -1.3239369277892530e+00
    8.1346486575285433e-03 -1.3123346456686356e+00
    8.1539604652681487e-03 -1.3239369277892530e+00
    8.1740020378854930e-03 -1.3356986595377376e+00
    8.0187962591224578e-03 -1.2352219217113531e+00
    8.0981585404524548e-03 -1.2895904304316430e+00
    8.2386575215518953e-03 -1.3719886811400708e+00
    8.1539604652681487e-03 -1.3239369277892530e+00
    8.1160524939677993e-03 -1.3008872711759816e+00
    8.1160524939677993e-03 -1.3008872711759816e+00
    8.1346486575285433e-03 -1.3123346456686356e+00
    8.0187962591224578e-03 -1.2352219217113531e+00
    8.0809540201892058e-03 -1.2784399094797292e+00
    8.1740020378854930e-03 -1.3356986595377376e+00
    8.1539604652681487e-03 -1.3239369277892530e+00
    8.1740020378854930e-03 -1.3356986595377376e+00
    8.2617742313763204e-03 -1.3844373104863463e+00
    8.2386575215518953e-03 -1.3719886811400708e+00
    8.4182218548256634e-03 -1.4632243987255138e+00
    8.1740020378854930e-03 -1.3356986595377376e+00
    8.0048684404679018e-03 -1.2247448713915889e+00
    7.9066856355533965e-03 -1.1356582347556083e+00
    7.8437253113297408e-03 -9.8782916114726182e-01
    8.0187962591224578e-03 -8.0957112436487344e-01
    8.9268169524782219e-03 -5.9463531699773298e-01
    9.8039215686274508e-03 -5.0000000000000000e-01
    1.3717094544240116e-02 -3.1409347099260015e-01
    9.7302409778626791e-03 -5.0636968354183332e-01
    8.4474552632875389e-03 -6.7700320038632988e-01
    7.9915657832652070e-03 -8.2345746203481696e-01
    7.8542017756107821e-03 -9.4827464703088549e-01
    7.8463404967160904e-03 -1.0289915108550529e+00
    7.9244154594654524e-03 -1.1547005383792517e+00
    8.0333585888338003e-03 -1.2458263656438378e+00
    8.0333585888338003e-03 -1.2458263656438378e+00
    8.1160524939677993e-03 -1.3008872711759816e+00
    8.3104621441290518e-03 -1.4098953429417307e+00
    8.3360722576706937e-03 -1.4229164972072998e+00
    8.4474552632875406e-03 -1.4770978917519928e+00
    8.1740020378854930e-03 -1.3356986595377376e+00
    8.1947882138763504e-03 -1.3476245597431762e+00
    8.1947882138763504e-03 -1.3476245597431762e+00
    8.1160524939677993e-03 -1.3008872711759816e+00
    8.1346486575285433e-03 -1.3123346456686356e+00
    8.4182218548256634e-03 -1.4632243987255138e+00
    8.2386575215518953e-03 -1.3719886811400708e+00
    8.2857027798715274e-03 -1.3970709462713993e+00
    8.1160524939677993e-03 -1.3008872711759816e+00
    8.0187962591224578e-03 -1.2352219217113531e+00
    8.0333585888338003e-03 -1.2458263656438378e+00
    8.1539604652681487e-03 -1.3239369277892530e+00
    8.1346486575285433e-03 -1.3123346456686356e+00
    8.1947882138763504e-03 -1.3476245597431762e+00
    8.1160524939677993e-03 -1.3008872711759816e+00
    8.1740020378854930e-03 -1.3356986595377376e+00
    8.4474552632875406e-03 -1.4770978917519928e+00
    8.2163345829161169e-03 -1.3597195333238121e+00
    8.2163345829161169e-03 -1.3597195333238121e+00
    8.2163345829161169e-03 -1.3597195333238121e+00
    8.0333585888338003e-03 -1.2458263656438378e+00
    7.9066856355533965e-03 -1.1356582347556083e+00
    7.9668010327270371e-03 -1.1940446282519870e+00
    7.8510544295514843e-03 -1.0459527207369814e+00
    7.9788794369279568e-03 -8.3045479853739956e-01
    8.9726336337731250e-03 -5.8834840541455202e-01
    1.0042005384011012e-02 -4.8078662512020071e-01
    1.3445764447248413e-02 -3.2187513666576301e-01
    9.4604618863078985e-03 -5.3171657214065216e-01
    8.3104621441290518e-03 -7.0927250381117746e-01
    7.8721085151663341e-03 -9.1766293548224698e-01
    7.8779281465715407e-03 -9.1014186199472424e-01
    7.8447710716585441e-03 -9.7979589711327120e-01
    7.8912027290773488e-03 -1.1170077985485813e+00
    8.0048684404679018e-03 -1.2247448713915889e+00
    8.2386575215518953e-03 -1.3719886811400708e+00
    8.0187962591224578e-03 -1.2352219217113531e+00
    8.2857027798715274e-03 -1.3970709462713993e+00
    8.3899295534723209e-03 -1.4495743591774830e+00
    8.1539604652681487e-03 -1.3239369277892530e+00
    8.1740020378854930e-03 -1.3356986595377376e+00
    8.2386575215518953e-03 -1.3719886811400708e+00
    8.1539604652681487e-03 -1.3239369277892530e+00
    8.1947882138763504e-03 -1.3476245597431762e+00
    8.0644267863729056e-03 -1.2674316465685254e+00
    8.1346486575285433e-03 -1.3123346456686356e+00
    8.3360722576706937e-03 -1.4229164972072998e+00
    8.4182218548256634e-03 -1.4632243987255138e+00
    8.0981585404524548e-03 -1.2895904304316430e+00
    7.9788794369279568e-03 -1.2041594578792294e+00
    8.1740020378854930e-03 -1.3356986595377376e+00
    8.3360722576706937e-03 -1.4229164972072998e+00
    8.3104621441290518e-03 -1.4098953429417307e+00
    8.3360722576706937e-03 -1.4229164972072998e+00
    8.3360722576706937e-03 -1.4229164972072998e+00
    8.2163345829161169e-03 -1.3597195333238121e+00
    8.2386575215518953e-03 -1.3719886811400708e+00
    8.2617742313763204e-03 -1.3844373104863463e+00
    8.2163345829161169e-03 -1.3597195333238121e+00
    8.1160524939677993e-03 -1.3008872711759816e+00
    8.1539604652681487e-03 -1.3239369277892530e+00
    8.0048684404679018e-03 -1.2247448713915889e+00
    7.8842915790683730e-03 -1.1078234188139948e+00
    7.8447710716585458e-03 -1.0206207261596578e+00
    7.9444368899903878e-03 -8.5167606087998993e-01
    8.9268169524782219e-03 -5.9463531699773298e-01
    1.0042005384011012e-02 -4.8078662512020071e-01
    1.2955213043411318e-02 -3.3709993123162102e-01
    9.8039215686274508e-03 -5.0000000000000000e-01
    8.2617742313763169e-03 -7.2231511851461516e-01
    7.9668010327270371e-03 -8.3748963509340757e-01
    7.8510544295514843e-03 -9.5606615879864698e-01
    7.8510544295514843e-03 -1.0459527207369814e+00
    7.8578784677190202e-03 -1.0632190661423897e+00
    7.9341366842935034e-03 -1.1643750387092773e+00
    7.9668010327270371e-03 -1.1940446282519870e+00
    7.9553226677602801e-03 -1.1840442493056271e+00
    8.0048684404679018e-03 -1.2247448713915889e+00
    8.0048684404679018e-03 -1.2247448713915889e+00
    8.0485652965855223e-03 -1.2565617248750867e+00
    8.1160524939677993e-03 -1.3008872711759816e+00
    8.0809540201892058e-03 -1.2784399094797292e+00
    8.0644267863729056e-03 -1.2674316465685254e+00
    8.0187962591224578e-03 -1.2352219217113531e+00
    8.0187962591224578e-03 -1.2352219217113531e+00
    8.0333585888338003e-03 -1.2458263656438378e+00
    8.0981585404524548e-03 -1.2895904304316430e+00
    8.1947882138763504e-03 -1.3476245597431762e+00
    8.0644267863729056e-03 -1.2674316465685254e+00
    7.9152670361369946e-03 -1.1451291432484725e+00
    8.0485652965855223e-03 -1.2565617248750867e+00
    8.0809540201892058e-03 -1.2784399094797292e+00
    8.1947882138763504e-03 -1.3476245597431762e+00
    8.2163345829161169e-03 -1.3597195333238121e+00
    8.1160524939677993e-03 -1.3008872711759816e+00
    8.0809540201892058e-03 -1.2784399094797292e+00
    8.0187962591224578e-03 -1.2352219217113531e+00
    8.0644267863729056e-03 -1.2674316465685254e+00
    8.0048684404679018e-03 -1.2247448713915889e+00
    7.9152670361369946e-03 -1.1451291432484725e+00
    7.9152670361369946e-03 -1.1451291432484725e+00
    7.8447710716585441e-03 -9.7979589711327120e-01
    7.8510544295514843e-03 -9.5606615879864698e-01
    7.8779281465715407e-03 -9.1014186199472424e-01
    8.0485652965855223e-03 -7.9582242575422157e-01
    8.5088489002871914e-03 -6.6421116415507153e-01
    9.8039215686274508e-03 -5.0000000000000000e-01
    1.2523213223295091e-02 -3.5192784915259878e-01
    9.7302409778626791e-03 -5.0636968354183332e-01
    8.3899295534723209e-03 -6.8985767695795885e-01
    7.9553226677602801e-03 -8.4456303097324448e-01
    7.8912027290773505e-03 -8.9524889736614266e-01
    7.8432025879736373e-03 -9.9592666331371371e-01
    7.8721085151663341e-03 -1.0897247358851680e+00
    7.8842915790683730e-03 -1.1078234188139948e+00
    7.9788794369279568e-03 -1.2041594578792294e+00
    7.9244154594654524e-03 -1.1547005383792517e+00
    8.0048684404679018e-03 -1.2247448713915889e+00
    8.0048684404679018e-03 -1.2247448713915889e+00
    8.1346486575285433e-03 -1.3123346456686356e+00
    7.9553226677602801e-03 -1.1840442493056271e+00
    8.1539604652681487e-03 -1.3239369277892530e+00
    8.1740020378854930e-03 -1.3356986595377376e+00
    8.1346486575285433e-03 -1.3123346456686356e+00
    8.0485652965855223e-03 -1.2565617248750867e+00
    8.0048684404679018e-03 -1.2247448713915889e+00
    8.0485652965855223e-03 -1.2565617248750867e+00
    8.0485652965855223e-03 -1.2565617248750867e+00
    7.9341366842935034e-03 -1.1643750387092773e+00
    8.0485652965855223e-03 -1.2565617248750867e+00
    8.0809540201892058e-03 -1.2784399094797292e+00
    8.0485652965855223e-03 -1.2565617248750867e+00
    8.0644267863729056e-03 -1.2674316465685254e+00
    8.2163345829161169e-03 -1.3597195333238121e+00
    7.9915657832652070e-03 -1.2143918126978108e+00
    8.0644267863729056e-03 -1.2674316465685254e+00
    7.9915657832652070e-03 -1.2143918126978108e+00
    7.8620867306891627e-03 -1.0719714581170265e+00
    7.9066856355533965e-03 -1.1356582347556083e+00
    7.8842915790683730e-03 -1.1078234188139948e+00
    7.9244154594654524e-03 -1.1547005383792517e+00
    7.8432025879736373e-03 -9.9592666331371371e-01
    7.8484345294453171e-03 -9.6391589792248811e-01
    7.8721085151663341e-03 -9.1766293548224698e-01
    8.1539604652681470e-03 -7.5532299085412491e-01
    8.5410642503498634e-03 -6.5783625471062002e-01
    9.5905955740829725e-03 -5.1906651964220496e-01
    1.5030614031851420e-02 -2.8159395267835924e-01
    1.0505552365291212e-02 -4.4830836726171275e-01
    8.7978894679045117e-03 -6.1351812881285139e-01
    8.0333585888338003e-03 -8.0268007450878143e-01
    7.9788794369279568e-03 -8.3045479853739956e-01
    7.8484345294453171e-03 -9.6391589792248811e-01
    7.8447710716585458e-03 -1.0206207261596578e+00
    7.9244154594654524e-03 -1.1547005383792517e+00
    7.9553226677602801e-03 -1.1840442493056271e+00
    7.9341366842935034e-03 -1.1643750387092773e+00
    7.9152670361369946e-03 -1.1451291432484725e+00
    8.0187962591224578e-03 -1.2352219217113531e+00
    8.0981585404524548e-03 -1.2895904304316430e+00
    8.1539604652681487e-03 -1.3239369277892530e+00
    8.0333585888338003e-03 -1.2458263656438378e+00
    8.1539604652681487e-03 -1.3239369277892530e+00
    8.1160524939677993e-03 -1.3008872711759816e+00
    8.0809540201892058e-03 -1.2784399094797292e+00
    8.0981585404524548e-03 -1.2895904304316430e+00
    8.0333585888338003e-03 -1.2458263656438378e+00
    8.0809540201892058e-03 -1.2784399094797292e+00
    7.9788794369279568e-03 -1.2041594578792294e+00
    7.9915657832652070e-03 -1.2143918126978108e+00
    8.0333585888338003e-03 -1.2458263656438378e+00
    8.1539604652681487e-03 -1.3239369277892530e+00
    7.9915657832652070e-03 -1.2143918126978108e+00
    8.0485652965855223e-03 -1.2565617248750867e+00
    8.0644267863729056e-03 -1.2674316465685254e+00
    8.0809540201892058e-03 -1.2784399094797292e+00
    8.0485652965855223e-03 -1.2565617248750867e+00
    8.0485652965855223e-03 -1.2565617248750867e+00
    7.8668291178082671e-03 -1.0808059922670459e+00
    7.8912027290773488e-03 -1.1170077985485813e+00
    7.8668291178082671e-03 -1.0808059922670459e+00
    7.8432025879736373e-03 -9.9592666331371371e-01
    7.8721085151663341e-03 -9.1766293548224698e-01
    7.9066856355533965e-03 -8.8054660231050785e-01
    8.2617742313763169e-03 -7.2231511851461516e-01
    8.8394943115264121e-03 -6.0721913984893683e-01
    1.0308986987027681e-02 -4.6137976454187152e-01
    1.6894910526575081e-02 -2.4618298195866548e-01
    1.0216485829851253e-02 -4.6787335106502470e-01
    8.6807622043837875e-03 -6.3245553203367599e-01
    8.3360722576706937e-03 -7.0278192849872723e-01
    8.0048684404679018e-03 -8.1649658092772603e-01
    7.8542017756107821e-03 -9.4827464703088549e-01
    7.8447710716585458e-03 -1.0206207261596578e+00
    7.8912027290773488e-03 -1.1170077985485813e+00
    7.8842915790683730e-03 -1.1078234188139948e+00
    7.9341366842935034e-03 -1.1643750387092773e+00
    7.8721085151663341e-03 -1.0897247358851680e+00
    7.9444368899903878e-03 -1.1741553460675589e+00
    8.0644267863729056e-03 -1.2674316465685254e+00
    8.0048684404679018e-03 -1.2247448713915889e+00
    8.2163345829161169e-03 -1.3597195333238121e+00
    8.4182218548256634e-03 -1.4632243987255138e+00
    8.0485652965855223e-03 -1.2565617248750867e+00
    8.1346486575285433e-03 -1.3123346456686356e+00
    8.0809540201892058e-03 -1.2784399094797292e+00
    8.0187962591224578e-03 -1.2352219217113531e+00
    8.0485652965855223e-03 -1.2565617248750867e+00
    8.0333585888338003e-03 -1.2458263656438378e+00
    8.1346486575285433e-03 -1.3123346456686356e+00
    8.0333585888338003e-03 -1.2458263656438378e+00
    8.1539604652681487e-03 -1.3239369277892530e+00
    8.0048684404679018e-03 -1.2247448713915889e+00
    8.2386575215518953e-03 -1.3719886811400708e+00
    8.1947882138763504e-03 -1.3476245597431762e+00
    7.9553226677602801e-03 -1.1840442493056271e+00
    7.9444368899903878e-03 -1.1741553460675589e+00
    7.8779281465715407e-03 -1.0987298153810185e+00
    7.8721085151663341e-03 -1.0897247358851680e+00
    7.9152670361369946e-03 -1.1451291432484725e+00
    7.8542017756107821e-03 -1.0545468057498639e+00
    7.8542017756107821e-03 -9.4827464703088549e-01
    7.8463404967160921e-03 -9.7182531580755027e-01
    7.9152670361369963e-03 -8.7326395096646126e-01
    8.1947882138763486e-03 -7.4204643479529309e-01
    8.7978894679045117e-03 -6.1351812881285139e-01
    1.0405267264808478e-02 -4.5485882614734208e-01
    1.7494850488104050e-02 -2.3671603823699969e-01
    1.1486851418177308e-02 -3.9453818238351857e-01
    9.1715645289448082e-03 -5.6320893199173316e-01
    8.6086807836447867e-03 -6.4512399668456444e-01
    8.1346486575285416e-03 -7.6200076200114297e-01
    8.0048684404679018e-03 -8.1649658092772603e-01
    7.8463404967160904e-03 -1.0289915108550529e+00
    7.8842915790683730e-03 -1.1078234188139948e+00
    7.9244154594654524e-03 -1.1547005383792517e+00
    7.8912027290773488e-03 -1.1170077985485813e+00
    7.9915657832652070e-03 -1.2143918126978108e+00
    8.1346486575285433e-03 -1.3123346456686356e+00
    8.3625540606168565e-03 -1.4361406616345072e+00
    8.1160524939677993e-03 -1.3008872711759816e+00
    8.1346486575285433e-03 -1.3123346456686356e+00
    8.1539604652681487e-03 -1.3239369277892530e+00
    8.1539604652681487e-03 -1.3239369277892530e+00
    8.0809540201892058e-03 -1.2784399094797292e+00
    8.0981585404524548e-03 -1.2895904304316430e+00
    8.0485652965855223e-03 -1.2565617248750867e+00
    7.9788794369279568e-03 -1.2041594578792294e+00
    7.9668010327270371e-03 -1.1940446282519870e+00
    8.1160524939677993e-03 -1.3008872711759816e+00
    7.9788794369279568e-03 -1.2041594578792294e+00
    8.0809540201892058e-03 -1.2784399094797292e+00
    8.0333585888338003e-03 -1.2458263656438378e+00
    7.9444368899903878e-03 -1.1741553460675589e+00
    7.9788794369279568e-03 -1.2041594578792294e+00
    8.0048684404679018e-03 -1.2247448713915889e+00
    8.0333585888338003e-03 -1.2458263656438378e+00
    7.9444368899903878e-03 -1.1741553460675589e+00
    7.9553226677602801e-03 -1.1840442493056271e+00
    7.9244154594654524e-03 -1.1547005383792517e+00
    7.8721085151663341e-03 -1.0897247358851680e+00
    7.8447710716585458e-03 -1.0206207261596578e+00
    7.8668291178082671e-03 -9.2523543277406217e-01
    7.9444368899903878e-03 -8.5167606087998993e-01
    8.2857027798715274e-03 -7.1578326259584024e-01
    9.1193611356612664e-03 -5.6949479745149945e-01
    1.0610087799348000e-02 -4.4172610429938608e-01
    1.9819467084972894e-02 -2.0628424925175867e-01
    1.2139478475609892e-02 -3.6641405439647001e-01
    9.5243940441639852e-03 -5.2539667553827041e-01
    8.5743311103666162e-03 -6.5147417803867169e-01
    8.0485652965855223e-03 -7.9582242575422157e-01
    7.9668010327270371e-03 -8.3748963509340757e-01
    7.8912027290773505e-03 -8.9524889736614266e-01
    7.8463404967160904e-03 -1.0289915108550529e+00
    7.8668291178082671e-03 -1.0808059922670459e+00
    7.9553226677602801e-03 -1.1840442493056271e+00
    7.8779281465715407e-03 -1.0987298153810185e+00
    8.0485652965855223e-03 -1.2565617248750867e+00
    8.1740020378854930e-03 -1.3356986595377376e+00
    8.1160524939677993e-03 -1.3008872711759816e+00
    8.2163345829161169e-03 -1.3597195333238121e+00
    8.2386575215518953e-03 -1.3719886811400708e+00
    8.0644267863729056e-03 -1.2674316465685254e+00
    8.0809540201892058e-03 -1.2784399094797292e+00
    8.0981585404524548e-03 -1.2895904304316430e+00
    8.2386575215518953e-03 -1.3719886811400708e+00
    8.1160524939677993e-03 -1.3008872711759816e+00
    8.0187962591224578e-03 -1.2352219217113531e+00
    8.0333585888338003e-03 -1.2458263656438378e+00
    8.0809540201892058e-03 -1.2784399094797292e+00
    8.0187962591224578e-03 -1.2352219217113531e+00
    8.0187962591224578e-03 -1.2352219217113531e+00
    7.9553226677602801e-03 -1.1840442493056271e+00
    8.1346486575285433e-03 -1.3123346456686356e+00
    8.1160524939677993e-03 -1.3008872711759816e+00
    7.9444368899903878e-03 -1.1741553460675589e+00
    7.9244154594654524e-03 -1.1547005383792517e+00
    7.9444368899903878e-03 -1.1741553460675589e+00
    7.8842915790683730e-03 -1.1078234188139948e+00
    7.8447710716585441e-03 -9.7979589711327120e-01
    7.8463404967160921e-03 -9.7182531580755027e-01
    7.9244154594654524e-03 -8.6602540378443882e-01
    7.9668010327270371e-03 -8.3748963509340757e-01
    8.5410642503498634e-03 -6.5783625471062002e-01
    9.3986993781103555e-03 -5.3802758684897034e-01
    1.1206815816655063e-02 -4.0824829046386302e-01
    1.5872603638382058e-02 -2.6432744018203591e-01
    1.1963163730145030e-02 -3.7354368381881420e-01
    9.7302409778626791e-03 -5.0636968354183332e-01
    9.1715645289448082e-03 -5.6320893199173316e-01
    8.2163345829161169e-03 -7.3544578531979776e-01
    8.0981585404524548e-03 -7.7543999738373304e-01
    7.9244154594654524e-03 -8.6602540378443882e-01
    7.8578784677190202e-03 -9.4053994312596023e-01
    7.8668291178082671e-03 -1.0808059922670459e+00
    7.8912027290773488e-03 -1.1170077985485813e+00
    7.9341366842935034e-03 -1.1643750387092773e+00
    7.9553226677602801e-03 -1.1840442493056271e+00
    7.9788794369279568e-03 -1.2041594578792294e+00
    8.0048684404679018e-03 -1.2247448713915889e+00
    8.0981585404524548e-03 -1.2895904304316430e+00
    8.0187962591224578e-03 -1.2352219217113531e+00
    8.0333585888338003e-03 -1.2458263656438378e+00
    8.0333585888338003e-03 -1.2458263656438378e+00
    8.1160524939677993e-03 -1.3008872711759816e+00
    8.0048684404679018e-03 -1.2247448713915889e+00
    7.9915657832652070e-03 -1.2143918126978108e+00
    7.9915657832652070e-03 -1.2143918126978108e+00
    7.9341366842935034e-03 -1.1643750387092773e+00
    8.0485652965855223e-03 -1.2565617248750867e+00
    8.0809540201892058e-03 -1.2784399094797292e+00
    8.0644267863729056e-03 -1.2674316465685254e+00
    8.0485652965855223e-03 -1.2565617248750867e+00
    7.9788794369279568e-03 -1.2041594578792294e+00
    7.9066856355533965e-03 -1.1356582347556083e+00
    7.9553226677602801e-03 -1.1840442493056271e+00
    7.9553226677602801e-03 -1.1840442493056271e+00
    7.9341366842935034e-03 -1.1643750387092773e+00
    7.8842915790683730e-03 -1.1078234188139948e+00
    7.8432025879736373e-03 -9.9592666331371371e-01
    7.8620867306891627e-03 -9.3286065820871000e-01
    7.9553226677602801e-03 -8.4456303097324448e-01
    8.1947882138763486e-03 -7.4204643479529309e-01
    9.0688469982991952e-03 -5.7577924513691425e-01
    9.8039215686274508e-03 -5.0000000000000000e-01
    1.2732602250952300e-02 -3.4455980785230100e-01
    1.4662056336609915e-02 -2.8994964469744916e-01
    1.2523213223295091e-02 -3.5192784915259878e-01
    9.9596569493415107e-03 -4.8721015729737960e-01
    9.3390131805458857e-03 -5.4433105395181736e-01
    8.6086807836447867e-03 -6.4512399668456444e-01
    8.1539604652681470e-03 -7.5532299085412491e-01
    7.9341366842935034e-03 -8.5882981578556616e-01
    7.8620867306891627e-03 -9.3286065820871000e-01
    7.8578784677190202e-03 -1.0632190661423897e+00
    7.8542017756107821e-03 -1.0545468057498639e+00
    7.8542017756107821e-03 -1.0545468057498639e+00
    7.9668010327270371e-03 -1.1940446282519870e+00
    8.1160524939677993e-03 -1.3008872711759816e+00
    8.1740020378854930e-03 -1.3356986595377376e+00
    8.0981585404524548e-03 -1.2895904304316430e+00
    8.1539604652681487e-03 -1.3239369277892530e+00
    8.0809540201892058e-03 -1.2784399094797292e+00
    7.9668010327270371e-03 -1.1940446282519870e+00
    8.1160524939677993e-03 -1.3008872711759816e+00
    8.0187962591224578e-03 -1.2352219217113531e+00
    7.9915657832652070e-03 -1.2143918126978108e+00
    7.9668010327270371e-03 -1.1940446282519870e+00
    8.0187962591224578e-03 -1.2352219217113531e+00
    7.9915657832652070e-03 -1.2143918126978108e+00
    8.1740020378854930e-03 -1.3356986595377376e+00
    8.1160524939677993e-03 -1.3008872711759816e+00
    8.0187962591224578e-03 -1.2352219217113531e+00
    7.9915657832652070e-03 -1.2143918126978108e+00
    8.0485652965855223e-03 -1.2565617248750867e+00
    7.9152670361369946e-03 -1.1451291432484725e+00
    7.9788794369279568e-03 -1.2041594578792294e+00
    7.9066856355533965e-03 -1.1356582347556083e+00
    7.8432025879736373e-03 -1.0040899966195638e+00
    7.8578784677190202e-03 -9.4053994312596023e-01
    7.9444368899903878e-03 -8.5167606087998993e-01
    8.1346486575285416e-03 -7.6200076200114297e-01
    8.3899295534723209e-03 -6.8985767695795885e-01
    8.8824541225608587e-03 -6.0092521257733156e-01
    9.8803464263962325e-03 -4.9361404187383628e-01
    1.3445764447248413e-02 -3.2187513666576301e-01
    1.9819467084972894e-02 -2.0628424925175867e-01
    1.3717094544240116e-02 -3.1409347099260015e-01
    1.0216485829851253e-02 -4.6787335106502470e-01
    9.4604618863078985e-03 -5.3171657214065216e-01
    8.9268169524782219e-03 -5.9463531699773298e-01
    8.3625540606168565e-03 -6.9631062382279130e-01
    7.9788794369279568e-03 -8.3045479853739956e-01
    7.8842915790683712e-03 -9.0267093384844010e-01
    7.8463404967160921e-03 -9.7182531580755027e-01
    7.8437253113297408e-03 -1.0123207932418219e+00
    7.8912027290773488e-03 -1.1170077985485813e+00
    7.9066856355533965e-03 -1.1356582347556083e+00
    7.9553226677602801e-03 -1.1840442493056271e+00
    8.1160524939677993e-03 -1.3008872711759816e+00
    7.9341366842935034e-03 -1.1643750387092773e+00
    8.0187962591224578e-03 -1.2352219217113531e+00
    8.0048684404679018e-03 -1.2247448713915889e+00
    7.9788794369279568e-03 -1.2041594578792294e+00
    7.9668010327270371e-03 -1.1940446282519870e+00
    7.9915657832652070e-03 -1.2143918126978108e+00
    7.9244154594654524e-03 -1.1547005383792517e+00
    8.0187962591224578e-03 -1.2352219217113531e+00
    7.9553226677602801e-03 -1.1840442493056271e+00
    8.0485652965855223e-03 -1.2565617248750867e+00
    7.9553226677602801e-03 -1.1840442493056271e+00
    7.9668010327270371e-03 -1.1940446282519870e+00
    7.9066856355533965e-03 -1.1356582347556083e+00
    7.9915657832652070e-03 -1.2143918126978108e+00
    7.8986658691772935e-03 -1.1262852740396276e+00
    7.8578784677190202e-03 -1.0632190661423897e+00
    7.8620867306891627e-03 -1.0719714581170265e+00
    7.8447710716585441e-03 -9.7979589711327120e-01
    7.8578784677190202e-03 -9.4053994312596023e-01
    7.9444368899903878e-03 -8.5167606087998993e-01
    8.1947882138763486e-03 -7.4204643479529309e-01
    8.3360722576706937e-03 -7.0278192849872723e-01
    8.5088489002871914e-03 -6.6421116415507153e-01
    8.8824541225608587e-03 -6.0092521257733156e-01
    1.0610087799348000e-02 -4.4172610429938608e-01
    1.3445764447248413e-02 -3.2187513666576301e-01
    1.6894910526575081e-02 -2.4618298195866548e-01
    1.3445764447248413e-02 -3.2187513666576301e-01
    1.1963163730145030e-02 -3.7354368381881420e-01
    9.8039215686274508e-03 -5.0000000000000000e-01
    9.0688469982991952e-03 -5.7577924513691425e-01
    8.6441462369357385e-03 -6.3878476579478183e-01
    8.4474552632875389e-03 -6.7700320038632988e-01
    8.0644267863729073e-03 -7.8899718395656560e-01
    8.0333585888338003e-03 -8.0268007450878143e-01
    7.8437253113297408e-03 -9.8782916114726182e-01
    7.8463404967160921e-03 -9.7182531580755027e-01
    7.8578784677190202e-03 -9.4053994312596023e-01
    7.8437253113297408e-03 -1.0123207932418219e+00
    7.8779281465715407e-03 -1.0987298153810185e+00
    8.0333585888338003e-03 -1.2458263656438378e+00
    8.0187962591224578e-03 -1.2352219217113531e+00
    8.0485652965855223e-03 -1.2565617248750867e+00
    8.0333585888338003e-03 -1.2458263656438378e+00
    8.0048684404679018e-03 -1.2247448713915889e+00
    7.9152670361369946e-03 -1.1451291432484725e+00
    7.9341366842935034e-03 -1.1643750387092773e+00
    8.0187962591224578e-03 -1.2352219217113531e+00
    7.9553226677602801e-03 -1.1840442493056271e+00
    7.9152670361369946e-03 -1.1451291432484725e+00
    7.8986658691772935e-03 -1.1262852740396276e+00
    7.9152670361369946e-03 -1.1451291432484725e+00
    7.9066856355533965e-03 -1.1356582347556083e+00
    7.8484345294453171e-03 -1.0374349070860676e+00
    7.8668291178082671e-03 -1.0808059922670459e+00
    7.8432025879736373e-03 -1.0040899966195638e+00
    7.8779281465715407e-03 -1.0987298153810185e+00
    7.8437253113297408e-03 -9.8782916114726182e-01
    7.8842915790683712e-03 -9.0267093384844010e-01
    7.9668010327270371e-03 -8.3748963509340757e-01
    8.2163345829161169e-03 -7.3544578531979776e-01
    8.5743311103666162e-03 -6.5147417803867169e-01
    8.8394943115264121e-03 -6.0721913984893683e-01
    9.8803464263962325e-03 -4.9361404187383628e-01
    1.1796092524198745e-02 -3.8060453634200436e-01
    1.5872603638382058e-02 -2.6432744018203591e-01
    1.9819467084972894e-02 -2.0628424925175867e-01
    1.4322526914704535e-02 -2.9814239699997191e-01
    1.2523213223295091e-02 -3.5192784915259878e-01
    1.0719141161578308e-02 -4.3510962796692354e-01
    9.3986993781103555e-03 -5.3802758684897034e-01
    9.0199579790807369e-03 -5.8206341081333235e-01
    8.7575941384111892e-03 -6.1982319330632651e-01
    8.5743311103666162e-03 -6.5147417803867169e-01
    8.1539604652681470e-03 -7.5532299085412491e-01
    8.0333585888338003e-03 -8.0268007450878143e-01
    7.9444368899903878e-03 -8.5167606087998993e-01
    7.9915657832652070e-03 -8.2345746203481696e-01
    7.8668291178082671e-03 -9.2523543277406217e-01
    7.8578784677190202e-03 -9.4053994312596023e-01
    7.8510544295514843e-03 -1.0459527207369814e+00
    7.9915657832652070e-03 -1.2143918126978108e+00
    8.0187962591224578e-03 -1.2352219217113531e+00
    7.9668010327270371e-03 -1.1940446282519870e+00
    7.9066856355533965e-03 -1.1356582347556083e+00
    7.9553226677602801e-03 -1.1840442493056271e+00
    7.9244154594654524e-03 -1.1547005383792517e+00
    7.8842915790683730e-03 -1.1078234188139948e+00
    7.9444368899903878e-03 -1.1741553460675589e+00
    7.9066856355533965e-03 -1.1356582347556083e+00
    7.8542017756107821e-03 -1.0545468057498639e+00
    7.8842915790683730e-03 -1.1078234188139948e+00
    7.8542017756107821e-03 -1.0545468057498639e+00
    7.8620867306891627e-03 -1.0719714581170265e+00
    7.8510544295514843e-03 -1.0459527207369814e+00
    7.8447710716585458e-03 -1.0206207261596578e+00
    7.8437253113297408e-03 -9.8782916114726182e-01
    7.8620867306891627e-03 -9.3286065820871000e-01
    7.9444368899903878e-03 -8.5167606087998993e-01
    8.1160524939677993e-03 -7.6870611478580719e-01
    8.3104621441290518e-03 -7.0927250381117746e-01
    8.8824541225608587e-03 -6.0092521257733156e-01
    9.8039215686274508e-03 -5.0000000000000000e-01
    1.0719141161578308e-02 -4.3510962796692354e-01
    1.3717094544240116e-02 -3.1409347099260015e-01
    1.6357478434187719e-02 -2.5537695922762460e-01
    1.9819467084972894e-02 -2.0628424925175867e-01
    1.5432419482332616e-02 -2.7305934063637505e-01
    1.2955213043411318e-02 -3.3709993123162102e-01
    1.0308986987027681e-02 -4.6137976454187152e-01
    9.8803464263962325e-03 -4.9361404187383628e-01
    9.5905955740829725e-03 -5.1906651964220496e-01
    9.1193611356612664e-03 -5.6949479745149945e-01
    9.1193611356612664e-03 -5.6949479745149945e-01
    8.4182218548256634e-03 -6.8342217425503038e-01
    8.1740020378854930e-03 -7.4867186012306308e-01
    8.1539604652681470e-03 -7.5532299085412491e-01
    7.9915657832652070e-03 -8.2345746203481696e-01
    7.9915657832652070e-03 -8.2345746203481696e-01
    7.8912027290773505e-03 -8.9524889736614266e-01
    7.8447710716585441e-03 -9.7979589711327120e-01
    7.8432025879736373e-03 -9.9592666331371371e-01
    7.8437253113297408e-03 -9.8782916114726182e-01
    7.8447710716585441e-03 -9.7979589711327120e-01
    7.8432025879736373e-03 -1.0040899966195638e+00
    7.8484345294453171e-03 -1.0374349070860676e+00
    7.8842915790683730e-03 -1.1078234188139948e+00
    7.8842915790683730e-03 -1.1078234188139948e+00
    7.8912027290773488e-03 -1.1170077985485813e+00
    7.8912027290773488e-03 -1.1170077985485813e+00
    7.8484345294453171e-03 -1.0374349070860676e+00
    7.8620867306891627e-03 -9.3286065820871000e-01
    7.8668291178082671e-03 -9.2523543277406217e-01
    7.8447710716585458e-03 -1.0206207261596578e+00
    7.8620867306891627e-03 -9.3286065820871000e-01
    7.8510544295514843e-03 -9.5606615879864698e-01
    7.8986658691772918e-03 -8.8787452260058219e-01
    8.0333585888338003e-03 -8.0268007450878143e-01
    8.3104621441290518e-03 -7.0927250381117746e-01
    8.3360722576706937e-03 -7.0278192849872723e-01
    8.6441462369357385e-03 -6.3878476579478183e-01
    9.3390131805458857e-03 -5.4433105395181736e-01
    1.0042005384011012e-02 -4.8078662512020071e-01
    1.1796092524198745e-02 -3.8060453634200436e-01
    1.4322526914704535e-02 -2.9814239699997191e-01
    1.7494850488104050e-02 -2.3671603823699969e-01
    2.0847243915229966e-02 -1.9528336647123581e-01
    1.7494850488104050e-02 -2.3671603823699969e-01
    1.2523213223295091e-02 -3.5192784915259878e-01
    1.0719141161578308e-02 -4.3510962796692354e-01
    1.0216485829851253e-02 -4.6787335106502470e-01
    9.9596569493415107e-03 -4.8721015729737960e-01
    9.5905955740829725e-03 -5.1906651964220496e-01
    9.2255252932940523e-03 -5.5692048607273081e-01
    8.7978894679045117e-03 -6.1351812881285139e-01
    8.7185652998506748e-03 -6.2613533245254127e-01
    8.3360722576706937e-03 -7.0278192849872723e-01
    8.1539604652681470e-03 -7.5532299085412491e-01
    8.0333585888338003e-03 -8.0268007450878143e-01
    7.9444368899903878e-03 -8.5167606087998993e-01
    7.9788794369279568e-03 -8.3045479853739956e-01
    8.0187962591224578e-03 -8.0957112436487344e-01
    7.8721085151663341e-03 -9.1766293548224698e-01
    7.8721085151663341e-03 -9.1766293548224698e-01
    7.8510544295514843e-03 -9.5606615879864698e-01
    7.8578784677190202e-03 -9.4053994312596023e-01
    7.8432025879736373e-03 -1.0040899966195638e+00
    7.8484345294453171e-03 -1.0374349070860676e+00
    7.8721085151663341e-03 -1.0897247358851680e+00
    7.8432025879736373e-03 -1.0040899966195638e+00
    7.8447710716585441e-03 -9.7979589711327120e-01
    7.8437253113297408e-03 -9.8782916114726182e-01
    7.8484345294453171e-03 -9.6391589792248811e-01
    7.8510544295514843e-03 -9.5606615879864698e-01
    7.9244154594654524e-03 -8.6602540378443882e-01
    8.0485652965855223e-03 -7.9582242575422157e-01
    8.3104621441290518e-03 -7.0927250381117746e-01
    8.3360722576706937e-03 -7.0278192849872723e-01
    8.5743311103666162e-03 -6.5147417803867169e-01
    8.6807622043837875e-03 -6.3245553203367599e-01
    9.1193611356612664e-03 -5.6949479745149945e-01
    9.5243940441639852e-03 -5.2539667553827041e-01
    1.0405267264808478e-02 -4.5485882614734208e-01
    1.2325854060661022e-02 -3.5921060405354976e-01
    1.5030614031851420e-02 -2.8159395267835924e-01
    1.6894910526575081e-02 -2.4618298195866548e-01
    2.5371802860757322e-02 -1.5844431990595390e-01
    1.8937455819258202e-02 -2.1681454519599694e-01
    1.3717094544240116e-02 -3.1409347099260015e-01
    1.2325854060661022e-02 -3.5921060405354976e-01
    1.1343451480183071e-02 -4.0141928299260088e-01
    1.0405267264808478e-02 -4.5485882614734208e-01
    1.0127555905114417e-02 -4.7434164902525688e-01
    9.5905955740829725e-03 -5.1906651964220496e-01
    9.3986993781103555e-03 -5.3802758684897034e-01
    9.5905955740829725e-03 -5.1906651964220496e-01
    9.0199579790807369e-03 -5.8206341081333235e-01
    8.4182218548256634e-03 -6.8342217425503038e-01
    8.4776553240252846e-03 -6.7059983746779606e-01
    8.3104621441290518e-03 -7.0927250381117746e-01
    8.2857027798715274e-03 -7.1578326259584024e-01
    8.0485652965855223e-03 -7.9582242575422157e-01
    7.9788794369279568e-03 -8.3045479853739956e-01
    7.8578784677190202e-03 -9.4053994312596023e-01
    7.8842915790683712e-03 -9.0267093384844010e-01
    7.8578784677190202e-03 -9.4053994312596023e-01
    7.8510544295514843e-03 -9.5606615879864698e-01
    7.8620867306891627e-03 -9.3286065820871000e-01
    7.8463404967160921e-03 -9.7182531580755027e-01
    7.8542017756107821e-03 -9.4827464703088549e-01
    7.9553226677602801e-03 -8.4456303097324448e-01
    7.9244154594654524e-03 -8.6602540378443882e-01
    7.9788794369279568e-03 -8.3045479853739956e-01
    8.0048684404679018e-03 -8.1649658092772603e-01
    8.0644267863729073e-03 -7.8899718395656560e-01
    8.1947882138763486e-03 -7.4204643479529309e-01
    8.5410642503498634e-03 -6.5783625471062002e-01
    8.5088489002871914e-03 -6.6421116415507153e-01
    8.7978894679045117e-03 -6.1351812881285139e-01
    9.0688469982991952e-03 -5.7577924513691425e-01
    9.5243940441639852e-03 -5.2539667553827041e-01
    1.0127555905114417e-02 -4.7434164902525688e-01
    1.1343451480183071e-02 -4.0141928299260088e-01
    1.4662056336609915e-02 -2.8994964469744916e-01
    1.5872603638382058e-02 -2.6432744018203591e-01
    1.8937455819258202e-02 -2.1681454519599694e-01
    2.7735454108129082e-02 -1.4433756729740643e-01
    1.7494850488104050e-02 -2.3671603823699969e-01
    1.6357478434187719e-02 -2.5537695922762460e-01
    1.4322526914704535e-02 -2.9814239699997191e-01
    1.2325854060661022e-02 -3.5921060405354976e-01
    1.0951998469014759e-02 -4.2176369614348669e-01
    1.0833004733037640e-02 -4.2845639127810098e-01
    1.0951998469014759e-02 -4.2176369614348669e-01
    1.0308986987027681e-02 -4.6137976454187152e-01
    1.0127555905114417e-02 -4.7434164902525688e-01
    1.0610087799348000e-02 -4.4172610429938608e-01
    9.3390131805458857e-03 -5.4433105395181736e-01
    8.6807622043837875e-03 -6.3245553203367599e-01
    8.5088489002871914e-03 -6.6421116415507153e-01
    8.3899295534723209e-03 -6.8985767695795885e-01
    8.1346486575285416e-03 -7.6200076200114297e-01
    8.0981585404524548e-03 -7.7543999738373304e-01
    8.0981585404524548e-03 -7.7543999738373304e-01
    7.9066856355533965e-03 -8.8054660231050785e-01
    7.8986658691772918e-03 -8.8787452260058219e-01
    7.8721085151663341e-03 -9.1766293548224698e-01
    7.8986658691772918e-03 -8.8787452260058219e-01
    7.9553226677602801e-03 -8.4456303097324448e-01
    7.9788794369279568e-03 -8.3045479853739956e-01
    7.9341366842935034e-03 -8.5882981578556616e-01
    8.0485652965855223e-03 -7.9582242575422157e-01
    8.0644267863729073e-03 -7.8899718395656560e-01
    8.4182218548256634e-03 -6.8342217425503038e-01
    8.7978894679045117e-03 -6.1351812881285139e-01
    8.6807622043837875e-03 -6.3245553203367599e-01
    8.6086807836447867e-03 -6.4512399668456444e-01
    8.8394943115264121e-03 -6.0721913984893683e-01
    9.3986993781103555e-03 -5.3802758684897034e-01
    9.9596569493415107e-03 -4.8721015729737960e-01
    1.0127555905114417e-02 -4.7434164902525688e-01
    1.0505552365291212e-02 -4.4830836726171275e-01
    1.2139478475609892e-02 -3.6641405439647001e-01
    1.4008519770818831e-02 -3.0618621784789729e-01
    1.6894910526575081e-02 -2.4618298195866548e-01
    1.8937455819258202e-02 -2.1681454519599694e-01
    2.7735454108129082e-02 -1.4433756729740643e-01
    2.3539021490148269e-02 -1.7149858514250882e-01
    2.0847243915229966e-02 -1.9528336647123581e-01
    1.5872603638382058e-02 -2.6432744018203591e-01
    1.4662056336609915e-02 -2.8994964469744916e-01
    1.2955213043411318e-02 -3.3709993123162102e-01
    1.1796092524198745e-02 -3.8060453634200436e-01
    1.2139478475609892e-02 -3.6641405439647001e-01
    1.1796092524198745e-02 -3.8060453634200436e-01
    1.0833004733037640e-02 -4.2845639127810098e-01
    1.0951998469014759e-02 -4.2176369614348669e-01
    1.1486851418177308e-02 -3.9453818238351857e-01
    1.1076473440992699e-02 -4.1502867831964479e-01
    9.6591731418067123e-03 -5.1272468044569919e-01
    9.1193611356612664e-03 -5.6949479745149945e-01
    8.5410642503498634e-03 -6.5783625471062002e-01
    8.4776553240252846e-03 -6.7059983746779606e-01
    8.4776553240252846e-03 -6.7059983746779606e-01
    8.2617742313763169e-03 -7.2231511851461516e-01
    8.0333585888338003e-03 -8.0268007450878143e-01
    8.0485652965855223e-03 -7.9582242575422157e-01
    8.1160524939677993e-03 -7.6870611478580719e-01
    8.1947882138763486e-03 -7.4204643479529309e-01
    8.0485652965855223e-03 -7.9582242575422157e-01
    8.1947882138763486e-03 -7.4204643479529309e-01
    8.1740020378854930e-03 -7.4867186012306308e-01
    8.5410642503498634e-03 -6.5783625471062002e-01
    8.8394943115264121e-03 -6.0721913984893683e-01
    8.7575941384111892e-03 -6.1982319330632651e-01
    8.6807622043837875e-03 -6.3245553203367599e-01
    9.0688469982991952e-03 -5.7577924513691425e-01
    9.1715645289448082e-03 -5.6320893199173316e-01
    1.0405267264808478e-02 -4.5485882614734208e-01
    1.1076473440992699e-02 -4.1502867831964479e-01
    1.0833004733037640e-02 -4.2845639127810098e-01
    1.1637538025717624e-02 -3.8760126648920740e-01
    1.3445764447248413e-02 -3.2187513666576301e-01
    1.4662056336609915e-02 -2.8994964469744916e-01
    1.8170100122127185e-02 -2.2694084234167017e-01
    2.5371802860757322e-02 -1.5844431990595390e-01
    3.0944779111412461e-02 -1.2883132528016616e-01
    2.5371802860757322e-02 -1.5844431990595390e-01
    2.3539021490148269e-02 -1.7149858514250882e-01
    1.8170100122127185e-02 -2.2694084234167017e-01
    1.5872603638382058e-02 -2.6432744018203591e-01
    1.5872603638382058e-02 -2.6432744018203591e-01
    1.3717094544240116e-02 -3.1409347099260015e-01
    1.3192410187584998e-02 -3.2954102182865386e-01
    1.2732602250952300e-02 -3.4455980785230100e-01
    1.2732602250952300e-02 -3.4455980785230100e-01
    1.2139478475609892e-02 -3.6641405439647001e-01
    1.2732602250952300e-02 -3.4455980785230100e-01
    1.2955213043411318e-02 -3.3709993123162102e-01
    1.2325854060661022e-02 -3.5921060405354976e-01
    1.1343451480183071e-02 -4.0141928299260088e-01
    9.7302409778626791e-03 -5.0636968354183332e-01
    9.3390131805458857e-03 -5.4433105395181736e-01
    8.7978894679045117e-03 -6.1351812881285139e-01
    8.7575941384111892e-03 -6.1982319330632651e-01
    8.4182218548256634e-03 -6.8342217425503038e-01
    8.2617742313763169e-03 -7.2231511851461516e-01
    8.2857027798715274e-03 -7.1578326259584024e-01
    8.5410642503498634e-03 -6.5783625471062002e-01
    8.5088489002871914e-03 -6.6421116415507153e-01
    8.4474552632875389e-03 -6.7700320038632988e-01
    8.6807622043837875e-03 -6.3245553203367599e-01
    8.9268169524782219e-03 -5.9463531699773298e-01
    9.2255252932940523e-03 -5.5692048607273081e-01
    9.4604618863078985e-03 -5.3171657214065216e-01
    1.0042005384011012e-02 -4.8078662512020071e-01
    1.0216485829851253e-02 -4.6787335106502470e-01
    9.8039215686274508e-03 -5.0000000000000000e-01
    1.1076473440992699e-02 -4.1502867831964479e-01
    1.1796092524198745e-02 -3.8060453634200436e-01
    1.2955213043411318e-02 -3.3709993123162102e-01
    1.5432419482332616e-02 -2.7305934063637505e-01
    1.5432419482332616e-02 -2.7305934063637505e-01
    1.6357478434187719e-02 -2.5537695922762460e-01
    2.2065142545643769e-02 -1.8372608486985018e-01
    3.0944779111412461e-02 -1.2883132528016616e-01
    4.3582061509214128e-02 -9.0721842325302879e-02
    3.0944779111412461e-02 -1.2883132528016616e-01
    2.3539021490148269e-02 -1.7149858514250882e-01
    2.2065142545643769e-02 -1.8372608486985018e-01
    1.8937455819258202e-02 -2.1681454519599694e-01
    1.9819467084972894e-02 -2.0628424925175867e-01
    1.8937455819258202e-02 -2.1681454519599694e-01
    1.6894910526575081e-02 -2.4618298195866548e-01
    1.5030614031851420e-02 -2.8159395267835924e-01
    1.4322526914704535e-02 -2.9814239699997191e-01
    1.3717094544240116e-02 -3.1409347099260015e-01
    1.3192410187584998e-02 -3.2954102182865386e-01
    1.4322526914704535e-02 -2.9814239699997191e-01
    1.4322526914704535e-02 -2.9814239699997191e-01
    1.3192410187584998e-02 -3.2954102182865386e-01
    1.1486851418177308e-02 -3.9453818238351857e-01
    1.0505552365291212e-02 -4.4830836726171275e-01
    9.5905955740829725e-03 -5.1906651964220496e-01
    9.2255252932940523e-03 -5.5692048607273081e-01
    9.4604618863078985e-03 -5.3171657214065216e-01
    9.3986993781103555e-03 -5.3802758684897034e-01
    8.8824541225608587e-03 -6.0092521257733156e-01
    9.5243940441639852e-03 -5.2539667553827041e-01
    9.0199579790807369e-03 -5.8206341081333235e-01
    9.8803464263962325e-03 -4.9361404187383628e-01
    9.5243940441639852e-03 -5.2539667553827041e-01
    1.0216485829851253e-02 -4.6787335106502470e-01
    1.0308986987027681e-02 -4.6137976454187152e-01
    1.0505552365291212e-02 -4.4830836726171275e-01
    1.1343451480183071e-02 -4.0141928299260088e-01
    1.1206815816655063e-02 -4.0824829046386302e-01
    1.1343451480183071e-02 -4.0141928299260088e-01
    1.3717094544240116e-02 -3.1409347099260015e-01
    1.6357478434187719e-02 -2.5537695922762460e-01
    1.7494850488104050e-02 -2.3671603823699969e-01
    1.8937455819258202e-02 -2.1681454519599694e-01
    2.0847243915229966e-02 -1.9528336647123581e-01
    1.9819467084972894e-02 -2.0628424925175867e-01
    2.3539021490148269e-02 -1.7149858514250882e-01
    3.0944779111412461e-02 -1.2883132528016616e-01
    3.5658050325720655e-02 -1.1134044285378082e-01
    2.5371802860757322e-02 -1.5844431990595390e-01
    2.5371802860757322e-02 -1.5844431990595390e-01
    2.5371802860757322e-02 -1.5844431990595390e-01
    3.0944779111412461e-02 -1.2883132528016616e-01
    3.0944779111412461e-02 -1.2883132528016616e-01
    2.5371802860757322e-02 -1.5844431990595390e-01
    2.2065142545643769e-02 -1.8372608486985018e-01
    1.9819467084972894e-02 -2.0628424925175867e-01
    1.5872603638382058e-02 -2.6432744018203591e-01
    1.5432419482332616e-02 -2.7305934063637505e-01
    1.5432419482332616e-02 -2.7305934063637505e-01
    1.6894910526575081e-02 -2.4618298195866548e-01
    1.8170100122127185e-02 -2.2694084234167017e-01
    1.7494850488104050e-02 -2.3671603823699969e-01
    1.4662056336609915e-02 -2.8994964469744916e-01
    1.2732602250952300e-02 -3.4455980785230100e-01
    1.1796092524198745e-02 -3.8060453634200436e-01
    1.1963163730145030e-02 -3.7354368381881420e-01
    1.1486851418177308e-02 -3.9453818238351857e-01
    9.9596569493415107e-03 -4.8721015729737960e-01
    1.0308986987027681e-02 -4.6137976454187152e-01
    1.2523213223295091e-02 -3.5192784915259878e-01
    1.1637538025717624e-02 -3.8760126648920740e-01
    1.0833004733037640e-02 -4.2845639127810098e-01
    1.1486851418177308e-02 -3.9453818238351857e-01
    1.1076473440992699e-02 -4.1502867831964479e-01
    1.1206815816655063e-02 -4.0824829046386302e-01
    1.1486851418177308e-02 -3.9453818238351857e-01
    1.2523213223295091e-02 -3.5192784915259878e-01
    1.2955213043411318e-02 -3.3709993123162102e-01
    1.3717094544240116e-02 -3.1409347099260015e-01
    1.5432419482332616e-02 -2.7305934063637505e-01
    1.8937455819258202e-02 -2.1681454519599694e-01
    1.9819467084972894e-02 -2.0628424925175867e-01
    2.2065142545643769e-02 -1.8372608486985018e-01
    2.5371802860757322e-02 -1.5844431990595390e-01
    2.7735454108129082e-02 -1.4433756729740643e-01
    2.7735454108129082e-02 -1.4433756729740643e-01
    2.5371802860757322e-02 -1.5844431990595390e-01</input_scale>
  <output_scale>
    1.0526315789473684e+00 0.</output_scale>
  <inv_output_scale>
    9.4999999999999996e-01 0.</inv_output_scale>
  <weights>
    <_>
      -2.3731686274724467e-01 -6.8271992960001360e-02
      -4.8883147187914984e-02 -2.3802332295814032e-02
      4.3190950729589686e-02 -1.4821252042037438e-02
      2.2570465640314643e-02 3.9756208163876185e-02
      1.1054241909897757e-02 -4.0636966867189407e-02
      -2.4626859622773365e-02 -4.0580941365180416e-02
      -2.1357746402042709e-02 2.8216017920134385e-02
      1.3256569374903347e-02 -2.2936112384416757e-02
      1.7070161771015547e-02 -3.5364506948970344e-02
      3.5374408653877788e-02 -4.0394513667619709e-02
      3.9043548295536280e-02 -1.7140053919783130e-02
      -1.5317259014675592e-02 -4.9450749377199746e-02
      -2.2223997474787521e-02 1.4724140374253330e-02
      -4.9697601676306054e-02 4.4705325288978442e-02
      -2.1887495883051604e-02 -1.9013859248586739e-02
      5.6718870888524148e-02 7.1148356171636007e-02
      -1.4563495742609223e-02 -2.2965402867362442e-02
      -2.9672316324058829e-02 -1.3196492560032157e-02
      -4.7799214666958384e-02 -2.5904648554808132e-02
      6.5997524690264764e-02 4.4235097365388346e-02
      -2.4309536761280157e-01 -7.3017614961962088e-02
      -6.0515988760280977e-02 -2.0756829531390467e-02
      5.3106913471559707e-02 -1.9208631105389649e-02
      1.7798368525456288e-02 4.1623207336485252e-02
      2.2507383140408985e-02 -2.8744937960446588e-02
      -1.2064441036142853e-02 -4.5896013795528288e-02
      -1.5766730150032784e-02 2.6926153717236254e-02
      1.8656949804826083e-02 -1.2800721711046294e-02
      6.9316981195006143e-03 -3.4177180428416429e-02
      2.3569845278732692e-02 -2.7121224894965816e-02
      4.0444845903118698e-02 -4.7318844964778211e-03
      -1.3220412095158318e-02 -6.3532097906296450e-02
      -6.9585831821894657e-03 7.5749400909434833e-03
      -6.2639785934944653e-02 4.7056922933753430e-02
      -1.8991679895754555e-02 -8.2858047052314938e-03
      7.2028568004903273e-02 7.8943343061802743e-02
      -1.3224668167592995e-02 -2.1446298742311534e-02
      -2.9157849403911199e-02 -1.0159678812185201e-02
      -5.9301565171428101e-02 -2.4656881236523653e-02
      7.3086907603906140e-02 5.6244551802795022e-02
      -2.3156542473915306e-01 -5.4146611044949479e-02
      -5.0862587206662611e-02 -1.2768434005347771e-02
      4.5343759850088511e-02 -9.5638374653375692e-03
      1.1676744282188083e-02 2.9489238431875155e-02
      1.7098596188776193e-02 -7.9637598671199843e-03
      -2.5544945191954830e-02 -3.8129220765334440e-02
      -5.1892505192554826e-03 1.6278332259383476e-02
      1.9166629201991463e-02 -1.4187825081349893e-02
      1.7155094458960404e-02 -2.1259089891906596e-02
      4.4214139520168108e-03 -7.2281781460812530e-03
      2.9354567566690221e-02 -4.2610578758856621e-03
      -2.6503902147200421e-02 -5.4211215652213054e-02
      -9.0891932990253867e-03 7.9492782758400580e-03
      -5.1437874479854116e-02 3.2331711344277821e-02
      -8.2263701230305183e-03 3.1575251586005472e-03
      6.3286718424440197e-02 5.8696294663594349e-02
      3.3811696971039018e-03 -1.5873338839384087e-02
      -1.7039977661705872e-02 -3.8902317285068040e-03
      -5.1569837303051216e-02 -1.5879869645053137e-02
      5.7546220399491116e-02 4.8840337699804615e-02
      4.0531306170371406e-01 6.8640438842323200e-04
      2.2839511676147873e-03 -2.1530336798298764e-03
      -8.6770335284046436e-04 4.2779900094622479e-02
      3.4228448478392601e-03 3.4715291663147665e-04
      -3.4431392394219461e-02 -1.5206115407351993e-03
      2.3237409544267385e-02 5.6071124374829377e-04
      -4.2276633288664935e-03 -8.0030079593771915e-04
      -2.7818836429125377e-02 3.1220040406496254e-02
      -3.1295279989438686e-02 4.0151390646825250e-04
      1.3727765592780829e-04 -2.3630159615554338e-03
      1.2813100260775528e-03 3.7134675954147482e-02
      2.9818097610918349e-02 2.1319877197056702e-03
      5.8235040545594641e-02 -3.4419068684658265e-02
      -1.4179725123639386e-03 4.9539735797720513e-04
      -1.4234155951160798e-03 -5.1730317562171946e-03
      -2.1244998470298232e-03 1.7897348475547747e-03
      1.0730818417306230e-05 -1.2267025420903258e-03
      1.0655521681075444e-03 4.0811063995003130e-02
      2.3377672788676800e-03 4.1533262905153723e-04
      -1.1077206880646541e-03 -2.3325492550810901e-03
      -4.2999811259595523e-03 -7.3107698380727795e-02
      -5.2742331441160854e-02 -3.3350363733787421e-02
      4.6334991896557959e-02 -9.3800745788107636e-03
      3.3539134603648831e-02 4.9488043492557428e-02
      2.7792162951045859e-03 -9.2768619250273687e-02
      -1.3918882888671831e-02 -4.5168265982405829e-02
      -2.6802391437297450e-02 4.2250464096699775e-02
      -1.0479215224978349e-02 -1.4863374996017047e-02
      -4.9656867649106205e-03 -4.7712036293346943e-02
      9.2164417795852271e-02 -9.3643130508649475e-02
      4.3270027490144969e-02 -2.7166401146677525e-03
      5.1686662565918933e-03 -4.9733557660291451e-02
      -9.6931434460166242e-03 2.1950602975169785e-03
      -8.1726234521948729e-02 8.5404255312558131e-02
      -3.0786498129689754e-02 -2.7345167803766383e-02
      5.5366542728233908e-02 7.8753028140506789e-02
      -9.6709769860740508e-02 -3.7890443214252889e-02
      -4.9106749264464858e-02 -1.5061654211326689e-03
      -5.4048933912780456e-02 -3.8424077660285223e-02
      6.0100457828920067e-02 5.0057827701953210e-02
      -3.8742169599928411e-03 -7.4478691033180860e-02
      -5.1891564371006595e-02 -3.2720435079977260e-02
      4.7479078115308021e-02 -1.0729475601603320e-02
      3.3028306540083659e-02 4.9030532914431164e-02
      2.9320814454267870e-03 -9.2554444998282137e-02
      -1.5159507219360841e-02 -4.5576544966254302e-02
      -2.6608516426435448e-02 4.1844266697798643e-02
      -8.8796379534164735e-03 -1.4405076775584258e-02
      -5.6654302520494316e-03 -4.9109630175687313e-02
      9.0240800280905781e-02 -9.3794924596995399e-02
      4.3279611768632868e-02 -1.3260556275196381e-03
      6.5962374181544560e-03 -4.9620713434214314e-02
      -1.1683543059850749e-02 1.4997458616153269e-03
      -8.0124661992718310e-02 8.4647866188251500e-02
      -3.0292561431824804e-02 -2.7070332889735642e-02
      5.4719559081219893e-02 7.8654361121891406e-02
      -9.5232732488061272e-02 -3.6991422454210700e-02
      -4.7897007728513435e-02 -1.5999916900665558e-03
      -5.3270040979602612e-02 -3.8437284388294773e-02
      6.1156108385108002e-02 4.8632175146969457e-02
      1.8945499009696744e-02 -3.5197211501485602e-02
      -1.7935313586542750e-02 -4.3823381594357939e-03
      1.6272339168619296e-02 3.1996352267978079e-04
      6.5943929673000770e-03 2.0540135157550553e-02
      -7.6311564453034114e-03 -2.1698183569853063e-02
      -1.7255496127858247e-02 -1.9271037337642832e-02
      -3.1108197151528084e-03 1.5294578513536819e-02
      -1.9446241211570930e-02 -1.4026413481798146e-02
      5.8431107662577529e-03 -2.6147650065716191e-02
      1.9196347905090786e-02 -2.1529099483239507e-02
      2.0465428492432505e-02 -5.6307652330659192e-03
      8.9061944971679900e-03 -1.8381131366835966e-02
      -2.2333832504379723e-02 1.2069137135384010e-02
      -2.7134650082433931e-02 2.6144265451879523e-02
      -7.7923813191241951e-03 -5.7278557889045888e-03
      2.0444409487656488e-02 3.7794252240765373e-02
      -9.1735177688361449e-03 -9.0646053235646767e-03
      -2.1944980178354091e-02 -6.2926110324100001e-03
      -2.1260612593865615e-02 -1.0325501611273876e-02
      2.5030668168428121e-02 1.7602788219099465e-02
      -2.2368678709360310e-01 -6.4105771071230402e-02
      -5.6881864034453375e-02 8.2180008207933097e-03
      4.9059566104625904e-02 -4.2533203520416792e-02
      -8.5995347722355262e-03 3.7401575437713747e-02
      3.2253218335825777e-02 -3.2316209549424248e-02
      -4.4970350195709691e-02 -4.3326847862382403e-02
      3.5108060543516486e-03 3.0772408570041703e-04
      1.9001714483981035e-02 -4.9684963490614353e-02
      4.8026175127549059e-02 -2.3392234840479052e-02
      2.9603689937468265e-02 -3.2247926111188090e-02
      3.7532125073323583e-02 -5.2006298496066798e-02
      -3.0130222934863359e-02 -5.3546199336297812e-02
      -6.5935578303453923e-02 5.4708151404981413e-02
      -3.9766064821788599e-02 3.5329746734309012e-02
      -5.0278260602051026e-04 5.1530747692747000e-03
      5.7201789767530951e-02 6.0488518815827071e-02
      -2.0750819003963510e-02 1.0064592908140718e-02
      -9.9484664052805014e-03 -4.8982407988232494e-02
      -5.8158963843884914e-02 6.0623815080535423e-03
      6.6510711639923573e-02 5.2586651486850662e-02
      -1.6968005675880429e-01 -4.8448952399555913e-02
      -4.2189483829252410e-02 1.1695708641198448e-02
      3.6920740343008754e-02 -2.7476657315002380e-02
      -1.2544295534012396e-02 2.8221223647931806e-02
      2.0665642703219064e-02 -2.1732022918151864e-02
      -3.6410089475379083e-02 -3.3406598501532450e-02
      5.1676135715492495e-03 -6.6409842818358072e-03
      3.5320199501130004e-03 -4.1620512858589906e-02
      2.5616373905927081e-02 -2.0444351006614906e-02
      1.9015433725146573e-02 -2.1967795677353498e-02
      2.8769198488848548e-02 -3.2738280889440821e-02
      -1.1891007172169520e-02 -4.1661646619409826e-02
      -5.9929902200947627e-02 3.5849299868323581e-02
      -2.8012752753387771e-02 2.6399131707220462e-02
      -8.2322549598928102e-04 6.7550838609331705e-03
      4.2797545401074749e-02 4.7150751522863771e-02
      -1.2682540343837612e-02 1.3510509848388145e-02
      -6.7490248559036051e-03 -3.0999047703504479e-02
      -4.4113843243367382e-02 9.7025753889017005e-03
      4.8756062827804612e-02 4.0389102032324375e-02
      -2.5386030112742786e-01 -5.3164772862109022e-02
      -4.3839897205976384e-02 8.6251415280687478e-03
      3.9030109033316947e-02 -3.4402942135038771e-02
      -1.0013231519027129e-02 2.9908197042381183e-02
      2.2970288171984599e-02 -3.7871690522825602e-02
      -3.5480858972396195e-02 -3.4585144278647013e-02
      4.8138371018798323e-03 -2.4396413715973928e-03
      1.7919497161513760e-02 -3.9528704986874844e-02
      4.2539918706465320e-02 -1.6525367537516222e-02
      3.7605187996658081e-02 -3.8531477282647088e-02
      3.0197953818545308e-02 -4.0434763432700228e-02
      -2.7554663330728892e-02 -4.3514701002645019e-02
      -5.1242720512983814e-02 4.5526946851779125e-02
      -3.8697715138664428e-02 4.0995155537142308e-02
      7.3381968400041721e-04 5.9285460196767982e-03
      4.8300938631154040e-02 5.0447568220372115e-02
      -2.8157646172838578e-02 1.1248385207424799e-02
      -5.2130519844389043e-03 -4.0472471143243295e-02
      -4.6098227813124025e-02 8.6452691475306324e-03
      5.2734253405773035e-02 4.0666774572575247e-02
      -4.4798368957264195e-01 -3.5923585193855655e-02
      -2.3060498183608329e-02 7.8982077947663647e-03
      2.2073430591770513e-02 -5.5974395998745687e-02
      -9.1912222592687182e-03 2.3460828546398374e-02
      4.6577816925220152e-02 -4.8484555930955374e-02
      -4.3325848120644876e-02 -2.1796171652100214e-02
      6.1860666740037734e-03 2.0161371239105983e-04
      3.6661667035309486e-02 -4.7390966008870064e-02
      5.8342990379091755e-02 -1.8757517063476514e-02
      4.7363277800236997e-02 -5.1267197127086786e-02
      2.0837962947608580e-02 -5.5965649832497161e-02
      -3.8804214595461961e-02 -2.1737554091388722e-02
      -6.5454699073095618e-02 5.6143114395507350e-02
      -4.5015053222375312e-02 4.8813717662733111e-02
      1.7473099647513737e-03 5.5204442369940956e-03
      2.4638902732067106e-02 3.9363943483942052e-02
      -4.4930310662791968e-02 8.1599492595599375e-03
      -9.1170264393900038e-03 -4.2285852604186283e-02
      -2.3284614514600999e-02 5.8173867331606189e-03
      2.7223175081598376e-02 2.2158663905917451e-02
      -4.9903852580853247e-01 -5.2180386412822743e-02
      -3.4827304807417137e-02 -1.5391220402308838e-04
      3.1142465067111668e-02 -5.6724484874087509e-02
      -1.3616479691282504e-03 3.5440500088897597e-02
      4.4993299266319960e-02 -5.8180645328190901e-02
      -4.7014149746179290e-02 -3.2526622832424003e-02
      -7.0940439720222571e-04 7.1932301427551368e-03
      3.6933149189864720e-02 -4.7877990431295391e-02
      5.8831273424452081e-02 -2.6950464916324066e-02
      5.5659868376440130e-02 -5.7423797324786946e-02
      3.2312430403744485e-02 -5.6250210171572536e-02
      -4.2531402593185559e-02 -3.4583738360583947e-02
      -6.6559716332336094e-02 5.5934780813310526e-02
      -5.5996248572286030e-02 5.8090872320005552e-02
      -4.7327587059125976e-03 -1.9745395639588488e-03
      3.9571216928007642e-02 5.8113509484542233e-02
      -4.5505803655032741e-02 -4.9249943038509040e-05
      -1.5934035872658153e-02 -4.1537427249811971e-02
      -3.5953871038150238e-02 -4.6475906156646755e-03
      4.5427195407232508e-02 3.3929023022210250e-02
      1.7829782903133126e-01 -1.1545611251610419e-02
      1.2323648740217895e-02 -1.6792785343423738e-02
      -1.0726695349787306e-02 1.3788067090112904e-02
      2.0777984088212947e-02 3.5754572767889570e-03
      -2.4794529440930021e-02 -3.5352366671188240e-02
      -5.5247448320773608e-03 7.3225908398544155e-03
      -1.4309155857937517e-02 2.4399224757416578e-02
      -3.9000445528305859e-02 7.7481650657942175e-04
      -1.2257100444168577e-02 -1.7988690893470317e-02
      3.3406376438361925e-02 -3.5561203296739438e-02
      5.4279593915029648e-04 1.3816454305235785e-02
      3.4760084717920539e-02 1.3299806786615614e-02
      -4.4796617770463790e-04 -1.6757342040977386e-02
      -2.8523804365105116e-02 3.2357361650490017e-02
      -1.5199460622497222e-02 -1.8671823850816553e-02
      -1.1822203838621958e-02 1.8150979889863007e-02
      -3.4381051644798932e-02 -2.2329245083331156e-02
      -2.8081788546436271e-02 2.8100465082998290e-02
      1.3169292530200150e-02 -2.3416294717442235e-02
      -9.1782730239725798e-03 -1.3451262810752701e-02
      -1.5447893749623398e-01 5.5408307799701961e-03
      2.6834130800781973e-02 -5.6108585153821075e-03
      -2.3709201116951420e-02 -1.7329030240014781e-02
      8.8543168693569190e-03 -4.8565367692723462e-03
      1.7008782317070249e-02 -1.4494353468644496e-02
      -2.6220906067235861e-02 1.4594994942068633e-02
      2.1064035390975076e-04 9.0131565667732737e-03
      1.5168874103505800e-02 -1.0383830337576779e-02
      3.3539544101816039e-02 1.9482311934838233e-03
      1.2815901919784467e-02 -1.3494626509901972e-02
      -8.9399431695327582e-03 1.0273596531926683e-02
      -1.8849681086544258e-02 2.7208063711281698e-02
      -3.3563882418864511e-03 -7.8028615979005836e-03
      -9.4094511446732448e-03 1.3521188729320460e-02
      -2.6984650421861534e-04 -5.2044387913174148e-03
      -2.6948921937003822e-02 4.8180385145556214e-04
      -1.4655841932882888e-02 -9.6836657682347130e-03
      -5.3803254141007719e-03 1.8089659731727461e-02
      2.6511475640596614e-02 -1.0402344258597953e-02
      -2.6716620990376128e-02 -2.4906911533227161e-02
      -5.7414162812120462e-01 -4.0580012338861819e-02
      -1.9142496860584432e-02 9.1844135615652273e-03
      1.7608538525286259e-02 -6.0403900433883009e-02
      -7.8212297635678191e-03 2.8166868190323362e-02
      4.8856653684695342e-02 -5.6168569695457297e-02
      -5.2019594875223348e-02 -2.0606692344618302e-02
      6.8136005544324873e-03 -1.4547616050694131e-03
      4.2410492466967972e-02 -5.4432870305359642e-02
      5.0430645524291967e-02 -1.5962646675369535e-02
      5.4459721352681692e-02 -5.7630095091062823e-02
      2.5540721616366828e-02 -4.8409973806081009e-02
      -4.2898806726053000e-02 -1.7761823701270447e-02
      -5.7923088520624680e-02 4.4448083069555847e-02
      -5.2478533598704934e-02 5.5148263505536997e-02
      2.2123734246915186e-03 4.0759416846254297e-03
      2.1785260244348226e-02 4.9753268508114457e-02
      -4.7914718256716102e-02 1.0168025509743134e-02
      -3.5324573561246551e-03 -4.2142618607443540e-02
      -1.7755742905175623e-02 7.5577659919591261e-03
      2.4603379401365217e-02 1.5869483822811271e-02
      -2.2469720163872878e-01 -2.9849017014644791e-02
      -2.9028829512343320e-02 1.3740427663683136e-02
      2.6206371474617365e-02 -5.7306789106138525e-02
      -1.7642318647103312e-02 1.7729597685375048e-02
      5.0084495516719597e-02 -1.6804889097927999e-02
      -3.0438697456123522e-02 -2.5590030009022512e-02
      1.0323545636505626e-02 -1.1393628623410404e-02
      4.8736903951562965e-02 -3.6553887188908653e-02
      6.8402975295482074e-02 -4.4026038281656538e-03
      1.5358353026421761e-02 -1.8080231400435024e-02
      1.9616824848959834e-02 -6.7411937658205801e-02
      -5.1292658037945818e-02 -2.6582959515106124e-02
      -6.0217075651292667e-02 6.3902745032334618e-02
      -2.0097972102635683e-02 1.9601599441710194e-02
      7.4445915556157092e-03 1.3399246208083491e-02
      2.8206208001535969e-02 2.5758378028171960e-02
      -1.0703878634237517e-02 1.7541109078220408e-02
      4.1082931196566481e-03 -5.4528432670386436e-02
      -3.1154109973881395e-02 1.4691710815416937e-02
      3.1212084481417147e-02 2.6349968220306171e-02
      -3.5841887544827100e-01 -3.9694448609036266e-02
      -4.1632024575617023e-02 2.7931528690309744e-02
      3.7609235591799905e-02 -8.2329644501584531e-02
      -3.0630294339650383e-02 1.2545577743346701e-02
      7.5190324844400927e-02 -1.9210072979623825e-02
      -3.6398160584228900e-02 -2.8841083061728133e-02
      2.0455983040979106e-02 -2.2757910904223494e-02
      7.0878509980759938e-02 -4.1274934134727680e-02
